,locs0,locs1,locs2,locs3,subject
0,0.34036282,-0.08853814,0.31449562,2.1783416,0
1,-0.32166934,0.33786425,-1.6138248,-0.30011934,1
2,1.3376291,1.1962214,-1.5710855,1.9473913,2
3,0.6161805,-0.56444246,0.72506154,0.25005525,3
4,0.75469893,0.026726604,1.1193385,1.1755147,4
5,-0.32336673,-0.8989502,-1.3560883,1.4973595,5
6,0.62608,-0.28741968,1.0241187,0.98573387,6
7,-0.81033313,-1.1149747,0.5262944,-0.26973373,7
8,0.53528273,-0.89985037,-0.064673305,1.3703805,8
9,1.2101209,-0.9473984,-0.1838659,0.7531793,9
10,0.89893705,-0.59723747,0.81928754,0.4726955,10
11,0.405036,-0.39233774,0.46119654,1.0288796,11
12,-0.10269288,-0.9656088,-1.7003474,1.1198236,12
13,1.3994725,-0.97162277,-0.46348774,1.5061908,13
14,-0.17365728,0.75639385,-1.4276993,-0.42909092,14
15,-0.62256193,-0.21147174,1.0680139,1.382216,0
16,0.43560842,0.7962829,-1.8161991,0.80205905,1
17,-0.5646538,-0.08241737,-1.063297,1.2559347,2
18,-0.19212037,-1.8993769,-0.80018127,0.23736852,3
19,0.64178306,-1.4338216,0.41544175,0.9935232,4
20,0.096213356,-0.3726579,-1.4335437,-0.33114475,5
21,1.6880527,0.2954141,1.4977074,2.0011911,6
22,-0.9758946,-1.2346387,0.8656039,-0.33231288,7
23,0.0635401,-1.6105044,-0.37262234,0.6132736,8
24,0.82967526,-0.94040316,0.6452217,1.5741836,9
25,0.39764246,-1.0723479,-0.02589199,0.31472594,10
26,0.8579972,-0.050339162,1.6459012,1.1373951,11
27,-1.9731953,-0.4558382,1.269019,2.3062797,12
28,0.689349,0.00804013,1.4414525,0.9492831,13
29,0.8278418,1.8434939,-1.0215508,1.3855618,14
30,-0.25835082,-0.7607099,-0.6319139,0.9271799,0
31,0.8989068,1.5489668,-0.9437309,0.1819355,1
32,-0.37328437,0.41842303,-0.7915443,0.22371453,2
33,0.78813356,-1.0179034,-0.1507969,1.229449,3
34,1.4880016,-0.79919195,-0.63439703,1.7616973,4
35,-0.052338153,-0.3121169,-1.0857877,0.79422534,5
36,1.8134279,-0.658165,-0.7289674,1.0120652,6
37,0.4568143,-1.2662634,0.19240889,0.374314,7
38,1.2119067,-0.25627568,0.42833894,1.5816853,8
39,-0.33379918,-1.859017,-0.8395158,0.76979005,9
40,1.0543137,-1.1039677,-0.10747254,0.7750791,10
41,0.68885905,-0.62128985,0.6353519,0.9951826,11
42,0.58710766,-0.10914848,-0.9890803,1.2308418,12
43,0.74319184,-1.2351559,-0.47733825,1.2060405,13
44,-0.5140499,0.11139166,-1.9497926,-0.21567327,14
45,-0.61684585,-0.60972023,0.6727029,3.1834235,0
46,-0.7172694,-0.15493202,-1.3025486,0.65227515,1
47,0.07922189,0.96166104,0.22162735,0.5743956,2
48,1.5924382,-0.14650428,0.7011239,1.7286122,3
49,0.27638325,-1.3184029,-0.3554297,0.23269033,4
50,-0.6951065,-0.12723882,0.41682053,1.2482203,5
51,1.4591317,-0.73738813,0.58330023,0.8843195,6
52,1.724134,-0.4764583,0.77732694,0.96354085,7
53,-0.14298147,-1.9283586,-1.6422198,1.4577078,8
54,-0.014287174,-0.85339665,1.046812,0.26125187,9
55,0.389117,-0.678761,1.1729534,0.5087105,10
56,1.5545955,-0.85998416,-1.1467122,2.0460987,11
57,-0.21825299,0.51437294,0.9958017,2.0610847,12
58,0.09606856,-0.91080415,0.03892781,0.3516183,13
59,-0.75966716,-0.14932871,-1.5548985,0.6506424,14
60,-0.34385577,0.33156964,1.4068822,0.6731996,0
61,-0.09769167,0.4790261,-0.94578516,1.1285532,1
62,-0.020487316,0.59792984,-1.0142866,-1.0499516,2
63,0.9086558,-1.5574322,-0.21189608,1.2881085,3
64,0.9938078,-1.0530183,-0.3690406,1.6676431,4
65,0.0128851235,0.07100828,-0.31175226,1.9984286,5
66,1.5586932,-0.6461042,0.6204028,0.95561826,6
67,1.870559,-0.27254742,1.2004799,0.58594847,7
68,1.6439891,-0.21325296,-0.5703651,1.5310593,8
69,0.56405145,-0.6257719,0.39671522,0.67927593,9
70,0.48531744,-0.8130587,1.1685841,0.803975,10
71,1.0911124,-0.930921,-0.7976329,1.7670492,11
72,1.0188652,-0.14361426,-1.5816698,1.1295286,12
73,1.2059345,0.24435318,1.8392627,1.0442226,13
74,-0.616308,0.26718327,-1.1053418,1.5057588,14
75,0.16502112,0.54487324,1.7694571,1.968465,0
76,-0.45864844,0.35979307,-1.0134444,-0.5818519,1
77,-0.92415345,-1.2165201,-2.2673755,1.7620804,2
78,0.7865115,-0.8308598,0.44001883,1.2213998,3
79,-0.07080525,-1.4929838,-0.18672012,-0.053955197,4
80,-0.97373354,-1.363438,-1.7823322,0.3659963,5
81,-0.73827505,-2.3971586,-1.4036206,-0.015547752,6
82,-0.3314079,-1.3864201,0.8185823,-0.15418738,7
83,0.39526093,-0.74525607,1.3295631,0.9430224,8
84,0.8088744,-0.048454285,1.2049091,1.9995496,9
85,0.8333973,-1.0009067,0.43202573,-0.09703076,10
86,1.8466957,-0.41214415,-0.09364823,2.2632992,11
87,0.4111335,0.5818744,0.65459156,3.224133,12
88,1.2419295,-0.4248593,1.0620611,1.6677285,13
89,-0.5808956,0.6666781,-0.1929844,0.3128581,14
90,0.29171613,-0.60272574,-1.0039824,0.93138885,0
91,-1.3166261,0.7827919,1.4900355,1.2147877,1
92,-1.0901692,0.17183572,0.02493465,-0.14515877,2
93,1.0143745,-1.172876,0.13074993,1.1659093,3
94,0.7962161,-1.0169346,-0.86746836,1.1582866,4
95,0.83144283,0.6439042,0.04099852,2.1357849,5
96,0.31716928,-0.56152457,1.4391556,1.182647,6
97,-0.16727334,-0.9611983,-0.49644276,0.84503955,7
98,1.3526521,-0.19617248,0.546525,0.95304906,8
99,1.6875958,-0.44151652,0.4629863,1.3210173,9
100,0.24887788,-0.9539294,1.6716989,0.18022579,10
101,0.12391782,-0.8120526,0.38090622,0.64517874,11
102,-2.381216,-0.46651787,1.2627158,0.8985122,12
103,0.25874552,-0.43190768,1.6511917,0.0070871115,13
104,-1.2456154,0.33058935,0.41673028,0.3320811,14
105,-0.8186208,-1.3431181,-0.8338942,1.3299185,0
106,-1.0738744,0.20465666,-0.54300165,-0.85306996,1
107,0.013278209,0.19089666,-1.8466902,-0.5606279,2
108,0.8149333,-1.3467741,-0.536834,1.4687452,3
109,1.3609083,-1.1397777,-0.21479599,1.0576638,4
110,0.8378047,0.40907043,-0.42847103,0.761389,5
111,0.4027317,-1.084839,-0.23228297,0.24505645,6
112,0.44952908,-1.214332,0.93725765,0.6323395,7
113,0.968387,-0.22502354,0.39908728,0.4515593,8
114,0.47390485,-1.5450288,-0.3037789,0.5676786,9
115,0.42469937,-1.691652,-1.1883931,0.37174815,10
116,-0.104497015,-1.2737434,-0.57728714,0.4603024,11
117,-0.44796553,0.07839419,0.60277116,2.4315991,12
118,-0.13506132,-1.0877593,0.66654277,0.17688978,13
119,-0.9272337,0.43989006,-0.48574057,0.19999236,14
120,-0.8728855,-0.768312,0.6249259,1.679894,0
121,0.085059136,0.62389684,-1.3975568,-0.036227986,1
122,1.0212449,0.5897053,-2.2766752,1.0201972,2
123,-0.13799673,-1.9176357,-0.5794604,0.44225407,3
124,0.23762536,-1.3066807,-0.8539536,0.4424613,4
125,1.0561117,0.47765118,-0.4028726,1.1309743,5
126,0.983238,-0.8724278,0.04688862,1.151026,6
127,0.96218127,-0.883767,0.27132335,1.2835441,7
128,0.455661,0.7040871,2.1915689,0.9255074,8
129,1.3088087,-0.23962659,1.4476522,2.36278,9
130,1.4286499,0.18128872,1.4862947,1.1382895,10
131,0.38434666,-1.2809154,-0.71338475,1.0494609,11
132,-0.7508962,0.20474686,1.1087339,2.4623177,12
133,1.0644407,-0.035815835,0.6054803,0.6442424,13
134,-0.12051189,0.960892,-0.18770623,1.1746349,14
135,0.34516242,-0.007427871,0.39202428,1.509236,0
136,-0.57090247,1.2713625,1.0179608,1.4577136,1
137,0.0578553,0.19300821,-2.0203674,0.8096493,2
138,1.4191847,0.100120425,1.0525004,1.406462,3
139,-0.018088281,-0.8915507,1.098929,0.59339017,4
140,-0.9576099,-0.6460369,-0.37536085,1.1975756,5
141,0.7989543,-0.9038826,0.5197284,0.13483608,6
142,0.88704896,-1.330915,-0.060394168,1.0889835,7
143,0.1400328,-1.4003495,-0.21762517,0.8707665,8
144,2.0245914,-0.4425408,0.5904859,2.4203997,9
145,0.37721908,-1.5219593,-0.08780211,0.43462104,10
146,1.0252188,-1.6730523,-1.4806556,1.6399577,11
147,-1.9770125,0.2574545,3.4611697,3.9969635,12
148,-0.18405056,-0.72894037,1.0969121,0.5236062,13
149,-0.3300503,0.66551065,-0.74020916,1.647896,14
150,-0.15301669,-1.2346171,-1.017532,0.9052896,0
151,-0.48130676,0.9930051,-0.37983644,0.4017163,1
152,-0.28585255,-0.13324195,-1.2604206,1.9681861,2
153,0.63425106,-0.84125817,0.59836733,0.52265507,3
154,1.2756369,-0.9326681,0.15939559,1.6465902,4
155,0.7963127,0.07068768,-1.2128414,-0.08659935,5
156,1.292072,-0.56570446,0.08344507,1.0480821,6
157,1.6807842,0.19536501,1.8973628,1.682817,7
158,1.6487591,0.1558516,0.26566717,1.5444943,8
159,0.22171712,-2.2634215,-1.0074326,-0.4809792,9
160,0.13791817,-2.12005,-1.8092715,-0.22912079,10
161,0.6476005,0.05104679,1.6316494,0.4721015,11
162,-1.4737567,-0.5374023,0.24418977,1.8400036,12
163,1.5508474,0.10293943,1.1573536,1.2950716,13
164,-0.59337604,0.6208428,-1.2165623,-0.93658346,14
165,0.72181815,0.21151587,0.68066263,2.127368,0
166,-0.688648,0.864306,0.19232213,0.45467567,1
167,0.01778093,0.1470015,-1.1730286,2.2447293,2
168,1.2891146,-1.1058393,-1.2036952,0.64021695,3
169,0.51551765,-0.76091146,-0.086777404,1.171838,4
170,-0.08937502,-0.018391714,-0.13685489,0.9115168,5
171,0.051038384,-1.3947746,1.0926691,0.17267925,6
172,1.5821865,-0.25030506,0.87519693,2.0262895,7
173,0.8379923,-0.4185874,0.2825433,1.084953,8
174,0.5233356,-1.6470797,-0.40022457,0.2667101,9
175,1.344842,-0.50217164,1.0130265,1.0745909,10
176,0.11163753,-1.198463,-0.25204515,0.52555,11
177,0.6054647,-0.051021628,-0.83785164,1.4605594,12
178,0.41631502,-0.67765254,0.33328295,0.51782656,13
179,0.413814,1.2941816,-0.44773054,1.477767,14
180,-0.49464384,-0.8907666,-0.47618416,1.6504287,0
181,-0.5443664,0.4387614,-0.19520408,2.2722797,1
182,-0.16774935,0.64276886,-0.45886552,0.05059254,2
183,0.13890648,-1.6102338,-0.37311554,1.4858645,3
184,0.74119025,-0.91492367,-0.49619275,1.668153,4
185,0.61389565,-0.49397188,-1.9293579,0.91291314,5
186,1.8541253,0.30172503,1.5462903,1.0472045,6
187,0.020404398,-1.4514556,0.05794862,1.1583769,7
188,-0.11641055,-0.60670793,1.8519317,0.37775695,8
189,0.9315476,-0.50280076,1.9041712,1.3231828,9
190,0.7858755,-0.56780595,-0.089310884,0.38153714,10
191,1.8497653,0.49918985,1.2558941,1.3476555,11
192,-0.094333045,0.17801903,0.21412775,0.8973227,12
193,1.5370182,-0.5652193,-0.43797517,0.61897796,13
194,-0.9550054,0.29875338,-0.33187056,0.34540874,14
195,-0.7066,-1.625777,-0.82714725,2.1215358,0
196,-0.6814612,0.4702632,0.0035686493,1.7261019,1
197,0.6844934,0.8130748,-1.9856403,-1.1779549,2
198,0.5606091,-0.65655744,0.08205198,0.2892387,3
199,-0.06662077,-2.117567,-1.4280207,0.3511194,4
200,-0.077761084,-1.0753828,-1.8533261,1.3674893,5
201,1.0913309,-0.23687947,1.9634873,1.5897284,6
202,1.0269735,-0.7050271,0.4992258,1.9580956,7
203,0.6791057,-0.3745926,0.68631077,0.32190055,8
204,1.7004514,-0.44186577,0.8250222,1.7466104,9
205,-0.10538,-1.5015924,-0.27680886,-0.06378895,10
206,1.6888888,-0.34643173,-0.2789169,1.7873125,11
207,0.3430489,-0.44130898,-1.780398,0.52325106,12
208,0.24429867,-0.9441148,0.13883464,0.7088622,13
209,-0.593153,0.573362,-0.8465978,0.38383737,14
210,0.18999803,0.04581794,0.57966924,2.1510434,0
211,-0.42560688,0.3613565,-1.5975823,-1.1211035,1
212,-0.2439501,0.3246272,-0.7314458,0.84394485,2
213,-0.19723952,-0.44559193,0.5717042,0.31974596,3
214,0.1481353,-0.5811832,0.92918813,0.24970669,4
215,-0.9251511,-0.8962333,-0.5931692,1.4366426,5
216,-0.19919813,-1.3597728,0.35615814,0.0068757534,6
217,-0.5362309,-1.9665568,-0.30444095,0.16125709,7
218,0.29219893,-0.74079126,0.14360914,1.8439858,8
219,0.04340923,-1.4812355,0.034118295,0.75307214,9
220,1.2729539,-0.45411217,0.44487846,1.5872529,10
221,0.7520519,-0.26863232,-0.6309987,1.4681809,11
222,0.7577561,-0.13869807,-1.1951885,3.329063,12
223,-0.097360015,-1.2202777,0.2238359,-0.3828435,13
224,-0.1574425,0.93101346,-0.16115117,0.7793539,14
225,-0.011387996,-0.1380161,0.68706876,1.9827708,0
226,0.35840014,2.1482236,0.15075481,0.06507577,1
227,0.872437,0.36512947,-2.500311,2.0652237,2
228,1.3592389,0.083099484,2.1299503,1.8116715,3
229,0.38175675,-0.9146682,0.16397823,0.39456576,4
230,0.10436399,-0.5381601,-1.6898711,0.35009164,5
231,1.0161148,-1.1381645,-0.9267851,0.62754434,6
232,1.0797786,-0.08637768,1.4604132,0.72994125,7
233,0.7898688,-0.30625403,0.84594667,1.0442655,8
234,0.9869192,-0.50223505,0.74816996,0.9574291,9
235,1.1799297,-0.44743705,0.8531293,0.53021705,10
236,1.0561289,-0.44545263,0.7231951,0.8483374,11
237,-1.5556043,0.59337145,2.956846,2.8890557,12
238,0.32662398,-0.5338939,1.008822,0.93006504,13
239,-0.7339208,-0.28050536,-2.0019,0.8015467,14
240,-0.70329845,-1.3706752,-0.71452224,1.3756988,0
241,-0.7966434,0.02333635,-1.1658614,-0.9766268,1
242,0.6764924,1.2776182,-0.52078575,1.4879606,2
243,1.057647,-0.35086572,0.81737536,1.1436498,3
244,1.955545,-0.28220135,0.39128745,1.3910263,4
245,0.07316485,-0.20508526,-0.8574086,0.58964646,5
246,0.2143994,-0.13701558,1.9112692,0.6256411,6
247,1.7659931,-0.2670803,1.5616691,0.94838333,7
248,-0.017411768,-1.3800604,-0.09758085,0.8996768,8
249,0.83589625,-1.552579,-0.65498567,1.240841,9
250,0.3600908,-1.2393389,0.6873745,0.8873892,10
251,0.5658788,-1.1605835,-0.7126299,0.9486919,11
252,-1.219176,0.09961267,1.3910525,2.0872731,12
253,0.5579688,-0.5087635,1.1596344,0.4378493,13
254,-0.4393167,0.7995054,-0.3392719,0.20334703,14
255,-1.0422451,-0.59932303,-0.097302705,1.1521215,0
256,-0.13060862,0.5208857,-1.3622272,-0.033589795,1
257,0.34403294,0.5963936,-1.1281078,1.7616214,2
258,0.8803026,-1.3332661,-0.9418582,0.5504348,3
259,0.98333657,-0.24070346,0.74861187,1.1932238,4
260,1.5369679,1.0558429,0.037840188,2.1839287,5
261,-0.20933133,-1.9890839,-1.4215833,0.6770533,6
262,0.7294601,-1.5901217,-1.1492978,1.4106606,7
263,0.47647423,-0.049990356,0.4028351,0.7147274,8
264,0.933915,-0.9674862,0.49285662,0.040296614,9
265,1.3973261,-0.6728283,1.448373,1.3651925,10
266,0.18961191,-1.0575699,-0.4086256,0.6008171,11
267,0.33890972,-0.17608383,-1.360164,0.55554533,12
268,1.2016971,-0.76059663,-0.81778616,1.1227717,13
269,-1.0103431,0.25562054,-0.38936,0.3721547,14
270,1.3386253,0.37677208,0.015158009,1.6427673,0
271,-0.94699836,0.5211987,0.44626236,1.2082559,1
272,-0.13277367,0.36027026,-1.0760419,0.78105104,2
273,0.77820164,-0.6938801,0.33820745,1.1863099,3
274,1.0237911,-0.84302795,-0.10606028,1.4106061,4
275,0.04621491,-0.31833944,-1.099052,1.2868538,5
276,0.15920973,-0.7895938,0.44906375,0.0026065707,6
277,1.4505007,0.36729044,2.142494,2.1524463,7
278,1.2220107,-0.5765549,-0.8982054,1.4912329,8
279,1.6173217,-0.65774095,0.27798465,1.5471213,9
280,0.23964876,-1.2656554,0.06558353,0.4390035,10
281,1.5546361,-0.057141483,0.21800193,1.534642,11
282,-0.50895983,0.5543773,1.441412,2.8973813,12
283,0.3996849,-1.566952,-0.77831066,0.7644726,13
284,-1.7904289,-0.060984373,0.6570889,1.0643163,14
285,-0.3224291,-0.75272167,-0.17951551,1.0764724,0
286,-1.0700376,0.09324974,-0.20527422,0.8107383,1
287,-1.0161909,-0.15279984,-0.8643304,-0.29974908,2
288,1.2322438,-0.57144785,-0.019459456,1.2523284,3
289,-0.62873626,-1.5598152,-0.13876824,-0.10221392,4
290,0.6561433,0.113852784,-1.2274753,0.4736952,5
291,0.81616855,-0.9659892,0.10765067,1.1527448,6
292,1.3789141,-0.4970184,0.6996732,1.6788824,7
293,1.3667138,0.32715493,0.90306604,1.6760423,8
294,1.36737,-0.54933167,0.8941978,1.2658161,9
295,-0.38822973,-1.6094587,0.7141354,0.08752406,10
296,-0.24325335,-0.89526135,-0.19153759,0.6582898,11
297,-1.5583797,-0.7267487,-0.24268883,0.011432052,12
298,1.1510917,-0.9573624,-0.6317811,0.6196531,13
299,-0.5045247,-0.114836514,-2.350836,-0.07208496,14
300,-0.85430235,-0.55891573,0.5561503,1.1900615,0
301,0.07421842,0.92474055,-1.3190789,-1.0172809,1
302,0.33297423,0.6856091,-0.9308408,0.6819558,2
303,1.6254529,-0.16955376,0.023637846,1.0748866,3
304,0.2948705,-2.194759,-2.4469206,1.1143405,4
305,0.43760204,-0.11426696,-0.9784783,0.9865111,5
306,0.909526,-1.0501864,-0.357218,1.0295829,6
307,-0.079939485,-1.3015113,-0.0823327,0.17340893,7
308,0.59391904,-1.4502668,-0.95143235,0.6688178,8
309,0.54305494,-0.5979643,1.3104992,1.0254862,9
310,1.068984,0.17226052,2.866427,0.5187813,10
311,1.1737819,-0.84930027,-0.615324,0.87385535,11
312,-0.55269253,-0.08476599,0.34309778,2.1967406,12
313,1.1730778,0.089505374,1.9103839,0.48040473,13
314,-0.8690868,-0.20143932,-1.3119524,0.51892424,14
315,1.3684026,0.3234888,0.72388434,3.7460403,0
316,0.47840115,1.4192353,-1.1825091,-0.21485628,1
317,0.64769554,0.8462628,-0.808587,0.85650104,2
318,0.04665512,-2.0351338,-1.0441817,0.31397706,3
319,0.27066234,-0.78337544,-0.16317092,0.42277628,4
320,-0.32786253,-0.48506528,-0.60972726,1.167803,5
321,-0.2467013,-1.5003121,-0.15166703,0.5184632,6
322,-0.06219822,-1.0007873,-0.06959763,0.76023006,7
323,2.01908,0.03777498,0.026054233,1.6609921,8
324,2.0063388,-0.13895959,0.3604001,2.7340791,9
325,-0.15471202,-1.8734596,-0.2416277,-0.09425503,10
326,1.2454106,-0.7910403,-0.014538296,0.83665884,11
327,-0.64814377,-0.40703297,-0.6970974,0.31339216,12
328,1.3642523,-0.28171834,-0.29617727,1.7002263,13
329,-0.22728783,0.588895,-1.6818482,0.0226444,14
330,-0.23281589,-0.48539603,-0.021597654,1.2577906,0
331,-0.33991972,0.45014852,-1.1359961,0.61899084,1
332,0.18279123,0.92036474,-0.25558686,0.48038068,2
333,0.6530248,-1.8427575,-1.4130081,0.3983217,3
334,1.4672861,-0.73048925,0.3127774,1.697335,4
335,0.8530588,0.20067151,-0.7343954,0.93302834,5
336,0.20222688,-0.9888099,1.3449025,0.5997578,6
337,0.74151105,-2.273452,-1.7097803,1.0579838,7
338,-0.022549033,-1.6119831,-0.14709911,0.856794,8
339,1.6353095,-0.19259727,0.93994725,0.98484397,9
340,0.16179109,-1.5625678,-0.4158693,-0.085519254,10
341,-0.35028636,-1.92905,-0.63076204,0.5816424,11
342,0.99001515,-0.3733827,-2.0034063,0.5844341,12
343,0.6442414,-0.95879966,0.1373198,1.1761692,13
344,-0.48978403,0.9871924,-0.51084554,-0.25993794,14
345,0.9498386,0.5017123,0.8418644,2.1883233,0
346,0.44736877,0.95175904,-1.7495242,-1.0508884,1
347,1.1139113,1.1133194,-1.2459029,3.0180345,2
348,1.4115264,-0.6229844,-0.17571701,1.2639227,3
349,0.6665066,-1.272975,0.21585162,1.1525649,4
350,-0.0033154786,-0.17008787,-0.5561865,1.3269405,5
351,0.7213937,-0.9516275,1.4708989,1.9224017,6
352,0.5178267,-0.46981093,1.4556799,0.68609613,7
353,-0.26807678,-1.0361284,1.3315479,-0.1771754,8
354,1.8530374,-0.4798156,0.067011654,2.1317978,9
355,0.8398877,-1.8110402,-0.67641354,0.8171829,10
356,0.20027208,-1.1655197,0.7736635,0.07989061,11
357,-0.4735799,-0.61780065,-1.4105995,0.16811383,12
358,1.8500869,-0.012775242,0.6357411,1.5724523,13
359,0.5441456,0.8881345,-1.8658695,0.8017528,14
360,-0.17273682,-0.4719016,0.6047736,2.5215948,0
361,-0.5611017,0.67845416,-0.08159679,-0.011837736,1
362,0.5245757,1.1037205,-0.44105792,2.3443108,2
363,0.8717019,-1.7833097,-1.9871863,1.317999,3
364,0.73832226,0.079189,1.6664264,0.9180768,4
365,-0.041554958,-0.41079557,-0.85597706,0.98489124,5
366,0.13048947,-0.88847685,0.6522885,-0.07967371,6
367,0.92906797,-1.7393796,-1.3575965,0.9419082,7
368,0.44113675,-0.3585856,1.0481311,1.4354622,8
369,0.862601,-0.42330152,1.7520981,0.87404263,9
370,0.53075945,-0.22359645,1.4692166,0.53587604,10
371,-0.12502867,-0.72562313,0.57579386,0.4861865,11
372,0.12655172,-0.3916313,-0.7012869,2.05544,12
373,0.71245646,-0.5280578,0.38629237,0.124553144,13
374,-0.6098679,0.39100334,-0.4567804,1.4237359,14
375,-0.24152058,-1.1214724,-0.8479469,1.3163401,0
376,0.42216852,1.0825801,-1.5257391,0.9781428,1
377,-0.20432293,0.66135246,-0.15102601,-0.13423914,2
378,-0.1680299,-1.2079268,-0.5017493,0.21387327,3
379,1.4884326,-0.5201673,0.50552404,1.3535715,4
380,0.07802279,-0.60957354,-1.5857323,0.7800251,5
381,0.028524995,-0.19215298,1.6062657,0.5091398,6
382,-0.011008918,-2.4464803,-1.4525197,-0.026414335,7
383,2.3262954,0.86230725,1.8094411,2.4424353,8
384,1.6690539,0.39945543,1.5327536,2.402822,9
385,0.33521843,-1.2625601,0.23145543,0.6024715,10
386,1.6192267,-0.106113434,0.23906729,2.014109,11
387,-0.13238613,-0.30725142,-1.1159011,0.43859994,12
388,0.73853254,-0.69314533,-0.19166553,0.9904522,13
389,-0.5970104,-0.28530306,-1.5086483,0.14841384,14
390,-0.28243512,-0.87141657,-0.22136235,2.2028327,0
391,-0.64815485,0.40209424,-0.6444808,-0.16480277,1
392,0.10853487,0.91935277,0.20239115,1.8080897,2
393,0.3705336,-0.57288235,0.8774451,0.6737597,3
394,0.9537665,-0.6082264,0.8478707,1.4589474,4
395,0.76995695,-0.25856513,-1.8195577,-0.38161987,5
396,0.89828205,-0.59242415,0.28501967,0.83650094,6
397,0.69913274,-0.33915272,1.2248418,0.09422892,7
398,0.57482606,-0.4494202,1.1088119,0.6550526,8
399,0.6457494,-1.1199538,0.64299,0.78301203,9
400,0.44764024,-1.1660975,0.66825837,-0.092048585,10
401,1.0534596,-0.7062251,-1.023353,1.3809555,11
402,-0.44801036,-0.060280226,0.18123052,2.2306123,12
403,1.2138138,1.0249571,2.627849,1.016431,13
404,-1.0923449,0.37069875,0.4070078,0.44065738,14
405,-0.70125115,-0.76688397,0.20687473,1.5253588,0
406,-0.4789323,0.75488406,-0.31061023,0.23608452,1
407,0.16683298,0.6168575,-0.63899803,1.6244276,2
408,0.08588439,-0.6182581,0.7459705,0.2938344,3
409,0.86422575,-0.28425917,0.48894298,1.2207526,4
410,-0.85219777,-0.5041246,-0.23180771,2.0737863,5
411,-0.041953444,-1.152401,1.0675238,0.33557817,6
412,0.15237921,-1.4603581,0.16492134,0.73817265,7
413,1.2260429,-1.4756031,-1.812406,1.832121,8
414,1.2690353,-0.6817249,0.7916672,1.2912505,9
415,1.1078455,-1.0061092,-0.5238764,1.1057017,10
416,1.1922762,-1.1496142,-1.7490919,1.7321267,11
417,0.80862117,0.011727601,-1.4595017,0.60949874,12
418,0.42225888,-0.7434247,-0.11531961,0.92617905,13
419,-0.60374105,0.10601914,-1.5489126,-0.7946016,14
420,0.5896757,-0.54516184,-0.87445074,1.3596818,0
421,0.59163857,1.6236924,-0.85011727,1.1292968,1
422,-0.3917252,0.30887845,-0.50440186,1.7979751,2
423,0.8191867,-0.96065897,0.13448709,0.91723555,3
424,0.28195757,-0.2680906,0.91476446,0.6812855,4
425,-0.2496706,0.047919318,-0.236624,0.44991055,5
426,1.2979448,-0.36632997,0.48443437,1.0351003,6
427,0.4043368,-1.4638438,-0.30617216,1.0467376,7
428,1.0332675,-0.85545325,-0.78529656,1.9280871,8
429,0.66874194,-0.84995407,0.5198306,1.1751631,9
430,-0.20329535,-1.5868328,-0.4300986,-0.0083556175,10
431,1.3095797,0.037424028,0.27810857,1.3978673,11
432,-0.6027766,0.36291057,1.4869201,2.7107613,12
433,0.9932077,-0.11938107,-0.013324082,1.251761,13
434,0.099528074,0.3770414,-2.274485,1.0994253,14
435,0.8270391,0.42577484,0.6129653,1.9649527,0
436,-0.07351273,0.4018113,-0.81250954,0.71770644,1
437,0.8815249,1.0830894,-1.1839535,1.2199717,2
438,1.0088851,-1.6295606,-0.9863136,1.3660201,3
439,0.42559874,-2.2167087,-2.7691255,0.69522893,4
440,0.18703637,-0.12856665,-0.5316299,0.5740998,5
441,0.80681247,0.04488319,1.7425482,0.91251236,6
442,0.9046228,-0.92729515,0.6955745,0.8148049,7
443,0.44235355,-0.048760593,0.8312515,0.8522724,8
444,1.2614086,-0.4709245,0.26885116,1.2968614,9
445,1.4107575,-0.6814606,0.22890702,1.174331,10
446,1.0109034,-1.210225,-0.562316,1.3484005,11
447,-0.8544011,-0.2807684,0.18872789,1.6896691,12
448,-0.6851645,-1.582972,-0.26314655,-0.39132178,13
449,-0.23476793,1.0849774,-0.15243608,1.2976675,14
450,0.85626525,0.073491186,0.032329824,1.7337881,0
451,-0.43426996,0.50918955,-0.64248925,0.28745127,1
452,0.5529183,1.11535,-0.6783942,1.1372917,2
453,1.4900074,-0.33809924,0.70407516,0.94815934,3
454,1.1397387,-0.88100725,0.026808634,1.3015754,4
455,-0.066678345,-0.57729745,-1.3450747,1.1566803,5
456,0.64658266,-1.1900976,0.24923936,1.1138859,6
457,0.023664415,-0.8282801,0.28951094,0.13855338,7
458,0.40775055,-1.2101951,-0.12060583,1.4477054,8
459,0.44261825,-1.0132326,0.031947672,0.9870226,9
460,1.2602817,-0.95652926,0.6743727,0.7250183,10
461,-0.09266931,-1.3729471,-1.5336477,0.3000015,11
462,0.6832086,0.08257502,-0.5498606,1.1951213,12
463,0.10483104,-0.7906401,0.50041735,0.43723628,13
464,-0.3546804,0.37286612,-1.8253706,-0.4927041,14
465,0.38201436,0.4146053,0.85791194,1.7162628,0
466,-0.5528272,0.78376865,-0.23804629,0.57974094,1
467,0.75951093,0.8345112,-1.6565758,-0.094769,2
468,1.5279233,-0.26705468,0.11058389,1.4392601,3
469,0.36072576,-0.6663705,0.27033353,1.4642671,4
470,0.33769396,-0.1749736,-0.6973239,1.2316432,5
471,-0.5084952,-1.6326106,0.060215205,-0.24779022,6
472,-0.027424932,-0.74160665,0.639115,0.9183553,7
473,0.22564238,-1.287608,0.1790528,1.2258573,8
474,0.8499005,-1.058561,0.19794983,0.81063247,9
475,-0.02409637,-0.60398287,1.2812378,0.12744379,10
476,-0.18894875,-1.2067118,0.20378017,0.33486515,11
477,0.502156,0.037009194,-0.9297105,0.5722269,12
478,-0.13103616,-0.9529505,0.07115613,0.21077716,13
479,-0.7840047,0.40790558,-0.31004596,1.2469438,14
480,0.0639121,-0.23151655,-0.14558251,1.1502216,0
481,-0.6404115,0.6046659,-0.53913546,-0.0910029,1
482,0.040517583,-0.0472669,-2.2054634,0.24031276,2
483,0.49339998,0.1949681,2.4136245,0.7430676,3
484,0.9537933,-1.0123925,0.026380584,0.48200873,4
485,-0.21556112,-0.6338909,-1.2817243,0.03590095,5
486,0.6244351,-1.4086964,0.42441186,0.5171557,6
487,1.6192701,-0.0707683,0.8442974,1.7025156,7
488,1.2896463,-0.07001966,0.6013596,1.4961684,8
489,1.3397015,-0.9565725,0.96092224,0.6053678,9
490,1.6379281,-0.84821045,0.53576005,1.4956057,10
491,0.50756335,-0.9395554,-1.2242305,1.0224438,11
492,0.15202114,0.16806896,-0.16903076,2.0112417,12
493,0.6986636,-0.7883007,-0.10540104,1.0138165,13
494,-0.6371034,-0.10676348,-1.277643,1.72685,14
495,1.4279859,-0.21280053,-1.0682065,1.7096125,0
496,-1.2319968,-0.31562865,-1.0151011,0.30574554,1
497,0.38924113,0.57940155,-0.8470962,1.2728076,2
498,2.0858827,-0.5276307,-0.62679434,1.975245,3
499,0.32497072,-0.6921334,1.3135633,0.41219825,4
500,0.8932514,0.19478516,-0.8807122,1.3996942,5
501,0.7463408,-1.0642875,-0.25706038,0.39263391,6
502,0.7669526,-0.0864715,1.6803187,0.50859547,7
503,1.7128432,0.30721575,0.8252677,1.610031,8
504,-1.1302791,-1.8127731,-0.21848965,-0.6906302,9
505,1.1058716,-0.83601594,0.27575397,1.0468967,10
506,0.9437969,-0.37421152,-0.12276367,1.5005606,11
507,0.85451365,0.29618043,-0.39884934,1.741209,12
508,1.1373162,-1.0561489,0.19479144,0.29214823,13
509,-0.18443467,1.4115369,0.45029056,1.8555009,14
510,0.29535237,-0.3584028,0.166054,1.3925104,0
511,-0.66461885,1.150438,0.8704907,0.7353069,1
512,0.3970113,1.3762708,0.09899008,1.0464904,2
513,0.40857455,-0.78033775,0.4549898,0.84339255,3
514,1.6598475,0.10714543,-0.065795586,1.3542727,4
515,0.9785247,-0.01927124,-1.6262857,1.4191394,5
516,1.0614607,-0.14823425,1.0976268,0.3518058,6
517,0.7562875,0.40421313,2.441246,1.7228427,7
518,0.28747424,-0.098050416,0.87478745,0.12489927,8
519,1.2309201,-0.96591103,0.32774645,1.505924,9
520,-0.04361564,-1.4122052,0.1059494,0.112365544,10
521,0.73091555,-1.2256882,-0.55899316,0.5388705,11
522,-0.5326363,-0.67034835,-1.0827748,0.5451968,12
523,1.006546,-0.81317663,0.09299441,1.2519352,13
524,-0.027814418,1.3492138,-0.1922692,0.31826997,14
525,0.012391053,-1.0691901,-1.467968,0.24748313,0
526,0.6988926,2.335835,0.3127066,0.7792078,1
527,0.2631489,0.0010696948,-2.2565036,1.1709387,2
528,0.40726656,-0.8374014,0.90212125,0.8048332,3
529,1.2589835,-0.6397375,-0.9735439,1.8334512,4
530,1.156525,0.06042303,-1.0741017,0.95207226,5
531,1.1714666,-1.0723335,-0.7245338,0.7894853,6
532,-0.61127436,-1.1983048,0.90348136,0.8107711,7
533,1.2649384,0.26973408,2.0733094,0.8253956,8
534,1.015329,-0.54578817,1.2070483,1.0627441,9
535,0.10597694,-1.4486531,-1.18956,0.32856095,10
536,0.5907786,-0.6512252,1.0433232,0.49539125,11
537,-1.0396156,0.21325134,1.680996,1.9618561,12
538,1.1427766,-0.11317158,1.2952566,0.38657048,13
539,0.3604797,1.3079877,-0.92404634,0.78853595,14
540,-0.18797952,-1.2015089,-0.78685117,1.3694612,0
541,-0.048263192,0.75246847,-0.9366616,0.35567015,1
542,0.58182585,0.8996761,-0.93936735,2.7647688,2
543,1.1026714,-0.9125217,-0.45043218,1.3957992,3
544,1.1041912,-1.1099943,-1.3488479,1.7317,4
545,0.39242974,-0.27925593,-0.7781019,0.6442661,5
546,1.5113857,0.045823812,2.0368497,1.0892061,6
547,-0.16109163,-1.6369699,1.1430011,0.36130136,7
548,0.5528227,-0.5429239,0.35314173,1.5319711,8
549,1.2070338,-0.7406071,1.1177132,1.0280477,9
550,-0.2086705,-1.4508708,-0.07035416,-0.2786371,10
551,0.32606226,-0.84825134,0.1786357,0.38225996,11
552,0.28225195,0.026858613,-0.50891006,1.4429337,12
553,-0.037941575,-1.2684702,0.5012008,0.57654303,13
554,-0.10060349,1.145509,-0.4642752,0.6427311,14
555,0.47516164,-0.18363857,-0.21849412,1.9865494,0
556,0.46012184,1.3289652,-0.6256739,0.7574163,1
557,-0.0524612,0.040181786,-1.8456538,-0.33220357,2
558,0.35851255,-1.0034652,0.44409245,0.5662055,3
559,-0.092784345,-1.6079851,0.41873574,0.74621093,4
560,1.3885963,0.14174457,-1.1201085,1.9867327,5
561,2.0702052,0.43244958,1.0322852,0.9026694,6
562,0.6237028,-1.6849934,-0.98526204,1.1695536,7
563,0.32584414,-1.9637442,-2.9167714,1.9125205,8
564,0.9541093,-2.0982847,-2.8204203,1.7547143,9
565,1.2743828,-0.40324014,1.2072222,0.94070005,10
566,-0.1277669,-1.1969724,-0.22814986,0.9983563,11
567,0.1492565,0.77318794,1.2336166,2.088337,12
568,0.4901057,-0.16552603,0.34449738,0.6694698,13
569,-0.28133768,0.17476952,-2.1259727,-1.4577656,14
570,0.68066317,-0.032925963,0.055952806,3.0033815,0
571,-0.061932057,0.9421636,-0.93698835,1.0340734,1
572,0.45625213,1.0610704,-0.1037128,3.0037796,2
573,0.042240262,-1.1044593,0.12472615,0.8609902,3
574,-0.13986468,-1.2767955,-0.7301185,0.74797136,4
575,0.50828505,0.3758608,-0.15670878,2.6848066,5
576,-0.043700933,-1.1115048,1.1789881,0.71928376,6
577,1.4511318,-0.5480768,-0.0040889084,1.305673,7
578,1.6185652,-0.13652503,-0.038799837,1.2421424,8
579,1.6090002,-0.19958645,0.53563786,1.8967481,9
580,0.9723195,-1.1714557,0.108297646,0.99590725,10
581,0.27875558,-1.7237136,-1.4643416,0.6467604,11
582,-0.47955433,0.11290912,0.23459122,2.1615493,12
583,-0.10780001,-1.3375561,-0.9322435,-0.04938662,13
584,-0.26210442,0.60289645,-0.954211,0.31407064,14
585,-0.54663265,-0.5055985,-0.06535548,0.5973163,0
586,-0.10901375,0.8073001,-0.7278361,0.5605359,1
587,-0.40029815,-0.098225474,-1.2875746,0.6228442,2
588,0.75181484,-1.8526216,-0.98945403,1.0268867,3
589,1.0024856,-0.20698488,0.18015899,0.9830871,4
590,-0.18131778,-0.26564083,-0.9385762,0.6412351,5
591,-0.32932413,-1.1189651,0.028224587,0.14092514,6
592,0.32521087,-1.3083124,1.1013128,0.80334115,7
593,1.2903769,-0.3519369,1.1335934,1.9011483,8
594,0.9109268,-1.0702593,-0.35424978,1.3970857,9
595,0.3445902,-0.7365872,2.6081161,0.6256791,10
596,0.006410837,-1.2725875,-0.2344872,1.0070931,11
597,0.23328823,-0.35688788,-1.003218,1.621363,12
598,0.6690662,-1.420108,-0.8392425,0.66093266,13
599,-0.2633231,0.17491415,-0.8465319,2.879892,14
600,-0.43259123,-1.0135416,-0.32745984,1.2839808,0
601,-0.707672,0.5560704,0.058511376,0.62910855,1
602,0.6437993,1.1645937,0.48751652,4.2519097,2
603,1.1738478,-0.23831046,0.49521405,0.5784466,3
604,0.3723738,-0.9582087,-0.072970584,0.97639275,4
605,0.044463545,-0.17346433,-1.4818017,-0.3920452,5
606,-0.40590656,-0.67228997,1.3997469,-0.061631978,6
607,2.484487,-0.10416651,0.20946176,1.7114053,7
608,0.68806374,-0.69768786,-0.05573052,1.8502105,8
609,0.7105862,-1.5883348,-2.1387167,1.1831197,9
610,1.3474536,-0.17340076,1.269331,1.3274395,10
611,0.32347825,-0.6504175,0.11651861,0.7756182,11
612,-1.016602,-0.37820077,0.22621503,1.0653639,12
613,0.39491782,-1.0709417,-0.29045767,0.4621076,13
614,-1.5169222,-0.41808504,-0.8273268,0.088247,14
615,0.103278905,-0.2946961,0.405015,2.2397017,0
616,-0.3491025,0.7669877,-1.1256906,-1.5264955,1
617,1.0557797,0.59550685,-1.9298203,1.6976712,2
618,1.0207644,-0.040816486,1.3795096,0.6906243,3
619,0.17730838,0.26324117,1.0972337,1.3896034,4
620,0.989761,0.18276457,-0.81511426,1.47701,5
621,0.919403,-0.54495656,1.3762296,0.89807713,6
622,0.968052,-0.7237155,0.6523746,1.5192761,7
623,0.16698006,-0.49989563,0.21114627,0.9977281,8
624,1.0365224,-1.241007,-0.7170099,1.4255395,9
625,0.58375084,-1.599027,-0.17894971,0.6573118,10
626,0.42382574,-1.3363574,-1.185692,1.5957392,11
627,0.615168,-0.38257527,-1.7504208,0.4159299,12
628,-0.18505025,-1.5722529,0.27003306,0.15516603,13
629,-0.5654966,0.051933885,-1.3002163,1.651778,14
630,-0.4359639,-0.84146994,-0.8915045,0.9688786,0
631,-0.25925392,0.22006556,-1.0668167,0.6241636,1
632,0.17509958,1.2867088,0.6378144,2.445142,2
633,0.534398,-1.4045591,0.011254892,1.0023336,3
634,0.08710027,-0.9361745,0.089219734,-0.014186621,4
635,-0.23803547,-0.72868973,-1.3277249,1.8576465,5
636,0.48930988,-0.8745885,1.4768784,0.16205889,6
637,0.15851498,-0.96222883,0.30136734,0.5080085,7
638,0.6997055,-0.8458986,0.2402738,0.49773264,8
639,0.48726493,-0.86792535,0.15326723,1.3358141,9
640,0.6813768,-1.1254768,0.10387656,1.0493903,10
641,1.1724336,-0.24939415,0.97743344,1.4367805,11
642,-1.2502912,-0.55045825,-0.13065383,1.1150247,12
643,0.43461454,-1.2238498,0.31819767,0.25991058,13
644,-0.25019827,0.3587605,-1.5769247,1.5719837,14
645,-0.052924953,-0.5063931,0.24963194,1.6906805,0
646,0.5803236,2.168719,0.115691185,0.76453596,1
647,0.33837718,1.0896113,-0.043812275,1.5296118,2
648,1.0370098,-0.8414616,-0.10467018,0.3444385,3
649,0.32518592,-0.6557481,1.4190564,0.5792583,4
650,-0.39452228,0.08402611,-0.021978617,-0.21771604,5
651,0.5690627,-0.29875314,1.6879978,0.3542183,6
652,-0.36476076,-0.8293598,1.3042802,-0.4402296,7
653,1.2638297,-1.5157225,-0.8531076,1.2245805,8
654,1.7232805,-0.16112566,0.5031386,2.2133152,9
655,1.7654984,-0.27382696,0.75603586,1.6215503,10
656,1.0372195,-1.0292947,-0.4859472,1.559261,11
657,0.45338836,0.49670947,0.5693606,1.6635449,12
658,1.332554,0.13258296,2.4781022,1.2707641,13
659,-0.9982787,-0.35720378,-1.6171988,-0.1260696,14
660,1.2026979,-0.07686636,-0.38342085,2.7165403,0
661,-0.29047912,1.204862,-0.21997517,0.2529745,1
662,-0.5004108,0.14744279,-0.62082714,1.1818326,2
663,1.9778522,-0.45853958,-0.2204308,1.9903159,3
664,0.002567768,-1.5058365,-0.5552816,1.3014145,4
665,0.88366663,0.0025911331,-1.3305461,0.08187038,5
666,-0.25142902,-1.396951,0.18528657,-0.11418939,6
667,0.129309,-1.736845,0.15819857,0.9024446,7
668,1.5340359,-0.90464544,-0.92282486,2.1646957,8
669,0.74550384,-0.7179382,1.2955594,0.25689322,9
670,1.127977,-1.4515035,-0.49246687,1.4921286,10
671,-0.1853146,-1.270163,-0.7124672,0.8049139,11
672,-0.60983574,-0.78239393,-1.0604911,1.0129457,12
673,1.0910715,-0.48894253,0.24087282,1.2870183,13
674,-0.8081987,0.91601115,0.9326426,1.0125573,14
675,0.31632578,-1.3258213,-2.129774,1.8079784,0
676,-1.220385,-0.012342811,-0.3706351,0.046819553,1
677,0.17440324,0.73936486,-0.9739591,-1.1428308,2
678,0.95991623,-0.21659565,1.4042692,1.1371342,3
679,0.49635398,-2.0151145,-2.1577508,1.2126203,4
680,0.785362,0.57663566,-0.21997023,1.6644881,5
681,1.0881274,-0.9811144,0.78275335,0.9911077,6
682,0.18564862,-0.50071317,2.1882415,1.0009372,7
683,0.84718734,-0.9850664,-0.82629263,1.220938,8
684,-0.12627757,-1.742389,-1.1612277,0.239496,9
685,1.2329364,-0.9882807,0.6128768,1.328376,10
686,0.4335975,-1.6426153,-0.37532812,0.25810826,11
687,0.094473094,-0.034180336,-0.958256,-0.64070094,12
688,1.9437678,0.77928495,1.1945624,1.6581529,13
689,-0.30054107,0.1349836,-2.2277207,-0.20685953,14
690,0.5901293,-0.29890072,-0.10739677,1.5906446,0
691,-1.729231,-0.23788881,0.48241842,-0.26463157,1
692,-0.10031054,0.8386625,0.35135424,2.154775,2
693,1.0971336,-1.4345706,-1.6650765,1.0698506,3
694,1.5948344,-0.14039367,-0.26447302,1.0389618,4
695,-0.34630486,-0.39469886,-0.18371785,1.4403279,5
696,0.015452087,-1.0738916,0.75168085,0.18802059,6
697,1.7799037,-0.23650503,0.5681207,0.76319593,7
698,-0.27933115,-1.5670037,-1.3690985,0.75104177,8
699,0.17206615,-0.4036884,1.0543658,1.5330219,9
700,1.0779026,-1.4857424,-0.91139555,1.3501427,10
701,1.6247208,0.3955884,1.6877561,1.4135787,11
702,0.87422514,0.554713,-0.46659827,1.7006555,12
703,0.80721253,-1.1515987,-0.28409374,0.6855646,13
704,-0.7610377,0.9988407,0.7396772,1.964344,14
705,0.08593507,-0.40233448,-0.69436914,1.3455799,0
706,-0.36430776,0.24511594,-1.218713,0.7655296,1
707,-0.87148756,-0.47753638,-1.4243147,2.1154578,2
708,0.6891298,-1.2678609,0.82042235,0.42984122,3
709,-0.6295881,-1.753808,0.030002102,0.431234,4
710,0.32009393,-0.29754943,-1.6086383,-0.035101593,5
711,0.9180996,-0.7519661,-0.6827432,0.9305841,6
712,0.7400489,-1.1128043,-1.096898,0.5467971,7
713,0.2333192,-1.4966791,-0.20517811,0.75331384,8
714,1.3636851,-0.8162283,1.0001981,0.89034384,9
715,1.4233339,-0.19711149,1.8340367,1.3238394,10
716,1.907536,0.86778426,2.24336,1.8108095,11
717,-1.2704865,-0.7621428,-0.1958926,0.84605277,12
718,0.7838978,-1.1172504,0.24094349,1.0514188,13
719,0.5495298,1.0491968,-2.0701492,0.15122312,14
720,0.6635576,0.8551016,1.3365672,1.7408339,0
721,0.49170527,1.0768336,-0.8537812,2.5248034,1
722,0.05104707,-0.39367765,-2.2807584,1.3347294,2
723,1.6253364,-0.08784562,-0.1189325,1.5474477,3
724,1.4954435,-0.40316698,-0.058216467,2.04253,4
725,1.0989693,0.28141075,-1.4143755,0.028036416,5
726,0.3105169,-1.2140715,-0.17928323,0.53622806,6
727,1.3488164,0.006790757,1.1359992,0.8999677,7
728,1.0757465,0.09600335,0.46905985,2.0193853,8
729,1.8817894,-0.15443432,0.6767726,1.9753537,9
730,0.41068444,-0.8155788,0.82930773,0.8359951,10
731,-0.8988428,-1.6033025,-0.51475835,0.057878733,11
732,-0.2430659,-0.49859202,-0.66401505,1.1495359,12
733,0.5281855,-1.0213034,-0.43287563,0.49442872,13
734,0.37426633,0.54498833,-2.358696,0.35387728,14
735,0.05480196,-0.75845706,-0.15432474,2.7243576,0
736,-0.13579854,0.6599447,-0.46180677,1.5426363,1
737,0.254888,0.63623244,-1.1433313,2.249302,2
738,0.8265341,-1.0816252,-0.25913548,1.2472634,3
739,1.3004661,-0.101572394,0.42004937,1.7721663,4
740,-0.29592708,-0.4744916,-0.9155505,0.12029809,5
741,0.48532516,-1.6882099,-0.60337365,0.37849537,6
742,0.87897587,-0.7000178,0.97094584,0.7452055,7
743,0.3106172,-1.1545358,-0.17942679,0.33045697,8
744,1.7538934,-1.2492237,-0.94092,2.4901109,9
745,0.38836196,-1.3197396,0.005689949,0.6934022,10
746,-1.0052562,-1.6179549,0.63139844,-0.80575585,11
747,0.6551771,0.3262465,-0.7129482,0.6280325,12
748,1.4947469,0.7023275,0.74479216,0.34122586,13
749,-0.43981186,0.84919727,-0.791532,-0.41985887,14
750,0.7504682,0.57896173,0.4729887,1.8315665,0
751,-0.12577064,0.28516352,-1.5870204,-0.33521098,1
752,-0.7263922,0.01532203,-1.0716767,-0.50618833,2
753,1.3339622,-0.78059506,0.9757937,1.4663587,3
754,2.1078482,1.330526,2.189596,1.6747861,4
755,0.43552202,-0.28866473,-1.627742,-0.04788792,5
756,0.9114209,-1.5553044,-0.08678922,1.1377211,6
757,0.10767138,-0.16430575,2.689642,0.7765187,7
758,-0.9162155,-1.7261443,-0.20527682,-0.0031821728,8
759,0.07454938,-1.6115828,0.16002798,0.18221587,9
760,0.6162229,-0.8369768,0.06923351,1.0303789,10
761,0.109593034,-0.6299958,0.107895724,1.1018409,11
762,-0.67257106,-0.2715519,0.20511821,2.207934,12
763,1.3390067,0.19687903,1.6938472,1.240093,13
764,-0.22451705,0.60325855,-0.8775289,1.7907143,14
765,0.123207204,-0.5586048,0.047291722,1.2988462,0
766,-0.072109744,1.3122252,-0.6941179,-0.47675866,1
767,0.02516989,0.060724407,-1.5523591,1.4364042,2
768,0.9271118,-1.6391267,-1.5221633,1.3448775,3
769,0.29795572,-0.72758305,0.81415546,0.96292496,4
770,0.25058147,-0.37172002,-1.2380542,0.8569439,5
771,0.4700523,-1.020509,-0.021820515,0.15490073,6
772,0.44470707,-0.4821999,0.60828614,1.4195931,7
773,1.0870734,-1.0064096,-0.9083364,1.7643296,8
774,0.9071315,-0.6805001,0.34070987,0.39351976,9
775,0.50265396,-0.38599598,0.03327954,0.18836862,10
776,1.2446945,-0.5933191,0.00636857,1.3591734,11
777,-0.50127965,-0.23337165,0.08544347,1.805973,12
778,1.0357343,-0.27590048,0.99385494,1.1731339,13
779,0.09538096,0.6831166,-0.95321274,2.4724474,14
780,0.86519814,-0.1029101,-0.5281833,1.2523143,0
781,0.49294284,0.7462652,-1.9672068,-0.11205123,1
782,-0.07959873,0.2716551,-0.8714963,1.9241624,2
783,0.23055643,-0.027832866,1.5073322,0.49196285,3
784,0.67909944,-0.7829957,0.6690187,0.63321036,4
785,0.15481131,0.14167343,-0.6122024,0.5146466,5
786,-0.48209727,-1.3491142,0.28067395,0.4124492,6
787,0.1896807,-0.9323679,0.06507042,0.56367594,7
788,0.6607347,-0.19163346,0.98668325,1.2778252,8
789,0.94785774,-0.6990058,1.3177927,1.0353812,9
790,1.1198993,-0.52509296,0.6030847,0.39689195,10
791,-0.36897826,-1.5984347,0.30464613,0.23130047,11
792,-0.16934592,-0.07133829,0.634678,2.7831025,12
793,0.057317078,-0.67076594,0.3270421,1.108031,13
794,-0.43935287,0.21417007,-1.5509918,1.2140169,14
795,0.27699608,-0.007253289,-0.03420535,1.5302523,0
796,-0.55165315,0.37420622,-0.9573697,-0.23947753,1
797,0.20827237,-0.01011464,-2.4685836,0.46246862,2
798,0.7145636,-1.8250027,-0.5644811,1.1857598,3
799,0.3796131,-0.85137177,0.2674067,0.8935312,4
800,0.2254475,-0.25121403,-1.0229295,0.42067122,5
801,-0.36251307,-1.4992821,0.18972337,-0.16432238,6
802,1.457497,-0.43611127,-0.32580128,1.4490423,7
803,1.2204905,0.2601601,1.1801053,1.2028741,8
804,0.5978391,-0.43153912,0.7170155,1.9682268,9
805,0.562863,-1.4764817,-0.10968983,0.7614289,10
806,1.0339313,-1.1383193,-1.3718758,1.5986003,11
807,-1.1734409,-1.1209646,-2.0591822,-1.3432151,12
808,0.45650536,-1.1727016,-1.2343781,0.3723371,13
809,0.14851362,0.68865097,-1.6310909,1.5626607,14
810,-0.097370036,-0.7391648,-0.9979346,0.16908276,0
811,-0.8985541,0.15139484,-0.3507258,0.18719126,1
812,0.12559207,0.3265993,-0.7872479,1.7611506,2
813,0.97760975,-0.6081863,-0.14554383,1.4096798,3
814,1.083384,-0.52696645,-0.5067844,0.99797404,4
815,0.86797845,0.4062031,-0.41490495,1.3491994,5
816,2.0491323,-0.18458676,0.94031835,1.4032636,6
817,-0.5460367,-1.7694347,-0.6801121,0.31759137,7
818,0.8147694,-0.67331547,0.18420649,0.76191837,8
819,0.6201849,-0.9776382,0.7329953,0.4754604,9
820,1.4468312,-0.7525643,-0.29174972,1.0071911,10
821,0.50540644,-1.0832855,-1.0369256,1.0335227,11
822,0.82738376,0.23879306,-1.4202707,-0.24254453,12
823,0.4059776,-0.70713633,-0.41920203,0.40736312,13
824,-1.2971239,0.17506856,0.2189014,0.5466802,14
825,-0.41720536,-1.0219365,-0.76594406,1.6228014,0
826,-0.13686885,0.9852605,-0.4009922,1.727227,1
827,-0.47348595,0.6967167,0.35346365,0.7984871,2
828,1.6504779,-0.7149608,-0.08555685,2.0864327,3
829,1.1097633,0.14846402,0.6281852,1.3672926,4
830,-0.07086179,-0.40315807,-0.99882233,0.8132905,5
831,0.43332228,-0.30156517,1.5858707,0.6358048,6
832,1.2438028,-0.4141968,0.35495698,1.4810238,7
833,0.013078153,-0.7556284,0.78821146,0.9307131,8
834,0.8115883,-0.13899279,1.8432173,1.2338862,9
835,-0.10528737,-1.4570763,0.3449125,-0.6349023,10
836,0.77765805,-0.9628868,0.06648185,1.0237349,11
837,-1.091857,-0.48278624,-0.019607395,1.0027871,12
838,2.2033038,0.08975679,0.30476665,1.6713868,13
839,0.27011836,0.99798083,-0.97844446,1.2598134,14
840,-0.83242196,-0.5817458,0.15307648,0.998543,0
841,-0.84243,-0.23119843,-1.3149872,0.5155892,1
842,-0.2922351,0.09367967,-1.5987186,0.31282395,2
843,1.8492445,-0.21879071,0.82805586,1.6315303,3
844,0.4259685,-0.3202178,0.64433235,1.3568261,4
845,-0.011293381,0.28603655,0.20866561,0.36788106,5
846,0.5835546,-1.0359291,-0.30733028,0.7340253,6
847,1.5364351,-0.75292504,-0.014608413,0.6547713,7
848,0.9835028,0.017383397,2.1100893,1.226959,8
849,-0.42243487,-2.055405,-0.42662102,0.31804115,9
850,0.21291196,-1.4815288,0.19188723,-0.056019723,10
851,0.69177294,-0.46656767,0.17781314,1.4196451,11
852,-0.3698459,0.40726668,1.0043265,2.5925984,12
853,0.34674567,-0.66565484,0.21980539,0.22810477,13
854,-1.1394854,0.30507356,-0.21900326,1.4950536,14
855,0.03347139,-0.9644798,-0.7911067,1.729018,0
856,-0.11903134,1.2171764,0.105357885,0.6590006,1
857,0.33893532,0.9336715,0.05447054,2.570006,2
858,-0.5714592,-1.1442711,0.576731,0.12260705,3
859,0.8650577,-0.941618,-0.28023756,0.9340661,4
860,2.096052,0.664092,-1.5823574,1.4422493,5
861,0.49030063,-1.3433537,-0.36201337,1.3873053,6
862,0.2190178,-0.4703805,1.1010695,0.7257023,7
863,0.0075058937,-1.01049,-0.5310832,0.39111817,8
864,1.3319736,-0.37285447,1.4352832,1.6119417,9
865,0.988601,-1.0269257,-0.27856195,1.1091304,10
866,1.0542836,-0.6009296,-0.20687735,1.6754653,11
867,0.3565692,-0.0390352,-0.64653784,1.1202002,12
868,1.3996243,-0.9920356,-1.3906958,0.9682343,13
869,-0.8469447,0.058250487,-0.8355937,1.702414,14
870,1.0390512,0.24668297,-0.37690216,0.8168828,0
871,-0.098434046,0.50352573,-1.3574405,-0.6601937,1
872,1.0538174,1.5637562,-0.40105975,1.6392375,2
873,1.0883049,-1.1539038,-0.19083358,0.9692487,3
874,0.32079557,-0.41548604,0.57611865,0.31976748,4
875,0.49427465,0.18663122,-0.59119517,0.673985,5
876,0.89035237,-0.5953003,0.8253633,1.2748127,6
877,1.0183557,-0.118127346,1.2297002,1.1782488,7
878,0.47000635,-0.409148,0.22296658,0.79129714,8
879,1.2952789,-0.29422998,1.0398769,1.3732259,9
880,1.0206128,-1.8120835,-0.9739467,0.521225,10
881,0.27920148,-0.20236516,0.5786546,1.2269412,11
882,-0.9398521,0.15816371,1.4819,3.2886894,12
883,1.1343762,0.16538513,1.8181434,0.14331543,13
884,-0.613415,0.8698765,0.6532141,2.5222647,14
885,-0.5244584,-0.59185034,-0.82846045,-0.68652236,0
886,0.64707685,1.6224564,-0.4207357,2.4014034,1
887,0.041225836,0.45133686,-0.8819172,0.22876608,2
888,-1.098686,-1.6814272,0.6975286,-0.6332949,3
889,0.27211958,-0.4110061,0.69036555,1.2452316,4
890,-0.80791354,-0.44144452,-0.7268482,0.4494689,5
891,0.8073343,-1.3256061,-0.124207646,0.2620009,6
892,1.7653733,-0.23410314,1.2749685,1.1208396,7
893,-0.069358945,-1.1145267,-0.6845763,0.5830098,8
894,0.82688975,-0.37907618,1.159445,1.1324375,9
895,0.8647865,-0.564697,1.6640428,0.86149406,10
896,0.99516535,-0.3354786,-1.3292267,1.1794351,11
897,1.8480979,0.42781687,-1.0250841,2.1524715,12
898,1.2397184,-0.89828193,-0.37876678,1.0930926,13
899,-1.2866099,-0.21352738,-0.6847362,0.47455025,14
900,-0.080291174,-0.096298814,-0.46515834,0.62591743,0
901,0.33177432,1.1390047,-1.2711829,0.25805032,1
902,-0.59001464,0.47754577,0.5454432,3.1766934,2
903,0.073729634,-1.2212794,-0.15551181,0.6039393,3
904,0.51117057,-0.6181284,0.5580857,0.878525,4
905,0.7239268,-0.10787605,-1.160444,1.2808255,5
906,1.0570452,-0.7363869,0.92763495,0.85900086,6
907,0.13935369,-0.80421484,1.7557054,1.187602,7
908,0.42531103,-1.1892989,0.17071691,1.2112696,8
909,1.7578473,-0.044347823,1.1940987,1.7033484,9
910,0.25264943,-1.9399308,-0.80834925,0.3697389,10
911,-0.038195074,-0.49740848,1.7363173,0.5504433,11
912,-0.15811577,-0.285505,-0.5191267,2.3221397,12
913,-0.17240387,-1.4371014,0.18522134,-0.015585899,13
914,-1.4200149,-0.082978785,-0.3811372,1.4387612,14
915,-0.4568374,-0.42217276,0.94069433,2.6157656,0
916,0.10939303,0.9013213,-0.6313449,1.093555,1
917,0.7345347,0.9351679,-1.940863,-1.2527008,2
918,-0.23036766,-0.9560995,0.5503824,0.37458575,3
919,1.2801659,-0.52661186,-0.35624403,1.9968255,4
920,1.361905,0.6207074,0.0875473,2.5481415,5
921,1.3130249,-0.37819695,0.9068413,1.095294,6
922,1.4701333,-0.25442505,0.36682144,1.7330465,7
923,-0.008925021,-0.91335905,-0.050945565,0.8697312,8
924,1.8717954,-0.5679946,-0.14570737,2.061677,9
925,0.542701,-0.32813352,0.9629878,0.42655808,10
926,0.17686963,-0.4377357,0.798324,0.24206865,11
927,0.88971364,0.630955,0.19881281,2.2607841,12
928,0.7561793,-1.4752421,-1.3594251,0.7688029,13
929,-0.04942748,1.5542569,-0.14856303,1.4999938,14
930,0.14783682,-0.7371467,-0.63956493,0.6529766,0
931,0.0651921,1.1536224,-0.7729051,-0.1354542,1
932,0.31886625,0.3592685,-2.1196225,-0.32071334,2
933,0.064127386,-0.8756635,1.4810653,-0.17765969,3
934,1.9022481,-0.2526397,0.85507286,1.7942684,4
935,-0.059761107,-0.44556677,-1.3263171,0.32180136,5
936,-0.3867365,-1.5858593,0.03015396,0.37367752,6
937,0.5370935,-0.45363292,1.2100601,0.79657865,7
938,0.9269832,-0.51319146,0.29626977,1.5029421,8
939,0.08278251,-1.3290197,0.54589105,-0.55876184,9
940,0.27124155,-1.0350732,0.5947063,0.4467858,10
941,0.093206525,-0.38487673,2.7207656,0.79313505,11
942,-0.8662605,-0.17986913,0.3741041,1.7768676,12
943,1.0936507,-0.17591953,0.30111235,0.43559176,13
944,-0.014738053,0.795747,-0.870162,1.2128922,14
945,0.34418896,-0.6301613,-0.1093325,2.299653,0
946,0.22613761,0.8101274,-1.1743588,2.163055,1
947,-0.68045545,-0.76569337,-2.0935433,0.16260171,2
948,-0.4967271,-1.9118075,0.3637241,0.6407066,3
949,1.2663095,-0.6778493,0.08126809,1.8548341,4
950,0.2606094,0.36582655,-0.3213954,0.17938918,5
951,0.84340274,-0.62847924,1.1619974,0.3603688,6
952,0.3009427,-1.2429023,-0.026031077,1.3598573,7
953,0.8214389,-1.3138797,-0.85725176,0.5708029,8
954,-0.34292048,-2.0726743,-1.3230116,0.19626194,9
955,0.84419775,-1.0076863,0.2925548,0.64431244,10
956,0.45570597,-0.8932519,-0.678096,0.3076777,11
957,-0.03803672,-0.10461073,-0.5933223,1.1084331,12
958,0.27425772,-0.22820479,0.9415197,0.4256242,13
959,-0.44754016,0.63804203,-0.5619107,1.3801613,14
960,-0.56678224,-0.1529989,0.54241073,1.3708279,0
961,-0.19858107,0.56438506,-1.262875,-0.4943179,1
962,0.1951957,0.51205397,-1.0474491,1.2220352,2
963,0.599098,-0.79135513,0.9122948,0.9233072,3
964,0.5635458,-0.18027902,0.3976872,1.2779058,4
965,-0.31767318,-1.2112223,-2.0428905,-0.093105316,5
966,1.5365931,-0.42477304,1.1412574,0.68187803,6
967,1.5907454,-0.3587736,0.37552562,1.6835449,7
968,1.412201,-0.32059366,1.6317714,1.0365531,8
969,0.33653307,-1.1433259,0.854504,1.2258661,9
970,0.9896739,-0.9432081,-0.1601479,0.9636862,10
971,0.34622952,-0.22631902,2.1280398,1.4036319,11
972,-1.1074216,-0.58535665,0.05858329,0.9246557,12
973,0.9122949,-1.1645639,-1.3488786,1.0745094,13
974,-0.23974323,0.71662444,-0.8254916,0.43366516,14
975,-0.11146403,-0.22968417,0.64378166,2.5345232,0
976,-1.2158487,-0.47226214,-0.9500775,-0.95051736,1
977,0.45638147,0.76173,-1.7412672,-0.98028237,2
978,2.051722,-0.4036922,0.16320086,1.7443339,3
979,1.0414622,-0.6461825,0.43690038,1.4867678,4
980,0.23272896,0.3576699,-0.047001123,0.6543875,5
981,0.66225785,-1.933214,-1.2122723,0.4758291,6
982,1.1747444,-0.34205213,-0.11973941,0.9325169,7
983,1.1724612,-0.8746627,-0.81502926,1.2575518,8
984,0.057827234,-0.67088926,0.82106423,0.7872123,9
985,0.53469527,-0.76031375,0.5815265,0.5687904,10
986,-0.012856364,-1.5759957,-0.23187602,0.8173734,11
987,0.28006333,0.06672488,-0.68373585,1.1204624,12
988,0.28298572,-0.38973087,0.7708734,0.47575632,13
989,-0.555546,0.8258408,-0.14005852,1.3358214,14
990,-0.87914056,-0.39838466,1.2579017,2.686903,0
991,-1.4145173,-0.099912345,-0.6028224,-1.6030934,1
992,0.24243432,0.8406538,-0.7733313,1.3735867,2
993,1.3344712,-0.34106898,1.2299954,1.7882142,3
994,0.7737305,-1.4737201,-1.283257,0.9800738,4
995,0.030017197,-0.27495453,-0.6416834,0.7960458,5
996,-0.14436358,-1.636101,-0.46039137,0.7343999,6
997,0.690391,-1.4857726,-1.3460447,0.8371945,7
998,0.6244633,-0.39758894,0.74253523,1.1087527,8
999,1.4924773,-1.0890896,-0.67497134,1.4531728,9
1000,1.2422847,-0.9982053,-0.013636082,0.4920831,10
1001,0.7930208,-0.58058107,0.043429695,0.99167836,11
1002,0.35110512,-0.08646848,-1.2686969,-0.26834428,12
1003,1.1857214,-1.4082352,-1.5209768,1.3262482,13
1004,-0.12890756,0.21154809,-2.220009,0.51226765,14
1005,0.20688602,-0.88416207,-0.4385816,1.4374101,0
1006,-0.5408684,0.36255127,-0.53851795,1.5495179,1
1007,0.50967216,0.5059912,-1.6014266,1.1818249,2
1008,1.0064517,-0.590213,-0.14437456,1.030672,3
1009,1.3747395,0.003727138,0.847947,1.6849413,4
1010,1.1041347,0.23152076,-1.1765572,1.0073271,5
1011,0.69490176,-0.66804236,-0.13256046,1.1200638,6
1012,0.35912266,-0.23911196,1.5577992,0.6542995,7
1013,-0.71774465,-1.9677987,-0.63577557,-0.008529663,8
1014,1.1961223,-0.14408004,1.3157563,1.5493995,9
1015,0.44868034,-1.2397791,0.22750038,0.8248534,10
1016,0.9688953,-0.59214556,0.039758626,0.83299094,11
1017,-0.64805496,-0.18263929,0.35782936,1.6119202,12
1018,0.6103969,-0.810537,0.24551883,0.56095874,13
1019,-0.27778113,0.8790183,-0.56968284,-0.2756403,14
1020,-0.5574943,-0.5753561,-0.071119726,0.5510304,0
1021,-0.15083641,0.4588986,-0.86170375,0.77987117,1
1022,-0.54094625,0.15214464,-1.1311903,-0.028254926,2
1023,0.83347535,-0.6444897,0.7292519,0.4973486,3
1024,0.9437207,-1.150295,0.00056792796,0.2000016,4
1025,0.940464,0.2416339,-0.76708764,1.176018,5
1026,0.13666159,-1.4484787,1.7461529,0.6453476,6
1027,0.79283607,-0.82863355,0.106218904,2.1105628,7
1028,-0.9271069,-2.532858,-1.7738732,0.72110915,8
1029,1.6993523,-1.1689451,-0.61644876,2.0504558,9
1030,0.43907818,-0.9556731,0.77086204,0.7118549,10
1031,0.6940065,-0.11779302,0.6301129,0.74497795,11
1032,-1.5059009,-0.37363338,0.9462899,2.538944,12
1033,0.7541897,-1.116374,-0.1728026,1.3644423,13
1034,-0.4691692,0.6109908,-0.519572,0.20299691,14
1035,1.1422698,0.11298826,-0.20966618,2.4954064,0
1036,0.17422771,1.5719434,-0.33336186,-0.050298035,1
1037,0.27540693,0.48670727,-1.173868,0.9340497,2
1038,-0.14269555,-2.1657593,-1.781345,0.071656406,3
1039,0.5656929,-0.47879773,0.033274993,1.780697,4
1040,1.4181739,0.9331258,-0.074210525,1.2853858,5
1041,0.29554266,-0.8470746,0.66259307,-0.15019035,6
1042,1.4358015,-0.42518568,0.45691544,1.2185835,7
1043,0.30844882,-1.8141108,-1.4401971,0.9334598,8
1044,1.3171118,-0.5587163,0.9151993,1.4404266,9
1045,-0.22611928,-2.3142648,-0.14997423,-0.04450667,10
1046,0.9096929,-1.1492856,-0.7215042,1.1585672,11
1047,0.21097171,-0.5408079,-1.3685982,1.5386715,12
1048,-0.65569586,-1.7304108,-0.932556,0.057874024,13
1049,-0.25573823,0.7197183,-0.8997873,1.0335112,14
1050,0.48078308,0.1438488,1.2857864,2.3414986,0
1051,0.27920672,0.21152106,-2.5586784,-0.69065225,1
1052,0.50189674,0.78298736,-1.3016903,1.236796,2
1053,1.0385191,-0.3242466,0.12333457,0.7371532,3
1054,-0.2002632,-2.3861003,-2.0259168,0.2822433,4
1055,-0.16179883,-0.78836936,-1.4070865,0.08821744,5
1056,0.8080673,-0.6606973,1.3867233,0.9287714,6
1057,0.48266652,-1.3792794,0.5043572,0.75366825,7
1058,0.762244,-1.1294844,-0.21087942,0.5728333,8
1059,0.8148559,-1.1259828,-0.28026992,0.9508093,9
1060,0.5247699,-1.4639689,0.41779298,0.45307738,10
1061,0.45898506,-0.5032045,1.0839306,1.2961034,11
1062,-1.1306517,-0.2725104,0.107684284,2.2857642,12
1063,0.44530627,-1.156122,-0.7283614,0.65704364,13
1064,-0.6371139,-0.26819772,-1.9378611,0.4135935,14
1065,0.28624937,0.43280527,0.27597237,0.8614602,0
1066,-0.7530533,0.46492097,-0.43477067,1.0774375,1
1067,-0.42509568,-0.16457945,-1.1210668,2.7558596,2
1068,0.10849142,-1.4137654,-0.32597333,0.10603106,3
1069,1.1092781,-0.7647095,-0.83817005,0.7889658,4
1070,-0.08230272,-0.28894657,-0.70929414,1.0418168,5
1071,-0.08611262,-1.0884529,0.101985276,-0.10152453,6
1072,1.4655789,-0.74774665,-0.10562503,2.159466,7
1073,0.829901,-0.6122838,0.515852,0.722823,8
1074,2.2703276,0.65396357,1.7371125,2.3746152,9
1075,1.3689668,-0.25079477,0.32286036,1.2148507,10
1076,0.39501458,-1.1554583,0.35584342,0.25351274,11
1077,0.7512258,0.20416276,-1.3408579,1.3058057,12
1078,0.6113949,-1.3056183,-0.45632875,0.3038277,13
1079,-0.7391569,0.08778334,-1.1210394,1.2598537,14
1080,-1.2517041,-1.1285859,0.5289464,3.6637025,0
1081,0.37282315,1.5315065,-0.24178141,0.6653114,1
1082,-2.0243227e-05,0.6145794,-0.4092071,0.07596415,2
1083,-0.62204206,-1.8165686,-0.6040334,-0.6678893,3
1084,0.59392077,-0.74492925,0.21558149,0.44649607,4
1085,1.5050926,0.701018,-0.7251151,1.9086821,5
1086,0.9083755,-0.7712503,0.5490074,0.8397157,6
1087,0.15032011,-1.6702912,-0.7319596,-0.14048809,7
1088,0.7184236,-0.31378254,0.99470055,1.2158695,8
1089,0.41802126,-0.5669896,0.4591384,0.5620715,9
1090,1.0836849,-1.0269153,0.1019952,0.5401368,10
1091,0.5604922,-0.74878216,0.58462226,0.17525744,11
1092,0.13837436,0.04875426,-0.3678145,1.571891,12
1093,-0.64585656,-1.9546303,-0.3038484,-0.094640076,13
1094,0.008354485,0.57707566,-1.878266,-0.60566384,14
1095,-0.2783708,-0.29196042,0.4531106,2.1846318,0
1096,-0.9964386,0.40442532,-0.15867078,-1.6012906,1
1097,0.5155524,1.1727831,-1.0382622,0.113678634,2
1098,0.37511447,-1.6464391,-0.62267846,1.3732643,3
1099,0.99194753,-1.0099411,-0.5957095,1.4745612,4
1100,0.6780685,-0.023283482,-1.4557768,-0.19922465,5
1101,1.2407057,-0.26309562,1.2365447,0.4765268,6
1102,0.5698291,-0.877262,0.69432294,1.0070887,7
1103,0.22189578,-1.0637718,0.3067781,1.1408377,8
1104,2.0439224,0.4054395,1.5195636,2.1100202,9
1105,0.5320063,-1.6423336,0.042094707,0.453357,10
1106,1.2483661,0.08744961,1.8295476,0.96670204,11
1107,-0.75660944,0.10126023,0.6367012,1.188672,12
1108,0.49251083,-0.45456123,0.45893574,0.85498184,13
1109,-0.03414327,1.0480902,-0.66711676,0.77859336,14
1110,0.39114267,0.40939716,0.62134707,1.5526447,0
1111,0.19779995,1.0341095,-0.10178518,2.5430434,1
1112,0.7139379,1.4878311,-0.16586357,2.0731237,2
1113,0.2670039,-1.0627729,-0.21649684,1.3523808,3
1114,-0.112415135,-1.571286,0.17854406,0.5658077,4
1115,-0.8192947,-1.1338117,-1.4742825,0.04328823,5
1116,0.49185568,0.24941015,2.5120432,0.605429,6
1117,0.9491222,-0.016945243,0.74509716,1.2790736,7
1118,0.8965907,-0.7626133,0.5524975,1.1436156,8
1119,0.7754373,-1.0594364,-0.14675158,0.9206954,9
1120,1.6680948,-0.79963136,0.30496833,1.2222298,10
1121,-0.35221076,-0.9089869,0.84282744,-0.26144803,11
1122,-0.46404937,0.26475304,0.98470616,2.515956,12
1123,0.40303805,-0.9867372,-0.682439,0.47008038,13
1124,0.85296315,1.7010748,-0.6215561,1.7945409,14
1125,0.5883706,0.853181,2.0592813,2.3541987,0
1126,-0.8864424,1.7723852,1.8459771,0.35865927,1
1127,0.29100022,0.5655781,-1.3101257,0.037920177,2
1128,-0.47827554,-1.2030203,-0.18619038,-0.29926234,3
1129,1.0447135,-0.20724225,0.8256976,1.5943896,4
1130,-0.2416515,-0.45020086,-0.82308567,0.43813023,5
1131,0.53603494,-0.6651453,0.9760215,0.63833797,6
1132,0.82351345,-0.8902415,-0.49298748,0.89507294,7
1133,1.4695331,-0.37988532,0.19007841,1.9129193,8
1134,0.56025225,-1.2955106,-0.53682375,0.403978,9
1135,2.6279652,0.4466045,1.3509494,1.7586448,10
1136,0.31387407,-2.0285778,-1.7626488,0.58110255,11
1137,-1.2962172,-0.25939468,0.6702472,1.7048757,12
1138,0.61042184,-0.5722961,0.8376772,0.445788,13
1139,-1.3402723,-0.30645633,-1.1954582,0.9907306,14
1140,-1.053276,-1.2775044,-0.30085137,1.2556845,0
1141,-0.31684917,0.92892,-0.9293656,-1.7235364,1
1142,-0.7564501,-0.014985353,-0.78298926,-0.49431318,2
1143,1.1658796,-0.5193852,0.6772357,1.1474749,3
1144,1.0999333,0.4615556,1.7664247,0.23195618,4
1145,-0.77849805,-1.0296094,-1.9034446,-1.683459,5
1146,1.1082568,-1.0725124,-0.39196,0.74081063,6
1147,0.2955511,-0.7475563,0.82703114,1.0824349,7
1148,0.07739061,-1.378321,-0.2892867,0.40012252,8
1149,1.5434833,-0.3715152,0.7180282,1.5165149,9
1150,2.127761,0.079450965,1.750806,1.5921106,10
1151,0.9064946,-0.38987273,0.42072678,0.8310901,11
1152,-1.8324202,-0.083153024,1.4841338,1.7164401,12
1153,0.5341904,-1.37585,-1.2432065,1.164177,13
1154,0.08220774,0.65730464,-1.3153286,1.5426326,14
1155,1.0902627,0.30525002,0.13682187,2.0770094,0
1156,0.35977176,0.6751735,-2.181655,-0.5372487,1
1157,-1.2799066,-0.70438176,-1.0256298,0.43079132,2
1158,1.0878294,-0.615377,0.60487926,0.72598374,3
1159,1.0406535,-0.6464033,0.67552626,1.995945,4
1160,0.1955449,0.47226262,0.49747562,2.2799544,5
1161,0.36892423,-0.81900924,0.16616565,0.077439904,6
1162,0.8446757,0.10114366,1.3692266,0.772712,7
1163,0.5850426,-0.10005027,0.72967196,0.898368,8
1164,1.1447537,-1.1552129,-0.39275616,1.5645118,9
1165,1.4984562,-0.6657686,0.20689963,1.1603868,10
1166,0.9588962,-1.5400637,-2.0481622,1.7795665,11
1167,0.79550993,0.7477357,0.26645997,1.6959116,12
1168,0.3804797,-0.85635513,0.786322,0.6296908,13
1169,-0.03812015,0.4509211,-1.9661561,0.5535626,14
1170,0.8897799,0.12445146,0.19220014,1.57549,0
1171,-1.6610496,0.4100585,1.0903548,1.2418356,1
1172,0.89719516,1.2569387,-0.96146905,1.2609656,2
1173,1.1646992,-0.66385776,0.33204705,0.7467165,3
1174,1.6250079,-0.33276978,0.6650178,1.6264827,4
1175,0.42051297,0.09493755,-0.59832,1.1240026,5
1176,0.19634938,-1.7199459,-0.42556968,0.38507563,6
1177,1.7935098,-0.6179925,0.19783586,1.0168891,7
1178,1.7581272,0.11535096,0.64035326,2.0647116,8
1179,0.7696675,0.0016883612,1.7215337,0.47699523,9
1180,0.50016963,-1.0061183,0.4627249,0.35835093,10
1181,1.2203779,-0.24655545,0.6124628,1.2208054,11
1182,0.5318053,-0.04876122,-0.8029022,1.042365,12
1183,-0.41891986,-1.285285,-0.14203382,0.4788457,13
1184,-0.92964023,-0.23715115,-1.9692982,-0.006045878,14
1185,-0.39296383,0.10424659,1.3051968,1.7969745,0
1186,-0.24178743,1.0164443,0.21709019,2.3740568,1
1187,0.44339806,0.9193767,-0.24796021,3.4725611,2
1188,-0.07168621,-0.67729765,0.63048255,1.0181894,3
1189,1.6424236,-0.5576395,-0.46280158,1.837002,4
1190,-0.16962641,-0.45032907,-1.2724214,-0.2302298,5
1191,0.37217474,-1.297087,-0.39526507,0.547665,6
1192,0.8457388,-0.174321,1.0605297,0.5967567,7
1193,1.0825921,-0.5776658,0.87446296,0.7202741,8
1194,0.63614994,-1.1061115,0.937841,0.83858883,9
1195,0.7090407,-0.7671354,1.0917978,0.37156057,10
1196,1.3159912,-0.35944098,1.3207959,1.5034335,11
1197,-0.307328,-0.31239393,-0.2186139,2.6922297,12
1198,0.77751005,-0.6217045,-0.4581247,0.019731045,13
1199,0.46622795,0.94733226,-1.7376335,1.4142678,14
1200,0.84961915,0.41393092,0.17492083,1.994925,0
1201,-1.1854438,0.9438894,0.2715156,-1.6079315,1
1202,0.123968735,0.73971546,-0.09033728,2.3885787,2
1203,0.21225744,-1.547078,0.024697766,0.5522035,3
1204,-0.35452473,-1.4181116,-0.49147528,0.4885651,4
1205,0.175144,-0.21054345,-0.64245856,1.0414008,5
1206,0.16345471,-1.7745605,-0.4596574,0.14679945,6
1207,1.612519,-0.22489274,1.1168649,1.2684608,7
1208,1.2489967,-0.07521701,0.5757946,1.493822,8
1209,0.5156896,-0.61608374,0.43154025,1.6209373,9
1210,1.584137,-0.3054194,0.74967396,1.5243633,10
1211,0.58277035,-0.9413085,-0.2663774,1.3281853,11
1212,0.3189593,-0.29766375,-0.98537624,1.8378279,12
1213,0.8042524,-1.1659398,-0.24581057,1.0170451,13
1214,-0.5428599,0.22969556,-1.6201203,0.1480574,14
1215,0.723861,-0.2797914,0.7354717,3.9714756,0
1216,-0.2917171,0.39049584,-1.2481152,-0.21734713,1
1217,1.0037154,1.1738842,-1.0607765,1.8469357,2
1218,0.9406662,-0.45593184,1.848059,0.76829076,3
1219,1.2439044,-0.27395335,0.19776984,1.72119,4
1220,1.2279798,0.91648036,0.032550216,1.2178445,5
1221,1.0334687,-0.48615783,0.9461415,0.10405791,6
1222,0.19516009,-0.7436826,0.9735303,0.8984772,7
1223,-0.15901703,-1.4096191,-0.116649896,0.61990666,8
1224,1.2720535,-0.49713033,0.86641943,1.2407947,9
1225,1.2770796,-0.9993328,0.27883905,1.392252,10
1226,1.2220569,-0.80623055,0.39376408,1.2610397,11
1227,-0.053874336,0.36420894,0.14969099,1.5792677,12
1228,0.9184945,-1.3144498,-0.91972953,1.706533,13
1229,-0.9437981,-0.4091161,-1.796052,0.07893503,14
1230,0.013014734,-0.49241,-0.72392905,0.30370104,0
1231,0.2949572,0.9985806,-1.1915991,0.022127435,1
1232,-0.78374225,0.121540785,-0.3150285,-0.15348548,2
1233,-0.14293242,-0.75687516,0.4196322,0.20865464,3
1234,1.5953482,-0.8392306,0.5089949,1.1851307,4
1235,0.8141501,-0.4806111,-2.2294106,0.27154702,5
1236,-0.34992278,-1.6510209,-0.08002174,0.4830143,6
1237,1.3544657,-0.40666816,-0.45594224,0.9149115,7
1238,0.06442922,-1.1387534,-0.500679,1.372642,8
1239,0.64906967,-0.5729219,1.1792006,1.1589094,9
1240,0.067358434,-0.58453226,0.7240661,0.39692748,10
1241,-0.25255835,-1.1166916,-0.1861198,0.45778173,11
1242,2.871179,0.93345094,-1.5671135,0.98322034,12
1243,0.023242772,-0.6701274,1.1006384,0.79963917,13
1244,-0.12903586,1.2288883,-0.36887836,0.6310377,14
1245,-1.4034182,-1.3048546,-0.9703425,0.16618288,0
1246,0.10045692,0.4972844,-2.0880423,-0.29625648,1
1247,0.32655808,0.49168116,-1.1872991,1.8389258,2
1248,1.7146709,-0.5355331,0.36015612,0.92054194,3
1249,0.2326361,-0.72754276,0.5374203,0.6689632,4
1250,-0.7125803,-0.585169,-0.82697475,-0.17257911,5
1251,1.0515252,0.19088101,2.0413313,1.1165757,6
1252,0.71641093,-0.29665804,0.53134286,1.4315474,7
1253,1.1733322,-0.8639655,-0.1678015,1.179564,8
1254,0.61233604,-0.7174809,0.46572962,1.4323249,9
1255,1.5191343,-0.6499135,0.9753636,1.0397995,10
1256,2.1038437,-0.4131885,-0.27980533,1.6741245,11
1257,1.0170506,-0.46330374,-2.5451837,0.84403294,12
1258,0.34642446,-0.66976213,-0.8387888,-0.07117039,13
1259,-0.70391965,0.61013377,-0.30415642,-0.09816134,14
1260,0.35047257,0.011543304,0.35994363,1.7230891,0
1261,0.23421118,0.5638931,-1.8786871,0.6656783,1
1262,0.35140222,1.3485066,0.252195,0.4937905,2
1263,1.4422143,0.42267847,1.6206907,1.3584888,3
1264,0.84403735,-0.40667698,1.0786928,1.299821,4
1265,0.29071045,-0.23717234,-1.220117,1.248443,5
1266,-0.17575294,-1.032117,0.7724298,0.25034097,6
1267,0.4803623,-0.5911877,0.73625934,0.8954679,7
1268,1.6382835,-0.43402195,-0.56048405,1.1096053,8
1269,0.4607249,-1.3569732,-0.6674856,1.2766819,9
1270,1.3465,-0.91596055,-0.1967805,0.6585382,10
1271,0.88946056,-0.6787795,-1.2175449,1.3366,11
1272,2.1539,0.291606,-1.5595527,1.8716067,12
1273,0.6197587,-1.6640732,-0.7013709,0.73533905,13
1274,-0.6629548,0.21962756,-1.2563741,2.06341,14
1275,-0.28800404,-0.5112517,-0.1780782,1.7980697,0
1276,-0.5273398,0.75124544,-0.4234897,0.9511113,1
1277,0.098710686,0.5991705,-0.8690633,0.48158345,2
1278,0.23874456,-0.57436883,1.0649453,0.09480333,3
1279,0.7823674,-0.842928,-0.18364157,0.4394315,4
1280,0.104382634,-0.027424172,-0.5787519,1.96171,5
1281,0.2817563,-0.4752285,1.0211549,0.1923328,6
1282,0.9748363,-0.82257754,-0.32484868,0.6206001,7
1283,1.8424027,0.5395693,1.1386275,1.1111431,8
1284,2.1902773,0.08487517,0.9407858,2.012907,9
1285,1.6678977,-0.93677664,0.23096927,0.7344259,10
1286,0.4153955,-0.07834834,1.6987214,0.20531803,11
1287,-0.31887817,0.0876168,0.27960864,2.0783827,12
1288,0.91716266,-1.0316398,-0.29802567,1.1624328,13
1289,-1.2889602,-0.25542432,-0.45659345,1.6142058,14
1290,-0.37366104,-0.4872164,-0.18675144,1.2151577,0
1291,0.6402137,0.27655214,-2.2515178,1.4906552,1
1292,-0.0837983,1.015919,0.18140173,0.5954627,2
1293,-0.7454779,-1.6135842,0.2593559,-0.47711748,3
1294,0.0690006,-1.3479028,-0.77243626,-0.08005792,4
1295,0.3444618,-0.054702554,-0.90375715,1.5828819,5
1296,1.6940968,-1.2792726,-0.678005,0.864781,6
1297,0.960413,-0.39999157,0.33224058,1.164416,7
1298,0.9699521,-1.3995109,-0.9348272,2.2773747,8
1299,0.3381894,-0.8185085,1.0346236,0.315462,9
1300,1.6331576,-1.0970005,-1.0068344,0.5752982,10
1301,-0.0185889,-1.6064857,0.1432594,0.7091551,11
1302,-0.33003458,0.17136602,0.19160065,1.3628767,12
1303,0.79085803,-0.6331639,0.67597365,1.0700479,13
1304,-0.4920622,0.6833953,-0.3401879,1.4023895,14
1305,-1.1826477,-0.9905158,-0.21840963,0.4092642,0
1306,-0.21684954,0.14517963,-1.4157957,1.4010832,1
1307,0.50018805,0.694154,-1.5506101,0.3953159,2
1308,-0.7728565,-1.3488132,0.5156341,0.3788792,3
1309,0.4016908,-0.6297574,0.99890745,0.6814592,4
1310,0.67786,0.58104086,0.1202333,1.6876295,5
1311,0.26534283,-0.6535226,1.1821787,0.75452566,6
1312,0.3885403,-0.9696959,0.58981335,1.2989742,7
1313,0.40694726,-0.3003255,1.8582743,1.1999594,8
1314,1.292975,-0.5198599,0.8931229,1.4403882,9
1315,0.7961328,-0.83807975,0.0530017,0.06381339,10
1316,0.25265393,-1.1721479,0.2711408,0.80196476,11
1317,-0.9605385,-0.11165096,0.47073963,1.2318057,12
1318,-0.034566462,-1.4143184,-0.351565,0.2075594,13
1319,0.35650033,1.3243415,-0.42103583,2.438211,14
1320,-0.42310634,-0.7954377,-0.46907905,1.250581,0
1321,-1.6554323,0.9150822,2.194226,-0.32527113,1
1322,0.623022,0.8354331,-0.9352615,2.5542605,2
1323,0.96117175,-0.67220455,0.3804534,1.3468823,3
1324,-0.13379997,-0.29335153,1.1140263,0.19904375,4
1325,0.16747487,-0.0077710524,-0.17244339,1.462605,5
1326,0.3085974,-0.6066005,1.5744107,0.7712658,6
1327,1.2295157,0.57576174,1.9718008,0.51158607,7
1328,0.25590974,-1.0813999,0.54978585,0.97661334,8
1329,1.8761039,-0.8963984,-0.8919935,1.6246505,9
1330,0.82761943,-0.735416,0.3297901,0.7976487,10
1331,0.77098316,0.1272183,1.5561364,1.1943926,11
1332,-0.74819505,-0.34297717,-0.32752305,1.3495617,12
1333,0.2160429,-0.8521904,0.018501043,0.8483691,13
1334,0.06985071,1.4467969,0.12232435,2.5529804,14
1335,0.48164266,-0.8483238,-0.06569052,1.9103541,0
1336,0.032399505,1.2499461,-0.1905021,0.15933831,1
1337,0.321647,0.82615167,-0.72182375,-0.13179564,2
1338,1.6286345,0.021227598,0.9176672,1.9079878,3
1339,1.7603967,-0.06101346,0.5289751,1.4605083,4
1340,-0.4206085,-0.85913986,-1.7028524,0.33065677,5
1341,0.6878492,-1.4026313,-1.2772281,0.61285806,6
1342,0.8846324,-1.1014807,-0.38186613,1.3567147,7
1343,0.47534606,-0.73952013,-0.42765513,1.8431903,8
1344,1.341988,-0.079247236,2.3546255,1.0950663,9
1345,0.8713802,-1.1043341,0.31222975,0.77800024,10
1346,-0.28550977,-1.450023,-0.46321303,0.87249255,11
1347,-1.3433177,-0.24512747,0.9517859,2.5309484,12
1348,0.16969073,-0.8740396,0.8868364,0.82231665,13
1349,-0.1645456,1.1301515,-0.78516936,1.4357624,14
1350,0.506715,0.4257051,0.6066624,1.3790988,0
1351,-0.11024326,1.2227321,-0.4316622,-0.3915115,1
1352,-0.6723015,-0.50969964,-1.9278464,-0.33861953,2
1353,1.3625178,-0.572415,0.88293916,1.2431662,3
1354,1.5193764,0.13892293,1.0778058,1.3256589,4
1355,0.10333192,0.041172206,-0.5812507,-0.29349524,5
1356,0.003946364,-1.935377,0.14102593,0.27671644,6
1357,1.0498976,-1.1116879,-1.0370011,1.8200021,7
1358,1.8263979,0.064860284,-0.0067655146,1.0870812,8
1359,0.77619207,-0.395317,1.8546145,0.36687636,9
1360,1.9302278,-1.2704606,-0.42122078,1.472259,10
1361,0.08484012,-1.5669823,-0.7841636,0.5533479,11
1362,-0.2708084,-0.30510008,-0.8454653,1.1458857,12
1363,0.89973503,-0.24464577,0.49555567,0.544577,13
1364,-0.51135063,1.0521013,0.27498865,1.3181182,14
1365,0.8073754,-0.27947307,-0.54957694,1.637157,0
1366,-0.66008574,0.4029854,-1.2062943,-1.3410306,1
1367,0.099944904,0.49401355,-1.1834449,0.28569436,2
1368,0.66310275,-0.16867626,0.86274517,1.4756873,3
1369,1.0398196,-0.2701777,0.39954722,0.66091657,4
1370,0.98169935,0.524962,-0.5975194,1.5196679,5
1371,1.2906873,-0.75801504,-0.05452463,0.9662671,6
1372,1.5732307,-0.2137155,0.5710315,0.9124347,7
1373,0.43794015,-0.701226,-0.13613614,1.164423,8
1374,0.7825216,-1.42256,-0.64674544,1.3631605,9
1375,0.18851537,-1.4913144,-0.3512454,0.66763294,10
1376,1.7270714,-0.844059,-1.1219286,2.7817326,11
1377,0.06336287,-0.7431372,-1.7810916,1.1674478,12
1378,1.5644088,0.03888333,0.23911458,1.3603523,13
1379,-0.81100506,0.28761488,-0.79932845,0.8978849,14
1380,-0.3831676,-0.6830008,-0.1290879,0.22735679,0
1381,0.3144119,1.0641712,-0.93280065,2.1720514,1
1382,0.07849789,-0.28734392,-2.472849,0.76121575,2
1383,1.7399912,-0.7005505,0.0903966,1.679878,3
1384,0.20264915,-2.2442114,-0.67307985,-0.13838214,4
1385,0.30617487,-0.025957547,-0.97110564,0.36127502,5
1386,0.21375,-1.0076847,1.1607136,0.91462964,6
1387,0.45876592,-0.67470604,1.1854652,1.0039301,7
1388,-0.06964433,-0.932573,0.7534362,-0.18854773,8
1389,0.7849057,-0.6545852,1.1103137,1.3818789,9
1390,0.2941956,-1.6271894,-0.15549493,0.5834811,10
1391,0.42874867,-0.91263497,0.50287503,1.4708647,11
1392,0.64918077,-0.15024076,-1.5210851,0.71608114,12
1393,0.44141233,-0.85157806,-0.4654231,1.0923791,13
1394,-0.047783643,1.0557715,-0.9124471,1.3837495,14
1395,0.8045859,-0.67234075,-0.44413668,1.9959564,0
1396,-0.38066852,1.3192099,0.38123345,-0.17194192,1
1397,1.243957,1.1230268,-1.6695914,1.8840501,2
1398,0.34041795,-0.830686,1.0322274,0.56732106,3
1399,1.0343798,0.023834288,0.7343168,1.1316495,4
1400,-0.31065097,-0.86777526,-1.6515802,0.69590664,5
1401,0.85775244,-0.65290916,0.52450436,0.9512745,6
1402,-0.41762936,-1.7440755,-0.50685227,0.2988845,7
1403,1.4104964,0.023534358,1.033106,1.1284541,8
1404,0.413454,-1.2125475,0.7316068,0.45112854,9
1405,-0.015006006,-2.0581675,-0.7820113,0.15816015,10
1406,0.4863131,-0.49050364,1.0043747,0.024939537,11
1407,0.34414616,-0.82515335,-2.3509455,0.010289311,12
1408,-0.023339808,-1.1894567,-1.0151682,0.514904,13
1409,-0.8799124,-0.3587466,-2.2801542,-0.15493125,14
1410,-0.9328273,-0.69231546,0.47599345,1.7938781,0
1411,-0.8055266,0.24088767,-0.44175565,0.2201131,1
1412,1.6869539,1.5999138,-1.0946743,2.7051826,2
1413,0.489519,-1.1218063,-0.39540458,0.8322058,3
1414,1.2407718,-0.042758405,0.20842071,1.444811,4
1415,-0.099785805,-0.6613093,-1.2243334,0.21042109,5
1416,-0.7950455,-1.7699554,-0.0052826703,-0.4900235,6
1417,1.3152932,-0.44912428,-0.10601872,1.1193594,7
1418,0.17698109,-0.63980925,0.04051003,0.6210687,8
1419,0.43647337,-1.4036772,-0.17690909,0.55347806,9
1420,0.6837688,-0.23806852,1.4679912,0.82645977,10
1421,0.02135998,-1.3578783,-0.3257752,0.4923463,11
1422,-0.6997893,-0.35714227,-0.49420604,0.94649154,12
1423,0.6284365,-0.3390494,0.5994641,0.74286926,13
1424,-0.43582144,0.70392704,0.07861006,1.6282492,14
1425,-0.8304593,-0.21592316,0.83750474,1.2390177,0
1426,-0.99821615,-0.56810534,-1.6935631,-0.61022264,1
1427,-0.5515664,0.64246535,0.042684436,0.4492013,2
1428,0.9769076,0.06271356,2.2231739,1.0761409,3
1429,0.77071553,0.1830908,2.208407,1.1127455,4
1430,0.38593403,0.7221636,0.41350567,1.708168,5
1431,-0.3761977,-1.4962139,0.47030064,-0.7838354,6
1432,1.1385361,-1.2751793,-0.3165674,1.1665529,7
1433,0.43700087,-1.5526676,-0.808777,1.9943461,8
1434,0.27929097,-0.9759624,0.13318717,0.5612233,9
1435,1.6898961,-0.46688968,0.8621466,1.1497636,10
1436,-0.5161985,-0.9983264,0.56501645,-0.20738852,11
1437,-0.7315066,-0.7902576,-0.8440603,2.015197,12
1438,0.62249345,-1.1525713,-0.055579454,0.4885373,13
1439,0.050101012,0.956651,-1.0590541,1.2393708,14
1440,0.40361473,0.6633135,1.2111766,1.6843183,0
1441,0.06111896,1.106363,-0.9043513,-0.13105772,1
1442,-0.4103515,0.3600675,-0.35769916,1.1694559,2
1443,1.9734741,0.13899362,0.08973621,1.9677217,3
1444,-0.83601904,-1.5251151,-0.4075994,-0.26265544,4
1445,-1.0008575,-0.3613096,0.14075041,0.6564056,5
1446,1.2063658,-0.05593258,1.5158807,0.7439346,6
1447,0.75067884,-0.83012694,0.5771102,1.3261511,7
1448,-0.15708983,-1.6825035,0.03271225,0.74716926,8
1449,0.44089887,-0.65141,0.85729086,0.7641332,9
1450,0.2440806,-1.7547277,-0.49265057,0.85191786,10
1451,0.7826866,0.122710526,1.6733694,0.89204067,11
1452,1.631908,0.41314232,-1.0548221,1.6890328,12
1453,0.76803726,-1.2891946,-0.62901264,0.5170033,13
1454,-0.6719698,0.23092005,-0.47296184,1.4287722,14
1455,0.14495653,-1.1182485,-1.547604,0.7370211,0
1456,0.5416442,0.79052037,-1.7082012,1.6345994,1
1457,0.5715814,1.1071417,-0.34676468,1.6385407,2
1458,0.3876404,-1.1496587,-0.2387542,0.70689046,3
1459,0.07456106,-1.752255,-0.45498192,0.35586375,4
1460,0.43247744,0.0686986,-0.25321174,1.6490467,5
1461,0.61396843,-0.3273626,0.9372785,0.9625429,6
1462,1.0454443,-0.8753391,0.25849786,0.64880973,7
1463,0.4912005,0.53706306,2.3526125,1.1380384,8
1464,1.0708412,-0.34819162,1.7752733,1.632967,9
1465,0.86665636,-1.884957,-2.4308467,1.0352393,10
1466,1.3634138,-0.3456703,0.54380417,1.070086,11
1467,-0.37501204,-0.28861427,-0.012880862,1.9217081,12
1468,1.224328,-0.43082896,1.113622,1.1409568,13
1469,0.10940924,1.1721787,-0.9709871,0.72906053,14
1470,0.18397313,-0.31739864,-0.16840999,0.6399124,0
1471,0.69342375,1.5456259,-1.2798481,-1.0619286,1
1472,-0.46337533,0.28720272,-0.20319235,1.0483532,2
1473,0.84733033,0.2947427,1.077583,1.005983,3
1474,1.1138713,-0.97963303,-0.7690787,1.8915114,4
1475,0.512738,-0.5454956,-1.8347185,0.15442646,5
1476,1.548286,-0.70937324,0.33295166,0.79353184,6
1477,0.3398376,-0.40118036,1.1655003,0.44612652,7
1478,0.3817208,-1.9003878,-1.4004756,1.3969009,8
1479,1.949867,-0.3932762,0.6022183,1.9848369,9
1480,1.0179225,-0.21876746,1.2889985,0.80782074,10
1481,0.8036454,0.37075043,1.3754804,1.3458765,11
1482,-0.6334291,-0.35622066,-0.26662192,0.8179468,12
1483,1.4361534,-0.8062785,-0.38741833,1.0865197,13
1484,0.5000754,1.4257344,-0.52432764,1.210215,14
1485,-1.0291858,-1.3218044,-0.11057055,0.89309776,0
1486,0.15844047,0.2216877,-2.0281224,0.3111707,1
1487,0.39026853,0.41281188,-1.7996749,0.7323975,2
1488,0.7887437,-0.43949655,0.5419783,0.99925154,3
1489,2.093772,0.8005136,1.8453598,1.8551309,4
1490,-0.0024594963,0.029190585,-0.38542467,0.45073533,5
1491,0.99243116,-0.5980642,0.8527832,0.86631113,6
1492,0.6799897,-1.5162052,-1.0688115,0.747869,7
1493,0.42882782,-1.4079742,-0.40260026,0.21070588,8
1494,0.087361336,-1.3512549,-0.16864175,0.38921976,9
1495,0.30329084,-1.4480274,-0.71202314,0.47010985,10
1496,0.53866595,-1.5644445,-0.65977323,0.9826174,11
1497,0.99961996,-0.70001036,-2.9432259,0.750889,12
1498,0.0021162033,-0.8689734,0.7052634,0.026954591,13
1499,0.6904176,1.418773,-1.7505765,-0.6758854,14
1500,-0.466091,-0.86534286,-0.4725952,1.548755,0
1501,0.004650533,2.1086447,0.07543957,-0.9558187,1
1502,0.8875839,1.4619167,-0.77118456,-0.24192911,2
1503,0.8665545,-1.4558536,-0.49836135,1.1812736,3
1504,0.2851181,-1.1596396,-0.0602047,1.1121029,4
1505,0.6194155,0.39859068,-0.8106633,-0.27002758,5
1506,0.5476054,-0.9565328,0.80268574,0.5002811,6
1507,0.96298695,-1.1232827,-0.3329884,0.878257,7
1508,-0.15637273,-1.2497754,-0.22756836,1.2086031,8
1509,1.0048003,-0.7290944,1.1668167,0.5518264,9
1510,0.69841486,-1.3526714,-0.1474505,0.7248041,10
1511,1.3469079,-0.70027024,-0.30002522,1.1117905,11
1512,-0.6649853,-0.015149839,-0.21103862,-0.018295288,12
1513,0.8712249,-0.94159967,0.34284884,0.9943466,13
1514,-0.40775058,0.7763465,-0.18146884,1.3612864,14
1515,-0.20300946,-0.37896973,0.59216034,1.9225261,0
1516,-0.31604654,1.1668613,-0.052395046,-1.0476815,1
1517,0.25317788,1.2041681,0.012332439,0.95095754,2
1518,0.4428192,-1.031204,-0.0010789037,1.2946845,3
1519,0.101237655,-0.67077935,0.4344235,1.2028233,4
1520,-0.37122282,-0.891682,-1.3457279,1.595376,5
1521,0.6679086,-1.0004075,0.19524628,0.13493598,6
1522,0.8076926,-0.6779257,0.023308963,1.681525,7
1523,0.08252251,-1.6915843,-1.0939937,1.5018332,8
1524,1.1036484,-1.791209,-0.6715368,0.63683814,9
1525,0.20803809,-0.80487573,0.39692426,0.08686525,10
1526,-0.2148574,-0.80193377,0.9629204,0.18823415,11
1527,-0.33728528,-1.0095961,-1.5689272,0.82277614,12
1528,1.7262518,0.020354927,0.873326,1.9981273,13
1529,-0.64579505,0.6825592,0.03799075,1.5969558,14
1530,-0.8806658,-1.08129,-0.031952087,2.0701404,0
1531,-0.40718582,0.5535964,-0.9681068,-0.95271343,1
1532,0.32182735,0.35271996,-1.6360381,0.98572844,2
1533,1.1613764,-0.6639284,-0.8926821,0.8797985,3
1534,1.0852318,-1.3211102,-1.0287478,1.0542514,4
1535,-1.0047971,-0.5953126,0.28106904,2.3933463,5
1536,0.53676283,-1.4475654,-0.28319648,0.81909126,6
1537,0.56707335,0.37162143,1.9339169,1.0456225,7
1538,-0.039764524,-0.9373182,-0.4149786,0.10157454,8
1539,0.79892665,-1.7728554,-0.44998312,0.615458,9
1540,1.0884438,-0.5995959,0.9804728,0.23844963,10
1541,0.7422476,0.4375255,1.5988448,0.84373206,11
1542,0.38207456,-0.06302049,-0.69683594,1.2308145,12
1543,1.0401855,-0.56252295,-0.0405716,0.8259312,13
1544,-1.3195329,0.31640297,0.5453712,1.0690506,14
1545,-0.12984851,-1.5073168,-1.8642497,0.6207502,0
1546,-0.3629608,0.61831546,-0.3183413,0.5517345,1
1547,-0.20297447,0.39760542,-1.1226594,-0.06401521,2
1548,0.012352169,-1.649457,-0.8718146,0.66874856,3
1549,0.7101109,-0.5661329,1.4272913,1.0634772,4
1550,0.092637256,-0.80801386,-1.8563898,0.4683417,5
1551,-0.5418824,-1.4057686,0.5329689,-0.43546247,6
1552,-0.28267133,-1.7931032,-1.1696836,0.3931623,7
1553,1.0215874,-0.54367733,0.03248857,0.8355524,8
1554,0.65891004,-0.97823423,1.9318877,0.10306156,9
1555,0.14115012,-1.6135967,-0.522536,0.91421854,10
1556,1.1065104,0.014520347,0.4039307,1.1891065,11
1557,0.4200242,-0.9297936,-2.4768133,0.19395411,12
1558,0.6722185,-0.96740985,-0.24038666,0.60743046,13
1559,0.2286089,0.92399275,-1.0480657,1.3743329,14
1560,0.222496,0.31747803,0.9143656,1.4732397,0
1561,0.5146979,0.90295637,-1.5975807,-0.14440496,1
1562,-0.6184084,0.43310627,-0.17230046,0.0029636025,2
1563,0.14339584,-0.8447509,0.51615816,0.5996623,3
1564,-0.417459,-1.6875262,0.33767998,-0.3880332,4
1565,0.13054895,-0.12146643,-0.7216718,0.26633394,5
1566,1.5181516,-0.5153219,0.8585454,0.35687837,6
1567,0.54534006,-1.4855621,0.41440186,0.14317667,7
1568,0.74059635,-0.2509713,1.1162499,1.1294452,8
1569,0.6126747,-0.64908594,1.1013954,0.21682352,9
1570,1.9591317,-0.8758691,0.043878853,1.5316219,10
1571,0.2892788,-1.625333,-0.61014545,0.8246675,11
1572,-1.4357762,-0.39303112,0.52321064,1.0886774,12
1573,0.057980597,-1.3953751,-0.6244914,0.55526304,13
1574,-0.22855596,0.17821994,-2.5553608,0.19886237,14
1575,0.5136666,-0.31115767,-0.57592833,1.6372719,0
1576,-0.7688596,-0.3371728,-1.4605966,0.27980715,1
1577,-0.38694096,-0.52997893,-2.1320777,-0.11281437,2
1578,0.32994622,-1.5552162,-0.81851095,0.3142981,3
1579,1.6578168,-0.22708821,-0.54263616,1.6369303,4
1580,-0.065901995,-0.2090197,-0.14908862,1.1087613,5
1581,0.5091642,-1.3693783,0.32742748,0.46197262,6
1582,-0.58328855,-1.273751,1.0967185,-0.054964602,7
1583,-0.4173811,-1.4876189,-0.5857178,-0.34743524,8
1584,-0.32674402,-2.1268077,-1.1647927,-0.4985801,9
1585,0.1274606,-1.6904083,0.07585788,0.54734343,10
1586,1.7426804,-1.1857207,-1.3010215,2.0571644,11
1587,-0.6861795,-0.76504165,-0.8334695,1.9522699,12
1588,0.8007434,-1.1059419,-0.07818803,0.8512043,13
1589,-0.8106277,0.44115257,-0.8294084,-0.50931925,14
1590,0.05161202,0.2570583,1.2140869,2.2917666,0
1591,0.052304596,0.8546852,-0.97241867,0.339539,1
1592,-0.1335077,-0.016521394,-1.1328175,2.3481436,2
1593,1.5634164,-0.64709425,-0.34563094,1.6003106,3
1594,0.6196221,-1.5243956,0.25626194,0.21241474,4
1595,0.25260982,0.58058465,0.26731694,1.5641446,5
1596,0.29817367,-1.2996464,-0.069698125,0.12948942,6
1597,0.50801766,-0.45364237,0.5889296,0.84207803,7
1598,0.7137657,-1.2536755,-1.0690123,0.63814783,8
1599,1.2724904,-0.8790872,-0.5035993,0.34234005,9
1600,0.8676193,-0.74228346,0.7199819,0.744846,10
1601,0.74557924,-0.59746796,0.6858237,1.0340294,11
1602,1.6555052,0.17318158,-1.9392089,0.45197678,12
1603,-0.20263875,-2.4025466,-0.9326305,0.82751817,13
1604,0.02940765,0.81417775,-1.1131561,1.1317918,14
1605,1.447368,0.9637749,0.8627894,2.2090123,0
1606,-0.26470292,0.3113768,-1.338393,0.58881134,1
1607,-0.24127406,0.43080148,-1.0616161,-0.82312673,2
1608,1.6514028,-0.7986148,0.13576867,1.1999547,3
1609,-0.31940007,-1.4660132,0.4424109,0.57070315,4
1610,-0.859715,-1.1305182,-1.2769535,1.2329137,5
1611,0.5552699,-1.2314416,-0.9708377,0.07234168,6
1612,-0.11207116,-0.44949606,1.5189066,0.19751841,7
1613,0.47335163,-0.53013086,0.8070053,-0.11267674,8
1614,-0.5525963,-1.1248393,0.24275264,0.61989796,9
1615,0.12312877,-1.3379699,0.44406286,-0.24778515,10
1616,0.45748985,-1.8387337,-0.9006876,0.95559764,11
1617,-0.66157037,-0.23122343,-0.117312044,1.2290571,12
1618,-0.056106865,-1.2593021,0.34203967,-0.10580242,13
1619,-0.56390375,0.563017,-0.44957948,0.84599644,14
1620,0.6290537,0.012987077,0.81373703,2.9819841,0
1621,0.19998154,1.300232,0.39983964,2.9744139,1
1622,1.0043172,1.0271579,-1.444309,-0.3213007,2
1623,1.8524336,-0.31290072,0.84192574,2.0440404,3
1624,0.6258484,-1.57799,-0.9037175,0.9095344,4
1625,0.08500092,-0.20696984,-0.52654135,1.6423235,5
1626,0.450179,-0.5773111,1.2317299,0.28884727,6
1627,1.0844929,0.5358723,1.299729,1.5124342,7
1628,1.8460188,0.26442605,0.91518486,2.9048948,8
1629,1.130021,-1.1769555,0.0059767365,1.1811056,9
1630,0.05212021,-0.85337,0.9899898,0.65071785,10
1631,-0.28416717,-1.0147173,-0.5927514,1.116446,11
1632,0.48035815,0.04913701,-0.8771547,1.5748055,12
1633,0.79649794,-0.44282505,0.9865912,0.8821145,13
1634,-0.6742991,0.11660239,-1.4017422,0.16045773,14
1635,-0.2900489,-1.5419533,-1.2951574,1.5024241,0
1636,0.2947307,1.6995727,0.017830849,0.4141572,1
1637,-0.74603134,0.20692343,-0.5527482,-1.20684,2
1638,-0.072232425,-1.0968225,0.30086476,0.33348632,3
1639,1.019457,0.5333215,2.1533968,1.6394961,4
1640,0.946782,0.41778296,-0.5719265,0.22056198,5
1641,0.7071413,-0.506722,-0.056159288,0.7041601,6
1642,1.0485876,-0.9727468,-0.022170216,0.5944526,7
1643,0.32772446,-1.0684547,0.2643113,0.6252783,8
1644,2.09774,0.36900544,2.061253,1.8018502,9
1645,1.2535578,-0.28118968,0.15073335,1.7727628,10
1646,0.3001615,-0.8773036,-0.76287276,0.7664269,11
1647,-2.4995344,-0.06974785,2.275903,1.9879241,12
1648,0.37734056,-1.2391119,-0.6562807,0.4485483,13
1649,-1.1117259,-0.35266668,-0.99455357,0.5449931,14
1650,-0.54121596,-0.013479441,0.9496467,1.3950561,0
1651,-0.1953893,1.2285193,0.15838617,-0.5677723,1
1652,0.34418374,0.7980517,-1.2245604,1.0230497,2
1653,0.8948362,-0.26656497,0.3301664,0.5808103,3
1654,1.0272133,-0.62293196,0.7187376,0.75783,4
1655,0.1682171,0.12247096,-0.41234392,1.6603086,5
1656,0.3985979,-1.140729,0.39557296,0.53733945,6
1657,1.0670029,-0.92263746,0.33513084,2.0828233,7
1658,0.81645346,-0.91369295,-0.63250804,1.3388602,8
1659,1.7142768,-0.57706726,0.703709,1.7079668,9
1660,1.5364009,-1.155715,0.29934978,1.1356575,10
1661,0.39518103,-1.3486332,-0.42508078,1.2872398,11
1662,-1.0925004,-0.637698,0.11572182,2.7260509,12
1663,0.2103652,-0.55300015,0.031233728,0.7178195,13
1664,-1.0374291,0.102139294,-0.6785207,0.81285065,14
1665,0.8654109,0.21255895,1.1233147,2.9261765,0
1666,-0.27836308,0.15228131,-1.764907,-1.4492396,1
1667,0.49431875,0.52527195,-1.5179695,1.0142326,2
1668,0.8236886,-1.4312214,-0.81497777,1.3788584,3
1669,0.8539337,-0.09544772,0.66956246,1.7216635,4
1670,1.1787627,0.2970937,-1.1983314,0.58883965,5
1671,1.8263958,0.015900612,0.16994199,0.75270665,6
1672,0.4712488,-0.74070364,1.2921839,0.85722363,7
1673,0.49702588,-1.1569769,0.16456988,1.0115321,8
1674,0.7449841,-0.38779244,1.1132451,1.2222247,9
1675,0.8382814,-0.6519467,0.7819474,0.7070369,10
1676,0.9126176,-1.1327555,-1.387119,0.8851523,11
1677,-1.2913616,-0.8679459,-0.3625935,1.458728,12
1678,-0.29714197,-1.0633931,0.97813225,0.18356884,13
1679,0.02283436,1.1945035,-0.26523286,1.4683645,14
1680,-0.012149319,0.09049922,0.68352044,3.028183,0
1681,-0.02759251,1.1094049,-0.88095367,-0.5747074,1
1682,-0.16401535,0.7300117,-0.2346273,0.51667804,2
1683,0.80362535,-1.1598951,-0.32357597,0.6210234,3
1684,1.7506508,1.1378387,3.1129324,0.6675688,4
1685,0.22965927,-0.08414877,-0.9002499,0.46830547,5
1686,-0.8449626,-2.0448422,-0.60517585,-0.50066686,6
1687,0.9275556,-1.4813228,-1.4182991,1.5503342,7
1688,0.8111955,-0.5267718,0.4392743,0.4213791,8
1689,0.8050384,-0.27992588,1.4690928,0.71208256,9
1690,1.0221937,-0.9845445,0.9849789,1.6289688,10
1691,0.7441526,-0.7874197,-0.28685772,0.82476234,11
1692,-0.31654477,-0.1780999,-0.08232328,1.2144616,12
1693,0.3494297,-0.68820626,0.83202773,0.86324,13
1694,-0.9369842,0.49604774,-0.33446443,0.87732816,14
1695,-0.8212712,-0.4119481,0.5127525,1.2803534,0
1696,0.72991776,1.7312202,-0.85997736,1.093535,1
1697,-0.03450223,0.24189346,-1.3016815,0.30926383,2
1698,1.4151804,-0.49366075,0.68015015,1.4843161,3
1699,0.88657826,-0.74134827,-0.6091058,0.81814194,4
1700,0.14776793,-0.14179796,-1.2166106,-0.0922609,5
1701,-0.027292192,-1.8358684,-0.7646998,-0.03624326,6
1702,1.2507488,-0.6696809,-0.15820935,1.6734047,7
1703,1.7318807,0.56712323,1.111758,1.8383476,8
1704,0.9043574,-0.9974983,0.47571754,1.1899738,9
1705,1.188241,-0.089242935,1.0362401,1.0417464,10
1706,0.99173355,-0.5123509,0.17169482,0.88773626,11
1707,0.071057945,-1.0368048,-2.2653718,0.9534535,12
1708,0.32249406,-0.09063947,1.2025435,0.16806251,13
1709,0.25804037,0.408158,-2.4331248,0.404003,14
1710,0.8460378,-0.32934394,0.07253909,2.67935,0
1711,-1.6725953,-0.748018,-0.42579108,-0.8063558,1
1712,-0.013515353,-0.37704766,-2.6779513,0.2545585,2
1713,0.3807402,-1.2316492,-0.42285335,0.60250473,3
1714,0.26677108,-0.25193882,1.6035658,-0.036086738,4
1715,0.611647,0.7223777,0.25812626,1.0451406,5
1716,0.78980494,-0.2588628,0.9357065,0.53529763,6
1717,0.8529686,-1.5071436,-1.6524292,1.2082589,7
1718,1.2663538,-1.2539234,-1.0452894,1.2208769,8
1719,-0.93539554,-2.146308,-0.13104945,-0.72544205,9
1720,-0.23688006,-1.4509236,-0.07239956,0.20123845,10
1721,0.039718926,-0.12817204,0.7531843,0.29469985,11
1722,-0.61140287,-0.5720542,-1.0333351,0.15129411,12
1723,0.5402225,0.020250797,1.2280636,0.086719096,13
1724,-0.24939798,0.7456398,-0.45105788,2.7572687,14
1725,0.094797954,0.15867272,0.38329175,1.7743802,0
1726,-0.50486773,0.74438083,-0.22639811,0.09371644,1
1727,-0.6689198,0.08793765,-0.64102125,-0.15622234,2
1728,0.536775,-1.376694,-0.5189981,0.6640283,3
1729,0.3732009,-0.6958574,0.47914195,0.7640624,4
1730,-0.39207163,-0.71386874,-1.559492,0.609687,5
1731,1.0131905,-1.5624001,-0.14974436,0.7651944,6
1732,1.4942067,-0.5297469,0.84365726,1.2195356,7
1733,0.66774046,-0.14230108,1.0735338,1.4028944,8
1734,0.94994676,0.14058697,1.7805418,1.6699646,9
1735,0.7275618,-0.95333743,1.4745665,0.3602268,10
1736,1.4163677,-0.0034350157,0.8209034,1.8654488,11
1737,0.09003079,-0.18141004,-0.9308919,0.6019756,12
1738,1.0913955,0.24687815,0.7288279,0.81698275,13
1739,0.014097214,0.9101636,-0.5741557,2.4492419,14
1740,-0.5863853,-0.3011708,0.61603385,1.6648453,0
1741,-0.59185874,0.7100084,-0.5843914,-1.355531,1
1742,1.0489222,1.1657908,-1.3037078,2.0068438,2
1743,1.0461252,-0.7835492,0.33809674,1.3936588,3
1744,-0.8556186,-1.4027433,0.3571523,-0.5144282,4
1745,-0.7883667,-0.46291763,-0.19477963,1.270017,5
1746,0.025670469,-1.2670858,-0.094912976,0.5323844,6
1747,0.25593367,-1.2015564,-0.45167598,0.6576149,7
1748,0.007918775,-1.6101735,-0.2190204,0.37977397,8
1749,1.8385899,-0.13004196,0.64253134,1.503641,9
1750,0.92125565,-2.0733445,-0.6899055,-0.08375561,10
1751,1.3424318,-0.45694974,0.506207,1.7201078,11
1752,0.036697194,0.108307794,-0.27374431,1.1346076,12
1753,0.6517685,-0.64340943,-0.37988138,0.90731925,13
1754,-0.54400444,0.37799844,-0.9745747,0.7986833,14
1755,0.32318598,0.41454193,1.3823266,2.1642559,0
1756,-1.2440283,-0.24703318,-1.1113315,-0.5725787,1
1757,-0.30771393,-0.32492554,-2.117729,0.060422957,2
1758,0.8685769,-1.3523455,-0.64045364,1.3131828,3
1759,0.7035747,-0.27630323,0.29632902,1.0537046,4
1760,0.58616066,-0.5121178,-1.8614659,1.0849562,5
1761,1.0899732,-0.3834144,1.2807453,0.96633327,6
1762,0.13025892,-0.9035145,1.4264776,0.34593356,7
1763,1.0046468,-0.7486439,-0.7698822,1.0765239,8
1764,0.39171785,-0.87974244,0.6290523,0.40688235,9
1765,0.6140008,-0.50388294,1.6617857,0.7831897,10
1766,0.44419497,-0.26582146,0.86228484,0.8477894,11
1767,-0.96196425,0.021868572,1.3447826,2.6126454,12
1768,0.53425753,-1.3602436,-0.28932387,0.34948498,13
1769,-0.11240482,0.599411,-1.4307117,1.1600518,14
1770,0.42193508,0.29477742,-0.017327432,0.9591511,0
1771,0.22384575,1.8073769,0.21609944,-0.33417737,1
1772,0.16328028,0.25412697,-1.6419091,0.7188664,2
1773,0.87533784,-0.078546524,2.130788,0.9384818,3
1774,0.6306939,-1.2891586,-0.80540824,0.41055757,4
1775,-1.1813452,-1.7721835,-2.340631,-0.09490597,5
1776,0.32068783,-1.1446204,0.7323407,0.68266547,6
1777,1.6029046,-0.79700196,-0.28021947,0.7533039,7
1778,2.1183138,-0.07250345,0.6975018,1.8969064,8
1779,1.0870559,-0.92438453,0.82532823,1.0800259,9
1780,0.96672934,-0.10569894,1.8355395,1.1982256,10
1781,-0.07883811,-0.986276,-0.5445372,0.47383732,11
1782,-1.7671211,0.05583878,2.0726948,3.155291,12
1783,1.2454858,-0.7465148,0.03451678,0.88906157,13
1784,-0.88987225,0.59647274,0.26525962,1.1867982,14
1785,-0.31995505,-0.5139911,0.7814602,2.7298574,0
1786,-0.24843805,1.192683,0.11097509,-0.64278555,1
1787,-0.015529171,0.4899873,-0.69412863,2.4578001,2
1788,0.7447352,-0.9368253,-0.32545388,0.7697548,3
1789,0.8100859,-1.6057703,-1.788044,1.4355696,4
1790,-0.74261236,-0.5461543,-1.0872667,1.1498823,5
1791,0.28197545,-1.6494838,-0.40931436,0.34049308,6
1792,1.1842555,-1.2919652,-1.0044689,1.95229,7
1793,0.15037218,-0.27047405,1.723539,0.37428236,8
1794,2.1620646,-0.29276657,-0.16656935,1.9365449,9
1795,0.85920376,-1.6233733,-0.6542436,0.88842255,10
1796,0.9009937,-0.272323,0.51334053,0.9371776,11
1797,-0.729813,0.04039173,1.3009409,3.5418348,12
1798,-0.35597605,-1.2167698,0.73380744,0.32530832,13
1799,-0.6654626,0.38201547,-1.0632297,-0.16135556,14
1800,-1.4788145,-0.2083554,1.7738044,1.9021306,0
1801,-0.9154352,0.3443271,-0.2518195,0.7306618,1
1802,0.1689825,1.0571108,-0.3349805,1.201189,2
1803,1.3062031,-0.2249049,0.14300619,1.360611,3
1804,0.33148813,-1.4433172,-0.8967217,1.0151296,4
1805,0.50926644,-0.26099008,-1.8585191,1.0801029,5
1806,0.97289634,-0.7776537,0.047186673,0.84292823,6
1807,0.5735422,-2.0511737,-0.9617224,0.79844534,7
1808,0.5192122,-0.15823895,0.83448696,0.73343134,8
1809,0.39140207,-1.8096204,-0.377846,0.6945065,9
1810,0.81439245,-1.586721,-1.0756875,0.33801273,10
1811,1.0249903,-1.468367,-0.5540223,1.8858819,11
1812,1.9603099,0.30282754,-1.9888921,1.1076567,12
1813,1.3091452,-0.58109397,0.56359816,1.139122,13
1814,-1.0977648,0.22586954,-0.37702572,0.764121,14
1815,0.055930372,-0.18335901,0.24458674,2.8258815,0
1816,0.6066723,0.771892,-1.6574595,1.8228239,1
1817,0.47391298,0.3917098,-1.4992791,2.4845798,2
1818,0.7616115,-1.2143638,-0.15015356,0.7482994,3
1819,2.3888063,-0.3529498,-0.8934473,2.0403218,4
1820,0.8793813,0.011000022,-1.3297613,0.34955537,5
1821,0.5684547,-0.37618917,0.81169844,0.6423603,6
1822,0.56089973,-1.2763833,-0.26624808,0.96911013,7
1823,0.20245144,-0.82607377,-0.54476774,1.1586692,8
1824,0.19678175,-0.80507946,1.6358368,0.39516562,9
1825,1.920606,0.19769084,1.5237297,1.8597441,10
1826,1.2076195,0.025886416,0.82437426,1.3405232,11
1827,0.5835991,0.26735336,-0.6473259,1.3199348,12
1828,0.9279729,-0.3980444,0.33187625,0.61797035,13
1829,-0.12598911,0.99713486,-0.51362026,1.931165,14
1830,1.3059617,0.3974348,0.61324793,2.9348571,0
1831,-1.6441294,-0.40008712,-0.2905466,0.4471451,1
1832,-0.32795075,0.20631233,-0.735165,0.94483614,2
1833,0.3050815,-2.1285558,-1.0417613,1.2426803,3
1834,1.3652043,-0.29409826,0.454318,1.099147,4
1835,0.8703475,-0.258191,-2.4373631,-0.23103839,5
1836,1.5878948,-0.5381047,-0.50142634,1.1292982,6
1837,-0.28642678,-1.9239132,-0.28913072,0.11138183,7
1838,-0.85878164,-1.0977474,0.6896256,0.01519537,8
1839,2.5700665,0.037079632,1.0473076,1.9578617,9
1840,0.20037568,-0.36132693,1.2309301,1.0086287,10
1841,-0.3756032,-1.4492103,0.027647965,0.83136636,11
1842,-0.027342916,-0.2652133,-0.4631448,2.1985915,12
1843,0.23436758,-0.053496182,1.7518125,0.5407234,13
1844,-0.68221116,0.037145913,-1.4566213,0.44256663,14
1845,0.93229866,0.64386404,1.429971,2.8856237,0
1846,-0.272352,1.0210184,-0.5438809,-0.90531236,1
1847,1.1466488,1.2179,-1.0659878,2.13603,2
1848,0.12213141,-1.150154,-0.63416475,0.859728,3
1849,0.9097926,-0.8095712,-0.013091296,1.8154624,4
1850,0.06264499,0.13663591,-0.3929482,0.90820146,5
1851,0.22906369,-1.3202857,-0.060531825,1.1031433,6
1852,0.9613774,-1.3426676,-0.7085737,0.30170268,7
1853,0.29031372,-1.588825,-1.160246,0.85433966,8
1854,0.9285231,-0.88690853,0.32207525,0.8361513,9
1855,0.5205883,-1.413478,-0.47980905,0.8324464,10
1856,0.64163166,-1.8929083,-0.84621084,1.0731028,11
1857,0.14422101,0.6153872,1.1602188,3.7256837,12
1858,0.733341,-0.8181989,-0.07882035,0.8223585,13
1859,0.14122313,0.8643048,-1.282197,1.224602,14
1860,0.05586877,0.43261126,1.5243642,1.0362563,0
1861,-0.032960773,0.8344516,-1.5811341,-1.1221641,1
1862,-0.006904237,0.54873574,-0.22825885,3.4833605,2
1863,-0.086060405,-0.81476104,0.65109795,-0.23415154,3
1864,0.58610994,-0.8021847,0.021924868,0.54386365,4
1865,0.5065796,0.56624246,0.12288082,-0.025911927,5
1866,0.7457823,-1.2397292,0.3891633,0.43720242,6
1867,0.8383161,-0.6704552,-0.06371513,1.4759007,7
1868,1.6614151,0.4091596,0.50355244,2.635993,8
1869,1.1685425,-0.97556233,0.22511145,1.302358,9
1870,0.41837344,-0.5822651,1.0119852,-0.4677971,10
1871,-0.039432287,-0.7618259,0.9121996,0.72156906,11
1872,-0.15223761,-0.66834575,-1.743485,0.17282772,12
1873,-0.019892514,-0.73962,0.4879586,0.33756304,13
1874,-1.116715,-0.20372814,-1.0881729,-0.02132374,14
1875,0.24335292,-0.55760956,-0.31892294,1.1336467,0
1876,-0.40585965,0.30007684,-1.2225041,0.45143294,1
1877,0.11353142,0.71785337,-1.1063026,-0.7343194,2
1878,0.3845085,-0.1846965,0.8434994,1.2200048,3
1879,1.2898009,0.50380385,1.8714815,0.69868815,4
1880,1.2450354,0.42672104,-1.0572088,0.020519853,5
1881,1.0631237,-0.44780722,1.1604012,0.718366,6
1882,0.9610944,-0.3234377,0.8442259,1.7681093,7
1883,2.0962667,-0.24568495,-0.353703,1.5061405,8
1884,0.44220898,-1.9553832,-1.5622847,0.9365091,9
1885,1.6246831,-0.352184,1.334687,1.4949844,10
1886,0.4592811,-0.35100716,0.5461198,1.0338595,11
1887,-1.9452741,-0.6999755,0.5555353,1.646025,12
1888,0.1480205,-1.8100358,-0.5641384,0.5262195,13
1889,0.09193942,1.2987146,0.5997069,3.288451,14
1890,-0.15130821,-1.1047645,-0.8342778,1.033603,0
1891,-0.6762136,0.2434335,-0.51540935,0.10467358,1
1892,-0.8767135,-0.92193717,-2.182096,-0.48282546,2
1893,1.3503902,-0.43631133,0.5021899,1.3217021,3
1894,0.5699054,-1.1685688,-0.7613268,0.92761225,4
1895,0.042676717,0.07260586,-0.33156413,1.2262661,5
1896,-0.12744558,-2.485063,-1.6552696,0.6493616,6
1897,1.3718376,-0.9151161,0.5726191,0.8279427,7
1898,1.3994699,-0.1707176,0.28130168,1.3663673,8
1899,0.6486561,0.37675583,2.69348,1.3927332,9
1900,-0.2579968,-1.209623,0.9955382,0.50153553,10
1901,1.0330372,0.052747905,1.1102579,1.4362308,11
1902,-0.38109112,0.5359716,2.4059565,4.4144697,12
1903,1.6896513,0.13485801,0.59810066,1.5595429,13
1904,-0.08943924,0.6216427,-0.8932221,1.4857334,14
1905,0.6426086,0.15983489,0.6247444,2.7309134,0
1906,-0.35407233,0.5984176,-0.8454791,-0.11392601,1
1907,0.65168726,0.14771315,-3.2445314,-0.68709105,2
1908,-0.4923973,-0.86899203,0.67992777,0.51636994,3
1909,1.5833511,-0.32875842,-0.07245205,1.5729072,4
1910,-0.37057754,-0.5352679,-0.62653136,1.3167019,5
1911,-0.10139227,-1.6294922,-0.28627637,0.40953186,6
1912,1.1198815,-0.84345824,0.19497903,0.77972406,7
1913,0.18146372,-1.6345435,-0.8947995,1.0143449,8
1914,1.1206117,-0.17186683,1.4546113,0.64807314,9
1915,1.3810472,-0.84094197,0.28912944,1.1099772,10
1916,0.6977494,-0.2284542,0.4529996,1.4564699,11
1917,0.44516596,0.35237336,-0.15713261,1.7958698,12
1918,0.22120214,-1.2321136,-0.35132408,0.58483624,13
1919,-0.6795085,0.35187632,-0.8018169,0.37030208,14
1920,0.40207788,-0.0017667413,1.0843391,3.2214704,0
1921,-0.5831685,0.07039839,-0.9565171,1.3690815,1
1922,0.43861192,0.40020525,-1.6104684,2.021326,2
1923,0.486984,-1.1596382,-0.27708244,0.51597124,3
1924,0.2741651,-1.2453215,0.2711302,-0.25832075,4
1925,0.54556566,0.4657032,-0.0021679401,1.8145039,5
1926,0.27733666,-0.3909736,0.6440668,0.44438714,6
1927,1.0621457,0.16801983,1.5749776,1.2297442,7
1928,0.15190244,-1.7280297,-0.7683041,1.0916915,8
1929,1.369025,0.100301266,1.0317146,1.589453,9
1930,0.5851251,-0.7343739,1.1940072,0.42608255,10
1931,1.5519991,-1.2587593,-1.778389,1.8006388,11
1932,-0.22206002,-0.46898496,-1.0228885,1.2598218,12
1933,1.1584154,-0.5563445,-0.36810058,1.0396869,13
1934,-0.28963643,0.9986084,-0.57494867,-0.018866837,14
1935,-0.15938249,-0.32100165,0.8405827,2.2257466,0
1936,-0.7514583,0.5218603,0.044233084,-0.13832508,1
1937,-0.28560302,-0.035826772,-1.727442,-0.41158813,2
1938,1.0836473,-0.46624836,1.1227543,0.7811245,3
1939,1.0268687,-0.7051654,-0.4631316,1.5629103,4
1940,-0.07010296,0.46036297,0.6328262,1.8966432,5
1941,0.7068107,-0.9546252,0.15548027,0.8596977,6
1942,0.6192271,-0.66466403,0.26260376,0.74786025,7
1943,-0.22538179,-1.1620897,0.37652034,0.7791748,8
1944,-0.56919855,-1.0696118,1.6739337,-0.25967824,9
1945,0.9379962,-1.3626288,-0.17562973,1.0673726,10
1946,0.7099401,-0.53458405,0.17303348,2.0178266,11
1947,-0.5416634,0.26983643,1.0284127,1.961859,12
1948,0.65800124,-0.87726307,-0.3653038,0.9077507,13
1949,-0.32107425,1.2633209,0.38488126,0.76928735,14
1950,-0.15103722,-0.14053747,1.0718534,2.4138157,0
1951,-0.892184,-0.15248358,-0.3289823,0.78528124,1
1952,-0.7628838,-0.29798502,-1.3985412,-1.6705039,2
1953,-1.096292,-1.9401981,-0.4115919,-0.6665332,3
1954,1.8723445,-0.11076218,0.8113901,1.5140321,4
1955,0.4539513,0.34699726,0.09196079,2.4748106,5
1956,-0.023761392,-1.497752,-0.15986845,0.38971078,6
1957,-0.28012466,-1.6461575,-0.63601935,0.015620351,7
1958,-0.31780154,-0.9868299,1.2085692,0.94649583,8
1959,1.3185053,0.21936536,1.3717837,1.3758698,9
1960,1.2895617,0.10756326,1.5541188,1.0270424,10
1961,1.0214667,-0.61100656,-0.46130252,0.71023005,11
1962,-1.3102329,-0.5285385,0.09373304,1.4667279,12
1963,-0.123165846,-0.74426055,0.9223746,0.5593165,13
1964,-0.7784922,0.667001,0.35359097,1.2831306,14
1965,0.36317334,-0.030011803,0.2826679,1.5332729,0
1966,-0.045201868,0.96874315,-0.38709107,2.7606292,1
1967,-0.120761655,0.45462614,-0.87927145,-0.20642716,2
1968,0.23927873,-0.49146664,0.82955074,0.74256676,3
1969,0.44989032,-0.578843,0.7803899,0.3436895,4
1970,0.15067488,-0.30679917,-1.0631686,0.8319426,5
1971,1.3642113,-0.108181596,1.5793483,0.2494682,6
1972,1.1203061,-0.6941248,0.6217928,0.7292701,7
1973,1.0887365,-0.6038627,-0.3345935,0.8838183,8
1974,-0.23591799,-1.860188,-0.6637329,0.19167018,9
1975,2.010058,-0.433473,0.5943448,1.8192654,10
1976,0.5374551,-0.6307963,-0.019768648,0.7173525,11
1977,-0.583996,-1.0800289,-2.4297378,-0.59418905,12
1978,0.23223159,-1.3378971,-1.0134192,0.3064394,13
1979,0.51837784,0.7961936,-2.0608442,1.944655,14
1980,0.7430298,-0.6282666,-1.7148663,1.1826384,0
1981,-0.33441046,1.125612,-0.2507962,-0.8944202,1
1982,0.319835,1.0484753,0.023923397,2.379728,2
1983,0.40714929,-0.13569266,1.1392163,0.9677837,3
1984,0.5237233,-0.8326672,0.3099135,0.9507147,4
1985,-0.36971995,-1.5025003,-2.8352823,0.1470486,5
1986,1.550847,-0.22764063,-0.8163142,0.537781,6
1987,1.4619973,0.39299494,1.1454217,1.5113292,7
1988,0.73594797,-1.2307923,-0.8482572,1.2237191,8
1989,0.49946278,-1.6607939,-0.4655621,0.76628643,9
1990,-0.47442758,-2.45443,-0.89058673,0.10244018,10
1991,-0.85382485,-1.0055764,0.6127646,0.1351955,11
1992,-1.6064801,-0.349558,1.2986318,1.9714429,12
1993,2.5233545,0.5236788,1.1062853,1.6943145,13
1994,-0.5111975,0.7518601,-1.1404612,-0.41734415,14
1995,-0.058361523,-0.71130943,-0.3006876,1.8105816,0
1996,-0.46894133,0.13047576,-1.0001965,0.38529992,1
1997,-0.6488163,0.051540434,-0.5238907,0.5606443,2
1998,-0.100786984,-0.5993427,0.67279196,0.3636968,3
1999,0.758222,-1.1306664,0.37200844,-0.22788662,4
2000,0.02864319,-1.0318999,-2.0836039,0.64173985,5
