,locs0,locs1,locs2,locs3,subject
0,-0.6965295,-0.8574681,-0.52624214,0.888373,0
1,-0.7034359,0.11207461,-1.019117,-0.60473514,1
2,0.5306129,0.63722754,-1.529794,0.31718248,2
3,-0.22484493,-1.7529457,-0.8570478,0.14913839,3
4,0.3534304,-1.4417887,-1.3225935,0.9703982,4
5,-0.47536394,-0.8269812,-1.6793597,0.33531052,5
6,0.69893855,-1.8172791,-1.4706527,0.8687017,6
7,2.8980005,0.25528985,0.1417749,2.3233218,7
8,-0.2617439,-1.2959259,-0.59535426,0.6466183,8
9,1.4073025,-0.41542602,0.9838758,2.1808019,9
10,0.6927649,-1.0374584,0.6769103,0.43708715,10
11,-0.50369453,-1.0944111,-0.28904068,0.41632396,11
12,-1.7537699,-0.40014088,0.99130386,1.906744,12
13,1.9716785,-0.068086624,-0.39674163,2.0671732,13
14,0.04854518,0.46514446,-1.6963629,1.3093933,14
15,-1.1635413,-1.0134503,-0.33979177,1.8518652,0
16,-0.14220864,0.52822554,-1.4633806,-1.3742748,1
17,0.1804114,0.40463343,-1.0340142,1.705852,2
18,2.1629043,-0.44464743,0.47910208,1.7860279,3
19,0.28866404,-1.8719358,-1.2976215,0.91533905,4
20,-1.0850623,-1.5954758,-2.3797135,0.30439574,5
21,-0.25955272,-1.5978525,0.76554334,-0.020059407,6
22,0.8805152,-1.0047745,0.42136112,0.15803295,7
23,0.39698565,-0.59026563,0.022991046,0.94985855,8
24,-0.13885629,-1.4183271,-0.8406853,0.2953291,9
25,2.2611136,-1.009299,-0.30352092,1.5200591,10
26,0.90271497,-0.5271926,-0.21866658,0.9428846,11
27,-0.738178,-0.29248255,0.3700431,1.5736003,12
28,0.81515455,-0.968219,0.25738767,0.6238345,13
29,-0.7859714,0.38453555,-0.023555875,1.1302297,14
30,1.2115322,1.4745495,1.8242491,1.5566695,0
31,-0.2799564,0.3683568,-0.7889299,1.157637,1
32,0.09409164,-0.03542337,-2.1331794,1.346073,2
33,1.1328288,-1.1407386,-0.14292735,1.7113154,3
34,0.028879464,-0.7453044,1.3281081,0.4607721,4
35,0.57500863,0.25221756,-0.48256987,0.72642654,5
36,1.0506916,-1.0726368,-0.045437664,0.3065256,6
37,0.78963846,-1.3370821,-0.21788836,1.0086819,7
38,0.8272162,-0.8036075,-0.9225688,1.2094996,8
39,1.5927005,-1.0569069,-0.18888515,0.7113728,9
40,0.71425545,-1.1595875,0.46304232,-0.35046953,10
41,1.6112633,-0.73664427,-1.1525736,1.7369802,11
42,-1.275646,-0.47519824,0.0077238977,2.0550103,12
43,0.86665875,-1.5629565,-1.128329,1.338756,13
44,0.22901624,1.4952198,-0.21240526,1.9099216,14
45,-0.19678058,-0.14985399,0.4342896,0.95405483,0
46,-0.26604325,1.087074,-0.37574804,0.7448422,1
47,0.052737996,0.2954957,-0.76270705,1.3236411,2
48,1.4566813,-0.34640563,0.75292295,1.6096094,3
49,0.46174577,-1.6660762,-1.0113785,0.16245067,4
50,-0.88325024,-0.45128977,-0.17310762,0.905614,5
51,0.6215534,-0.93252623,0.7259079,1.1761115,6
52,0.2715745,-2.061934,-1.3232116,1.3477986,7
53,1.5754826,-0.2988037,1.1104778,1.7553897,8
54,1.4657915,-1.0709435,-0.2512193,1.075948,9
55,1.4134198,-0.89741844,0.09250793,1.3954253,10
56,0.29682964,-1.4311795,-0.6209345,0.34009695,11
57,-0.19984466,-0.28887492,-0.46003515,0.82572114,12
58,1.1009789,-1.3949785,-0.5540753,1.0628057,13
59,-0.11486864,0.56137615,-1.2669083,0.7222021,14
60,-0.15221092,-0.8536768,-0.7645459,1.8979295,0
61,0.612141,1.9189352,-0.8311429,-0.59538937,1
62,-1.0320519,-0.41101623,-0.76616687,1.1049769,2
63,1.4545233,-1.0799127,-1.4430399,1.5691893,3
64,0.61864775,-1.2021892,-0.6530926,1.2815161,4
65,-0.02079171,-0.7170117,-1.6605599,0.112273276,5
66,1.4001224,-1.4063082,-0.80412877,0.90954745,6
67,1.2891531,-1.3464205,-1.3127494,0.9232338,7
68,1.587522,0.029127121,0.5803847,1.9444543,8
69,1.1233301,-1.633727,-1.9098139,2.0988286,9
70,0.73632914,-1.6258965,-0.010560438,1.199128,10
71,1.7829893,-0.28179127,-0.66526306,1.9733083,11
72,1.079236,0.40929204,-0.5887292,1.666971,12
73,0.7011979,-0.8186319,-0.3698563,1.0843241,13
74,-0.19939183,0.70819765,-0.82212526,0.3593701,14
75,0.108927265,0.7145361,1.1620337,2.6557083,0
76,-1.1817219,0.13613456,-0.17600787,-0.12513629,1
77,-0.039430827,-0.10787392,-1.7749203,0.75909984,2
78,1.4342155,-0.6950309,-0.879559,1.9003444,3
79,2.2298315,-0.838108,-0.2353344,2.0982265,4
80,-0.8885728,-1.2720782,-1.3457773,0.6136647,5
81,1.3592759,-0.4832176,0.74992824,0.37322986,6
82,1.3981535,-0.33969134,0.1605655,1.7165136,7
83,1.1826555,-0.49279752,-0.3534308,1.5292156,8
84,1.0285177,-0.7247407,0.61763334,1.4592665,9
85,0.5371549,-2.6552162,-3.3555684,0.43235427,10
86,0.4384597,-0.3472191,0.76085484,0.88786256,11
87,-1.4426203,-0.3486472,0.5731206,2.0199335,12
88,-0.35282946,-1.4982536,-0.31289744,-0.11223072,13
89,0.33455205,0.5774329,-1.7263182,-0.13576818,14
90,0.14098634,0.33932367,0.97766364,2.7557096,0
91,-0.4388007,0.5291281,-0.43729228,1.2370902,1
92,0.12478493,-0.023140073,-1.7656436,0.96017635,2
93,1.8685472,0.12695646,1.0337298,1.488028,3
94,0.3720556,-1.9132364,-1.8272392,1.5889618,4
95,1.3563284,0.84323573,-0.1413297,1.5788985,5
96,0.15313709,-1.3737912,-0.10573536,0.49665907,6
97,0.9061248,-1.1921378,-0.9406916,1.5646205,7
98,0.91063124,-0.73043317,-0.4106345,1.3965982,8
99,-0.030684054,-1.3936934,-0.3835051,0.93064773,9
100,1.4991446,-1.4773937,0.41969407,0.8044728,10
101,1.2180313,-1.0162607,-0.7780751,1.9229614,11
102,1.3791258,0.2355125,-1.3663032,0.64573085,12
103,0.44749328,-0.934229,-0.9940156,0.594025,13
104,0.04961908,1.0977769,-0.46928442,0.42312753,14
105,-0.39140564,-0.5104458,-0.30832753,1.5112151,0
106,0.3298654,0.7782147,-2.0056915,-0.6443059,1
107,0.0725417,-0.40718198,-2.7007568,1.1862699,2
108,1.2824749,-0.785788,-0.7718133,1.6621683,3
109,0.8703359,-0.6714904,-0.36118662,1.1226803,4
110,1.1131045,0.3811783,-0.82046366,0.5101442,5
111,0.5057633,-0.6496538,0.65843177,0.21158782,6
112,0.7713263,-1.1874958,-0.65595824,0.5339596,7
113,1.8439714,0.43415964,1.2383215,1.8478348,8
114,1.6814058,-0.4397285,0.9189411,1.8495778,9
115,0.7533083,-0.89962846,0.8561114,0.77611375,10
116,1.883379,-0.033708096,0.8760574,1.8475134,11
117,-1.1214957,-0.4954324,0.42712888,2.6998396,12
118,0.08117437,-0.8575797,0.19425803,0.3658316,13
119,0.077601135,0.9469284,-1.3270507,1.0858268,14
120,-0.1369637,-0.0015001297,0.37396187,1.9831525,0
121,0.14033684,1.0773046,-0.68759155,0.24799141,1
122,0.35067672,0.3023895,-1.5249983,0.54108644,2
123,-0.5420878,-1.3555937,-0.34866762,0.084079266,3
124,1.0630935,-1.2823821,-0.47983912,0.70252013,4
125,0.4858174,-0.52698565,-1.5397109,0.48755476,5
126,1.4841346,-0.77445537,-0.14651081,1.3346205,6
127,1.4459198,-0.48884827,0.057481475,2.7990417,7
128,1.1804652,-0.86841667,-0.12118693,1.2515947,8
129,1.2921412,-0.95353603,-0.19553202,1.7168034,9
130,1.0646703,-1.0657779,0.5802002,0.5640466,10
131,0.64954305,-0.31782,0.60717714,1.3098507,11
132,-0.82730603,0.14672416,1.2329445,2.3485188,12
133,1.4863029,-0.13090903,0.9130839,1.4898202,13
134,-0.07524851,0.9436922,-1.1949027,0.3637089,14
135,0.6648574,0.92262626,1.5868441,2.8255827,0
136,-0.60960186,0.43483478,-0.5986073,-0.69207764,1
137,0.20890999,0.12396395,-1.8098156,0.8644896,2
138,0.6684407,-0.7745388,-0.1985175,1.6171539,3
139,1.0928224,-0.37995136,-0.30276054,1.9125909,4
140,1.1190904,1.0981172,0.25060093,1.745441,5
141,0.2864411,-0.29799646,0.6334435,0.89540255,6
142,1.5652523,-0.34483588,0.66788495,0.62523943,7
143,0.68717724,-0.40771428,1.0237007,1.0736396,8
144,0.3898509,-1.3312999,0.30956954,0.13135993,9
145,1.8481718,-1.1470714,0.1347963,1.945941,10
146,1.131227,-0.9341842,-0.1782476,1.1432185,11
147,-0.54934525,-0.6802846,-0.6568114,0.9483789,12
148,0.16768622,-1.1169221,0.23221177,0.31384158,13
149,-0.35323104,0.61424506,-0.9829302,1.1412894,14
150,-0.33869788,-1.3037581,-1.1118209,1.7730206,0
151,-0.23184355,0.6399572,-0.69500566,0.5488848,1
152,0.39849228,0.81696725,-0.88061506,0.58241045,2
153,-0.011046886,-1.4575986,-0.44544414,0.66710794,3
154,0.9512429,-0.043806016,-0.00057566166,2.0649269,4
155,0.8775245,0.10562992,-1.38303,0.08466363,5
156,0.67751265,-1.3497572,-0.19208059,0.56534654,6
157,1.1040094,-0.89073825,-0.09779964,1.093393,7
158,0.311732,-1.4296317,-0.6806065,1.2148777,8
159,0.99414104,-1.0054374,0.6457486,0.9658094,9
160,1.0791188,-1.0618095,-0.29122663,0.6026904,10
161,0.18624872,-1.5566249,-0.7277012,0.6540957,11
162,-2.4129372,-0.973351,0.52515006,1.7361442,12
163,1.2755901,-0.952425,-0.31170568,1.3652768,13
164,0.17612857,0.7698834,-1.5266683,0.9042318,14
165,0.08784862,-0.15764998,0.66983736,2.1880276,0
166,-1.516093,-0.3684187,-0.7097717,-0.53888565,1
167,0.19894797,0.50781095,-1.6540687,0.43625438,2
168,2.622733,-0.6279357,-0.6067326,2.1806722,3
169,1.1240789,-0.37917492,-0.10729644,1.1775032,4
170,0.3226198,-0.6501379,-1.6117258,1.0309192,5
171,0.021374464,-1.2723477,1.3933814,0.36906952,6
172,-0.038740158,-1.5735426,-0.47006965,1.4895022,7
173,1.4856517,0.020909846,0.48074585,1.2012068,8
174,1.3116412,-0.421354,0.42146394,0.9673812,9
175,1.0163053,-0.34789884,0.5492476,1.547683,10
176,1.0204909,-1.2938285,-2.259703,1.4724944,11
177,-1.4601355,-0.12667839,1.1929373,2.585301,12
178,0.08293998,-1.3681482,-0.61936903,0.45634127,13
179,0.24936867,1.0250999,-1.2461202,1.3634125,14
180,0.53660613,0.52913415,0.3803435,1.6294466,0
181,-0.64426446,0.6963011,-0.035310864,0.469215,1
182,0.55036676,0.61527777,-1.5192991,1.9737706,2
183,1.4542997,-1.0476756,-0.5046372,1.3715351,3
184,1.8875811,0.036169708,1.0676994,2.7058108,4
185,0.20132852,0.17714578,-0.7077292,-0.34893185,5
186,0.47737893,-1.8431294,-1.5385426,0.16083872,6
187,0.47222805,-1.4689469,-0.63199943,0.45780206,7
188,0.2537704,-0.716853,0.032484904,1.1067208,8
189,1.7619658,-0.49872345,0.5646426,2.0073025,9
190,1.3188539,-1.406172,-0.19903888,1.2690383,10
191,1.4619896,-0.43277994,-0.4573088,1.052397,11
192,0.33339554,0.17489168,-0.6119965,1.4819009,12
193,0.40199417,-1.437957,-1.5618893,1.029362,13
194,-0.66451335,0.3467781,-0.53058654,1.5527217,14
195,-0.38434753,-0.63946855,-0.35116115,1.4341848,0
196,-0.68630517,0.1361469,-1.1058531,-0.49648136,1
197,-0.69017494,-0.30453992,-1.4602793,0.21676183,2
198,1.3645633,-1.0406897,-0.24980867,1.277002,3
199,1.0825937,0.32342023,1.8342621,1.3762268,4
200,1.0637113,0.51393175,-0.23240387,1.1596055,5
201,1.4607215,-0.89661825,0.23596533,1.1591578,6
202,1.4543465,-1.2014089,-0.335064,0.89279634,7
203,0.09102112,-1.227537,-0.6233697,1.2320557,8
204,0.111688316,-0.6656568,1.6893921,0.076247096,9
205,1.5123072,-0.5619571,0.64401484,1.148974,10
206,1.7743053,-0.13511789,1.1442596,1.6909525,11
207,0.5076801,0.03882493,-0.7807676,1.7509017,12
208,1.0524651,-0.25625783,0.3843667,0.93135965,13
209,-1.1309112,-0.3324284,-0.6460427,1.2316368,14
210,0.509233,0.8130133,1.0081877,1.5861453,0
211,-0.49831638,0.8070296,-0.18358743,0.8523005,1
212,-1.0415778,-1.0811882,-2.337421,0.29440033,2
213,0.84190565,-1.4895103,-1.8914528,1.0865217,3
214,1.312721,-0.56105566,0.0015134364,2.153811,4
215,1.0291518,0.6565902,-0.043919563,2.1630073,5
216,1.4256818,-0.44764096,0.6114532,0.619093,6
217,1.4921414,-0.39585513,0.34891137,1.2812856,7
218,1.3404505,-0.6848252,-0.5223868,1.8529501,8
219,1.8331168,-0.073093295,1.5659482,1.8131711,9
220,0.9845909,-1.7431998,-0.4372797,0.6400455,10
221,0.49094707,-1.6799507,-1.0427045,0.61579067,11
222,-1.2309573,-0.6605835,-0.3361628,1.1779299,12
223,1.5674337,-0.5896977,-0.66214085,2.3048975,13
224,0.104141444,0.77400064,-1.5143619,1.1826603,14
225,0.079459265,0.20144537,0.69971573,2.0839708,0
226,0.056709856,0.97631,-0.95570576,-0.5206997,1
227,1.2025683,1.0868266,-1.7169363,0.7234891,2
228,1.4176958,-0.7529291,-0.008630753,1.0608301,3
229,1.3865623,-0.4363489,0.23308596,1.3922293,4
230,-0.15324017,-0.4503481,-1.3908474,-0.55025405,5
231,1.5657237,-1.175388,-0.3637102,1.0448043,6
232,1.810224,-0.18216366,0.3677518,2.0020175,7
233,0.92253447,-1.0717788,-0.55293584,1.2830644,8
234,0.9327854,-1.225096,0.587083,0.4180938,9
235,0.71100163,-0.13530326,1.3449408,1.1210073,10
236,1.458079,-0.6554309,-0.19048744,0.98493725,11
237,-2.4045079,-0.43454388,1.764878,1.856908,12
238,0.38963583,-1.2176158,-0.84625876,0.84968734,13
239,0.30515808,0.633245,-2.3459454,0.28289962,14
240,-0.9250758,-1.2980392,-0.25615314,2.0039,0
241,0.14026317,0.6026963,-1.6130722,0.0065072216,1
242,0.37941006,0.42223108,-1.4618598,1.5425119,2
243,0.961258,-1.5556772,-1.7081828,0.8135924,3
244,0.8805281,-1.2570341,-1.4862043,0.99442077,4
245,0.9305037,0.44132355,-0.5998575,0.8819789,5
246,1.6542275,0.1280505,1.9893726,1.0550995,6
247,-0.17081773,-1.9241846,-1.3060287,-0.32875,7
248,1.2727385,0.37319422,1.0018721,1.2854962,8
249,0.5764414,-0.052437007,2.7790923,0.13021183,9
250,1.4403062,-0.50646544,0.7024926,0.77074623,10
251,1.56839,-0.40956765,0.17492428,0.77701086,11
252,0.1464867,-0.17842016,-0.5274235,2.1565404,12
253,0.37699953,-1.1697209,-0.73022777,0.7994442,13
254,-0.18668394,0.85108495,-1.0682592,0.38896918,14
255,-0.9221567,-0.80112875,-0.046641305,1.7507819,0
256,-0.25591946,0.12953347,-1.7202008,-0.5967037,1
257,-0.6649512,0.444044,-0.04753256,1.3046405,2
258,2.081905,-0.5908847,-0.5491256,1.0949254,3
259,-0.27966422,-1.6787634,-1.1774504,0.3874538,4
260,-0.17770001,-0.44876915,-1.3511052,0.7218081,5
261,1.0455774,-0.6397684,-0.5239817,0.4203117,6
262,-0.3194604,-1.8569691,-0.32537436,-0.27923846,7
263,-0.12486076,-0.9884956,0.38093227,0.54341155,8
264,1.30144,-1.0346925,-0.23469818,1.2006462,9
265,0.17882371,-0.7901735,1.663385,0.5683071,10
266,0.27434123,-0.7940239,-0.0033124685,1.4140525,11
267,0.04398018,0.03266035,-0.26183665,0.72283936,12
268,0.32705432,-0.52959,0.18032113,0.78849447,13
269,0.22568792,0.70314884,-1.8995166,0.7518612,14
270,0.53748685,0.19371435,0.3466729,2.669464,0
271,-1.3695667,0.18809468,0.6243386,1.7214805,1
272,-0.41538092,-0.3421421,-1.5910316,0.1558708,2
273,0.6851553,-0.2338394,1.5056181,0.93419325,3
274,1.7715898,-0.033040106,0.72197783,1.4915926,4
275,0.1388693,-0.2377896,-1.2938983,0.14995545,5
276,1.0617867,-0.83390766,0.46054277,0.64704293,6
277,0.7946867,-0.6555128,1.0263916,1.6516286,7
278,0.93086284,-0.91209346,-1.3747444,1.4609379,8
279,0.29165697,-1.8139756,-0.12758207,-0.14201248,9
280,1.1985408,-1.2186178,-0.16925071,0.6681074,10
281,0.5800047,-1.0336461,-0.7157097,0.99106777,11
282,-1.5772556,-0.0213262,1.4194088,2.4250822,12
283,1.7686092,-0.2671997,0.030036211,1.8201582,13
284,-0.9418138,0.3678511,-0.0024672747,1.7205467,14
285,-1.0218782,-0.9194412,-0.4027489,1.149829,0
286,-0.88201773,-0.30136585,-0.6738511,1.3295752,1
287,0.9381622,0.60009724,-2.388704,0.0595845,2
288,1.2824352,-1.5624716,-1.0141156,1.3843322,3
289,1.3888476,-0.25503772,0.95262647,1.182244,4
290,0.41688538,-0.35530666,-1.4664247,1.2644887,5
291,2.1589875,-0.7623091,-0.44271985,0.52661985,6
292,0.51966417,-2.0542018,-1.5485967,0.6729053,7
293,0.5186325,-0.9352361,-0.18889968,1.6043885,8
294,1.1896101,-0.5839474,0.5905239,1.7497544,9
295,1.3874204,-1.1479663,-0.6254359,0.47632617,10
296,1.0241315,-1.3831,-2.1019707,0.91781074,11
297,-0.3097211,-0.5562558,-0.9821128,1.0932248,12
298,1.4874879,0.09057397,0.4964409,1.4011203,13
299,0.27678156,0.90297556,-2.1637628,-1.26137,14
300,0.37112164,-0.4487786,-0.2714029,1.8764951,0
301,-0.7894539,0.29663792,-1.0126053,-0.8602024,1
302,1.184134,0.8544294,-1.7700639,1.4212885,2
303,1.5492058,-0.9999025,-1.1219759,1.1405845,3
304,0.38708353,-1.2668432,-0.5937003,0.4855039,4
305,0.53021246,-0.48505464,-1.7905586,-0.44450778,5
306,1.178153,-0.87633437,0.36746255,0.017356277,6
307,-0.064979196,-1.1577287,0.57080585,0.350097,7
308,0.044769883,-1.7420223,-0.8229739,0.6449558,8
309,1.4417454,-0.87786734,0.29840142,1.2577925,9
310,0.8555019,-1.50266,-1.350649,0.9318497,10
311,-0.33033848,-1.752862,-0.36383936,-0.18258691,11
312,-0.9575584,0.523837,1.617027,2.942562,12
313,-0.5530114,-1.2825952,-0.0074258894,0.23916918,13
314,-0.41998947,0.20871413,-1.3793113,2.1802278,14
315,-0.27338898,-0.36436868,0.089283034,2.2361763,0
316,-0.23861367,0.7845868,-0.05688721,1.7896396,1
317,-1.1132028,-0.03230253,-0.09172571,0.16652697,2
318,-0.588552,-2.8250704,-2.2520802,0.24952418,3
319,1.1620924,-0.5644057,0.12600338,0.9185232,4
320,0.07813199,-0.09081349,-0.30847347,1.0101472,5
321,1.6244717,-0.13033372,1.0469681,0.54172206,6
322,-0.35201895,-2.1494164,-1.0314103,-0.26254785,7
323,-0.06758064,-1.6218697,-1.0262514,0.6798632,8
324,0.8869205,-0.9913606,0.0058725774,0.50414574,9
325,0.1560592,-1.5966814,-1.1496501,0.101614416,10
326,1.2584207,-0.5372206,0.29542837,1.7531824,11
327,0.44248945,0.70496345,0.8919211,1.4838891,12
328,1.3874795,-0.6596819,0.23054281,0.9977635,13
329,-1.0203133,-0.05042702,-0.8853439,0.67519987,14
330,0.44790405,0.57224476,1.4216908,2.5850983,0
331,-0.38259894,0.38421866,-1.4585726,-1.2007228,1
332,-0.1552073,0.38110065,-0.7903016,0.65053606,2
333,1.3405503,-1.0085069,-0.78407675,1.420832,3
334,0.9769794,-1.4375694,-0.3446846,1.8341849,4
335,0.22621042,0.070762485,-0.44771254,1.4088571,5
336,1.8899915,0.049626052,1.4917116,1.5437514,6
337,-0.35657334,-1.7018647,-0.31218287,0.22563732,7
338,0.22007686,-0.98176503,0.086196855,1.1115756,8
339,1.1742548,-1.3232012,0.08065295,0.7682475,9
340,1.8145015,-1.2724547,0.12972422,0.9266537,10
341,0.08304024,-1.612612,-0.97082067,0.095463276,11
342,-0.14968586,0.5289858,0.7716669,1.1171855,12
343,-0.07674897,-1.5452591,-0.8804872,0.12880951,13
344,-0.22993405,0.24034819,-1.3933258,1.3510737,14
345,-0.3407883,-0.22831973,0.09851064,2.2037094,0
346,0.9499926,1.9498571,-0.43942225,1.3893867,1
347,0.6216214,1.0970513,-0.6228337,2.237273,2
348,1.0651494,-0.16648275,0.6581686,1.3328148,3
349,1.4538661,-0.25304115,0.17477003,1.3450751,4
350,-0.716884,-0.65744483,-0.5366721,0.8304844,5
351,0.37064174,-1.528105,0.23372063,0.23514122,6
352,-0.44928956,-1.7024363,-0.44511047,0.5382264,7
353,1.1398056,0.18109536,0.81997985,1.3336134,8
354,2.3704357,-0.4256096,0.16922365,1.7697766,9
355,1.8389196,-0.7846693,-0.5886487,1.3469301,10
356,1.8975488,0.59440356,2.1145954,1.8149371,11
357,-2.3528748,-0.2086185,1.8026457,3.4593806,12
358,2.0773482,-0.4094641,0.24510941,1.2322196,13
359,-0.6303273,0.2719012,-0.7412401,-0.14551878,14
360,-0.403148,-0.41679353,-0.026420355,1.4619229,0
361,0.62470573,1.4495838,-1.5855334,-1.4593414,1
362,-0.39614418,0.39379773,-1.0137461,0.9346605,2
363,1.2843515,-0.5922452,-0.1915577,1.4724784,3
364,1.8885889,-0.24831414,-0.47859657,1.7373441,4
365,0.36640143,-0.07329505,-1.0025368,0.2856424,5
366,0.9829216,-1.0785865,-0.18352535,0.16017282,6
367,0.23002797,-1.9142511,-1.1037393,0.75350773,7
368,1.1961613,-0.10340339,0.21111856,1.5800662,8
369,1.5714028,-0.3171643,0.48619294,1.8893085,9
370,1.3846846,-0.5043784,1.2359029,1.1348422,10
371,1.8321514,-0.536098,-0.9125154,1.5516647,11
372,-0.57893205,0.24706572,0.9604923,2.7075536,12
373,0.18831223,-1.709441,-0.82660156,0.91309214,13
374,-0.84625673,0.8563338,-0.004842043,-0.020305872,14
375,-0.40145934,-0.1757967,0.59694827,2.5174465,0
376,-0.04509701,0.866257,-0.39730886,1.464185,1
377,-0.3030373,-0.01486516,-1.484524,1.3943533,2
378,1.4863604,-0.115582705,1.0465999,1.5223392,3
379,-0.6515592,-2.7325737,-1.8256899,0.3311668,4
380,-0.04041305,-0.4666597,-1.289104,0.39111686,5
381,0.010430276,-1.2955227,0.5055411,-0.051430166,6
382,0.5542567,-0.93853796,0.7503956,1.0297992,7
383,-0.12184954,-1.9902946,-1.2318093,1.1276333,8
384,0.3886357,-1.3487324,-0.07030365,1.2866648,9
385,1.3518257,-1.6857245,-0.30435127,1.1207054,10
386,1.6719668,-0.95774615,-1.2220215,1.2760382,11
387,-0.88836896,0.3198391,1.279375,2.4447381,12
388,0.26539868,-0.70998234,0.22253215,0.90112966,13
389,-0.6349673,0.65316415,-0.19807243,0.7274667,14
390,0.4839719,0.026788592,-0.20458815,2.2425501,0
391,-0.8285496,0.26334277,-0.89697784,-0.78152263,1
392,1.1491897,0.9299656,-1.5787988,1.1422759,2
393,1.2850678,-0.8477972,0.07115221,1.8547765,3
394,0.9974569,-1.1960666,-1.0960308,1.5950028,4
395,0.6036686,0.07398236,-0.6165942,1.3735434,5
396,-1.114341,-2.6886072,-0.94506884,-0.14173216,6
397,0.7825568,-1.103696,-0.18294862,1.6023624,7
398,1.7525699,-0.115985036,0.8249108,1.1077144,8
399,-0.4116193,-1.4891455,0.08850449,-0.8628136,9
400,1.2865522,-1.6318079,-1.3057896,1.5329874,10
401,-0.5345061,-1.1807938,-0.35208237,0.6398264,11
402,-2.2712524,0.5561383,3.3086913,3.2822351,12
403,0.82124925,-0.68741745,-0.7705765,0.34933543,13
404,-0.75826573,0.02071029,-1.3797,0.0047608614,14
405,-0.25840655,-0.3404962,0.24817994,1.9881037,0
406,0.16319713,1.050365,-1.1687884,-0.51793975,1
407,0.31595942,0.20203763,-1.9237986,0.79838145,2
408,1.7657447,-0.996416,-0.9057943,1.6768075,3
409,1.6380537,0.18268055,0.7696193,1.8345306,4
410,-0.12766719,0.2327025,0.07619512,0.99668634,5
411,-0.47785413,-1.8241274,-0.3653861,0.42358455,6
412,0.6031247,-1.5410328,-1.0136907,0.4561867,7
413,1.7054187,-0.31629893,-0.35824597,1.3174553,8
414,0.8814914,-1.065628,0.3728458,0.81559914,9
415,0.9372291,-0.26450545,1.031731,1.0140662,10
416,1.2950879,-0.17085052,0.39197078,1.7204456,11
417,-2.7152505,0.19149676,2.4415383,2.1933286,12
418,0.33321244,-1.2731283,-0.77336144,0.28546858,13
419,-0.046171516,1.0074167,-1.5519667,0.85321355,14
420,0.0047080666,-0.5210432,-0.10536796,1.2740095,0
421,-1.8427134,-0.7761059,-0.41602787,-0.07987516,1
422,0.029674008,0.037513793,-1.9475012,-0.08985865,2
423,0.63964754,-0.7093309,0.25996113,1.0588508,3
424,0.5657368,-0.8942995,0.011839181,0.9345577,4
425,0.10452171,-0.32686335,-0.75827014,1.5892379,5
426,0.47937155,-1.8185693,-1.8899144,0.45101574,6
427,1.4541965,-0.5730691,-0.3968793,1.7002562,7
428,0.84223956,-0.33818966,0.18340115,0.5941189,8
429,0.4175939,-2.2193718,-0.97331494,0.7065814,9
430,1.2436068,-0.9671052,0.2361383,0.52555376,10
431,2.0430846,-0.22420901,-0.6442057,1.9699285,11
432,-1.1886601,-0.92112994,-0.25783384,2.0209424,12
433,1.8387458,-0.36711806,-0.098589264,1.5253776,13
434,-0.33374545,0.58110917,-1.237241,0.043070853,14
435,-1.0345821,-1.150931,-0.99216044,1.0718613,0
436,-0.64273834,0.28479844,-0.82055855,-0.49672195,1
437,-0.3240982,-0.3809592,-2.0530474,0.53668624,2
438,0.72735125,-1.5888085,-0.602638,0.7596069,3
439,2.8493588,0.77449304,0.5598244,2.4482903,4
440,0.45621404,0.10862422,-0.45716307,1.9967844,5
441,1.1854496,-0.91967154,-0.008222818,1.090658,6
442,0.82073206,0.006807804,1.6426075,0.7510512,7
443,-0.108914256,-1.0770514,0.24467881,0.22820127,8
444,1.288412,-0.42461842,0.554328,1.9786205,9
445,0.3205011,-1.8569933,-0.8990294,0.12536126,10
446,0.7732363,-1.733532,-2.2057164,1.2163208,11
447,-1.3794439,-0.22477737,1.2295158,2.2333555,12
448,1.1213133,-1.9747586,-1.4505354,0.6489238,13
449,-1.5536745,0.15820312,0.09414148,0.23780227,14
450,-0.71677214,-1.1966556,-1.05501,0.83257794,0
451,-0.30712968,0.41218883,-0.9576658,-0.09078288,1
452,-0.045900926,0.36585155,-1.0525569,0.98993456,2
453,0.9021921,-1.0085387,-0.95712775,0.94730586,3
454,0.5002135,-0.8026681,-0.03341958,0.92772365,4
455,-0.40235743,-0.67313886,-1.3936052,-0.18045491,5
456,0.93290687,-0.54910725,1.1888794,0.66532254,6
457,0.5401305,-2.0565574,-1.1013516,0.42992544,7
458,1.3717906,-0.42907634,-1.2205513,1.6506696,8
459,1.2824315,-0.9390247,1.0605309,0.65886855,9
460,1.3657259,-0.98115176,-0.3293978,1.2947319,10
461,0.9036417,-1.3617773,-1.3981787,0.92211056,11
462,-0.439022,-0.51608884,-0.6595865,1.2265698,12
463,-0.16612059,-1.5663494,-0.7307212,0.74024713,13
464,-0.7743087,0.013670564,-1.0821801,0.9584799,14
465,-0.20917219,-0.09087901,0.471103,2.2917337,0
466,-0.6721559,0.0814932,-1.008758,-0.51414704,1
467,-0.3058907,-0.08548945,-1.592377,1.5578544,2
468,1.3666928,-0.95397973,-0.77145314,1.5659128,3
469,1.2862498,-0.9503061,0.34127963,1.1866108,4
470,0.23039961,-0.75162935,-1.8630657,0.55188847,5
471,1.3987317,0.189789,0.8266852,0.60945576,6
472,1.1350906,-0.64077497,-0.424643,0.84540623,7
473,0.7797443,-1.0065047,-0.17934473,2.2532756,8
474,0.19766629,-1.5188434,-0.06538203,0.27246922,9
475,0.2473051,-1.7847223,-1.0168716,0.5527153,10
476,1.3555346,0.2936861,0.7320403,0.96937597,11
477,-2.8413649,-0.5183268,1.6031885,1.1061983,12
478,0.26461506,-0.8654388,0.16654801,0.90919954,13
479,-0.61481035,0.9199909,-0.3170749,0.84254086,14
480,0.47759128,-0.22646257,0.18719842,2.764814,0
481,-0.24539717,1.2021015,-0.4939882,-0.60001254,1
482,0.73212016,0.830312,-1.3808995,0.5178154,2
483,-0.29665065,-1.4584001,-0.07791829,1.0333855,3
484,1.2469246,-1.3484087,-1.416475,1.4553865,4
485,0.9563191,0.30853704,-0.8707686,1.1191461,5
486,0.89552975,-1.2464665,0.33897778,0.80900955,6
487,0.48132372,-1.7240882,-1.3212446,1.0621394,7
488,0.6573611,-1.1490873,-1.8090274,1.4477841,8
489,0.19995582,-1.7150636,-0.5674615,-0.07297623,9
490,-0.0052452087,-2.5246267,-2.4068124,0.44413915,10
491,-0.2287041,-1.2666482,0.010742754,0.4606167,11
492,-1.3196748,0.102939755,0.92633927,1.9153416,12
493,0.6323618,-0.9183229,-0.46842223,0.5815095,13
494,-0.51192605,0.8215762,-0.40911102,1.0032521,14
495,-1.0368692,-1.0344925,-0.738045,1.6036367,0
496,0.023086056,1.3262197,-0.43061098,0.80873424,1
497,0.2473715,0.8633142,-1.4893479,-0.2867403,2
498,2.1547012,-0.3544188,1.0041406,2.0578504,3
499,1.2427237,-0.97642386,-0.27541724,1.2038723,4
500,0.0043748617,-0.28043795,-0.85231906,1.4988844,5
501,2.3419313,0.56173986,0.72703326,1.845942,6
502,1.6297836,-0.2585618,0.67875814,1.0853107,7
503,-0.42331576,-2.3436189,-1.9236484,0.3581226,8
504,0.9410089,-0.08571589,0.5913717,2.3740983,9
505,1.7772849,-1.7486198,-2.0567389,1.0324907,10
506,1.3073108,-0.3587262,0.03200245,1.5226319,11
507,0.3720842,0.029599175,-0.23042029,2.4706109,12
508,0.97186565,-0.6430001,0.1178256,1.4486984,13
509,0.014279097,0.46793106,-0.9081299,2.2579656,14
510,0.008755848,-0.08163747,1.1701401,2.5016062,0
511,-0.91594744,0.7314613,-0.06642914,-1.0298939,1
512,-0.6371193,-0.19054174,-1.7621844,-1.5177644,2
513,1.6155571,-0.6299758,-0.60590464,0.99816227,3
514,1.5840294,-0.5224068,0.032282233,1.1969347,4
515,0.7470659,0.16836074,-0.4549366,2.3633611,5
516,0.4492071,-0.9006201,0.9159713,0.6251218,6
517,1.1908783,-1.5872658,-1.8148253,1.4405683,7
518,1.2595589,-0.39442784,0.3233642,1.7092277,8
519,0.2829023,-1.0941117,0.16338673,0.66850984,9
520,-0.21122062,-2.2604837,-1.206791,-0.16385776,10
521,-0.20911014,-1.468967,-0.56477225,0.57536924,11
522,-1.4788356,-0.52614105,-0.2650903,0.66535044,12
523,1.7574046,-0.84376866,-0.35291582,1.4914608,13
524,0.06429127,0.8545847,-1.0595317,1.4440931,14
525,-0.44766068,-0.80293643,-0.15110719,1.3910733,0
526,-0.45660725,0.88809234,0.044294477,1.4192861,1
527,-0.07024199,0.19961752,-1.0107875,1.0593987,2
528,0.79324377,0.17232764,1.2664902,0.31899548,3
529,0.43602517,-2.0000846,-1.5788022,0.8896031,4
530,2.5635097,1.4003808,-0.17375165,2.180079,5
531,1.1794808,-0.59475034,1.0294962,1.4485893,6
532,-0.4727372,-1.8080734,-0.24425873,-0.13844025,7
533,1.7052565,-0.1966815,-0.28192842,1.7908401,8
534,1.6718144,-0.3942719,0.6002785,1.4479346,9
535,1.7070186,-0.95273244,0.27864617,0.7230543,10
536,0.302782,-1.4444292,-0.77588296,1.1737254,11
537,1.1782656,-0.00046845526,-1.4046803,0.9792515,12
538,1.440166,-0.624645,-0.26421958,1.6064339,13
539,0.028419375,1.0140746,-1.290338,0.34473395,14
540,0.77416205,-0.11578795,-0.17719188,1.8348601,0
541,-0.48411953,0.6346915,-0.25705785,0.6067918,1
542,0.8113264,0.871219,-1.5889041,2.0653493,2
543,1.0324093,-1.1440547,-0.86244524,1.2524579,3
544,-0.060760736,-0.9207235,0.056055307,0.15534568,4
545,-0.1948981,-0.11927554,-0.58850384,0.42921874,5
546,2.0490208,-0.16683263,1.1270823,1.5344574,6
547,1.1295424,-0.4014005,-0.6172703,1.5300151,7
548,0.35844886,-0.941629,-0.1663919,1.4922,8
549,-0.7329159,-2.174324,-0.56678605,-0.3538283,9
550,1.0562869,-1.027313,0.2681256,0.67096496,10
551,1.9859452,0.025699735,-0.12942708,1.6589613,11
552,1.1319535,-0.26830578,-2.2641547,1.3767315,12
553,-0.40187132,-2.5705643,-1.5229949,0.24731117,13
554,-0.68059134,0.9264836,-0.24859816,1.6560829,14
555,0.027618349,-0.069991246,0.19408335,2.21847,0
556,-0.31698143,1.1187358,-0.089990675,0.0531389,1
557,-0.22696337,-0.20597911,-2.0600462,0.2933547,2
558,1.1746751,-1.4570987,-1.4755859,0.7074522,3
559,1.0657537,-0.6239935,0.001803562,1.7270281,4
560,0.40031052,-0.03654988,-0.75327706,1.7090526,5
561,-0.8186009,-1.6266229,-0.30231568,-0.2901013,6
562,1.1771613,-0.3860823,0.92502373,1.6018989,7
563,0.51103044,-0.83667076,0.2731341,1.7495768,8
564,1.6779794,-0.19206977,0.5099133,1.8272653,9
565,0.4478839,-1.4474185,-0.5696478,-0.3093633,10
566,0.89118695,-0.6520266,-0.2691576,1.1661934,11
567,0.85643893,0.012366235,-1.3077595,1.9650792,12
568,-0.5826247,-1.5488734,-0.7204752,0.08979076,13
569,-0.7135395,0.19597769,-0.8882804,0.65186715,14
570,-0.052195877,0.12359014,1.2180218,1.9451951,0
571,-0.18914634,0.7239972,-0.9977662,0.34912017,1
572,0.2578923,0.5186933,-1.658639,0.72951555,2
573,-0.071018815,-0.89551723,-0.39462608,0.3137442,3
574,0.51561207,-1.3234942,-1.3255107,1.0145006,4
575,0.73998797,-0.07804358,-0.9397578,0.8410418,5
576,0.749781,-0.87248886,0.34088764,0.8888378,6
577,1.3250942,-0.59496176,-0.1479378,1.7027378,7
578,1.4094601,-0.59958225,-0.047983423,2.142512,8
579,2.5199676,-0.24627018,-0.35955864,3.1123857,9
580,0.26144385,-1.9282105,-1.3131924,0.6027838,10
581,0.41786048,-1.6036923,-1.9933853,1.5392838,11
582,-0.4128984,-0.1361345,0.24919285,1.5089953,12
583,1.4707572,-0.96769834,-0.45415324,1.0813019,13
584,-0.37286443,0.4756027,-0.520094,2.8224888,14
585,0.22516926,0.18160895,0.53807473,2.5046341,0
586,0.015291333,0.9261067,-0.83709717,-0.16743752,1
587,0.11381707,0.8078163,-0.26248395,1.0693011,2
588,-0.010722637,-1.7152021,-0.31019127,0.7351769,3
589,0.95742583,-1.3131994,-0.24259591,0.9806873,4
590,-0.96318376,-1.379746,-1.5264022,0.85715705,5
591,1.568718,-0.74769807,-0.07516977,1.0094687,6
592,0.8670216,-0.87976885,0.37836558,0.7418752,7
593,0.77007776,-0.72488725,-0.14997366,1.0916449,8
594,1.5398406,0.2517078,1.7947881,1.5710713,9
595,1.2997124,-0.5839536,-0.10365479,0.89246213,10
596,0.08724493,-0.8528924,0.0001705885,0.26512766,11
597,0.6237542,-0.28400522,-1.1851602,1.4522071,12
598,0.78486836,-1.4298148,-1.4201791,1.420788,13
599,-0.96587247,0.11958912,-0.75847524,-0.10863578,14
600,-0.012020066,0.3266199,1.1157634,3.0537372,0
601,0.8543559,1.2800831,-1.6175609,-0.01294535,1
602,0.8397193,1.0404022,-0.91383195,1.9075838,2
603,0.27579284,-0.6052301,0.79088706,0.9111749,3
604,0.6992634,-1.487607,-1.1019157,2.0175767,4
605,-0.5952655,-0.48808578,-0.6276208,1.5176384,5
606,1.7074561,-0.57545483,0.26874375,0.5845146,6
607,2.2719855,-0.22958708,-1.1804403,2.6159854,7
608,0.7914619,-1.0674407,-0.61463815,1.5224371,8
609,0.54656094,-0.8389769,0.6399736,1.7999598,9
610,2.1202316,-0.22843564,0.83995026,1.78391,10
611,1.1558169,-0.9676709,-1.0649866,1.1812772,11
612,-1.8724732,-0.3518178,1.6809165,2.4867592,12
613,1.2413375,-1.4706485,-1.358183,1.4473001,13
614,0.18919104,0.47788695,-2.0430818,1.4463857,14
615,-0.24197608,0.17710197,0.23218012,2.308928,0
616,-0.4471143,0.4656483,-0.7604808,0.20565295,1
617,0.07847349,0.20682615,-1.9320499,-0.61403453,2
618,1.2042208,-1.0073824,-0.24953386,1.0069938,3
619,0.15698153,-1.8087168,-0.90568376,0.9169103,4
620,0.8429054,0.08631478,-0.7276392,2.053705,5
621,1.4827986,-0.51983297,-0.6475079,0.81303537,6
622,-0.33203793,-2.317155,-0.38471678,0.518795,7
623,0.7299846,-0.6109122,-0.16735901,0.6563537,8
624,1.5798538,-0.7142147,0.0567656,1.3056256,9
625,0.9429461,-0.5528164,1.1006757,0.42537972,10
626,2.0461237,-0.24742466,-1.4732833,2.6842976,11
627,-0.5006118,-0.08752318,-0.13364941,1.761447,12
628,0.7008304,-1.1543374,0.2409311,0.76947296,13
629,0.39454263,1.4333442,-1.1056145,1.5449684,14
630,-0.3464424,-0.8205831,-0.650105,1.1264012,0
631,0.14194253,0.8775811,-1.2810948,0.05029348,1
632,0.52227056,0.8704302,-1.1182468,-0.095100164,2
633,1.9764585,-0.4163239,-0.2958526,1.9055626,3
634,0.5819932,-0.47441012,0.044531018,0.5677946,4
635,0.9518379,0.1589703,-1.5563827,-0.1818052,5
636,1.284478,-0.8584144,0.34960163,0.16087109,6
637,0.21497715,-1.4693606,0.05266189,1.0031554,7
638,1.1781739,-0.9172478,-0.4001187,1.5023236,8
639,1.2564783,-1.5183113,-0.4111411,1.2537977,9
640,2.2401032,-0.27946973,1.4481856,1.5242932,10
641,1.422676,-0.12689346,0.6126268,1.3545339,11
642,0.76359147,-0.019744344,-0.92115337,0.5219749,12
643,0.96096855,-0.36405113,0.16029245,1.1692297,13
644,-0.07796961,0.69058216,-1.6970732,0.025232673,14
645,0.65183944,0.727558,1.0336281,1.7309068,0
646,0.8333971,1.6162357,-0.8360365,-0.8863134,1
647,-0.5785452,0.19950351,-0.61199594,1.1294488,2
648,1.6952548,-0.41679686,-0.37460187,2.4129126,3
649,0.85625,-0.7723813,0.006967902,0.9093718,4
650,-0.25758186,-0.13950238,-0.30294257,2.146311,5
651,0.36589834,-2.0657623,-1.2236875,0.18685019,6
652,0.26558155,-1.641407,-0.60216254,0.3385412,7
653,1.2615346,-0.66106915,-0.7286254,1.8690614,8
654,0.990992,-1.2168751,-0.064043835,1.536288,9
655,0.56206965,-1.9751223,-0.3390631,0.4512878,10
656,-0.29179895,-1.0719756,0.795156,-0.022251368,11
657,-0.6739893,0.5962292,1.3762834,2.756276,12
658,2.2709947,-0.8913387,-1.4712826,1.7999107,13
659,-0.7509779,0.11333516,-1.2613595,1.3142555,14
660,-0.30486244,-0.75406957,0.20594034,2.3675845,0
661,0.78000146,1.8170849,-0.8321618,0.8262357,1
662,-0.5826248,-0.17221677,-0.9697901,1.5030255,2
663,0.12215805,-1.0928979,0.06645697,1.1855865,3
664,1.4689558,-0.22482795,0.40379447,1.6609243,4
665,0.68892527,0.21490097,-0.53359056,1.6856021,5
666,0.056112766,-1.2372077,-0.30607474,0.44281322,6
667,1.8819196,-0.8412951,-0.26187688,1.3717777,7
668,0.13112259,-1.2670124,-0.4750613,1.3920808,8
669,0.4849775,-0.68123615,0.45683077,1.3214308,9
670,0.48269105,-2.0418901,0.13150431,0.16255563,10
671,1.3649453,-0.27949777,0.7570758,1.436563,11
672,-0.41936338,0.2742436,0.95384246,1.4087574,12
673,-0.2642821,-1.9474437,-0.6058682,-0.7332851,13
674,0.0907411,0.7813237,-1.5385536,0.7013206,14
675,-0.021749869,-0.6760247,-0.8050045,2.2565854,0
676,-0.6574546,0.7698648,-0.1440239,0.37648064,1
677,0.25551653,0.19593267,-2.0911984,0.67654216,2
678,0.77877325,-1.3944607,-0.7845585,0.43785536,3
679,1.1864872,-0.35464618,-0.188791,1.5433522,4
680,0.5571423,-0.721467,-2.416562,-0.76934284,5
681,0.7309031,-1.2899837,-0.6266037,0.74301004,6
682,1.6609017,-1.0515581,-1.2440066,1.4716537,7
683,1.7380402,1.2446085,1.9454439,2.2539897,8
684,1.4186264,-0.19981676,1.2516739,2.6030493,9
685,1.4338179,-0.76484746,0.49498117,1.6191409,10
686,1.390207,0.11750972,0.6556021,1.5266695,11
687,-1.7609415,-0.7726814,0.5059071,2.2752447,12
688,1.4653515,-0.04157883,0.8633864,1.3669554,13
689,1.0187647,1.3982153,-2.2806516,0.9021243,14
690,0.040453807,0.6356157,0.87996936,2.0460274,0
691,-0.8426522,0.50717217,-0.05121863,0.43515903,1
692,-0.337441,-0.037563205,-1.6928797,-0.7101283,2
693,1.4580805,-1.1452984,-1.0694144,1.4428657,3
694,0.9524109,-0.23937273,1.0526743,1.4131329,4
695,-0.3570092,-0.1767774,-0.22008377,0.81582594,5
696,0.39774132,-0.6244205,0.69851863,1.0324382,6
697,0.8206074,-0.50067306,1.2176265,1.0604005,7
698,1.1815636,-0.7649568,-0.190909,1.6282941,8
699,0.1585046,-2.3783884,-2.4266398,0.91056025,9
700,-0.8307389,-2.5240605,-1.0073814,0.08318335,10
701,0.5944083,-0.7931472,-0.13004619,0.95348454,11
702,-1.7187729,-0.045924045,2.006839,2.3582726,12
703,1.1509342,-0.021527708,0.50671875,1.4706551,13
704,0.2525316,0.8574302,-1.2004678,1.4264418,14
705,0.51876277,0.2685757,0.36735126,1.9122081,0
706,-0.13761416,1.2136996,-0.3728571,-0.33278707,1
707,0.41106784,0.5141205,-1.610776,0.41968864,2
708,1.6048126,-0.92724675,-0.8367972,1.4584153,3
709,1.666545,-1.3781962,-0.98112786,0.98744,4
710,0.341932,-0.023802593,-0.8090005,1.1336808,5
711,1.5710335,-0.29262263,1.5520796,0.4527137,6
712,-0.12813866,-2.0761333,-1.6093652,0.72181183,7
713,1.3050662,-0.31743765,0.87628716,0.48485267,8
714,2.284843,-0.14861119,0.5121746,1.7242397,9
715,0.5430869,-1.7152643,0.065699115,0.84746736,10
716,0.9284896,-0.6444613,-0.9266685,1.4155052,11
717,-0.7927335,0.6524639,1.845758,1.5637847,12
718,0.58680993,-0.93277574,0.047846973,0.5470204,13
719,-0.57978576,-0.007743776,-0.9880628,2.883462,14
720,-1.5099254,-1.3633347,-0.51758933,1.0220945,0
721,-0.6960863,0.5533869,-0.46032807,-0.71284,1
722,-0.25752732,0.017016172,-1.0244447,1.1844248,2
723,0.35659075,-1.2774844,-0.17987216,0.59190273,3
724,-0.17206842,-1.44193,0.06461421,0.71686274,4
725,0.38785267,-0.37413275,-1.6343832,-0.23608416,5
726,0.2850644,-1.1271195,-0.41116253,0.04481882,6
727,1.6151483,-0.24354416,0.66955346,0.8572773,7
728,0.9401424,-0.55607736,-0.337713,1.4309065,8
729,0.5964314,-0.8175254,0.7451062,0.99666774,9
730,0.105317295,-1.9955909,-0.44740337,-0.07056135,10
731,0.71830976,-0.6334619,0.86825764,1.2034628,11
732,-2.3444862,0.028063774,2.4634683,2.7972767,12
733,1.7825181,-0.71233743,-0.5143065,2.1288617,13
734,0.019575328,0.7833673,-1.5010211,0.589707,14
735,-0.5473273,-0.12645322,0.29021052,1.2229764,0
736,0.041085213,1.0966175,-0.28713447,0.8649007,1
737,-0.4230676,0.10314846,-0.5135309,2.19727,2
738,1.5060067,-0.99724257,-1.0500996,1.2117708,3
739,1.8983889,0.25050372,1.1693636,1.7676735,4
740,-0.61396277,-0.6100824,-0.66169876,0.9994431,5
741,0.9137266,-0.78517187,-0.00739187,0.51233685,6
742,0.97742957,-1.2555947,0.08703657,0.3746391,7
743,1.0750902,-0.20359516,0.4396059,1.1846203,8
744,0.25512594,-1.4120042,-0.36924893,-0.11753619,9
745,1.8662746,-1.3302739,-0.6642255,0.9891414,10
746,0.4842285,-1.673817,-1.0775259,0.8170648,11
747,0.41942352,-0.0036208779,-0.66771275,1.8821652,12
748,1.1614251,-0.77716434,-0.46338663,1.182152,13
749,0.04590249,1.3154578,-0.9644995,1.6365288,14
750,0.36948514,0.1491844,-0.33691707,0.8009808,0
751,0.5758121,1.5262349,-0.8661827,1.476926,1
752,0.4681657,0.27815294,-2.6245914,-0.46235645,2
753,1.0040883,-1.6343399,-0.9982071,0.9486698,3
754,0.27006042,-0.34651265,0.74190646,0.934313,4
755,1.2040154,0.57193327,-0.70965505,1.5441749,5
756,1.1441638,-1.1250336,-0.49824706,0.5681756,6
757,1.708427,-0.44302213,-0.32880023,1.1550976,7
758,0.53165317,-0.14353335,0.5763181,1.1752307,8
759,1.4032055,-0.52982545,0.98124427,0.7861049,9
760,1.408905,-1.5885646,-1.769554,1.1707284,10
761,0.7487573,-1.8099599,-2.509605,1.084755,11
762,-0.69843125,-0.005264707,0.44130933,0.8947481,12
763,0.83911896,-0.5655364,-0.18083447,1.1106272,13
764,-0.090080515,0.91150874,-0.77421045,1.458216,14
765,-0.53763366,-0.6553,-0.1968227,1.5817978,0
766,-0.24253353,0.96913326,-0.6054976,0.24443468,1
767,0.26211208,-0.041972846,-2.1858425,1.7263682,2
768,0.2993167,-1.4475838,-1.0586383,0.22803414,3
769,1.0350269,-0.98548746,-0.36645183,1.51961,4
770,-0.49574283,-0.36001417,-0.22523367,0.38019806,5
771,1.7394619,0.37509698,1.5581224,1.1487095,6
772,1.1001457,0.32314485,1.8939824,0.60979474,7
773,1.4967198,-0.010052562,0.330383,1.0402143,8
774,0.5899781,-1.311585,0.74227995,0.83070076,9
775,2.1522236,-0.42085516,1.489274,1.0568798,10
776,1.0770527,-0.73240936,-0.56746405,1.0040137,11
777,1.9057741,0.007918283,-2.0559516,1.2601253,12
778,0.7116658,-1.1865785,-0.35767817,0.59951824,13
779,-0.2598814,0.7713187,-1.1363978,-0.3207947,14
780,-0.69804,-0.6460047,-0.2973572,1.465006,0
781,0.19920966,1.3073287,-0.62715346,0.25899446,1
782,0.7006866,0.9182459,-0.8607127,2.1808915,2
783,1.9226484,0.17695665,1.0188203,1.827332,3
784,0.5913029,-0.802613,0.35722625,0.26146156,4
785,-0.23905161,-0.057542175,-0.44524705,0.66230506,5
786,0.102603674,-2.42642,-1.6977485,0.041635513,6
787,1.7172378,-0.01569599,0.8849539,1.6403244,7
788,1.255889,-0.025592566,0.4218678,1.5635221,8
789,1.347182,-0.44490182,1.14133,1.622382,9
790,0.4930781,-1.5058784,-0.9870386,1.3117182,10
791,0.15915257,-1.9201586,-1.514051,0.97896993,11
792,-1.4175606,0.24294966,1.7013018,1.4372655,12
793,-0.25343657,-1.3806639,0.07415134,-0.06607294,13
794,-0.034512073,1.1613965,-0.24208528,3.330877,14
795,0.08498745,-0.116141796,0.5089968,2.5891304,0
796,-0.2379295,-0.03501147,-1.965105,-0.5475498,1
797,-0.20530415,-0.13624835,-1.3106488,1.8966675,2
798,0.3106954,-1.694631,-1.4848452,1.170564,3
799,-0.10172713,-1.0330456,-0.05278139,0.5236583,4
800,1.4777665,0.7666788,-0.5853833,1.2448349,5
801,1.2595636,-0.9954417,-0.93527913,0.83112496,6
802,0.79119956,-0.92120206,0.15423617,0.5260345,7
803,0.85071886,-0.4071954,0.6969146,0.44677424,8
804,0.4086768,-1.0286036,0.107158095,1.084763,9
805,0.6445262,-1.8247433,-0.70388395,0.8228259,10
806,0.6281415,0.14823985,1.3337047,0.25369745,11
807,-1.156717,-0.15268181,1.3279595,3.7530875,12
808,1.2036842,-0.27514368,0.95943034,1.7342021,13
809,0.06470907,0.76930285,-1.5448849,1.5194354,14
810,-0.45393342,-0.05953622,0.079823434,1.7374269,0
811,0.3484217,1.090475,-1.1831262,-0.72669077,1
812,0.5837151,0.7488458,-1.2720213,1.5648357,2
813,0.12333655,-0.87834543,0.28748727,0.60061085,3
814,1.490106,-0.71099025,-0.39301687,1.2963016,4
815,-0.4706348,-1.0876327,-2.0464733,0.16159165,5
816,0.77356935,-0.88029397,0.26054156,0.4215662,6
817,0.16264218,-0.9763791,-0.3813019,1.4424503,7
818,1.3522283,-0.02421838,0.51365155,1.9204514,8
819,0.19177413,-1.3882077,-0.37080878,0.95551825,9
820,2.3375745,-0.014530778,1.5552175,1.8571756,10
821,0.62895423,-0.47760105,0.036057234,0.861423,11
822,-0.53334177,0.77528346,1.8204758,3.3567138,12
823,0.24768502,-1.792062,-1.1669315,0.57705575,13
824,-0.8539269,-0.38820642,-1.418639,0.56591487,14
825,-0.35026133,-0.08776888,0.963356,2.1899855,0
826,0.008527383,0.45578456,-0.91797227,0.49007598,1
827,0.63441,1.130393,-0.6232251,0.23643899,2
828,-0.14356017,-1.164755,-0.5355124,1.0301156,3
829,1.0881716,-1.1495478,-0.14570844,1.4933363,4
830,0.90268064,0.025088742,-0.9092739,1.5631444,5
831,-0.38138187,-2.2653754,-0.8460927,-0.39733243,6
832,2.1334815,-0.025240958,0.5660642,0.5869031,7
833,1.0764251,-0.8208554,-1.2419885,1.8751526,8
834,1.7759657,-1.2264163,-1.0210044,1.5379584,9
835,0.32207263,-0.9582089,-0.24836446,0.8215859,10
836,1.4200162,-0.19833308,1.3955097,1.1218816,11
837,-2.2144918,-0.4632914,1.6017096,1.7695675,12
838,0.55246603,-1.3668311,-0.37187156,1.172063,13
839,-0.52977675,0.84508276,-0.5649725,0.60610956,14
840,-0.29542574,-0.59377885,-0.57692385,1.8973774,0
841,0.47901767,1.2801088,-0.71175575,1.1158521,1
842,-0.007984877,0.5892918,-0.9450178,-0.36201024,2
843,0.4724638,-1.4374528,-0.85995,0.8130342,3
844,1.8266598,0.013297617,0.7217169,1.4576687,4
845,0.8153054,-0.06220907,-1.2526875,0.4338414,5
846,2.0758965,0.2776268,1.532507,1.0921488,6
847,0.95774233,-0.4881623,0.98784834,1.0066022,7
848,1.2817458,-0.45145494,-0.189367,1.4415892,8
849,1.4378655,0.12185454,1.4235592,2.3962898,9
850,0.9738445,-1.5028437,0.042656258,0.30819726,10
851,1.7575293,0.42331344,1.1718569,1.6393325,11
852,0.8354637,0.1381628,-1.0312381,0.7338886,12
853,1.3399365,-0.26018363,0.095045894,1.4610317,13
854,-0.26316816,0.6816014,-1.1044353,-0.18513441,14
855,-0.058779597,0.049055308,0.50605935,1.2344246,0
856,0.35901266,0.7246064,-1.6585822,0.25416076,1
857,-0.057730943,0.43103963,-1.0019999,0.42424375,2
858,-0.063916326,-1.0132754,-0.8286445,0.21278632,3
859,0.95494276,-1.2138286,-1.1157604,1.2737519,4
860,0.20947994,-0.5828863,-1.5051556,0.9932164,5
861,0.2172122,-1.8164545,-0.48127434,0.10552251,6
862,1.9156888,-0.20983905,0.013098441,1.8223612,7
863,0.73064345,-0.5419519,-0.4561084,-0.03508818,8
864,1.2440131,-0.9469634,-0.005320385,1.2994897,9
865,1.7529802,-1.1844757,-0.35815567,0.7405467,10
866,1.5461013,0.07080084,-0.008991569,1.50063,11
867,-1.1450213,-0.67368394,-0.067409456,1.3589513,12
868,2.3099625,0.24537116,0.5845835,2.3521216,13
869,0.042755365,1.227536,-0.62940824,0.7384463,14
870,-1.0944461,-1.1615356,-0.45916417,1.0702742,0
871,-0.44016668,0.73762846,-0.38320032,-0.19452031,1
872,-0.09781399,0.011693716,-1.403963,1.3277638,2
873,-0.169155,-1.9322739,-0.8558838,-0.25447214,3
874,0.7529617,0.07433468,1.0044336,0.69529307,4
875,0.17130783,-0.010471843,-0.3613242,2.0580115,5
876,0.54731184,-1.2376951,-0.10385932,0.19993865,6
877,0.6195996,-2.1344237,-1.4433748,1.3078346,7
878,1.2764666,-0.10795307,0.037981495,2.0857277,8
879,1.4552857,-0.50662625,1.0803556,0.7966256,9
880,1.1022979,-1.1059396,-0.2138993,1.5752623,10
881,0.2838387,-1.0537457,-0.7617074,0.69315505,11
882,-0.26994497,0.15476328,0.13357404,0.94999313,12
883,0.3445722,-1.7756169,-0.98302054,-0.0567801,13
884,-0.19930947,1.2017703,-0.5392566,1.5248582,14
885,0.2830724,0.3814248,1.0686456,2.5476854,0
886,0.05549115,0.7876051,-1.1101404,-0.120914295,1
887,-0.5930214,0.04009372,-0.7044083,0.9835613,2
888,0.76534575,-1.9566991,-1.2638378,1.7435803,3
889,0.86910707,-0.5053284,0.4261145,1.41732,4
890,1.0310967,0.24068356,-1.1891122,0.89345247,5
891,1.2775003,-1.0091002,0.22042614,1.3343302,6
892,2.4058716,-0.3751642,-0.3471901,1.7591822,7
893,1.1931789,-0.6581903,-0.6244931,1.1997597,8
894,0.4155054,-1.7106752,-0.981904,0.03415239,9
895,2.402752,-0.28975016,0.24435024,1.7731421,10
896,1.0981972,-0.70864624,-1.3321084,1.320362,11
897,-0.72695625,-0.3795964,-0.10614884,1.5740939,12
898,0.85175306,-0.7315392,-0.055801503,0.6811365,13
899,-0.111732975,1.0932801,-0.9228591,1.5702423,14
900,-0.018465474,-0.45599338,-0.061610162,2.219066,0
901,-0.69684505,0.15207386,-0.91557264,-0.5831454,1
902,0.20571733,0.36911127,-1.5510291,0.2999944,2
903,0.8108293,-1.3449948,-1.5752401,1.3512479,3
904,1.1607997,-1.2688036,-0.8278682,0.8001981,4
905,0.53334856,-0.5859412,-1.8781627,0.34637564,5
906,0.9598407,-0.77684534,-0.36599728,1.2233851,6
907,0.31677485,-1.780973,-0.95787793,0.7701278,7
908,-0.11264753,-1.8326997,-0.9815909,1.065844,8
909,0.14054453,-1.6989688,-0.24941483,0.1874336,9
910,1.8203757,-1.3508341,-0.99845004,1.5638769,10
911,0.70269585,-0.6424812,-1.0421884,0.7597592,11
912,1.6770241,0.10002045,-1.7280593,0.9286314,12
913,1.8237343,-0.3873583,-1.2324353,2.0971088,13
914,-1.0681779,-0.09254938,-1.0759524,1.2765906,14
915,-0.48081982,-0.4629423,-0.38442317,1.7506257,0
916,0.044318676,0.87974274,-0.9113019,0.577885,1
917,0.5353752,0.6544882,-0.80870926,1.390327,2
918,0.28158754,-1.2229574,-0.32485956,0.5995859,3
919,-0.2565468,-0.8359955,0.5818955,0.14093125,4
920,1.4811189,0.4808133,-0.8601101,1.3144733,5
921,1.0158755,-1.0772517,0.54803014,0.5412488,6
922,1.0414214,-1.0777254,-0.49592504,1.8270068,7
923,0.16907054,-1.1952181,-0.12824927,0.8145284,8
924,1.6444066,-0.9113171,-0.077154696,1.6003658,9
925,0.1990062,-1.2532839,0.25479856,0.7264962,10
926,0.16966265,-1.2403569,-1.0538347,0.3954686,11
927,0.0671075,0.22564691,0.3701681,1.8274797,12
928,1.2969456,-0.536988,0.6223314,1.0986152,13
929,-0.22060895,0.026170969,-2.6313035,0.08984482,14
930,-0.09202895,-0.15896298,-0.059631765,2.7237296,0
931,-0.048246846,0.042146564,-1.9393038,-0.83963233,1
932,1.2745821,1.2279657,-2.0537155,0.10472202,2
933,1.5756531,-0.2288332,0.21714741,1.3050853,3
934,0.6907401,-1.9032481,-1.8769888,0.9365896,4
935,0.5883807,0.26020566,-0.45270935,1.4797907,5
936,0.15537536,-0.8118466,0.08336732,0.6426732,6
937,0.069699824,-2.2830358,-1.6902165,0.48948848,7
938,2.0581422,0.4436983,0.5712633,1.9209958,8
939,1.1047457,-1.2115884,0.34961164,-0.034362197,9
940,0.46935338,-0.718156,0.85104936,0.48296773,10
941,2.1798103,-0.18646127,-0.89592266,1.7383481,11
942,-0.09512991,-0.3268292,-0.86821216,0.8482764,12
943,0.53800416,-0.77044106,-0.18073897,1.2185111,13
944,-0.04933536,0.52172685,-2.3172028,-0.16768312,14
945,0.04524587,0.31350383,0.20354864,0.97775626,0
946,-0.63094074,0.51255476,-0.96631956,-1.2124363,1
947,0.18441536,0.32459867,-1.252034,1.4460524,2
948,1.9415135,-0.34041822,0.17942297,1.6061562,3
949,2.148472,-0.34985068,-0.19963825,1.0266197,4
950,-0.29256895,-0.9288583,-1.72368,1.0829549,5
951,0.85633206,-0.49987626,1.1561463,0.26296893,6
952,0.24058175,-1.8602936,-1.576827,0.90535146,7
953,1.1455282,0.14098275,0.7643949,0.8184881,8
954,0.35528994,-1.5968407,-0.9420814,0.7339001,9
955,0.90671116,-0.77333456,0.8576771,1.2120241,10
956,1.1303755,-1.2348076,-0.49034545,0.82716703,11
957,0.5404461,0.19870701,-0.49953532,1.5187762,12
958,0.23763496,-0.4182223,0.8814683,0.19159406,13
959,-0.20386569,0.620937,-1.7802826,-0.084584,14
960,-0.22963685,0.05166486,0.51798797,2.8295355,0
961,-0.30746666,0.44374752,-1.722405,-1.2358986,1
962,0.3769474,0.45071188,-1.3085945,0.8298658,2
963,1.6688867,-1.3249848,-1.3859997,1.2453256,3
964,1.9855864,0.21820992,-0.056283593,1.9965209,4
965,1.2561121,0.34131703,-1.1653728,0.9003009,5
966,1.0670097,-0.69635427,0.66509485,0.062384367,6
967,1.1196373,-0.98045677,-0.67655843,1.6548005,7
968,0.79520386,-1.1507123,-1.1074702,1.8703302,8
969,0.47827592,-1.3296769,-0.6031868,0.88172203,9
970,0.9715144,-1.7226187,-0.9651654,1.1734321,10
971,1.1730545,-0.8007275,-1.3710907,1.4888548,11
972,-0.41563046,0.045895413,0.16933428,2.01472,12
973,1.5297186,0.19689518,0.90510345,1.3699763,13
974,-0.29344392,0.70374155,-0.5508068,1.630606,14
975,0.25214106,0.017012984,0.1616126,2.178877,0
976,-0.32691532,0.63627213,-1.2293954,-0.89394456,1
977,-0.042185426,0.44475907,-1.3539408,-0.7698673,2
978,2.1172962,-0.25344145,0.67563945,2.4095414,3
979,1.0858288,-0.47015178,-0.24675027,1.2920045,4
980,0.8733324,-0.14342043,-1.3739798,0.5135715,5
981,1.3922532,-1.0106746,0.25101957,0.98590106,6
982,1.5154517,-1.282992,-1.0153226,1.6410995,7
983,1.6991622,-0.70568174,-0.690137,1.891679,8
984,1.627672,-0.5521835,0.30072725,1.6233208,9
985,0.84748757,-2.0759768,-0.12511252,0.97047204,10
986,1.801022,0.3715418,1.3542767,1.5290354,11
987,-1.1020776,-0.45248416,0.2918003,1.6954502,12
988,0.5653925,-1.0633919,-1.0770777,0.95534337,13
989,0.012192935,0.54591,-1.1321318,1.1097627,14
990,-0.5709162,-0.6323895,-0.10845606,1.8921237,0
991,-0.31328654,0.6296413,-1.0738158,0.5783185,1
992,0.6127808,0.96048665,-0.6800435,3.332881,2
993,0.7827084,-1.2680185,-0.55733263,1.7059827,3
994,0.65981853,-0.9541241,0.2509563,1.509975,4
995,0.42539054,0.239036,-0.41231322,1.4819441,5
996,1.3635021,-1.2463944,-0.30550608,-0.03133589,6
997,0.93104553,-1.3944442,-1.5348423,1.2782639,7
998,0.31844163,-1.1314647,-0.67474246,1.1063035,8
999,0.73154265,-1.4184525,0.5756712,0.16457582,9
1000,0.7642509,-1.9452934,-0.5512984,0.923738,10
1001,1.4048113,-0.844659,-0.19985655,1.4785963,11
1002,-1.3909671,0.2864132,1.9608316,2.2449403,12
1003,1.2901075,0.15278506,1.1348706,1.4610975,13
1004,0.50961447,0.8299342,-2.2640886,0.046959817,14
1005,-0.51556325,-0.67326415,-0.24749088,1.3058009,0
1006,-0.10252291,1.1254663,-0.4585478,-0.29235676,1
1007,0.21577595,0.5369409,-1.592632,-0.037127376,2
1008,1.5813746,-0.8705774,-0.43045717,2.0966806,3
1009,1.044141,-1.1809766,-0.56165737,1.2067289,4
1010,0.54466695,-0.46361038,-1.7964766,0.10153675,5
1011,0.348113,-1.089879,0.7036278,0.6863934,6
1012,0.9142791,-1.4592841,-1.2733477,2.1100752,7
1013,1.0475214,-0.638288,0.0946549,1.4475397,8
1014,-0.3466822,-2.7829094,-1.6352677,-0.13695133,9
1015,1.5280049,-0.7513003,0.7887093,1.5211718,10
1016,0.2715884,-0.6777546,0.4929658,1.1164614,11
1017,-2.7490149,0.52181137,3.5602965,3.2146387,12
1018,0.9181743,-0.28188902,-0.60899174,1.5927091,13
1019,-1.313014,-0.0129444,0.71792185,2.444131,14
1020,-0.25018188,-0.20029269,-0.21433553,3.3454995,0
1021,0.20567268,1.430796,-0.64429486,0.03324764,1
1022,0.6185571,0.68300927,-1.2476525,1.0666063,2
1023,0.6692924,-1.386379,-0.8324456,0.40262985,3
1024,0.6543446,-0.93028986,-0.5127673,1.0448697,4
1025,0.41516897,-0.07658062,-0.45126653,1.7828393,5
1026,1.4436125,0.3535512,2.108196,1.6755927,6
1027,1.1162149,-0.77145946,-0.04817237,1.5037318,7
1028,1.1642393,-0.046595097,0.7361002,0.45123607,8
1029,0.86806655,-1.2439404,-0.68765765,1.1853181,9
1030,0.37768424,-1.8919516,-0.70518386,1.3727342,10
1031,0.88839895,-0.8329139,-0.6481992,1.62692,11
1032,-1.0264633,-0.41200647,0.5702065,2.7014334,12
1033,0.9768774,-0.7965698,-1.4530495,2.087801,13
1034,-0.6929636,0.3334741,-0.3615383,1.2659091,14
1035,-0.19479091,-0.53051084,-0.110121995,2.0605009,0
1036,-0.8996091,0.406492,-0.28717005,0.2531028,1
1037,-0.2543525,0.045855105,-1.8537142,0.04027939,2
1038,1.196551,-0.5697813,0.34130454,1.6535013,3
1039,0.78925574,-1.1612453,0.19284907,0.9103031,4
1040,0.2038006,-0.6354629,-1.905323,0.062690675,5
1041,0.34195298,-0.9092607,-0.37456033,0.5157987,6
1042,0.37468755,-0.2641856,1.6570512,0.28926194,7
1043,0.92168057,-0.6756405,0.4601701,0.9874131,8
1044,1.3995119,-0.31215954,0.5478157,1.8734983,9
1045,0.37493438,-1.5607247,-0.9429927,1.0702094,10
1046,0.20025599,-1.2589617,-0.71544755,0.6713482,11
1047,-0.2721191,-0.38812557,-0.9900021,1.718569,12
1048,0.47245365,-1.167579,0.077910244,1.0735813,13
1049,0.098044515,1.1868441,-0.87837857,0.84120065,14
1050,0.1758949,-0.10555822,0.13824874,2.3248255,0
1051,-0.39152303,0.41353303,-0.83410716,0.7196431,1
1052,0.32310313,0.6738305,-1.3274667,1.0015254,2
1053,1.0620744,-1.1702873,-0.89312136,1.71995,3
1054,-0.038533866,-1.9260154,-1.0708513,0.47633952,4
1055,0.07176709,-0.2647847,-1.4092972,-0.5631086,5
1056,0.658969,-0.38857806,1.3940347,0.44243124,6
1057,0.4593556,-1.6896563,-0.14400163,0.28178227,7
1058,0.15170145,-0.52321804,0.837804,1.0895153,8
1059,0.9647437,-1.0511426,0.462643,0.92513275,9
1060,0.77828646,-1.5364935,-0.7099205,0.28074366,10
1061,0.96008843,-0.20884484,0.11830521,1.3250594,11
1062,0.5500372,1.0718145,0.68438387,2.2123742,12
1063,1.6760465,0.42824835,1.3368576,1.1781358,13
1064,-0.37267873,0.37682316,-1.6978408,1.2621107,14
1065,0.031007007,-0.25307643,-0.31672022,1.4913828,0
1066,-0.419198,0.4789337,-0.84582597,-0.038289137,1
1067,1.0240868,1.1248099,-1.355337,1.4359903,2
1068,0.8653464,-0.85792613,-0.5289913,1.2796791,3
1069,1.5686522,0.590704,0.91126263,1.4853319,4
1070,0.06772122,-0.32367814,-1.2915189,-0.23313254,5
1071,1.8347995,-0.12825102,0.814664,1.4218163,6
1072,1.159981,-0.81824094,-0.16175742,1.2974087,7
1073,0.5706687,-0.52411693,0.42636955,1.2650803,8
1074,1.3535118,-0.7100688,0.45964295,0.69864225,9
1075,0.4059853,-1.1641428,-0.054495737,0.6189353,10
1076,2.6001556,0.099054456,-0.51386,2.423509,11
1077,-0.5052148,0.23150343,0.85196555,1.9340383,12
1078,0.3789538,-0.8397858,-0.112267986,0.6179849,13
1079,-0.63936186,0.17692828,-1.0810238,1.1919521,14
1080,0.21833833,-0.38953188,-0.02057755,2.6126723,0
1081,-0.6041187,0.8776628,0.35657108,1.7748525,1
1082,-0.31067148,0.08452436,-0.9930283,-0.183923,2
1083,0.59793043,-1.0938778,0.015506029,1.1246703,3
1084,0.58844566,0.10770196,1.2332036,0.9712755,4
1085,0.13200793,-0.7832967,-1.7527688,0.006290972,5
1086,1.3707619,-0.4672935,0.3213693,0.839401,6
1087,0.82193756,-0.9180412,-0.19586232,1.0054284,7
1088,0.4567002,-0.8037431,0.6873388,0.6611435,8
1089,0.9193195,-1.0902163,0.30693918,1.2346232,9
1090,1.4034652,-0.3735534,1.0620042,0.93444335,10
1091,0.90654486,-0.49711108,-0.19321921,0.6751634,11
1092,-1.845412,-0.55584514,0.8009584,2.7818058,12
1093,-0.10568035,-1.5071654,-0.6809548,0.47583494,13
1094,-0.6603637,0.018306732,-1.6106191,0.20879817,14
1095,-1.1249247,-0.4546059,-0.1212039,1.3885274,0
1096,-0.38780588,0.82204735,0.085258424,0.34262916,1
1097,-1.3130308,-0.7141712,-1.3381634,0.59264266,2
1098,0.15839326,-1.4167536,-0.37009013,0.31863844,3
1099,1.459877,-0.51990724,-0.5357218,2.2346873,4
1100,0.47086936,-0.34045365,-1.3307016,1.6613576,5
1101,0.5547651,-1.7060297,-0.8067012,0.55418545,6
1102,0.94563144,-1.0743276,-0.33610228,-0.17113638,7
1103,0.36707076,-1.133099,-1.3902006,1.304632,8
1104,-0.0588156,-1.2385947,-0.18364221,1.6329159,9
1105,1.917433,-1.0004389,0.44973695,1.3444403,10
1106,0.774523,-0.5586133,0.502352,2.0217552,11
1107,-1.5951223,-0.28427106,1.1581028,2.2232392,12
1108,0.6204245,-0.45507848,-0.0010198653,0.9174177,13
1109,0.4462834,0.919417,-2.210071,0.24260175,14
1110,-0.4360171,-0.11014801,0.44135988,2.1269152,0
1111,0.580048,1.4821086,-1.044226,0.6432075,1
1112,1.5282471,1.7689178,-1.112428,1.3163148,2
1113,1.214763,-1.0158886,-0.54428005,0.56759435,3
1114,1.0810659,-0.7047421,-0.3320909,0.5594653,4
1115,0.25563395,0.5179589,0.1510452,1.6259083,5
1116,1.4518641,-0.5588137,0.48259544,1.4260476,6
1117,-0.32865644,-1.2166653,0.5673966,-0.35391653,7
1118,0.56493205,-0.9261628,-0.30380833,2.378049,8
1119,-0.3827212,-2.0358381,-0.414702,0.22038984,9
1120,0.0847882,-1.6494706,-0.8994776,0.19508058,10
1121,0.8548336,-0.76439744,-0.7569395,1.3513466,11
1122,-0.6584312,-0.5802343,-0.5140131,2.0908854,12
1123,0.820832,-0.9743985,-1.0755818,1.00482,13
1124,-0.111088276,0.64195734,-1.0787371,0.87666565,14
1125,0.22757234,0.4237099,1.2012235,2.0430055,0
1126,-0.40272132,1.2516153,0.42299104,0.39761278,1
1127,-0.22195637,-0.31388324,-1.9390826,0.3590933,2
1128,1.2269968,-0.31054032,-0.39161158,2.1014001,3
1129,0.849423,-1.749126,-1.5886024,1.2349133,4
1130,0.05066645,-0.5074413,-1.3490531,1.2903948,5
1131,1.2106712,-1.2621113,0.85409665,1.456733,6
1132,-0.16409063,-1.8223374,-0.16258463,0.3263697,7
1133,0.69147146,-0.385296,0.40100527,0.6632389,8
1134,-0.23837614,-1.8995253,-0.25341886,-0.17320025,9
1135,1.891891,-0.61210084,0.44075412,0.9545539,10
1136,1.672601,-0.26457316,-0.010000348,1.6757334,11
1137,-1.9945877,-0.5768128,1.4621191,2.6805341,12
1138,0.9118333,-0.81669885,0.34645438,0.9017405,13
1139,-1.0746944,-0.3269654,-0.8840382,1.1943935,14
1140,0.027619332,-0.56857777,-0.2395604,2.1898484,0
1141,0.5848532,1.5072942,-0.5702107,1.507037,1
1142,0.3929392,0.8568251,-0.6932289,1.4904369,2
1143,1.0170507,-0.69800425,-0.43355137,1.158571,3
1144,0.64662206,-0.75184053,0.48125052,0.5241653,4
1145,-0.32770398,-0.70261776,-1.3631947,1.0927685,5
1146,2.185659,-0.48378032,-0.50762844,1.5049998,6
1147,0.760578,-0.1311912,1.6879897,0.11041987,7
1148,1.1053089,-1.3294044,-1.8835969,1.5469923,8
1149,2.3578057,-0.33531654,-0.29402816,2.446646,9
1150,0.6824913,-0.5326251,1.6618552,0.6574558,10
1151,1.9899288,-0.62012625,-0.6133367,1.1180124,11
1152,0.5454578,0.62538445,0.64509577,1.830632,12
1153,0.49319863,-1.0357535,-0.28539467,0.9739567,13
1154,-0.08075541,0.61716264,-1.5622916,0.9478927,14
1155,0.26245248,0.15198404,0.49821952,1.6287692,0
1156,-0.2879327,0.88381374,-0.45879617,-0.13129877,1
1157,0.022801876,0.4060402,-0.9202709,1.8386331,2
1158,1.2077258,-0.67866457,-0.15406114,1.2005993,3
1159,1.4122434,0.44565076,1.4950163,1.4527757,4
1160,-0.34864923,-0.82030416,-1.67282,0.6335399,5
1161,0.9784936,-0.7871051,0.28924754,0.84209883,6
1162,0.81145537,-0.9248198,-0.11782342,0.7717179,7
1163,0.58032656,-0.9060012,-1.0657889,1.4202745,8
1164,-0.07903826,-1.6981618,-0.35745907,0.9936261,9
1165,1.1495537,-1.2085125,-0.36615962,0.8503494,10
1166,0.9883112,-0.21732259,0.1607013,1.1932678,11
1167,-1.1440731,0.16966978,1.4747255,3.0645506,12
1168,0.3586118,-0.7845353,0.33684802,1.0751376,13
1169,-0.8845613,0.76031184,0.7758498,1.3441854,14
1170,-0.55370176,-0.39664435,0.02516289,1.9725134,0
1171,-0.6426159,0.5716183,0.06741369,1.349549,1
1172,0.89462817,1.3557166,-0.40259004,1.3875868,2
1173,2.0335975,0.13196218,0.9471982,1.8172214,3
1174,2.6025426,0.39118308,1.4699302,2.3232856,4
1175,0.121816054,0.098920554,0.068274975,1.1594115,5
1176,0.81774724,-1.056881,-0.109297484,0.6720373,6
1177,0.5898457,-1.8144424,-1.3490113,1.5761768,7
1178,1.1179012,-1.5214882,-0.6570688,2.018068,8
1179,1.1165172,-1.0762469,0.71921986,0.44744587,9
1180,0.7607199,-1.3764948,-0.1626872,1.1304914,10
1181,1.058907,-0.43890882,0.49211964,1.2411745,11
1182,-0.09598851,-0.10446686,-0.2724229,1.5011281,12
1183,1.2560022,-1.450213,-1.4395572,1.1670053,13
1184,-0.5041698,0.49257383,-0.609173,1.4853933,14
1185,0.22230087,-0.27968547,-0.0012302399,1.8586638,0
1186,0.3461712,0.75430346,-1.5321572,0.2348687,1
1187,0.6360574,0.7905171,-1.4904354,-0.055996776,2
1188,0.98426557,-0.9528334,0.06180668,1.0231707,3
1189,0.8976784,-2.1163273,-1.5765716,1.5029527,4
1190,1.7119805,0.391466,-1.5928698,1.2899461,5
1191,0.16422814,-1.7171913,-0.043317705,0.030873895,6
1192,0.7809977,-0.4943989,1.4349742,1.1693903,7
1193,0.51836175,-0.5516,1.176087,1.3291054,8
1194,0.60377455,-0.11574173,2.1632931,0.789505,9
1195,1.3509159,-0.68217033,0.31386968,0.42387456,10
1196,0.5571953,-0.7102535,-0.04362586,1.1615236,11
1197,1.3193371,0.03654957,-1.7023301,1.0513065,12
1198,1.6430919,-0.9630006,-0.75990605,1.279558,13
1199,-0.9562143,0.17387304,-0.8339468,1.0471581,14
1200,-1.0168316,-0.38808987,0.61133933,1.7013583,0
1201,-1.1532791,0.14167452,0.10090923,-0.18549147,1
1202,0.12294196,0.80484766,-0.24947965,0.9996485,2
1203,1.6460456,-0.8676208,-0.38540578,1.9395757,3
1204,0.74493027,-1.8194511,-1.1688795,0.2101739,4
1205,-0.19037041,-0.48473108,-0.98322314,1.3932351,5
1206,0.972232,-0.66277814,0.37076628,0.91963136,6
1207,0.74830866,-0.27936256,0.56342244,1.1829017,7
1208,0.8624529,-0.34196246,0.53958744,0.66106987,8
1209,1.4030818,-0.4303767,0.70979446,1.6661317,9
1210,0.19113392,-2.077942,-1.0170662,0.47583574,10
1211,0.13040584,-1.4858265,-0.95764065,0.48111647,11
1212,-1.010322,0.016382828,1.2136526,3.366397,12
1213,0.6246445,-0.8571253,-0.045833707,0.5890825,13
1214,-0.8770328,0.29285717,-0.43540537,0.9001518,14
1215,-0.5441515,-0.414259,-0.23089778,1.812972,0
1216,-0.23253326,0.7681857,-0.18757033,1.3270433,1
1217,0.27485994,0.6417723,-1.6659687,0.6215066,2
1218,1.5368582,-0.17421412,1.1514733,1.3579565,3
1219,0.6564442,-1.0396696,-0.75103617,1.1252363,4
1220,0.11498621,-0.62318516,-1.7081321,-0.49304122,5
1221,0.41362247,-1.439254,0.26896486,0.1084013,6
1222,0.73221874,-0.7070955,0.714162,0.43748403,7
1223,0.76060313,-0.12956566,0.20591234,1.1134516,8
1224,2.0194335,-0.48606336,1.4554415,1.6612606,9
1225,1.406982,-0.33839273,1.2306936,1.2569981,10
1226,-0.011765003,-1.2412187,-1.3771223,0.95651025,11
1227,3.0021613,-0.08346285,-3.5659144,1.0405374,12
1228,0.64513206,-1.1456292,-0.6010114,0.27445316,13
1229,-0.6636066,0.62105876,-0.62377095,0.35890675,14
1230,-0.49744546,-0.8741969,0.043292463,1.9925462,0
1231,-0.36546287,0.20782244,-1.4017217,-0.50192887,1
1232,0.94366944,1.59303,-0.6784868,0.80105203,2
1233,0.92069274,-0.45303547,-0.082143664,0.99513185,3
1234,0.9228578,-1.0155065,-0.83702326,1.522413,4
1235,0.8624418,0.028866738,-1.4003913,-0.2780252,5
1236,1.3919189,-0.98349434,-0.2653751,0.22054678,6
1237,1.7037746,-0.61523247,-0.37867895,1.3281752,7
1238,-0.6303085,-0.96624386,0.2942376,-0.44124734,8
1239,0.06328958,-1.2207329,0.2841597,0.57538843,9
1240,-0.14502645,-2.7299342,-1.9096774,0.5200597,10
1241,0.31896126,-0.75700146,0.3262703,0.95528567,11
1242,0.3703435,0.37118095,0.26817277,1.8374984,12
1243,0.9419737,-0.46126556,0.2489847,1.004467,13
1244,-0.69652,0.054183215,-1.5368153,0.11856341,14
1245,0.56648904,0.41925547,0.44446447,2.861576,0
1246,-0.7458493,0.32932582,-0.40438205,-0.45362514,1
1247,0.425658,0.462556,-1.9354589,-1.2454525,2
1248,-0.53261685,-1.1087453,-0.3683905,0.17122936,3
1249,0.8867953,-0.49767265,0.3117364,1.5343425,4
1250,-0.15935645,-0.51374626,-1.1346277,1.2096639,5
1251,0.58776927,-1.6216955,-0.6211896,0.04867804,6
1252,1.3914196,-0.7116835,0.10464365,1.1387696,7
1253,0.4100041,-0.65281135,-0.40938616,1.5934671,8
1254,1.01652,-1.1756226,-0.38494653,1.4605782,9
1255,1.3458635,-0.2016328,1.1305084,1.0320933,10
1256,0.94554746,-0.92579174,-0.4273309,1.0567616,11
1257,-0.3987658,-0.3105398,-0.32337987,1.0981963,12
1258,0.80837524,-1.1819977,0.34469676,0.9870557,13
1259,-0.24652725,0.33942544,-1.5129664,0.36123276,14
1260,-1.10342,-0.55683863,0.33887434,1.9004713,0
1261,-0.3692515,0.46221504,-0.6550628,0.92774564,1
1262,-0.4179698,-0.20749843,-1.3481655,0.9663264,2
1263,0.70970625,-0.365376,0.55229723,1.6054238,3
1264,0.49890792,-1.3635216,-0.31793463,-0.047584414,4
1265,0.3428076,-0.43140835,-1.1855646,0.73761094,5
1266,1.2346879,-0.8283762,-0.13068032,1.2869607,6
1267,1.0324156,-1.4443598,-0.7603886,1.644182,7
1268,0.28695258,-0.36446562,0.6420416,0.8710842,8
1269,0.8660499,-0.6402261,0.5405822,1.7594512,9
1270,0.23781675,-1.7731898,-1.2168604,0.4195839,10
1271,1.1909889,-0.22920334,-0.09947643,1.603643,11
1272,-0.92822796,-0.5300003,-0.6536942,0.8097975,12
1273,1.6752563,-0.5593566,-0.49371904,0.95879537,13
1274,0.30088264,1.6374795,0.26428473,2.385411,14
1275,-0.78773534,-1.0731529,-0.95849216,1.0031343,0
1276,0.24752352,1.4966798,-0.22782338,1.0184369,1
1277,1.0418385,1.1957406,-1.1484553,0.44551593,2
1278,1.3312385,-1.0256046,-0.23575896,1.2510859,3
1279,0.34987855,-1.5905929,-0.9582465,0.276057,4
1280,0.3874827,-0.06931707,-1.0372933,0.67081594,5
1281,2.060869,0.16654891,1.282558,0.7072302,6
1282,1.0878754,-0.42527133,0.8904353,0.8971344,7
1283,-0.13111758,-1.0162623,0.13469814,0.79285824,8
1284,0.11370462,-1.0620074,0.42667335,0.4245249,9
1285,1.6860971,-0.874727,-0.94097316,1.9660175,10
1286,0.021010697,-0.94210285,-0.9146117,0.4742601,11
1287,0.5568276,-0.4096243,-1.2742383,1.0579238,12
1288,2.0861063,0.2815109,0.34222996,1.1374767,13
1289,-0.86635035,-0.04709822,-0.9342241,0.0088380575,14
1290,-0.33894038,-0.45321953,0.11782217,2.263217,0
1291,-0.51876,0.5424669,-1.2578943,-1.6907779,1
1292,-0.4220431,0.67827237,0.14092755,0.7316715,2
1293,0.4854033,-1.4835585,-0.8476736,0.62349325,3
1294,0.25940335,-1.2918329,-0.5823873,1.1351824,4
1295,0.7674495,0.062686205,-0.8745359,0.89954054,5
1296,0.35859627,-1.3694242,0.6319759,0.9083003,6
1297,1.0671905,-1.1535295,-0.102134086,0.8683087,7
1298,0.40344733,-0.72901475,0.23252185,0.6313673,8
1299,0.51594645,-0.92357635,-0.11633003,0.38744998,9
1300,1.9674547,-0.03574264,1.9208778,0.82049096,10
1301,1.4619305,0.80356425,1.2730737,1.7087576,11
1302,0.6392409,0.23894742,-0.3360713,2.5217679,12
1303,1.9428545,-0.25227207,-0.27003187,2.1316745,13
1304,0.14131683,0.91457933,-1.4351695,1.2936054,14
1305,-0.7496937,-1.0340369,-0.036482006,2.2987707,0
1306,0.087450475,1.3177781,-0.48761043,-0.72387224,1
1307,-0.520067,0.44407755,0.2595049,2.4289808,2
1308,1.674115,-0.11335218,0.15870148,1.3392978,3
1309,0.57922935,-0.97180575,-0.47207272,1.3767824,4
1310,-0.12928393,-0.5708729,-1.0632803,1.6611775,5
1311,0.08244175,-0.41879308,0.9390398,0.39290535,6
1312,0.07975352,-1.8109198,-0.4962531,0.9648873,7
1313,0.6734431,0.6178241,1.8248752,0.89818984,8
1314,0.89433396,-1.0955901,0.30107158,1.065784,9
1315,1.6293776,-0.3808822,1.1597074,0.81275225,10
1316,0.7516585,-0.84671736,-0.88961864,0.7412802,11
1317,-0.13165271,-0.35702345,-0.58383125,1.6726879,12
1318,0.04057038,-0.30522436,0.9896709,0.7121203,13
1319,-0.17335723,0.89586204,-0.73639226,0.8275358,14
1320,-0.37066078,-0.64622796,0.14357197,1.7090836,0
1321,-0.3949886,0.6067817,-0.67188954,0.20237231,1
1322,-0.6788802,-0.09600735,-0.76242167,2.4672475,2
1323,1.0162241,-2.0762343,-1.3486035,1.7878146,3
1324,0.64023453,-0.76035315,-0.09760806,1.0424377,4
1325,0.19643147,-0.16982107,-1.0494486,-0.496664,5
1326,0.22697794,-1.2998662,0.39468822,0.40130812,6
1327,1.9943303,0.1248067,0.8454536,2.4993815,7
1328,0.46127704,-1.6685709,-1.8878865,0.8676678,8
1329,1.6490774,-0.45123512,0.98649496,1.4800673,9
1330,1.2545629,-0.6454742,1.095492,1.025927,10
1331,0.9797702,-0.2199912,0.025886804,1.197441,11
1332,-1.5352073,0.41297913,1.9886494,2.388503,12
1333,1.7568814,-1.3633842,-1.7161813,1.16488,13
1334,0.041188985,0.38763306,-2.1432972,0.5250677,14
1335,0.40708834,0.27529147,0.7995081,1.9931391,0
1336,-0.6692358,-0.09145081,-1.0667984,0.38553634,1
1337,0.16904321,0.8440545,-1.2444052,-0.9526504,2
1338,1.131358,-0.51019037,0.09277263,1.7202616,3
1339,1.3366525,-0.36780024,0.6165613,1.1175312,4
1340,-0.41274968,-0.8051629,-1.1610932,0.8433338,5
1341,1.9629492,-0.107058465,1.3744193,0.81117916,6
1342,1.9799111,-0.13721812,0.6319644,1.5151117,7
1343,-0.22151089,-1.3401349,-1.1643641,0.9074868,8
1344,0.66400504,-0.6426114,0.6931817,0.7560911,9
1345,1.4224284,-1.4103413,-0.6610522,0.85331,10
1346,1.6805077,-0.7821139,-0.31872138,1.279359,11
1347,-1.1483697,-0.066164695,0.8538332,2.3447978,12
1348,0.5123644,-0.89181966,-0.6267305,0.836732,13
1349,-0.89805853,0.12958789,-0.8285425,0.68820524,14
1350,0.46623188,0.008030772,0.13889462,2.132588,0
1351,-0.89923835,0.48672718,0.15972757,0.67975926,1
1352,0.36932883,1.0718482,-0.39307356,2.8626447,2
1353,1.0050652,-1.3181229,-1.2067304,1.3667998,3
1354,-0.06249696,-0.907277,0.41409397,-0.104347944,4
1355,0.7513616,0.036431625,-1.3293058,1.5086844,5
1356,1.1508133,-0.83837116,0.04774919,0.7813666,6
1357,1.412483,0.07991558,1.3712016,1.6352181,7
1358,0.24004692,-0.713714,0.73732924,-0.107824326,8
1359,-0.30393243,-2.1903954,-1.5344987,0.5138223,9
1360,0.5518169,-1.8709127,-0.26340598,1.1555854,10
1361,1.5320785,-1.0268732,-0.9361898,1.0173893,11
1362,-0.9212216,-0.04287734,0.27684495,1.9257958,12
1363,0.3188563,-1.2339282,-1.0102347,0.6776043,13
1364,-0.7246635,0.19059792,-1.3160748,0.823979,14
1365,-0.19228993,0.38089862,1.1786066,2.3187153,0
1366,-0.31455642,0.9920541,-0.35155445,0.070889086,1
1367,0.4185947,0.54517084,-1.1586182,1.8177359,2
1368,0.6452147,-0.86894554,0.25759685,1.2964809,3
1369,0.9143605,-0.25067854,0.5744437,1.3771687,4
1370,0.037463814,-0.0029698163,-0.18331659,2.3346274,5
1371,1.2077494,-1.3382432,-0.7721844,0.527637,6
1372,1.2208906,-1.419809,-1.2459052,1.6038733,7
1373,1.1368432,-1.0042756,-0.36372393,1.2825731,8
1374,0.99398184,-1.3374143,-1.4025521,1.703821,9
1375,0.5111993,-0.76940084,0.40321332,0.19221383,10
1376,1.8942213,0.1952675,1.1039139,1.7396585,11
1377,-0.58743465,-0.97206134,-0.9856488,1.0391113,12
1378,0.71720004,-1.5482457,-1.3395236,0.86156356,13
1379,-0.35459912,0.5134761,-0.76600266,2.0174458,14
1380,1.4584769,1.1644111,1.3249514,2.087123,0
1381,1.3755772,1.9240098,-0.99089354,0.7455591,1
1382,-0.8259244,-0.65381753,-1.7318025,1.6317225,2
1383,0.41534698,-1.4577426,-0.07983422,1.1826146,3
1384,0.98359764,-0.6377189,-0.52721846,1.277207,4
1385,0.80135405,0.23820984,-0.4901808,0.37301427,5
1386,1.4841384,-0.45473707,0.34276402,1.3963786,6
1387,0.824038,-0.5279956,1.2716801,1.0522066,7
1388,0.3231637,-0.11548102,1.2784057,-0.02789545,8
1389,1.3814948,-0.16331828,1.0811076,0.7104397,9
1390,0.24166602,-1.2085404,0.43360472,0.6348024,10
1391,0.17893279,-1.6639447,-0.8488313,0.68317354,11
1392,-0.0060934424,0.7060549,0.8803525,1.3165048,12
1393,1.1295034,-0.9462149,-0.03375238,0.2612974,13
1394,-0.13079107,0.9342475,-1.3066493,-0.73525965,14
1395,-0.6927683,-1.1909794,-0.6100744,1.3657174,0
1396,-0.20504135,0.8371498,-0.8061489,0.15130371,1
1397,0.032892182,-0.06294599,-1.6211133,1.3991805,2
1398,0.05613053,-1.0435468,-0.622985,0.6981069,3
1399,0.41008207,-1.9130688,-1.2629981,0.30162138,4
1400,0.7556058,0.48417607,-0.097501695,1.3231695,5
1401,0.80731213,-0.8200469,0.93409693,1.3058602,6
1402,0.55208564,-0.6911653,0.2770389,0.68886346,7
1403,2.4627402,0.48863864,1.0502255,2.0843234,8
1404,1.6269901,-0.3110208,1.0995038,1.1120367,9
1405,1.4133489,-1.0588776,-0.6273813,1.75885,10
1406,0.6249693,-1.3970176,-0.54222906,1.2926525,11
1407,-1.9616511,-0.09361744,1.714648,2.1961854,12
1408,1.0487063,-0.20715302,0.16647995,0.9008574,13
1409,-0.11178075,1.0190648,-0.6931878,0.6751635,14
1410,-0.2657687,0.14299819,0.79258645,2.1804667,0
1411,-1.0569962,0.92521447,0.78226554,0.59181225,1
1412,-0.31645676,0.27352175,-0.03309405,2.6695478,2
1413,1.104761,-0.884528,-0.11988644,1.1975577,3
1414,0.38884777,-0.5625768,0.35580516,0.6150064,4
1415,1.0813347,-0.34567994,-1.9551518,0.47547054,5
1416,-0.142681,-1.7169725,0.24657997,0.05331707,6
1417,0.30576515,-0.7270433,0.5143068,0.9143966,7
1418,0.32842728,-0.89459014,0.11920379,0.80911154,8
1419,1.7530774,-0.10013163,1.1452055,1.9859354,9
1420,1.679951,-1.055181,-0.06631708,1.3255074,10
1421,1.4197257,-0.16398591,-0.34061697,1.7801466,11
1422,-1.2442124,0.06478134,1.0072858,2.1599367,12
1423,1.191278,-0.612592,0.029099017,1.1657594,13
1424,-0.4863683,0.14366183,-1.726957,0.6476232,14
1425,0.44596642,0.31325814,0.12061131,2.5579643,0
1426,0.48670727,1.1609988,-0.9166977,1.2945147,1
1427,0.29056948,0.6039137,-1.0366309,1.1920577,2
1428,1.2463307,-1.0572081,-0.6468979,1.2165982,3
1429,1.2327789,-1.1664697,-1.255942,1.5956913,4
1430,0.15629245,-0.5892503,-1.2853236,0.84687626,5
1431,0.9530449,-0.8849334,-0.14977637,0.975522,6
1432,1.0850866,0.052456677,1.511506,0.8467695,7
1433,0.8540035,-1.335985,-2.3659408,1.9654682,8
1434,0.4808158,-1.2029134,0.39357644,1.2234614,9
1435,1.3809376,-0.17180061,0.9472983,0.86941063,10
1436,1.8501471,0.80319124,1.5600631,1.8464859,11
1437,0.47274512,0.3930031,0.26398933,2.017112,12
1438,2.2135687,-0.14062577,0.43229783,1.9455514,13
1439,-0.53248155,0.32055432,-1.0359112,0.6582813,14
1440,0.9782553,0.6954359,0.8845222,2.4767756,0
1441,-0.68491215,0.7788324,-0.21467257,-0.2065818,1
1442,-0.37564084,0.25465357,-1.1557926,1.021663,2
1443,1.1450067,-0.7544068,0.05559367,1.0657327,3
1444,-0.4901455,-2.4468606,-2.1647005,0.25311303,4
1445,0.02339968,0.11170332,-0.27053612,1.7127695,5
1446,0.65704453,-0.6765825,0.49097347,0.86504954,6
1447,0.28872758,-1.2196356,-0.3605839,0.9085475,7
1448,0.27839926,-0.9983017,0.0021746904,0.82011294,8
1449,1.6401777,-0.1742068,0.768647,1.4896771,9
1450,1.4246651,-0.44750488,0.90954614,1.2374269,10
1451,0.27851254,-1.0006917,-0.0811204,0.54206514,11
1452,-0.85682064,0.30398148,1.3154851,2.019352,12
1453,1.4318409,-1.247663,-0.81092334,1.077937,13
1454,-0.8748287,-0.32487285,-1.7210271,0.4428115,14
1455,-0.64895755,-1.0596654,-0.2870941,1.8700114,0
1456,0.19487041,0.7931547,-1.6701753,-0.85458785,1
1457,0.12955868,0.35629594,-1.508985,0.73631185,2
1458,2.571908,-0.059276104,0.12722182,2.1769242,3
1459,1.0119216,-0.79145557,-0.23042986,1.3531755,4
1460,-0.5557709,-0.54277635,-0.6845101,1.408005,5
1461,0.21426821,-1.871875,-0.8023908,0.026861906,6
1462,0.77266777,-1.2817689,-0.13094014,0.9767337,7
1463,0.29327077,-0.8482605,-0.34813166,0.59805727,8
1464,1.3577363,-0.4590764,-0.103788674,2.3624663,9
1465,1.2282104,-0.8864149,1.0363166,0.4312534,10
1466,1.7195753,-0.89246756,-1.4327952,1.8207788,11
1467,0.012882292,-0.09788787,-0.2300111,1.1437144,12
1468,1.4092453,-0.23968244,0.7833121,1.5077534,13
1469,-0.7747234,0.050342143,-1.4059262,-0.044942617,14
1470,0.10319625,-0.08639622,-0.09659612,1.429419,0
1471,-0.095373526,0.5168564,-1.5028918,-0.80648834,1
1472,-0.07515156,0.25669956,-1.443458,2.0432901,2
1473,0.6801052,-1.4031072,-1.4356551,1.0919002,3
1474,0.6407691,-0.698903,-0.66200286,1.2158065,4
1475,0.5092199,0.3481566,0.056383014,1.7768611,5
1476,1.7820119,-0.7489776,0.7970209,1.5922039,6
1477,1.4240816,-0.5102856,0.20930812,0.8882201,7
1478,0.88303304,-0.3806921,-0.11126213,1.5969725,8
1479,-0.46795094,-1.9928521,-0.47586644,0.1573267,9
1480,1.2845778,-1.5296993,-0.6468847,1.4039589,10
1481,1.1818585,-0.4092282,0.070878804,1.6258856,11
1482,-1.8323994,-0.5817481,0.8056568,2.2134311,12
1483,1.18063,-0.7939448,-0.5147532,0.9746181,13
1484,-0.34622774,0.9870547,-0.2876038,1.2753807,14
1485,-0.8508305,-0.5658144,0.3359406,1.7511339,0
1486,-0.6334999,0.7489928,0.07650602,1.5018995,1
1487,0.75296044,0.6727296,-1.5401266,2.177978,2
1488,1.9767051,-0.22652924,0.036104232,1.5377233,3
1489,0.22048604,-1.9171519,-2.2077184,0.08800864,4
1490,0.042992383,-0.44418997,-1.024301,0.9900053,5
1491,1.0911307,-0.36656797,0.99355876,0.6009415,6
1492,1.6802738,0.19871467,1.3737576,1.2178314,7
1493,0.59682715,-1.1593832,-0.9709384,0.9387128,8
1494,1.617116,0.23613346,1.3747466,1.5228057,9
1495,1.4160603,-0.55667853,0.3006521,1.2147064,10
1496,0.9943052,-0.9751221,-0.5463896,1.4725473,11
1497,0.5978541,0.032429397,-0.9162355,1.4392009,12
1498,0.5512193,-0.7686454,0.33234608,1.4281173,13
1499,0.21194953,1.6419423,0.0019230843,1.417087,14
1500,0.41905344,0.12611365,0.5357181,2.064736,0
1501,0.2931093,1.2572783,-0.69021505,0.18195516,1
1502,1.0575112,0.77517223,-1.8126732,0.9272158,2
1503,1.120957,-0.6784221,-0.36876193,0.7833612,3
1504,1.0734599,-0.56776166,-0.041689068,0.9859105,4
1505,0.50653714,-0.20279738,-1.397831,0.96413374,5
1506,1.145505,-1.1473129,-0.2886421,0.4735852,6
1507,0.93600446,-1.3475525,-0.71764416,1.2757933,7
1508,0.876739,-0.3572291,0.3680982,2.2107983,8
1509,0.16662794,-0.64003986,1.5370431,0.6103897,9
1510,0.16783041,-1.5385481,1.0819509,0.39825043,10
1511,0.55699277,-0.8157414,-0.02174887,0.90852034,11
1512,0.3392406,0.7153803,0.65590906,1.1197433,12
1513,1.279168,-0.35452384,-0.022982448,1.0908452,13
1514,-0.38032365,0.65183854,-1.2523718,0.06645167,14
1515,-0.019134015,0.17810532,0.88282967,1.8352865,0
1516,-0.42678154,0.6714841,-0.48081952,0.958302,1
1517,1.1471335,0.8117287,-2.425199,0.20809358,2
1518,1.6493413,0.2634368,0.30138803,1.8593962,3
1519,0.69607586,-0.74023867,-0.4380578,1.1418118,4
1520,0.5505541,-0.028507888,-1.013953,0.58203524,5
1521,2.9307473,0.2307201,0.19575122,1.682064,6
1522,1.8650182,-0.7209069,-0.29840535,1.2095747,7
1523,0.6568491,-0.82096124,-0.3757975,0.86489344,8
1524,1.4946455,-0.5000984,0.7608235,2.514955,9
1525,0.22759783,-1.876247,-0.6245406,0.36511928,10
1526,1.953801,0.09341675,-0.14098376,1.881418,11
1527,-1.0568833,-0.51952654,0.2027958,2.0162795,12
1528,0.982549,-1.1227148,-0.48806027,0.35431427,13
1529,0.7671873,1.0362928,-2.5452847,0.097750425,14
1530,-0.42192912,-0.5823147,-0.45177153,1.7505054,0
1531,-0.28148457,0.33618832,-0.7834561,1.5944558,1
1532,0.6506106,1.2320374,-0.06446624,3.0037937,2
1533,0.82043886,-1.2588534,-0.06154701,0.474266,3
1534,0.9358372,-1.1867223,-0.7990847,1.0198307,4
1535,-0.04831463,-0.40638655,-1.1247269,0.34395295,5
1536,2.3387804,0.17567533,1.3904312,1.1805601,6
1537,2.297137,0.50346583,1.8878629,1.8828712,7
1538,-0.29494894,-2.2900004,-1.9617947,0.38889033,8
1539,1.8792479,-0.032865465,1.0121882,0.91057146,9
1540,1.3738594,-0.71515787,0.37751025,1.0658567,10
1541,1.70721,0.22835827,1.6616058,1.1952217,11
1542,-0.95616436,-0.39339757,0.21996152,1.7657233,12
1543,0.87997395,-0.49873447,-0.43245348,0.9078955,13
1544,-0.5031904,0.27696735,-1.3074903,0.93718624,14
1545,-0.6349253,-0.6610925,-0.37135974,1.0736015,0
1546,-0.7795952,0.2027111,-0.91450703,-0.11576605,1
1547,-0.40868,0.2511421,-0.7501319,1.5825989,2
1548,0.3907773,-0.9643649,-0.38885295,0.79752374,3
1549,0.8225842,-0.2420218,0.41636956,1.0318239,4
1550,0.28769007,-0.3361823,-1.3717015,0.35553616,5
1551,0.9313183,-0.94950646,0.61034775,0.75198126,6
1552,-0.08762324,-1.5136559,-0.39312556,0.81544423,7
1553,0.16327113,-0.96395826,0.22794615,0.8904548,8
1554,1.6925799,-0.37755972,0.4179772,1.2410283,9
1555,1.4346534,-0.8738065,-0.3071168,1.4303403,10
1556,1.5861123,0.60045475,1.3401701,1.5700715,11
1557,-0.58605313,-0.5825874,-0.26347333,2.0760925,12
1558,-0.20626879,-1.9170387,-1.4815656,0.2121839,13
1559,-0.4026687,0.7735737,-0.53956676,1.6940396,14
1560,0.6496416,0.27927867,0.4250102,1.123058,0
1561,-0.09680555,1.083287,-0.045253992,1.0426455,1
1562,-0.31873205,0.39875585,-0.82902807,0.24658829,2
1563,1.4416127,-1.4922299,-1.101326,1.2405887,3
1564,0.8734021,-0.15266752,0.9546292,0.98004705,4
1565,1.1516352,0.26491836,-0.9764512,1.504894,5
1566,1.694364,-0.46158612,0.4792141,1.4775181,6
1567,0.6464283,-1.7255558,-0.5080119,0.77243495,7
1568,0.7102179,-0.8438201,-0.026801258,1.5552101,8
1569,0.91498,-0.5105117,1.3228896,1.0302948,9
1570,1.987886,-0.37434006,0.44819397,1.374471,10
1571,1.2020245,-0.7256285,-0.22228014,1.3489634,11
1572,-0.1247561,-0.114554696,-0.5761014,1.399485,12
1573,1.0403278,-0.87507683,-0.8222142,1.366513,13
1574,0.068204105,0.719377,-1.4529974,1.2577119,14
1575,-0.2825019,-0.26478106,0.26315698,2.7823863,0
1576,0.13972336,1.0891598,-0.96865433,0.18890242,1
1577,0.82398605,0.6290115,-1.882379,0.5888978,2
1578,0.58738744,-1.8521827,-1.9370368,1.4404589,3
1579,0.7713659,-0.9266156,-0.426337,0.9289234,4
1580,1.1266448,0.5796181,-0.7735895,0.47809684,5
1581,0.6763046,-0.795964,0.06579903,1.1436963,6
1582,1.1090667,-0.92112106,0.20978153,1.0786227,7
1583,-0.41747117,-1.7125056,-1.3958378,1.0282714,8
1584,2.4869013,-0.42633653,0.39882377,1.2104301,9
1585,0.1261521,-1.7610905,-1.857065,0.025992274,10
1586,0.3572538,-1.5049709,-1.2217984,0.7163672,11
1587,-1.824861,-0.29240477,1.2315626,2.6481085,12
1588,0.56062245,-1.2669512,-0.8491781,0.7838825,13
1589,-0.3134468,0.52295804,-0.8707123,0.90493083,14
1590,-0.6133427,-0.95890915,-0.7247071,1.8137689,0
1591,-0.33322108,1.0900553,-0.34505045,-0.38091126,1
1592,0.2922074,-0.07286221,-2.510829,1.3510498,2
1593,1.1991019,-0.864067,-0.5902712,1.1698225,3
1594,0.30577576,-1.825885,-1.5933328,1.0100925,4
1595,0.20670901,-0.24979627,-1.1505617,0.7129358,5
1596,0.7808828,-1.0385232,0.0075486153,0.81745124,6
1597,1.339543,0.29807216,0.35635456,1.8001226,7
1598,0.6236173,-0.32718033,0.42539698,1.270957,8
1599,0.69108164,-0.620741,1.3710704,1.3791578,9
1600,0.8019692,-0.94929767,0.5781217,1.0324088,10
1601,0.65206826,-0.19508648,1.3804199,1.1542253,11
1602,0.23322976,0.66245055,0.16806394,0.8753512,12
1603,1.1839435,0.082745254,1.8503493,1.507472,13
1604,-0.5593303,-0.05053842,-1.5402865,1.4250034,14
1605,0.07940687,-0.106826484,0.5687512,2.4575043,0
1606,-0.7033145,0.44887283,-0.75205326,-0.68059033,1
1607,0.90093493,0.96330476,-1.6877093,0.14567167,2
1608,0.164608,-1.6197021,-1.3801637,1.2427857,3
1609,0.0247823,-1.4521288,-1.1022028,0.55976593,4
1610,0.54571563,-0.45326823,-1.86347,-0.14655703,5
1611,2.6078932,0.44118637,0.88685036,1.7236339,6
1612,0.9022577,-2.131899,-1.5298887,0.9528541,7
1613,0.70313776,-1.3209236,-1.0526478,1.481473,8
1614,0.17074257,-1.7100264,-0.35074085,0.9595734,9
1615,1.1805393,-0.8582711,0.5229348,0.8710583,10
1616,0.5177455,-0.9939792,-0.5056757,1.0279214,11
1617,0.7331372,-0.2500404,-1.3693492,1.9343868,12
1618,0.91339916,-0.30878246,0.51229244,0.7674502,13
1619,0.1995607,1.217852,-0.58689225,1.8039362,14
1620,-0.24193045,-0.51859045,0.10122682,2.0098398,0
1621,-0.4525319,0.43304268,-1.2884408,-0.8899759,1
1622,1.3027214,1.1100051,-1.4324871,1.7886982,2
1623,0.5678443,-1.509314,0.25603825,0.11207783,3
1624,0.17751741,-2.0017836,-0.926786,0.050625682,4
1625,0.25401095,-0.43331468,-1.4773958,0.96160555,5
1626,1.3774781,-0.056312263,0.53447294,1.0657581,6
1627,0.22404933,-1.6398628,-0.36157873,1.4368789,7
1628,1.2763878,-0.40121788,0.23042752,1.3612275,8
1629,1.1064587,-0.6498948,0.6935977,1.2042407,9
1630,0.91296893,-0.22751945,1.3023547,0.57502985,10
1631,0.99279696,-0.8859091,-0.78662765,1.9068679,11
1632,-0.9549191,-0.15814354,0.4892419,1.8649598,12
1633,1.167811,0.101385176,1.3192409,1.3825574,13
1634,-0.4403197,0.50273705,-0.85743886,0.76678574,14
1635,-0.3545762,0.07229838,0.64726484,2.51582,0
1636,-0.95575804,0.085182786,-0.62387097,-0.64478606,1
1637,0.14679043,0.12637544,-1.6388367,1.2444322,2
1638,0.8073601,-1.0182581,-0.69355834,0.8377873,3
1639,0.7551187,-1.0946958,0.10652825,0.6858243,4
1640,1.0029702,0.14175364,-1.0700697,1.622077,5
1641,2.6813562,0.43413907,2.148761,1.0385207,6
1642,-0.06574929,-1.450737,-0.083428346,0.22994196,7
1643,1.9828296,0.42289603,1.6839852,1.1836857,8
1644,0.8463788,-1.1921492,0.5971079,0.6897464,9
1645,1.35384,-0.18966281,1.0361809,0.7670666,10
1646,0.41568995,-1.4416337,-1.1426353,0.46989536,11
1647,0.55652946,-0.05608501,-0.85883623,0.6870047,12
1648,-0.1587758,-1.3625944,-0.05985719,0.18891829,13
1649,-0.08708978,0.9930094,-0.7057072,0.5177445,14
1650,-1.0186031,-0.54288626,0.35309178,2.5413203,0
1651,-1.3078711,0.2287305,-0.021252036,-0.018174436,1
1652,0.26779556,0.798234,-0.6457574,1.3135786,2
1653,0.22018033,-0.6880456,0.27796316,0.22782588,3
1654,0.73133093,-0.86210597,-0.27608898,0.64052796,4
1655,0.058211237,-0.3542115,-0.92409813,0.40986973,5
1656,1.730417,-0.25243407,0.9250438,1.301178,6
1657,0.18402445,-1.5177987,-1.3821731,0.4451604,7
1658,0.32631996,-0.32667974,0.69868654,0.98981965,8
1659,0.9390741,-1.0995419,0.26880056,2.2212696,9
1660,-0.050659776,-2.0663857,-1.3662664,0.34980398,10
1661,1.0023633,-0.46816263,-0.27152714,1.0827862,11
1662,0.8742005,0.47110426,-0.4817236,1.6220099,12
1663,1.6480334,-1.0347193,-1.4543338,1.591635,13
1664,0.27092344,0.5058856,-2.3324594,-0.09523547,14
1665,1.0450982,0.548766,0.9992906,2.6178067,0
1666,-0.35428137,0.5829389,-1.2547154,-1.8616477,1
1667,0.74669313,1.0061984,-1.338137,0.34943485,2
1668,1.5391362,-0.37514246,0.26524633,1.6179734,3
1669,1.3196255,-0.36252582,0.63043267,1.0746166,4
1670,-1.2749583,-0.44066378,-0.47184026,0.46010798,5
1671,0.5443343,-1.285883,-0.4000332,0.62305117,6
1672,0.22904336,-1.1647592,0.06835111,0.7076403,7
1673,-0.5379503,-1.2400181,-0.36211932,1.1657703,8
1674,0.5385113,-1.9077717,-1.2850664,0.92806065,9
1675,1.5841625,-1.0631316,-0.24981861,1.1329744,10
1676,1.7468828,0.5150464,0.17567453,1.7695779,11
1677,-1.7868319,-0.040448695,0.95441175,1.4673662,12
1678,0.50663483,-0.3713755,0.61251247,0.8093443,13
1679,-0.73703355,-0.12332982,-1.4606721,1.9012405,14
1680,0.013545021,-0.3173986,0.03729535,2.4069972,0
1681,-0.13624826,0.6286893,-0.61886877,0.49045232,1
1682,0.23640718,0.011367857,-1.8030849,1.889979,2
1683,1.6219807,0.3868854,1.8494084,0.89410406,3
1684,0.6587384,-0.7544346,-0.35786718,1.3146766,4
1685,-0.2511151,-0.3087115,-0.6225517,0.57641536,5
1686,1.6954626,-0.32775992,0.8093971,0.54226667,6
1687,2.4634016,-0.39931148,0.6275156,1.6779583,7
1688,-0.49162674,-0.7758639,0.88424736,0.51184213,8
1689,1.8554045,-0.4060182,0.72373897,1.5006024,9
1690,0.60257316,-2.0412104,-0.9838617,1.1961286,10
1691,0.61525965,-0.48254877,0.07026976,1.3006785,11
1692,0.102209926,0.071535364,-0.27452654,2.0233755,12
1693,1.0399481,-0.5990201,0.32109535,0.9823117,13
1694,-0.5952191,0.14280957,-1.5096256,1.0160463,14
1695,-0.4653257,-0.1550711,0.20645763,2.177594,0
1696,0.43775904,1.2601011,-0.985052,0.0017702021,1
1697,1.4650035,1.5937771,-1.2728785,1.5154955,2
1698,1.6123044,-0.95610934,-0.36017108,1.5131896,3
1699,1.2847983,-0.5724768,0.027843356,1.535133,4
1700,0.5729214,0.049516797,-0.85426193,1.4237502,5
1701,-0.58273995,-1.4704087,-0.22728565,0.25642473,6
1702,-0.43306363,-1.6923571,-0.679395,-0.0045057535,7
1703,0.8626451,-0.27112854,0.71941537,0.97752345,8
1704,0.9007372,-1.5454557,-0.27749076,0.67122096,9
1705,0.7345042,-1.239461,-0.032073632,0.73934454,10
1706,1.6395609,-0.2856815,0.47688296,1.7736262,11
1707,-1.4808208,-0.104398824,1.1055633,3.0598264,12
1708,-0.06580317,-1.3113486,0.353276,-0.042453766,13
1709,-0.8142261,-0.052591622,-0.75522625,1.5710559,14
1710,-0.044070482,-0.2028674,0.62406087,2.0938478,0
1711,-0.37551302,0.5844014,-0.94963825,-0.32709256,1
1712,0.112316094,0.36618415,-1.2175465,-0.019140244,2
1713,1.1908665,-0.80791056,-0.1305992,0.5985308,3
1714,1.5412295,-0.3505414,0.946211,1.324092,4
1715,0.33704036,-0.5353118,-1.4609194,0.45187336,5
1716,0.38252732,-0.7216024,0.78729284,0.73985666,6
1717,2.5166106,0.60172385,1.5765696,2.0367258,7
1718,0.36082506,-0.67893827,-0.032581687,0.58853936,8
1719,0.5104859,-1.7286445,-0.76228803,0.8509901,9
1720,1.8115548,-0.26434112,1.7132548,1.3530834,10
1721,1.0282441,-1.1156354,-1.0492071,1.93783,11
1722,-1.800111,0.22778577,2.0491655,2.4152806,12
1723,-0.08572346,-1.5390589,-0.33828667,0.2437957,13
1724,-0.9161133,-0.05236554,-0.8516847,1.312639,14
1725,-0.1175461,-0.9210268,-1.0784997,2.218735,0
1726,-0.6047412,0.50326,-0.22848517,0.93096423,1
1727,-0.31812355,0.37529534,-0.6425028,0.5015677,2
1728,0.35502863,-1.4669102,-0.45267782,0.63845515,3
1729,1.0923342,-0.9325161,0.032188147,1.6443534,4
1730,0.57084763,-0.15769207,-1.3924336,0.9921219,5
1731,0.9511254,-1.3016579,-0.3838518,1.1024216,6
1732,0.5032158,-0.67808926,-0.3211902,0.68587697,7
1733,-0.46927655,-1.3281084,-0.2618267,0.3032109,8
1734,-0.7044432,-2.880899,-2.1530106,0.68449897,9
1735,0.8949718,-1.5416503,-0.32306278,1.0461292,10
1736,0.66205317,-0.7536852,-0.49744228,1.5195146,11
1737,-1.3486536,-0.19004369,1.3870411,2.810842,12
1738,0.24136531,-1.4306352,-2.2515926,0.8798155,13
1739,-0.5358077,0.6804518,-0.6750774,0.26579964,14
1740,-0.09230112,-0.5764294,-0.66169643,1.3162179,0
1741,-0.00015361607,0.7279054,-1.2951511,-0.6134173,1
1742,0.5285208,0.91336644,-1.2797976,1.5676713,2
1743,1.6294708,-0.6032487,-0.21569812,2.1897845,3
1744,0.29865235,-2.2007072,-1.4120114,0.18765944,4
1745,-0.6693554,-0.89527404,-1.2458521,0.4993769,5
1746,0.584816,-0.6478342,0.96350133,0.9339457,6
1747,1.6795206,-0.7467613,-0.3372495,1.8583727,7
1748,0.47107568,-0.779902,-0.4625939,1.6687542,8
1749,2.4297261,0.99234927,3.1300187,1.1180146,9
1750,1.6065537,-0.3221016,1.2942604,1.0242996,10
1751,1.4139667,-1.0768557,-1.0780709,1.7466381,11
1752,-1.1935728,-0.30723375,0.49774307,1.4026825,12
1753,0.44033632,-0.9456456,-0.7637194,1.282195,13
1754,-0.30801833,0.49297762,-1.1254936,0.95435184,14
1755,-0.5333611,-1.1663198,-0.7555282,1.5299549,0
1756,-0.61075014,0.10474992,-1.4869788,-1.1546428,1
1757,0.2845722,0.2519791,-1.6238887,2.2016659,2
1758,1.2743386,-0.71337616,-0.014201164,1.4396356,3
1759,0.8935178,-0.91095936,-0.29152405,0.9199816,4
1760,-0.26374134,-0.708701,-1.2585547,0.510556,5
1761,0.93220997,-0.54607683,0.30277282,0.32841903,6
1762,2.4933784,-0.7836126,-0.77775705,1.8541946,7
1763,-0.1375438,-1.0694788,-0.3468603,0.7549385,8
1764,-0.42354488,-2.5431054,-1.0387707,0.16945064,9
1765,0.8748792,-1.6603912,0.21308257,1.0461019,10
1766,0.5366736,-0.5842027,-0.31716493,1.1003684,11
1767,-0.59884834,0.27631614,0.7725641,1.7088114,12
1768,0.3997077,-1.2209983,0.08775011,0.6892673,13
1769,-0.69791347,0.66543996,-0.14975679,1.4777753,14
1770,-0.20362294,-0.21358547,0.6621553,2.7534375,0
1771,-0.5141125,1.2371186,0.78087306,0.8909602,1
1772,0.7263638,0.7470362,-1.5479352,1.7695141,2
1773,1.2356393,-0.5088661,0.28980547,1.3308288,3
1774,1.8646915,0.26241022,0.508601,1.3788538,4
1775,0.56559193,0.3135388,-0.25523305,0.76255494,5
1776,0.9230378,-0.8391123,0.43725562,-0.034635305,6
1777,1.369829,-1.006019,-0.5503403,1.4675469,7
1778,-0.54122424,-1.9048595,-1.2377908,0.86605436,8
1779,1.4592259,-1.0183263,-0.8336355,1.1939331,9
1780,-0.30257833,-1.8841109,-0.3806445,-0.20388037,10
1781,0.5006343,0.30545324,2.129315,0.88286793,11
1782,0.0017091036,-0.62991667,-1.2710032,1.4582483,12
1783,1.3650463,-0.7828783,-0.5378874,1.4801524,13
1784,-0.5243928,0.43813768,-1.0095035,1.3534979,14
1785,-0.48650217,-1.1106602,-0.57278526,2.6857414,0
1786,0.99128133,1.784914,-1.5716896,-0.38550884,1
1787,0.15212992,0.2581474,-1.1712241,1.7197311,2
1788,0.42967743,-0.48997632,0.32226002,0.5703744,3
1789,1.4786329,-0.7758181,-0.4804378,1.2662214,4
1790,-0.24989644,-0.03243497,-0.4910898,1.3537917,5
1791,-0.008406699,-0.8335389,0.33949628,0.8103029,6
1792,0.4652622,-2.1381025,-0.94480413,1.3345771,7
1793,0.51932454,-1.0872753,-0.5766115,0.3325985,8
1794,1.1194305,-1.669616,-0.887628,1.1600792,9
1795,1.5764334,-0.57317924,0.09013362,1.6698308,10
1796,0.6367639,-0.5928769,-0.13594015,0.71133655,11
1797,-0.034665942,0.46336162,0.5689511,1.9878677,12
1798,0.62187946,-0.51471186,0.72471577,0.31105858,13
1799,-0.40917796,0.15968534,-1.2666991,0.76987016,14
1800,-0.009509623,-0.077451125,-0.16445482,2.1287494,0
1801,0.26602688,0.90712655,-1.2953539,0.21468623,1
1802,-1.1942352,-0.5767263,-0.77737606,1.0048499,2
1803,1.3069112,-1.176486,-1.3561273,1.7237308,3
1804,1.366907,-0.15604705,0.7209037,1.0032613,4
1805,-0.0655171,-0.7033863,-1.2184771,0.8428358,5
1806,0.60601115,-0.84822994,0.71490896,0.5897024,6
1807,0.6997288,-1.0857357,0.30528697,1.2388715,7
1808,1.4812678,-0.5514846,-0.7765581,1.6039586,8
1809,1.6278379,-1.081906,-0.15746173,2.909574,9
1810,0.39465326,-1.6927438,0.09125842,0.76396316,10
1811,0.6747405,-1.1370877,-0.49826145,1.4649191,11
1812,-2.5059881,0.1353573,2.8450236,2.6961513,12
1813,-0.054911315,-1.4764383,-0.29850575,0.269423,13
1814,-0.084680706,1.3562112,-0.31154263,2.0965157,14
1815,-0.20388657,-0.50613475,-0.36774734,1.4925901,0
1816,-0.0443587,0.15542781,-1.404884,1.0901556,1
1817,-0.6593064,0.041606665,-1.1468624,0.11797869,2
1818,4.017647,0.8271898,1.8452301,2.4959917,3
1819,0.5267203,-1.0375167,-0.14804563,0.4993627,4
1820,-0.121518314,0.1297563,0.06407666,1.9521852,5
1821,1.9084328,-0.29382557,0.22737524,1.3557174,6
1822,2.3260179,0.02977848,0.63401943,1.5842313,7
1823,1.0591427,-0.09511769,0.9356466,1.0228195,8
1824,1.3665017,-1.1258845,-0.96615857,1.3508518,9
1825,1.3746219,-0.1433419,0.7697529,1.6262281,10
1826,0.41542584,-0.9174965,-0.35207117,1.0278603,11
1827,0.11124724,0.5639705,0.76062953,1.5998492,12
1828,1.6362387,-0.041864872,-0.20139503,1.3570361,13
1829,-0.05872318,0.76839733,-0.7883977,1.7900316,14
1830,-0.71285665,-0.044133604,1.193377,2.361782,0
1831,-0.3559913,1.3314042,0.08886808,0.7580494,1
1832,1.2537581,0.7623511,-2.0120993,0.13567412,2
1833,1.586548,-0.28746676,-0.2800538,1.6154852,3
1834,-0.313595,-1.1993004,0.93398786,-0.072517395,4
1835,0.8172292,0.050083965,-1.0600873,0.59392524,5
1836,1.6112461,-0.91787773,-0.75747824,1.6806037,6
1837,0.68503034,-0.9102185,-0.101175435,1.5244942,7
1838,0.36185792,-0.9701235,-0.38576835,1.4576,8
1839,0.6009167,-1.5943955,-0.49229681,0.36858273,9
1840,1.5348549,-0.5285191,0.53833294,1.4289184,10
1841,0.8372429,-1.4658749,-1.6930436,0.8355139,11
1842,-0.16810834,-0.032083184,-0.32171458,1.7176211,12
1843,1.336643,-0.8067235,-0.9024659,1.6773362,13
1844,-0.85654706,0.9295638,0.7826569,1.7815706,14
1845,-0.121049374,0.08465403,0.91355073,2.5664163,0
1846,-1.2246432,0.2058537,-0.15009385,-0.519233,1
1847,0.99754107,1.3095447,-1.1359311,0.19624197,2
1848,0.5624405,-0.2944697,0.98172694,1.3258721,3
1849,-0.35122746,-1.3753948,-0.17672929,-0.2263546,4
1850,0.10470608,-0.9369266,-2.0778024,0.76632255,5
1851,0.102312624,-1.8656635,-1.2501785,0.090128124,6
1852,1.5480746,-0.7881021,0.15532577,1.1513643,7
1853,1.8241493,-0.76801896,-1.3177364,2.5223682,8
1854,0.11722946,-1.2432698,0.7422001,0.3731886,9
1855,1.5571494,-0.6140605,0.34181458,0.9627048,10
1856,2.0330791,-0.28394744,-0.30858842,1.4448388,11
1857,-1.8062294,-0.7172178,0.33578405,2.4255018,12
1858,1.0905294,-1.1394702,0.4963231,0.9826392,13
1859,0.078357816,0.66354245,-1.5868545,0.9424543,14
1860,-0.5405529,-0.82921696,-0.31897354,1.621598,0
1861,0.099316984,0.82116044,-1.1738694,-0.12132944,1
1862,-0.64417124,0.2915554,-0.2538842,1.5014688,2
1863,0.64265823,-1.0184441,-0.2856592,1.43993,3
1864,0.33189815,-0.8274019,-0.25601318,0.46454138,4
1865,0.0655528,-0.8414947,-1.4500545,1.4632387,5
1866,1.4735675,-0.0046963096,1.4503328,0.94393903,6
1867,0.5063015,-1.1358018,-0.20000216,0.5530508,7
1868,-0.24261665,-0.79187864,0.9227503,0.9371291,8
1869,0.40436745,-1.2153652,-0.48629004,1.3434505,9
1870,1.2442733,-1.6592634,-0.93019545,1.2119412,10
1871,0.67483217,-0.91623664,-0.80567586,1.2538974,11
1872,0.17159152,-0.20863374,-0.19275934,1.8090272,12
1873,1.021462,-1.0475343,-0.12037358,1.2318511,13
1874,-0.73926586,0.1896964,-1.1308267,0.65993714,14
1875,0.8893262,0.6910659,0.7993758,2.725553,0
1876,-0.7518426,0.9354546,-0.11485207,-0.36764023,1
1877,0.23170061,0.35525528,-1.6866504,0.30023503,2
1878,0.7820544,-1.2472169,-0.5998517,0.99426264,3
1879,1.3236269,-0.64354527,-0.2519519,1.623863,4
1880,0.12508576,-0.1188719,-1.0934875,0.32655495,5
1881,-0.312652,-2.4392936,-1.8305923,0.19851956,6
1882,0.62353504,-1.7742379,-0.9804864,1.3409691,7
1883,-0.37845194,-1.5547407,-0.5551131,0.62888485,8
1884,1.0338186,-0.78137904,0.9984074,0.6014274,9
1885,1.6892881,-0.37998837,0.50942516,1.5026541,10
1886,0.28264612,-1.1443279,-1.217815,0.6392385,11
1887,-0.6885482,-0.665094,-0.39790946,1.5010519,12
1888,1.1430341,-0.27640718,1.3596109,0.5894412,13
1889,-0.96389264,0.051998973,-0.7102712,1.4988936,14
1890,0.3648438,0.6678529,1.5092535,3.4181232,0
1891,0.23876464,0.62540984,-1.4110427,1.397545,1
1892,0.038918942,0.4904186,-0.9140614,1.936219,2
1893,1.9990587,-0.16718578,-0.10564718,1.4844009,3
1894,0.6193067,-0.8648853,0.17335993,0.9357698,4
1895,1.1665357,0.40082124,-0.9412168,0.80925703,5
1896,1.8524169,-0.7880666,0.43999782,0.94529843,6
1897,0.89222324,-0.41033834,-0.051786162,1.3516309,7
1898,0.6611435,-0.4563592,-0.36223543,1.6027544,8
1899,1.2851561,-1.0412323,-0.3161943,1.1947887,9
1900,0.5229205,-0.9862536,-0.008467808,0.9763014,10
1901,1.6673132,0.016433418,0.34246764,2.1030934,11
1902,-0.55120367,0.20759046,1.1163929,1.6596684,12
1903,0.4407639,-0.48352468,1.2744079,0.7367376,13
1904,-0.44414896,0.3005078,-1.2271416,0.48893028,14
1905,-0.41635513,-0.8255781,-0.0011671484,2.667884,0
1906,0.3538174,1.3423803,-0.40431887,0.4005492,1
1907,0.49258244,0.20537041,-2.325654,1.3906639,2
1908,1.5406857,-1.0158119,-0.9007142,1.0064533,3
1909,0.5362013,-1.2982785,-0.48535144,1.3963846,4
1910,1.0096434,0.017754763,-1.9255562,-0.5661313,5
1911,1.2972386,-0.7895026,0.25726265,1.093272,6
1912,1.3803548,-0.079027236,0.58568424,0.8724932,7
1913,2.2648456,0.7102152,0.6966048,1.6476599,8
1914,1.3583113,-1.4023864,-0.75901014,1.5436585,9
1915,2.0440903,-0.80052924,-0.2777123,1.259432,10
1916,2.2626872,-0.6098802,-1.2095765,1.91426,11
1917,-2.074627,-0.54424626,1.1794074,2.1569529,12
1918,0.98010284,-0.58415174,0.40706944,1.4991693,13
1919,-0.72060466,-0.046365082,-0.92337334,1.7965586,14
1920,-0.86952645,-1.2339635,-0.97803867,1.427491,0
1921,-1.0335624,-0.37468195,-1.1478173,-0.503199,1
1922,0.17613012,0.09099564,-2.0982797,-0.8262614,2
1923,1.3744888,-0.8510716,-0.15164034,1.5889179,3
1924,0.16990417,-1.1730673,0.026275665,0.5716519,4
1925,0.6963102,-0.36515832,-1.4524072,0.95043373,5
1926,1.0224441,-1.827908,-0.79941833,0.95148563,6
1927,0.41366166,-1.8752015,-1.93189,0.94090587,7
1928,0.96406513,-1.4103636,-2.182789,1.3698792,8
1929,0.75899404,-1.319039,-0.23064712,1.2151599,9
1930,-0.05505514,-2.6083474,-1.7410268,0.20759237,10
1931,0.46451885,-1.3009303,-0.96957767,0.94640034,11
1932,-1.2907964,0.08557531,1.2689122,2.0964746,12
1933,0.55624735,-0.8281592,-0.50317407,0.71776676,13
1934,-0.11731863,0.54516506,-1.3700993,1.9558936,14
1935,-0.69654137,-0.80310094,-0.35541344,1.5317733,0
1936,-0.46651608,0.40185684,-0.9266053,-0.61573446,1
1937,0.36658794,0.4494256,-1.4011201,0.3929518,2
1938,1.4534503,-0.8448662,-0.7885107,1.7455877,3
1939,0.8422597,-0.1913808,0.5587094,0.9112548,4
1940,0.79828286,0.04338053,-0.9464686,1.4591231,5
1941,0.74279153,-0.9806598,-0.14737639,0.7835462,6
1942,1.1485239,-1.4275798,-0.88529825,2.1832678,7
1943,1.0884072,-0.491616,-0.048703462,0.9415152,8
1944,0.13585842,-1.767903,-0.23782805,-0.33095598,9
1945,2.190866,-0.28194565,0.26357114,1.1666863,10
1946,0.03581518,-0.9421922,0.4990829,0.6342828,11
1947,0.07877368,-0.49659902,-1.0869431,1.8420278,12
1948,0.19546735,-1.3055317,-0.42245626,-0.023090065,13
1949,0.16622621,1.2988946,-0.7286656,0.24132502,14
1950,0.17584305,0.26837793,0.5279401,2.4197233,0
1951,-0.91689163,0.60191095,-0.39355004,-1.4224917,1
1952,-0.65413094,0.039125383,-0.8066245,-0.043209195,2
1953,2.0366,-0.13144058,0.1521712,1.7467376,3
1954,0.075805604,-0.83786845,0.18338418,0.5842693,4
1955,-0.47982195,-0.3040249,-0.2915237,1.2525066,5
1956,1.3540833,-0.6161145,1.4565202,0.88074124,6
1957,1.1965625,-0.20268273,1.1329128,1.1990573,7
1958,0.7751061,-0.83670795,-0.25859421,1.283162,8
1959,-0.42732644,-1.6136149,-0.325338,0.25279558,9
1960,1.9186778,-0.04025936,1.1556886,1.2962695,10
1961,0.30642813,-0.9618134,0.094399065,1.3432709,11
1962,-0.29702768,0.2742958,0.5709826,2.0977092,12
1963,1.205274,-0.96396095,-0.23447722,1.1028178,13
1964,-0.06006518,0.9372018,-0.66238683,1.2146902,14
1965,-0.07391779,-0.1535871,0.21720177,2.598304,0
1966,-0.53324974,1.0167893,0.24802303,-0.4303186,1
1967,0.5321392,0.34938276,-1.7462609,1.3980888,2
1968,0.60311055,-1.1662937,-0.23860854,1.2689531,3
1969,0.6554465,-0.5888209,-0.22861281,0.92703176,4
1970,0.3594188,0.12682444,-0.33702928,1.7788055,5
1971,1.3464634,-0.6501131,0.103280336,0.61011446,6
1972,1.0863715,-1.6704934,-1.3938028,1.5237584,7
1973,0.904539,-0.66201806,0.92765456,0.69752693,8
1974,0.10511649,-0.8450836,1.0478776,0.94519854,9
1975,1.7957687,-0.41780847,1.2986673,1.0352259,10
1976,1.7326249,-0.32933646,0.18580684,1.0042181,11
1977,0.023801029,0.25643492,0.26358473,2.061709,12
1978,0.3647312,-0.8322042,-0.09744154,0.63625443,13
1979,-0.94025886,0.03467357,-0.9124282,0.19672585,14
1980,-0.15152499,-0.14112855,0.7397791,2.2447743,0
1981,-0.24430752,0.7696436,-0.68155336,-0.42924157,1
1982,-0.3877993,0.5556514,-0.6477878,1.6416137,2
1983,1.4650084,-0.088624835,0.70944315,0.93024576,3
1984,1.8262985,-0.34106582,0.48227394,2.2076862,4
1985,0.27599663,-0.6250653,-1.9089482,-0.28049535,5
1986,-0.16088724,-1.2225862,1.6236218,-0.31828558,6
1987,0.7380039,-0.9161591,0.4581636,1.1031396,7
1988,0.5410368,-1.2068263,-0.65575707,1.0779393,8
1989,0.8647725,-1.0081389,-0.69596475,1.9658134,9
1990,0.11693013,-1.2705227,0.18675336,1.255174,10
1991,1.3573612,-0.22793716,0.3142695,1.4982479,11
1992,0.6966054,0.3476927,-0.31111908,1.3107623,12
1993,1.6378925,-0.47267824,-0.51387936,1.2905788,13
1994,-0.14728174,0.28536147,-1.8912778,-0.003055811,14
1995,-0.2921685,-0.009402782,0.93278825,3.3462791,0
1996,-0.16577128,1.2230966,-0.57120264,-1.3420781,1
1997,0.60743606,0.8771907,-0.9615259,1.6940374,2
1998,1.286385,0.18378854,1.705445,1.3011962,3
1999,0.43820506,-1.7292957,-1.070245,1.0628091,4
2000,-0.36245623,-0.13729188,-0.37159997,0.37815076,5
2001,1.0534238,-0.060726523,0.807582,1.692234,6
2002,1.4768729,-0.24515086,0.15787327,2.1544292,7
