,locs0,locs1,locs2,locs3,subject
0,0.36779335,-1.2138722,-1.2414539,1.224552,0
1,1.0817056,-0.1709786,-1.658447,1.4106587,1
2,-0.3682173,-0.5551231,-0.2577508,1.7306352,2
3,-0.31952482,-1.60359,-1.1395795,0.6058861,3
4,-0.29277855,-0.7836211,-1.0729742,1.7876873,4
5,1.3172575,-0.06171727,0.48618647,1.3849027,5
6,-0.017004311,-1.6255479,-0.43998545,0.86840475,6
7,0.48605898,-0.013641804,-0.59054464,2.8622153,7
8,0.92037386,-0.7376926,-1.2737845,0.5640142,8
9,0.33955163,0.091703326,-1.575542,2.280287,9
10,1.1524348,0.932881,-1.8384191,1.7400045,10
11,0.88219076,-0.5566347,-1.7445679,1.0268822,11
12,0.0066159964,-0.8033458,-1.4674892,1.090739,12
13,-0.41648054,-1.4517038,-1.219874,0.32878685,13
14,-0.12650645,1.302109,-0.2089994,1.9581213,14
15,0.7179864,-1.4689527,-0.8853116,1.9559362,15
16,1.0654579,-1.0153755,-0.067665756,-0.50373816,16
17,-0.42848295,0.9002376,-1.1015545,0.28978395,17
18,0.5742655,-1.2671092,0.65984285,1.2118163,18
19,0.11411971,-0.8399923,-1.0946481,1.5884045,19
20,1.1885271,-0.28676856,-0.7622427,1.841395,20
21,1.1520778,-0.06874042,-2.4054742,1.2442794,21
22,0.14795041,1.4926039,-2.6835146,1.8291879,22
23,0.7409081,0.55407506,0.045294523,2.3847685,23
24,0.26191652,-0.55758166,-0.48493773,2.2098353,24
25,-0.46962094,-1.5128455,-1.0830388,1.2261713,25
26,-0.93234366,-2.207486,-1.9319665,0.8066834,26
27,1.0298507,-0.52902764,0.65163475,1.7339233,27
28,1.5503303,-0.7667539,-0.3242038,1.6529772,28
29,1.7708809,-0.78914607,0.5079626,1.6161265,29
30,-1.9489005,0.44127643,-0.6997286,1.6615732,30
31,1.6977842,-1.0736876,-0.9216652,2.1400933,31
32,-1.351829,-0.1319257,0.10929823,-0.40708172,32
33,1.1575476,-0.4927553,0.275855,0.8931254,33
34,1.8048565,-1.1355848,-0.15795983,1.5853496,34
35,1.6304501,-1.3011526,-0.6642842,1.4177021,35
36,1.4529477,-0.050257444,0.8108169,1.4128121,36
37,1.6507957,-0.94238436,0.67485654,0.949852,37
38,0.385701,0.6108356,0.8609498,0.58635217,38
39,0.43127063,-1.5841281,-0.2626208,1.2598783,39
40,-1.5207058,0.2339522,-0.51654935,2.5448632,40
41,-0.11900431,-0.6190878,-0.6367599,1.1554796,41
42,0.42269054,-1.965657,-0.534917,1.7667273,42
43,1.0049859,-0.44333237,1.5365663,0.3740698,43
44,0.57571125,0.35801166,-2.0167587,0.23388612,44
45,1.7639666,-0.5891766,-0.555596,2.3691096,45
46,1.5715125,0.27306914,0.13997197,2.630385,46
47,0.21653947,1.643349,-0.8783015,0.12272692,47
48,1.6938373,-2.0272818,-1.8635902,0.97670066,48
49,0.31155998,1.0170524,-1.3249446,0.95051146,49
50,1.4997149,0.33481508,0.29503757,1.3880785,0
51,0.56845,-0.47898164,-1.9531418,0.8107637,1
52,-0.33352077,-0.779174,0.13427752,1.3753333,2
53,0.6830964,-1.1620898,-1.4846985,0.67593557,3
54,1.7808133,-0.08199796,-0.4101456,2.4011145,4
55,0.4697737,-0.63563526,0.092785746,0.72588766,5
56,2.5566423,-0.18983191,-0.76129436,2.2327685,6
57,0.7307413,-0.18216147,-1.0997125,2.3628788,7
58,0.64851516,-0.46674442,-0.97797626,2.1343687,8
59,-0.01402092,0.32699028,-0.39981318,1.8392768,9
60,0.57870734,0.63614285,-1.4999297,1.0649437,10
61,-0.23382872,-1.108347,-1.9295092,0.98023385,11
62,1.3595078,0.11290413,-1.1229649,2.5928688,12
63,-0.6192844,-2.4719849,-2.0145433,0.7699234,13
64,-0.9081564,0.5257559,-1.0975215,0.062001824,14
65,1.7324724,0.0061982274,0.077448756,1.5251691,15
66,1.2797844,-0.469872,0.011370782,0.29392096,16
67,-0.19726372,0.4262142,-2.154439,0.33880782,17
68,0.9648465,-1.2870259,-0.1164568,0.9662916,18
69,0.7822503,-0.46190262,-1.0433961,2.4068704,19
70,0.117343575,-0.9361991,-1.323653,1.53441,20
71,-0.3523677,-0.7193872,-1.7528244,2.0137181,21
72,-1.4242162,0.03677696,0.029071629,2.430957,22
73,0.63384634,-0.5187671,-2.2739599,0.9797754,23
74,-0.13497943,-0.79635555,-0.7320467,0.9605503,24
75,2.348765,-0.098463,-0.720352,1.847153,25
76,1.2465253,-0.90119827,-0.45086205,1.8417617,26
77,0.85589594,-0.8587436,0.600688,2.08086,27
78,0.99237126,0.013397515,0.97739047,1.7916291,28
79,1.0400956,-1.153412,-0.4798327,1.2097275,29
80,-1.8647354,0.03713405,-1.2120528,0.93565077,30
81,1.4464068,-1.4187696,-1.1132674,1.6518502,31
82,-0.8533672,0.45750087,0.41275227,2.612938,32
83,-0.16290379,-1.8869287,-1.4376277,0.64146936,33
84,2.09988,-0.3911659,0.35674793,1.8304327,34
85,1.5450771,-1.5862801,-1.386905,0.70346546,35
86,1.8606976,-1.0498753,-0.94499266,1.9961935,36
87,1.0066283,-0.8520208,0.6540768,1.0513268,37
88,0.5589167,-0.38470376,-1.1075168,0.25842667,38
89,0.78097117,-1.3848605,0.17865832,1.8548048,39
90,-0.9666779,0.7721299,0.10526979,1.9679445,40
91,0.12034434,-2.2210398,-2.5394678,1.8884859,41
92,1.658106,-0.5137889,0.44545776,1.8888742,42
93,1.0144929,-1.3611758,-0.56773674,1.1256696,43
94,0.0891981,0.37451673,-0.647002,0.63077384,44
95,2.1164827,-0.49287233,-0.12421325,2.0787222,45
96,0.8877407,-1.6925015,-1.3327262,1.5604744,46
97,-0.8550885,-0.33519644,-1.3985479,0.8440417,47
98,0.94451255,-0.7000427,0.39308664,1.2532281,48
99,-0.6030372,0.09425458,-0.79116434,2.4487953,49
100,0.124106705,-1.3340383,-0.9398234,0.978753,0
101,0.55034316,-0.21008278,-1.3263302,0.14897585,1
102,-1.502589,-1.2599591,-0.10358298,0.6310598,2
103,1.8581736,0.39119178,0.25018847,2.2476287,3
104,0.70192087,-0.44211835,-0.51397794,0.49384034,4
105,1.3490083,-0.48814175,0.17730626,1.944954,5
106,0.5174148,-2.1490798,-1.8871565,1.1567353,6
107,0.3696096,-0.76122063,-1.3723361,1.8575093,7
108,0.83220816,-1.2499901,-1.9645495,1.3571059,8
109,0.24524897,0.3964064,-1.0201099,1.7800208,9
110,-0.29330915,-0.20521158,-1.9454839,1.03951,10
111,1.0632007,-0.21149002,-1.564681,0.7328663,11
112,-0.037281275,-0.8669355,-1.888196,1.0231478,12
113,0.80685365,-0.9696074,-0.7850899,1.0469754,13
114,-0.1314083,1.5776649,0.17271161,0.5032649,14
115,0.68329096,-0.80528915,-0.27432078,0.33796048,15
116,-0.011165142,-1.7545797,-0.7425574,-0.16748914,16
117,-0.5011363,0.5134959,-2.2426724,0.76366043,17
118,0.17295587,-1.2954544,-0.041597284,0.9967625,18
119,2.1006513,-0.015716136,-0.13208055,1.7940409,19
120,0.43718418,-0.74729323,-1.1568114,1.598852,20
121,0.6745695,0.18498006,-1.0792412,1.9241338,21
122,-0.78540593,0.5336429,-1.492888,0.7426418,22
123,0.046545267,-0.82335013,-2.2113776,0.0068393946,23
124,0.9869434,0.27331656,0.22815901,2.1570458,24
125,1.2733898,-0.56023294,-0.39005867,0.973286,25
126,0.28159297,-0.9057964,-0.7073978,1.1504006,26
127,1.0050251,-0.38933057,0.58217776,1.401084,27
128,1.1630116,-0.9213468,-0.60196275,1.9098339,28
129,0.13970172,-1.9224513,0.4676929,0.16012704,29
130,-0.9030218,0.7698438,-2.0747695,0.30541122,30
131,0.8949171,-1.8346404,-1.257133,0.5950658,31
132,-0.50115657,0.3343279,-1.3665252,0.17172718,32
133,1.6667696,-1.2010901,-0.941513,2.3810878,33
134,1.7851332,-0.44377375,0.34495187,1.8300232,34
135,0.50607085,-0.9248642,0.0031702518,0.30085665,35
136,-0.4353174,-1.9944011,-1.2689552,0.83863187,36
137,1.3761762,-1.5245014,-0.076438874,1.0902181,37
138,1.0084915,-0.035405334,-0.72750854,0.4510699,38
139,1.0583715,-0.69582605,-0.52963394,1.6497331,39
140,-1.0962086,0.7806432,-0.47279507,0.394275,40
141,0.8256612,-0.83946383,-0.9481296,1.8580883,41
142,1.2787881,-0.5814712,-0.2874377,1.8488734,42
143,1.0119926,-1.5634136,-0.4253291,1.3273027,43
144,-0.08951053,0.15515709,-1.2695588,0.4509954,44
145,1.624201,-0.36704147,-0.123961866,1.471593,45
146,2.2145448,-0.1663453,0.0025536418,2.1356332,46
147,-0.17373179,0.88390857,-1.6765573,2.292503,47
148,1.5512563,-0.27366352,1.4919438,1.4283308,48
149,-0.01155898,0.11789957,-1.9977564,0.46486068,49
150,0.241041,-1.2356358,-1.2270914,0.5968046,0
151,0.44832575,-0.63567734,-2.5328505,0.18374717,1
152,-0.7209346,-0.9418186,0.09301281,0.6884866,2
153,0.85657054,-0.594128,-0.77837443,1.2017444,3
154,0.9137476,-0.0393368,-0.16091877,1.5030924,4
155,-0.094789326,-2.0599952,-1.2664355,1.1312988,5
156,0.8417716,-0.9335153,-0.13149104,1.7883837,6
157,0.7429101,-0.5508034,-1.716079,2.5392487,7
158,1.2493892,-0.23881733,-0.94547695,2.2217906,8
159,-0.44245338,0.1791355,-0.56749463,1.9441154,9
160,0.66048455,0.30621415,-2.457553,0.86038315,10
161,1.2014323,-0.16885525,-1.8201864,1.1534189,11
162,-0.044791162,-1.1165111,-2.370559,1.3807375,12
163,0.1747101,-1.1069913,-1.2476223,0.9539698,13
164,0.1392608,1.1061373,-0.89788973,0.45157528,14
165,1.5066795,-0.05372274,0.030284911,2.1620555,15
166,0.6115362,-1.4544048,-0.31846106,-1.0698373,16
167,-0.92361087,0.09344393,-1.8296736,0.10093677,17
168,1.5355104,-0.3708803,0.5591994,2.1568563,18
169,0.36316216,-0.74915355,-1.1131896,2.0439184,19
170,-0.5068713,-0.9736579,-1.0381582,1.6885972,20
171,0.88759184,0.17444727,-1.925667,-0.09028888,21
172,-1.9695508,0.36462426,1.2156887,0.23573112,22
173,1.0921981,-0.089579284,-1.6713474,2.0136716,23
174,0.8286929,0.26403314,0.21189284,1.8464892,24
175,0.83932835,-0.9792934,-1.2091956,1.7039229,25
176,1.3010867,-0.839069,-0.8589738,2.360352,26
177,0.9656066,-1.5624669,-1.3677913,2.023972,27
178,0.8985487,-1.1143702,-0.8364074,1.6516346,28
179,0.83870655,-0.14907825,0.76219326,1.0726577,29
180,-1.004364,1.1699167,-2.2376988,-0.96212554,30
181,1.3988222,-0.9859915,0.2861367,2.5663314,31
182,-0.2899137,0.4204915,-1.3883313,1.4282807,32
183,1.2861648,-1.6432691,-0.8448223,1.1314429,33
184,0.996385,-0.40212333,0.09407587,1.094457,34
185,1.9854623,-0.5105321,-0.1805901,1.1150011,35
186,1.0738634,-1.0479746,-0.67493707,1.4624782,36
187,0.8000282,-0.7368709,1.2663876,0.20950162,37
188,0.025543809,-0.37245128,-0.3920967,0.10347557,38
189,0.58439755,-1.7544746,-0.7364929,1.3102739,39
190,-1.8045306,-0.39177555,-2.081638,0.43199527,40
191,-0.41972363,-1.4114962,-1.4758558,2.2975407,41
192,1.5633425,-0.14779508,0.094381064,1.651792,42
193,1.3066067,-0.21428567,1.2362872,1.268207,43
194,-0.12990102,0.29440638,-1.0300564,1.7680175,44
195,1.6440859,-1.0250536,-0.8617581,1.5593286,45
196,0.536806,-1.1523716,-0.49344596,1.3145722,46
197,-1.3455392,-1.0266064,-1.9630551,-1.4595466,47
198,0.30930018,-1.4978805,-0.12599054,0.44728535,48
199,-0.8499503,0.108571276,-0.80821884,2.0109808,49
200,1.534822,0.17419547,-0.20508221,1.8457346,0
201,-0.065087825,-0.086455375,-0.28394437,2.7197213,1
202,-0.4505537,-0.3985291,0.32367384,1.5489781,2
203,0.38713223,-1.8174279,-1.6985663,0.8803262,3
204,0.7312412,0.42488992,0.3794027,1.5483836,4
205,0.6837796,-1.235645,-0.5208248,0.8904649,5
206,0.36296886,-2.1008954,-1.0746809,0.54518145,6
207,0.3933974,-0.549399,-1.7621908,2.3971825,7
208,1.576932,0.021618903,-0.8329861,2.1637983,8
209,0.73184806,0.1632196,-1.537332,2.1342068,9
210,0.65549505,0.988996,-1.3208113,-0.05731964,10
211,0.5022261,-0.58660924,-1.5262263,1.3287011,11
212,0.9922149,-0.059924632,-1.2124579,2.2744737,12
213,0.34834415,-1.3273962,-1.1524547,1.5313516,13
214,-0.70618796,0.15436363,-2.3381405,1.2152731,14
215,1.4775853,-0.34612375,0.55595505,1.3625159,15
216,1.740189,-1.1986287,-0.7666169,-1.1472101,16
217,0.014451921,1.0112374,-1.0510387,1.5225472,17
218,-0.4694667,-2.090961,-0.9998253,0.54798794,18
219,0.79525864,-0.66620886,-0.61818457,1.4469025,19
220,0.045755684,-0.8804076,-1.287962,0.32338738,20
221,0.46063083,0.10608769,-0.9627886,1.3936254,21
222,-0.78884625,0.8010286,-0.31551012,1.476342,22
223,0.06471169,-0.8031942,-2.1373415,1.9563105,23
224,1.5609953,0.47837108,0.36208832,2.4700775,24
225,1.4061971,-0.13996017,-0.022255719,2.719516,25
226,0.044255078,-1.6121626,-1.0404259,1.7901382,26
227,1.3619776,-1.0034081,-0.52257186,2.0126948,27
228,0.36061364,-1.0534903,-0.22372612,0.6801921,28
229,1.5110855,-0.7097438,-0.3742516,1.3325515,29
230,-1.4846385,1.2523625,-1.747607,1.1379147,30
231,1.4248543,-0.13078016,0.7800223,1.353367,31
232,0.26827472,0.8913808,-1.252457,1.4169497,32
233,0.6206746,-2.1151154,-1.1225017,1.1348944,33
234,1.133754,-1.0249736,-0.03835018,1.2708228,34
235,0.23898607,-1.4363335,-0.6401603,0.58710635,35
236,0.13271159,-1.8817033,-1.3260119,0.78333837,36
237,0.84831625,-1.4952443,-0.16790152,0.7961513,37
238,0.9150785,0.30333534,0.11143562,1.779794,38
239,0.0251562,-0.56668764,0.45807278,1.0443347,39
240,-1.9096726,0.2405798,-0.48203203,1.3920094,40
241,0.54803085,0.25794047,0.3305987,2.2142713,41
242,0.30362076,-0.8400467,-0.23209763,1.226737,42
243,2.1588964,-1.0814774,-1.1262511,1.8385911,43
244,-0.704094,-0.6248024,-1.6882284,0.46977463,44
245,2.052649,-0.28183925,0.018208236,0.897286,45
246,1.9771652,-0.6474315,-1.0166676,1.4680209,46
247,0.27406117,1.1604024,-3.4824638,1.9696788,47
248,0.22159356,-2.492435,-1.581262,0.45386064,48
249,-0.5138236,0.109176636,-0.6078984,2.6532192,49
250,0.18669558,-0.35406715,-0.06719512,1.2069936,0
251,0.66423154,-0.757807,-2.617568,0.92001355,1
252,-0.5711684,-0.33392346,0.7411773,0.78067195,2
253,1.7398174,0.005510211,-0.115547776,1.1940744,3
254,0.90663886,-0.21392196,-0.26530987,1.8791946,4
255,0.031177104,-1.0156982,-0.4854285,0.98004353,5
256,1.1715583,-1.0242401,-0.23984845,1.7577747,6
257,1.9531553,0.43206406,-1.1080916,2.0923629,7
258,0.9010918,-0.18535393,-0.34215474,1.7809354,8
259,0.19730988,0.023010105,-1.538434,1.5015562,9
260,1.0780332,0.81117225,-1.8317813,1.5331287,10
261,0.28826007,-0.6405171,-1.7008035,-0.22039795,11
262,1.0368062,-0.6536733,-2.2712762,1.0557754,12
263,1.6372811,1.0487995,1.2453493,1.2132951,13
264,-0.39789844,0.84267557,-0.58096,1.6276038,14
265,0.45653468,-2.1700327,-1.2120779,0.88089794,15
266,-0.21925414,-2.1735063,-0.41519874,-1.5584961,16
267,-0.8291087,0.53275925,-1.2476261,2.02437,17
268,-0.21722877,-1.738468,-0.53333443,0.14010394,18
269,1.1146053,-0.54574585,-1.0123882,1.9482706,19
270,-0.23993725,-0.5394108,-0.30492312,2.1176288,20
271,0.48341691,-0.033442125,-1.7421031,1.7634851,21
272,-1.6004859,0.050382316,-1.003425,0.52480793,22
273,-0.15252429,-0.7021517,-1.3341522,2.422195,23
274,1.1008499,-0.116544455,-0.26540568,1.33744,24
275,2.062745,-0.25325754,-0.4503522,1.5282319,25
276,1.5758243,0.056930065,-0.09169835,2.3108475,26
277,0.91707927,-0.31206632,1.4586009,1.8509133,27
278,1.8156986,-0.57489574,0.03943667,1.5124116,28
279,0.81249565,-0.2929535,1.6649563,1.101547,29
280,-0.9233036,2.4491367,-0.92100704,2.496868,30
281,1.2152758,-2.5143483,-2.0417085,0.8134316,31
282,0.054069698,0.81790614,-0.85740465,2.2903311,32
283,-0.16088545,-2.051255,-1.7834756,0.5171187,33
284,1.575901,-0.82948434,-0.6651262,1.976474,34
285,0.8783952,-1.1828214,-0.34112495,0.786513,35
286,0.95331043,-1.2783536,-0.6268735,0.81634545,36
287,2.1425495,-0.13943458,1.167946,1.1034352,37
288,0.3724715,-0.4607312,-0.76888436,0.30397356,38
289,0.295016,-0.58989197,0.8257438,1.741683,39
290,-1.362824,0.515622,-1.0217639,-0.38860667,40
291,-0.391025,-1.0481937,-1.2857289,2.956134,41
292,0.60677683,-1.7859676,-0.7225038,0.80484134,42
293,1.1939398,-1.05624,-0.8197738,1.3438164,43
294,0.25680503,0.2872686,-1.3195553,0.5624485,44
295,1.9019161,-0.47042727,-0.05699113,1.3718987,45
296,0.5077385,-1.4682686,-0.7872658,1.4426425,46
297,-0.5554706,0.00083595514,-1.2992194,1.8110014,47
298,0.8354316,-1.271581,0.2690523,0.551613,48
299,-1.3171623,-0.5374979,-1.4893582,1.0485885,49
300,-0.012992799,-1.5919446,-2.0136862,1.6373037,0
301,1.1916891,0.22034031,-1.2506845,1.518129,1
302,-1.2387714,-0.9639574,0.042089343,1.0552058,2
303,1.2488945,-0.62822145,-0.8425484,1.3651212,3
304,0.3445392,-0.54487246,-0.7241099,0.8378159,4
305,-0.30329013,-1.8741007,-1.4695656,0.99804854,5
306,0.6196524,-1.1109159,0.047267884,0.92247915,6
307,0.7456941,-0.54864025,-1.9019902,2.694806,7
308,0.6050927,-0.22459346,-0.3792624,2.6789618,8
309,1.0963075,0.86929834,-0.6441194,1.5739605,9
310,0.99547094,1.0221782,-0.9405874,1.4059143,10
311,0.73843133,-0.3419051,-1.6273708,2.0030901,11
312,0.090177685,-0.6010518,-1.2526534,1.3789523,12
313,0.08986086,-1.5244303,-1.6574249,1.0148376,13
314,-0.056591183,1.0724454,-1.5724347,1.9039688,14
315,1.0166823,-0.6269294,-0.5731427,1.4675204,15
316,1.1270176,-0.69315666,-0.013781246,0.5072061,16
317,-0.55481714,0.8969616,-0.27150464,0.42758983,17
318,2.0991068,0.17836279,0.4977616,1.564615,18
319,0.67719126,-1.4126792,-1.882346,0.59729016,19
320,0.27153474,-1.1421742,-1.6713839,-0.019078016,20
321,0.5383182,-0.1156045,-1.7018609,1.05128,21
322,-0.4973746,1.080514,-0.9472552,1.4444826,22
323,0.99573344,-0.48344862,-2.2647166,1.5994529,23
324,0.6165413,0.30617136,0.25440562,0.71948373,24
325,0.7188598,-1.154179,-2.0491438,1.4494426,25
326,1.958189,-0.4809657,-0.6302804,2.2707162,26
327,0.4661655,-0.43414447,1.5850117,0.93621653,27
328,0.9119647,-1.5820091,-1.4807684,0.8424427,28
329,1.054425,-1.0374762,0.07792011,0.76126575,29
330,-0.6382874,1.320173,-1.2550006,1.9796062,30
331,2.4696808,-0.46987492,0.18376654,1.0585349,31
332,0.25938517,0.4796079,-2.4660928,1.1391978,32
333,1.2684261,-1.2186509,-1.4434252,1.7020262,33
334,0.72520685,-1.6907601,-1.2350882,1.7462893,34
335,1.2899504,-0.45848423,1.0622015,1.1301329,35
336,0.8416159,-0.16610754,1.345109,0.9997024,36
337,1.2582293,-2.3424299,-1.2949204,0.66597766,37
338,0.78154516,0.13627975,-0.40460142,0.8188344,38
339,1.041512,-0.7014321,-0.4386086,1.6845852,39
340,-1.1958647,0.6835388,-0.59592706,1.366384,40
341,0.854208,-0.6931919,-0.66258377,1.4481575,41
342,0.27815473,-2.213913,-0.9748661,1.9714353,42
343,1.869019,-0.14694327,0.67606115,1.3405383,43
344,0.7149006,0.9043839,-1.1564752,0.6102782,44
345,0.21890306,-1.3082125,-0.4482687,1.012711,45
346,1.9752567,0.19814563,-0.06348646,1.5311561,46
347,-0.1309068,0.84799385,-1.9650416,1.6120017,47
348,1.691633,-1.4162117,-0.16829261,0.7009152,48
349,-0.565546,-0.30506116,-1.9829116,0.55878496,49
350,2.3437746,0.26927012,-0.1751998,1.6809527,0
351,1.1234596,-0.28345236,-1.8572204,0.85444635,1
352,0.5917432,0.4356168,0.2862702,1.7465261,2
353,1.0810547,-0.29154986,-0.1974166,2.0274732,3
354,-0.05411589,-1.8254532,-2.352549,1.1961395,4
355,0.41240755,-2.573019,-2.2685776,0.5039021,5
356,0.1306929,-1.2552606,-0.8495839,0.6951336,6
357,0.7844375,-0.34596992,-1.6010954,1.8254852,7
358,1.5362296,-0.17503715,-0.71040314,2.325393,8
359,1.0134737,0.4342278,-2.281967,0.99541074,9
360,-1.147512,-0.89339477,-2.1020408,1.7735642,10
361,0.112559855,-0.47011304,-1.030019,1.8449671,11
362,1.218615,0.074697375,-1.229084,1.4532303,12
363,1.1267138,0.025692046,0.41907597,2.2450256,13
364,-0.24874833,0.700739,-1.0488081,0.92658746,14
365,0.9425366,-0.9116475,-1.178352,1.9761798,15
366,0.76304287,-1.0097066,-0.20104921,0.2780821,16
367,-0.71776485,0.8160265,-0.49776638,1.2178918,17
368,1.4699022,0.24667948,1.8657868,1.3222595,18
369,1.7492127,-0.33631033,-1.213913,1.7206986,19
370,1.4526141,0.20082396,-0.40292692,1.8466012,20
371,-0.45990723,-0.35415578,-1.0560982,2.6736588,21
372,-1.1068939,0.28476197,-0.9066324,1.5750539,22
373,-0.9364668,-0.4645995,-0.5659143,2.4722397,23
374,0.3892849,-0.1603778,-0.08567119,2.4243875,24
375,0.33759236,-1.3400273,-1.2089784,1.932773,25
376,0.5087155,-1.1574018,-0.7334383,2.0164456,26
377,1.1109995,-1.0112517,-0.034239247,1.7961949,27
378,-0.2296663,-1.8824655,-1.3467107,0.37191606,28
379,0.4095305,-0.7545599,0.6618747,1.3044692,29
380,-1.6042175,0.6500578,-0.86537033,0.4320221,30
381,0.13279986,-1.9955943,-1.3892314,1.0766175,31
382,-0.30406928,0.15169713,-2.1643054,0.9182929,32
383,1.8280802,0.022148848,1.0427873,1.8164392,33
384,2.7018616,0.14323944,0.8163519,2.3473053,34
385,0.080961466,-1.1628971,-0.9992656,0.26578325,35
386,1.0249001,-1.418258,-0.76195943,0.9855809,36
387,0.5066211,-1.5795926,-0.05792886,0.19001734,37
388,1.2009273,0.18851992,-0.96990997,0.6941046,38
389,0.14788008,-1.3291414,0.05587679,0.83836776,39
390,-1.7060795,0.36507225,-0.9589352,1.5459188,40
391,1.1373389,0.3626793,0.27783525,1.5994669,41
392,1.208524,-1.2652266,-0.47949097,2.0745027,42
393,1.778674,-0.6593189,0.2469747,1.4654775,43
394,-0.0357911,0.31641567,-0.65638506,1.2297394,44
395,0.22140735,-2.2329357,-2.1127872,0.98342913,45
396,2.3832622,-0.23422551,-0.16386127,2.23497,46
397,-0.40693235,0.70929646,-0.22790074,0.14260924,47
398,0.17709476,-1.7512413,-0.22206959,0.73644024,48
399,-0.7896234,0.2633645,-0.18851018,1.6940885,49
400,1.2446412,0.118892014,0.02814883,1.859187,0
401,0.85618424,-0.38415998,-2.12526,0.9885075,1
402,0.49387473,1.1175547,1.860407,1.2631171,2
403,0.615764,-1.4276091,-1.8580651,1.5400151,3
404,-0.2507165,-1.5625908,-1.6776447,1.0491635,4
405,1.4618672,-0.17126739,-0.005421281,1.6895378,5
406,0.5463901,-0.95607424,-0.24195597,1.3893718,6
407,0.25995672,-0.44505215,-1.3631477,1.2145834,7
408,0.97671765,-1.2593205,-2.0145085,1.3029437,8
409,0.33450323,0.22726098,-1.2803433,1.7893089,9
410,0.7829429,0.6280098,-2.0125413,0.7310122,10
411,0.897892,0.33582675,0.09391892,1.5324754,11
412,1.7769097,-0.1731072,-2.0293374,1.673987,12
413,0.1388036,-0.77570146,-0.61146754,1.4430612,13
414,-1.0923935,-0.1917963,-0.9946568,0.73486245,14
415,0.5904094,-0.67639035,0.00915581,0.93478787,15
416,0.8206186,-1.5026329,-0.18620303,-0.824238,16
417,-0.18744832,1.216361,-1.1058382,2.0241327,17
418,1.4778801,-0.3093254,-0.22333199,1.1431391,18
419,0.47665116,-1.4593425,-1.8219414,1.4951876,19
420,0.54592127,-0.32387438,-0.63048804,1.4463358,20
421,0.3990598,-0.39531296,-1.8130442,1.4321631,21
422,-0.95473325,0.5949749,-0.12977904,2.0031796,22
423,0.4726066,-0.20150498,-1.6416332,0.8480383,23
424,0.32887283,-0.35559872,-0.3007661,1.254891,24
425,1.425579,0.4087569,0.77585787,1.7599647,25
426,1.0238093,-0.96339285,-0.8405833,2.5962727,26
427,0.6981441,-1.133599,-0.22731352,1.3247604,27
428,1.9272562,0.25837374,0.784669,1.9400884,28
429,-0.48063523,-2.2290692,-0.61298853,1.2126057,29
430,-1.7462224,1.0238954,-0.09889901,-0.62412524,30
431,1.6426704,-0.6588909,0.59956115,1.0995733,31
432,-1.213316,-0.5125936,-0.8456954,1.6427486,32
433,1.9858966,-0.69244814,-0.40124464,1.6491917,33
434,1.9118946,0.58822864,1.5155435,1.8865293,34
435,1.3622909,-1.1899412,-0.016908139,0.8279987,35
436,0.9192166,-1.563322,-0.5679541,1.3889852,36
437,1.2362934,-1.5756919,-0.38060555,0.48165494,37
438,1.3621736,0.5196007,-0.51518285,1.014955,38
439,1.3190755,-1.3744202,-1.0472248,1.7977514,39
440,-1.8562868,0.4355694,0.12115955,0.9232669,40
441,0.8735242,-0.1384984,-0.20882398,1.9002848,41
442,-0.07704651,-1.8672602,-0.7579206,0.95810616,42
443,0.9904703,-0.9186602,0.08377901,0.80769634,43
444,1.068408,0.87803024,-1.5647115,0.6062039,44
445,0.49213934,-1.3882153,-0.28135818,0.2748555,45
446,0.4377777,-0.37885392,0.5222409,1.2257135,46
447,0.7084677,2.1462896,-2.3493803,0.91319805,47
448,1.36831,-0.6110222,0.16698179,0.6536889,48
449,-0.08712557,0.65119314,-0.74402595,2.2941127,49
450,1.0484375,-0.26084244,-0.4766907,1.3785493,0
451,1.2440915,0.007099271,-1.723196,1.0385392,1
452,-1.1726356,-0.5534985,-0.08990234,1.20068,2
453,0.9209729,-0.6822355,-0.6838233,1.3293922,3
454,0.08472735,-0.7602097,-0.9866053,0.48123276,4
455,1.7515491,0.5873221,1.2313397,2.045597,5
456,0.83463264,-1.5963645,-0.78246176,1.1611286,6
457,0.6910998,-0.3165688,-1.066503,1.0007735,7
458,1.3267312,-0.48729914,-1.1807079,2.1668794,8
459,0.91306233,1.3210443,-0.10150015,1.0928192,9
460,1.6267414,1.447598,-1.6967998,0.5544759,10
461,2.129578,0.80023086,-0.45129478,1.9014938,11
462,1.0364971,-0.6410453,-2.0198417,1.4450384,12
463,1.3236291,-0.21925604,-0.10112327,1.6218767,13
464,-0.3655787,1.0472503,-1.3415645,1.1545398,14
465,0.37000126,-1.1843197,-0.63734055,0.23974836,15
466,1.0765356,-0.9306659,-0.46313494,-0.16354044,16
467,-0.594799,1.2705231,-0.11769307,1.6391611,17
468,0.9767543,0.15844065,1.1183071,1.3173645,18
469,0.93341434,0.2207346,-0.11552775,3.1692972,19
470,0.764112,0.32430398,0.15624666,1.6970851,20
471,-0.19126403,-0.19181064,-0.73519826,2.7186055,21
472,-1.2719285,0.6811023,-0.748116,-0.7111103,22
473,1.9085622,0.41434336,-1.4661121,1.2624002,23
474,0.7497615,-0.37568617,-0.54022473,1.8069835,24
475,1.763622,-0.26851094,-0.486373,1.726918,25
476,0.52038676,-1.0579299,-1.1327977,1.6235181,26
477,1.789504,0.03045696,0.8591087,1.6599395,27
478,1.3320074,-0.29486835,0.009867221,1.2677715,28
479,0.669983,-1.6013913,-1.1787679,0.5017973,29
480,-1.6582551,0.8337721,-1.1636578,0.19579017,30
481,0.9832829,-1.9652826,-1.7480958,2.018982,31
482,-0.7415886,0.31592265,-0.19679195,1.525389,32
483,-0.1501782,-2.2218094,-0.8323849,0.55876106,33
484,0.39350468,-0.96058697,0.065097004,0.81647503,34
485,1.2396522,-0.7193378,-0.5269226,0.45190328,35
486,1.603514,-1.1182468,-0.707044,1.5991763,36
487,1.2979846,-1.3046732,-0.011761218,1.5657163,37
488,0.5695108,-0.32434344,-1.0689282,0.151741,38
489,-0.24716145,-1.1707767,0.046527147,0.06264925,39
490,-1.1453818,0.855951,-0.32956547,2.3633618,40
491,0.07844275,-0.7148606,-0.828933,2.1596482,41
492,0.6243634,-0.88829136,0.44025746,1.5423129,42
493,2.6866212,-1.2467226,-0.5748071,1.6590483,43
494,0.8284453,0.9897105,-0.7806215,1.3356605,44
495,0.46176207,-0.6342095,0.28956476,0.80146706,45
496,1.7043636,-0.58790886,-0.47815794,2.4487548,46
497,-0.5686259,0.082755625,-2.3083074,0.4725421,47
498,0.8802985,-0.40035832,1.8278917,0.8967461,48
499,-0.2320748,-0.07693252,-2.515459,0.34984088,49
500,1.4333985,0.040321827,0.08684957,1.6718843,0
501,0.46850294,-0.582106,-2.1104412,1.351794,1
502,-0.7528038,-0.97194266,-0.5947661,1.570595,2
503,1.0995831,-0.1968177,-0.30026644,1.8359872,3
504,-0.6526227,-1.4296361,-1.5423837,1.0329112,4
505,0.63677907,-0.82940096,-0.62927175,1.981867,5
506,0.712733,-0.20443928,0.9404657,0.82363105,6
507,1.447269,0.1702429,-1.3634933,2.410348,7
508,0.31140828,-0.578974,-0.58321965,1.6883345,8
509,0.18312794,-0.22298077,-1.9648392,1.3035502,9
510,0.27110654,-0.019020557,-1.9353418,2.3194847,10
511,0.60161936,-1.0023699,-2.4874883,0.32450128,11
512,0.44644845,-0.7951627,-1.6345323,3.3709612,12
513,1.2025995,-0.540627,-0.52400947,1.2152141,13
514,-0.8416961,0.8975703,0.07610512,1.5938711,14
515,2.3772964,-0.03462404,-0.012455434,2.7924385,15
516,0.3647238,-1.2266455,-0.48573452,-0.17537144,16
517,-0.13516188,1.6386869,-0.87603104,1.1632254,17
518,1.7287905,-0.05664867,0.3354988,2.558519,18
519,1.036455,0.061223745,-0.06874192,2.385371,19
520,0.23074442,-0.5913931,-0.6854714,2.23728,20
521,0.5351435,0.12124414,-1.061965,0.9047712,21
522,-1.14871,0.4901052,-0.78535926,0.62164193,22
523,-0.2320354,-0.56834453,-1.3330842,2.4326785,23
524,0.5919366,-0.5179459,-0.66845983,2.4273558,24
525,1.029828,-0.047583997,0.06887227,1.0848968,25
526,-0.3414517,-1.3810637,-0.58829236,0.4699812,26
527,0.15193135,-0.54498804,1.4199877,1.6739398,27
528,0.5273565,-1.8130426,-1.6721373,1.2069995,28
529,1.1063877,-0.6868874,0.88581944,0.49641868,29
530,-1.5129507,1.2438729,-1.0802833,0.3247398,30
531,1.4403373,-0.63989246,0.24429226,1.5294237,31
532,-0.60035825,0.28836495,-1.106761,0.65688336,32
533,1.8853552,-0.7679664,-0.70299524,1.804715,33
534,0.62592405,-0.056917727,2.0592952,0.7891938,34
535,0.73409986,-1.5389434,-1.3622742,0.70637333,35
536,1.1957929,-0.53198147,-0.27240458,1.0043792,36
537,-0.95028436,-2.1615634,-0.6566802,0.16392589,37
538,0.828315,-0.31527963,-1.6122026,-0.3930573,38
539,2.205341,-0.26419878,0.0015603006,2.0198972,39
540,-1.8233702,-0.114868104,-0.9509923,0.8841388,40
541,0.117349684,-0.7683658,-0.6306145,0.8712232,41
542,1.1102977,-0.15203714,1.7092363,1.2748446,42
543,1.6222885,-0.50578666,0.6723475,1.2263097,43
544,0.4914797,0.799221,-0.8244084,0.9207251,44
545,1.0727892,-1.2719735,-1.1743336,1.6495731,45
546,1.7608862,-0.2838297,-0.6669172,2.0462632,46
547,0.23681226,1.2416358,-3.358657,1.7329941,47
548,0.2525084,-1.746202,0.26875958,0.6857516,48
549,0.20635432,0.69795716,-0.75892377,1.7396529,49
550,0.34171543,-0.543576,-0.3062547,1.4553821,0
551,1.5373938,0.5544011,-0.24880195,2.2919517,1
552,-0.28571904,-0.30597785,0.4058727,1.1752557,2
553,0.88121265,-0.6500015,-0.8593861,1.292897,3
554,1.1188976,-0.1255824,-0.36291242,2.8807178,4
555,0.09647447,-1.4055601,-1.26077,1.7349344,5
556,1.4924567,-0.68202853,-0.46973032,1.3987858,6
557,1.1385796,0.18981677,-1.122229,1.7082206,7
558,0.5217,-1.335108,-1.949655,2.9620469,8
559,0.9509951,-0.1562433,-3.0081935,0.062229514,9
560,0.36038533,0.049083233,-2.2879956,1.1332426,10
561,0.8709034,-0.45133355,-1.848105,1.0424441,11
562,0.88910216,-0.65212405,-2.1211715,2.8006668,12
563,0.56424993,-1.0501487,-0.892146,1.148047,13
564,-0.4566446,0.27224943,-2.042698,1.062339,14
565,0.18854731,-1.272924,-0.6535545,2.300199,15
566,1.5882087,-0.5639505,0.020570863,-0.5144661,16
567,-1.210951,0.104776025,-0.85539484,1.0868789,17
568,0.6126105,-1.2218994,-0.30013436,1.3970363,18
569,1.8746464,-0.24152666,-0.5657686,2.4483714,19
570,1.4735031,-0.42303842,-1.6652551,0.93070775,20
571,1.4780962,0.6854002,-1.3110362,1.2427047,21
572,-0.3657022,1.421854,-0.38235578,2.3590872,22
573,0.3010316,-0.3614969,-2.0123806,0.37922502,23
574,0.6376489,-0.52678126,-0.65891665,1.8120328,24
575,1.0891578,-0.26957288,-0.35352466,1.5116538,25
576,1.3476732,-0.70170426,-0.88848937,1.4855804,26
577,1.6159332,-1.0368155,-0.056184337,2.4009516,27
578,0.1851052,-1.7903814,-1.7081189,1.1590883,28
579,1.4845469,-0.18996835,0.5076854,1.4263906,29
580,-1.5412729,0.2348305,-0.6595574,3.4709518,30
581,0.73608094,-1.429117,-0.5181103,0.76333606,31
582,-0.51246905,0.29405946,-1.1245205,1.8593335,32
583,1.5810593,-0.2816713,0.29945815,1.8016043,33
584,1.1356466,-1.255441,-1.3172435,1.6045787,34
585,0.773787,-0.6070132,0.28505534,1.0964575,35
586,1.0206717,-0.49701786,-0.03904921,1.0764533,36
587,0.9393936,-1.1389177,0.9895668,0.7879474,37
588,0.5120996,-1.0234864,-2.1515706,0.4775573,38
589,0.81115687,-0.92551833,0.16090815,1.9354956,39
590,-1.6652147,0.14352664,-0.52231985,1.8446573,40
591,0.55926234,-0.9891498,-1.0074987,1.7008392,41
592,1.5555793,0.007870078,0.5398987,2.703247,42
593,1.9274058,-0.80482185,-0.4577024,1.2131909,43
594,0.15126598,0.122829795,-1.8487483,0.07139498,44
595,1.1199703,-1.6757486,-0.9068886,0.8454343,45
596,0.2699682,-1.9311029,-2.1998706,0.7687545,46
597,-0.448874,0.2833857,-2.8762016,-0.19404602,47
598,1.8429396,-1.9537783,-1.9305805,1.4199221,48
599,-0.9216982,-0.09933433,-1.0503993,2.1410112,49
600,1.1036195,-0.38053355,-0.34620744,2.16107,0
601,1.6204919,0.42982674,-0.96419615,2.155109,1
602,0.66751134,0.8189162,0.9150374,2.4465947,2
603,1.2955276,-0.47200462,-0.323338,1.0622312,3
604,0.5743904,-0.66448295,-0.7895447,1.3626717,4
605,0.19455379,-1.4513866,-0.78817177,1.954185,5
606,2.114355,-0.5101907,0.2412543,1.7222939,6
607,1.4851258,0.26594675,-0.93994355,2.1010761,7
608,0.30402237,-1.0254922,-1.7018328,1.6269786,8
609,0.19628659,0.0032870173,-1.8724322,0.4797635,9
610,0.18255812,0.4452207,-1.0834434,0.9789065,10
611,1.3280554,0.11016381,-0.7168226,1.4267488,11
612,0.7759458,-0.86494106,-2.2768555,0.9460634,12
613,0.76995564,-1.3350992,-1.7180392,1.4580085,13
614,0.21569368,1.1972291,-2.289377,0.835953,14
615,1.9799505,-0.16407627,-0.23766908,2.4921308,15
616,1.6656791,-0.62502164,0.60552895,-0.8872394,16
617,0.2570194,1.212386,-1.9630439,1.528219,17
618,1.2795916,-0.22617596,0.5610046,1.7963364,18
619,1.9106227,-0.12210101,-0.50652736,2.2954326,19
620,-0.15640795,-0.9101274,-1.3156987,1.2465961,20
621,0.32864857,-1.1498296,-3.4703763,-0.15183449,21
622,-1.4505,0.13460672,-0.93471956,0.11142385,22
623,0.34371555,-0.32581657,-1.1643794,1.9662533,23
624,1.7567216,1.5050185,1.3724178,2.5690482,24
625,0.4697227,-1.382765,-1.5692416,0.8780283,25
626,-0.087364376,-0.81079626,-0.49886513,1.3714395,26
627,0.7586095,-1.8118995,-1.7494333,2.6282325,27
628,1.5383995,-0.4633993,0.09695828,1.1871963,28
629,1.0217797,-0.92669445,0.3580454,0.72717637,29
630,-0.6226634,1.7569227,-1.6950502,1.1264503,30
631,2.392634,0.44811404,1.0841281,2.049652,31
632,-0.3518111,0.33879703,-1.2514884,2.4912426,32
633,1.6715252,0.09801638,0.88245356,1.4835105,33
634,0.23788899,-1.6379437,-1.3446416,1.2481736,34
635,0.41446358,-1.9625177,-1.6637108,0.7087527,35
636,-0.20859468,-1.8708065,-1.1864364,0.80135393,36
637,0.65199125,-1.5737326,0.19632377,0.7028093,37
638,1.0744925,0.39211178,0.076450974,0.74939597,38
639,1.345189,-0.21503091,0.5226678,2.1192582,39
640,-1.8260934,-0.011945218,-1.2879667,1.5750852,40
641,0.78187144,-0.22031778,-0.34946996,2.0610173,41
642,0.5622723,-1.7467949,-1.8858075,1.0398145,42
643,0.8119948,-0.56070936,0.62673455,0.9318827,43
644,0.5288005,1.1548469,0.15234172,0.5000988,44
645,1.0087239,-0.50050855,-0.38455567,2.0374513,45
646,0.27006137,-2.5322762,-2.6304507,1.4981449,46
647,-0.10770452,0.74538314,-2.3770661,1.6429496,47
648,1.2484007,-0.8833561,0.77805334,1.2544065,48
649,0.03721404,0.53611034,-0.96936035,1.2766445,49
650,0.05274707,-1.4164975,-1.5754576,0.26011658,0
651,0.7222166,0.3365956,-0.35059702,2.0571342,1
652,-0.70040613,-0.5459482,0.38279086,1.5317563,2
653,1.4359245,-0.6970748,-1.3607762,1.3643053,3
654,0.8011956,-0.20045143,-0.4398032,1.4171827,4
655,-0.38085115,-1.7507539,-0.6468579,1.3066422,5
656,0.4983115,-0.9729034,-0.6272013,0.7175589,6
657,1.0800104,-0.18762162,-1.6403803,1.7113581,7
658,0.39671496,-1.755163,-2.5665834,1.4632187,8
659,0.9232559,0.52484614,-1.653968,1.9951,9
660,0.58065486,0.5163639,-1.8798767,1.2296642,10
661,0.90878105,-0.17702249,-0.9591792,2.4132855,11
662,0.77617973,-0.33398396,-1.1433182,2.3699214,12
663,0.35710385,-0.5714826,-0.61655873,1.6086497,13
664,-0.14945105,0.76217365,-1.3344725,2.087713,14
665,0.9004021,-1.2267909,-0.8035283,0.83073634,15
666,1.6561046,-0.1031611,-0.030752178,0.3643626,16
667,-0.34399828,0.36898595,-1.3244996,2.1443691,17
668,2.0838962,-0.21176356,-0.20115495,2.2331002,18
669,0.4505407,-1.4110153,-2.2696862,0.68739486,19
670,1.1079087,0.07455784,-0.41666785,2.152063,20
671,-0.50165915,-0.41736695,-0.73647416,2.4460442,21
672,-1.3595548,0.15586418,-0.10238391,2.1112025,22
673,-0.10950154,-0.7998398,-2.0912867,1.6239628,23
674,0.13672385,-0.87682325,-0.8861895,1.3359718,24
675,2.1379654,0.47699338,0.18873745,1.4969879,25
676,1.6692824,-0.23133337,-0.32987222,2.7831888,26
677,1.0275842,-0.45718035,0.39945525,1.0209414,27
678,0.9134165,-0.67740643,-0.22179545,0.6124847,28
679,1.5826733,-0.00012528896,1.1823816,2.0767298,29
680,-1.9601018,1.4855765,-0.6134516,0.439372,30
681,1.5601449,-0.50924194,0.2698624,1.2754225,31
682,0.13380075,0.8698211,-1.1115175,1.2208635,32
683,1.0916547,-1.4581186,-0.66434014,0.64283997,33
684,0.8670426,-1.2956939,0.11763109,0.2623918,34
685,2.0229454,-0.7732533,-0.3615613,1.5030408,35
686,0.7286904,-1.1902878,-1.1823615,1.2623643,36
687,1.0484964,-2.2554278,-1.7273606,0.24261588,37
688,1.1555974,0.72152364,0.30013734,1.2712917,38
689,1.3466673,-0.08400053,0.50569475,2.2110708,39
690,-1.5493273,0.41382256,-0.65657115,0.9173831,40
691,0.9031432,-1.0128175,-1.2480397,3.1880822,41
692,0.11612171,-1.7512374,-2.1057074,1.659374,42
693,1.3544557,-0.97132576,0.11172503,1.1724784,43
694,1.1693196,0.96389174,-1.3683898,0.4689656,44
695,1.304882,-0.5073738,-0.14541087,0.92764163,45
696,1.7183912,-0.7903628,-0.4742884,2.0724874,46
697,-0.37589863,0.5152564,-1.7196009,1.2537987,47
698,0.35362184,-0.9223459,1.0325376,0.71937793,48
699,-0.473916,-0.08813083,-1.2652602,2.346837,49
700,0.36246246,-1.7258849,-1.7812166,1.0026753,0
701,0.3393013,-0.45440462,-1.5409625,1.5159099,1
702,-0.83353984,-0.23718463,1.0521144,0.96229315,2
703,0.93114984,-0.24876279,-0.5859172,1.7302244,3
704,0.58891565,-0.2735563,-0.4542455,1.4175473,4
705,0.5875519,-1.2282231,-0.63739294,2.0404558,5
706,0.26802367,-1.8873631,-0.8934301,0.479046,6
707,1.2166299,0.061678022,-1.3247639,1.3835375,7
708,1.1812048,-0.35366523,-1.121766,2.1534,8
709,0.027418017,-0.1703597,-1.3147286,1.9131532,9
710,0.19372486,0.21989137,-1.7552627,2.096066,10
711,0.84995914,-0.35022944,-1.3624691,1.9890039,11
712,0.67215526,0.18420976,-0.2624855,1.9779735,12
713,0.06881195,-1.7102318,-1.8182622,1.0738418,13
714,-0.73323596,0.04367745,-1.3193208,1.066794,14
715,0.6866072,-1.6308842,-1.5151356,1.234678,15
716,-0.16968,-1.0907705,0.36076644,0.6641381,16
717,-0.89177763,0.5065698,-1.1177382,0.34397376,17
718,0.089506984,-0.88530004,0.5236224,1.0724251,18
719,0.8667565,-1.4352357,-2.2485328,0.5876583,19
720,1.1780686,-0.47862998,-1.4831635,1.2595928,20
721,1.3398418,0.13884714,-2.00918,0.30320406,21
722,-0.86611384,0.7209922,-0.7405474,0.7137845,22
723,-0.14159995,-0.67140144,-1.7534668,2.0338473,23
724,0.16163816,-0.05555907,0.049800873,0.79962254,24
725,0.5301185,-0.6962912,-0.7456676,0.18985927,25
726,1.6699862,-0.6984074,-0.8578661,2.9456644,26
727,1.0246023,-0.84429157,-0.5529771,1.9353803,27
728,1.0697479,-1.1766407,-0.9748808,1.4215811,28
729,1.9274209,-0.72876763,-0.31159103,1.4633609,29
730,-1.5364695,0.9286574,-2.5967765,0.5192047,30
731,0.6116388,-1.6095197,-1.928967,1.0430195,31
732,-0.5392586,0.56584287,-0.13076651,2.012807,32
733,0.6344,-1.6312952,-0.8361488,0.64170027,33
734,0.9242019,-2.191932,-1.4742839,1.1098635,34
735,0.8713965,-1.857854,-1.2326353,0.8373734,35
736,0.7010411,-1.2061712,0.15650672,0.9835391,36
737,0.7054082,-1.7374835,-0.20725408,0.5177357,37
738,0.41822737,0.0030632801,-0.43991283,0.2642892,38
739,1.4848,-0.97144055,0.0994667,1.950824,39
740,-1.4730188,0.31293884,-0.3100838,1.2673216,40
741,0.2977081,-0.64225173,-0.8308935,2.5732708,41
742,0.3540253,-1.6298128,-0.7303773,1.5679337,42
743,1.5224298,-0.66461086,0.25214028,0.9486025,43
744,0.788152,0.67336965,-1.4390672,1.7169361,44
745,0.7840157,-0.79878324,-0.07421279,1.0210378,45
746,1.13449,-0.71376896,-0.71761256,1.5230736,46
747,-0.2575621,0.9435424,0.008625388,0.77867156,47
748,1.5906581,-0.16910279,0.8193421,0.7272732,48
749,-0.6191543,-0.29795897,-2.1272924,1.189477,49
750,0.86872053,-0.3917289,-0.29444686,1.1429507,0
751,0.4754307,-0.54167545,-2.1230702,0.743596,1
752,0.17980468,0.33176464,0.4630206,1.5248231,2
753,0.4143549,-0.60847086,-0.30932736,1.2898661,3
754,0.7610184,0.13647735,-0.11322361,1.9656436,4
755,1.2144064,-0.96562093,-0.5493681,1.3863803,5
756,0.17032647,-1.7293394,-1.3556293,0.9671483,6
757,0.4068488,-0.50566185,-1.6166224,1.6416676,7
758,0.45969555,-1.106949,-1.7141138,1.6633267,8
759,0.07416153,-0.26555154,-1.8376896,1.2264178,9
760,0.78284913,0.77998465,-1.5738363,0.82399386,10
761,-0.1396451,-0.5933575,-1.030571,2.1022253,11
762,0.7918335,-0.12161839,-0.7405989,1.8490855,12
763,0.66211087,-0.75678825,-1.0688975,1.9006839,13
764,0.2208263,1.1383896,-2.1512206,0.9079392,14
765,1.7089279,-0.6442584,-1.1525357,2.17876,15
766,0.16940653,-1.1544218,-0.007278722,-0.12595615,16
767,-0.4527412,0.5926881,-1.2220466,2.6402235,17
768,1.176727,0.29989928,1.1965346,1.8820494,18
769,1.227563,0.032043397,-0.02222991,2.0664759,19
770,1.276562,0.31600976,0.20816422,1.7248927,20
771,-0.36358178,-0.5446541,-1.5321114,2.1293597,21
772,-0.7592946,0.85177,-0.28043666,1.1431854,22
773,0.13601646,-0.60520816,-1.8191317,1.7852271,23
774,0.4493056,0.14193857,0.00084382296,1.5868336,24
775,0.688442,-1.1339618,-1.5862476,1.104662,25
776,-0.155271,-1.5441408,-1.1283779,1.835604,26
777,0.31821948,-1.3169217,-0.27360642,2.1341586,27
778,0.5307485,-0.9098786,0.22166002,1.467837,28
779,1.5095437,-0.5102614,-0.42964047,1.3676913,29
780,-1.7457674,0.7428313,-1.1266376,-0.067137,30
781,2.6815653,-0.50826395,-0.18141256,1.267488,31
782,0.17211276,0.8220986,-1.334713,1.7757218,32
783,1.2451597,-0.09132135,0.8875598,1.4678868,33
784,0.4954013,-0.7106287,0.32536155,0.36325145,34
785,1.3113458,-1.0565143,-0.5731365,1.1356483,35
786,0.80344516,-1.3372649,-0.7963021,1.5038592,36
787,2.518159,-0.12606299,0.8503778,1.6946609,37
788,0.8356719,0.3120539,0.17480522,0.33342254,38
789,0.77120256,-0.986268,0.6718617,1.0790048,39
790,-1.4754357,0.8911472,-0.2575786,-0.46161628,40
791,1.1451795,0.4946046,0.51083654,0.9790182,41
792,0.9301745,-1.1253331,-0.027854962,1.418637,42
793,0.94289005,-0.43446404,1.6182346,1.1128547,43
794,-0.04437861,0.12430796,-1.0076275,1.0251827,44
795,1.4647701,-1.2201263,-0.42438844,1.1836462,45
796,1.4195846,-0.6256513,-0.42073774,2.032571,46
797,0.15264758,1.3352538,-1.5590208,0.2927723,47
798,1.045822,-1.0944656,0.04626978,0.87283516,48
799,0.78658867,1.3377925,-1.2180884,1.0551525,49
800,1.3379765,-0.114506066,-0.28918993,2.042254,0
801,0.71910703,-0.3226435,-1.284017,1.2432733,1
802,-0.7942989,-0.5595184,0.18893689,1.0330509,2
803,0.6793132,-1.0080373,-0.86813426,1.4098057,3
804,-0.12478721,-0.91069776,-0.9979276,0.84583676,4
805,1.1272098,-0.8462282,-0.45213282,2.8845177,5
806,0.97526395,-1.5088993,-1.5965407,1.0748167,6
807,0.642636,-0.32376873,-1.0540982,1.7806358,7
808,1.1488833,-0.34665698,-0.82605267,1.0772474,8
809,1.2957113,0.3901661,-2.3202362,1.4215926,9
810,-0.2329658,-0.18111396,-2.340938,1.1527867,10
811,0.048067033,-0.43159184,-0.9016848,0.42677248,11
812,1.0392725,-0.41867322,-2.0551107,0.72767794,12
813,1.3460566,-0.35096112,-0.6806065,1.5540062,13
814,-0.51397216,0.4269466,-0.93599206,0.928694,14
815,-0.04497403,-1.5011941,-0.65429634,1.7265557,15
816,-0.15948153,-1.6187806,-0.37015265,-0.44564277,16
817,-0.5407211,0.4054669,-1.9964554,1.8666576,17
818,2.148736,0.7142529,1.5252843,1.5471272,18
819,0.4138732,-1.0130575,-1.2587789,1.292426,19
820,0.08385563,-0.6225351,-0.7282175,0.9653974,20
821,1.3569499,0.5015342,-1.2580491,1.6392417,21
822,-0.7402027,1.4244981,-0.16388696,1.1066072,22
823,1.7519158,0.4941892,-1.6894637,1.036763,23
824,0.27408597,-1.3619405,-1.2795026,1.1955934,24
825,0.27123773,-0.8661261,-0.3836708,1.1376004,25
826,0.92034984,-0.8911962,-0.30181056,1.098662,26
827,0.43129104,-0.9593396,-0.10105101,1.652641,27
828,1.523735,0.014030695,1.0024042,1.7856108,28
829,1.505251,-0.46952003,-0.15669334,0.85940933,29
830,-2.184537,0.13032651,-2.4014459,-0.21035957,30
831,1.7222594,-1.2429187,-0.920442,1.4543136,31
832,-0.32615373,0.13455167,-1.5063355,1.1420704,32
833,1.4048555,-1.0571518,-0.8847601,1.4156632,33
834,0.8786026,-0.3593185,0.24337731,0.6833101,34
835,1.3472991,-0.66593915,0.5759603,1.4737604,35
836,0.8832981,-1.5358083,-0.7587438,0.60819656,36
837,1.4618626,-0.59837776,1.4307023,1.33599,37
838,0.9706787,0.23847914,-0.22296908,0.3843482,38
839,2.1701999,-0.029527664,0.8081039,1.5502846,39
840,-2.1405344,0.32541615,0.33152658,1.5295389,40
841,0.36361384,-0.7696874,-0.8854689,1.7985775,41
842,0.36103654,-1.960416,-1.1397159,1.4897397,42
843,0.43500102,-1.8493179,-0.7660215,0.9244649,43
844,0.07493743,0.20522086,-1.3737684,1.8512268,44
845,2.3125072,0.058362722,0.8729477,1.1026441,45
846,0.018518627,-1.3119072,-0.6777314,1.0930026,46
847,-0.30800706,0.71637833,-0.6078659,0.9606605,47
848,0.4627815,-2.781904,-2.5620685,0.35607326,48
849,-0.70103073,0.3416242,-0.87845445,1.3268611,49
850,0.83513325,-1.2283821,-1.4898798,1.7080436,0
851,0.1465545,-1.2804999,-3.2495832,0.8625007,1
852,-0.6947707,-0.72068745,-0.36090255,1.915892,2
853,0.021510005,-1.213803,-1.0224704,1.2365195,3
854,0.48017317,-0.2846318,-0.32757023,1.1460285,4
855,0.7476227,-1.2690184,-1.0166812,2.1128566,5
856,1.707776,-0.7036275,-0.5436391,1.9551053,6
857,1.0884293,-0.15020555,-1.2038286,1.2379214,7
858,0.92322946,-0.74267226,-1.3318548,2.457645,8
859,0.035185456,0.51612496,-0.6409629,1.6009223,9
860,1.3518498,1.3011804,-1.4833534,2.3087144,10
861,1.017301,-0.79151,-2.4268827,1.2200297,11
862,0.99506295,-0.4067518,-2.1702852,1.4256103,12
863,-0.1428504,-0.5238679,-0.4216485,1.2617283,13
864,-0.90676033,0.47356805,-0.751703,1.7536025,14
865,1.5544186,-0.79287446,-0.90195084,1.484127,15
866,0.66722316,-0.894402,-0.09807636,1.259778,16
867,-0.8962244,0.08125895,-0.8399118,1.6830105,17
868,0.07428837,-1.6923423,-1.4041367,1.1717452,18
869,0.46134716,-0.8776531,-0.73121184,1.2060084,19
870,1.3656328,-1.2154247,-2.3974679,0.90922207,20
871,-0.3742751,-0.41535378,-0.8433058,1.8538986,21
872,-0.87485474,1.5108407,0.30165023,-0.574583,22
873,0.16872084,-0.09148364,-1.0012984,1.7105999,23
874,-1.0932136,-1.5930843,-1.4530251,0.2748989,24
875,1.227128,-0.39206955,-1.0266156,1.8982738,25
876,-0.23432654,-1.1643425,-1.5304217,1.6218066,26
877,0.52267396,-1.3178211,-0.27590057,1.6461099,27
878,1.2455649,-0.6629114,-0.79423,1.1644872,28
879,1.2055669,-0.53909725,0.2158831,0.76779807,29
880,-0.5268065,1.5240686,-2.1192527,2.214917,30
881,0.36029494,-1.7988694,-1.0765702,0.68902725,31
882,-0.90121937,0.31698024,-0.14368963,1.7007123,32
883,1.2259848,-0.8822891,0.09153187,0.58951217,33
884,1.0068368,-1.4624909,-1.1535438,1.1671933,34
885,-0.09128666,-1.7331543,-1.2004346,0.27916408,35
886,0.5126298,-2.1169758,-0.7903812,0.22635067,36
887,1.1015311,-1.0657033,0.010254711,0.98926985,37
888,0.9231892,0.6064902,0.46911573,1.127002,38
889,0.0141913295,-1.4634413,-0.61476195,0.89892113,39
890,-1.2142847,0.9760225,0.47094685,0.10378337,40
891,-0.80440724,-2.0084867,-2.1324553,2.1364253,41
892,1.4387498,-0.57172346,-0.089340866,2.2800326,42
893,-0.32051027,-2.5461586,-1.7861253,0.59589654,43
894,0.7547411,0.64882046,-1.4010041,1.5182976,44
895,1.0115672,-0.18716955,0.6522745,1.1275626,45
896,1.4779944,-0.7440813,-0.57115364,1.9906167,46
897,0.40505216,1.7943,-1.724465,1.1869211,47
898,0.92886543,-1.4539452,-0.7846284,1.2616835,48
899,-0.48773822,0.23916376,-0.7916272,1.2864412,49
900,0.5223724,-1.2314491,-1.0603185,-0.120681286,0
901,-0.2662528,-0.99697167,-1.9731107,1.8993149,1
902,-0.69379234,0.33859396,1.6296896,1.074408,2
903,1.4502335,-0.5201107,-0.88229674,1.5112282,3
904,0.52552414,-0.17416894,-0.31405917,1.2326721,4
905,0.61736435,-1.1430852,-0.33124024,2.2569983,5
906,0.004777193,-1.321816,-0.3367467,0.4332925,6
907,0.9195514,-0.3026271,-1.7707132,1.0899588,7
908,0.5396956,-0.2341395,-0.5019679,1.8931339,8
909,1.505019,0.7449125,-1.8801285,0.5739569,9
910,0.64832705,0.8862752,-1.1312346,1.8721488,10
911,1.0174538,-0.56375843,-2.0275607,1.1636515,11
912,0.60583895,-0.6541314,-1.8123522,1.2646374,12
913,-1.0130227,-1.5527315,-1.1787095,0.49428415,13
914,-0.048039466,0.90359604,-1.6910498,0.33223546,14
915,0.33671463,-1.582823,-0.21066537,1.2065973,15
916,1.6535661,0.26579273,0.33652896,0.71984357,16
917,-0.25821334,1.2279177,-1.0752534,1.2095785,17
918,2.2780216,-0.002175808,-0.2605015,2.3065271,18
919,1.9328121,-0.112425864,-0.45171857,2.4998345,19
920,0.27523917,-0.40987623,-0.46776724,1.6469874,20
921,0.2069009,-0.61977655,-2.1924076,1.7125695,21
922,-1.7233233,-0.16476625,-0.10745275,-0.40184253,22
923,2.0172005,0.8512538,-0.6799606,2.3131566,23
924,1.2306062,0.28204197,0.25016844,2.0430152,24
925,-0.39238775,-1.4657192,-0.6691549,0.385625,25
926,1.6981857,-0.38509783,-0.3761267,2.2253609,26
927,0.47105348,-1.2601523,-0.94317573,0.7657925,27
928,0.35108358,-1.3461033,-1.2225752,1.0179809,28
929,0.6251576,-0.66562355,0.050916493,0.9982953,29
930,-1.0949519,0.991034,-1.0536772,1.1300443,30
931,1.2982434,-1.6440911,-0.4668882,1.7405276,31
932,-0.6006648,0.4104687,-0.45382804,1.537849,32
933,1.128543,-0.8570304,0.20099652,0.93513846,33
934,0.83170605,-0.77461463,-0.43559223,0.4211324,34
935,-0.19136965,-1.4000263,-0.21636549,0.558806,35
936,0.7598485,-1.0193721,0.44568992,0.55697536,36
937,-0.09731591,-1.9791164,0.46136698,0.2527684,37
938,0.23357505,-0.7376299,-1.1748222,-0.04193455,38
939,1.1321537,-0.94804007,-0.5170577,1.2666767,39
940,-1.2848653,1.188915,0.8622406,1.5575782,40
941,-0.14440864,-1.3915416,-1.5609238,1.0367496,41
942,2.5757446,0.8758533,1.9468193,2.386561,42
943,0.44195938,-0.41515344,0.4732479,1.0616875,43
944,0.76580334,1.2868867,-0.26293278,1.190137,44
945,0.84667295,-1.1607611,-1.7221867,0.8453089,45
946,1.112976,-0.4690654,-0.30189362,2.2873328,46
947,-0.21918574,0.58791006,-2.45352,0.7900484,47
948,2.3886504,0.658736,1.0122517,1.8740215,48
949,-1.2966585,-0.22963229,-0.7361255,1.1214399,49
950,-0.67732376,-1.7429812,-1.4700015,0.28221858,0
951,0.7752462,-0.20664153,-1.2806565,1.3515587,1
952,-0.14603704,0.21316893,0.38310227,0.93704885,2
953,1.1961478,-0.87115544,-1.0722201,1.4029561,3
954,0.62179434,-0.8521081,-1.0850656,1.8422048,4
955,1.6850576,0.031253934,-0.013773978,2.8126628,5
956,0.6963798,-0.95782864,0.00558421,0.93487674,6
957,1.712858,0.5704888,-0.56909555,2.5420215,7
958,1.5602951,-0.038779795,-0.8928413,1.4481905,8
959,0.96212924,0.4571277,-1.6413589,1.3872907,9
960,0.6868,1.0194778,-0.92338693,1.0818545,10
961,-0.14684868,-1.6172719,-2.8449812,1.124162,11
962,-0.13842517,-0.7372855,-1.113328,2.331211,12
963,0.38131776,-0.5990798,-0.31556985,1.553951,13
964,-0.17427926,1.2034467,0.0050661564,0.7577772,14
965,2.0195312,0.44352406,0.4981747,2.493609,15
966,0.85567963,-0.89298826,-0.18367527,0.8270746,16
967,-0.10052025,1.401312,-0.4768021,1.92769,17
968,-0.013151228,-1.533036,-0.61266255,1.0760854,18
969,0.9314237,-0.9595404,-1.2545716,2.1145027,19
970,-0.05709815,-0.34379646,-0.31693274,0.97829384,20
971,0.34981322,-0.1409193,-1.0604414,1.873087,21
972,-0.7787108,1.0118182,-0.01039809,0.38050166,22
973,0.92142975,0.015614033,-1.1485364,1.8441069,23
974,0.6591237,-0.37527734,-0.65891075,2.407363,24
975,0.42470214,-1.3926709,-1.4889171,0.80002797,25
976,0.4343791,-1.1366212,-0.61106175,1.7265346,26
977,0.9710622,-1.4869488,-1.5777112,1.8315271,27
978,0.7803436,-1.4906466,-1.594933,1.4889543,28
979,1.4341012,-0.35067332,-0.09969503,1.8048611,29
980,-1.1995921,0.98169565,-1.7598747,1.87783,30
981,0.19152206,-1.7132466,-1.149651,0.7336703,31
982,-0.91621304,-0.33945116,-1.7642484,1.3889661,32
983,1.6678455,-1.750532,-0.86242056,1.1343029,33
984,1.9249654,0.126239,0.5538337,1.3414831,34
985,0.8817983,-1.5516033,-1.2504601,0.8335708,35
986,1.5752419,-1.5838664,-1.3903108,1.3387634,36
987,1.480939,-1.246351,0.91570497,1.1501046,37
988,-0.92254454,-0.91264963,-0.22155069,0.62013876,38
989,0.68600523,-0.61378706,1.0666088,2.139236,39
990,-0.22434902,0.93796605,-1.6194017,1.9217799,40
991,0.9856002,0.041216552,-0.20245087,3.0253363,41
992,1.158214,-0.8291619,0.06760573,1.8907698,42
993,1.2447147,0.12335098,1.9028376,0.5256177,43
994,0.64809555,0.8336744,-0.8659938,0.91707575,44
995,1.6914008,-1.0379128,-1.1375192,1.5814037,45
996,1.9837646,0.44928336,0.43396568,2.0002668,46
997,-0.5746505,0.084311426,-2.0902483,0.18640333,47
998,-0.0071424246,-2.404368,-0.9443929,0.40461132,48
999,-0.7057928,-0.053679675,-0.59693587,2.3635702,49
1000,0.73603296,-0.53642845,-0.48770973,1.7606769,0
1001,0.8539103,0.31658107,-0.82914436,1.4673017,1
1002,0.49734777,0.6567698,0.96817094,1.7251074,2
1003,-0.014401913,-1.4675136,-1.5206366,1.6486775,3
1004,2.027845,0.44554114,0.28892833,1.98176,4
1005,0.11921877,-1.7707169,-1.2932651,1.2181976,5
1006,0.63358474,-1.762333,-1.604934,0.9082887,6
1007,-0.7919144,-1.9594412,-3.3084211,1.1942415,7
1008,1.4040865,-0.70169044,-1.5934751,1.9480059,8
1009,0.059625268,-0.08792737,-1.5855272,1.999379,9
1010,-0.39539194,0.06116171,-0.7518859,1.4028866,10
1011,0.7641373,-0.4624858,-1.4985617,1.5823357,11
1012,1.1849813,-0.6382952,-2.4359236,0.7704414,12
1013,-0.27988368,-1.5602663,-1.4502773,0.8320977,13
1014,-0.5069935,0.6719874,-0.9960012,0.7102237,14
1015,0.6360862,-1.8883996,-1.4089105,1.1379607,15
1016,0.57020235,-0.88563883,0.17945565,0.58780664,16
1017,-0.6116866,0.70318204,-0.8344057,0.41755575,17
1018,1.2762005,0.49962002,1.9021773,0.6147236,18
1019,0.6950668,-0.8512591,-0.9752418,1.5050161,19
1020,1.3438911,-0.2955705,-1.2951027,1.4933424,20
1021,0.5373224,-0.077710934,-1.84729,0.9695295,21
1022,-0.6451012,1.157833,-0.80089027,0.44694752,22
1023,0.76390946,-0.08761305,-1.5894194,2.5690105,23
1024,1.2120059,0.1190415,-0.035998046,1.7469585,24
1025,0.9074007,-1.059849,-1.5198119,0.77641845,25
1026,1.2223694,-0.10634625,0.16466999,1.5916582,26
1027,0.9538002,-1.1882622,-1.6734563,1.1898539,27
1028,0.530694,-1.3660185,-1.6193025,1.153051,28
1029,1.4491571,-0.72365034,0.38847542,0.69150126,29
1030,-1.1037694,1.0039403,-1.5871977,0.13213128,30
1031,1.4262425,-1.149511,-0.59952974,1.6303406,31
1032,-0.67644256,0.675686,0.23870564,1.3661733,32
1033,0.99211895,-0.981486,-0.15401398,0.8145758,33
1034,0.89214027,-1.1102003,-1.6420178,1.1353931,34
1035,0.5894159,-0.97549194,-0.37513942,0.805873,35
1036,-0.03469479,-1.1530168,0.6329129,0.68498796,36
1037,1.2994761,-1.0483403,0.28052464,0.5483615,37
1038,0.6863056,0.6061919,0.5452781,0.8275352,38
1039,0.68944937,-1.7178168,-1.0078094,1.5442109,39
1040,-1.42209,0.41810003,-0.09926343,1.4907329,40
1041,0.7211881,-0.8908498,-1.2154735,2.096943,41
1042,0.87194854,-0.91422224,0.6418256,1.5764953,42
1043,0.6806992,-1.0333941,0.56905174,0.70599496,43
1044,0.27974743,0.39029032,-1.393065,-0.11173755,44
1045,1.1035923,-0.8400014,-0.5224562,1.4526868,45
1046,-0.42818677,-2.0921211,-1.9598125,1.412396,46
1047,-0.4050237,0.38391855,-1.4665489,1.2772126,47
1048,0.9771181,-0.60310066,0.59015656,0.9610281,48
1049,-0.95391613,-0.49084625,-2.2361166,-0.173617,49
1050,0.35002068,-0.72698927,-0.41278297,1.5653534,0
1051,0.2271784,-0.69597757,-1.7076232,1.4416343,1
1052,0.9398909,0.8111585,1.0368702,2.095432,2
1053,1.2614949,-0.19421214,-0.009784102,1.7299013,3
1054,0.28005517,0.11290121,0.09838945,1.6579498,4
1055,1.7915723,-0.1462236,0.14046857,2.8805408,5
1056,1.8908627,-0.5745152,-0.3154384,1.2970662,6
1057,0.006263852,-1.0880933,-2.4049084,1.7323419,7
1058,0.074995935,-1.3925846,-1.8391879,0.94091976,8
1059,1.0010912,0.07112184,-2.04551,1.0506713,9
1060,0.5551406,0.1695131,-2.1043196,1.0017601,10
1061,0.60377324,-0.20709932,-0.5754065,1.0184562,11
1062,0.86625314,-0.59039044,-2.143006,1.7287047,12
1063,1.0465139,0.061556637,0.25821006,1.298397,13
1064,-0.382892,1.1841502,-0.28676617,1.3493309,14
1065,-0.3655665,-1.3910834,-0.18521589,0.17554843,15
1066,0.94246566,-0.71040434,-0.22726849,-0.10080337,16
1067,-0.09824672,0.98638606,-1.1417251,0.6458208,17
1068,0.4728067,-0.9911629,0.085821755,0.9590807,18
1069,0.042494297,-0.9526719,-0.95150805,1.1635311,19
1070,0.8085156,-0.34560287,-0.85500777,2.1769783,20
1071,-0.030143142,-0.37671122,-1.6222355,1.6006507,21
1072,-1.6927143,0.033788085,-0.14872873,-1.355315,22
1073,0.45896155,-0.11766678,-1.2394459,1.7238175,23
1074,-0.046871305,-0.184394,-0.10425016,1.0975162,24
1075,0.2104919,-0.55932,-0.29935983,1.5098965,25
1076,0.14779949,-2.0911832,-2.1965349,1.9084048,26
1077,1.0868574,-0.85558736,0.29157,2.057658,27
1078,1.5528216,-0.024422169,0.6114381,1.2133881,28
1079,0.77938634,-1.0376447,0.27698642,0.57541716,29
1080,-1.3778377,1.3176087,-1.990408,-0.41219234,30
1081,0.7979065,-1.2582761,-0.1286053,0.6490458,31
1082,-0.5990609,0.014912993,-1.9178662,1.1479063,32
1083,1.4587731,-0.6012059,0.31873488,1.6404477,33
1084,0.4885172,-1.2431395,-0.27015808,1.2235564,34
1085,0.37867963,-0.9308164,-0.22135606,0.706761,35
1086,1.4415855,-0.7235887,0.063432455,1.2391158,36
1087,0.9061133,-1.6924267,-0.70520175,1.1134651,37
1088,0.43612954,0.37302506,0.31211698,0.8377589,38
1089,1.3213909,-0.52612597,-0.6168068,2.180983,39
1090,-1.7007774,0.9405892,1.3357365,1.8259516,40
1091,0.23063341,-0.9875629,-1.1571193,2.7580762,41
1092,1.1047947,-0.87848985,0.8949593,1.0717269,42
1093,1.0852846,-0.63470364,0.014358342,1.1948254,43
1094,0.2151369,0.49942744,-1.0664669,1.4271505,44
1095,0.21706545,-1.9579225,-1.4617677,1.0199088,45
1096,1.0103356,-0.7916646,-0.39439452,1.3947151,46
1097,0.2243286,1.4969381,-2.3901515,0.07158971,47
1098,0.9341928,-1.0350134,1.0749278,0.40949744,48
1099,0.3172055,1.3173852,-0.09130514,3.2823377,49
1100,0.5513205,-2.204556,-2.5279257,1.4098672,0
1101,0.35847127,-0.3580767,-1.7929552,1.1628387,1
1102,-0.99433655,-0.74382985,0.19415429,1.1905695,2
1103,0.6466634,-0.9530921,-0.5128994,0.3369534,3
1104,1.265763,0.35785556,0.20678431,2.5033967,4
1105,1.1657186,-0.7200806,-0.27003735,2.8511686,5
1106,0.3603264,-1.6460071,-0.37980434,0.303407,6
1107,0.31602958,-0.49282277,-1.5047326,1.8594469,7
1108,0.9178853,-0.787375,-1.6784215,1.6315101,8
1109,0.115112215,-0.011590183,-1.9602176,-0.3966608,9
1110,-1.0518241,-0.36731303,-0.34083498,2.0437956,10
1111,-0.60612607,-1.037462,-1.3034197,1.9103721,11
1112,1.217279,-0.2408338,-1.5500932,1.4315577,12
1113,0.5468678,-0.7017807,-0.58884186,1.3812652,13
1114,-0.08253479,0.97604,-1.269154,1.4925206,14
1115,1.7659986,-0.7735718,-0.67214197,1.4003516,15
1116,0.5875993,-1.182507,-0.20655185,-0.049001403,16
1117,-0.36946267,1.068584,-1.0664922,1.4084725,17
1118,1.1190326,-1.0863948,0.20049208,0.94378245,18
1119,1.177587,-0.2824862,-0.7117685,1.8803461,19
1120,0.8215531,-0.6704407,-1.621207,2.1384773,20
1121,1.2196376,-0.17887014,-2.5493968,2.1379128,21
1122,-1.2061545,0.11056882,-1.0770171,-0.4513833,22
1123,0.5072428,0.06754817,-0.70733356,1.850003,23
1124,0.93344533,0.36452413,0.21217239,1.7271152,24
1125,0.94970965,0.102443755,0.5250769,1.895308,25
1126,1.8588079,-0.12798929,0.21745706,1.9578965,26
1127,0.23365623,-0.78463084,-0.22434835,1.7721858,27
1128,0.5976387,-2.3523817,-2.571236,1.4616141,28
1129,-0.10364163,-2.41505,-1.1931665,0.80260354,29
1130,-0.7568447,1.2757075,-0.6214201,1.8999819,30
1131,0.9375921,-1.7241592,-0.9152279,1.4648615,31
1132,0.1713348,0.99679124,-0.8277154,0.7540336,32
1133,1.0282611,-0.22028697,-0.2664715,1.4393091,33
1134,1.1525564,-0.75226724,-0.26467466,1.3194734,34
1135,1.3478943,-0.38798785,-0.027864993,0.5141585,35
1136,1.2709517,-1.4855332,-1.2746236,1.5174037,36
1137,1.9562445,0.01667595,1.4620168,1.9237146,37
1138,0.44645765,-0.39232516,-0.59292686,0.14655128,38
1139,0.98971224,-0.68016106,0.34583008,2.0378866,39
1140,-1.988355,0.33412403,-0.17285529,0.096087575,40
1141,1.4366686,0.044747174,-0.14001805,2.0536623,41
1142,0.25512302,-1.4368614,-0.61444837,1.0545354,42
1143,1.454606,-1.2334639,-0.40697762,1.625681,43
1144,1.0198829,0.90394026,-1.3247772,1.0433192,44
1145,0.10393864,-1.1770588,-0.80994475,1.5208542,45
1146,1.0643086,-1.3261867,-1.2566264,1.8625166,46
1147,-0.48345536,0.15394288,-2.4642413,3.0873392,47
1148,0.26986092,-1.1920676,-0.22632849,0.5537915,48
1149,-0.14301327,0.61030865,-0.23119545,1.3030281,49
1150,0.6804137,-0.4634242,-0.4432222,1.3971906,0
1151,2.3035302,0.7046389,-0.8595407,1.5979412,1
1152,-0.49523744,0.5859608,1.5414594,1.0054967,2
1153,-0.8384722,-2.1011596,-1.9677974,0.62956417,3
1154,1.0220467,-0.34727404,-0.595879,1.4601961,4
1155,1.2900836,-0.88868684,-0.49836248,1.9515369,5
1156,1.2812355,-1.1565691,-0.9060167,1.3405076,6
1157,-0.21129274,-1.2675085,-2.60491,1.9394901,7
1158,1.0227587,0.3023358,0.52085876,2.4041343,8
1159,1.7299478,1.2807866,-0.9121456,1.6564746,9
1160,0.47481927,0.41854703,-1.9946556,0.9917239,10
1161,0.7252216,-0.0639354,-0.8434168,2.1252666,11
1162,0.192723,-1.3678535,-3.1348495,0.97672665,12
1163,1.2633137,-0.77447784,-1.434691,1.155772,13
1164,-0.14503077,0.80698836,-1.3426585,1.142007,14
1165,0.5980433,-1.2243196,-1.5300815,1.7948096,15
1166,1.9107959,-0.42302385,0.3565529,-0.30006826,16
1167,0.009145141,1.419444,-1.4969833,0.84797716,17
1168,-0.19763267,-1.7607007,-0.6528423,1.1887438,18
1169,0.13858783,-1.0018855,-0.94169736,2.3878064,19
1170,0.5537382,-0.38406587,-0.8150141,1.8498949,20
1171,0.9972596,0.029198505,-2.0500398,0.7430278,21
1172,-1.1445788,0.50609654,-0.6084488,1.597869,22
1173,0.16549909,-0.4490125,-1.3931413,2.2107906,23
1174,0.81818956,-0.23096776,-0.25270456,1.8245375,24
1175,1.5536268,0.12799197,0.5044858,1.6863497,25
1176,1.0311947,-1.0174094,-0.44279045,1.5137626,26
1177,2.0795116,-0.45521155,-0.34926698,1.9336599,27
1178,0.30522227,-1.0984485,-0.2092956,1.1958398,28
1179,-0.006370604,-1.3004608,-0.193178,0.53742075,29
1180,-2.2577806,-0.29309678,-1.0311943,0.5573088,30
1181,2.046635,-0.9023962,-0.06679532,1.8163478,31
1182,0.5450007,0.75839794,-1.531145,1.5740178,32
1183,1.5805919,-0.97125524,-0.45427638,1.8172319,33
1184,0.83460236,-0.28167146,1.0457463,0.5457729,34
1185,0.5844637,-1.9633428,-0.96401936,0.31938618,35
1186,1.8890601,0.1415081,1.1686078,1.3563622,36
1187,0.5437696,-1.244315,0.6364392,0.31799287,37
1188,0.34823087,0.3414566,0.076030225,0.8380266,38
1189,0.74768937,-0.8808155,0.33616012,0.26145077,39
1190,-1.6197023,0.3425859,-0.96923506,1.6437293,40
1191,-0.088392615,-1.7551324,-1.8617008,0.76675844,41
1192,0.3582369,-0.99699557,1.1119473,0.94301665,42
1193,0.06302273,-1.9037921,-0.90344816,0.5074652,43
1194,0.19507657,0.30878037,-1.1634581,1.0057884,44
1195,1.1784085,-1.1240324,-0.40696135,1.2422469,45
1196,0.509783,-1.093803,-0.7055272,1.8622315,46
1197,0.1262022,1.7007715,0.28635955,0.77067715,47
1198,1.5073347,-0.6208083,-0.70982873,1.469518,48
1199,-1.4961107,-0.5363928,-1.5957015,-0.23868477,49
1200,1.7260547,0.39350432,0.17836952,2.293346,0
1201,0.2791153,-0.5388528,-1.689849,1.6230977,1
1202,0.7949117,0.6048479,1.0023185,1.529434,2
1203,0.13260007,-0.76323974,-0.008226037,0.5514187,3
1204,0.962901,1.2992045,1.0949376,0.7758489,4
1205,0.6508145,-0.8322845,-0.0022615492,1.1619784,5
1206,1.0840195,-0.40121067,0.36242554,1.5142376,6
1207,-0.2749986,-0.7428196,-1.3767027,1.117559,7
1208,1.233529,-0.030156791,-0.52302665,2.403656,8
1209,1.3422681,0.88052607,-1.4288688,3.1450286,9
1210,-0.39491755,-0.08905369,-1.160142,2.6709251,10
1211,2.6903286,0.6449442,-1.2290837,2.122026,11
1212,0.5897178,-0.62105733,-2.0233865,1.7134299,12
1213,-0.16017938,-1.1217452,-1.0532875,0.49045122,13
1214,-0.27304488,1.3148848,-0.4195633,1.2153842,14
1215,0.8694003,-0.6227995,0.074239045,0.45580667,15
1216,1.3026284,-0.6019852,-1.0934805,1.036046,16
1217,-0.41914958,1.3950787,0.09687984,1.8737411,17
1218,1.2766345,-0.9318065,-0.62054485,1.746928,18
1219,1.3769256,-0.16913062,-0.57923925,1.7324133,19
1220,1.6017194,0.6543503,0.14284492,1.0086379,20
1221,1.0436159,0.03677479,-1.8720764,1.5309048,21
1222,-1.1990471,0.36974367,-0.18270546,2.1489506,22
1223,0.97642744,-0.034217983,-1.8399403,1.0257828,23
1224,0.2316031,-0.10517672,-0.2316382,0.92360675,24
1225,0.54413927,-0.36251873,0.14115489,0.6372377,25
1226,1.5530806,0.123903334,0.17435116,1.5286002,26
1227,0.8449398,-1.1342474,-0.5486477,1.8302025,27
1228,0.51827013,-1.3509388,-0.88255286,0.7549684,28
1229,1.321316,0.15370893,0.5995524,1.5468043,29
1230,-1.200053,1.4090133,-0.83003026,2.1007707,30
1231,0.94410104,-1.373626,-0.714844,1.0721812,31
1232,-0.591597,0.179091,-0.9533967,1.8489529,32
1233,0.54057366,-2.3748817,-2.0745862,0.7300299,33
1234,0.7897674,-1.5942544,-1.3611689,1.2240951,34
1235,1.1710622,-1.2090833,-0.402518,0.5748366,35
1236,1.1273232,-1.6334403,-1.6052885,1.3873067,36
1237,1.1282914,-1.8997216,-0.92265046,1.107142,37
1238,0.98119426,0.4645627,-0.02716291,0.6063589,38
1239,0.3350495,-1.3657773,0.029338956,1.3718817,39
1240,-1.2893641,0.426665,-0.89353466,-0.19517088,40
1241,0.06822479,-0.9459917,-1.0207052,1.0963149,41
1242,0.91036034,-1.492373,-1.048717,1.351125,42
1243,0.12914264,-2.0659463,-0.77458537,0.48243773,43
1244,1.0929501,1.1930676,-0.80153525,0.6855353,44
1245,0.4630114,-1.4441742,0.008260399,0.70361006,45
1246,1.212389,-0.71503615,-0.39472148,1.6601837,46
1247,-0.3318276,0.57766557,-1.364058,1.409109,47
1248,-0.012141705,-2.8875315,-1.9136901,0.07713038,48
1249,0.49492782,0.9216027,-1.0612134,-0.024459004,49
1250,0.043067455,-1.3685255,-1.6476928,1.5531964,0
1251,0.8185849,0.104429424,-0.6238736,1.6548455,1
1252,-0.61191714,-0.80206656,-0.67241037,1.3709542,2
1253,1.3233044,0.01829487,-0.37503672,2.5997024,3
1254,-0.22220749,-1.9789306,-2.2378366,1.8003788,4
1255,0.64902794,-0.9299671,-0.03759548,1.6982003,5
1256,0.21802312,-1.8409432,-1.5748289,0.5606934,6
1257,1.4503031,-0.28909618,-1.967888,1.4520446,7
1258,0.52380735,-0.8316267,-1.3834208,1.3641579,8
1259,0.78010106,0.99215305,-0.17459726,3.066246,9
1260,0.121568345,0.7114527,-0.36478746,2.1388922,10
1261,1.7122589,-0.18462238,-1.9948125,1.9983453,11
1262,0.81373024,-0.46821624,-1.634391,1.3822424,12
1263,0.7427349,-1.0308894,-1.0755786,1.663133,13
1264,-0.771571,0.49796015,-0.73097575,1.3620725,14
1265,0.7934094,-0.56123114,0.27475384,2.372757,15
1266,1.0706179,-0.78869236,0.17222987,0.2405563,16
1267,-0.025511473,1.3454766,-1.1114722,1.9194942,17
1268,1.7769791,-0.41303396,0.5423044,1.8309321,18
1269,-0.13159448,-1.4623966,-2.0206344,1.1134074,19
1270,-0.09783518,-0.31137863,-0.3438306,1.7220654,20
1271,0.7172624,-0.15401244,-1.5568285,1.5825993,21
1272,-1.2198793,0.35415643,-0.40260592,0.5233148,22
1273,-0.0983817,-0.6014668,-1.3181171,1.8358266,23
1274,0.32322195,-1.0937918,-1.2972903,2.0024211,24
1275,0.9058436,-1.012841,-1.2403761,1.7284986,25
1276,0.37658376,-1.3911693,-0.7952686,1.056384,26
1277,1.3053759,-0.7341757,-0.41531193,1.2345428,27
1278,0.644431,-0.9935779,-0.46480724,0.77904737,28
1279,1.8997121,-0.36846942,0.12335712,1.4157572,29
1280,-2.379403,0.025846481,-1.2165966,1.5874876,30
1281,0.87238437,-0.9714973,-0.38652664,1.895726,31
1282,-0.55408144,0.46662173,-0.8716824,2.4253433,32
1283,1.4272504,-0.7617059,0.34068704,0.87388873,33
1284,-0.32537895,-2.1961353,-1.3374339,0.1347785,34
1285,0.7704785,-1.090303,-0.4663662,0.515995,35
1286,0.25934982,-0.5985168,0.64654493,0.47563308,36
1287,0.92603385,-1.5604354,-0.11399716,1.040624,37
1288,0.4008724,-0.46772075,-0.67612576,1.2736497,38
1289,1.1903524,-1.5440483,-0.74660337,1.6555382,39
1290,-0.4679097,0.90448284,-1.521002,0.9930906,40
1291,-0.44842148,-1.1112634,-0.89252037,1.1848708,41
1292,1.2574763,-1.3702558,-0.9685361,1.0223801,42
1293,0.54229146,-1.2889054,0.01381433,0.1948849,43
1294,0.6696826,0.93565947,-0.32724166,1.8284587,44
1295,-0.023270726,-0.83407336,-0.25378153,1.1166276,45
1296,0.65949684,-1.4763719,-0.80230427,0.65329045,46
1297,-0.8931278,-0.080515504,0.108585835,0.48889267,47
1298,1.2835681,-0.10640669,1.480245,1.3496042,48
1299,-0.88961166,-0.015693903,-0.35927248,1.1081376,49
1300,1.594521,-0.54787457,-1.1277844,0.74748635,0
1301,0.6595126,-0.5092268,-2.2061696,1.3039873,1
1302,-0.19859943,-0.283486,0.2544936,1.4525511,2
1303,1.4907141,-0.29485643,-0.7772567,1.3789188,3
1304,0.11543766,-0.8490123,-1.3226738,0.16734135,4
1305,0.061599553,-1.8819801,-1.3615543,0.8510192,5
1306,0.21973878,-1.5265326,-0.512236,0.06877959,6
1307,0.6502998,0.090434015,-0.41937447,3.113916,7
1308,0.49347016,-0.85269284,-1.2049763,2.5006921,8
1309,0.030460417,-0.02445826,-1.492764,1.9486243,9
1310,0.6039934,0.49027073,-1.8623853,2.0331438,10
1311,1.3943372,0.14891261,-1.0234902,-0.26183414,11
1312,0.6150155,-0.41746745,-1.1377883,1.6948222,12
1313,0.51908225,-0.76547277,-0.37737978,1.9668641,13
1314,-0.3189935,1.1196973,-0.41840488,1.4134578,14
1315,1.3643527,-0.56924117,0.008271813,1.6712179,15
1316,0.9838861,-1.3762349,-0.28568763,-1.3369733,16
1317,-0.31789908,0.8742552,-2.0309925,0.5231357,17
1318,-0.15774465,-1.679774,-0.98536056,0.67296374,18
1319,1.1652069,-0.15356076,-0.09217942,2.6525269,19
1320,0.49900392,-0.29304644,-0.40126902,2.1183581,20
1321,0.014941543,-0.36282745,-1.5282688,1.8680457,21
1322,-1.2400763,-0.32471895,-1.3333533,0.84480214,22
1323,0.48811102,-1.1416256,-3.2949133,1.0655618,23
1324,-0.16333026,-1.1900108,-1.2933114,1.7780488,24
1325,0.44346437,-0.43194926,-0.055642903,1.8200364,25
1326,1.4971303,-0.18834436,0.19682622,2.6296449,26
1327,0.19046038,-1.5247068,-0.84190625,0.66407615,27
1328,1.4537966,-0.72824734,-0.8451117,2.0397851,28
1329,0.9058449,-0.7154273,0.05245447,0.91590756,29
1330,-0.87889737,1.4402362,-0.9352158,0.7851455,30
1331,0.48688978,-1.6413373,-0.60206777,1.1161184,31
1332,-0.40304878,-0.09683451,-2.10641,0.38011354,32
1333,1.9391139,-0.09796393,0.6536153,1.5264316,33
1334,0.20920116,-0.9586581,-0.9090198,1.6213657,34
1335,1.3241096,-1.0078485,-1.1253145,1.0660272,35
1336,0.52324903,-1.686388,-1.2339264,1.0381622,36
1337,1.147526,-2.1160717,-1.010776,0.74175876,37
1338,0.45175666,-0.08416945,-0.4579826,0.35093692,38
1339,0.8433792,-1.7583742,-1.1775669,1.3357158,39
1340,-1.7018697,-0.29744047,-1.4301901,1.7299073,40
1341,0.746834,-0.08719444,-0.34533194,2.2810087,41
1342,0.24553543,-0.9800186,0.39832774,1.1053636,42
1343,-0.14480257,-1.5131779,0.24353045,0.33343035,43
1344,-0.0663673,-0.2570368,-2.2127323,-0.07087058,44
1345,1.637294,0.6299141,1.6658621,1.0597676,45
1346,0.79951763,-0.47651872,0.12897193,1.8958259,46
1347,0.17948133,1.5636829,-0.9987301,2.0977335,47
1348,1.5729231,-0.55980825,0.93894124,1.1847293,48
1349,-1.2107427,-0.5377439,-1.3500053,1.2220372,49
1350,-0.36963612,-0.8160705,-0.26146355,0.35782945,0
1351,0.36058637,-0.6128762,-1.956417,1.6225102,1
1352,0.006575674,0.060301185,0.91702086,1.1273347,2
1353,0.12512422,-1.780587,-1.581555,1.1119609,3
1354,-0.3477223,-1.3088539,-1.4812125,2.21596,4
1355,1.7597752,0.914896,1.6620549,1.6860493,5
1356,1.3170907,-0.6727854,0.27731284,1.0104841,6
1357,0.9989093,-0.6358026,-2.28398,1.6372575,7
1358,0.058625877,-0.8079945,-1.4412887,2.001182,8
1359,0.32025474,-0.0568389,-2.0812247,0.5170902,9
1360,0.1372547,0.13509618,-2.130143,1.1679785,10
1361,1.0572163,0.47282505,0.16612184,3.2630048,11
1362,-0.10910559,-0.6635303,-1.3447648,1.0489066,12
1363,-0.34027922,-0.9402287,-0.382601,1.3395491,13
1364,0.42601213,1.2344456,-1.683485,0.89282274,14
1365,1.6217391,-1.0582137,-0.68611705,1.4980376,15
1366,1.7923207,-0.7957588,-0.10436167,-1.3983321,16
1367,-1.2501786,0.35132053,-0.08780527,1.6419545,17
1368,0.25305337,-1.2927942,-0.7539239,0.9858042,18
1369,1.4591607,-0.52273804,-0.86726105,2.8992581,19
1370,-0.71458477,-1.2301188,-1.2127042,0.8129277,20
1371,0.37773958,-0.46573177,-2.011856,1.366393,21
1372,-0.7772469,1.1208689,0.5024106,1.9395015,22
1373,0.3662001,-0.21067475,-1.509818,0.6325945,23
1374,1.028023,-0.9149895,-0.9420788,1.9947422,24
1375,0.39987588,0.06596345,0.6842833,2.359186,25
1376,-0.17587763,-2.1040752,-1.821965,0.7988107,26
1377,1.6061225,-0.8820992,0.07415162,2.4822576,27
1378,1.6155382,-0.18847346,0.43743104,1.185136,28
1379,1.0444857,0.28259003,2.256077,0.7922344,29
1380,-1.4141661,1.3964905,-1.76936,2.0061255,30
1381,0.36566603,-1.5247579,-0.30464795,0.7303524,31
1382,-0.39852783,0.8922863,-0.10752034,1.7714355,32
1383,0.04530382,-2.544065,-1.704564,0.30835927,33
1384,0.36401033,-1.8061917,-1.012535,1.2549025,34
1385,0.31947595,-1.6570368,-1.1922204,1.4532416,35
1386,0.35931545,-1.8886806,-1.431829,1.187145,36
1387,0.6643286,-0.94611275,0.9043503,1.2706802,37
1388,-0.70193464,-0.8564936,-0.61895555,0.16286767,38
1389,1.4050862,-0.16302544,1.3263398,1.2880205,39
1390,-1.3726934,0.76080495,0.84308666,1.1515429,40
1391,-0.16541308,-1.8012426,-1.9792559,1.1502695,41
1392,-0.3311751,-2.0253122,-0.6698869,1.5325654,42
1393,0.6682796,-1.6312546,-1.3004085,1.085009,43
1394,0.31066352,0.763579,-0.48206466,1.265357,44
1395,0.2628116,-0.54452133,-0.03452292,1.2208779,45
1396,1.090209,-0.6866832,-0.23925894,1.8006523,46
1397,0.5117432,1.9934626,-0.89757514,1.0752206,47
1398,1.6884589,-1.1304082,-0.49776003,1.1540561,48
1399,-0.46503824,0.411525,-0.90398204,0.4328848,49
1400,1.0996346,0.3725142,0.26058787,1.5489793,0
1401,1.2450385,0.33206856,-0.9614698,1.3347834,1
1402,0.45071644,0.93003833,0.72209126,2.1843436,2
1403,1.526709,-0.7663241,-1.1106006,1.6145904,3
1404,0.35881862,-0.74059284,-0.93931293,0.6860589,4
1405,1.1505703,-0.3775724,0.30128416,2.926238,5
1406,0.93952066,-1.3825655,-0.39330024,1.6256527,6
1407,0.48347744,-0.8814723,-2.1476197,1.0702689,7
1408,0.3523736,-1.0484499,-1.6028503,0.008244276,8
1409,0.48039806,0.4563403,-1.5152389,1.4789089,9
1410,-0.23354223,-0.23746061,-1.7794584,1.6116595,10
1411,1.3817542,-0.5259658,-2.4868166,1.0153985,11
1412,-0.053696334,-0.8663713,-1.5871432,1.8884516,12
1413,0.37134135,-0.30950412,0.00028979778,0.6879067,13
1414,-0.88129634,-0.12731898,-2.1975965,-0.47293806,14
1415,1.7253367,-0.0970934,-0.1965431,2.4887447,15
1416,1.4573052,-0.37359363,1.0317137,-0.26880985,16
1417,-0.76358116,0.5198405,-0.80261093,0.7548827,17
1418,1.425232,-0.18419331,1.4129443,1.1356913,18
1419,0.07202804,-1.7351058,-2.1264663,0.99829483,19
1420,-0.2906983,-1.4625039,-1.9323213,1.1596978,20
1421,0.38174546,-0.08935622,-1.1943135,2.4679081,21
1422,-1.3157046,0.10355395,-1.3867934,-0.001044631,22
1423,-0.34847862,-0.6187097,-1.5542164,1.3059564,23
1424,0.9290405,-0.1175088,-0.00063985586,1.4554825,24
1425,-0.55986047,-2.246084,-2.1001055,0.8957702,25
1426,0.7272295,-1.247742,-1.446929,1.5715886,26
1427,0.19755387,-1.7351735,-1.1765867,0.7038798,27
1428,0.5763558,-1.2472196,-0.31252927,0.81206155,28
1429,1.5752821,-0.55734277,0.7951087,0.9731775,29
1430,-1.7262964,0.548763,-0.60126746,0.6152219,30
1431,2.073205,-0.45716769,0.4820022,2.0798583,31
1432,-0.38932866,-0.04082951,-2.1302357,1.0230544,32
1433,1.6926657,-0.8831943,-0.61447275,2.1099,33
1434,0.83961105,-2.033588,-1.5682598,1.2080758,34
1435,0.756173,-1.2392855,-0.70223045,0.53769803,35
1436,2.1510186,0.2073921,0.41995168,2.0908523,36
1437,1.6064163,-1.2846485,0.90531015,0.87230635,37
1438,1.2177815,0.32742965,-0.6631092,-0.03775549,38
1439,2.3126807,-0.47373313,-0.11765077,1.8954207,39
1440,-2.076111,0.3799286,0.39172226,1.176191,40
1441,1.2840745,0.31441534,0.08353782,2.5883927,41
1442,2.4750288,0.38295686,0.88071436,2.702362,42
1443,1.8290379,-0.9558501,-0.53973407,1.5243781,43
1444,0.17220274,0.21660683,-1.427607,0.793854,44
1445,1.7739027,-0.91233075,-1.1101816,1.7586033,45
1446,0.07892978,-1.4149425,-1.5622241,1.3504571,46
1447,-0.13354771,0.996506,-0.84318185,1.291965,47
1448,1.6706865,-0.5449478,0.8957882,1.2865098,48
1449,-0.9521234,-0.06151025,-0.7592906,0.0760591,49
1450,0.8215046,-0.2711876,-0.37477288,1.9013362,0
1451,0.7396243,-0.5665705,-2.5537415,1.6906135,1
1452,-0.97197276,-0.9285882,0.09041312,0.8134546,2
1453,0.9435645,-0.77575314,-1.0041335,1.0803812,3
1454,0.22382519,-0.7262553,-0.85882145,0.4682032,4
1455,0.7815775,-0.93404853,-0.4273638,1.6846236,5
1456,0.67394495,-0.5757047,-0.20423093,1.7308214,6
1457,0.90958583,-0.040806502,-1.2222207,1.7128514,7
1458,1.2816528,-0.28778586,-0.8014685,2.1101997,8
1459,0.7643955,0.64941967,-0.9106263,2.0786402,9
1460,-0.039213,0.2962177,-1.398135,1.228882,10
1461,-0.14453626,-0.97591305,-1.3252668,2.0705814,11
1462,0.74317294,0.13961107,-0.5710408,2.8814201,12
1463,0.032169282,-0.19549191,0.06495118,1.5371703,13
1464,-0.40633145,0.5311262,-1.6118826,1.1472688,14
1465,0.93637955,-0.64947546,-0.07666847,1.846171,15
1466,1.122623,-0.3734681,0.75515974,1.0432338,16
1467,-0.30832228,1.0203898,-1.3521128,1.4257282,17
1468,0.74432194,-1.0404464,0.03859476,0.99087346,18
1469,0.13111562,-0.9538462,-0.86858,1.4061131,19
1470,-0.49985236,-1.424276,-1.8252392,0.5264408,20
1471,1.2036154,-0.10522323,-1.9844881,2.3523207,21
1472,-1.6415408,-0.019937336,0.36425632,1.1465961,22
1473,0.9516631,0.391917,-0.73980236,2.2209318,23
1474,0.61834264,-0.08744112,-0.32169095,1.7423385,24
1475,0.8308739,-0.6144072,-0.9544986,1.2147932,25
1476,0.92833537,-0.30612844,0.28320098,1.536346,26
1477,0.69496965,-0.4906751,1.2857966,2.0366025,27
1478,0.9986206,-1.1819706,-0.75067437,1.6902925,28
1479,0.23817033,-1.392924,-0.1239631,0.837021,29
1480,-0.5685331,1.6351697,-1.40095,0.29432195,30
1481,0.008924723,-2.3014112,-0.45580143,0.16823888,31
1482,-0.14071715,0.46375293,-1.5779644,1.0333579,32
1483,2.404294,-0.18695837,0.30022413,2.610989,33
1484,1.43316,-0.13855714,-0.09398253,1.3342211,34
1485,0.4322244,-2.077148,-1.7310548,0.11378425,35
1486,1.6912429,-0.9115149,-0.20638168,1.2756548,36
1487,0.2555477,-1.8316088,0.4301152,0.7082595,37
1488,0.17709169,-0.65427047,-0.9625629,0.53018814,38
1489,0.40518436,-1.8378916,-0.53568995,1.9843042,39
1490,-0.75071955,1.2757213,0.31946748,1.7636675,40
1491,0.4104477,0.0019534826,-0.11770451,1.2455456,41
1492,1.1869264,-0.8041115,0.8513895,1.8133177,42
1493,1.5345199,-0.9098927,0.2707952,1.3903644,43
1494,0.13652737,0.18828881,-1.3334017,1.0192753,44
1495,2.177099,0.8760448,1.6371682,1.2554591,45
1496,0.763681,-0.5391584,-0.09247649,2.1747518,46
1497,-0.30740845,0.8607091,-0.42131805,1.1055346,47
1498,1.2270464,-1.0071758,0.6167575,0.6934465,48
1499,-0.75342995,0.1730056,-0.8338058,1.4328191,49
1500,0.30785236,-1.2541511,-1.3331435,1.6555709,0
1501,0.54015404,-0.5168226,-2.0374532,1.7311698,1
1502,-0.415064,0.0674348,0.6652913,1.0813231,2
1503,0.26053262,-1.3385231,-1.5701166,0.9200103,3
1504,0.43560708,-0.8716844,-1.0837727,1.1795251,4
1505,1.287622,-0.6397648,-0.17456944,1.4995227,5
1506,1.110714,-1.0268414,-0.7120868,1.273662,6
1507,0.58639514,-0.5416942,-1.9980832,0.93248343,7
1508,1.4016387,-0.28966978,-1.2629148,1.6363614,8
1509,0.47623116,0.21491984,-1.5089334,1.4927212,9
1510,0.254824,0.5556139,-1.4210504,1.946665,10
1511,-0.5760412,-1.2977625,-2.3065238,0.89046276,11
1512,0.47603017,-0.35071117,-1.371417,2.473428,12
1513,0.7784351,-0.5316918,-0.3555089,1.477093,13
1514,-1.1526965,0.39244422,-0.9844667,1.0940511,14
1515,0.77282584,-0.2919646,-0.029121637,1.9156733,15
1516,-0.10422993,-1.6005116,-0.26116177,-0.17916057,16
1517,-0.9605122,0.6542003,-0.7957621,0.97761357,17
1518,0.4460091,-0.8934896,-0.14615208,0.96337306,18
1519,0.65642685,-0.371709,-0.8757643,2.6728084,19
1520,-0.39871043,-1.0123764,-1.4174166,1.0237793,20
1521,1.2678821,0.63990045,-1.541411,1.6491606,21
1522,-0.9596306,0.37763917,-0.60318,1.6450422,22
1523,-0.37871957,-0.45037633,-1.0429953,0.9588081,23
1524,1.2939899,0.45444328,0.4884882,1.4328592,24
1525,-0.0309273,-0.9349475,-0.6876833,1.2371147,25
1526,0.5224467,-1.5522391,-1.395625,1.400224,26
1527,1.0598305,-0.7488353,0.15911926,1.0640422,27
1528,1.596798,-0.10937798,-0.111499816,1.9729809,28
1529,0.98721564,-1.2585094,0.21674553,0.7927933,29
1530,-0.9583653,0.9402788,-1.6859865,1.0980401,30
1531,2.230766,-0.19203687,-0.026430845,1.7751796,31
1532,-1.4995828,-0.48660466,-1.0911336,1.0085193,32
1533,1.2252325,-1.3936882,-0.5539454,1.4616773,33
1534,0.9505642,-2.0307214,-1.8192338,0.77338696,34
1535,2.3413079,-0.17987144,0.1488396,0.8446263,35
1536,0.7040515,-1.3513324,-0.4992877,1.4293851,36
1537,0.70728654,-1.4540142,0.18650517,0.9822484,37
1538,0.29456678,-0.34734148,-0.46510226,0.9009452,38
1539,1.1957625,-0.57787955,0.7412981,1.398844,39
1540,-1.2502824,1.253642,1.699347,1.4799098,40
1541,0.9403377,1.203135,1.2624679,1.9486275,41
1542,2.2462888,-0.043988824,0.2934033,2.754774,42
1543,0.04508841,-1.3762723,0.5956963,0.4830551,43
1544,0.82243586,0.9527,-1.1998631,0.93934906,44
1545,1.7407415,-0.2058757,-0.4400657,2.11015,45
1546,1.1666445,-0.35251987,-0.11837387,1.5780238,46
1547,-0.010807812,1.0891823,-2.0818741,1.7100439,47
1548,1.1016839,-0.7157668,0.62592566,0.6667845,48
1549,0.53265166,0.8982545,-1.9138339,0.80776083,49
1550,0.9514765,-0.51792145,-0.75466025,1.1753081,0
1551,-0.021315068,-0.7684107,-2.1452944,1.1934679,1
1552,-0.0372411,-0.16949517,0.44028524,1.393995,2
1553,-0.1975159,-1.602031,-1.6126108,0.44158596,3
1554,1.3550711,0.33094323,0.17458147,1.8770174,4
1555,-0.17770112,-1.820462,-0.88572896,1.3562056,5
1556,0.46639484,-1.3977729,-0.63093483,1.0985031,6
1557,1.0295777,0.28638226,-0.87882537,2.075562,7
1558,-0.0578022,-1.7752206,-2.6273828,2.0345843,8
1559,-0.41878718,-0.3436601,-1.9520879,1.8649349,9
1560,0.50432044,0.32723844,-2.302646,0.67645466,10
1561,1.2093477,-0.6248089,-2.5462925,0.64852077,11
1562,-0.05884093,-0.8037626,-1.5768073,1.9071989,12
1563,0.7040147,-0.175134,-0.15461764,0.7282794,13
1564,-1.0363396,-0.25503898,-1.7326214,1.3343103,14
1565,0.9657629,-1.1742127,-1.0979252,1.8862033,15
1566,0.45186895,-0.9807085,-0.62034255,0.8435714,16
1567,-0.4530174,0.6311499,-1.8258636,1.2730916,17
1568,0.86291456,-0.5327565,0.5471662,1.3055485,18
1569,0.44007316,-0.93326694,-1.1872615,1.7249455,19
1570,0.1966103,-0.091567755,-0.17972422,1.567364,20
1571,0.37797529,-0.26157227,-1.8608667,1.0350821,21
1572,-0.8038174,0.51142764,-0.66709805,2.0915067,22
1573,0.8161486,0.31569922,-0.27760518,1.3641746,23
1574,0.30447066,-0.19637802,-0.2012395,0.9761003,24
1575,0.61862683,-1.214658,-0.9904417,1.2532293,25
1576,1.1625804,-1.1123602,-1.2430084,2.0305367,26
1577,0.8659031,-0.44022137,-0.48865438,2.0682504,27
1578,-0.26944357,-1.8030484,-1.9291139,1.2861407,28
1579,0.3166201,-1.9933274,-2.4580448,0.65608597,29
1580,-1.447135,1.2283648,-1.2218989,0.37589294,30
1581,1.6967137,-0.7066766,-0.5149876,1.9791362,31
1582,-1.302969,-0.18494442,-0.31853402,1.3775829,32
1583,0.7513392,-1.9638753,-1.4407388,1.3578452,33
1584,1.2852654,-0.8309163,0.08529964,1.6223917,34
1585,1.6565505,-0.5952946,-0.14267972,0.95179915,35
1586,1.791993,-0.60638165,-0.059548944,1.7641568,36
1587,-0.55833364,-2.3708725,-0.18222454,0.18480903,37
1588,0.5198708,-0.3588861,-0.7162839,0.2625554,38
1589,1.6967351,-0.49136555,-0.2705645,2.3663054,39
1590,-1.0980601,0.34518594,-1.1317626,1.5360942,40
1591,0.8954054,-0.5126736,-0.55981505,1.9197488,41
1592,1.4903098,-0.99950886,-0.9860935,2.6096835,42
1593,1.5406091,-1.0904785,-0.12731446,0.9401535,43
1594,0.66596264,0.4327187,-1.7713763,1.3171523,44
1595,2.292972,-0.0004994273,0.24047276,1.6350307,45
1596,-0.19773746,-2.0275657,-2.564674,0.9959461,46
1597,-0.33679482,0.59573793,-1.7299844,0.7098948,47
1598,0.314745,-1.4444278,-0.53364766,1.0887697,48
1599,-1.2352328,-0.32684246,-1.1558789,0.26589847,49
1600,1.2111143,0.31655103,0.46676278,1.267554,0
1601,0.16562915,-0.64620566,-1.1598856,2.431971,1
1602,-0.7348609,-1.0833483,-0.7217704,0.96758324,2
1603,0.86329305,-1.0226799,-0.951907,0.6744849,3
1604,1.7135482,0.5287124,0.2520784,1.8320361,4
1605,0.91796404,-1.5672967,-1.3342614,1.7097657,5
1606,1.4829459,-1.3015169,-1.5833945,1.1937855,6
1607,0.73424715,-0.090532094,-0.79488236,1.4093633,7
1608,1.0840127,-0.01485163,-0.05706632,3.2834332,8
1609,0.3935929,0.06367934,-1.5361811,1.0120851,9
1610,0.034817636,0.4133376,-0.7598025,1.7165875,10
1611,0.7677375,-0.95718503,-2.8394704,0.9699859,11
1612,0.12860075,-0.61542463,-1.6170579,1.7233428,12
1613,0.6566562,-0.24714532,-0.19029489,1.55265,13
1614,-0.4784977,0.7849921,-1.2904379,1.5133791,14
1615,0.26721412,-1.8030775,-1.916414,1.0886905,15
1616,0.55320895,-0.7986564,0.46546686,-0.059505187,16
1617,0.15543711,1.0961798,-1.712331,1.6053551,17
1618,1.1552331,-0.5893569,0.19411585,0.92691547,18
1619,0.37918407,-1.2440859,-1.4607517,0.8098604,19
1620,-0.3719719,-0.74677515,-0.82967705,1.2966691,20
1621,0.6660131,0.30546856,-0.85524607,0.99192333,21
1622,-0.5747274,0.6663635,-1.685869,0.3835559,22
1623,0.6297816,0.39499933,-0.11535132,1.50999,23
1624,0.46750164,-0.7608559,-0.9472161,1.3282723,24
1625,1.2606895,-1.7096951,-2.284468,1.5348614,25
1626,1.7380214,-0.037204623,0.15680403,1.5677091,26
1627,-0.0311746,-1.5424156,-0.60042566,1.8963555,27
1628,1.3320509,-0.118270874,0.056758195,0.908814,28
1629,0.26524532,-0.78084505,0.18601048,0.5189341,29
1630,-1.6334388,1.4834021,-0.3590318,1.9130661,30
1631,1.6766696,-0.49038374,-0.29168966,1.4786776,31
1632,-0.52839655,0.3362931,-1.1378286,1.1599019,32
1633,0.9799919,-1.2653068,-0.51439524,0.64099604,33
1634,1.3100274,-0.9193404,-0.74253905,1.0619742,34
1635,1.309713,-1.0046299,-0.2912107,1.3545818,35
1636,-0.44055486,-2.1952953,-2.0353122,0.66437346,36
1637,1.5551581,-1.8143442,-0.81044817,1.2986016,37
1638,0.0022712648,-0.32428238,-0.13347435,-0.07270026,38
1639,0.566432,-0.8972948,0.086711764,0.9119848,39
1640,-1.6633054,0.0058474243,-0.81290144,1.4312987,40
1641,0.5722623,-0.3596146,-0.3534094,2.0665052,41
1642,0.9369082,-1.3962392,-0.976275,1.5263069,42
1643,1.578339,-1.55708,-1.0823051,1.9646058,43
1644,0.743441,0.83591986,-1.2807447,0.2947988,44
1645,0.46552545,-1.3673627,-0.56897336,0.97595084,45
1646,1.2620449,-0.8260927,-0.44670826,1.3754925,46
1647,-0.44002953,0.7596568,0.1866672,0.71317196,47
1648,2.6869767,0.06287944,0.69416445,1.3213787,48
1649,-1.037287,-0.44401273,-1.3713136,0.60184544,49
1650,0.82745343,0.28166765,0.7481179,2.1146674,0
1651,1.2733161,0.49889416,-0.13550913,1.4984269,1
1652,-1.2264314,-0.52503765,0.53214526,0.5676052,2
1653,0.041692793,-1.2578158,-1.2961684,1.3682177,3
1654,1.0457414,-0.8939741,-1.2193437,1.2936665,4
1655,1.6669998,-0.47454077,-0.20161916,2.3301356,5
1656,1.5575693,-0.4007674,1.0081143,1.2388464,6
1657,0.9832874,-0.3545282,-1.9856197,2.234985,7
1658,-0.019430041,-1.1460088,-1.432235,1.2927172,8
1659,-0.15745133,-0.22356883,-1.8469481,2.2619312,9
1660,0.5131202,0.3991428,-1.7541317,1.8434954,10
1661,0.3205153,-0.9658214,-1.9579253,0.23007095,11
1662,0.28032276,-0.67859465,-2.1233733,1.7870424,12
1663,0.7081351,-0.39968282,-0.48349205,1.3331088,13
1664,-0.04652962,0.914228,-0.6711708,1.5566139,14
1665,1.9295182,-0.23561573,0.1906695,1.774714,15
1666,2.1569166,1.0006467,1.2549111,1.5888022,16
1667,-0.8652425,0.47136727,-0.90086466,0.03665018,17
1668,0.9798339,-1.3186572,-1.3471375,1.0834843,18
1669,1.223792,-1.0892158,-1.824363,2.094829,19
1670,-0.124387085,-0.7119217,-0.79638046,1.7693926,20
1671,1.0578879,-0.16690937,-1.9631263,0.9820873,21
1672,-1.321281,0.05661148,-0.7669736,1.1402938,22
1673,0.9559948,0.29256386,-0.99059397,1.9344195,23
1674,-0.17234266,-1.493779,-1.3660407,-0.106633306,24
1675,0.99384797,-0.22010225,0.04737401,1.2940633,25
1676,0.20142728,-2.5915759,-2.3118005,1.6738113,26
1677,1.0031078,-1.4148796,-0.7907295,0.6091999,27
1678,1.6202236,-0.2727722,0.0048736036,1.3564749,28
1679,0.78835183,-1.6810131,-0.66758823,0.62442356,29
1680,-1.7337418,0.16830146,-1.5744109,0.34533018,30
1681,1.2948723,-0.28583622,0.692866,1.8351923,31
1682,-0.5081878,-0.08468124,-2.1466813,0.44203198,32
1683,2.2001834,-1.0252553,-0.8980001,1.1645749,33
1684,0.97788215,-0.93273693,-0.9788092,0.77178526,34
1685,-0.060807824,-1.2176654,-0.7150498,0.38929915,35
1686,-0.17619193,-2.2739985,-2.1277366,0.7492006,36
1687,2.57401,-0.8171135,0.34635663,1.9646618,37
1688,0.80797124,0.16089162,-0.5441451,0.3813793,38
1689,1.8238924,-0.99821085,-0.5097414,2.292918,39
1690,-1.7281471,-0.29325324,-2.1906586,0.90169287,40
1691,0.9609772,0.305322,0.39747888,2.2280033,41
1692,0.53298795,-1.5499003,-0.1919677,2.049096,42
1693,1.37313,-1.8188922,-0.8363499,0.80592656,43
1694,0.298341,0.095305175,-1.8533804,0.24521655,44
1695,-0.2611323,-1.55565,-1.3017418,0.5303752,45
1696,1.9241489,0.07458389,0.52343774,1.9382168,46
1697,0.36558512,1.5855579,-2.5877872,1.4912374,47
1698,1.3058155,-1.2633698,0.45284736,0.81629455,48
1699,-0.4349596,0.11021421,-1.4548743,1.574869,49
1700,0.6759921,-1.2970881,-1.4617996,1.3200095,0
1701,0.042710513,-0.7485543,-1.5373522,1.1025519,1
1702,-0.12169492,0.031290784,0.25790477,1.0174494,2
1703,0.75657344,-0.9747916,-1.0245132,0.80504066,3
1704,0.73204875,-0.3223949,-0.4105439,1.8380271,4
1705,-0.25217795,-1.2197553,-0.29571784,1.3907156,5
1706,1.0815916,-1.3527856,-1.3011022,1.5203282,6
1707,0.5665113,0.04803461,-0.3291576,2.5134068,7
1708,0.38451675,-0.5705031,-0.8649872,2.1424875,8
1709,0.6174392,0.38264835,-1.4003968,1.205193,9
1710,-0.020133212,0.16644193,-1.1232245,2.128862,10
1711,0.16863918,-0.8018038,-1.3396082,1.9747404,11
1712,0.5549644,-0.37909245,-0.8949028,1.4237955,12
1713,1.4585268,0.10482627,0.16626853,0.97279704,13
1714,-0.59092474,0.6162589,-1.0715871,0.18926716,14
1715,0.5437499,-1.0640293,-0.2399042,1.1070622,15
1716,0.46283928,-0.64316905,0.101031244,0.5217715,16
1717,0.12489492,0.8524412,-2.8128076,0.34915543,17
1718,1.5972905,0.35919994,0.7793815,1.5478272,18
1719,1.1551237,-0.6753239,-1.4452703,1.9342695,19
1720,0.505396,-1.0205941,-1.5884852,0.7971319,20
1721,0.87875164,0.34890407,-1.0912931,1.4273598,21
1722,-1.024064,0.80793655,-0.41633946,0.6633268,22
1723,-0.35547674,-0.2709062,-0.7602326,1.696832,23
1724,0.23641272,-0.73299646,-0.7719627,1.351156,24
1725,-0.3747375,-0.06252313,0.61008245,0.95585424,25
1726,1.5653324,-1.2016174,-1.602433,2.038259,26
1727,1.0517524,-0.6314666,-0.49563074,1.7278812,27
1728,1.0967753,-0.91816515,-0.60696983,1.4264436,28
1729,0.38129985,-1.4055032,-0.10035774,0.8841169,29
1730,-1.1249902,1.0891631,-1.7189562,1.4671632,30
1731,1.5278707,-1.0805144,-1.0080216,1.5708408,31
1732,-0.2715488,0.6452644,-0.572038,1.3166162,32
1733,0.9187023,-0.82058465,0.19225723,0.5237956,33
1734,2.2471066,0.2376017,0.63637996,0.99369806,34
1735,1.4113445,-1.2526389,-1.4149935,0.7868166,35
1736,2.4005322,-0.17094624,0.59218514,1.6313848,36
1737,1.1083097,-1.1502024,0.22504957,0.7642032,37
1738,1.532603,0.44016498,-0.847602,0.94668746,38
1739,0.99252796,-0.76699996,-0.74927735,2.5054374,39
1740,-1.389945,0.008853108,-0.47770417,1.7262727,40
1741,1.1643016,0.6668961,0.59114736,2.4095478,41
1742,0.308567,-1.1510952,0.03526026,2.0806885,42
1743,1.640137,-0.19229692,0.4216959,1.2116404,43
1744,1.2120287,0.8704159,-1.3378711,-0.22940713,44
1745,1.1987218,0.043814182,1.216241,0.6827154,45
1746,2.0845373,0.4959793,0.55193627,1.6923695,46
1747,-0.26978675,0.54895806,-2.6387258,0.30625272,47
1748,1.6567564,-0.48358524,2.050895,1.1927748,48
1749,-1.0230019,-0.30739266,-0.9159419,1.2118537,49
1750,1.7244833,0.11967057,-0.20431721,0.5666357,0
1751,1.1226754,-0.70654875,-2.7921536,1.7994683,1
1752,0.26342887,0.88368213,1.3695451,1.2668906,2
1753,0.11278969,-2.0998468,-2.3861961,1.186928,3
1754,0.49092945,-0.4380237,-0.7737161,1.5320512,4
1755,0.20175314,-1.1276631,-0.9188994,1.437777,5
1756,1.2403576,-0.59612966,-0.50186,1.5743097,6
1757,0.04352027,-0.22091556,-0.72369254,1.952197,7
1758,0.9154867,-0.3343439,-0.49727076,2.6810293,8
1759,0.86862886,0.35381863,-1.681612,1.7130086,9
1760,-0.34694916,-0.00242123,-1.4919356,1.7105112,10
1761,0.54170996,0.38098878,0.22215676,3.2713408,11
1762,1.0049584,-0.6596937,-2.23708,1.9008253,12
1763,0.8724071,-0.38723683,-0.49939007,1.0670964,13
1764,-0.51435906,0.9101585,-0.31088853,1.2879379,14
1765,0.94057155,-0.8980113,-0.6574606,0.9194047,15
1766,-0.0324198,-1.3990979,-1.0676802,0.82260436,16
1767,-0.05491653,0.84897643,-2.283166,0.8791289,17
1768,0.08154559,-1.8260486,-1.2902673,1.6506974,18
1769,1.483151,-0.60778856,-1.0158161,2.3183517,19
1770,2.616102,1.409366,0.46470082,2.2221737,20
1771,1.0059751,-0.11531835,-2.0281277,0.66043806,21
1772,-0.26240784,1.062484,-1.4594228,1.3068655,22
1773,0.7334808,-0.35658133,-1.4292237,1.67819,23
1774,0.37512308,-0.96748495,-1.106428,1.3131685,24
1775,0.16992688,-1.4949422,-1.6044433,1.083521,25
1776,0.85602707,-0.8985515,-1.2115831,2.6116247,26
1777,1.3991561,-0.17554164,0.047047183,2.476224,27
1778,1.0979601,-1.0415964,-0.59994256,1.2727926,28
1779,0.2926001,-0.9323581,-0.10941774,0.5253495,29
1780,-1.1202644,1.308734,-1.1809181,1.5718472,30
1781,0.8883628,-1.6504555,-0.8618001,1.0411122,31
1782,0.11457586,0.46567383,-1.7822142,2.1095583,32
1783,1.363172,-0.91294485,-0.29882872,1.0299325,33
1784,1.7679311,-1.025111,-1.1323259,1.511209,34
1785,-0.085130334,-2.1795275,-1.588556,-0.10066354,35
1786,0.39056277,-2.1239262,-1.8007443,0.5005119,36
1787,1.3025237,-1.2463049,0.96131444,0.5152506,37
1788,-0.2598623,-0.8842913,-0.8675748,0.25070724,38
1789,-0.41812032,-1.7587662,-0.57118785,-0.15818405,39
1790,-1.3930936,-0.084064186,-1.4537451,1.2470294,40
1791,0.29303014,0.33543164,0.48248047,1.5957174,41
1792,-0.29203594,-1.7276697,-0.12855917,1.9001771,42
1793,1.7063549,0.18005657,1.6401341,1.5999172,43
1794,1.194202,1.5629902,-0.13372505,0.5875451,44
1795,1.3683704,-1.367346,-1.9433792,1.6085603,45
1796,0.76546204,-1.504181,-1.4270098,1.6442995,46
1797,-0.61314344,0.07623613,-1.2431097,1.6669996,47
1798,0.3047812,-1.8138535,-0.1592732,0.9562345,48
1799,-1.4797444,-0.3321124,-0.546397,0.77703965,49
1800,1.4516659,-0.65519136,-0.7557875,0.81112874,0
1801,0.52465236,-0.569716,-1.7554672,2.7049603,1
1802,-0.33318555,-0.74530196,-0.13318726,1.3961062,2
1803,-0.8493952,-1.9255757,-1.5691998,-0.032935858,3
1804,-0.07729393,-1.3710711,-1.6777127,0.7729722,4
1805,-0.007353008,-1.2531251,-0.7157728,0.8663185,5
1806,-0.56448895,-2.0831676,-1.3020464,-0.26088607,6
1807,0.8082731,0.25445783,-0.53249985,2.5722156,7
1808,0.7306114,-0.7384199,-1.3424318,1.0218514,8
1809,0.9411596,0.64704204,-1.7090394,1.1744826,9
1810,-0.09798223,0.06895192,-1.1428845,2.322279,10
1811,0.5869449,-1.1617408,-2.7660966,1.4006436,11
1812,-0.20798177,-1.2552364,-2.1938004,1.4393123,12
1813,0.7327129,-1.5345312,-1.4996989,1.2010597,13
1814,-0.23433878,1.2645178,-0.052232265,1.1699231,14
1815,1.5837144,-0.39454126,-0.047629118,1.9266254,15
1816,0.890645,-1.5207859,-0.42135817,-1.6159164,16
1817,-0.74506634,0.34235877,-1.4731433,0.8094517,17
1818,0.8947118,-1.0328745,0.42181414,1.4790231,18
1819,0.8808265,-0.9422149,-1.7800928,1.3884449,19
1820,0.86692894,0.23174876,-0.036209285,1.9098849,20
1821,0.7322724,-0.33886164,-2.2266238,2.7379403,21
1822,-1.1503536,0.5110521,-0.09427935,1.4226284,22
1823,1.0188313,-0.010741517,-1.7488418,1.8302481,23
1824,0.6758013,-0.40542132,-0.5200524,2.5546696,24
1825,0.1253373,-1.1331286,-1.5909326,1.847266,25
1826,2.5061235,0.16649878,0.26421922,2.636098,26
1827,1.1306447,-1.0499935,-0.2826942,1.5019091,27
1828,0.76581764,-1.3500406,-1.1254699,0.9071451,28
1829,2.3902745,-0.05014199,0.49673167,1.7294323,29
1830,-0.64841306,1.3808397,-0.891622,1.6450899,30
1831,2.1102762,0.58457255,1.0716062,1.3814907,31
1832,-0.22702993,0.6350094,-0.400149,2.008,32
1833,1.502209,-0.6998117,-0.19394252,1.2559087,33
1834,2.0041876,-0.45839542,-0.71463174,1.2608325,34
1835,0.5828153,0.13128614,1.5017161,-0.0018042922,35
1836,0.5749373,-1.4206215,-0.7170301,1.1847267,36
1837,0.82556784,-1.0585204,1.0404043,0.38822073,37
1838,0.3267988,-0.5449094,-1.1712692,-0.8857362,38
1839,1.1320345,-0.66556025,0.22276248,2.3959632,39
1840,-1.6356623,0.4576655,-0.5667311,0.8160554,40
1841,0.25387698,-0.6383769,-0.6239171,1.0466431,41
1842,0.1711781,-1.1802138,0.23842877,1.1408021,42
1843,1.1902318,-1.4777164,-1.1890043,1.1878766,43
1844,0.85438186,0.64727664,-2.0085492,0.28646052,44
1845,1.3774824,-0.11189622,-0.0047221184,1.9194778,45
1846,1.6681314,-0.21017176,-0.051742375,2.019628,46
1847,-1.0931789,-0.34331596,0.6009656,0.30218,47
1848,2.086361,-0.17022741,0.9750684,1.6890972,48
1849,-0.2884143,0.5858915,-0.26951492,1.1557206,49
1850,1.4212102,-0.57246745,-1.0828656,1.4852554,0
1851,0.45782304,-0.85549986,-2.6092033,1.1867409,1
1852,-0.3564029,-0.65744704,0.042444825,1.0048926,2
1853,0.5301837,-0.72785276,-0.45121408,0.6858053,3
1854,0.4881866,-1.1687764,-1.4862534,2.3011808,4
1855,1.0123931,0.023917258,0.20573005,2.1971712,5
1856,1.6777866,-1.1331363,-1.2218165,2.2778392,6
1857,0.2429817,-0.12743938,-0.94449526,2.0649397,7
1858,0.9658881,-0.24029532,-0.71291864,3.7474349,8
1859,0.032233655,-0.37517503,-2.1220193,1.0859464,9
1860,-0.6751509,-0.25177103,-1.4712458,1.2471291,10
1861,1.2260473,-0.21795353,-1.895948,0.9460751,11
1862,0.64606297,-1.059741,-2.7628555,0.6802012,12
1863,-0.44983995,-0.12504518,0.26692384,1.084897,13
1864,-0.18219478,1.0078965,-1.5778931,1.5204904,14
1865,-0.12822819,-1.1550593,-0.13808009,1.1065196,15
1866,0.83817613,-0.930894,-0.20546798,0.1255261,16
1867,-0.41161236,0.61826783,-2.0844417,0.6833052,17
1868,0.37002286,-1.826393,-1.1667758,1.2493018,18
1869,1.2540579,-0.21572632,-0.21825784,2.490829,19
1870,0.7528771,-0.4362238,-0.9542898,2.6326873,20
1871,0.8540014,-0.017729215,-1.540723,0.999334,21
1872,-0.43592712,0.64196956,-1.1058369,2.4464395,22
1873,0.35455358,-0.4490713,-1.1822306,2.452368,23
1874,0.7744802,0.3082928,0.263134,2.0378428,24
1875,0.43438917,-1.4355941,-1.3010609,0.15983915,25
1876,1.0298003,-0.18705511,0.25238395,1.9551307,26
1877,1.6589465,-0.48482195,0.28392172,1.7998695,27
1878,1.4932618,-0.38910916,0.22340113,0.9377049,28
1879,1.1623551,-0.020660996,0.45254552,1.7088954,29
1880,-2.328254,0.68399763,-0.6535444,0.726479,30
1881,2.0557933,-1.4839911,-1.0465918,2.3218408,31
1882,-0.40141502,0.68506527,-0.37950003,2.0030327,32
1883,0.052186012,-1.5541584,-0.4227917,0.70012546,33
1884,1.3740975,-0.6729189,0.68060553,1.32967,34
1885,-0.3312893,-1.8409249,-1.081692,0.23302555,35
1886,1.4729638,-1.1537673,-0.078118086,1.0071547,36
1887,1.8611572,-0.57894444,0.9490988,1.4280891,37
1888,1.5144432,0.79030013,0.23955196,1.2125834,38
1889,0.6280217,-1.302334,0.18424566,0.95127976,39
1890,-1.2024767,1.313004,0.97595066,0.87172234,40
1891,0.7551261,-0.24772781,-0.5570539,2.0546372,41
1892,0.92251706,-0.4916636,0.9518001,2.1792142,42
1893,0.84893334,-0.5981191,1.0310873,0.39113688,43
1894,-0.6818574,-0.31869733,-0.69059736,0.7204442,44
1895,1.1348808,-0.9860918,-0.007656008,0.3035347,45
1896,0.5395992,-1.2499928,-0.5774522,0.6097847,46
1897,-0.28215188,0.61066663,-1.2683823,0.84910786,47
1898,2.6935377,0.024698257,0.8246172,1.4837439,48
1899,-0.014832914,0.47157097,-1.3418922,2.1133199,49
1900,0.53364277,-1.3006449,-1.1722329,1.2052895,0
1901,-0.47131565,-1.3639021,-2.7709918,1.5474372,1
1902,-0.43650454,-0.06685719,0.9018261,0.78016615,2
1903,0.59478396,-0.55625254,-0.13854802,1.1039411,3
1904,1.2874094,0.25144553,0.059074223,0.298728,4
1905,2.4243283,0.60849905,0.9309623,2.1626754,5
1906,-0.01810962,-1.7983108,-0.97521496,1.0324308,6
1907,0.2967281,-0.5015148,-1.1177351,2.2701242,7
1908,1.6303883,0.056486428,-0.53882927,2.975603,8
1909,0.095552355,0.48087844,-0.62978214,1.2722154,9
1910,0.38997686,0.3903417,-2.0924191,0.81243,10
1911,0.2734273,-0.54460233,-1.3405817,1.4545882,11
1912,1.0527053,-0.54319656,-2.6149583,1.0075555,12
1913,0.4260506,-0.02328974,0.054647326,1.4585401,13
1914,0.18945816,0.9923059,-2.118398,1.3485159,14
1915,2.000081,-0.4936826,-0.12164292,2.5418882,15
1916,2.1816406,-0.19967628,0.302361,-1.5561076,16
1917,-0.80106425,0.7500857,-0.24330437,2.3595998,17
1918,1.1565964,-1.140143,0.4322335,0.8034287,18
1919,1.2875816,-0.26695728,-0.5360168,2.456492,19
1920,1.4571633,0.18432063,-0.6229079,1.6653078,20
1921,-0.44975102,-0.5692036,-0.84166247,2.2313786,21
1922,-0.94904155,0.4699937,-0.8885914,0.8738613,22
1923,0.83467084,0.8219658,0.5648464,2.463681,23
1924,0.6263108,-0.6439148,-0.84176767,2.3274689,24
1925,1.3278219,-0.5088163,-0.26615953,0.9832208,25
1926,1.195005,-0.60724235,-0.44490746,1.0141456,26
1927,0.08187878,-1.314606,-0.122194216,1.5136349,27
1928,0.47076124,-1.0537832,-0.8634823,1.7419013,28
1929,1.0659026,-0.9189901,0.33462578,0.63865685,29
1930,-0.8259,1.0317992,-2.0796094,2.155055,30
1931,1.1943504,-1.036525,-0.41155997,1.3170034,31
1932,0.15327984,0.6102533,-1.297456,1.6304371,32
1933,0.8766915,-1.4481375,-1.1757482,1.9408942,33
1934,0.0363127,-1.4667661,-0.90174925,0.90658957,34
1935,1.718896,-0.057338595,0.23566872,0.9709593,35
1936,1.5637321,-0.45162064,0.45519698,2.0581965,36
1937,1.9699302,-1.0324492,0.7516159,1.3705271,37
1938,0.41244316,0.08526695,-0.05765724,0.31041592,38
1939,1.6355038,0.08653146,0.77451724,1.3856919,39
1940,-0.79972565,0.7762488,-1.8314955,-0.012670994,40
1941,0.5025118,-0.15430951,-0.12535864,2.6893008,41
1942,0.9879082,-0.3621701,1.4885342,1.4716437,42
1943,1.6254951,-2.047048,-1.7937737,1.3638523,43
1944,0.7255,0.8690383,-0.90464455,1.6199236,44
1945,1.597409,-0.32799488,-0.43040767,0.33567184,45
1946,2.087033,0.26811266,0.42260754,1.863339,46
1947,0.10693008,1.0260435,-2.1939917,1.1028193,47
1948,1.5480754,-0.20620263,1.0799804,0.8056133,48
1949,-0.16056722,0.8726965,-0.5493295,1.7563739,49
1950,0.2613752,-1.0541118,-0.8924365,0.3182937,0
1951,-0.13966498,-0.81376755,-2.2135892,0.87114,1
1952,-0.603451,-0.56791043,0.22202326,0.99373126,2
1953,0.6759101,-0.9447483,-1.1434393,1.3666723,3
1954,-0.47580224,-1.329122,-1.6383687,0.56745183,4
1955,1.3485074,-1.048688,-0.704229,1.9500517,5
1956,-0.42110282,-2.213212,-1.7757514,0.6290759,6
1957,-0.3385083,-1.0729539,-1.9188781,0.7331748,7
1958,0.46199736,-0.5711237,-0.7502073,3.5117517,8
1959,1.2013795,0.09160119,-2.8138928,1.5129644,9
1960,-0.03533736,0.05399996,-2.1006398,1.507955,10
1961,1.6893961,-0.31158978,-2.2435646,1.7868845,11
1962,0.6293319,-0.22575586,-1.3179015,1.4800502,12
1963,0.9160332,0.43195814,0.2737913,1.9256387,13
1964,-0.703491,0.11048132,-1.5195899,1.0025018,14
1965,1.0973732,-0.75260985,-0.05611697,1.3837886,15
1966,1.3553107,-1.3020208,-0.8547077,-1.5754702,16
1967,-0.4230022,0.7035447,-1.0610301,1.2841644,17
1968,1.1847298,-1.1611767,-0.82229984,2.7040398,18
1969,0.5076581,-0.763499,-0.9623613,1.6205369,19
1970,-0.037759244,-1.3210262,-2.1822271,1.3754941,20
1971,1.2413262,0.4234057,-1.5174454,1.3296965,21
1972,-0.13536644,0.86216223,-2.3234985,1.7653896,22
1973,0.112378895,-0.3934269,-1.4431975,1.6244942,23
1974,-0.30763394,-2.0657284,-2.2849226,1.7136183,24
1975,1.2101228,-0.41166055,-0.64152986,1.6121317,25
1976,1.1665754,-2.4721925,-2.5486648,1.5870755,26
1977,1.7365286,-0.68376744,-0.16962266,2.1513417,27
1978,1.6368086,0.01805532,0.22422153,1.7741961,28
1979,0.6584323,-1.6852592,-1.1437614,0.65175664,29
1980,-1.3792647,0.76720464,-0.8402904,1.4947201,30
1981,2.5965323,-1.149276,-1.1844931,2.224949,31
1982,-0.2112129,0.899523,-0.6261783,-0.43055892,32
1983,1.434481,-0.8561528,-0.32300246,1.1565287,33
1984,1.5352905,-0.16536301,0.82973075,1.385906,34
1985,1.2093961,-1.6216657,-1.8007817,0.5868504,35
1986,1.3561616,-0.7947892,-0.47291183,0.99618554,36
1987,1.5777727,-0.5431509,0.98244953,1.3611798,37
1988,-0.3789584,-0.07436359,-0.099586606,0.8056174,38
1989,0.28042048,-1.0848354,0.025129095,0.23910248,39
1990,-1.4334372,0.64023685,0.039341867,0.800487,40
1991,0.2473576,-0.54091907,-0.6094663,1.6691837,41
1992,0.06412262,-1.379348,-0.44872573,1.3938153,42
1993,0.40247524,-1.5183586,-0.35792103,1.0561719,43
1994,-0.021643698,-0.09633654,-1.3470613,1.1908702,44
