,locs0,locs1,locs2,locs3,subject
0,-0.310708,1.0167398,-0.8787858,0.71277547,0
1,0.598991,0.06356393,0.6545237,-1.5001773,1
2,0.4133477,0.72447526,0.20081328,-0.8794289,2
3,1.3524371,-0.4213948,-1.1953703,-0.99328744,3
4,-0.0016363859,-1.2361153,-0.19085532,0.92240244,4
5,1.6530395,1.9246814,0.2914902,-0.34103757,5
6,0.07039964,0.46628305,-1.9448104,-0.4889239,6
7,0.6451722,1.8066578,-0.08701986,-0.5074452,7
8,0.5676778,1.0935354,-0.4770971,-1.1510979,8
9,1.0042939,0.20511693,-0.7158997,-0.0012719631,9
10,0.36461687,0.37759617,-1.1915624,-1.2799691,10
11,0.7187011,-0.15578803,-0.35182315,0.052464813,11
12,0.8785607,-0.6544785,-0.85738605,-1.1371608,12
13,-0.057697833,0.13396654,0.8384744,-1.104359,13
14,0.90182006,0.29810527,0.55222684,-0.82887816,14
15,-0.80849826,0.69576645,-1.352434,-0.27600983,0
16,-0.075540066,-0.7906089,-0.1077691,-1.3735529,1
17,0.931139,-0.21281016,0.034171212,-0.75246155,2
18,1.3667972,0.6713709,-0.7376367,-0.9585868,3
19,-0.5238556,0.89301133,-0.2888753,1.0838559,4
20,-0.29051936,-0.25491887,-1.874401,-0.97450644,5
21,0.6614671,2.0784636,0.5298867,-0.8316604,6
22,0.34638602,1.2155476,-0.51791203,-1.6817257,7
23,0.824595,1.3401765,-1.6331913,-0.5852382,8
24,0.9597272,0.93561745,-0.72233236,-1.1588453,9
25,0.14817846,0.09223938,-0.8454648,-0.7889092,10
26,0.99148285,-0.4781787,0.031185172,0.040941264,11
27,-0.47907883,-2.1676934,-1.530541,-0.93198144,12
28,-0.41827068,1.0968609,-0.020581573,-0.9707147,13
29,1.3001113,0.22458638,-0.05352807,0.44491246,14
30,-0.7585716,0.8937547,-0.8989444,-0.044635028,0
31,0.6998064,0.868782,-0.2612898,-0.35183263,1
32,-0.05292648,-0.09663683,-0.08422516,-0.9480614,2
33,0.79904264,0.23879139,-0.8467314,-1.7147338,3
34,-1.2830639,0.60897475,1.0352533,0.29068387,4
35,0.20464388,0.734725,-0.48344648,-0.56651264,5
36,1.2258301,0.5938341,-1.1512878,-0.39716768,6
37,0.10269111,0.52183527,0.1965957,-0.88578737,7
38,1.2602636,0.25242418,-1.4059064,-1.088959,8
39,0.9699157,0.52542216,0.037405193,-0.20287663,9
40,0.3540126,0.6870959,0.2588204,-0.20559937,10
41,0.6164407,-0.6310977,-0.3391307,1.0275291,11
42,1.0373534,1.6222727,-0.501099,0.31025264,12
43,1.2275602,0.13776782,0.77714634,-0.3698752,13
44,0.011743724,0.27545297,-0.6474572,-0.36216253,14
45,-0.70820093,-0.6623751,-0.4191785,0.90883183,0
46,1.5056992,0.09481269,0.36726385,-1.4045348,1
47,1.7524779,0.7204748,0.19155106,-0.20723492,2
48,1.4682685,-0.25206885,-0.3735571,-1.2567635,3
49,0.7153205,1.7722468,-0.20532352,1.5275962,4
50,0.025154203,1.2841401,-0.5815685,-1.3432968,5
51,0.97333944,0.890291,0.12997305,-0.4979435,6
52,-1.1051642,-0.817759,-1.4186997,-0.44691595,7
53,1.5045378,1.1478063,-1.133704,-0.67955923,8
54,-0.76144004,0.14549178,-0.3025278,-0.66796136,9
55,0.28215405,0.3999331,-0.34079498,-0.7940746,10
56,-0.052069664,0.92319167,0.9971932,-0.53725195,11
57,0.79750586,-1.9025445,-1.5832746,-0.26317102,12
58,-0.047774017,0.84754825,0.33602202,-0.5295923,13
59,0.6656592,0.22394621,-0.70223105,0.56630254,14
60,0.40771407,1.7318472,0.2905255,1.3776671,0
61,0.9243768,-0.018741965,0.31201783,-0.54566085,1
62,0.89499944,1.9103231,0.530173,-0.056960464,2
63,1.1881938,1.2609043,-0.48063445,-1.1147716,3
64,-1.0139294,-0.30717194,-1.0864413,-1.421243,4
65,-0.57585734,0.9280304,-1.6972524,-0.7852918,5
66,0.95696485,-0.26801455,-1.6360221,-1.18585,6
67,-0.2582566,-0.1467179,-0.49816328,-1.1261187,7
68,0.34039086,0.20175523,-1.2334557,-0.501142,8
69,0.11041033,-0.40204298,-0.40536085,-0.075540304,9
70,-0.182078,0.058574617,0.17466563,-1.0818577,10
71,1.0992539,1.8924409,1.3316228,0.27375075,11
72,1.6078932,-0.22388226,-1.1377959,-0.07693839,12
73,1.3685728,1.1184502,1.0537779,-0.6241597,13
74,1.1697253,-0.5219375,-0.47361067,-0.30180684,14
75,-0.43548328,0.90253013,-0.5209072,-0.37050965,0
76,0.34869963,0.69998515,0.9006388,-1.7136494,1
77,-0.017863274,-1.2006471,-1.5063283,-2.1017475,2
78,0.37527817,2.3706443,0.44873452,0.5235568,3
79,-0.19459799,0.6407347,-0.50379395,0.50391513,4
80,0.10373047,0.120465845,-0.2640329,-1.4646175,5
81,0.5585603,1.209441,-0.82967126,-0.3763992,6
82,0.63055664,0.7961623,-0.18205774,-1.243098,7
83,1.0984578,0.066512525,-0.54446507,-0.97306395,8
84,0.010063618,0.8042024,-0.35209492,-0.29420954,9
85,1.5529505,-0.6329501,-1.5833565,-1.5375639,10
86,0.24265063,0.83234274,-0.76486754,-1.1447048,11
87,0.26402748,0.18214351,-0.6087279,-0.41076618,12
88,0.5975831,0.26578373,0.46183524,-0.22875163,13
89,0.25531173,0.19122703,0.3681936,-0.3568163,14
90,-0.64849436,1.2572359,0.10058606,1.587835,0
91,0.8945267,0.07095821,-0.22864148,-0.54884076,1
92,-0.14182162,-0.004021108,-0.18189347,-0.75922215,2
93,0.9844742,-0.2575824,-1.3164492,-0.82649386,3
94,-0.20711678,0.5838282,-0.025241613,1.6645358,4
95,0.79381716,0.97868514,-0.92869806,-0.24200785,5
96,1.146898,0.68378156,-0.2707817,-0.3196916,6
97,-0.13191943,-0.83122605,-1.1391107,-0.96861327,7
98,-0.15905273,1.7444673,-1.3188298,-0.8986069,8
99,0.69353324,1.0269902,-0.3684955,-0.75459707,9
100,1.0349607,0.2975433,-0.4042254,-1.1830506,10
101,0.3731971,0.28531355,-0.1660401,-0.5843513,11
102,1.2153451,-1.6968055,-0.95910376,-0.22514923,12
103,1.0466982,0.358319,0.45616257,-0.8127069,13
104,1.0785911,0.088061795,-0.12286698,0.5306213,14
105,-0.7027032,1.2481854,-0.9945514,0.11827323,0
106,0.7273919,0.55635756,-0.0460366,-0.97454107,1
107,0.22774571,1.2977153,0.92932063,-1.2817307,2
108,0.5571951,-1.1248161,-0.5259784,-0.4330483,3
109,-0.76934195,0.91321135,0.32088464,0.8111659,4
110,0.52324003,0.41452745,-1.0915124,-1.3863612,5
111,1.0036935,0.94971347,-0.23552299,-0.20448261,6
112,0.12832683,0.89207715,-0.60313505,-0.86736095,7
113,0.9629419,1.3569739,-0.7538667,-0.92206645,8
114,0.06713578,1.2404053,0.8518266,-1.1632749,9
115,0.20978758,2.1616912,0.4695232,-0.6758189,10
116,0.73321974,0.83534443,-0.15782142,0.60013574,11
117,0.2243225,-1.23793,-0.63323724,0.3792105,12
118,0.64492327,-0.10492942,0.24733123,-1.0119188,13
119,1.2081119,1.228437,0.5136012,-0.74900264,14
120,-0.4108714,-0.65801835,-0.4472911,1.206114,0
121,1.3644277,1.1676244,1.3620795,-1.1547298,1
122,0.68148845,0.8443092,0.31475896,-1.4640542,2
123,1.451016,-0.19796827,-0.93133014,-0.24517018,3
124,-0.8553059,0.89285326,-0.38006622,1.0949521,4
125,0.4440508,0.07566869,-0.87205243,-0.82847476,5
126,0.56913817,0.31973022,-0.48786908,-0.45112783,6
127,-0.5079186,0.86257076,-1.9712092,-1.3827746,7
128,1.0305613,-0.34453148,-1.1278815,-0.19143265,8
129,0.8893619,1.4574065,0.2680369,0.34205014,9
130,2.275094,0.94458866,0.736025,-0.3710217,10
131,0.019135356,1.8377664,0.57334363,-0.7281514,11
132,1.047789,-0.72616565,-0.71563035,0.00014463067,12
133,-0.1454939,0.33814615,-0.066052884,-0.7223855,13
134,0.17867705,1.1715382,-0.41051498,-0.71421254,14
135,-0.9732323,0.64176893,-0.25380105,-0.41047964,0
136,0.6573171,-0.26739895,-0.2018485,-1.9779766,1
137,1.6860414,-0.56096655,-0.8830606,0.15575737,2
138,0.10529727,-1.0915942,-1.0687062,-1.5342188,3
139,-0.20390952,0.3387103,-0.024357855,0.63328415,4
140,0.7037383,1.4347118,0.7553327,-0.07006037,5
141,0.81285715,2.0414634,-0.3123983,-0.23508686,6
142,-0.12747271,1.0801091,-0.63982284,-0.77600515,7
143,-0.36934507,0.84424794,-0.5076701,-1.7390261,8
144,1.1027465,0.19928306,-0.30972242,-1.0675687,9
145,0.50315887,2.2077618,0.97671974,-0.83193624,10
146,0.3817503,0.8171374,-0.83469605,-0.5345492,11
147,0.8010781,-0.8557967,-1.332495,-0.021441191,12
148,0.7827502,-0.3800616,1.4352758,-0.4758503,13
149,0.4415118,-0.36739966,0.030970298,-0.39094424,14
150,-0.41325456,3.256663,0.8469108,0.78346527,0
151,0.5768472,0.5387322,0.5654255,-0.7512031,1
152,1.3235598,0.33714464,-0.58285034,-0.833815,2
153,0.37723574,0.43659988,-0.54653215,-0.3534057,3
154,-0.91747206,-0.12494528,0.4892016,0.16890901,4
155,-0.045361817,0.35073823,-1.7382332,0.0035440922,5
156,-0.45800692,0.121956706,-2.1421363,-1.292469,6
157,0.25736764,0.79602474,-0.77594984,-0.7912607,7
158,1.1489434,0.8790094,-0.77323854,-0.75159293,8
159,0.947174,1.3047941,0.022595137,-0.89648145,9
160,0.61119556,1.0688336,-0.18457605,-0.50416696,10
161,0.890664,0.68089056,0.4720078,0.26935357,11
162,0.50478697,0.13802618,-1.152676,-0.6594215,12
163,-0.09930155,0.6092395,0.21607998,-0.21407244,13
164,0.042393327,0.39947915,0.09205084,-0.4033095,14
165,-1.0102359,-0.30144647,-0.7845429,0.26779836,0
166,-0.37787718,-0.16577162,-0.28547102,-0.35634887,1
167,0.06333828,0.63916373,0.25738776,-0.96736157,2
168,0.8729469,-0.810174,-1.8696413,-1.7303033,3
169,-0.890344,0.75772524,-1.0485024,0.060466528,4
170,1.4475265,0.1846722,-0.56505394,-0.69397074,5
171,0.55724764,-0.1404385,-1.3597784,-0.50452214,6
172,-0.042308033,-0.13795584,-0.94452465,-0.3306768,7
173,1.3137684,-0.34664387,-1.9683118,-0.36273456,8
174,-0.37005436,0.34680936,-0.1925968,-1.4727318,9
175,0.25727648,0.5318016,-0.5873399,-0.86849993,10
176,0.33060017,-0.16699216,0.023663156,-0.087255,11
177,0.3020974,-1.5115123,-0.7566494,-0.33527952,12
178,-0.72694767,0.866778,0.70942324,-0.15393585,13
179,0.28743228,0.3907808,0.21806157,-0.054356992,14
180,-0.6437307,-0.120256215,-0.66327554,-0.22194442,0
181,1.192216,-0.13747056,0.35636657,-0.14679837,1
182,1.6992321,0.6435213,0.053177465,0.17062044,2
183,-0.094559014,0.14472985,-1.5256124,-0.966012,3
184,-1.0746862,-0.0601207,-1.9011183,-0.87453395,4
185,0.17031139,0.6023276,-0.6031959,-0.20835215,5
186,-0.7346851,1.1773622,-1.7001604,-1.2196822,6
187,0.05178,1.0649517,-0.81543064,-1.8076701,7
188,1.3782711,0.20501506,-0.33619866,0.25182605,8
189,0.092810124,-0.60583204,-1.7976565,-0.8792003,9
190,1.0963166,0.37348935,0.033688635,0.12501538,10
191,1.080065,-0.041939348,-0.24638852,0.1888771,11
192,-0.043271303,-1.9631014,-0.8781238,-1.1921186,12
193,1.4817264,1.0602536,-0.36415365,-0.5446372,13
194,-0.25764364,1.1909001,1.3355027,-0.7532356,14
195,-0.7186409,-0.23363104,-0.896683,1.1476223,0
196,0.4457899,0.16934995,-0.33662248,-0.8997306,1
197,1.2012873,0.5950222,1.17505,0.182015,2
198,1.5369385,-0.014273465,-0.30415413,-0.17910898,3
199,-0.78798485,0.52843404,-0.53240323,0.4026613,4
200,0.32993346,0.36096436,-0.62329626,-0.41379347,5
201,0.47485304,1.9073646,-0.48084825,-1.1804667,6
202,-0.62590283,0.5220894,-0.81550026,-0.6553059,7
203,0.1877495,1.2881131,-0.96390516,-0.8616512,8
204,0.8537662,0.96837485,0.13909632,-1.2377675,9
205,0.22284156,1.2886446,-0.374008,-0.8796489,10
206,0.96723855,0.722503,0.4606399,0.10496122,11
207,0.94131374,-0.16599059,-0.08215821,-0.5526302,12
208,-0.112774104,1.1129264,1.1356177,0.5117149,13
209,-0.3565647,0.95817614,0.01999759,-0.7460282,14
210,-0.25323048,0.12845817,-1.1949934,0.97388816,0
211,0.6806565,-0.11312993,0.3876419,-0.70864964,1
212,1.2693324,-0.22453356,-0.8415677,0.0012152791,2
213,1.121223,0.7401706,-1.1710824,0.0028364658,3
214,-0.4623528,1.2406223,-0.013943613,0.20486411,4
215,0.6893217,0.23337588,-0.8614383,-0.38001332,5
216,0.5494091,1.1541076,-0.21257663,-0.7786965,6
217,-0.40721416,1.4993055,-1.1803888,-1.3849349,7
218,1.3927699,1.1564555,-0.008489668,-1.0733571,8
219,0.14998528,-0.15710878,-0.87150455,-1.596723,9
220,0.8846569,-0.69688326,-0.63053125,-1.7666188,10
221,-0.3390761,0.5923851,-0.65363175,-0.36451796,11
222,1.2163432,-2.0098088,-1.4901235,-0.3498817,12
223,1.170418,0.5587774,-0.28591338,-0.37164173,13
224,1.378964,0.5303842,0.13132235,-0.43460342,14
225,-0.60573983,0.39104357,0.4235083,0.5874181,0
226,0.44433132,-0.19302054,-0.38626683,-0.94587976,1
227,1.2792716,-0.40008837,-0.5311027,-0.8185934,2
228,1.3811915,1.5777582,-0.27837622,-0.9378202,3
229,-0.15034682,0.81253046,1.1757512,1.4542637,4
230,0.22547561,0.7907398,0.3006029,-0.92894495,5
231,1.0834925,0.699517,-0.09954417,0.376382,6
232,1.1047958,0.21677294,-1.4465386,-1.1389169,7
233,0.8879808,1.3232286,-0.36606252,-0.85208917,8
234,0.41069666,0.20086542,0.60698754,-0.6036724,9
235,1.0043008,1.3960772,-0.20803607,-0.1772759,10
236,0.5224828,0.24682412,-0.07685319,0.6004339,11
237,0.33092046,1.3424935,0.058482528,-0.065264165,12
238,0.65363526,0.56068027,0.88783693,-0.55452216,13
239,0.13464779,-1.1147778,-0.7694506,-0.72444344,14
240,-0.514809,1.3950334,-0.9178276,0.92816085,0
241,0.20467544,0.65637845,0.111353934,-1.0818362,1
242,0.14689702,1.6521051,-0.087301865,-0.5991479,2
243,1.4018438,0.6458446,-1.0493671,-1.268575,3
244,-1.2634096,-0.0004196167,-1.601963,-0.4489057,4
245,0.017367035,1.7053831,-0.81637895,-1.2490458,5
246,1.0302691,0.811594,-0.431036,-0.86123735,6
247,0.85107434,-0.7455713,-0.80175984,-0.18413973,7
248,0.46289197,0.21296638,-1.7974236,-0.5865867,8
249,0.7242944,-0.47243017,-0.4085563,-0.93212974,9
250,0.8490141,0.9649855,0.026614368,-0.4618223,10
251,0.7661747,0.31426218,0.7042257,0.40490767,11
252,1.0750946,-1.6503031,-0.31830585,-0.3021331,12
253,-0.07467875,0.6009024,-0.680786,-1.0629394,13
254,2.017944,1.5650629,0.98291117,-0.19362494,14
255,-0.5288894,0.22151366,-1.3053343,-0.34210458,0
256,0.6477353,-1.0440531,-0.24356022,-0.8479631,1
257,1.2594647,1.2105474,0.0041976455,-1.0598365,2
258,0.36073506,0.6467615,-0.18457472,0.37576985,3
259,-0.8935851,-0.99369586,-0.034147084,0.33300865,4
260,1.245706,0.62825286,-0.9611784,-0.0989303,5
261,1.3303868,0.30145243,-1.4304047,-0.34987602,6
262,0.1454747,-0.0033183098,-1.1173444,-1.353856,7
263,1.3086212,0.106671154,-1.1276147,-0.9130795,8
264,0.48323858,-0.7261935,-2.0297651,-0.33880138,9
265,1.0115783,0.5958338,-0.34872445,-1.1296332,10
266,-0.04897511,0.5864648,0.15835077,-0.65963215,11
267,0.38349137,-0.8347662,-1.1919293,-0.69389117,12
268,0.05096519,-0.5065528,-0.517233,-1.4117184,13
269,0.3233437,1.8657202,0.41594735,-0.89712155,14
270,-1.1327112,-0.15903261,1.3502545,-0.4286988,0
271,1.0073342,-0.10576178,0.30916512,-0.30892897,1
272,0.08245522,1.5060837,0.08042319,-1.2098603,2
273,1.1356168,0.4581008,-0.68609065,-0.42927265,3
274,-0.54755473,0.3803978,-1.2413924,0.9613875,4
275,1.3823265,-1.3849572,-1.3478937,-0.5657774,5
276,-1.1873753,0.8719597,-0.2823683,-1.572782,6
277,0.9366744,0.7166985,-0.25054967,-1.1616907,7
278,0.46580315,0.19994742,-0.23385412,-0.96581817,8
279,0.43204987,0.34691983,-0.463392,-0.40136984,9
280,0.17352912,1.2320323,-0.04559362,-1.5652922,10
281,0.20882004,1.076544,0.67348766,-0.36978912,11
282,0.14037195,-1.6970458,-0.19027579,-0.46366286,12
283,0.89008737,0.9521229,0.907295,-0.5076027,13
284,1.2368573,-0.23007926,-0.42437503,0.5814527,14
285,-0.21226004,-1.0188234,-0.016718805,1.6051633,0
286,0.98536927,-0.15558048,0.24951227,-1.0524082,1
287,0.5292874,1.280892,1.2464124,-0.592658,2
288,-0.23113436,0.35070908,-0.8153651,-1.3037829,3
289,-0.7845183,0.35797572,-0.51905596,0.09476778,4
290,0.13527524,0.34069246,-0.8273493,-0.5884882,5
291,1.4733784,1.111928,-0.057848096,0.07918209,6
292,-0.06634708,1.0924954,0.7563485,-1.2903903,7
293,1.2560301,0.5385324,-1.04673,0.61921275,8
294,-0.2964921,-0.062702596,-0.74312854,-1.4851559,9
295,0.44488806,-0.45846134,-0.82710433,-1.4082806,10
296,0.5095147,1.358292,1.5952369,0.94572693,11
297,0.26507428,1.0132675,-0.68408376,0.1647037,12
298,-0.19088635,0.6031935,-0.21359101,-0.93429327,13
299,0.9489721,-0.17911154,-0.9546005,-0.58069444,14
300,-1.304791,1.31074,-0.35386425,-0.3266907,0
301,1.3929691,-0.2924549,-0.5655479,-0.3290221,1
302,0.4686805,-0.079802096,-0.6889415,-1.2405832,2
303,0.9077362,-0.11844289,-0.89754254,-2.0216641,3
304,-0.112513095,-0.15115154,0.9602516,0.6458525,4
305,0.10260525,-0.18536395,-1.6358066,-1.4974099,5
306,0.3863657,0.5191161,-0.43548703,-0.6575159,6
307,0.932291,-0.114183605,-1.2755065,-0.5262016,7
308,1.3145,0.13576329,-1.0333885,-0.6583024,8
309,0.23367822,1.2739209,0.24208874,-0.5816311,9
310,0.6702631,0.8809633,-0.28356192,-0.45554212,10
311,0.5407541,-0.48611197,0.20657325,0.7376554,11
312,1.3363678,-1.9504988,-1.6205666,0.4716985,12
313,0.0028052926,-0.19309506,1.2436589,-1.0302937,13
314,0.6072588,0.37434873,0.5811304,-0.4923836,14
315,-1.0898921,0.78028286,0.1367166,0.21809486,0
316,0.8520603,0.013389364,0.23902217,0.28509027,1
317,1.0249195,-0.80675155,-1.3962599,-1.2384689,2
318,0.46104428,0.6793772,-1.6820886,-1.0984402,3
319,-0.5789146,0.6142987,-0.47071984,0.020299137,4
320,0.7027335,-0.23300773,-1.5839727,-0.36276343,5
321,0.5871274,1.0055766,0.1206069,-1.017556,6
322,-0.1846848,0.5385759,-0.9930327,-1.404484,7
323,-0.2048415,0.37155342,-0.70677304,-0.9318545,8
324,0.3570977,-0.43925208,-0.40619862,-0.8818463,9
325,-0.74270356,-0.5384256,-0.9653019,-1.0469323,10
326,0.3949626,-0.24813107,-0.38986954,-0.35419738,11
327,-0.65847665,0.3238303,-1.4537984,-0.7616762,12
328,0.8471056,0.6430397,0.53088415,0.19341499,13
329,0.45957053,-0.32377002,-0.30300823,-0.04989469,14
330,-1.2253847,-1.4428928,0.0081810355,1.9046843,0
331,0.76126343,0.45450228,1.6946412,-0.15744078,1
332,0.62938863,0.22284663,-1.5533906,-0.7796555,2
333,1.3246938,0.7663713,-0.5367477,-1.5931787,3
334,-0.81328255,0.15618902,0.05395463,0.66924,4
335,-0.58349925,-0.40328348,-1.0954964,-1.5475368,5
336,1.5479105,-0.09305543,-0.5553895,-0.49903888,6
337,0.26056117,0.893283,-0.58198196,-1.4144843,7
338,1.0958031,1.5069857,0.44279522,-0.58239317,8
339,-0.54558176,0.3893878,-1.1771617,-1.6538987,9
340,1.2194036,0.7412737,-0.937097,-0.51917565,10
341,0.8045859,0.45070264,-0.070078515,-0.007100519,11
342,0.09692401,1.9108999,-0.79124606,0.13915804,12
343,0.05206734,0.6939992,0.25659916,-0.76420414,13
344,1.2601175,-0.45447156,-0.5866466,-0.46408948,14
345,-0.57627654,2.1863897,-0.6216309,-1.4176347,0
346,-0.55821365,-0.7206536,0.44584292,-0.42479837,1
347,1.1409457,0.21228138,0.24689172,-0.5678001,2
348,1.2869935,1.0325265,0.086438656,-0.4244023,3
349,0.029426277,0.7055716,-0.22393017,1.3825737,4
350,0.5273508,0.4128511,-0.031602204,-0.7120751,5
351,0.829723,1.0114542,-0.1676715,-0.93272895,6
352,0.3768059,1.6188138,0.03713885,-0.7248086,7
353,0.87996614,0.3423842,-1.0026176,-1.0614191,8
354,1.0221739,0.27245122,-0.54510266,-0.489061,9
355,-0.38330793,0.1917808,-1.66712,-0.88105446,10
356,0.21084294,0.078520596,0.3030771,0.2811391,11
357,0.22748835,-0.9364494,-0.95419455,-0.90431845,12
358,0.65072715,0.78416586,-0.04425165,-1.4875618,13
359,0.87432253,1.1033993,-0.0128971115,-0.52490735,14
360,-0.64361495,1.0133054,-0.46369693,0.28995335,0
361,0.044719577,0.87182873,0.7543253,-1.7233357,1
362,0.27691293,0.36561507,-0.38052166,-0.35483563,2
363,0.7190691,0.379235,0.15302354,-1.5978878,3
364,-0.67975456,1.1569237,-0.59273463,-0.53766996,4
365,-0.17343676,0.1474913,-0.5674757,-1.2300013,5
366,0.14672253,0.24790227,-2.0822,-1.1485994,6
367,-0.5192344,0.13110012,-1.0792397,-0.9798797,7
368,0.4002975,1.5528805,-0.45064437,-0.72327197,8
369,1.0303125,1.3699343,0.13666832,-0.42941663,9
370,0.08557597,0.18862504,0.42622,-1.3090531,10
371,1.9584146,1.1147118,0.9462428,1.087301,11
372,-0.24354821,0.53344387,-0.78965706,-0.25252157,12
373,1.1777236,0.04530561,1.253548,0.21308035,13
374,0.9700926,0.4074525,0.5627766,-0.71395254,14
375,-0.75632954,2.9237604,-0.44911185,0.35270217,0
376,0.6641979,0.20511393,0.46069288,-0.08430219,1
377,-0.74727505,0.735802,0.23324068,-1.6650753,2
378,1.6405535,-1.3996649,-1.4696226,-0.5770198,3
379,0.66766816,0.565179,1.0033352,0.86683524,4
380,0.2715307,0.63135505,-1.2374635,-0.6722039,5
381,1.8191066,0.46804118,-1.0068672,-0.16938472,6
382,0.15727502,0.7567165,-0.06580469,-1.5101287,7
383,-0.037026107,0.31970066,-0.4491825,-0.7095899,8
384,0.6847925,0.6739303,-0.062063366,-0.74847555,9
385,0.98434514,0.5272167,-0.7233124,-0.6687555,10
386,1.0967194,-0.1518276,-0.7435199,0.44698176,11
387,1.0400729,-0.8841017,-1.3106937,-0.9588243,12
388,-0.15176407,1.2144386,0.24160078,-1.6410743,13
389,1.6697094,-1.028639,-1.3432672,-0.6734122,14
390,-0.53995013,1.9459523,0.42348516,-0.13702217,0
391,0.49525374,-1.1769935,0.4590518,-0.19625992,1
392,0.2915393,-0.042867064,-0.30642846,-1.0931436,2
393,0.69200087,-0.6831739,-0.787103,-0.7087315,3
394,-0.46678537,0.7690174,-0.2739349,0.4312705,4
395,0.42658034,-0.25734264,-1.7755908,-0.90603346,5
396,0.9144019,0.26244783,-1.1184293,-0.356167,6
397,-0.01925154,1.2551346,-1.0649995,-1.253243,7
398,0.8566532,0.013970673,-0.96278787,-0.5883615,8
399,-0.55122393,-0.40805948,-1.4613183,-1.102907,9
400,1.2493705,0.9821402,0.20475978,-2.04824,10
401,1.6374431,0.749074,0.92845446,0.2410698,11
402,0.40884745,-0.29268593,-0.8123773,-0.38363308,12
403,1.0852373,0.6172035,1.7997504,-1.0443817,13
404,0.73117983,0.24086952,0.56222224,0.6181822,14
405,-1.3106365,-1.4347503,0.07274532,-0.69164526,0
406,1.2168235,-0.53040427,-0.8415743,0.025330126,1
407,0.07713014,0.9704107,0.65275884,-1.6336484,2
408,0.79453474,-0.08185533,-0.32473874,-1.3481042,3
409,-0.37511784,0.9677629,-1.7131569,1.23844,4
410,1.1458409,0.25482556,-1.0770786,0.07309657,5
411,0.0028162003,0.20713401,-0.42810196,-0.86482733,6
412,-0.514905,-0.7020424,-2.799466,-1.3637726,7
413,0.9684105,0.17279375,-1.678746,-0.6681174,8
414,-0.07800251,1.3646274,-0.31315273,-0.7277479,9
415,0.8737533,0.7091529,0.6199399,-0.9594107,10
416,0.93312967,-0.33515015,-1.4656248,-0.07877049,11
417,1.8305125,-1.0508918,-0.4507973,-0.2322587,12
418,1.4686552,1.3636029,1.6798581,0.20425588,13
419,0.48065525,0.08527398,0.47487774,0.9260372,14
420,-0.4274543,0.46105748,0.4336543,0.03086719,0
421,0.43140304,1.1419615,1.0133942,-1.6340996,1
422,0.8801162,0.972448,0.23571134,-0.62703145,2
423,0.95953935,1.7318574,0.0880605,-0.031790137,3
424,-0.541205,-0.3184932,-0.006602913,0.77751625,4
425,0.5874931,1.93764,-0.33767024,-0.4745175,5
426,-0.14843875,-0.38391346,-1.8325412,-0.9417418,6
427,-0.901566,1.4649012,-0.16218331,-0.46867442,7
428,0.27401495,0.6653927,-1.5253701,-2.0456932,8
429,0.5851337,0.60397124,-1.0108821,-0.8621528,9
430,0.7884226,2.0725176,0.1328752,-1.8562024,10
431,-0.7064814,1.6554134,0.21650857,-0.6869468,11
432,1.062458,-0.292465,-0.3380099,-0.13847291,12
433,0.6042462,0.60016906,0.39657432,-0.5086277,13
434,0.45239428,-1.7729299,-2.2031894,-1.6302534,14
435,-0.1460205,-0.41236487,-0.9414624,0.4666596,0
436,0.760272,0.40434867,0.77863926,-1.552659,1
437,1.1580682,0.18579742,-0.031477798,-0.846433,2
438,0.33095926,0.5183059,-1.7410196,-0.2543611,3
439,-0.9860103,-1.3537914,-0.13298634,0.6251044,4
440,-0.13364112,0.17096567,-1.5457702,-0.9438733,5
441,1.1954763,-0.12149781,-0.56092227,-0.42098168,6
442,0.03724347,1.7191255,-0.5804918,-0.16033608,7
443,0.7175374,0.08221197,-1.8478358,-1.4772995,8
444,-0.03779179,1.5074437,0.58050996,-0.57691085,9
445,1.1015253,0.61460567,-0.61175066,-0.9670042,10
446,-0.029546082,1.081911,0.14755997,0.12336701,11
447,1.530319,0.121958554,-1.0359232,-0.026037186,12
448,-0.5022867,1.1265942,0.23073423,-1.1863221,13
449,0.38928282,0.060950026,-0.14685696,-1.437982,14
450,-0.29849866,-0.4650598,-0.07091516,0.56122774,0
451,-0.7803263,0.2780699,-0.21303219,-0.7938218,1
452,-0.47362,0.11976546,-0.27435732,-1.4496907,2
453,0.4224192,-0.7747406,-0.7042501,-0.5450776,3
454,0.033733368,-0.5133063,-1.6966231,0.82393825,4
455,0.009411424,1.2723258,-0.50052255,-0.4226601,5
456,0.8089448,-1.1997107,-2.7595754,-1.0502236,6
457,0.050119758,0.731964,0.10939863,-0.94215447,7
458,0.40888646,1.7775726,-0.14001632,0.062447608,8
459,0.7147084,1.6539822,-0.37972385,-0.5952331,9
460,0.07570651,-0.959428,-1.7729329,-1.0831428,10
461,1.2722212,0.57216597,0.51131207,0.4889294,11
462,0.018866718,1.3897367,-0.4361448,-1.9147105,12
463,0.13109303,-0.09041509,-0.102865964,-0.72509336,13
464,-0.3331049,0.6942302,0.045062773,-0.29717955,14
465,-1.8881383,1.2313831,0.38890898,-0.66358197,0
466,1.1202042,0.0013385564,-0.6587902,-0.98633313,1
467,1.098226,0.41477585,0.43509933,-0.85351443,2
468,-0.3383276,1.3930976,-0.029788017,-0.79948974,3
469,-0.33161694,0.061959773,-0.71639377,0.6045144,4
470,0.4666854,0.029563785,-0.7518915,-1.4610395,5
471,1.0053037,1.0172348,-0.4613561,-1.1342647,6
472,1.0126191,1.869199,0.2792786,-0.9532902,7
473,0.888454,-0.8163659,-1.3819818,0.3233422,8
474,-0.20839596,0.1878554,-0.43449286,-0.2649657,9
475,0.12188169,-0.24430865,-1.5299116,-1.4286519,10
476,0.81537676,1.8007287,0.9036787,-0.4264207,11
477,1.2499104,-1.9599912,-1.1404626,-0.23737912,12
478,0.64160144,0.48243064,0.48365593,-0.85622776,13
479,1.1933337,1.7279875,0.62374276,-0.24826722,14
480,-0.14437464,0.08521712,-0.4471785,0.8839456,0
481,0.800054,0.86157674,0.45884454,-1.4807569,1
482,-0.08596271,-0.221717,-0.52748114,-1.3236622,2
483,1.2329416,-0.0038533509,-0.4246339,-0.29151297,3
484,-0.22485274,-0.21562886,1.3047433,0.56468564,4
485,0.21058184,0.037241757,-1.5051508,-0.2655992,5
486,0.9340906,1.6751002,-0.33385795,-0.47521114,6
487,0.13315117,0.35435534,0.20287213,-0.79452175,7
488,0.21586496,-0.52880055,-1.8171973,-1.1379726,8
489,-0.18071276,0.7244537,0.2840107,-0.98164856,9
490,0.90979207,0.6106222,-0.18258166,-0.7524688,10
491,1.4446623,-0.80435705,-0.41586083,0.8177841,11
492,0.75064623,-1.363003,-1.3353395,-0.57593405,12
493,0.727689,0.21518345,-0.7768496,-0.30791444,13
494,0.9082458,0.49451584,1.1101488,0.39564297,14
495,-1.7201215,1.3988327,0.60038036,-0.34188023,0
496,-0.23931324,0.45151633,0.85868275,-1.0086162,1
497,1.0229164,-0.54466254,0.024490584,-0.10767454,2
498,-0.101995945,0.8688897,-0.9750415,-0.7574525,3
499,-1.3633531,0.3037567,-0.9617301,0.35493118,4
500,0.30585063,0.89704406,-1.2783853,-1.7650318,5
501,0.70720106,1.7133099,-0.23968315,-0.42906353,6
502,-0.72993857,1.09656,0.60252726,-0.18034714,7
503,1.1478893,1.7196819,-0.37316048,-0.3196509,8
504,0.20993233,-0.735787,-0.34307504,-0.5168673,9
505,1.1963648,0.80510914,-0.8946235,-0.902202,10
506,0.6891441,0.9907453,0.6004402,-0.06548308,11
507,1.0178406,0.6088876,-1.1709415,-0.16091946,12
508,0.15610099,0.6918981,1.0990423,-0.48942655,13
509,1.6881921,0.44967502,0.4253522,1.0787879,14
510,-0.8856886,0.21498145,0.09885508,0.37896943,0
511,0.9550693,0.006858155,0.52929485,-1.0417024,1
512,0.6466785,0.63039154,0.36288998,0.10317683,2
513,0.58307236,-0.5023949,-0.74254185,-1.2751181,3
514,-0.90820235,0.27148038,0.84219044,0.72154325,4
515,0.92494214,1.5092456,0.06974721,-0.52657425,5
516,1.7075334,0.64477426,0.12675059,-0.20175397,6
517,0.8644224,-0.019086301,-0.40359002,-0.6231476,7
518,1.6543736,0.85989124,-0.089131474,-0.53143525,8
519,0.61316514,0.4730856,-0.99007183,-0.5266202,9
520,-0.37336975,0.63669497,-1.1451592,-0.9007945,10
521,0.2024324,-0.7822077,0.3105653,0.5203322,11
522,-0.9554741,0.41322201,-1.5542728,-1.646859,12
523,0.41276318,0.036907166,0.7179346,-0.95298743,13
524,0.67128056,0.105535924,-0.88710386,0.49222276,14
525,-0.693911,0.5165456,-2.093064,0.15868282,0
526,1.7773364,-0.62384456,-0.7287221,-0.18830222,1
527,1.2598753,0.9874799,0.5757438,-1.6757252,2
528,1.1662285,-1.0079129,-1.9839325,-0.7101,3
529,0.3534032,0.63090867,0.4644158,1.5536151,4
530,0.76961213,-0.12154162,-1.9078077,-1.0363417,5
531,0.52406347,0.20880663,0.035511017,-1.4173305,6
532,1.909563,1.2785536,-0.25630698,-1.0892401,7
533,-0.39172626,1.5199742,-1.2022288,-1.38174,8
534,1.3668269,0.94339716,1.1430688,-0.41493654,9
535,0.43619755,0.86438227,0.5140749,-0.802996,10
536,0.9164856,0.24393372,-0.8955608,0.24043599,11
537,0.65415907,0.5640821,-0.8034997,-0.21810642,12
538,0.925895,0.42030516,0.25367904,-0.5811332,13
539,0.035354316,0.63263625,0.22104198,-0.83092034,14
540,-0.7167558,0.65138495,0.45216584,0.06619385,0
541,0.32153133,0.61950064,0.80908287,-1.3858383,1
542,1.1335804,1.2692802,0.6711601,-1.1426294,2
543,0.48425865,1.9345313,0.5576253,-1.6098431,3
544,-0.67569613,-0.23296219,-0.4765584,-0.2561841,4
545,0.7472415,0.845667,0.6923624,-0.5019905,5
546,1.3283825,-0.75605106,-1.3462491,-0.2548631,6
547,0.9038291,1.5791379,-0.5283303,-1.3717023,7
548,0.26276976,0.08743358,-0.7886024,-1.2161112,8
549,0.13487613,0.1580033,-1.1933432,-0.7369578,9
550,0.59095204,-0.6204483,-0.88073313,-1.0118772,10
551,1.4607996,1.3261983,1.2870947,-0.2484057,11
552,0.8990326,0.47657776,-0.7835261,0.45461217,12
553,0.2071114,1.0963894,-0.04276803,-1.0216153,13
554,0.1155161,-0.19841835,-0.6185895,-0.4336196,14
555,0.09704417,-0.80306077,-0.5269937,1.5948865,0
556,0.5101929,0.4945904,-0.19941247,-1.0642834,1
557,-0.107696354,-0.12786317,0.04222848,-0.81956285,2
558,0.5185793,1.731668,-0.19163054,-0.08296031,3
559,0.17693192,0.9074653,-0.23398855,1.0422438,4
560,0.7890157,1.0888703,-1.0769563,-1.0337622,5
561,0.36983222,1.3482224,-1.2406528,-1.2522418,6
562,1.2165321,0.94674313,-0.7339572,-1.5198779,7
563,-0.12491351,1.5941641,-0.55697405,-0.8585201,8
564,-0.40428603,-0.3731699,-0.4701661,-0.78867507,9
565,1.4487463,0.51287544,0.009077787,-0.97985864,10
566,0.344304,0.2724414,-0.2935474,0.79952246,11
567,0.63315207,0.57440156,-1.422415,-0.7463293,12
568,-0.8278887,0.6136584,-0.64809096,-0.9114847,13
569,0.20370257,0.44271103,-0.85791516,-0.18161857,14
570,-0.35072616,1.8335108,0.6314817,1.0921397,0
571,0.63969594,0.4776954,0.58728445,-0.53922397,1
572,0.15431821,0.024421185,-1.3741889,-0.2509206,2
573,0.6373178,-1.6828854,-0.9933356,-1.2358927,3
574,-0.8525041,-0.80984247,0.3153261,0.1739381,4
575,1.4149759,0.88539445,-0.39825433,-0.8208093,5
576,-0.40890688,1.4186382,-1.3135116,-1.1902812,6
577,-0.2475345,1.0357766,-0.33473283,-0.86098504,7
578,1.4540491,0.43408555,-0.4500698,-1.694544,8
579,0.8772045,0.7789268,0.42207533,-0.30479893,9
580,0.46631697,0.8860519,0.9214401,-1.3133596,10
581,0.032303393,0.5613729,0.14495783,-0.86026484,11
582,1.0873588,-1.2748919,-0.62019753,-0.29658362,12
583,0.47730017,0.4667483,0.64270014,-0.7615388,13
584,0.09893763,0.19535533,-0.594851,-1.0539676,14
585,-1.3248674,0.7014603,0.73739463,-0.18153074,0
586,0.9007683,0.37442884,-0.13110459,-1.3620245,1
587,-0.2181614,0.3851983,-0.77414083,-1.5379112,2
588,0.7735934,0.66807216,-0.6758998,-0.6558099,3
589,-1.4659585,0.2873307,-0.04086493,0.36047834,4
590,0.37040764,0.87392426,-0.5380728,-0.30133903,5
591,0.4962995,-0.4595902,-2.0545344,-0.37665692,6
592,1.1562986,0.6965371,-0.10163036,-0.6250123,7
593,0.6389015,1.2588232,-0.20131904,-1.6195948,8
594,0.29166758,0.57975763,-0.45679805,-2.0010107,9
595,0.41860747,0.8441262,-0.08076453,-1.3176335,10
596,0.19924372,-0.011775851,0.8304646,-0.6279084,11
597,0.19275196,-0.7197425,-0.87224567,-0.26612252,12
598,0.54786366,0.6134265,-0.42706493,-1.5594282,13
599,-0.3086744,-0.09088573,-0.0143958405,-0.8990421,14
600,-0.79005027,0.15723658,-2.89385,-0.1400421,0
601,0.9120407,-0.70100856,-0.119980186,-0.58372015,1
602,1.9313481,0.93726754,-0.0407073,0.18507975,2
603,0.41420835,0.11867465,-0.00364542,-0.45947152,3
604,-0.33282682,-0.07651675,0.3946175,0.6611712,4
605,0.49570185,1.0188758,-1.1088915,-0.24973905,5
606,0.954903,0.26978317,-0.7171833,-0.024986804,6
607,0.755929,0.7769395,-1.0805296,-0.7600498,7
608,1.2098761,0.81883734,-0.672699,-1.0523217,8
609,0.4378148,0.6894818,0.11527783,-0.4576307,9
610,-0.14503604,0.40216628,-1.0497271,-0.6928324,10
611,0.49581143,0.62643445,-0.07751445,0.14890242,11
612,0.32964706,0.24349576,-0.3070824,-0.43582106,12
613,0.56723195,0.026375264,-1.1453786,-0.84064364,13
614,0.9957284,-0.6517706,-0.29133692,-0.03556928,14
615,-0.8340486,-0.7474208,-2.1219258,1.534831,0
616,0.12322831,1.2383419,-0.18331063,-1.5019593,1
617,1.985717,0.78145856,1.055136,-0.21586949,2
618,0.9192753,0.05644253,-0.54156905,0.41507566,3
619,0.025653243,1.05271,-0.38130817,0.86210734,4
620,0.816501,0.122535974,-1.549906,-0.518953,5
621,0.64936376,0.4837226,-0.69540316,-0.5823595,6
622,0.36972678,0.08307707,-1.0612148,-1.1211383,7
623,1.2824469,0.6753913,-1.387759,-0.8167263,8
624,0.42205167,1.4651287,0.38455814,0.04042554,9
625,0.68301857,0.5694506,0.33497137,-0.70161057,10
626,1.8050103,0.3832515,-0.13597885,0.63442343,11
627,-0.24560964,-1.0628122,-1.4982619,-0.64986473,12
628,1.6446282,0.74677694,0.80006135,0.5476671,13
629,1.3591638,0.55977845,0.3863028,0.008249879,14
630,-0.29554364,1.2304974,0.8977154,1.332934,0
631,0.53878236,0.6234537,-0.20943701,-1.8044627,1
632,1.3417745,-0.48627234,1.0636365,-0.107706964,2
633,0.8808887,0.6679845,0.30516702,-0.7377076,3
634,-1.2573035,0.07571423,-0.22096105,0.082633495,4
635,1.2149513,0.9574889,0.110889375,-0.4551023,5
636,0.005557537,-0.5331311,-1.6274107,-0.6604153,6
637,-0.17693503,1.2695832,0.31134853,-0.7417212,7
638,0.4881904,1.9247518,0.39259595,-1.0385299,8
639,0.08491841,1.5404539,1.3389921,-1.1977227,9
640,0.89686716,1.6901054,-0.09429169,-2.0465279,10
641,0.53461504,0.85496604,0.42894614,-0.64586455,11
642,-0.10241014,-2.874633,-1.6484952,-1.0521501,12
643,0.95773983,0.66312516,0.98035026,-0.36902437,13
644,0.8528298,1.0385767,0.45710692,-0.27944666,14
645,-0.42790273,0.6722881,-1.9672236,-0.09472123,0
646,0.5625884,0.8072552,0.050845414,-0.8001679,1
647,0.6123407,1.3825428,0.2922,-0.4728142,2
648,-0.09526491,2.829467,-0.17626008,-1.0279832,3
649,-0.08499384,0.39025986,-0.74185777,1.2312663,4
650,1.672838,1.9220688,0.5245646,-1.219007,5
651,-0.52063733,0.7177182,-1.8831599,-0.76713943,6
652,-1.5372587,2.4402568,0.31680897,-0.97842264,7
653,0.2811455,0.7331581,-1.435957,-0.7768177,8
654,0.2870576,1.6632307,-0.049509466,-1.5118128,9
655,1.173471,0.7953081,-0.6139801,-0.31411976,10
656,1.2429452,1.2100364,1.7535832,0.4153667,11
657,1.4450836,0.89083606,-0.5503034,-0.43116146,12
658,0.48716673,-0.11644015,-0.13018134,-0.53226405,13
659,-0.50530607,1.1203343,0.27042523,-0.5069266,14
660,-1.3262229,0.5732744,-0.36603266,0.08858058,0
661,1.071677,0.5266503,0.8148541,-0.6076552,1
662,0.5955009,0.8833144,0.11980921,-0.9305474,2
663,0.054393113,1.3915194,-0.45373842,-0.667083,3
664,-0.802064,0.22660366,-0.8018088,0.20216581,4
665,-0.26268697,1.1228704,-0.66132605,-1.7170508,5
666,0.30268714,-0.5660877,-1.5171001,-0.18762869,6
667,0.38279444,-1.1260984,-1.6562419,-1.1884778,7
668,0.1806621,1.4312912,0.34330994,-0.39127597,8
669,-0.74520063,0.66023624,-0.6374854,-1.7860832,9
670,1.1153461,-0.061728954,-0.5579846,-1.5068681,10
671,0.08528268,0.8364835,0.44554067,-0.6765286,11
672,-0.06493357,0.18602175,-0.511922,0.42389336,12
673,0.6695808,-0.17437223,-0.20949295,-0.5753598,13
674,-0.40619642,0.37167913,0.046298303,-1.0884799,14
675,-0.3215069,-0.42588142,-0.5155909,0.7801254,0
676,1.4611037,1.127373,0.26741263,-0.57923496,1
677,0.18179002,0.1754652,-0.302058,-0.5669035,2
678,-0.073746204,1.1173015,-0.2410773,-0.9969461,3
679,-0.5736725,1.1270481,0.4135217,0.72301966,4
680,0.3044397,0.51690084,-0.3802918,-1.3377374,5
681,0.31265432,0.73460174,-1.3515615,-1.0205675,6
682,0.12279027,0.5558114,-0.95831406,-0.32434267,7
683,0.20442718,0.16998601,-1.7218208,-1.5249698,8
684,0.018021852,0.7156645,-0.8113581,-1.1044537,9
685,0.346178,0.92072976,0.1347116,-0.43981615,10
686,0.037831962,-0.5323987,-1.3240141,-0.78390414,11
687,0.69624615,0.7407108,-0.23325944,-0.5307695,12
688,0.6055828,1.2592777,0.9425622,-0.53818226,13
689,1.354352,0.12485503,-0.128941,-1.1660807,14
690,-1.7316176,0.9142238,0.7678545,-0.08702305,0
691,-0.093289435,0.8825782,0.34454143,-2.483815,1
692,1.076866,0.93516827,-0.17323531,-1.5129825,2
693,0.33301514,0.43451408,-0.05060655,-1.9085438,3
694,-1.2177575,1.0708793,1.1783111,0.6498252,4
695,1.1716982,1.1745584,-0.1056208,-0.90192544,5
696,0.48726708,0.51124066,-0.838791,-1.0812339,6
697,-0.33508492,-1.124824,-1.6812853,-0.37979537,7
698,0.7902131,1.4088879,0.39261633,-1.1706396,8
699,0.20469752,0.52754825,-0.3001894,-0.73746425,9
700,0.60330063,0.29332337,-0.0038669705,-0.38114762,10
701,0.85042346,0.45822343,0.91574234,0.39632007,11
702,-0.028702557,-0.31914985,0.14044642,-0.6224267,12
703,-0.01910317,-0.22278222,1.7987069,-0.60335255,13
704,-0.12403822,0.27865726,0.07088546,-1.1576027,14
705,-0.39652467,0.004227102,-1.3231924,0.055276573,0
706,0.52522594,0.6247217,0.33321106,-0.6719322,1
707,1.3274934,-0.2192033,-1.4109381,-1.4939992,2
708,1.4017963,1.0935059,-0.2552464,-0.33815694,3
709,-0.42765158,-0.057610452,-1.2309823,0.7458294,4
710,0.16716331,1.0208763,-0.5410596,0.07197708,5
711,0.7145576,1.2551017,-0.537102,-0.38803247,6
712,1.6502182,0.4109889,-0.5065367,-1.8004141,7
713,1.4470353,0.6110156,-0.24254352,-1.2142487,8
714,0.4237418,0.009975284,-0.86350363,-1.0659739,9
715,0.13910067,0.8207656,-1.0456386,-1.6507814,10
716,1.243957,-0.44647887,-0.22905788,1.1979635,11
717,-0.19345593,-0.7059956,-0.8400748,-0.36448467,12
718,1.4236164,0.55802524,0.28359467,-0.8532593,13
719,1.3067155,-0.4230443,0.30270895,0.048649907,14
720,-0.4502664,-0.6433203,-0.29694885,0.4974403,0
721,1.1322669,-0.3569879,-0.8145071,-0.57293916,1
722,0.18249947,-0.52609307,0.37262672,-0.53130025,2
723,1.1558359,1.4037591,-0.13752276,0.5434034,3
724,-0.7514182,0.63821334,-0.22654141,0.15192127,4
725,1.2743005,1.4779075,0.13767004,-0.25505078,5
726,1.536592,0.017891884,-1.14495,-1.4816741,6
727,-0.5727064,0.7674877,0.77510846,-0.025711358,7
728,0.89577913,0.27575508,-1.4653039,-1.2539841,8
729,0.29108727,1.138639,0.54070723,-0.6346015,9
730,0.8574857,-0.36156315,-1.2508851,-1.3117135,10
731,1.2335303,0.8007839,0.9599113,1.2809062,11
732,1.1637261,0.2221688,-0.6437694,-0.14977667,12
733,0.048624188,0.56766784,0.5321233,-1.0954629,13
734,2.5688486,0.6580616,-0.08888648,-0.062057465,14
735,-0.5593351,3.1916146,0.06325024,1.1383765,0
736,1.3392665,-0.35587543,0.43462232,-2.025989,1
737,1.1735532,1.0368199,-0.5894568,-1.3760927,2
738,-0.42097658,0.046952188,-1.0158633,-1.379375,3
739,-0.9689539,1.0201384,0.11142129,-0.100301564,4
740,1.464843,1.0800495,-1.0891814,-1.0009959,5
741,0.43346947,0.4211706,-1.6556048,-0.4474935,6
742,0.30548444,-0.2814538,-0.926123,-1.1931388,7
743,-0.02522701,0.83465356,-1.5781548,-0.89968896,8
744,0.7927344,1.0195148,-0.5382648,-0.9425325,9
745,0.33708966,0.37234613,-0.27233002,-1.3133447,10
746,0.41028106,0.10782406,-0.8051127,-0.21542609,11
747,0.8597567,0.5508587,-0.3572486,-0.6845039,12
748,0.59614897,-0.1815255,0.31195122,-0.16266268,13
749,0.7958405,0.19702415,-0.34678805,-0.27087674,14
750,-0.59547323,-0.28227112,-0.93655354,0.87509173,0
751,0.681916,0.96813065,0.34794304,-0.8844591,1
752,0.5822963,-0.5093191,-0.37027216,-1.0292978,2
753,0.83835703,0.73457825,0.5089309,-0.66600454,3
754,-0.9560117,0.25417513,-0.18545988,0.15590036,4
755,1.2758136,-0.2488814,-1.4945661,-0.7575541,5
756,0.9127451,0.3819804,-1.6917185,-1.105921,6
757,0.32867652,1.1400713,0.16684952,-1.3047197,7
758,1.6266869,0.096203685,-0.59305304,-0.80057126,8
759,0.8200977,0.1785087,-0.76859677,-0.28888017,9
760,1.1389813,0.84793866,-0.6578389,-0.9515115,10
761,1.2661664,1.3660741,0.1305278,0.64066535,11
762,1.373677,-1.9436905,-1.9835327,-0.58716697,12
763,0.41518426,-0.6619338,1.1571534,-0.5270902,13
764,1.4942758,-0.56769204,0.83937186,0.5015788,14
765,-1.7472702,0.3849494,0.25545692,-0.97538376,0
766,0.9073055,-0.09806989,-0.2591607,-0.51292324,1
767,1.2252858,0.49200436,0.81962216,-0.26877958,2
768,-0.1628142,-0.005194515,-1.4658109,-1.191469,3
769,-0.19102702,0.73613334,0.44338006,0.6515945,4
770,1.552239,1.709092,-0.60790455,-0.22551823,5
771,1.7763433,1.5775179,-0.21827924,0.29625905,6
772,0.6463074,-0.34198433,-0.63914216,-0.28248954,7
773,0.7834253,0.99644566,-0.29371336,-0.78875715,8
774,0.5743282,0.70698684,0.12704939,-0.20914549,9
775,0.43358755,0.768009,-0.68439806,-1.4875178,10
776,0.57845086,0.58635443,0.8015248,0.023873467,11
777,0.18735988,-1.0101008,-1.3781381,-1.0923673,12
778,-0.42213807,0.47221547,-0.18483081,-1.6817901,13
779,-0.11130673,-0.1632264,-0.96410334,-1.104946,14
780,-0.46302456,0.44887573,-1.1941013,0.7134744,0
781,0.07108331,-0.42099804,-0.34671193,-1.0471067,1
782,1.8827794,0.43007165,-0.7044972,0.39960438,2
783,2.2814968,-0.25999954,-0.7416304,-0.7820898,3
784,-0.8595156,0.72356117,-1.0148207,-0.09310311,4
785,-0.027049124,1.8585395,-0.50240284,-0.4673755,5
786,1.0778925,0.3324171,-0.34922856,-0.9952966,6
787,-0.29147905,1.4932816,0.49324855,-1.205453,7
788,0.635411,1.4631083,-0.0102395415,-1.5810705,8
789,0.2192165,0.54707885,-0.37486127,-0.84763175,9
790,0.92036676,1.2065084,-0.6239753,-0.50165194,10
791,0.8396288,-0.26164415,0.9448435,0.5068514,11
792,0.9983315,-0.49528715,-1.5062114,-0.28454292,12
793,-0.15716979,0.9179145,0.4220227,-0.46163765,13
794,0.39286044,0.96499777,0.48063752,-0.7340258,14
795,0.014153957,0.3529052,-1.6077006,0.8627218,0
796,0.4533526,0.29138726,-0.34153497,-0.49240443,1
797,0.3119189,1.1338756,0.51395977,-0.57676435,2
798,0.85381556,0.77887714,-0.07352561,-1.1240509,3
799,-0.28742418,0.17027184,-0.65301824,0.37293747,4
800,0.6574603,0.5657489,-0.34129396,-0.25243843,5
801,0.842652,0.740643,-0.5234341,-0.4292323,6
802,-0.5875549,0.45073387,0.14857861,-0.86413187,7
803,0.21542251,-0.3887716,-1.110316,-1.0802569,8
804,-0.4225226,1.8039134,0.3297758,-1.1723865,9
805,0.38218135,0.11111325,-0.6987248,-1.2710376,10
806,0.9354211,0.4509459,0.3816741,-0.03337117,11
807,0.30372673,1.8118558,-1.0010253,-0.38468933,12
808,0.080635846,0.23720586,-1.1236248,-1.3001643,13
809,-0.1261298,0.55718625,-0.061375238,-1.0341107,14
810,0.036921084,-0.15870264,-1.7325668,0.2612694,0
811,1.4787211,0.3343182,0.79616946,-0.14154375,1
812,1.1943247,-0.28150213,-0.8638431,-0.8258741,2
813,1.3253279,1.0687197,0.8421378,-0.75530565,3
814,-0.04906279,1.6082498,0.13434869,0.6769297,4
815,0.22138524,1.1749595,0.29294312,-0.48247465,5
816,0.31482202,-0.7245773,-1.488248,-1.3860716,6
817,-0.2332647,0.089233875,-0.99186707,-1.696007,7
818,0.037220955,1.3938167,-0.52162284,-1.290108,8
819,0.19732955,-0.42855853,-0.5762336,-0.5743776,9
820,0.65281314,0.61050767,-0.41165328,-0.9158132,10
821,0.61225045,0.5899105,-0.5014175,0.040086415,11
822,0.29850486,-1.4917312,-1.4729582,-0.04538688,12
823,0.15937123,-0.4989427,-0.90569174,-0.996005,13
824,0.48245642,2.141826,1.1763713,-0.65625113,14
825,-0.8492845,0.045211494,-1.6748407,1.004015,0
826,1.2157018,1.2524033,1.7629297,-0.59619707,1
827,0.6370162,0.30155203,-0.27497742,-0.8158404,2
828,0.7882892,-0.37150732,-0.52652824,-0.909738,3
829,-0.38704878,1.3868488,0.052150607,0.51580966,4
830,-0.46055484,-0.90150964,-1.0030029,-0.97159576,5
831,0.52341706,1.4604533,-2.2877915,-1.0527353,6
832,0.30485916,0.5264735,0.600422,-1.0843647,7
833,0.83383834,0.93801844,-0.6330228,-1.4642853,8
834,1.5934651,0.8433743,0.50266165,0.230429,9
835,1.0524365,1.0529706,0.814258,-0.989868,10
836,-0.16215724,1.2765123,1.405912,-0.01425821,11
837,0.10129613,-0.10658851,-1.2452347,-0.9172747,12
838,0.27194273,0.9736599,1.4350301,-1.0558512,13
839,1.7934904,0.554011,-0.38648558,-0.21795058,14
840,0.08202112,0.7980031,-0.9466905,0.32092038,0
841,0.15769523,-0.36511046,-0.15816897,-0.67672193,1
842,0.37361205,1.3606071,0.16716163,-1.0557808,2
843,0.19434866,-1.1357372,-1.8100145,-0.6620215,3
844,-0.32000875,-0.54832745,-1.023617,0.6081407,4
845,1.7688444,0.83311737,0.28224552,-0.6958902,5
846,-0.15978372,-0.13086772,-0.6257751,-0.40835217,6
847,-0.61443025,0.7390164,-0.85362744,-0.5457932,7
848,0.86852777,1.6563427,-0.50451446,-1.1301911,8
849,-0.41938066,0.36122778,-0.32374248,-1.1095661,9
850,0.12412503,0.68569756,0.6616459,-1.2258707,10
851,0.19997376,1.1781693,1.6233467,0.38802683,11
852,0.22731209,0.96288604,-0.76322323,-0.45466584,12
853,0.27128908,0.14116657,0.7000003,0.031395793,13
854,1.5399051,-0.16060752,-0.24047658,0.4341894,14
855,-1.0429848,-0.53410935,-1.5342443,0.48464134,0
856,0.474813,0.68822265,1.1363512,-1.1498597,1
857,-0.018222451,-0.1876849,-0.08695693,-2.1095037,2
858,0.32689804,0.47987455,-0.9796655,-1.5085566,3
859,-0.4903205,-0.3036027,0.08087692,-0.4115693,4
860,-0.16504967,-0.41224432,-0.796451,-0.6522409,5
861,0.7228325,-0.31089276,-1.6237223,0.08104539,6
862,-0.58121,0.82939756,-1.214202,-0.73798144,7
863,0.8771069,1.6906943,-0.19352984,-1.133336,8
864,0.45384043,-0.36126864,-1.7469947,-1.5977743,9
865,0.6214131,0.09602851,-1.137565,-1.1140286,10
866,1.0434637,1.479489,0.011092596,-0.31002492,11
867,0.6763501,-0.5845698,-0.27619487,0.07933244,12
868,0.9894124,0.2869396,1.3919538,-0.4546987,13
869,0.7224015,0.3856124,-1.1590614,-0.6359565,14
870,-0.8395485,0.6637685,-0.9839366,0.12507537,0
871,1.9147034,-0.32553065,1.2560072,-0.094263256,1
872,1.0391426,0.86285675,0.0019881013,-0.12548608,2
873,1.78158,-0.05403456,-0.1269927,0.29916883,3
874,-0.1584307,-0.89457905,-1.4038887,1.4727881,4
875,0.68332386,0.20577228,-0.6045419,-1.2625961,5
876,0.65087634,0.6591735,0.0688836,-0.65304446,6
877,1.0675873,0.7079186,-0.054483086,-0.80179083,7
878,1.0053849,1.4836347,0.2877056,-0.47770452,8
879,-0.17107373,0.3523301,-0.32458127,-1.0316279,9
880,0.5025478,1.7521803,0.013959318,-0.47743618,10
881,-0.047828734,0.38345325,1.0595988,0.38927948,11
882,0.70974505,-1.8047662,-1.2477674,-0.2606146,12
883,0.19733775,-0.29065242,-1.129998,-1.3983027,13
884,1.2573786,-0.45434567,0.5409919,0.14783385,14
885,0.14951468,1.5435985,-3.458774,0.95281935,0
886,1.3400779,0.6342351,0.30561993,-0.83320475,1
887,0.66018647,-0.6639237,-0.6593531,-1.443246,2
888,-0.36875492,0.5833426,-0.32349998,-1.2143285,3
889,-0.08667612,-0.2130602,-0.74815106,1.2449825,4
890,0.8430395,-0.27212167,-1.2516984,-0.479002,5
891,0.49067813,-0.09371638,-2.0848107,-0.97344685,6
892,1.0385514,0.110348344,-1.1603814,-0.98238236,7
893,0.7936257,1.4833206,-0.3631111,-0.29383332,8
894,-0.2865389,0.49324346,-1.243268,-1.711266,9
895,0.9839013,0.8020158,0.38029778,-0.59806883,10
896,0.4972093,-0.027874976,0.6076427,-0.21537271,11
897,1.2643586,-0.66188633,-0.5806155,0.31697133,12
898,0.22756468,-0.044721752,-0.34672692,-0.7304584,13
899,0.14380181,0.8249388,0.8318499,-1.1119562,14
900,-1.3214133,-0.3700641,-0.7434118,0.099592716,0
901,0.14354157,1.3723292,1.6145214,-1.3024287,1
902,0.4780244,-0.812362,-0.17317154,-0.82106143,2
903,-0.17178732,2.3810122,-0.88178873,-0.5890555,3
904,-0.5843728,0.3550703,-0.876745,0.120961696,4
905,-1.2144451,0.48128122,-1.0417076,-1.462925,5
906,1.4260352,2.0638053,-0.3447212,0.09039414,6
907,0.30061105,-0.0394215,-1.1080389,-0.8090934,7
908,-0.47890222,-0.20135337,-1.3297229,-0.8056356,8
909,1.0719165,1.1047003,0.39486116,-1.2463493,9
910,0.7091437,-0.059263766,-0.32460794,-0.109033644,10
911,0.6759745,0.9914913,0.19737071,-0.7461904,11
912,0.327929,-1.1105641,-1.2927957,-1.3369987,12
913,1.3021427,0.13233447,1.0441612,0.33517307,13
914,0.95373374,0.06503807,-0.8326264,-0.26681867,14
915,0.13523906,1.0338651,-1.3903527,1.1424867,0
916,1.6726726,0.56731325,0.08272667,-0.88600475,1
917,1.012838,-0.06676364,0.110747084,-0.17073822,2
918,0.7450346,-0.16889754,-0.90055084,-1.2095066,3
919,-0.17698056,0.528197,-0.45837492,1.2579868,4
920,0.7735865,0.70722485,-1.921749,-1.2338445,5
921,0.05262834,-0.09089798,-1.4269763,-0.64069664,6
922,0.06457436,0.67226803,-0.90209246,-0.02895385,7
923,2.4220986,1.6560977,0.8752623,0.10941291,8
924,1.0446677,0.73854977,0.10428506,-0.29603446,9
925,0.20629469,0.26972076,-1.5827062,-1.1977118,10
926,0.018769383,-0.15129587,-0.5671052,-0.22566587,11
927,-0.6218237,-0.39108756,-1.0800064,-0.8026887,12
928,0.5314848,0.800678,0.3884676,-0.8163265,13
929,0.47028258,0.5015463,0.50154907,-0.48687604,14
930,0.096470475,0.8019148,-1.5590196,0.009819657,0
931,0.68132496,0.40307117,-0.32021052,-1.1684082,1
932,0.656667,0.3040135,-0.24582587,-0.4459473,2
933,1.6374876,0.21886651,-0.6557126,0.25256014,3
934,-0.3705659,0.5144734,-0.644501,0.8811959,4
935,-0.19686711,0.21123677,-2.0296254,-1.202404,5
936,0.57771444,-0.9406334,-1.4892842,-0.38594776,6
937,0.07829498,-1.1675534,-1.318463,-1.1915644,7
938,1.811688,-0.10244852,-0.8719355,0.26465452,8
939,0.097827524,1.1626908,-0.66296124,-0.5464379,9
940,0.4796394,-0.5690678,-0.6055209,-1.1879125,10
941,0.6844684,1.0704087,-0.0654274,-0.21831441,11
942,-0.101308525,0.19492704,-1.5890534,-0.7103479,12
943,-0.90203965,0.3196235,-0.046708852,-1.6127741,13
944,1.4402307,-1.0433575,-0.48262516,-0.13398033,14
945,-1.2651765,0.66248417,-0.5331471,-0.7309451,0
946,0.43326357,0.20769349,1.0386016,-0.85807073,1
947,1.9308813,0.7191122,0.468032,-1.9020212,2
948,0.28525448,0.123512566,-0.91743505,-1.0150605,3
949,-1.1547532,-0.0028350353,-0.9600227,0.2621379,4
950,0.5659786,1.6777903,-0.20079845,-0.8250983,5
951,0.52111095,-0.43215203,-0.9042841,-0.5845504,6
952,0.36788744,0.2457881,-1.2969207,-0.45312,7
953,1.2444057,0.97965,-1.2578299,-0.6556955,8
954,-0.13788766,0.5517265,-0.95188,-2.0755284,9
955,0.9150441,0.25995314,-1.0734558,-0.7696113,10
956,1.3531661,0.011888117,-0.7403486,0.5607383,11
957,1.2716558,0.693752,-1.613136,-0.16171557,12
958,0.9915074,1.3916888,1.156321,-0.3548733,13
959,-0.32237273,-0.14292488,-0.63112515,-0.94649744,14
960,-1.1943619,-0.7051257,-0.19400042,0.92373705,0
961,0.84637153,0.85904115,1.095247,0.0062607527,1
962,0.8315817,1.766609,0.46660882,-0.57656956,2
963,-0.12135583,-0.14213136,-2.0947096,-1.3621588,3
964,-1.040544,0.9244029,-0.068164796,-0.47520834,4
965,0.22176275,2.055346,0.064912975,-1.3503693,5
966,0.1494025,0.76997924,-0.5357138,-1.1344197,6
967,-0.5230578,1.9263153,0.46025857,-1.5823047,7
968,0.13460237,0.4629436,0.28416175,-0.7340968,8
969,0.72857803,1.7884235,-0.27144396,-0.74562395,9
970,0.48472968,0.7937888,-0.14665341,-1.1071815,10
971,0.636643,0.5897125,-0.08561552,0.25674105,11
972,0.4450801,1.3270006,-0.46440935,0.2201108,12
973,0.1374476,-0.08498946,-0.8014859,-1.3513031,13
974,1.3991985,-0.7205708,-1.1958376,-0.09900093,14
975,-0.8448754,2.4458287,-0.24745154,0.27112007,0
976,1.699229,-0.9934846,-0.57313377,-0.7886339,1
977,0.78572714,-0.07387161,-0.6364508,-0.746768,2
978,1.4815345,0.5891241,-0.80429757,-1.3112092,3
979,-0.111923665,1.4527812,-0.61724216,1.1849582,4
980,0.36838037,0.4405704,-2.5424652,-0.69297665,5
981,1.1688049,0.65934867,-0.24020171,-0.061446846,6
982,-0.24222665,1.3260171,-0.9187106,-1.1484536,7
983,0.70764935,-0.2257855,-1.7496374,-0.90338403,8
984,-0.38067478,0.8430734,-0.7328639,-0.94157314,9
985,0.88884115,1.37709,0.38058048,-0.7518953,10
986,1.2865448,0.4460359,-0.02479989,1.3444715,11
987,1.0839593,-0.8295885,-0.7943839,-1.147978,12
988,0.40673456,0.6092784,0.9582243,0.5478856,13
989,-0.52850395,0.3048363,-0.95724964,-0.96815515,14
990,0.23766714,-0.16706094,0.004683614,0.7309439,0
991,1.134665,0.31327134,-0.83260095,-0.4002208,1
992,0.07309067,1.0949235,0.2210796,-0.98632,2
993,0.24571761,-0.24242464,-1.5146627,-1.324647,3
994,-0.7374228,0.84315765,-0.3428229,0.3405984,4
995,-0.6995999,0.42716742,-1.1432567,-1.2300233,5
996,0.16547945,0.9998296,-0.027991354,-0.5522003,6
997,-0.32606405,0.38405627,-0.58936334,-0.65287375,7
998,0.8270966,-1.3499026,-2.9231162,-0.8344711,8
999,2.4758136,0.8480208,0.030566275,-0.43794462,9
1000,0.2459919,1.1541982,0.56634533,-0.9415898,10
1001,0.03735763,1.4607302,0.12590426,-1.1500709,11
1002,0.9517925,-0.0045391023,-0.9608745,-0.06875476,12
1003,0.5701312,0.4193856,0.5176027,-0.19303957,13
1004,0.089514375,0.04607691,-0.29835463,0.014526218,14
1005,-0.87991387,-0.086820334,-0.5928776,1.1299372,0
1006,1.4296913,0.7758174,0.8982946,-0.9797679,1
1007,0.42548704,-0.8173289,0.2981559,-0.54644096,2
1008,-0.4055274,-0.3996103,-1.1556277,-0.95247436,3
1009,0.24359936,0.035522223,-0.60503066,1.3893993,4
1010,0.59824866,0.33680683,-0.23124582,-0.34070167,5
1011,0.7370213,0.4510673,-3.1576736,-0.13718617,6
1012,1.1000351,0.19656983,-0.38400573,-0.2402032,7
1013,0.67998135,0.50957555,-1.5850768,-1.1443143,8
1014,-0.1824373,0.7861246,0.5475306,-0.9811591,9
1015,0.28245524,0.25368506,-0.61983824,-0.9327121,10
1016,0.98428583,0.0663299,-0.95101166,-0.60799813,11
1017,0.5639579,-0.22946733,-0.3284865,-0.47743842,12
1018,1.001507,0.46875748,1.1173351,-0.45978612,13
1019,0.35783294,-0.026147366,-0.6647309,-0.97627103,14
1020,-0.8294571,1.0041678,-0.56579006,-0.042490095,0
1021,1.3424698,0.87973714,-0.39754415,-0.19994819,1
1022,-0.3481847,-1.2862723,-0.59794676,-0.5429841,2
1023,0.106030405,1.3444891,-0.35907492,-1.0640781,3
1024,-1.1614034,0.45862538,1.6121807,-0.2750154,4
1025,1.3378782,0.8123873,-1.3245102,-0.5352262,5
1026,0.32250774,0.98785865,-0.78336895,-0.72581875,6
1027,-0.5846518,0.82539755,-0.38256407,-1.4745171,7
1028,1.7020962,1.4111974,-0.92471164,-1.0182202,8
1029,0.80033576,0.81526774,0.18132108,-0.35941577,9
1030,0.45072272,0.6052454,-0.09012011,-0.42720318,10
1031,0.44063222,0.58316946,0.64366263,-0.61565816,11
1032,0.3362968,-2.2998056,-1.1029267,-1.0477496,12
1033,0.09467596,1.4744626,0.3042445,-0.76479185,13
1034,0.46411237,0.4457163,-0.018932935,0.010205537,14
1035,-0.92551494,-1.0882787,-0.52684784,-1.0795892,0
1036,1.0906091,-0.35089576,-0.57104427,-0.18241036,1
1037,1.8212936,-0.11741394,-1.0588448,-1.0908808,2
1038,0.7216789,1.5760071,-0.30273438,-0.5419067,3
1039,-0.18438157,0.52222013,-0.8551482,0.5816734,4
1040,0.99429893,1.064134,-1.3513826,-0.754275,5
1041,0.33888727,0.4442281,-1.6394411,-1.2739458,6
1042,0.59140396,0.5670765,-0.26997796,-0.3665722,7
1043,0.524945,0.80137426,-0.9212789,-1.636926,8
1044,1.6294035,0.32370284,0.24136335,-0.19148922,9
1045,-0.008221298,0.59259844,-0.020339787,-0.2728793,10
1046,0.056230962,-0.2057077,-0.62488747,0.037968393,11
1047,0.14116102,-0.082396954,-1.082851,-1.3131293,12
1048,0.88127726,1.1216867,-0.20364967,-0.78782153,13
1049,0.026260614,0.0012209117,-0.46833476,-0.4489844,14
1050,-0.36714968,0.52226543,0.2571836,1.0730615,0
1051,1.0177555,0.21675922,0.07371965,-0.8797731,1
1052,0.93745506,0.5256282,-0.004347705,-1.4864169,2
1053,0.013390839,-0.029880613,-1.3496121,-0.9614315,3
1054,-1.1793644,1.3181882,0.06352547,-0.858193,4
1055,-0.49991727,0.50887907,-0.7270397,-1.253503,5
1056,0.9157033,0.9390709,-0.68150437,-0.57109195,6
1057,-0.044466913,1.5281011,0.7881383,-0.2567907,7
1058,1.0312754,0.16844267,-0.8888587,-2.0012598,8
1059,-0.250942,1.2840612,0.04730597,-1.2089182,9
1060,0.26141042,0.18997371,-0.11613241,-1.517585,10
1061,0.6218011,0.7061613,0.5708747,0.35692775,11
1062,0.3834377,0.476942,-0.45953393,-0.3108964,12
1063,0.35125574,0.6275695,-1.0981972,0.20442182,13
1064,0.7668514,-0.9556345,-0.4273384,-0.47566688,14
1065,-0.23954684,0.57454073,-0.25358653,1.3370755,0
1066,0.81239426,0.1809996,-0.7539195,-0.72457445,1
1067,0.99448895,1.3759835,0.5191205,-0.8677645,2
1068,0.69652057,-0.21286026,-1.4563046,-0.73684,3
1069,0.41603202,-0.82642627,-1.1759634,0.52064824,4
1070,1.1452873,0.13395053,-0.80688787,-0.12480378,5
1071,1.1596233,1.3953047,0.013769925,-0.6029935,6
1072,0.81932044,0.8178483,-0.028518587,-0.354088,7
1073,0.36752892,1.1329691,-0.12699336,-0.24128544,8
1074,1.5094424,0.35142088,-1.0789368,-0.78042644,9
1075,0.67731124,0.42834193,-0.6905191,-0.62867045,10
1076,0.58064115,0.8439039,1.4883462,-0.18617965,11
1077,-0.08010471,-1.8081594,-0.85534096,-1.0638674,12
1078,1.2124506,0.92359173,0.7738597,-0.039147675,13
1079,-0.18039626,-0.7647549,-0.055652596,-1.0400286,14
1080,-1.5847543,1.088698,0.95408505,-0.90766716,0
1081,1.3031256,0.34130388,0.3906467,-1.4357893,1
1082,0.37608728,0.036099613,-0.7590474,-1.6339841,2
1083,-0.64387065,0.9814335,0.3776387,-1.8251672,3
1084,-0.26442942,0.24596542,-0.65067923,0.3496431,4
1085,0.88741887,1.1711481,-0.45916077,0.57827747,5
1086,0.7297915,-1.0403434,-1.6300912,-0.22106498,6
1087,0.6024003,0.89221805,-0.59640783,-1.7328314,7
1088,1.1176839,2.0687604,0.56727093,0.39810598,8
1089,0.89719045,0.20466572,1.3086998,-0.9832902,9
1090,-0.14220983,0.9997548,-0.5316354,-0.6059069,10
1091,0.201089,-0.18467447,-0.11557602,0.30112004,11
1092,0.7681255,-1.5376337,-1.4420893,-1.4458379,12
1093,0.6091389,0.21100837,-0.34674087,-1.0712829,13
1094,1.1101123,0.75014645,-0.0033613518,1.007028,14
1095,-0.045625567,0.3037578,-0.9013915,1.110256,0
1096,1.2802603,-0.59422445,-0.4730782,-1.5227551,1
1097,0.5504295,1.2775657,0.6100943,-0.6906606,2
1098,1.1542796,0.3523009,-1.0226144,-1.0361712,3
1099,-0.26140752,1.3313586,1.1615615,1.5610797,4
1100,1.368004,1.3015013,1.2657787,-0.69482625,5
1101,0.43546858,-1.0050638,-1.7900379,-0.47359127,6
1102,0.29439172,-0.18859762,-1.1219683,-1.1526812,7
1103,-0.14726329,1.2044175,-0.013460696,-2.230291,8
1104,0.31302533,0.7619037,-0.02860549,-0.84906876,9
1105,-0.5540805,0.39738828,-0.085314184,-0.8774769,10
1106,0.40482056,1.164589,0.48150915,-0.35592228,11
1107,0.6922258,-0.38468874,-1.2569852,0.06578228,12
1108,-0.36069158,0.5037784,0.004319042,-1.2845602,13
1109,0.72777784,0.77132785,-0.039461516,-0.9047953,14
1110,-0.58677506,0.6515615,0.38438493,0.85446775,0
1111,0.8481866,-0.5990636,-0.31381214,0.012240291,1
1112,0.47493243,0.7875036,-0.24664247,-1.2805744,2
1113,1.5438383,2.7679784,0.7857561,-0.8938911,3
1114,-0.47326714,0.6012521,-1.226459,0.6844892,4
1115,-0.42232686,0.08286354,-1.4680924,-1.4990904,5
1116,0.22018203,1.9428343,-0.3021297,-1.7203197,6
1117,0.21610169,0.75406337,0.14241728,-1.0920178,7
1118,0.46008188,0.30219907,-1.9887881,-0.7726195,8
1119,-0.3972609,-0.16652542,-1.5662544,-1.4542233,9
1120,1.2312264,0.38264444,-0.29987556,-1.0580335,10
1121,0.16004062,0.040218264,0.027508758,-0.48119968,11
1122,0.5169558,0.27706313,-0.9985488,-0.7640995,12
1123,1.0406421,-0.5097898,0.2302683,0.4535455,13
1124,0.9861485,0.41758844,0.8769461,-0.8321612,14
1125,0.37320703,0.27173468,-0.6372743,0.87003845,0
1126,0.6293481,-0.5972432,0.35847136,-0.475667,1
1127,-0.67576176,1.610843,0.58411014,-0.76515627,2
1128,1.0811443,1.1800005,-0.5705474,0.0075674057,3
1129,-1.1417665,0.5458132,0.3322429,-0.037064612,4
1130,0.8243964,1.9291685,-0.10657984,-0.55409396,5
1131,1.0983732,1.0100842,-1.1141443,-0.4637888,6
1132,0.1379278,-0.07433212,-0.8739636,-1.6661252,7
1133,0.73740375,0.58924663,-1.0486584,-0.79219437,8
1134,0.1206231,0.24700505,-0.61406505,-1.0475591,9
1135,0.23765352,0.25593066,-0.49161705,-0.4536261,10
1136,1.2606711,0.5657261,-0.49804413,0.40723386,11
1137,0.27608174,-0.55043215,-0.9579816,-0.1304144,12
1138,0.9973657,-0.20371678,0.015267253,-0.3084014,13
1139,0.12081218,0.46438253,-0.42668918,-0.6849191,14
1140,-0.30111033,0.6465937,-1.4659255,0.8418472,0
1141,0.35423964,1.6185348,-0.1916092,-0.87143624,1
1142,0.32961726,0.18722984,-0.53160834,-1.3919241,2
1143,0.45673233,-0.5195347,0.11420834,-0.4272009,3
1144,-1.1539811,-0.107041,-0.6606164,0.23132586,4
1145,1.2460666,1.7340916,0.640599,-0.6804587,5
1146,0.9765823,0.5422557,0.005375445,-0.44812223,6
1147,0.3099672,1.1752229,-0.09194958,-0.8833907,7
1148,0.646543,0.7736382,-1.300758,-0.75745046,8
1149,-0.5903896,0.19363809,-0.82701087,-0.83653414,9
1150,0.23058632,0.700207,-0.08400673,-1.1609004,10
1151,0.13440949,1.1021583,0.023703732,-0.6427609,11
1152,-1.2175634,-0.8938424,-1.1431824,-1.1274035,12
1153,0.99233234,1.2752571,0.9121821,0.7220872,13
1154,0.28373668,0.52436256,-0.32012093,-0.870605,14
1155,-0.74957734,1.7425405,-0.5001602,0.73546624,0
1156,1.9592061,0.49469078,0.47215188,-1.6313107,1
1157,-5.608797e-05,0.70177436,0.20289607,-1.2450738,2
1158,-0.64872235,1.601907,0.24480164,-0.65617114,3
1159,-1.490382,0.9648595,-0.82540244,-0.11119449,4
1160,0.57679355,0.85531616,-0.57322323,-0.23577505,5
1161,-0.043906927,0.39155757,-1.6286179,-0.78870577,6
1162,-0.852227,0.15423661,-0.44270262,-0.9245938,7
1163,0.8848082,0.20825106,-0.26273876,-0.7002717,8
1164,0.56902176,0.3113031,-0.33215794,-0.9314486,9
1165,-0.064538,0.4551064,-0.69871944,-1.6847477,10
1166,1.8419302,0.32825452,1.2255205,0.65964806,11
1167,1.1592448,0.52009827,-0.8572064,-0.104022354,12
1168,0.043808818,0.1839138,-0.3020747,-1.4782708,13
1169,0.71952397,-0.3610852,-0.35128498,-0.8187175,14
1170,-0.2850105,1.1966463,-1.0469198,-0.10445437,0
1171,0.047365844,1.1500309,0.4494024,-0.112268746,1
1172,-0.7892205,1.2048836,0.5418504,-1.4145651,2
1173,0.927979,1.515144,0.0044546127,-0.38138276,3
1174,-1.612603,0.92612475,-0.82079995,-0.46392655,4
1175,0.072161645,0.6280732,-1.021631,-1.0013963,5
1176,-0.4018504,0.005438924,-1.323623,-0.82424563,6
1177,-0.12894587,1.4449664,0.17965326,-0.87312937,7
1178,1.8013114,0.6891938,-1.7053418,-0.5073139,8
1179,0.31752488,0.678897,-0.4048564,-1.1405729,9
1180,0.91737896,0.69893414,-0.32692915,-1.1948534,10
1181,0.64806193,-0.03645888,-0.10710213,0.28809106,11
1182,-0.5114456,-1.5009749,-1.4223964,-1.5154483,12
1183,2.0984533,0.8576262,0.3808873,-1.1341504,13
1184,0.12277353,-0.036378473,0.06396883,0.10557631,14
1185,-0.9626144,0.37535825,0.32420498,0.5798705,0
1186,0.92634773,0.46324608,-0.5131288,-1.3179371,1
1187,-0.13997811,0.9500885,-0.55239785,-1.3198603,2
1188,0.22210729,1.6012068,-0.3187968,-0.523229,3
1189,-0.92456824,-0.24686247,-1.5202367,-0.023790896,4
1190,0.7779745,1.0140214,-1.2981293,-1.2375296,5
1191,0.15492505,1.3878622,-0.56759167,-1.0329497,6
1192,0.07938296,0.43697014,-1.1680455,-0.4425038,7
1193,0.6398373,-1.2962537,-2.6260927,-0.96725976,8
1194,0.6288891,-0.2073291,-0.97206146,-1.2838705,9
1195,0.3271147,0.47091767,0.1315861,-1.5231427,10
1196,0.23745364,0.6326051,0.07691549,-0.19167152,11
1197,-0.74153167,-0.06722078,-0.40987474,-0.32016897,12
1198,0.6478254,0.11720461,0.17207183,-0.6064797,13
1199,0.58399516,1.2513129,0.35653922,-1.5154076,14
1200,-0.81717986,0.5803232,-2.1078908,0.25682232,0
1201,1.0453178,0.74402356,0.17335361,-1.3347577,1
1202,0.51318514,-0.26441354,-0.14281376,-0.6963291,2
1203,0.8596703,-0.30071113,-1.6146374,-1.2764252,3
1204,-1.2524623,0.86065793,0.16766053,0.5536363,4
1205,-0.10228288,-0.7943729,-1.4495097,-1.5012689,5
1206,1.1898162,0.3664711,-0.34619808,-0.2808815,6
1207,-0.14867483,0.21091855,0.5482627,-0.56816715,7
1208,0.8075753,1.7808955,-0.13543373,-1.7859547,8
1209,0.25533628,0.4438982,0.22026795,-0.6480564,9
1210,0.35704368,0.6411207,-0.6722043,-0.27837348,10
1211,0.49063933,1.02202,0.462857,-0.25040528,11
1212,-0.28168976,-0.34600657,-1.3857082,-0.88123775,12
1213,0.17139891,1.0433311,1.4636298,-0.049746096,13
1214,1.9571886,1.1363947,0.9058336,-0.40926442,14
1215,0.17887098,-0.41299638,-0.72702944,0.5651504,0
1216,0.04220712,0.2792968,1.1752996,-0.8881086,1
1217,-0.32834458,0.5621552,0.30755645,-1.4373024,2
1218,0.8084346,-0.85727644,-0.8919386,-1.0115873,3
1219,-1.4486746,0.2718807,-0.19935001,0.49861032,4
1220,0.35864893,-0.25124186,-1.6379988,-1.270716,5
1221,1.1135405,0.75924444,-0.79276717,-1.1331275,6
1222,0.74494827,0.4358854,-0.9472171,-0.5735671,7
1223,1.0992603,1.3241901,-1.7607849,-1.092097,8
1224,0.4843649,0.8680732,-0.7644154,-1.4242108,9
1225,0.16700238,0.38460138,-0.59067225,-1.0676088,10
1226,-0.32823157,0.5295656,-1.0506916,-1.0141817,11
1227,0.094236106,-1.5685253,-0.91769785,-1.1166818,12
1228,0.63681555,0.024215788,-0.01778701,-0.17518815,13
1229,0.6326253,-0.3042058,-0.27565932,-0.74728733,14
1230,-1.352288,0.0673483,0.6963038,0.061365157,0
1231,0.9875752,0.9603092,0.534397,0.18648118,1
1232,1.161419,1.2743062,1.56741,0.6494104,2
1233,0.5627253,0.5202534,-0.7988733,-1.1785963,3
1234,-0.38840082,-0.55541706,-1.2494764,0.84330934,4
1235,1.0704641,0.8577242,-0.21279526,-0.5504725,5
1236,0.7886311,0.3220269,-0.63785344,-1.3454504,6
1237,0.42989135,0.3968146,0.03546241,-0.071062684,7
1238,1.0783387,0.8684224,-0.9766457,-2.11863,8
1239,0.051986575,0.9629265,-0.35844627,-1.6963861,9
1240,0.83409244,0.6460345,0.5082521,-0.9835599,10
1241,0.67628664,1.0248647,0.94438183,0.75120014,11
1242,0.80940115,-0.44485825,-1.0273862,-0.18008502,12
1243,-0.113565,-0.6325066,-0.08461535,-0.75700825,13
1244,-0.4952541,1.0258019,0.43025038,0.26405475,14
1245,-0.79861283,-0.4298919,-0.2929961,0.2998188,0
1246,1.4485357,0.13143323,0.9257022,-1.282048,1
1247,0.42935136,0.7744781,-0.61159325,-1.0116541,2
1248,0.035348356,0.27840748,-0.48469192,-1.1277115,3
1249,0.05151719,-0.018855095,-1.7484448,1.1738715,4
1250,0.75437284,0.114272624,-0.2940931,-1.4190948,5
1251,0.22701827,0.60152924,-0.8748672,-0.5299295,6
1252,-0.43208814,1.8331645,0.54397523,-1.1295578,7
1253,0.4861585,1.0733551,-0.33192277,-1.4525292,8
1254,1.4479431,-0.4314552,-0.23408207,-0.72517383,9
1255,1.0041714,0.9031246,0.6848166,-1.5047956,10
1256,0.7120951,-0.31469926,-0.380098,-0.41964424,11
1257,-0.63618916,-1.3035004,-1.3025085,-0.15870738,12
1258,0.20226008,0.5288329,0.837875,-0.1698936,13
1259,0.63561547,-0.76074755,-0.24373132,0.4850867,14
1260,-0.57672226,-0.72333837,-1.0379707,1.1448499,0
1261,1.0246079,-0.09996785,0.03409174,-0.5872542,1
1262,1.7988112,0.8168616,0.5358714,-0.8895049,2
1263,0.658395,-0.32813838,-0.64352924,-0.6343584,3
1264,1.795959,-0.057921886,-0.8502545,2.0616932,4
1265,-0.51628524,0.49019158,-0.29121208,-1.0776017,5
1266,1.3631395,1.7414465,-0.08331084,-0.70636994,6
1267,-0.5929614,0.98747,-1.0168306,-1.6766288,7
1268,1.4869219,-0.37992626,-1.0062114,-0.7862365,8
1269,-0.43817878,0.51708245,-1.3977958,-1.2918843,9
1270,-0.0053215325,-0.10433012,-0.47538808,-0.5912372,10
1271,1.1621048,0.9080343,0.65331984,0.15960033,11
1272,-0.07674122,0.42665493,-0.36530358,-1.0141095,12
1273,-0.019907355,1.991124,1.0040308,-1.0868204,13
1274,1.1198906,0.77025366,1.3029044,0.12054199,14
1275,-0.25642022,-0.24287912,-1.2573645,0.25635153,0
1276,-0.12011284,-0.2624014,0.12077577,-1.307111,1
1277,0.39705265,0.49281737,-0.03416221,-0.17149937,2
1278,1.1825868,1.6413792,0.2306199,0.131473,3
1279,-1.1681796,2.1057935,-0.85203695,0.5112803,4
1280,0.52973825,0.055476993,-0.79930854,0.16585755,5
1281,1.2549839,2.2561069,-0.15719652,-0.60423785,6
1282,0.9801894,-0.3649761,-0.976887,-0.96752155,7
1283,1.1883134,-0.36857897,-1.7076815,-0.28819382,8
1284,-0.16572332,0.7792226,-0.14109904,-0.77649164,9
1285,0.3573286,1.1493475,-0.20967308,-1.5041125,10
1286,1.2047355,0.63409257,0.0538513,0.2375955,11
1287,0.89881825,-1.4021142,-0.8892953,-0.21947142,12
1288,0.34848306,0.37732774,0.5228154,-0.89746374,13
1289,0.738227,-0.148799,-0.45113888,-0.23836166,14
1290,-0.765138,0.81936,-0.6045557,-0.3214226,0
1291,-0.19023561,-0.5524654,0.009242445,-0.91986597,1
1292,0.4742456,0.90498006,0.98751706,-1.4164546,2
1293,1.2214961,0.66033274,-1.1759646,0.01701951,3
1294,-0.24286503,0.97955865,-0.45098585,0.016595334,4
1295,0.6191747,1.7263197,-0.25844568,-0.45163727,5
1296,0.59496427,1.0465448,-1.1963696,-1.0758425,6
1297,0.079938166,1.9370799,1.1830505,0.15096068,7
1298,1.3160179,0.7117016,-1.2161242,-0.4384987,8
1299,1.086041,0.3227318,0.08149189,-0.19641364,9
1300,2.7288365,0.5561628,0.087796986,-1.1526816,10
1301,0.9050207,1.3538388,0.20034814,-0.0018522628,11
1302,0.10873482,-1.5982842,-1.6724886,-0.79325354,12
1303,-1.0283294,0.15894249,0.946051,-1.4450333,13
1304,0.35729906,0.64258,0.041047707,-0.87561023,14
1305,-0.044739604,1.356035,-1.3725567,0.77975464,0
1306,0.2589014,-0.41460013,-0.17207778,-1.063559,1
1307,0.39366192,0.32849866,-0.13031003,-0.39514595,2
1308,0.50638485,0.16637073,-1.9559587,-1.4140198,3
1309,-1.0476124,0.3534465,-0.46654552,-0.17031413,4
1310,0.19827932,0.88733166,-0.40154067,-1.1641245,5
1311,1.2006376,0.5746766,-1.3841304,-0.8639317,6
1312,0.9266878,-0.27394962,-1.0879313,-1.1704445,7
1313,1.7223692,1.9408908,0.5433915,-0.4845351,8
1314,0.6329829,1.5481606,0.22826684,-0.29567724,9
1315,0.02233851,-0.50039166,-0.49284226,-0.75570405,10
1316,1.0530443,0.5427778,0.58811736,0.77068776,11
1317,0.06723723,-0.8732321,-0.80028796,-1.2607094,12
1318,0.16700724,1.4636277,1.5424991,-0.6150651,13
1319,0.3513237,0.951632,0.64813536,-0.5657961,14
1320,-0.15010256,1.310706,-0.294743,0.9340396,0
1321,0.7489729,-0.52693534,0.09753066,-0.9798033,1
1322,0.65362906,-0.39657664,-0.64980364,-1.0269912,2
1323,0.10011393,0.4281031,0.54300594,-0.5151256,3
1324,-0.36824828,0.7813703,0.10545948,0.6617666,4
1325,0.984264,1.0862106,-1.9449784,-1.0507929,5
1326,0.16684219,0.54581404,-0.9212872,-1.2228565,6
1327,-0.8806914,0.7483301,-0.57193863,-2.0471573,7
1328,1.6144085,0.8363612,-0.27138543,-0.85462105,8
1329,0.35497934,-0.579114,-1.3109432,-0.71914756,9
1330,0.68093157,1.6401244,-0.07288933,0.029386222,10
1331,0.40934622,1.0080764,0.37888932,0.03457359,11
1332,0.6749381,-1.6641102,-1.4217892,-0.10726914,12
1333,0.8001541,0.6553046,0.822742,-1.3056896,13
1334,0.4105702,0.22384763,0.4711347,-0.09399119,14
1335,0.05151689,0.48467296,-2.6280074,1.0116485,0
1336,0.31344098,-0.082598016,0.30691534,-0.19835436,1
1337,1.1242427,-0.34444994,-1.1056495,-0.905754,2
1338,0.7438234,0.90898395,0.24985594,0.14814848,3
1339,-0.82041657,-0.26780736,-1.0645449,0.33295828,4
1340,0.46890873,0.11227682,-0.7772207,-0.6693281,5
1341,0.7455049,1.5409591,-1.5374405,-0.9791378,6
1342,0.071509615,-0.15726805,-0.7039368,-0.43917787,7
1343,0.7468947,0.60453844,-0.62159944,-0.986539,8
1344,0.95852387,-0.4231009,-0.10165259,-0.5779741,9
1345,0.68430364,1.1678083,-0.3745024,-1.3569543,10
1346,0.8534947,0.6782905,0.08531519,-0.31430322,11
1347,1.9194794,0.1643256,-1.2491646,-0.7812739,12
1348,0.9472573,0.941798,1.1166978,0.63799936,13
1349,0.92612934,-0.27447495,0.15439034,-0.059497863,14
1350,-0.17565,-0.52192926,-0.5937741,0.1980319,0
1351,0.6829738,0.22700769,0.7443763,-0.8636103,1
1352,0.73276615,0.0131705105,-0.49194536,-0.9926433,2
1353,0.70622927,0.41050076,-0.5398923,-0.27386993,3
1354,-0.4842884,3.0736532,0.5308555,0.6192818,4
1355,1.0780101,1.0081978,-0.6659889,-0.6939335,5
1356,0.9288123,1.3347237,-0.22275603,-0.8926477,6
1357,1.0946015,1.3746133,-0.63999504,-0.6106309,7
1358,1.2037691,1.4969931,-0.62535137,-1.0106894,8
1359,1.0603566,0.6966913,-0.441799,-0.4971748,9
1360,0.919435,0.9138883,0.23004723,-0.99289876,10
1361,0.5334854,0.8999568,0.22793254,0.22323605,11
1362,-0.028247535,-0.019298106,-1.3482258,-0.691718,12
1363,0.47898784,0.99950135,0.38701606,-0.47650284,13
1364,1.0612475,-0.25386307,0.33366033,0.10793364,14
1365,-0.63240516,0.08258209,0.088478744,-0.4762664,0
1366,0.6407725,0.14593269,0.597389,-1.4678161,1
1367,0.3298897,0.54880047,-0.8717153,-0.89245594,2
1368,0.9041295,1.952392,-0.32934648,-0.9450743,3
1369,-0.40037972,1.4450284,0.78061587,1.0752187,4
1370,-0.14185643,0.7781637,-1.1794889,-1.3846005,5
1371,-0.25859767,2.1276875,-0.391329,-0.15458876,6
1372,0.89354753,0.1416601,-0.55761397,-0.70696926,7
1373,0.41253325,0.79273707,-0.5393537,-0.38282204,8
1374,0.09821302,0.21258566,0.06562877,-0.666887,9
1375,0.5995146,0.24571386,-0.06823981,-1.4993396,10
1376,1.3472104,1.9326489,1.2763957,0.32868326,11
1377,0.33689433,-0.30445817,-0.50422513,-0.794575,12
1378,0.35993087,1.1265156,0.6147945,-0.81041163,13
1379,0.08862257,0.06885114,-0.69641495,-0.6041673,14
1380,-0.46225843,0.9463,0.9575923,1.2378422,0
1381,-0.8309818,0.985084,0.432599,-0.6256673,1
1382,1.7527366,-0.3711663,-0.09435983,-1.0038567,2
1383,0.11144918,0.0397954,-1.5320231,-1.4830213,3
1384,-1.3915689,0.34569865,-0.6712088,-0.059951663,4
1385,0.7959559,0.30381334,-0.3875088,-0.32737073,5
1386,1.732615,0.3027656,0.10428333,-0.25313425,6
1387,-0.1755429,0.43072355,-0.71937037,-1.3299918,7
1388,0.89830285,1.3796779,0.5897661,-1.2550921,8
1389,0.1422488,0.19090697,-0.66719735,-0.8032178,9
1390,1.1832051,0.89773923,-0.3673948,-1.3272717,10
1391,1.199688,-0.3191618,-0.3309569,-0.15602726,11
1392,-0.060627133,-2.1576967,-0.6974983,-0.42295843,12
1393,1.224273,0.5526515,-0.008769959,-0.49826512,13
1394,-0.04563433,0.21766075,-0.3511178,-0.7139629,14
1395,-0.016670465,1.0539494,-1.6804645,0.2352364,0
1396,1.1756971,0.7291939,0.76356363,-0.68250954,1
1397,1.0915196,0.57297826,0.3431959,-0.61747634,2
1398,1.1133486,1.741543,-0.7779282,-0.5937624,3
1399,-0.4248977,0.92413867,-0.44012442,0.5873454,4
1400,0.65357006,0.44891617,-1.7849765,-1.0179154,5
1401,0.3867573,0.4409104,-0.9696593,-1.0249499,6
1402,-0.26513034,0.7941766,-0.6081021,-1.7034603,7
1403,1.647628,1.3304431,0.250678,-0.006704867,8
1404,0.8436798,-0.6948368,-0.6291617,-0.3886009,9
1405,0.30762535,0.56721395,0.44811338,-0.55592096,10
1406,0.35678345,-0.5080435,-1.1548206,-0.366103,11
1407,0.93246055,-0.36548772,-1.2121521,0.055383414,12
1408,1.0726254,-0.67712617,-0.14801654,-0.60935825,13
1409,-0.26895404,-1.1651392,-1.6323925,-0.41664886,14
1410,0.6514828,0.1065861,-0.24277005,0.9907353,0
1411,0.94270927,0.15901026,0.20101209,-0.45953476,1
1412,0.047972143,0.7084116,0.16646586,-1.7098488,2
1413,0.6829348,1.9546826,0.09896165,-1.0979369,3
1414,0.020459592,0.63536274,-0.27222025,0.98374677,4
1415,0.4779628,0.89764345,-0.40298837,-0.68742514,5
1416,0.916412,1.242744,-1.2126554,-1.2784072,6
1417,-0.32256407,0.45356157,-0.46226084,-0.243505,7
1418,0.33339205,0.20071864,-0.408374,-0.64154077,8
1419,-0.09318155,0.9805807,-0.8195635,-1.496819,9
1420,1.0063446,1.6832962,0.10180193,-0.7379117,10
1421,0.08333653,0.54875493,0.16391693,0.07479206,11
1422,0.07010433,1.4017231,-0.5528168,-0.7880175,12
1423,0.5830134,-0.14425293,-0.38443497,-0.50107825,13
1424,0.79715306,1.3103213,0.20594099,-0.7066748,14
1425,-0.6514643,1.0819372,-0.5682088,0.90172446,0
1426,1.8329186,-0.045882806,0.07693505,0.15490645,1
1427,1.3042617,0.30460304,0.68638575,-0.21932703,2
1428,0.96106267,0.8285223,-0.18092489,-0.20888662,3
1429,-0.32020858,0.17918244,-0.4682457,0.76360464,4
1430,0.41410172,0.6545413,-1.4225425,-1.8105538,5
1431,0.16174349,1.6668745,-0.13793784,-0.1725719,6
1432,0.37299097,0.20620781,-0.8218173,-0.47637004,7
1433,1.8658547,0.71036565,-0.71931434,-1.1963108,8
1434,0.120419055,0.51619846,-0.66295165,-1.1619998,9
1435,0.7612535,1.2543178,-0.21389052,-0.36266232,10
1436,0.8264611,0.20793578,0.05835311,0.7826732,11
1437,-0.7701798,-0.6900706,-1.4765397,-0.932184,12
1438,0.8473369,0.081668526,-0.057907015,-0.51476765,13
1439,-0.22648716,1.2584664,0.14328197,-0.7997309,14
1440,-1.0726526,0.93019664,-0.6355529,-0.602865,0
1441,0.7588748,0.85348135,0.49419194,-0.44503826,1
1442,0.30280596,0.40663505,-0.35375023,-1.3945441,2
1443,-0.16754586,0.95319355,-1.1037029,-1.8113178,3
1444,0.30907035,1.4071786,1.5509245,0.85545135,4
1445,0.6291749,0.4459485,-1.5112159,-0.26067048,5
1446,0.32529205,0.108606696,-1.7338864,-1.6163204,6
1447,-0.92060983,2.1500363,-0.57476723,-1.2028296,7
1448,-0.2920587,1.6673598,-1.1176457,-1.8240429,8
1449,0.2667659,-0.9053852,-1.4087582,-0.57155144,9
1450,0.97988373,-0.46449548,-1.7634114,-0.46356386,10
1451,0.57874763,0.5171828,-0.5401198,-0.7709022,11
1452,-0.040640116,0.23628259,-1.4951587,-0.63457406,12
1453,1.0248109,0.79389465,0.9674604,-1.1170516,13
1454,0.013623416,-0.14960179,-0.47512317,-0.2410309,14
1455,-0.19890824,0.5592509,-0.80841273,0.4246321,0
1456,0.35388115,0.78164715,1.4494408,-1.2238135,1
1457,0.76323515,-0.43163896,-0.32450283,-0.1379515,2
1458,0.69328123,0.081581295,-1.4388784,-1.5147059,3
1459,-1.3403018,-0.020460337,-0.55209076,-0.7670134,4
1460,1.350692,-0.0004197955,-0.12626743,0.08226454,5
1461,0.8374567,0.31953162,-0.63549435,-0.15420616,6
1462,0.5745902,0.7484154,-0.67118824,-0.16202033,7
1463,0.991101,0.25076848,-0.9350184,-0.63842547,8
1464,1.1246673,1.3942673,-0.21100658,-0.14447922,9
1465,-0.016207576,-0.26178038,-0.98514354,-0.9274975,10
1466,0.3472423,0.42539752,-0.021541752,-0.7103798,11
1467,-0.0537014,0.1587941,-0.45747867,-1.3177274,12
1468,1.0283399,-0.7593603,0.47346333,-0.8545963,13
1469,1.0059736,0.7563944,0.413084,-0.7956454,14
1470,-0.21249107,0.84057605,-0.89179945,0.34688807,0
1471,0.77286386,0.90803653,0.83285046,-0.12978661,1
1472,2.2036958,1.6416063,0.9615846,-0.012582719,2
1473,0.18707523,-0.20185474,-0.6095344,-1.2502035,3
1474,-1.0314323,-0.7315854,0.45851648,-0.008058667,4
1475,0.5137612,0.018781662,-1.6479871,-1.0120833,5
1476,0.27038363,1.3678653,-0.57406604,-1.2187183,6
1477,0.1866276,0.6375235,-0.40573758,0.19982624,7
1478,0.8300049,0.91907275,-0.23074514,-0.74830216,8
1479,-0.55679953,0.60829437,-0.83349955,-1.3970127,9
1480,0.4962912,0.54787177,-0.42179933,-1.2027767,10
1481,0.7822758,1.2943097,0.5459481,-0.68246895,11
1482,0.50319713,-2.1799295,-0.82475585,0.004951477,12
1483,1.0001179,0.27496767,0.9293189,-0.2793727,13
1484,0.38951406,-0.95853627,-0.8696243,-0.37144184,14
1485,-1.400059,2.8502946,-0.5365066,-0.0508506,0
1486,1.0330545,0.6046603,1.171175,-0.62853134,1
1487,0.60311735,1.032614,0.15196969,-1.0801868,2
1488,-0.1897803,-1.7929921,-1.1432571,-0.67421985,3
1489,-1.7326396,0.39313558,0.22652435,-0.17695677,4
1490,0.77233905,1.3988283,-0.27738768,-0.49138066,5
1491,1.1418395,0.50759166,-1.3131555,-0.04720968,6
1492,1.3559792,1.1922685,-0.6546839,-1.0226716,7
1493,1.4446735,-0.29725057,-1.2729073,-0.017543852,8
1494,1.1290498,0.060067415,-0.17110097,-0.851282,9
1495,0.8988682,0.62998545,-0.023565799,-0.76041824,10
1496,0.9509239,0.40853435,0.34803656,0.5781223,11
1497,1.4926941,0.8142589,-0.48304147,-0.69058764,12
1498,0.61914164,0.28305373,0.54316044,-0.97363675,13
1499,1.9276679,-0.76185703,-0.40316334,0.39387092,14
1500,-0.21545029,0.8559892,-0.3086815,0.6757071,0
1501,0.97266793,0.4240092,0.124901704,-0.84640807,1
1502,0.34118626,0.75462395,-0.4577384,-1.6244991,2
1503,0.8904027,1.0986378,-0.3891831,-0.8957864,3
1504,-0.5398524,0.0057810545,-0.09974794,1.322442,4
1505,-0.12787491,0.96577495,0.3857293,-0.7848309,5
1506,0.83801043,0.79883075,-0.2916867,-0.53492206,6
1507,-0.4037876,0.2505557,-0.991348,-0.9494023,7
1508,0.45850027,1.0799699,-0.7167349,-0.8304669,8
1509,-0.2042231,1.0332211,-0.005365908,-0.16637975,9
1510,0.7363782,0.522124,-0.31713876,-1.161496,10
1511,0.6337877,0.4351995,-0.75337297,-0.17302822,11
1512,0.48642954,-1.9604516,-0.2080335,-0.16377932,12
1513,0.8902018,0.5275495,0.8385743,-0.26224923,13
1514,0.2504413,0.27965,-0.19703504,-0.42020905,14
1515,-1.0406187,0.9161192,0.51658946,1.0699468,0
1516,0.95682454,-0.049710557,-0.5883079,-1.3967524,1
1517,1.233453,0.66388804,0.36625957,-0.9602426,2
1518,0.7657409,-0.0064355433,0.22014481,-0.8330732,3
1519,-0.8922645,-0.3082605,-1.0550566,-0.24102288,4
1520,0.56373096,1.8930589,0.16714191,-1.0567333,5
1521,-0.13508314,1.0727586,-0.22479355,-0.70276284,6
1522,0.38904846,-0.061434686,-0.5168277,-1.0383551,7
1523,0.049734235,1.2247212,-0.49946666,-0.8379481,8
1524,0.8242583,1.314965,0.4114371,-1.3165498,9
1525,0.07218504,0.56975377,0.10362291,-0.23364496,10
1526,0.6990161,0.32874572,0.1652362,0.12077974,11
1527,1.1000063,-2.7134426,-1.3458676,-0.17715767,12
1528,-0.9159293,-0.024614036,0.47594967,-0.8027026,13
1529,-0.27220207,1.4502492,1.1140612,-0.31712082,14
1530,0.16702932,0.5853155,-0.8182064,0.9898312,0
1531,0.9080317,0.7834091,1.4308356,-1.4798517,1
1532,0.638356,0.87866545,-0.48142242,-0.29335374,2
1533,0.6107419,0.15950687,-0.6429617,-0.62966806,3
1534,-0.84866524,0.94537747,0.70575005,0.015640825,4
1535,1.5575123,0.6771083,-0.3117264,-0.34232873,5
1536,0.28642163,1.0986753,-1.6371093,-1.2617412,6
1537,1.6107917,0.4650948,0.10119507,-0.83891404,7
1538,1.1916909,0.6101399,-0.6096673,-0.42468,8
1539,-0.93071854,0.07075778,-1.5649068,-1.3062718,9
1540,0.24341922,0.82771814,0.12498808,-0.91623545,10
1541,0.97909224,0.18452609,-0.3292542,0.6397429,11
1542,0.21259908,-0.50017464,-0.75076306,0.33923498,12
1543,0.64116514,0.29424387,0.247557,-0.63135874,13
1544,-0.45352834,-0.5550629,0.15694156,-0.9406787,14
1545,-0.90489256,-0.24123123,-0.7424197,0.7163139,0
1546,0.40293032,0.72303325,0.74699867,-1.4079132,1
1547,0.098300576,0.9133859,0.3885759,-0.0855037,2
1548,1.5367806,-0.79421353,-0.15180397,-0.91949177,3
1549,0.25531,0.40960208,-2.6211748,0.7970542,4
1550,0.7358728,-0.38597494,-1.0101297,-0.9606602,5
1551,1.3807092,0.04746759,-0.26232618,-1.1794119,6
1552,0.18431574,1.8276885,0.5539415,-0.5312687,7
1553,0.97986794,-0.12591773,-0.1414867,-0.3224634,8
1554,0.28455505,-0.4313063,-0.5329682,-0.7669084,9
1555,0.38150996,0.920753,-0.6167827,-0.58921343,10
1556,0.014770925,-0.2981384,-0.75537515,-0.7325035,11
1557,1.159186,-1.9414291,-0.58099633,-0.65774083,12
1558,0.94080734,0.005002111,-0.2390317,-1.1163731,13
1559,0.68174547,-0.025890559,-0.51470965,-0.3574175,14
1560,-1.2116655,-0.08133453,0.8138291,0.384721,0
1561,0.36061457,0.94642085,0.20163721,-1.2805481,1
1562,1.6264791,1.4772491,0.8554229,-1.4589757,2
1563,-0.26467836,0.49507776,-1.0523341,-1.8950987,3
1564,-0.6662245,-1.1721083,-1.2732134,-0.43660623,4
1565,-1.2470887,0.062325776,-0.40191245,-1.7410704,5
1566,-0.0008870959,0.21400312,-1.9784508,-0.34426016,6
1567,0.101038925,1.0059143,-0.48474258,-0.9201205,7
1568,0.7100802,1.140548,-0.8195079,-0.9947439,8
1569,0.5110282,-0.62719804,-0.41758814,-0.3323637,9
1570,-0.014251828,0.8320159,-0.7874223,-1.0066562,10
1571,0.47739428,0.5485186,0.8747705,0.14803119,11
1572,0.95785505,0.22245556,-0.67111385,-0.003629744,12
1573,0.9048425,-0.3940561,-0.26547638,0.11497086,13
1574,0.6166709,0.8963754,-0.4488717,-1.0184438,14
1575,-0.8184625,0.33363697,1.1014681,0.23726735,0
1576,0.7943482,-0.16574593,1.8377715,-0.5664511,1
1577,0.7674998,0.5264143,0.6291222,-0.46448413,2
1578,1.3264346,0.70240295,-1.1671138,-0.96560514,3
1579,0.19944155,1.3585179,-0.75101095,1.2631868,4
1580,1.0529578,0.4617062,-1.0342264,-1.0099683,5
1581,0.34547704,0.09241533,-0.80722594,-0.7194216,6
1582,0.63267845,0.9078971,0.32843217,-0.5456444,7
1583,0.43835515,0.16191912,-0.4231677,-1.1743469,8
1584,-0.098908514,1.0373374,0.3365764,-0.74704266,9
1585,0.27619016,0.5937274,-0.4218485,-0.63107014,10
1586,0.6835068,0.04930377,-0.5504123,-0.3191886,11
1587,0.87727326,0.191603,-1.8552363,-0.10670996,12
1588,0.72608626,0.83752406,0.51281416,-0.9812189,13
1589,0.06272614,0.39841995,0.9858187,0.16691098,14
1590,0.053518116,-0.31158456,-1.2968941,1.1829871,0
1591,1.2139564,0.014626831,0.05690758,-0.23964792,1
1592,0.08548105,0.123057455,-0.31321204,-0.73224026,2
1593,-0.44931394,0.5408905,-0.7741172,-1.786991,3
1594,-0.38596413,-0.3741501,-1.2564213,-0.10456562,4
1595,0.62072927,-0.11034495,-0.50242555,-0.95456195,5
1596,1.0003126,0.13427863,-1.2784019,-0.8965697,6
1597,-0.59926766,0.65543586,-0.761284,-0.58664614,7
1598,1.3498439,0.8027153,0.47150832,-0.14826733,8
1599,0.98395646,0.43249595,-0.05061394,-0.30514932,9
1600,0.18290448,0.32007086,0.0744603,-0.69242775,10
1601,0.72571063,1.6429168,0.35438177,-1.0471269,11
1602,0.23260064,-1.3663203,-1.9512682,-0.66896534,12
1603,-0.025164127,0.8962933,0.59040177,-0.47734794,13
1604,1.7201364,-0.11239311,-0.48764876,0.056518734,14
1605,-0.3344804,0.89329696,-0.35064182,1.5911843,0
1606,-0.18787438,-0.42012948,-0.4193697,-1.2526062,1
1607,0.11592549,1.0762533,0.28446478,-0.94516444,2
1608,0.6299366,-0.39644638,-0.790977,-1.2619426,3
1609,-0.83926034,0.46468624,0.888241,1.7183361,4
1610,1.0662572,0.14711374,-0.65787303,-0.41365778,5
1611,0.5085917,1.4640245,-0.87435627,-0.9213321,6
1612,-0.07532869,0.27166575,0.8050028,-0.17694718,7
1613,0.6092872,1.1257045,-1.5777224,-0.94009566,8
1614,0.96645814,0.061472952,-0.6567458,-1.0437455,9
1615,-0.1568098,0.3318904,-1.3072408,-1.5233324,10
1616,1.2094288,-1.061669,-1.2714745,0.15306576,11
1617,0.73524916,0.16226679,0.18973172,0.1290715,12
1618,-0.37758002,-0.29291788,-0.1284782,-0.63979775,13
1619,-0.076028824,0.60146344,0.33693543,-0.28978765,14
1620,-0.35600618,1.5162523,-0.39320695,0.07118127,0
1621,0.13394248,0.19535562,-0.083939314,-1.1885037,1
1622,0.7098519,1.0529711,-0.31302747,-0.73305833,2
1623,0.5004086,0.2639233,-0.57622707,-0.4402387,3
1624,-0.84332025,1.049589,0.58599997,0.62408584,4
1625,0.90680206,0.93395066,-0.6802859,-0.3234414,5
1626,0.55781263,-0.29790384,-1.3040961,-1.7948414,6
1627,0.2228536,0.9997091,-0.5970174,-0.8242505,7
1628,-0.12206292,1.7149417,-0.9143575,-1.7877159,8
1629,0.38494673,-0.89140445,-1.1596828,-0.9185636,9
1630,-0.45923114,-0.19269925,-1.1668507,-1.8143424,10
1631,1.1065032,0.89280975,-0.042968698,0.071443215,11
1632,1.3960888,0.6415393,-0.6693182,0.34949955,12
1633,0.69567823,0.32810783,0.05169016,-0.72702914,13
1634,1.4882699,0.4192884,0.5441918,1.0561894,14
1635,-1.1706293,3.0258095,0.2959115,-0.7025249,0
1636,0.7477105,-0.4154126,-0.9494537,-0.9315652,1
1637,0.18107086,0.25178358,-0.414193,-0.5500765,2
1638,1.3922493,1.2484292,0.9744142,-0.65494335,3
1639,-1.1375341,0.6451856,-0.015214294,-0.19863409,4
1640,0.81646603,1.0996604,-0.3812866,-0.36970946,5
1641,1.4448261,-0.03411281,-1.1453373,0.18912816,6
1642,-0.13035457,0.39338356,-1.1253524,-0.9489205,7
1643,0.4311815,1.7437917,-0.9262432,-1.542273,8
1644,0.2533714,0.23206544,-0.49453977,-0.23562706,9
1645,1.692362,0.31654364,-0.071508706,0.017583847,10
1646,0.57374614,0.8690375,1.0048763,-0.15647514,11
1647,0.60166055,-2.3262615,-1.0740886,0.3176618,12
1648,1.5880227,1.237181,0.644132,-0.5921285,13
1649,1.4071066,-0.07083002,0.23019633,0.46158746,14
1650,-1.6168019,0.8259759,-0.56862015,-0.095777184,0
1651,0.05757457,-0.002737239,-0.3928765,-1.2680717,1
1652,2.1082442,1.2345303,0.98673266,-0.81126016,2
1653,1.2374743,-1.1149098,-0.5305042,-0.68189746,3
1654,-0.9201766,-0.51590484,1.4576461,0.057916403,4
1655,-0.19471961,-1.1426817,-1.8371133,-0.40499467,5
1656,1.7409511,-1.0475276,-1.0079778,-0.32439983,6
1657,-1.2599276,1.6149625,-0.31266797,-1.4998384,7
1658,0.33436325,0.35036346,-0.7879088,-0.9380197,8
1659,0.57043374,0.9072932,-0.37540194,-0.68376595,9
1660,0.10271889,-0.40167445,-2.0126717,-0.79174507,10
1661,0.6590462,-1.0917011,-0.03842909,0.406999,11
1662,0.9393033,0.40091294,0.37401426,0.42770705,12
1663,0.28631318,0.53665864,0.021838605,-0.91604173,13
1664,0.89180934,1.136568,1.0408052,0.32608184,14
1665,-0.9042369,0.5153119,0.041254163,-0.50934803,0
1666,0.47926718,0.45118344,0.7126426,-0.34800848,1
1667,1.1256852,0.1393269,-0.49228597,-0.48034164,2
1668,1.2067311,0.45959657,-0.663662,0.05170709,3
1669,-1.256964,0.78201675,-0.5348801,-0.4359749,4
1670,0.09098244,0.3004077,-1.3062938,-1.001106,5
1671,0.27514088,0.65206987,-1.0630778,-0.70285946,6
1672,-0.07033752,0.23847654,-0.0035116374,-0.7231257,7
1673,2.0568602,2.24028,0.8757573,-0.66196436,8
1674,-0.08892807,0.4389426,-0.5700277,-0.7149194,9
1675,0.4945446,0.9074277,0.18516374,-0.9569435,10
1676,0.1148023,-0.45151237,-0.45217818,-0.37298054,11
1677,0.7318196,-1.05272,-1.877316,-0.5963914,12
1678,0.23300749,0.34439224,0.5999341,-1.2858527,13
1679,0.25795636,0.1590043,-0.18426612,0.1198878,14
1680,-0.49620718,0.4324824,0.3269487,0.49492353,0
1681,-0.22818404,0.70338774,0.3407762,-1.1051861,1
1682,0.5580658,1.2477695,0.21038496,-0.3483215,2
1683,1.0366405,1.3314505,0.51486146,0.403906,3
1684,-0.3466881,1.4167533,-0.48483253,1.1899908,4
1685,0.91506195,-0.17819989,-1.6453571,-0.11122334,5
1686,0.5288929,0.6144352,-1.5779552,-0.78521174,6
1687,0.21920522,1.0184691,-0.39232898,0.12100625,7
1688,0.55088365,0.24184984,-1.0112535,-0.87690663,8
1689,1.0989876,0.9158629,-0.86501336,-1.2959843,9
1690,-0.1634574,1.459564,0.34457874,-0.5058179,10
1691,-0.45266455,0.08912307,0.10339143,0.19518012,11
1692,0.15924186,-0.4935162,-0.95953983,-1.1439867,12
1693,0.7660313,0.4024452,0.1495628,-1.1347985,13
1694,-0.008286774,0.54085517,-0.14634159,-0.08476731,14
1695,-0.79732704,0.19927202,-1.4677447,0.7740489,0
1696,1.2901756,1.0368587,0.22284612,-0.5549277,1
1697,1.512217,0.0025911927,0.7236912,-1.5104773,2
1698,-0.5485843,0.7397454,-1.4886286,-1.1505978,3
1699,-1.463867,1.1915984,-0.18718088,0.27980784,4
1700,0.7820475,-0.79582334,-2.220015,-0.5952188,5
1701,1.3012396,1.005396,-0.36776862,-0.75865525,6
1702,0.79977816,0.36417657,-1.7115648,-0.67815703,7
1703,0.6165482,2.1962695,0.25298244,-0.41887888,8
1704,-0.12639537,0.91048324,-1.4079845,-0.44467643,9
1705,0.22674444,0.9696994,-1.3544941,-0.90171945,10
1706,0.28387105,0.2955832,0.3595619,-0.323215,11
1707,0.7320014,-0.34651393,-0.98497903,-0.4000767,12
1708,-0.44288275,-0.6943283,0.0012501478,-0.919502,13
1709,0.6389123,-0.26683703,-1.4417096,-0.5796902,14
1710,-2.090736,-0.23559317,-1.4043324,0.040512353,0
1711,0.4765123,-0.27756983,0.9140967,-0.74564946,1
1712,0.8009489,0.5071793,0.23268694,-0.33874816,2
1713,0.34143057,0.5207563,-1.8742579,-0.14683568,3
1714,-0.37762457,-1.0939089,-1.2598975,0.41717184,4
1715,0.6207854,0.7320607,-0.6395706,-0.6835499,5
1716,0.9815335,-0.35299218,-2.0522244,-0.50486004,6
1717,0.522061,1.3351498,-0.21799532,-0.82073575,7
1718,0.63984305,0.39603367,-0.48611587,-1.2988728,8
1719,-0.17680532,0.059381902,0.8221503,-0.21307993,9
1720,0.74378216,1.3052809,0.5747814,-1.4644654,10
1721,0.4709939,1.3335125,0.1642502,-0.05667768,11
1722,-0.1026777,-1.2019761,-2.165277,-0.47832823,12
1723,1.390699,1.3521063,1.1428584,-0.80127156,13
1724,-0.37140214,0.26559252,-0.8964731,-1.6294893,14
1725,-0.58683515,1.400517,-0.24140382,1.0766325,0
1726,0.3901701,0.82623625,0.019248635,-0.10861671,1
1727,-0.6528333,0.89988846,-0.7361128,-1.5762043,2
1728,1.7141938,1.9413205,-0.40395415,-0.6496654,3
1729,-1.3677812,-0.3098883,0.14193201,-0.01101613,4
1730,0.5804271,0.8905225,-1.5379081,-1.065393,5
1731,0.70009995,0.0677703,-0.91571456,-0.73289114,6
1732,0.5510243,0.055712223,-0.68201786,-1.2265774,7
1733,0.95888203,0.797402,-0.84412104,-0.7588681,8
1734,1.241703,0.9864869,-0.29196143,-1.1306269,9
1735,0.7987491,1.2560363,0.7104479,-0.9577593,10
1736,0.38082853,1.2262864,0.029768817,1.1234038,11
1737,0.017576337,-1.2633092,-1.02497,-0.36510223,12
1738,0.68327767,0.39684322,-0.5446664,-1.3695066,13
1739,0.5048338,0.09809449,-0.40940118,0.047255725,14
1740,-1.289447,2.6306832,-0.060408235,-0.5377586,0
1741,0.46511817,0.5960052,0.34608817,-1.2975104,1
1742,1.0816138,-0.8880629,-0.8413342,-0.3315286,2
1743,0.7725493,-1.1629914,-1.0469954,-0.9986272,3
1744,-0.51184326,0.09018639,-0.655289,-0.020866454,4
1745,0.7364934,0.623298,-0.45279917,-0.43720284,5
1746,1.2569737,-0.9790325,-1.6478289,0.36481047,6
1747,0.24496433,0.32442343,-0.87624204,-0.43338406,7
1748,0.45452082,1.7086097,-0.27343333,-1.3317556,8
1749,-0.066156805,1.1708868,0.46693224,-0.9360561,9
1750,-0.8780706,0.43534967,-0.29111606,-1.2920086,10
1751,0.14790398,0.06277472,0.2695672,-0.61909455,11
1752,0.9415203,-1.7363002,-1.0055798,-0.5292301,12
1753,-0.3611969,-0.17777178,0.62006414,-1.117732,13
1754,-0.53683287,0.01027745,-0.8603163,-0.71516395,14
1755,-0.39105812,0.33335108,-0.74640894,0.3593189,0
1756,-0.5836316,0.32827723,0.30251777,-1.5838381,1
1757,0.33963013,1.5264318,0.8315243,-0.56081903,2
1758,0.9306749,-0.08569929,-1.3999661,-0.2557546,3
1759,0.19648862,0.20659071,-0.9377258,0.42134935,4
1760,-0.10134661,-0.47322392,-1.3402071,-0.92485493,5
1761,-0.5740952,0.862545,-0.4765644,-1.1394955,6
1762,0.33123553,1.58754,1.2173227,-0.82069373,7
1763,0.6466266,0.8789922,-0.98120236,-0.40846294,8
1764,-0.0011469424,0.21336946,-0.69182444,-1.0212817,9
1765,0.90771365,0.19517058,0.25665462,-0.07808626,10
1766,0.94700444,1.8430157,1.4974387,-0.6344418,11
1767,-0.16494054,-0.7638967,-0.49923366,-0.65476704,12
1768,0.020298898,-0.7084329,-0.35787198,-0.9024161,13
1769,1.022407,0.7628419,-0.48366335,0.0036027431,14
1770,-0.13950291,2.098625,-1.1832697,0.34891257,0
1771,1.0237391,-0.9716177,-0.15363604,-0.7111688,1
1772,0.50054824,-0.34232074,-0.7219411,-1.0608783,2
1773,0.28527746,1.231621,1.0543618,-0.5341153,3
1774,-0.89026964,-0.58269143,-0.8326195,0.531461,4
1775,1.9482229,-0.5576992,-0.7825651,-0.56230974,5
1776,-0.0178684,0.56232214,-0.96898144,-0.36075556,6
1777,-0.59340477,1.0947585,-0.7835618,-0.6475895,7
1778,1.0264816,-0.27528423,-1.583115,-0.64433986,8
1779,-0.77225316,-0.90688604,-1.3322701,-1.3588362,9
1780,0.70310557,0.84488714,-0.033705413,-0.9786255,10
1781,0.28926727,0.54096794,-0.08559283,-0.33293867,11
1782,0.9753023,-1.7278812,-1.6258044,-0.26447794,12
1783,-0.3453947,0.2506502,1.3194995,0.20161235,13
1784,0.20344001,-0.48649392,-0.9416092,-1.0876403,14
1785,-0.50663465,-0.16238871,-0.51026154,1.4892597,0
1786,0.94372296,0.18975163,0.18362579,-0.56093955,1
1787,-0.46536082,1.3907987,0.6893954,-1.3982002,2
1788,-0.017091036,-0.11367679,-1.6424525,-2.0253048,3
1789,-0.55169624,-0.88202584,-2.0136383,-0.19175267,4
1790,0.69603527,1.5479331,-0.8157512,-0.7829544,5
1791,-0.12643725,-0.17941397,-1.0662923,-0.7637458,6
1792,1.2668868,-0.8885861,-1.6907555,-2.3782647,7
1793,0.52908254,0.77405226,-1.1417978,-1.2955029,8
1794,0.7497283,0.99102724,-0.16671816,-1.2203277,9
1795,0.51068807,1.3959684,-0.06845632,-0.9918481,10
1796,0.9722586,1.01499,-0.17148632,0.24036665,11
1797,0.26553354,1.8314135,-0.9068662,-0.079334766,12
1798,0.3179853,0.8851119,0.9648328,-1.423576,13
1799,1.1296026,-0.47856966,-0.19145083,-0.9035194,14
1800,-1.2245239,1.7693425,-1.4584675,-0.44695917,0
1801,0.44523463,0.96074265,0.4741134,0.29960376,1
1802,1.0147934,1.1499084,0.7932645,-1.5751891,2
1803,0.479169,1.409949,0.53952265,-0.6436606,3
1804,-0.50668985,0.17750436,-0.46037915,0.70191103,4
1805,0.5582774,0.66816276,0.001747191,-0.17424846,5
1806,0.9690194,-0.03395617,-1.0590806,-0.34551126,6
1807,0.29427055,0.2679993,-0.7190756,-1.3780105,7
1808,1.7409564,1.5264723,-0.6051208,0.06321192,8
1809,-0.4950332,0.09339249,-0.88017154,-0.8179436,9
1810,0.8973656,0.6868732,-0.39042175,-0.9696106,10
1811,1.5907401,-0.42435285,-0.3514477,1.1235229,11
1812,0.55502725,-0.31740075,-1.0693412,0.06345868,12
1813,0.27881712,-0.048448652,-0.42262056,-0.904229,13
1814,-0.46051496,-0.19211179,-0.85015863,-1.4205769,14
1815,-0.34835237,-1.7083949,-1.8514001,0.38808346,0
1816,1.4129288,-0.21661906,0.007897928,-1.2661437,1
1817,0.39856607,-0.2403019,-1.4843173,-0.8904569,2
1818,0.59146774,1.4611373,-0.2213454,-1.2830161,3
1819,-0.9088023,1.1713195,0.5717766,0.7092585,4
1820,-0.13101697,1.6963359,0.13987452,-1.0523139,5
1821,-0.04350102,1.0372008,-1.1715876,-0.13906217,6
1822,0.65418804,1.2574055,0.37767586,-1.0203838,7
1823,1.2330458,-0.5364353,-0.74457437,-0.07145703,8
1824,-0.12027922,0.91104007,-0.47556978,-1.3195009,9
1825,0.075529635,-0.086462975,0.21097171,-1.4943547,10
1826,0.3258286,0.7335832,0.30448216,0.04424713,11
1827,-0.18974155,-1.9395089,-1.0806619,-0.07114607,12
1828,1.1872474,0.53822035,0.1575408,-0.48991913,13
1829,0.043661177,0.27866602,-0.17055227,-0.6384895,14
1830,-1.259421,-0.54405737,-0.78619236,-0.18524995,0
1831,0.05641234,-0.13087972,0.24785812,-1.7138917,1
1832,0.5535011,0.9620817,0.89187115,-1.0982487,2
1833,1.1284449,1.6480561,-0.29635364,-1.5191267,3
1834,-1.0880818,0.6565968,-0.1825011,-0.22473592,4
1835,0.13757583,0.51490295,-0.12968934,-0.5867883,5
1836,1.2479374,0.10807964,-0.54474336,0.14734435,6
1837,-0.14176364,1.8746297,1.100954,-1.4140214,7
1838,-0.17982495,0.14204544,-0.5478958,-1.6882074,8
1839,0.5231094,1.3597233,0.34130293,-0.6629064,9
1840,-0.3546257,1.5118021,0.17078447,-0.36503822,10
1841,1.561168,0.8298315,0.6833455,0.1719464,11
1842,0.5266633,-0.2997454,-0.7316703,-0.5338891,12
1843,-0.887499,0.41216615,-0.1243698,-0.3888964,13
1844,0.855675,-0.6736884,-0.21976784,-1.12608,14
1845,-0.8869673,-0.8060434,-0.25245214,0.5486837,0
1846,0.027817309,0.2923104,0.15451556,-0.9702746,1
1847,1.4388651,1.0279324,1.110688,-1.0533907,2
1848,1.0925136,0.37674522,-0.8180728,-0.64195883,3
1849,0.02673614,-0.28109002,-0.3486612,1.7538216,4
1850,1.6073205,0.7081264,0.66902983,-0.31328207,5
1851,1.1562575,0.16377658,-1.3845654,-0.37320513,6
1852,0.7915152,0.95007336,-0.14711013,-0.19598818,7
1853,0.5320269,1.4197946,-1.3671529,-1.1383756,8
1854,0.060590774,-0.22134495,-0.46340278,-1.1175125,9
1855,-0.35845828,0.47314218,0.5049013,-0.83320314,10
1856,0.1676411,1.1091914,-0.8435852,-0.43072248,11
1857,1.2813816,-0.47735348,-1.4886504,-0.28155798,12
1858,-0.17714766,0.23715091,-0.17528698,-0.8974714,13
1859,0.49879518,1.590041,-0.61112356,-0.3692001,14
1860,-1.1458914,-0.4412653,-1.3309541,-0.5970397,0
1861,0.43549505,-0.019736364,-0.9310483,-1.7754465,1
1862,0.24626473,0.657323,1.1789774,-0.6199862,2
1863,0.29202625,0.7041279,-0.3800218,-0.9783124,3
1864,-0.37471074,0.39238164,-0.23241034,1.0299633,4
1865,0.048216224,2.5056448,-1.0878785,-1.4422579,5
1866,0.9337522,1.155984,-0.65941215,-0.39574486,6
1867,1.6943837,-0.20804197,-0.49450877,-0.4190409,7
1868,0.31921285,-0.035406232,-0.8600894,-1.4287324,8
1869,-0.09441203,1.4650061,-0.15828001,-1.7773314,9
1870,0.12536794,0.7971413,-0.0048582554,-0.5514195,10
1871,1.5804136,0.53649974,0.45807526,0.65894425,11
1872,-0.26358002,-0.3756175,-0.96587604,-0.9764633,12
1873,0.5060528,0.52826166,0.87196434,-0.48919323,13
1874,0.25713414,-0.10902828,-2.4412212,-1.1877638,14
1875,-0.1563681,0.8587829,-0.5163729,0.8104076,0
1876,0.32874778,0.231108,1.2641954,-1.8100325,1
1877,0.8944658,1.2513909,0.28906086,-1.006336,2
1878,0.21039939,1.2676411,-1.2356497,-1.1662078,3
1879,-0.5250985,-0.007099718,-0.73425305,0.34584466,4
1880,1.5921843,1.3711128,-1.0837476,-1.191194,5
1881,1.6670115,0.47983456,-1.3856764,-0.3171724,6
1882,-0.68961245,-0.2763726,-1.8876089,-1.0865666,7
1883,0.32146645,1.006685,-1.0738714,-0.47709474,8
1884,-0.3602211,0.7518787,-0.52395374,-1.2191277,9
1885,0.97909814,0.14929464,-1.1569375,-0.8713348,10
1886,0.46492052,-0.058122903,0.6648263,0.35959363,11
1887,0.7441086,0.6901358,0.15107262,0.7625197,12
1888,1.2147157,0.61480194,-0.47983423,-0.7944708,13
1889,-0.47923833,-0.64021754,-1.4276425,-1.192229,14
1890,-0.97638357,-0.3005,-0.42530662,0.38133252,0
1891,1.2597641,1.592245,0.10375804,-1.2446009,1
1892,0.5337861,0.36137664,0.037115525,-0.47111487,2
1893,1.0142783,0.56636655,0.15240347,-0.50588346,3
1894,-1.5024891,-0.58139455,-0.5462086,0.09029186,4
1895,0.5862338,1.0239187,-0.22483945,-0.7638102,5
1896,0.9284352,1.0581907,-1.2962897,-0.68270105,6
1897,-0.49779552,-0.008695781,-0.8739339,-0.83024704,7
1898,0.3226712,0.24142772,-0.56837714,-0.68284106,8
1899,0.88631546,-0.3606227,-1.2799135,-0.57539046,9
1900,-0.2083599,1.8685751,0.40459144,-0.5529294,10
1901,0.82906294,0.72951007,0.91628623,0.08067648,11
1902,0.3765487,1.0210414,-0.41662675,-1.2366742,12
1903,1.3976066,1.0825045,1.3710961,-0.37516597,13
1904,0.24806812,-0.375322,-0.35112527,-1.4920917,14
1905,0.026295066,0.3874739,0.24335665,1.0557666,0
1906,0.65118444,-0.19815828,0.2801055,-1.4105546,1
1907,0.9240715,-0.24209034,-0.10609053,-0.34939784,2
1908,0.51915246,0.9449338,-0.9542421,-0.8364815,3
1909,-1.1913393,1.4306515,1.418958,-0.3737157,4
1910,1.0946656,1.3098015,0.55190647,-0.5010381,5
1911,0.40474376,0.59183085,-0.7938221,-1.1351233,6
1912,-0.0061641335,1.555484,0.30796835,-1.35728,7
1913,1.1872115,1.5596881,-0.8094319,-0.96444696,8
1914,0.652991,-0.22745413,-0.61094844,-0.36746767,9
1915,1.0856136,-0.1015141,-0.52656806,-0.84842736,10
1916,0.5808774,1.1927996,0.72422993,-0.20546395,11
1917,-0.19244641,-1.6362035,-1.1123958,-0.40318474,12
1918,1.357218,-0.67099035,-1.1818459,-1.2139376,13
1919,1.4433663,-0.7752212,-0.43314284,-0.67544746,14
1920,-0.5387632,-0.91065645,-0.6338189,0.1262368,0
1921,1.8299279,0.44238257,0.7579638,0.61233944,1
1922,-0.018266499,1.0452293,0.5596261,-0.75111645,2
1923,-0.45688587,0.29429528,-1.4668372,-0.99840367,3
1924,-0.24458188,-0.50660896,-0.4306182,0.7210898,4
1925,0.8293636,1.8013895,0.05782491,-0.58711946,5
1926,0.8176481,1.5171995,-0.77848303,-1.4963121,6
1927,-0.38517612,1.3572739,-0.95394844,-1.2343974,7
1928,0.56712323,0.63580424,0.49847,-1.1104289,8
1929,0.3220317,1.2528592,0.17263085,-2.115025,9
1930,0.7948966,1.4913428,0.5621355,-0.41276258,10
1931,1.4406004,0.76688945,0.94046974,0.27595565,11
1932,1.2482443,-0.23145455,-1.7701522,-0.08460906,12
1933,0.06996158,1.1477507,-0.34768,-0.30363122,13
1934,0.43515277,-0.21338734,0.042494796,0.029005915,14
1935,-0.3233328,-0.19152716,0.595341,1.7572482,0
1936,1.0536728,0.24612804,0.47775322,-0.08114362,1
1937,-0.04072672,0.5458103,-0.34411108,-1.0129713,2
1938,0.43264627,0.67877245,0.35158312,-1.421946,3
1939,-0.18535137,1.1519507,0.37772614,1.0462707,4
1940,0.55122745,0.26442426,-1.9046533,-1.7817128,5
1941,0.24734503,0.16929114,-1.3873101,-1.570998,6
1942,0.6014957,0.56911397,-0.27070618,0.026668608,7
1943,1.4216096,0.29146844,-1.3907821,-1.1790226,8
1944,0.28693992,-0.008438945,-0.8031128,-1.3794681,9
1945,-0.11070371,0.1104269,-1.5458264,-1.6049232,10
1946,1.978576,1.0551158,1.1175044,1.5196239,11
1947,-0.709771,0.061757624,-0.7686345,-0.7395818,12
1948,0.30677587,0.06920344,-0.3148711,-1.1977245,13
1949,0.29284614,0.45952028,-0.9784553,-0.68202925,14
1950,-0.7830282,0.48750317,-0.6712392,0.07600385,0
1951,0.19012982,0.4417976,0.63822174,-1.4378827,1
1952,0.2929566,1.6840835,0.8408338,-0.07927966,2
1953,0.5823292,-1.3373605,-1.0211384,-1.2635629,3
1954,-1.5062578,0.39144367,0.67294747,0.4966802,4
1955,-1.2614584,-0.90088284,-1.436785,-1.0005999,5
1956,1.1678934,0.8042682,-0.040344357,-0.09415585,6
1957,1.0716422,-0.2385832,-1.6734521,-0.52120674,7
1958,0.76702964,0.53345615,-0.98365206,-0.6647967,8
1959,0.23663905,1.5768659,-0.86291736,-1.4233613,9
1960,0.50956166,1.5756128,0.6452769,-1.1002983,10
1961,-0.26538563,0.33962655,-0.81846106,-0.039903287,11
1962,-0.12393725,0.42190117,-0.4618229,-1.2089174,12
1963,0.7648921,1.216381,1.1010886,-0.6782476,13
1964,1.0734894,0.12017742,-1.0899161,-0.23564547,14
1965,0.34312886,-0.5881313,-2.0120583,0.6942608,0
1966,0.26387098,-0.5705271,0.24232417,-0.86653084,1
1967,1.1854558,1.1891727,-0.27939853,0.020637691,2
1968,1.6729295,0.95848775,-0.7319271,-0.38654363,3
1969,0.4167511,-0.41119426,0.19832647,1.9157555,4
1970,0.38650882,0.572628,-0.6341719,-1.033011,5
1971,0.13040146,1.1354806,-0.65712935,-1.2275748,6
1972,-0.6049411,0.2594369,-0.1402995,-0.8606314,7
1973,0.40069076,1.6873447,0.67355245,-0.7663386,8
1974,0.1676764,0.55211645,0.4359874,-0.16538507,9
1975,-0.36024672,1.4506648,1.5035219,-0.5670442,10
