,locs0,locs1,locs2,locs3,subject
0,-1.698696,1.1394935,-0.855406,-0.7781538,0
1,0.25385487,-0.19373335,-0.23776875,-1.1681595,1
2,0.6084964,0.10197283,-1.0899535,-1.3017356,2
3,1.2886469,0.60898364,-0.93650186,-1.2074828,3
4,-0.9567579,0.30921102,-1.01358,-0.40360117,4
5,-0.6607535,0.9029087,-1.3457901,-1.3203392,5
6,1.2329602,1.4936397,-1.2160833,-0.80479264,6
7,-1.3290219,1.0779591,-1.0509055,-2.0286906,7
8,0.26505363,1.6896075,-0.76555157,-1.508442,8
9,-0.6490483,-0.10201919,-0.6180545,-1.1379743,9
10,0.653155,1.6389043,-0.5289483,-1.9563781,10
11,1.5439327,0.04962623,-0.6564016,0.32407698,11
12,0.011773914,-2.3425686,-1.3804379,-0.8373578,12
13,-0.03766141,0.16540067,-0.5782533,-0.65360093,13
14,1.4368556,-0.20224288,-0.028022438,0.113698065,14
15,-1.584715,0.2177138,-1.4823782,-0.4083035,0
16,0.77143615,-0.4343363,-0.6476823,-1.217342,1
17,-0.30636448,0.49801856,-0.8781462,-1.4507855,2
18,1.114294,0.09169966,-0.5779841,-1.329241,3
19,-0.65331435,0.08291131,-0.16317597,0.2400501,4
20,0.16371325,1.4199998,-0.55293185,-0.8864682,5
21,0.14728439,0.3866758,-2.2612026,-1.042661,6
22,-0.958223,1.4235283,0.07142675,-1.6188184,7
23,1.914211,0.8202511,-1.903181,-1.3583889,8
24,-0.2821604,0.49659014,-0.21622181,-1.6451781,9
25,-1.0732125,1.2723798,-0.95389044,-2.0653927,10
26,1.3249252,0.74485636,-0.22783326,0.534926,11
27,0.15715355,-1.7482147,-1.2199289,-0.4963233,12
28,-0.21515363,-0.84854764,-0.18920356,-0.6087984,13
29,0.2547434,-1.1332011,-1.115531,-0.49399233,14
30,-0.7269378,0.9166165,-0.5800193,0.36824748,0
31,1.3951917,0.13562125,-0.052569658,-1.1743975,1
32,1.2647763,-0.34111792,-1.0669963,-1.4083796,2
33,0.37547824,-0.61933166,-1.6692015,-1.180132,3
34,-1.0179405,0.2573803,-0.40915674,-0.26447797,4
35,-0.025757425,-0.641145,-2.3560555,-1.0775195,5
36,0.46567437,0.33680472,-2.6700134,-1.0020697,6
37,-0.8347848,1.6294482,-1.460352,-1.8587685,7
38,0.37156594,1.2674232,-1.6633103,-1.7005149,8
39,-0.17890981,-0.6308325,-1.6305585,-1.1062297,9
40,-1.1332351,1.1453767,-1.3674045,-1.8849143,10
41,1.0771643,0.3563937,-0.2972958,0.19216533,11
42,0.37827563,-1.0466309,-1.7048273,-0.57203233,12
43,0.49486664,-0.13999152,-0.33301514,-0.9161794,13
44,1.3029933,0.26929379,-0.6948507,-0.67257327,14
45,-0.073242426,-0.72421426,-2.2259521,0.26583984,0
46,1.5500029,-0.6298342,-0.5372621,-1.2021748,1
47,1.1235483,0.7522076,-1.3062413,-1.4737284,2
48,1.6001227,-0.8260103,-1.7999381,-1.1478672,3
49,-0.7033537,0.46228302,-0.6898424,0.056123555,4
50,0.26586613,-0.6818969,-1.3088392,-0.9245607,5
51,0.69657046,0.8493494,-1.9659581,-1.1567975,6
52,-1.773185,1.3235775,-0.47304747,-1.882256,7
53,1.8932905,1.1569242,-1.7553442,-1.6497,8
54,-0.16272785,0.7678168,-0.74212575,-0.9946515,9
55,-1.7115836,0.625587,0.08522779,-1.8599652,10
56,1.215174,0.09095389,-0.19547023,0.004579589,11
57,0.5550184,-1.2636071,-1.4071673,-0.07202983,12
58,0.25812018,0.37658152,-0.74412036,-0.97774816,13
59,0.9496426,-0.8717491,-0.87034273,-0.10288566,14
60,-1.312583,1.5536716,-0.9478506,-0.52784336,0
61,1.4237975,-0.8002054,-0.018776208,-1.0493057,1
62,-0.33281064,0.030284882,-0.8298547,-1.5211773,2
63,1.4615021,1.0282857,-0.9507997,-1.0739166,3
64,-2.2394447,0.669485,1.7514122,-0.96639144,4
65,0.06450822,-0.6872736,-0.9560653,-0.71248204,5
66,0.59629595,1.9816506,-1.973378,-1.055352,6
67,-1.6215154,0.23382246,-2.061634,-1.8574653,7
68,1.267123,2.0111825,-1.1214011,-1.9428835,8
69,-0.12656471,0.8337446,-0.7607616,-0.89230156,9
70,-0.21047282,1.8583213,-0.0572488,-1.9791439,10
71,1.3300285,0.7409401,0.087181315,0.23584828,11
72,-0.27688295,-1.634905,-1.8857273,-0.7352779,12
73,0.015249886,-0.23602593,-0.28896266,-0.48506096,13
74,1.3170469,0.34992987,-0.37524694,-0.31988302,14
75,-0.72143245,-0.67460567,-0.92162687,0.34673998,0
76,1.2429285,-1.1567281,-0.49083883,-1.2587531,1
77,2.0198245,0.39843178,-0.18021661,-1.2875338,2
78,1.5410585,-0.33016273,-1.10891,-1.1492631,3
79,-1.4926978,-0.8445177,-1.3686912,-0.7871981,4
80,0.20162112,0.53818953,-1.5122315,-1.011445,5
81,0.56725156,0.5857214,-1.0114381,-1.0126414,6
82,-0.83727884,0.7807605,-1.3370439,-1.5495485,7
83,0.18121707,2.128143,-1.3087894,-1.8038446,8
84,-0.3355673,1.7633798,-0.0468511,-1.3104433,9
85,1.4421856,0.52037597,-0.43345195,-1.6376803,10
86,2.363719,0.5763653,-0.25504118,0.5225098,11
87,-0.046909004,-1.2912352,-1.4228429,-0.62598485,12
88,0.42050055,0.55597854,0.24859402,-0.4500776,13
89,1.3765867,0.6375682,-0.029536217,-0.25922364,14
90,-1.5807197,2.6006267,-0.39850408,-0.2606653,0
91,0.772404,0.023371965,-0.024528414,-0.93113947,1
92,0.59404767,-1.2839353,-0.7986268,-1.4269699,2
93,0.9299356,0.21550936,-1.1722267,-1.242027,3
94,-1.1830384,0.6239519,-0.27012745,0.033890188,4
95,-0.24151471,1.2689016,-1.1602156,-1.2293777,5
96,0.96089655,0.97047734,-2.283168,-0.77263105,6
97,-1.0053188,1.5927873,-0.31157374,-1.7237042,7
98,1.7386131,2.8538113,-0.7846824,-1.5840124,8
99,-0.47144723,1.3776512,-1.2107201,-1.4690987,9
100,-0.6343896,0.45623577,-1.5140505,-2.1465852,10
101,1.0338757,2.1964083,0.8287199,0.32599184,11
102,0.64746773,-1.2421832,-1.5442218,-0.22227389,12
103,-0.44792598,0.19199792,0.09685731,-1.1822084,13
104,1.3144891,0.43573207,-0.2176308,-0.42196184,14
105,-0.28543776,2.320707,-2.0324643,0.1680555,0
106,1.6039733,-0.95970726,-0.91824627,-1.4565504,1
107,-0.5181223,0.02435857,-0.5228919,-1.6120355,2
108,0.6221768,0.44943762,-1.0881102,-0.79985195,3
109,-1.0216262,0.92751294,0.31498098,-0.06902386,4
110,0.45631567,1.7830049,-0.67805445,-0.7990069,5
111,0.8981088,1.0088388,-2.6131468,-0.8955671,6
112,-0.6993392,0.71741,-1.5065747,-1.3701463,7
113,1.6042405,1.3735166,-0.7879813,-2.1907558,8
114,-0.1368079,0.8345307,-0.5125367,-1.0189079,9
115,0.18134558,1.1501176,-0.71660256,-1.8635011,10
116,1.1942729,0.7111529,-0.828403,-0.1997604,11
117,-0.6371216,-1.3877296,-1.1665637,-0.65750927,12
118,-0.30563802,0.16363028,-0.444561,-0.9941772,13
119,0.58611655,-0.21661885,-1.0859611,-0.32283473,14
120,-0.748299,0.39733663,-1.9655352,0.09067038,0
121,0.36404938,1.0047601,0.14508253,-1.1163979,1
122,0.5843271,-0.032354414,-0.9430032,-1.5268288,2
123,1.051106,1.4757932,-0.77598625,-1.0298777,3
124,-0.9228246,1.3031213,-0.99500495,-0.013697714,4
125,0.06699095,-1.159663,-1.6520282,-1.1382459,5
126,0.89936274,0.47298807,-2.446398,-0.9002262,6
127,-1.2867374,1.0187266,-0.7891695,-1.700857,7
128,1.7815919,0.054518938,-1.0964655,-1.6373794,8
129,-0.1234801,-0.05470711,-1.9129257,-1.095608,9
130,-0.86072713,1.8084106,-0.10634369,-2.0599177,10
131,1.5750505,0.6634111,0.69852614,0.35646394,11
132,0.21100606,-1.3836813,-1.6557372,-0.73645985,12
133,-0.09695121,1.4248564,0.19393009,-0.94412833,13
134,0.6253164,-0.631186,-0.39916793,-0.3391833,14
135,-1.260881,2.305133,-0.72693217,-0.52436495,0
136,1.1145394,-0.553331,-1.0218993,-1.4118953,1
137,0.79682046,-0.94226426,-0.8615011,-1.4080142,2
138,0.39380482,0.8652226,-1.3689415,-1.2419763,3
139,-1.5319573,-0.28052682,-0.23364173,-0.5204474,4
140,0.0988945,0.4434795,-1.276822,-1.0365384,5
141,0.27284253,0.51848567,-1.7331822,-1.2460451,6
142,-0.7079792,2.2955806,-1.1206615,-1.6138847,7
143,1.0959603,0.427539,-1.715696,-1.4674577,8
144,-0.63799673,-0.090590894,-1.3672857,-1.1871232,9
145,-0.1556629,1.1857103,-0.14344352,-1.896089,10
146,1.3031979,0.25720918,0.30740947,0.21129638,11
147,0.010693833,-2.3071988,-1.7832855,-0.801231,12
148,0.2654207,0.028739423,-0.15498504,-0.8427659,13
149,1.3870218,-0.25736052,-0.56027174,-0.516994,14
150,-1.7334337,1.1385552,-1.8469088,-0.58453894,0
151,0.63543737,1.0512096,-0.089997604,-1.4259061,1
152,1.5821078,0.93290657,-0.7687372,-1.1896071,2
153,1.6344175,1.3012109,-0.7340347,-1.2050854,3
154,-1.3488597,-0.86924446,-0.33447468,-0.6363176,4
155,-0.0040139444,-1.7694585,-2.8224125,-1.0461856,5
156,1.0174876,0.6531619,-2.0932648,-0.7409758,6
157,-1.8255423,1.6975329,-0.36311823,-1.3905956,7
158,2.2145216,2.8245337,-0.6963434,-1.800584,8
159,-0.7677944,0.08347252,-1.2294673,-1.2659307,9
160,-0.9637525,2.0916312,-0.43689063,-1.8710306,10
161,1.3359025,1.2615068,0.24146308,0.008414954,11
162,-0.42538708,-1.4847634,-1.6801631,-0.6590768,12
163,0.19712494,0.69116944,0.15418142,-0.9179295,13
164,0.9794901,0.24347049,-0.3082148,-0.18352064,14
165,-1.0340846,2.6695018,-1.0264932,-0.15767889,0
166,1.2619747,-0.76710314,-0.6275103,-1.0419317,1
167,0.7121176,-1.1419799,-1.8194804,-1.6844901,2
168,-0.0018402338,-0.47615173,-0.9725629,-1.3346566,3
169,-0.94938064,0.67179483,-0.27846998,-0.28595513,4
170,0.15400057,-0.78252125,-2.53939,-0.99476784,5
171,0.96353334,0.43939823,-1.6076498,-0.86344045,6
172,-1.033018,3.1399755,0.054065943,-1.5771085,7
173,2.0060153,1.0517135,-2.0764356,-1.1308631,8
174,0.0075921714,0.84018975,-0.60868895,-0.8773932,9
175,-1.2817113,1.6531503,0.09902036,-2.1248157,10
176,0.53592116,-0.7053327,-0.8181071,-0.068341345,11
177,0.4051516,-1.4575832,-1.7792416,-0.22657904,12
178,0.060028173,0.33791435,-0.5681863,-0.56289035,13
179,0.9965856,-0.6133966,-0.062421054,-0.30174792,14
180,-0.8524777,2.2248228,-0.57919157,-0.094500095,0
181,1.6746503,-0.91365623,-0.63637596,-1.6748273,1
182,0.42628428,-1.0149167,-1.2396162,-1.1130557,2
183,0.98863965,2.0598667,-0.918641,-1.1140344,3
184,-1.8053503,-0.21636087,-0.78483164,-0.89857864,4
185,-0.32277977,1.7968293,-0.80665183,-1.0755566,5
186,0.87760586,0.8692121,-1.0167314,-0.7819715,6
187,-1.6079878,1.6598195,-0.58319956,-1.5750854,7
188,2.4790983,0.95135146,-0.14029801,-1.4496951,8
189,0.01033321,1.7081392,-0.5009928,-1.3890059,9
190,-1.1389371,1.1966547,-0.45071918,-1.4660585,10
191,1.4733377,0.9376656,0.261086,0.43730336,11
192,0.08110492,-2.471947,-1.1742263,-0.5576476,12
193,-0.290563,0.49446702,-0.28651997,-1.059326,13
194,0.7162337,0.103608035,-0.34996516,-0.3902545,14
195,-1.0759267,1.0584656,-2.203097,-0.11240892,0
196,1.006265,-0.39447063,-0.67177844,-0.92048633,1
197,-0.103530884,-0.1086652,-1.1260993,-1.4733883,2
198,0.7091577,0.8245915,-0.1688962,-1.0816145,3
199,-1.5778335,0.8442835,1.3131598,-0.22008085,4
200,-0.334943,-0.07164872,-2.4103556,-1.2358501,5
201,1.1846902,1.0568911,-1.9238454,-0.9073262,6
202,-1.1173741,1.6503124,-0.24226624,-1.5142487,7
203,2.2203162,-1.1865104,-1.879278,-1.2232374,8
204,-0.23285231,0.7670188,-1.2604569,-0.5442392,9
205,-0.88936174,0.4048227,-0.6446569,-1.4911929,10
206,1.1436918,0.4149115,0.18870632,0.36100084,11
207,0.16840224,-0.88496745,-0.89671236,-0.44990608,12
208,-0.41823298,-0.48416495,-0.7318678,-0.88789016,13
209,0.40979707,0.082118295,-0.6120274,-0.46384418,14
210,-1.0955917,1.0876606,-0.5011575,-0.06284484,0
211,1.2173002,0.3782357,-0.041117072,-1.3628684,1
212,-0.8917328,0.90257597,-0.832388,-1.6113439,2
213,0.43352076,0.7144918,-1.0301841,-1.0779352,3
214,-1.5890439,0.7187429,-1.0732157,-0.6750835,4
215,-0.07727165,0.37488806,-1.8059015,-1.1343105,5
216,0.6227162,0.17461887,-1.4061668,-0.98195493,6
217,-0.48275644,0.5614437,-0.37454027,-2.068489,7
218,1.1184336,1.6683447,-0.9874299,-1.7883217,8
219,0.08086985,1.1261096,-0.34858048,-1.2415781,9
220,-1.4829915,0.3147775,-0.96056724,-2.0574996,10
221,0.50796366,1.0675285,0.1377854,0.3214628,11
222,0.048517168,-1.1529982,-1.1967895,-0.6022939,12
223,-0.08010497,1.0648696,0.26973543,-0.4663102,13
224,0.9492153,0.4190414,-0.35985687,-0.37748164,14
225,-1.2754427,-1.6012516,-2.485138,-0.63908494,0
226,1.3688498,-0.37670618,-0.32464623,-0.9569063,1
227,0.88888526,0.9243089,-1.2802255,-1.3207599,2
228,1.1007414,-1.7783141,-1.9557917,-1.1756727,3
229,-1.7322228,1.284225,-0.12889254,-0.6358952,4
230,0.28702286,1.097362,-0.86998725,-0.7491993,5
231,0.75757325,1.0865042,-1.2174722,-0.91511923,6
232,-0.43271828,2.4765413,-0.5112624,-2.047541,7
233,1.6444241,1.4761503,-1.682992,-1.4432828,8
234,0.08920762,-0.034531534,-0.8621207,-0.93964565,9
235,-0.30501223,0.8458152,-0.32147664,-2.1471443,10
236,1.7223154,0.5533744,0.012078255,0.29607132,11
237,-0.1055491,-1.3875734,-1.6234353,-0.561497,12
238,0.24483502,0.6052289,-0.31556946,-0.64733773,13
239,0.8363676,0.7260308,0.22836861,-0.31233224,14
240,-1.0741642,2.2657585,-1.8047299,-0.26122355,0
241,0.09310001,-0.04467448,-0.31718427,-1.6379601,1
242,0.42201123,-1.3130059,-1.0520825,-1.543591,2
243,0.91155803,-0.79903847,-0.80518514,-1.0738534,3
244,-1.3197514,2.2862031,-0.19670194,-0.27995592,4
245,-0.40753624,1.1120999,-1.5950449,-1.1590544,5
246,0.31479657,0.108979404,-3.3149786,-0.97658306,6
247,-1.0160668,1.1251136,-0.36463302,-1.6176373,7
248,0.4575323,2.3969524,-0.37980527,-1.9969659,8
249,-0.5504425,0.31582922,-0.8017895,-1.0199444,9
250,-0.35865244,2.6090422,0.22178048,-1.9229063,10
251,0.80766845,1.0972433,0.552081,0.31599787,11
252,-0.3409397,-1.4832995,-1.8005135,-0.8499652,12
253,0.393709,1.4451792,0.31635758,-0.7609353,13
254,1.191568,0.714914,0.47883484,-0.122433454,14
255,-0.53413075,0.27480343,-1.4437298,-0.2803014,0
256,1.21543,0.028287247,-0.9604734,-1.3355805,1
257,1.060785,0.51319706,-0.7885404,-1.2908261,2
258,0.82892925,1.4472557,-1.0446786,-1.3443921,3
259,-1.9715135,1.919208,-0.7084477,-0.83528125,4
260,-0.14329526,-0.7333944,-1.7617595,-1.0168533,5
261,0.1611079,1.8746767,-1.6603491,-0.88414204,6
262,-0.9054497,0.8618407,-1.5625782,-1.759294,7
263,1.5995641,0.9101071,-1.2947017,-1.6795182,8
264,-0.43648648,-0.9931678,-1.2184855,-1.4494364,9
265,-0.5544821,1.5861013,0.41071504,-1.5793077,10
266,1.48459,-0.506098,-0.3083654,0.42578584,11
267,0.8943606,-1.6398754,-1.869657,-0.2610366,12
268,0.40112385,1.346906,-1.3701679,-0.60547185,13
269,0.84056556,0.659578,0.20549014,-0.10103351,14
270,-0.7255365,1.0639728,-1.3880179,-0.1473122,0
271,1.6419957,0.6769728,-0.814518,-0.97436357,1
272,1.3366575,0.41112974,0.25276363,-1.5391643,2
273,1.2312756,0.48798943,-1.2446921,-0.96364933,3
274,-1.351436,1.9887003,-0.3355495,-0.33262175,4
275,0.19750774,0.73357314,-1.2363061,-0.9742971,5
276,1.179031,-0.15804666,-1.7785342,-0.6115234,6
277,-0.49458224,1.3312583,-1.0646315,-1.4222163,7
278,2.251222,2.610491,-1.1097491,-1.5329403,8
279,-0.5740478,0.16754982,-1.3579065,-1.4040164,9
280,-0.48253334,1.2037107,0.36424255,-2.2735474,10
281,1.4498507,0.30880812,-0.68254894,-0.13427278,11
282,-0.029967457,-2.0984187,-1.3552608,-0.6648073,12
283,0.33280486,0.29418445,-0.4025784,-0.785579,13
284,1.5845716,0.79939896,-0.37718302,-0.3341435,14
285,-1.6509163,-0.89679235,-2.1749055,-0.7839848,0
286,1.632767,0.010029107,-0.810732,-1.4558555,1
287,0.014252961,0.48593217,-0.5227121,-1.6391417,2
288,1.3015459,-0.5474526,-1.1614249,-1.1813965,3
289,-1.5720599,1.5741185,0.6695415,-0.2918564,4
290,0.25959507,-0.013897002,-1.767503,-1.046862,5
291,0.83644783,1.6793616,-2.0994468,-0.8705059,6
292,-1.023297,1.1443383,-1.4164069,-2.1001143,7
293,1.9083426,2.1308532,-0.23189878,-1.9538603,8
294,-0.62325996,0.14497873,-1.8391392,-1.2205347,9
295,-1.3284563,1.3094643,-0.01997444,-2.3051906,10
296,0.5208225,0.7016882,0.84543186,-0.16715455,11
297,-0.0470784,-1.9360422,-1.3394047,-0.65708834,12
298,0.036601745,0.28956005,-0.09610673,-0.6243546,13
299,0.9417893,-0.16154383,-0.3744617,-0.33884898,14
300,-1.2773404,-0.68076247,-1.5683192,-0.17879966,0
301,0.83178115,-0.20507155,0.15011233,-1.1268235,1
302,2.0498605,0.64813304,-0.9556501,-1.1308163,2
303,0.899262,0.14935048,-1.7995048,-1.2901108,3
304,-1.6691774,1.5036728,-1.0867164,-0.7206806,4
305,0.47022483,-1.0202372,-1.5767795,-1.1506609,5
306,0.23784405,0.4303118,-1.0506414,-0.6462189,6
307,-1.3403767,0.7267886,-1.0716034,-1.9651253,7
308,1.3713591,0.9819709,-1.5767591,-1.7571772,8
309,0.3597118,1.375752,-0.92706954,-1.1069098,9
310,0.35256547,0.19459605,-0.58983004,-1.6801537,10
311,1.3627783,0.51511586,-0.2519573,-0.11918834,11
312,-0.36753547,-1.8512521,-1.3577526,-0.7715064,12
313,0.0031096116,-0.31828016,-0.55410004,-0.85985744,13
314,0.97940975,0.44512713,-0.08854601,-0.13039964,14
315,-1.284995,1.6660903,-0.91340387,-0.12726796,0
316,1.3298677,-0.72532696,-0.59031916,-1.4068166,1
317,0.86471426,1.117003,-0.98884916,-1.062347,2
318,-0.29477495,-0.880876,-0.95855457,-1.1377355,3
319,-2.4431438,-0.22652453,-0.19400004,-0.98503625,4
320,-0.1767571,0.66213536,-1.6096064,-0.8907729,5
321,0.49647528,0.54593456,-1.6000559,-0.8779824,6
322,-1.3226421,0.5573227,-1.5256398,-1.7705072,7
323,0.7492156,2.0039966,-1.5238478,-1.9144924,8
324,0.14437178,0.41604182,-1.4169494,-1.0993962,9
325,-1.3221993,1.1463991,-0.07836372,-2.1912854,10
326,1.5090389,-0.038009346,0.20755579,0.48980948,11
327,-0.16886756,-1.9179387,-1.078474,-0.5360886,12
328,0.1451201,0.05607535,-0.12443155,-0.8473319,13
329,0.76414454,0.1853276,-0.16512865,-0.44111776,14
330,-0.6310996,-0.72300047,-2.6621265,-0.022674143,0
331,1.0101631,-0.0345696,0.040140897,-0.93417,1
332,0.34740388,-1.488112,-1.5106617,-1.1392941,2
333,0.92484903,-0.27363512,-1.2116227,-1.224887,3
334,-1.1063607,0.40355206,-1.1510185,-0.2356771,4
335,-0.778536,0.57625186,-0.98737085,-0.91086304,5
336,0.39729324,0.72126275,-1.167706,-0.6735262,6
337,-1.5977163,0.52657545,-0.8417186,-1.6676333,7
338,1.1074663,1.0408175,-1.619786,-1.55473,8
339,-0.1965208,-0.29978937,-1.042458,-1.3259445,9
340,-0.019202292,1.2541312,-0.23734978,-1.8993094,10
341,1.1983179,0.541029,0.29055333,0.09818784,11
342,0.24222936,-1.7043082,-1.8967245,-0.5919343,12
343,0.31330952,1.1140785,0.5835037,-0.6893784,13
344,1.0683928,0.6151483,-0.15458581,-0.10982737,14
345,-0.76711094,2.096635,-0.83663595,0.010847062,0
346,0.33701676,0.110177994,-0.045246094,-1.0051591,1
347,0.16930579,0.7185416,-1.3233348,-1.7301403,2
348,1.2897668,-0.37560332,-1.2423724,-0.8219554,3
349,-0.7086924,0.8503592,0.22924763,0.22764167,4
350,-0.21475998,0.5580589,-1.8542643,-0.87394243,5
351,0.6337977,0.056704402,-2.557667,-0.8064624,6
352,-0.65350664,0.5774374,-1.4573541,-2.0457077,7
353,0.09059405,2.0941856,-1.5878615,-1.684697,8
354,-0.5179819,-0.057458937,-1.1387908,-1.0696093,9
355,-0.7788384,0.3557433,-0.22952455,-2.1131368,10
356,1.6527407,0.39105457,-0.36362183,-0.0032397807,11
357,0.54283273,-1.6158203,-1.9724256,-0.22691303,12
358,0.022014499,0.5103267,-0.139221,-0.89245665,13
359,0.7971957,0.53401756,0.17723969,-0.2437993,14
360,-2.0094671,0.35051557,-0.934837,-0.88103235,0
361,1.7845664,0.76524943,0.4618806,-1.2143064,1
362,0.74273384,0.30403894,-0.6781755,-1.2124071,2
363,0.22887677,0.72724986,-1.1412385,-1.2511786,3
364,-2.3598828,1.2086673,0.07196081,-0.9707359,4
365,0.018031608,2.0346775,-0.70818675,-0.6800922,5
366,0.56849873,-0.21095753,-1.794347,-0.92307174,6
367,-0.95321363,0.3587973,-1.2231902,-2.0949852,7
368,1.917182,1.7678909,-1.9303008,-1.4937642,8
369,0.18001348,-0.786148,-0.7423316,-0.9977305,9
370,-0.9295652,2.3519366,-0.3170322,-1.6329472,10
371,1.1361855,1.3446591,0.31814122,0.43408927,11
372,0.8209116,-1.2403376,-0.9412901,-0.5374315,12
373,-0.12128904,0.81450075,0.13372216,-0.5180799,13
374,0.84431005,-0.45822984,-0.70325875,-0.13010903,14
375,-2.1118257,1.3761222,-1.0291377,-0.7719995,0
376,1.3681368,-0.1898732,-0.100833,-0.85476303,1
377,-0.379497,0.15691677,-0.8546597,-1.3507907,2
378,1.0366949,-0.93890023,-1.2010169,-1.1851783,3
379,-0.39203846,1.6644607,-1.41105,0.114961386,4
380,0.11320713,2.1850834,-1.9683394,-0.9312149,5
381,0.94799984,0.88439655,-1.7181427,-0.7896048,6
382,-1.017477,2.5842266,-0.28736228,-1.8453033,7
383,0.5399979,1.6490989,-1.3234279,-1.2447574,8
384,0.039640278,0.06723839,-0.6181927,-1.1972542,9
385,-1.5306964,1.502626,-0.6696007,-2.350317,10
386,1.2305756,0.66530895,-0.08867732,0.3545063,11
387,0.401331,-1.3592119,-1.5247991,-0.18243542,12
388,0.11423843,0.44934413,-0.49983412,-0.9226528,13
389,0.50327194,0.16600412,0.04330358,-0.07389364,14
390,-2.0529628,-0.18509197,-1.3888514,-0.8857963,0
391,-0.03527856,-0.2973625,0.15371242,-1.24136,1
392,-0.16868752,0.4211831,-0.37318265,-1.4471291,2
393,1.6121777,0.9682736,-0.90661967,-1.141408,3
394,-1.7541565,0.18209124,-0.1158323,-0.5710566,4
395,0.43961966,0.19947447,-2.3153868,-0.71064425,5
396,-0.039587796,-0.11269277,-0.90188265,-1.2507159,6
397,-0.6883532,1.4455793,-0.97352844,-1.4274838,7
398,1.0414038,1.907266,-0.86406255,-1.2329807,8
399,-0.44229627,-0.0083833635,-0.666711,-1.2952428,9
400,-1.0203061,1.6554506,0.02443111,-2.1383338,10
401,0.6371665,-0.08275396,-0.60028934,0.017166987,11
402,0.23559302,-2.0155883,-1.4194088,-0.33330193,12
403,0.5643579,-0.1889894,-0.5614313,-0.6357049,13
404,1.1707296,0.7699452,-0.7207588,-0.2868918,14
405,-0.9416746,1.4740281,0.25923336,-0.59240615,0
406,1.1412014,-0.9022917,-0.6205809,-1.3214568,1
407,1.0498989,-0.3936327,-0.45232067,-1.7694095,2
408,1.0414479,-1.4537706,-0.91386473,-1.3190426,3
409,-1.6542974,-0.030992031,-0.7738454,-0.632949,4
410,0.24193606,1.5083566,-0.9003951,-0.7217565,5
411,0.9809414,-0.58008605,-2.3700454,-0.8447993,6
412,-0.35388106,1.6286614,-1.0399356,-1.7279004,7
413,0.02876401,1.2221377,-1.6244562,-1.6063281,8
414,-0.77497697,-0.104815364,-0.60447866,-1.502852,9
415,-0.10772455,1.4247937,-0.345636,-1.6275721,10
416,0.6729258,0.17596132,0.34892064,-0.028951213,11
417,-0.16599938,-1.6725907,-1.5432163,-0.7605238,12
418,0.2762462,0.17814434,-0.085307926,-0.5828228,13
419,1.3715712,-0.70375973,-0.86772704,-0.3278405,14
420,-1.1093926,0.019483924,-0.19481957,-0.3017639,0
421,0.50913686,0.5913492,0.32153937,-1.4310999,1
422,0.49635375,0.22467719,-0.2692858,-1.2426668,2
423,0.7837783,1.7963933,-1.6770827,-1.2100896,3
424,-1.1517246,0.9456895,-1.2143006,-0.2584368,4
425,0.15584812,0.21310894,-2.1397283,-1.159034,5
426,0.76783395,1.2335598,-1.0571644,-0.85842294,6
427,-1.3265247,1.2230847,-0.89779246,-1.4836494,7
428,0.65584433,1.5661268,-1.236022,-1.839841,8
429,-0.69435614,0.29883695,-0.70712936,-1.4320571,9
430,-0.35007071,0.3697645,-0.7511052,-2.1110296,10
431,1.654152,1.5996132,-0.096505955,-0.03215137,11
432,0.23010734,-1.7451189,-1.1170864,-0.77864206,12
433,-0.5871578,-0.28172427,0.46866235,-0.7462972,13
434,1.0128288,0.747697,0.16710094,-0.34878045,14
435,-0.57512975,1.3106382,-1.6136749,0.18818173,0
436,1.4851837,-0.109672576,0.13210392,-1.1318429,1
437,0.4739988,-0.97315353,-2.0913749,-1.7450067,2
438,1.1512917,0.21109354,-0.75232756,-0.7915733,3
439,-1.8556373,1.7338552,-0.21316463,-0.8499949,4
440,-0.47360224,0.5631322,-1.2182353,-1.0804118,5
441,0.43109787,0.012788117,-1.7656847,-0.84750855,6
442,-0.75534654,1.9681718,-1.6325072,-1.674841,7
443,2.2431512,1.6997858,-1.1600502,-1.4676205,8
444,-0.07013552,0.98066854,-0.031446993,-1.0257735,9
445,-0.348601,1.9708369,0.62998384,-1.842091,10
446,0.46878326,0.407834,-0.0834979,0.26628062,11
447,0.35264504,-1.2187023,-1.923582,-0.47031873,12
448,-0.059162147,0.6635473,0.1505768,-1.0693563,13
449,1.9440596,0.1125765,-0.9638436,-0.12351714,14
450,-1.0528244,1.2946066,-1.1377996,-0.32612598,0
451,1.4593223,-0.17505391,-0.08217333,-1.4446211,1
452,-0.0850451,0.06972091,-0.8144103,-1.2463078,2
453,0.5771696,-0.055015516,-1.164342,-1.2090303,3
454,-1.5440257,0.79503393,-0.053096086,-0.7597424,4
455,-0.1502401,0.07439336,-2.079558,-1.0154208,5
456,0.7800547,0.46396244,-0.6105617,-0.47960472,6
457,-1.3888706,0.18509841,-1.1581373,-1.7698671,7
458,0.74303,1.7529898,-1.1601142,-1.5563473,8
459,-0.4364041,1.015527,-0.5000015,-1.5002356,9
460,-1.2759852,1.5844021,-0.79410076,-1.4424024,10
461,0.6789051,0.8523556,-0.31499374,-0.0674957,11
462,0.23652059,-1.7945882,-1.3065859,-0.43500456,12
463,-0.22243252,0.1969004,-0.76850116,-1.0366434,13
464,1.2376372,0.11357525,-0.48908365,-0.04794842,14
465,-1.5754684,0.99121535,0.46641052,-0.3139002,0
466,0.8545626,0.0728312,-0.76243275,-1.5061936,1
467,0.30947402,0.14318177,0.1501422,-1.3541957,2
468,0.36947912,0.30894566,-1.6586705,-1.5581039,3
469,-0.81205285,0.42129543,-0.86761737,-0.16981985,4
470,-0.33216816,1.6781135,-0.8187878,-1.3906219,5
471,1.093529,0.3062838,-1.5437517,-0.6241516,6
472,-0.8323129,1.0131649,-0.7110032,-1.9017407,7
473,0.8613389,2.1305835,-1.2455882,-1.3560443,8
474,-0.15651016,0.87873477,-0.76783013,-1.2352477,9
475,-0.060415864,0.06711161,-0.72716814,-1.7661157,10
476,1.2618737,1.5466051,-0.1949972,-0.111661166,11
477,0.1391952,-1.788059,-1.9235692,-0.45164654,12
478,0.18003497,-0.33562708,-1.4773165,-0.7953322,13
479,1.4728535,0.66886425,0.55406797,-0.30246693,14
480,-1.3766812,0.9508032,-1.0155554,-0.36923042,0
481,1.2958863,0.017647713,-0.37581745,-1.3563485,1
482,-0.114641845,0.35301378,-0.91937804,-1.5782924,2
483,0.1412608,-0.68949026,-0.98275226,-1.2667656,3
484,-1.0419339,1.4668396,-0.05205822,-0.034925938,4
485,0.1558283,1.280077,-0.82639045,-0.8547432,5
486,0.5581848,1.3128724,-2.1927314,-1.1592137,6
487,-0.87945443,0.38940215,-0.8653778,-2.0391665,7
488,1.7591898,2.276555,-1.7630011,-2.060645,8
489,-0.402132,0.86875653,-0.7530457,-0.98672086,9
490,-0.20266962,1.297711,-0.93310773,-1.5513062,10
491,0.48983163,0.8655593,-0.03394238,-0.24939686,11
492,0.22076048,-1.8403857,-1.3931931,-0.9670924,12
493,-0.028739907,0.61433315,-0.18636553,-0.64696497,13
494,0.7640805,1.0769048,0.11074725,-0.30188662,14
495,-0.49105924,-0.65511423,-0.7812587,0.5387007,0
496,1.6969931,-0.0277946,-0.07828355,-1.097232,1
497,0.18066286,0.7955266,-0.08125478,-1.119316,2
498,1.2509029,0.56375974,-1.3098269,-1.2109972,3
499,-1.9229004,1.5087392,-0.3413518,-0.93171704,4
500,0.025315313,0.25585914,-0.8285478,-0.54235935,5
501,1.0724747,-0.728713,-2.017569,-0.78430593,6
502,-1.0751089,2.365514,-0.39370313,-1.7008859,7
503,0.9538935,0.5134009,-2.0271358,-1.4326475,8
504,0.19087663,1.1531565,-1.1375417,-1.163599,9
505,-1.7207124,0.22667187,-0.07605192,-1.6213853,10
506,1.1860906,0.8894714,0.5436785,0.3825373,11
507,0.46928895,-1.0892055,-1.3547909,-0.5096328,12
508,-0.1945281,-0.0021024942,-0.7630756,-0.8330032,13
509,1.1108646,0.12079652,-0.96585274,-0.3535263,14
510,-1.8886755,0.45331055,-1.2417654,-0.9015422,0
511,1.0810971,-0.37465924,-0.51499534,-1.0587473,1
512,1.4033365,0.2314245,-0.507872,-1.3199112,2
513,0.76612025,-0.38407815,-1.1394827,-1.2749026,3
514,-0.35230613,1.6450346,-0.9665414,0.054495007,4
515,-0.34571645,0.17324813,-1.1026684,-1.0909963,5
516,1.3011177,1.1244891,-1.0985847,-0.727356,6
517,-1.1010734,0.93633205,-0.25183547,-1.7767127,7
518,1.7955675,1.0190006,-2.3147783,-1.7250571,8
519,-0.5186852,-0.45810938,-2.172259,-1.1851244,9
520,-1.3348229,0.5905412,-0.5748228,-1.8789477,10
521,1.0295327,0.96670127,-0.35982084,0.22336677,11
522,0.11946568,-1.8096094,-1.3648546,-0.67538124,12
523,0.023794748,1.0379741,0.6672331,-0.60015714,13
524,1.075694,-0.80505615,-0.5419936,-0.6785102,14
525,-1.1560788,1.7974024,-1.5732197,-0.17592525,0
526,0.6024196,-0.5092161,-0.19438778,-1.2055409,1
527,0.6870673,-0.82522684,-0.76158446,-1.2906321,2
528,0.4164666,0.2443619,-1.4768128,-0.73967046,3
529,-1.4608771,0.5504931,-0.15167671,-0.43705675,4
530,0.76220196,2.634853,-0.5308944,-0.73303044,5
531,0.55271196,1.7044008,-2.040597,-1.1430857,6
532,-0.62171435,1.5707408,-0.5978505,-1.7365248,7
533,2.8528938,1.0708653,-0.5562894,-1.5142543,8
534,-1.018388,0.45459476,-1.2909445,-1.3795379,9
535,-1.955898,0.41586286,-1.106611,-2.5840094,10
536,1.0515876,-0.19357002,-0.3254001,0.18998182,11
537,0.3859195,-0.67150384,-1.0589826,-0.35528168,12
538,0.04705256,0.4720443,0.011973962,-0.5060314,13
539,0.76348144,0.7309947,-0.5549766,-0.24520218,14
540,-0.7419549,0.49172765,-2.5429373,-0.20233804,0
541,1.3032893,-0.44570148,-0.16035673,-1.121268,1
542,0.03688082,-0.48885143,-1.4247041,-1.2135623,2
543,1.4257435,-1.7204158,-1.4690199,-0.9748937,3
544,-1.4656141,1.7412087,-0.9980288,-0.47153455,4
545,0.38996077,0.4103818,-1.5274439,-0.9275627,5
546,1.0219413,-0.87148994,-1.8994751,-0.8185051,6
547,-1.4038994,1.454994,-0.6879796,-1.6858355,7
548,1.1675601,1.1879442,-0.9124611,-1.2697726,8
549,-0.46534276,0.34491712,-1.0315254,-1.0473223,9
550,-0.48659617,1.4819646,0.034889817,-1.9333558,10
551,1.1706668,0.31161305,-0.3778612,0.13183562,11
552,0.0993623,-2.2372472,-2.2324238,-0.7907779,12
553,0.36174718,-0.35711157,-1.2708797,-0.82227474,13
554,1.1332866,-0.7226011,-1.1097571,-0.04137659,14
555,-1.4223235,1.8247223,-1.4646735,-0.5363376,0
556,0.92288667,0.8706179,-0.15591997,-1.124337,1
557,0.7410364,0.71642363,-0.7480014,-1.2460935,2
558,0.020462751,1.2154622,-0.9601551,-1.122225,3
559,-1.6582083,0.72925663,-0.2671669,-0.6093677,4
560,1.1170144,-0.44662023,-1.8269467,-0.820941,5
561,2.0093644,1.291059,-2.4114733,-0.7513033,6
562,-1.3273362,1.8001338,-0.40707672,-1.4357266,7
563,1.1696713,1.9736751,-1.3586433,-1.6069402,8
564,0.14140955,0.39327288,-0.9402286,-1.0917093,9
565,0.15246248,1.8061814,0.54351276,-1.562565,10
566,0.9650866,1.1651917,0.6368204,0.16028951,11
567,0.31000245,-1.9775901,-1.4169141,-0.62739986,12
568,0.22707103,0.49795288,-0.45998898,-0.62182474,13
569,0.92073894,-0.0803167,-0.5758319,-0.30697465,14
570,-1.1540155,-0.14204699,0.12605166,-0.33982962,0
571,0.7473155,-0.44174224,-0.59145856,-1.0121776,1
572,-0.26206708,-0.31621784,-0.8447406,-1.3704149,2
573,0.7716157,-0.9951335,-1.0424523,-0.987747,3
574,-1.4114131,0.025283933,-0.86785495,-0.3053676,4
575,-0.3959498,2.2281396,-0.2506497,-1.0091276,5
576,1.0319196,0.20022011,-1.7354498,-0.63112986,6
577,0.0011481047,1.8518326,-0.87364745,-1.304081,7
578,1.3506298,1.5327241,-1.745068,-1.3777962,8
579,-0.4371634,-0.4218343,-1.4181243,-1.3549926,9
580,-0.09810853,1.0459063,-1.1817641,-1.5107074,10
581,1.1118393,0.76875347,0.35158068,0.25740078,11
582,0.15578069,-1.780623,-1.3454276,-0.51296234,12
583,0.45672688,0.8080323,0.010855526,-0.48579565,13
584,1.5570854,0.43965578,0.18805107,-0.26789516,14
585,-1.3568274,-0.24648088,-2.0805542,-0.2885334,0
586,1.2325523,-0.3706053,-0.6815659,-1.4490671,1
587,0.7468269,-0.17135462,-0.5575713,-1.4812386,2
588,1.5762655,-0.515142,-1.7021254,-0.86306125,3
589,-1.0011234,-0.33176148,-1.1463637,-0.03912869,4
590,0.33559558,0.028042763,-1.8618462,-1.185498,5
591,1.2143376,-0.30869007,-2.0522845,-1.2108817,6
592,-1.5349871,1.5951556,-0.08220637,-2.3074772,7
593,0.76859975,2.1234357,-1.5554112,-1.6122139,8
594,-0.3244225,1.1299801,-0.64987755,-1.0564221,9
595,-0.2579106,1.3698906,-1.0147018,-1.9866885,10
596,1.3305826,1.244257,-0.0317885,0.17848286,11
597,-0.23158604,-0.73950076,-1.1632979,-0.90436757,12
598,-0.25765133,0.56995463,-1.0799581,-0.7886331,13
599,0.1668902,0.5824707,-0.29064253,-0.11166747,14
600,-1.4314221,-0.36576015,-0.97643304,-0.44191957,0
601,1.0969596,0.94370806,-0.07133441,-1.0871238,1
602,0.15531921,0.4190678,0.034403324,-0.79543734,2
603,0.98940384,-0.76860446,-1.600914,-1.4986147,3
604,-0.73960733,0.15659994,0.42687428,0.24793723,4
605,0.1887787,0.58747286,-1.3436638,-0.816773,5
606,0.29541656,0.7965057,-1.8803911,-0.78596085,6
607,-0.37589687,-0.5969982,-1.5971153,-1.6361421,7
608,1.0003526,2.2646677,-0.31309193,-1.9188356,8
609,-0.49809515,0.36573312,-0.9298334,-1.2991999,9
610,-0.5498035,1.6698759,-1.1243377,-2.2525272,10
611,1.1605917,0.45705238,0.011913501,-0.23091578,11
612,0.17378342,-1.5009577,-0.6761017,-0.59866196,12
613,-0.14970115,-0.05700144,-0.34450197,-1.0736881,13
614,1.7734393,0.9608948,-0.40831906,-0.10161975,14
615,-0.93470955,-0.34506875,-0.81144345,-0.019893944,0
616,0.951568,-0.10496764,-0.40587577,-1.3755412,1
617,0.52723825,0.33686498,-1.2389851,-1.6703205,2
618,0.41848493,0.6000091,-0.072282076,-1.3082418,3
619,-1.3255563,0.5169029,-0.92833036,-0.21626198,4
620,-0.43553126,0.05926442,-1.4652075,-1.1926731,5
621,0.63638157,0.86738753,-0.89465,-0.8789955,6
622,-1.8688316,1.9215205,-0.3306396,-1.6026994,7
623,1.6530539,2.793838,-0.65821993,-1.8368075,8
624,0.3315557,0.41059965,-0.8054947,-0.58997566,9
625,0.16163725,0.94458157,-0.4221586,-1.6092956,10
626,1.5955241,0.8138096,0.107479826,0.45509753,11
627,0.19150493,-1.7092322,-1.2866588,-0.52239424,12
628,-0.06912338,-0.64902645,0.16674843,-0.6691398,13
629,1.508916,-0.6822425,-0.8176365,-0.4106,14
630,-1.1022418,1.6600599,-1.917867,-0.26387665,0
631,0.8558273,0.8373381,-0.2242409,-1.4407187,1
632,-0.06321162,0.5794311,-0.7605329,-1.4330672,2
633,0.9621899,0.4927292,-0.20577353,-1.0446736,3
634,-0.51174235,1.0010092,-0.6671696,0.17815185,4
635,-0.3758312,0.9055748,-2.0105371,-0.81816554,5
636,0.6014179,0.63695383,-1.9002255,-0.92092365,6
637,-1.0365841,0.60489035,-1.2206972,-1.7989067,7
638,2.2578094,1.5939914,-1.3112525,-1.7213314,8
639,-0.09600061,0.6436018,-0.5624504,-1.1118428,9
640,-0.59072816,1.4882903,-0.4633511,-1.6452882,10
641,1.1416706,-0.3046112,-0.10421234,0.05312346,11
642,-0.11255446,-1.3299459,-1.1484795,-0.4634156,12
643,-0.18753088,0.28885067,-0.39925003,-0.7703344,13
644,1.3000395,-0.004010521,-0.3952722,-0.13421471,14
645,-1.2780851,1.5108385,-0.9060445,-0.30029726,0
646,1.1856799,-0.063832104,-0.54622877,-1.1657784,1
647,-0.1236406,-1.0321121,-1.2918975,-1.854697,2
648,0.1292938,1.766689,-0.25764525,-1.3475472,3
649,-2.3163977,0.8263785,-0.21661878,-1.0148296,4
650,0.19730088,0.66839826,-1.5009658,-1.0382034,5
651,0.8500466,0.28026602,-2.0502532,-0.77798426,6
652,-1.3387861,1.5462475,-0.3903192,-1.6596794,7
653,1.5053873,1.4919466,-1.7411324,-2.010034,8
654,-0.6562975,0.30273074,-0.6234638,-1.2620215,9
655,-0.0077993274,1.5503815,-0.6165969,-1.6237013,10
656,2.1311677,1.294545,1.2649944,0.48340088,11
657,-0.059360504,-1.7362823,-2.068879,-0.21292263,12
658,0.33538657,0.26752982,0.6195458,-0.5328964,13
659,1.2864202,0.042589135,0.102689296,-0.1375161,14
660,-1.4645524,-1.2336097,-0.8216624,-0.22148173,0
661,0.6950824,0.095693916,0.03588438,-1.4660664,1
662,0.89772326,2.2212167,0.6570582,-1.0622544,2
663,0.659694,-1.0414822,-0.9536246,-0.9977772,3
664,-1.4704375,0.3690456,-0.23180045,-0.108778924,4
665,-0.0032258444,-0.03490475,-1.0951607,-1.3100863,5
666,1.2471385,0.40894407,-1.365289,-0.8762478,6
667,-0.44368774,0.78133094,-0.56609094,-1.7562271,7
668,1.9492497,1.9490105,-0.90357184,-1.127577,8
669,-0.6063633,-0.11719918,-1.1767814,-1.2927449,9
670,-1.7535264,0.51345575,-1.0069298,-2.328789,10
671,1.2488997,0.95769835,-0.9247563,-0.026230484,11
672,1.1147659,-1.6930968,-1.1415389,-0.12484753,12
673,-0.17254218,0.78488344,-0.22647241,-0.7144458,13
674,0.45466393,-0.16775094,-0.2996095,-0.3881438,14
675,-1.2922251,1.9081542,-1.4293463,-0.6981795,0
676,1.4032233,-0.26724404,-0.20562267,-1.0780803,1
677,1.0425737,0.9642156,-0.5859661,-1.7073159,2
678,1.4930964,0.8122887,-1.2415121,-1.0822778,3
679,-0.09454644,0.4435788,-1.0210577,0.5113678,4
680,0.49577746,-1.2092948,-2.5951982,-1.2297118,5
681,1.0116738,0.53408056,-2.0373676,-1.1524795,6
682,-1.1905824,0.10971558,-0.5464915,-1.6844301,7
683,0.5429532,1.6503154,-0.59614825,-1.6460923,8
684,0.4668785,0.70418644,-1.0614623,-1.1394733,9
685,-0.6954059,0.71458304,-0.35520986,-2.0366056,10
686,1.0239887,1.3633645,0.9061309,0.14526632,11
687,0.46684873,-1.3023505,-1.8884495,-0.39748204,12
688,0.010524996,0.8214619,-0.36606455,-0.9622086,13
689,0.8422359,0.80877715,-0.21333204,-0.29585442,14
690,-1.4519411,1.1833327,-2.1688921,-0.8632771,0
691,1.4187435,-0.78155035,-0.9071783,-1.3958274,1
692,0.02855298,-0.6416253,-1.12072,-1.1453483,2
693,0.5951916,-0.2230992,-1.4663895,-0.97869366,3
694,-1.6103508,0.31253368,-0.21919018,-0.4139996,4
695,0.42732129,-0.27371514,-1.6276394,-0.9643839,5
696,0.72329825,-0.004361272,-1.3244871,-1.287646,6
697,-0.4742074,2.1830218,-0.32590097,-1.5038686,7
698,1.5852647,1.6622932,-0.3259042,-1.3027072,8
699,-0.49241114,0.9347837,-0.5763415,-1.2779838,9
700,-1.0769746,0.32928264,-0.37934878,-1.7103684,10
701,1.2913184,0.52504325,-0.98574716,0.13450757,11
702,0.149021,-1.789325,-1.6035665,-0.4889436,12
703,-0.10348637,-0.040062726,-0.27372962,-0.9679722,13
704,1.2201954,-0.6593792,-0.54898787,0.025363326,14
705,-1.9152435,0.27232477,-1.5466418,-0.6238237,0
706,1.6001498,-0.77801114,-0.42559057,-1.1667801,1
707,0.02243796,-1.0695853,-1.1344819,-1.380247,2
708,0.31432864,-0.5011616,-0.7238143,-1.3728322,3
709,-2.2312393,-0.5037335,0.035147786,-0.98085666,4
710,-0.16605812,2.0250568,-0.6692109,-1.0969753,5
711,0.17244029,0.92668736,-3.0123491,-0.9921593,6
712,-1.0609567,0.6376905,-0.0650841,-1.6710684,7
713,1.2977283,2.359733,-0.3209015,-1.4098592,8
714,-0.08581558,1.3850508,-1.4569643,-1.5125949,9
715,-1.2817461,1.1325746,-0.9099153,-1.3868229,10
716,1.707787,0.5515422,0.35631883,0.5140437,11
717,-0.2809831,-2.105157,-1.3595587,-0.72809076,12
718,0.05506618,-0.04432273,-0.108590685,-0.6323394,13
719,0.5642138,-0.28413236,-1.06694,0.008260369,14
720,-1.4433339,1.1157763,-2.2930136,-0.3942059,0
721,1.2871889,0.56488496,-0.19821388,-1.2280793,1
722,-0.3249277,0.25129846,0.61643666,-0.99274254,2
723,1.5781646,1.5008507,-0.8002572,-0.95587105,3
724,-1.5421765,-0.851495,-0.65927416,-0.500423,4
725,-0.2889411,-0.5896685,-1.679601,-1.0669734,5
726,0.3089901,0.7034698,-1.7127863,-0.94025,6
727,-1.0280612,0.83010715,-1.6813236,-1.7733632,7
728,1.5199286,2.0570302,-0.37335902,-1.5476342,8
729,-0.083405256,0.10308087,-0.42919528,-1.299536,9
730,-0.7623519,1.2593069,-0.13275859,-1.968222,10
731,0.91030395,0.329782,-0.7543489,0.03103213,11
732,0.3180432,-0.7425008,-1.5738584,-0.3235643,12
733,-0.005768217,0.021407872,0.33171955,-0.96825534,13
734,0.58160377,-0.74499404,-0.5944835,-0.3825806,14
735,-1.0210828,-1.0939362,-1.1039317,-0.040100068,0
736,1.2008255,0.15600806,-0.19544509,-1.0374064,1
737,0.79535544,1.0686917,-0.38659427,-0.9015619,2
738,1.7060361,-0.62886286,-0.6886096,-1.1748806,3
739,-1.4483044,-0.26801676,-0.5377979,-0.5485325,4
740,0.44021973,0.14729127,-1.0812862,-0.8415836,5
741,0.72811913,-0.7103712,-2.2618957,-0.8928712,6
742,-0.8149127,0.5748562,-1.3325343,-1.7038774,7
743,0.8844306,1.5049001,-2.3614917,-2.1097953,8
744,-0.49591732,-0.34815848,-0.82604116,-1.1869096,9
745,-0.7376889,0.85118216,-0.015263259,-1.7087768,10
746,0.8719572,0.1804801,0.5025162,0.1662436,11
747,-0.00390625,-2.3063812,-1.6439621,-0.70107776,12
748,0.14917701,0.8586532,-0.08217578,-0.8773341,13
749,0.8176992,0.39735293,-0.39899984,-0.22123295,14
750,-0.6415497,-0.88065594,-1.0405309,0.3721952,0
751,1.9323074,0.14465335,-0.6267072,-0.85725397,1
752,0.5844776,0.41336453,-0.7122136,-1.6891458,2
753,0.24163437,0.39722973,-0.8928193,-1.6289299,3
754,-1.9668703,0.508602,-0.6129405,-0.83982325,4
755,-0.5748925,-0.095208526,-1.4550039,-1.060088,5
756,0.93445563,0.65352124,-1.9301245,-1.1724215,6
757,-0.8570814,0.14459836,-0.93747675,-1.6831259,7
758,0.40554428,2.823294,-1.2077731,-1.7437242,8
759,-0.42748123,1.0836751,-0.68339306,-0.8352717,9
760,-0.19635326,1.5381281,-1.0185218,-1.9438957,10
761,1.2504332,1.0036333,0.25109655,-0.16767949,11
762,0.1983759,-0.8887722,-1.1501858,-0.41491288,12
763,-0.057628296,1.0166693,-0.33035398,-0.86909276,13
764,0.43567362,0.27579382,-0.28862387,-0.4189319,14
765,-1.1462883,0.4907708,-1.1062938,-0.63653183,0
766,0.66613996,-0.3647791,-0.5132913,-1.0972625,1
767,0.78800595,-0.65978956,-0.9654397,-0.8547689,2
768,0.9306532,0.6366069,-0.7870335,-1.6719699,3
769,-1.6515394,0.2167269,-0.75310403,-0.47612217,4
770,0.43422812,0.38981694,-1.4046681,-1.0680919,5
771,0.9711908,-0.71262056,-2.427978,-0.79891443,6
772,-1.1086419,1.1092278,-0.8804726,-1.8029555,7
773,1.4573094,1.3774387,-1.3090476,-1.5383773,8
774,0.11083612,1.8178751,-1.2349494,-1.193098,9
775,-0.6671723,1.069347,-1.5559723,-2.0260766,10
776,0.96262175,1.1288617,-0.6038116,0.11742754,11
777,0.16381156,-1.2987851,-1.2313724,-0.55577856,12
778,0.3931234,0.5548022,-0.12914583,-0.7343222,13
779,-0.35928637,-0.42977726,-0.96644795,-0.6052121,14
780,-0.6562214,0.85962236,-1.0562375,0.09333855,0
781,1.3881472,-0.12407656,-0.2752011,-1.294319,1
782,0.471018,0.06295815,-1.2914268,-1.4504123,2
783,0.24922538,1.9781358,-1.0443766,-1.4691784,3
784,-1.6850617,1.4921327,-0.45021883,-0.7855037,4
785,0.21601781,-0.32082468,-1.5902925,-0.9041325,5
786,0.8217769,-1.8336086,-2.6156023,-0.8178217,6
787,-0.82608086,1.8665746,-0.21698153,-1.8551077,7
788,2.1136956,0.92841244,-2.0846386,-1.0810322,8
789,-0.39354205,0.2783443,-1.4843132,-1.305608,9
790,0.30023688,1.4209282,-0.04756981,-1.5968432,10
791,1.2561173,0.9654274,0.18165025,0.36107233,11
792,0.61061615,-0.107180715,-1.7437415,0.025150537,12
793,0.33250195,-0.676347,-0.55185497,-0.7057904,13
794,0.6476512,0.88939327,0.5561124,-0.39585483,14
795,-1.0852253,1.148231,-1.5769312,-0.0036619902,0
796,0.84800607,-0.2862417,-0.1391123,-1.5827569,1
797,-1.0541891,-0.8576936,-1.4577595,-1.4125688,2
798,0.48589203,-0.81981325,-1.2495977,-1.0025975,3
799,-0.73216033,0.24013686,0.6120616,0.28175762,4
800,-0.06129495,0.5326702,-1.6280774,-1.322888,5
801,0.46246755,0.08727336,-0.9489069,-1.2371521,6
802,-0.8914571,1.4910684,-0.48281023,-1.8615972,7
803,1.7009882,1.9701256,-0.9482054,-1.7488265,8
804,-0.53645396,0.02312982,-0.63404524,-1.082002,9
805,-1.1973639,0.013127327,-1.4473745,-1.910475,10
806,1.0668268,0.015302002,-0.0035339594,0.27823728,11
807,-0.123389035,-1.3633863,-2.0646274,-0.7649954,12
808,-0.210736,-0.10852978,0.17732891,-1.0091345,13
809,1.2738503,0.17456862,0.09397653,-0.34057987,14
810,-0.73937047,-0.6637003,-0.17230332,-0.14566728,0
811,1.1626164,0.65978676,-0.019384101,-1.6073939,1
812,-0.037185043,-0.61981946,-1.3447454,-1.0060998,2
813,1.8560176,0.29283506,-0.84712183,-1.2213726,3
814,-0.5729563,0.44590896,-1.0249698,-0.2329976,4
815,-0.49653387,-0.13722908,-1.5740544,-1.4405937,5
816,0.32423484,-0.31207013,-2.7228346,-0.86143535,6
817,-1.7768309,2.3309855,0.4230832,-1.9519819,7
818,1.3028364,1.766932,-0.8328832,-1.9543095,8
819,-0.52621,-0.21290034,-0.14532286,-1.1691678,9
820,-0.41013432,0.07422221,-0.30816317,-1.8699374,10
821,0.66145575,0.7044008,-1.0524346,-0.02780278,11
822,0.12397249,-1.6083939,-2.2802448,-0.6387443,12
823,-0.13743728,0.19274029,-0.10449705,-0.7815319,13
824,0.78027475,-0.3360502,-0.59168154,-0.4553582,14
825,-0.6373874,1.8166673,-0.6310302,0.1601496,0
826,0.556268,-0.12846164,-0.20130712,-1.5611017,1
827,2.5091977,1.336601,-0.73447734,-1.3876077,2
828,0.783122,1.2217757,-1.4399023,-1.4592324,3
829,-0.9629332,0.7107432,0.3572889,0.34170088,4
830,-0.47365433,-0.3222605,-1.6935978,-0.92384994,5
831,0.5476481,-0.014945269,-2.2938976,-1.1228637,6
832,-1.3362212,0.17344081,-1.1237458,-1.4459519,7
833,1.1247654,1.6385009,-0.9053895,-1.6525548,8
834,-0.14130889,0.8181205,-0.17624193,-0.9124055,9
835,-1.1437579,2.1417294,-0.42503047,-1.9332424,10
836,0.9310578,0.7260918,-0.24038999,-0.006558895,11
837,0.47282678,-1.0781211,-1.1823232,-0.41524735,12
838,0.4327923,0.520857,0.8605808,-0.62627065,13
839,0.66879576,-0.02576743,-0.26451266,-0.2721245,14
840,-1.2619592,1.3016851,-1.7055165,-0.54902077,0
841,2.2813926,-0.631787,-0.18904239,-0.85454446,1
842,-0.35877788,-0.09384486,-0.8412161,-1.5537663,2
843,1.5084925,-0.63087016,-1.1517318,-1.5115367,3
844,-1.4096782,2.4580383,-1.0423584,-0.5059055,4
845,0.2336821,1.3696456,-1.2632086,-0.6414906,5
846,0.94605076,0.2743051,-1.6210234,-0.90993387,6
847,-1.179024,1.6999618,-0.7176991,-1.7799879,7
848,1.683037,1.638375,0.3785926,-1.8764523,8
849,-0.5472468,1.1162566,-1.1171246,-1.086096,9
850,-0.13907206,1.5559691,-0.57703185,-1.8460639,10
851,0.872419,0.31001607,0.027120382,0.32608807,11
852,0.18376285,-1.1542865,-1.2478867,-0.4530206,12
853,-0.26034847,0.0066443086,0.2676408,-1.0320615,13
854,1.2947983,-0.6527629,-0.46975964,-0.32759768,14
855,-0.8258692,-1.0426948,-0.775217,0.11936948,0
856,1.8750544,0.72098005,-0.01953739,-1.1064036,1
857,0.75293064,0.23154876,-0.7642075,-1.3669378,2
858,1.0714537,0.9785022,-0.7554171,-0.9973978,3
859,-1.3807695,-0.7279451,-0.5150417,-0.22241949,4
860,-0.00831452,0.8235544,-1.3548833,-1.0157031,5
861,0.6826829,0.58575445,-1.6695156,-1.1301365,6
862,-1.1356474,1.4534576,-0.43909425,-1.8028591,7
863,1.109456,2.586516,-1.1098111,-1.5607911,8
864,-0.03932634,-0.37928098,-0.6930331,-0.8290331,9
865,-0.7202497,1.1558381,-1.0864744,-1.7711954,10
866,1.5771666,1.1041412,0.23428251,0.5613836,11
867,-0.53879446,-2.4324722,-1.7072761,-0.78298545,12
868,-0.07277205,0.71334565,0.47343597,-0.7806057,13
869,0.9727909,0.21722917,-0.18986374,-0.04319209,14
870,-1.8149436,0.54695714,-0.9357135,-0.80362594,0
871,0.14272863,-0.91677195,-0.31476468,-1.3687094,1
872,0.9306183,1.6758494,0.1434502,-1.3721554,2
873,1.2454102,-1.3641195,-1.6344513,-1.0597807,3
874,-0.7675179,1.5716395,-1.1308781,0.12666145,4
875,0.13383102,0.4676075,-1.9044688,-1.0283822,5
876,1.3681984,0.923822,-1.619291,-1.0347027,6
877,-0.65960836,0.8845825,-0.69898576,-1.5406976,7
878,1.5069337,1.7988349,-0.15188146,-1.9230751,8
879,-0.15606783,0.2568347,-2.0575626,-1.4429431,9
880,-0.21041477,1.0273398,-0.57056755,-2.1044106,10
881,0.8445332,0.12315658,-0.32366073,0.093427405,11
882,-0.099684596,-0.9316703,-1.9300472,-0.48367065,12
883,-0.5708396,0.0071253777,-0.24930021,-1.1450325,13
884,0.6505638,-0.8500992,-1.0443504,-0.2550539,14
885,-1.2443602,1.746136,-1.5148914,-0.19966692,0
886,0.6772226,0.44398922,-1.2939416,-1.3883097,1
887,-0.26222622,-0.3942945,-1.2719743,-1.9629563,2
888,0.30309537,-0.093819715,-1.0354731,-0.9598122,3
889,-1.0833089,0.89680475,0.26644564,-0.28416455,4
890,-0.12326165,2.0429554,-2.3726861,-1.2355536,5
891,1.1712422,0.60921156,-2.0830245,-0.67895406,6
892,0.29519153,2.0078285,-0.36734948,-1.610523,7
893,2.3319345,1.5040145,-2.0332806,-1.1834576,8
894,-0.8680041,0.06049314,-1.0905298,-1.1284926,9
895,-0.11732429,0.5675018,-0.15528223,-1.8951069,10
896,0.96804583,0.16021526,-0.08670686,-0.22874337,11
897,0.22292821,-1.7466767,-1.6981797,-0.87531805,12
898,0.40718985,0.6201196,0.029421315,-0.8180949,13
899,1.4357892,0.085963435,-0.15849203,-0.19184597,14
900,-0.98454165,0.84087,-1.7772576,-0.18179724,0
901,0.5931559,0.55364615,0.07395679,-0.9640133,1
902,0.6483852,-1.061537,-0.87562305,-1.3329648,2
903,0.0038104653,-0.6985075,-1.3555275,-1.1522379,3
904,-1.3633397,0.23191565,-1.378339,-0.23223287,4
905,-0.19780457,0.35379618,-1.3986096,-0.83070767,5
906,0.34900072,1.1475835,-1.9010204,-1.0020667,6
907,-0.38448602,1.5714859,-0.1452334,-1.6995273,7
908,0.8456727,0.7730332,-1.1635599,-2.0931818,8
909,-0.46689582,1.2751062,-0.8730778,-0.8508971,9
910,-0.23912388,1.314482,-0.09717372,-1.7375836,10
911,0.9471984,1.5133269,0.22105382,-0.15000954,11
912,0.046490446,-1.6393656,-1.8778104,-0.47827923,12
913,-0.009977497,-0.6640376,-0.64459085,-0.83723897,13
914,0.72865236,0.124761045,0.5612638,-0.02745083,14
915,-1.5886502,1.3011036,-0.38751006,-0.40700167,0
916,1.861656,0.33598393,-0.32904088,-0.97033536,1
917,0.805503,0.8111498,-1.0275682,-1.5038404,2
918,0.43495315,-0.7997725,-1.1569642,-1.4641165,3
919,-1.8238573,0.2351189,-1.333337,-0.60863197,4
920,0.40845975,0.19734396,-1.4728408,-0.89457333,5
921,0.744111,2.8927507,-1.5303605,-0.72403204,6
922,-0.70658684,1.4544996,-0.78899163,-1.4332566,7
923,1.5585804,1.7053568,-0.60076606,-1.2887211,8
924,-0.905177,1.418881,-0.7180681,-1.2950794,9
925,-1.2424295,1.2546809,0.054384768,-1.9337672,10
926,1.1109781,-0.51337224,-0.9204504,-0.09755206,11
927,0.40561718,-1.6011562,-1.4101954,-0.40364772,12
928,0.47022155,0.22451453,0.17964908,-0.6864282,13
929,1.1546302,-0.011946183,0.091382,-0.23378548,14
930,-1.1016599,-0.62572783,-1.9162147,-0.52451384,0
931,1.4406724,-0.85096157,-0.6555488,-0.96826804,1
932,0.96257645,0.86485785,0.64035946,-1.6752748,2
933,1.1597159,-0.8886086,-0.8646682,-1.4527929,3
934,-1.209847,1.1547965,-2.142273,-0.25666773,4
935,-0.10097615,-0.7513472,-1.4416128,-1.1892939,5
936,0.6993351,0.6577013,-1.2733425,-0.8782357,6
937,-1.2314053,1.6142095,-0.74832773,-1.6772317,7
938,0.28751302,2.2059507,-0.5179573,-2.254409,8
939,-0.34219494,1.6457088,-1.1047516,-1.1458864,9
940,-1.3091044,1.8186109,-0.6940048,-1.6967118,10
941,1.1664958,1.3864369,0.106528684,0.0754414,11
942,0.48728862,-1.2722664,-1.6792843,-0.6740865,12
943,-0.11786454,0.27962562,0.4897363,-0.5939424,13
944,0.9567784,-0.16438797,-0.6751654,-0.2657911,14
945,-0.2648582,0.6060126,-0.3476808,0.5271952,0
946,0.28945798,-1.1114541,-0.58290875,-1.0260051,1
947,0.26621875,-0.41746104,-0.42048016,-1.3088167,2
948,0.04840648,-0.42892382,-0.6092906,-1.2099063,3
949,-1.8375564,-1.6034116,-1.2327958,-0.24157453,4
950,-0.08489937,0.8082919,-2.4298563,-1.0310639,5
951,0.6283724,1.6521015,-1.9436862,-0.894439,6
952,-0.83590275,1.0488803,-1.149513,-1.8083601,7
953,1.559436,1.0677075,-0.5621661,-1.57817,8
954,-0.048469663,1.5646846,-0.65513265,-0.9566473,9
955,-1.4942573,1.1120067,-0.0629563,-2.173527,10
956,1.4643842,0.3680852,-0.58345765,0.085499644,11
957,-0.05483654,-1.5608069,-1.4519087,-0.7563076,12
958,0.4170935,0.5934372,0.17212126,-0.81434244,13
959,0.25378406,-0.16108969,-0.18038687,-0.36681885,14
960,-1.8401979,0.06589413,-1.3127576,-0.8854861,0
961,1.2860917,-0.100935444,-0.8366636,-1.4092873,1
962,0.6448072,0.7171266,-0.59366095,-1.219317,2
963,1.7070906,0.28810346,-0.544121,-0.91772425,3
964,-0.6617714,0.78635424,-1.3406261,0.14312682,4
965,0.12413422,-0.03603676,-0.6415948,-1.1102738,5
966,0.48769596,0.510039,-2.6254196,-1.2509685,6
967,-0.81740904,1.1194766,-0.54433954,-1.6068827,7
968,1.7424504,0.84041864,-1.6924495,-1.7190323,8
969,-0.33644176,1.5824635,-0.6767539,-1.4034238,9
970,-1.2228571,1.3355879,-0.20587319,-2.0258632,10
971,1.6087023,0.35817322,0.3788212,0.3713357,11
972,0.42274523,-0.9175232,-1.7772053,-0.2291086,12
973,0.19395614,0.2950224,-0.36633584,-0.8179714,13
974,1.3749458,-0.28839672,-0.5917923,-0.052640855,14
975,-1.2098479,0.78780186,-1.8327483,-0.5500022,0
976,0.83925706,0.9014558,0.060975015,-1.0783371,1
977,-0.6460322,0.016589731,-0.991099,-1.3879634,2
978,0.34888402,-0.33279407,-0.41791266,-1.0246673,3
979,-0.9775591,0.4288816,-0.1498141,-0.2201597,4
980,0.19107184,-0.08503866,-1.1656659,-0.62523115,5
981,1.0422558,1.604567,-2.2814264,-0.8313684,6
982,-0.34640265,1.5089251,-0.77656746,-2.053415,7
983,1.6152625,1.2211587,-1.525077,-1.7946732,8
984,-0.43897477,1.2165295,-1.4332291,-1.1081779,9
985,-1.175715,1.3491778,-0.1741054,-2.581213,10
986,0.91286045,1.2366972,0.095998675,0.29239964,11
987,0.10962184,-1.5120186,-1.5549957,-0.46811697,12
988,0.14256442,-0.31896728,-0.7872368,-1.0763216,13
989,0.7926108,0.25249806,-0.4572563,-0.42109615,14
990,-1.4068968,0.3201532,-0.57140476,-0.41931036,0
991,0.5068434,0.08126901,0.36367473,-1.234312,1
992,0.6797076,0.64192474,-0.16151416,-1.4228712,2
993,0.7454216,-1.0401487,-1.6688226,-1.1815239,3
994,-1.507573,0.7047332,-0.67508554,-0.5325002,4
995,-0.18750313,1.0917118,-1.3018023,-0.88663334,5
996,1.7849162,-0.56733066,-1.0416479,-0.7874353,6
997,-0.10322183,0.76589054,-1.7938671,-1.6671833,7
998,1.9353422,2.9077077,-0.594162,-1.9082909,8
999,-0.4744851,2.003556,0.04130459,-0.9230482,9
1000,-0.011832714,1.0457395,-0.24047548,-2.0030408,10
1001,1.1050801,-0.10229802,-0.05351849,0.030346349,11
1002,-0.29452133,-1.8533272,-1.790955,-0.94736874,12
1003,0.4188786,0.6470132,0.6858684,-0.69647235,13
1004,0.81853116,0.066110045,-0.43902117,-0.5489497,14
1005,-1.0660766,2.0673423,-1.0220556,-0.37762263,0
1006,0.9761928,-0.013199598,-0.105516836,-1.2465646,1
1007,1.1400417,0.19317883,-1.05645,-1.3087982,2
1008,-0.280353,-1.2036002,-1.3971446,-1.2210584,3
1009,-2.132301,-0.67853355,0.41516137,-0.6791688,4
1010,0.40697464,-0.14280403,-0.99736154,-1.0088129,5
1011,0.4752858,-0.1383112,-2.7485306,-0.63268995,6
1012,-0.73882496,0.7947763,-0.67418754,-1.5267143,7
1013,1.2276188,1.9657599,-0.103127,-1.6372701,8
1014,-0.1473495,0.829579,-1.3769338,-1.098936,9
1015,-1.3711189,1.1921757,0.19328314,-2.6474483,10
1016,0.28710538,0.47493052,-1.2138633,-0.28975174,11
1017,0.49414173,-2.1168272,-1.2999947,0.00040787458,12
1018,0.29777923,-0.29462963,-0.5067339,-0.8882798,13
1019,0.53041065,-0.5669735,-0.5976703,-0.5970062,14
1020,-0.63628477,0.28059992,-1.0349478,-0.0072487593,0
1021,0.7738637,-0.6817905,-0.30296698,-1.2018195,1
1022,-0.060860395,1.0206699,-0.23506272,-1.2963767,2
1023,1.8504465,1.0203184,-1.2485667,-1.0140061,3
1024,-0.54229856,0.32330406,0.23192859,0.49182197,4
1025,0.2297208,1.0690324,-0.8102223,-1.0906595,5
1026,0.927217,0.40263182,-1.6513387,-1.0333667,6
1027,-1.0836201,1.5832356,-1.1161808,-1.6402469,7
1028,1.6144743,0.8796826,-0.5116462,-1.4958175,8
1029,-0.47252262,0.5271641,-0.2760942,-0.95247984,9
1030,-2.3455598,0.5275446,-0.9209213,-1.8339039,10
1031,0.9549859,0.80616415,-0.6639167,0.012391001,11
1032,-0.22661772,-1.463534,-0.9598235,-0.8822932,12
1033,-0.34938574,-0.124896586,-0.35057923,-0.59036726,13
1034,0.78831375,0.108374216,-0.84829617,-0.32839027,14
1035,-1.8130327,0.4098044,-1.3659693,-0.4654471,0
1036,1.0008641,0.4540516,0.11521301,-1.1244183,1
1037,0.058789402,1.1097648,-0.34345043,-1.0370908,2
1038,1.289608,-0.67404085,-1.1708761,-0.87824917,3
1039,-1.59219,0.040593147,-0.26426038,-0.80968654,4
1040,-0.69434565,-0.7335609,-1.6305199,-1.1008619,5
1041,0.6514322,0.8152023,-1.7179734,-0.44185874,6
1042,-1.1089145,1.5992113,-1.1998699,-1.7432519,7
1043,1.8330064,1.4268522,-2.3635435,-1.7050421,8
1044,-0.6379437,-0.069664955,-1.6223397,-1.0478325,9
1045,-1.2233629,1.2095702,-1.3746727,-1.9778656,10
1046,1.0411115,1.460926,0.9303762,0.18507478,11
1047,0.409259,-1.9734687,-1.2858372,-0.45013857,12
1048,-0.2674793,0.9820222,0.2956502,-0.56116575,13
1049,1.0697235,0.33266997,-0.052677244,0.055885404,14
1050,-2.0062068,1.3641675,-0.005387783,-0.6720387,0
1051,0.23754644,0.33973265,-0.38615996,-1.0400054,1
1052,0.5806916,-0.058917373,-0.69455624,-1.1866444,2
1053,0.5826514,0.1004034,-1.8839604,-1.7445772,3
1054,-0.8081714,2.3912961,-0.93956363,0.0072228312,4
1055,-0.13684943,-0.5459195,-1.9565537,-0.94856966,5
1056,0.12931687,1.1962123,-1.3215892,-1.1705825,6
1057,-0.6632899,0.35341072,-0.96239054,-2.297324,7
1058,0.6549024,0.10029328,-1.1146921,-1.4383135,8
1059,-0.20928584,1.1105394,-0.41612828,-1.2643863,9
1060,-0.38890275,1.0975943,-0.31965244,-1.9094529,10
1061,0.8743929,0.91207695,-0.19017859,0.3065253,11
1062,-0.3048498,-1.8553932,-1.5970815,-0.9032739,12
1063,0.16968739,-0.121284455,0.08690551,-1.1063771,13
1064,1.6096092,0.0057748538,0.03932336,-0.18380621,14
1065,-1.1538293,-0.08525884,-1.8932805,-0.27679247,0
1066,1.7835776,0.5265999,0.115119636,-0.8169051,1
1067,1.1134737,1.1933978,-0.8536217,-1.2218773,2
1068,0.30298674,-0.67365223,-1.1028193,-1.2225581,3
1069,-0.89915085,1.0989847,0.606225,-0.14826192,4
1070,-0.039580956,1.6603711,-1.527633,-1.295123,5
1071,1.2531759,1.8063972,-2.4702585,-1.1024371,6
1072,-1.282271,2.1664567,-0.4186488,-1.8767163,7
1073,1.9470031,1.9635196,-1.4684585,-1.7635766,8
1074,-1.0002054,0.11503643,-1.4804313,-1.4299959,9
1075,-1.1683744,0.7422006,-0.5675526,-1.8793677,10
1076,1.61561,0.6931806,1.2681123,0.5078324,11
1077,0.10873487,-1.8227644,-1.4853268,-0.61302745,12
1078,0.28766087,0.13503562,-0.31581804,-0.5450682,13
1079,1.2973171,-0.32538998,-0.40583426,-0.15214321,14
1080,-0.59062,-0.5028176,-0.6151756,-0.36480182,0
1081,1.0692503,-0.050914437,0.22888947,-1.3944194,1
1082,-0.76988053,1.3817298,-0.07565856,-1.5204339,2
1083,1.3620789,-0.88422376,-1.3523871,-1.051397,3
1084,-0.8904954,1.1950836,-0.016325474,0.12508112,4
1085,0.38243198,-0.24045622,-2.4641306,-0.57290936,5
1086,0.37739968,0.5264123,-1.8334934,-1.1369221,6
1087,-1.5798225,2.1021714,-0.6142131,-1.708671,7
1088,2.2918632,2.2963982,-1.4455981,-1.306387,8
1089,-0.044406682,1.5300066,-0.8095722,-1.0468885,9
1090,-0.105222344,1.8342085,-0.439869,-1.583719,10
1091,1.0910485,0.24508598,0.44494444,0.29134068,11
1092,0.504917,-1.5416766,-1.2990823,-0.3734524,12
1093,0.37074497,-0.22805929,0.4395338,-0.8332963,13
1094,-0.07214564,0.4469276,0.3629749,-0.25106323,14
1095,-1.7706871,1.0668315,-1.364243,-0.8179351,0
1096,1.5131301,0.69899136,-0.43590343,-1.4006333,1
1097,-0.28072786,-0.0051271617,-0.34219465,-1.5017098,2
1098,1.1980586,-0.6437176,-1.2162282,-1.1296128,3
1099,-1.2953187,0.85566926,1.0216551,-0.09946187,4
1100,0.006246548,-0.5363495,-1.7945665,-1.0601374,5
1101,1.3351467,1.0951444,-1.8882431,-0.6179155,6
1102,-1.2811475,0.7966026,-0.58581847,-1.9203064,7
1103,1.6216848,2.247413,-0.7064066,-1.3930976,8
1104,-0.38490236,0.84270626,-1.499121,-0.945891,9
1105,-1.0683278,0.96727043,-0.8874792,-2.202581,10
1106,0.76133454,0.25562072,0.032804504,-0.13088709,11
1107,-0.3729977,-1.6877651,-0.9252586,-0.9884933,12
1108,0.2666107,0.44744134,-0.68726575,-0.9156407,13
1109,0.3759529,-0.40071857,-0.84076923,-0.34033906,14
1110,-0.5552308,-1.8171628,-2.1343732,0.1686075,0
1111,0.4598307,-1.4574049,-1.27874,-1.3596196,1
1112,-0.09714675,1.1402166,-0.39078414,-1.3013872,2
1113,0.50433123,0.3232689,-1.2142185,-1.0493354,3
1114,-0.7931973,0.4413372,-1.0703012,-0.046809256,4
1115,-0.25645846,-1.4212276,-2.1271234,-1.2522975,5
1116,0.3379756,-0.52781314,-2.094255,-0.76592046,6
1117,-1.2459872,2.2461312,-0.6373514,-1.9539402,7
1118,1.2352374,1.1085286,-1.7344294,-0.890208,8
1119,-0.38984388,0.043411493,-0.47542244,-1.4397733,9
1120,0.119072974,0.66790074,-1.1396096,-1.5059379,10
1121,1.4434481,0.75922406,-0.6693076,0.21810147,11
1122,0.6443159,-1.9050252,-1.219855,-0.2989107,12
1123,0.24746767,0.32383397,-0.6552185,-0.69415814,13
1124,1.2394434,0.47274017,-0.07785705,-0.2982274,14
1125,-0.76272136,0.33395284,-1.9065146,-0.31103,0
1126,0.04033923,-0.1156344,0.026445359,-1.1545271,1
1127,0.87636197,-0.32530695,-0.6066218,-1.2252332,2
1128,0.7855425,0.5002777,-0.42300582,-1.2405283,3
1129,-0.97172093,1.0781674,-1.5001208,-0.24331373,4
1130,-0.07528529,0.35910198,-1.4906429,-1.093783,5
1131,0.7723968,0.024728775,-2.294988,-0.9398571,6
1132,-0.4701122,-0.73036885,-2.4614716,-1.7510324,7
1133,1.8954262,1.9546628,-0.4193067,-2.0104027,8
1134,-0.85788083,-0.42556947,-0.8055041,-1.2743232,9
1135,-0.61599404,1.3378456,-0.444847,-1.9877476,10
1136,1.3716717,0.50195664,-0.5888602,-0.17530021,11
1137,-0.0836401,-1.8808361,-1.6210382,-0.5381653,12
1138,0.21842888,0.64877105,0.68678665,-0.78019524,13
1139,1.0315619,0.46318763,-0.5642329,-0.31404015,14
1140,-1.1946076,0.6714982,-1.8306797,-0.505826,0
1141,1.1660676,0.4335398,-0.23637238,-1.2920684,1
1142,1.131752,-0.371875,-0.40442944,-1.3901542,2
1143,-0.018781304,0.03531236,-1.7059104,-1.3050717,3
1144,-0.56296706,0.6291403,-1.5609505,0.017077655,4
1145,-0.05506456,-0.6351044,-1.3746063,-1.0407423,5
1146,1.2426496,0.13312617,-2.090845,-0.72303313,6
1147,-1.3881825,2.2154353,-0.8469686,-1.5911722,7
1148,1.8764446,0.91166097,-1.747383,-1.3420006,8
1149,-0.47494546,0.21340185,-1.5033312,-1.348214,9
1150,0.49901253,1.3526409,-0.5612305,-1.5580254,10
1151,1.3255378,0.22029686,0.29942322,0.45400304,11
1152,0.050857052,-2.5699031,-1.8376324,-0.7192595,12
1153,0.31295544,0.03694047,0.24229106,-0.7617316,13
1154,1.1058218,-0.018439949,-0.2815765,-0.25180393,14
1155,-2.2733793,2.1345081,-0.99696046,-1.0636526,0
1156,1.0896813,0.7945412,-0.2972951,-1.1428577,1
1157,0.4515673,0.8557181,-1.6331372,-1.6003177,2
1158,1.2164176,-0.53911996,-0.53159297,-1.185599,3
1159,-0.710328,0.052357197,-1.0423677,-0.13963054,4
1160,-0.08329647,-0.71701443,-2.032188,-1.3804721,5
1161,1.0185548,1.7606616,-0.8808762,-0.8205303,6
1162,-1.2539601,1.4529651,-0.59506285,-1.7486835,7
1163,1.088623,2.5474763,-1.2655706,-1.480194,8
1164,0.22166756,-0.5474579,-1.1110668,-1.0024261,9
1165,-1.1507729,1.4990402,-0.24943072,-1.9955523,10
1166,1.3355355,0.10603768,0.24666159,0.19109511,11
1167,0.21279708,-1.5636226,-1.8929176,-0.69439065,12
1168,0.8274503,-0.6729064,-0.53986967,-0.45194653,13
1169,1.789547,0.2774669,-0.19655882,-0.3049538,14
1170,-0.97640145,0.75026166,-1.0702717,-0.16399562,0
1171,1.3988718,-0.8636545,-0.3526528,-1.3436571,1
1172,1.0348575,-0.82403535,-1.7530637,-1.263903,2
1173,0.73742247,0.07115334,-1.4295416,-0.9626412,3
1174,-1.5853426,2.638318,0.5512557,-0.284272,4
1175,-0.0015128776,1.5483187,-1.0383677,-1.0772859,5
1176,0.11824608,-0.58193403,-2.3678744,-1.0227818,6
1177,-1.4345027,2.9150264,-0.10582584,-1.6138918,7
1178,1.3239661,1.7859089,-1.1336173,-1.4682405,8
1179,-0.16978021,0.22006123,0.46678573,-0.62789273,9
1180,-0.29694352,1.2891243,-0.21242818,-1.6982521,10
1181,1.2631942,0.5485316,0.48274803,0.21346122,11
1182,0.22749145,-2.2165074,-1.4006532,-0.56501263,12
1183,0.1583656,0.025255159,-0.98772407,-0.8623918,13
1184,0.6882497,-0.20007446,-0.80517876,-0.5659683,14
1185,-0.9325825,1.5359621,-0.051572323,0.019372761,0
1186,1.3616138,0.018142436,-0.24803278,-0.8630378,1
1187,-1.3327218,-0.8924846,-0.9687892,-1.2498974,2
1188,0.58263487,-0.011161469,-0.45583236,-1.4752007,3
1189,-0.87421715,0.644448,-0.52174664,0.33241597,4
1190,0.49544156,-0.13568735,-1.800503,-0.7715664,5
1191,1.2979429,-0.09880608,-1.4719152,-0.6645615,6
1192,-0.7869105,1.2921208,-0.8631171,-1.7354069,7
1193,1.3451965,2.6931663,-0.7268082,-1.5570867,8
1194,-0.3067085,1.5867434,-0.758352,-1.0303874,9
1195,-0.7560522,0.101235926,-0.5370728,-2.039347,10
1196,1.492681,0.9213632,0.22958557,0.5428628,11
1197,-0.088791996,-1.7293923,-1.6492203,-0.6965623,12
1198,0.33567408,-0.08918628,0.51688325,-0.5484523,13
1199,1.0983908,-0.7163152,-0.5372089,-0.33326757,14
1200,-1.198126,0.8266971,-1.9037633,-0.21947566,0
1201,0.8509994,0.24283618,-0.36997214,-1.3632711,1
1202,-0.030479193,0.08606607,-0.36352518,-1.2971164,2
1203,0.8252835,-0.4424065,-0.7551679,-0.7443868,3
1204,-1.5147762,0.69865656,0.031983912,-0.53197294,4
1205,-0.055483118,0.5138897,-0.7980063,-0.9865923,5
1206,0.6083286,0.96539974,-2.4839866,-0.8774723,6
1207,-0.44950593,0.516872,-1.9127849,-1.7096702,7
1208,2.2107124,0.85921025,-0.86833024,-2.1982243,8
1209,-0.43038973,2.119652,0.3750947,-0.78405905,9
1210,-0.5428499,0.6439841,-0.3083673,-1.6852156,10
1211,1.1645283,0.56486404,-0.2245892,0.43917233,11
1212,-0.29623336,-1.084858,-1.6152433,-0.73448884,12
1213,0.5046162,0.6854168,0.05464402,-0.43876606,13
1214,1.2859954,-0.7874058,-0.6142515,-0.045633033,14
1215,-1.5575993,-0.6396429,-1.8015277,-0.728865,0
1216,1.6597701,-0.07260722,-0.489933,-1.4205959,1
1217,-0.2582866,-0.67383593,-0.7930344,-1.5545826,2
1218,0.90409184,1.0661271,-0.6350976,-1.1210233,3
1219,-1.3566821,2.059988,-0.66382235,-0.6158095,4
1220,-0.16559228,-1.2316813,-2.3122401,-0.7892903,5
1221,1.0539267,1.0839323,-1.6837744,-1.1165078,6
1222,-0.8776784,1.2693783,0.34402645,-1.1744246,7
1223,1.4950768,2.4253793,-0.8063421,-1.3888178,8
1224,-0.2262052,0.9939747,-0.3558951,-0.84045804,9
1225,-0.36278224,1.5583069,-0.45837945,-1.4238069,10
1226,1.5196124,0.8046012,0.7828126,0.07752444,11
1227,0.43617082,-0.99515307,-1.9301243,-0.7168697,12
1228,-0.08216799,1.299001,-0.04806058,-0.9235199,13
1229,0.19138277,-0.083848834,-0.8196341,-0.360006,14
1230,-1.5023965,0.9274714,-1.7436395,-0.5671911,0
1231,0.9613103,0.48204917,0.24406126,-1.3122331,1
1232,0.74482465,1.0665616,-0.78938997,-1.1560656,2
1233,0.78208953,0.91794133,-0.5302006,-0.82306635,3
1234,-2.36755,-0.2555467,-1.29127,-0.8783908,4
1235,0.09735125,0.9830601,-1.2862571,-0.9178194,5
1236,1.095725,-0.20136875,-1.753639,-1.1305611,6
1237,-0.62601924,0.47331357,-0.2906736,-1.6949289,7
1238,1.9308207,2.8280175,-0.77503127,-1.3929744,8
1239,-0.030923992,0.73437876,-0.7057342,-1.1013539,9
1240,-0.37760383,0.068464756,-1.0895627,-1.8462563,10
1241,1.5371281,0.9587159,0.00509046,0.2073288,11
1242,0.005856544,-1.2308749,-2.1221814,-0.42653784,12
1243,0.42818424,0.40481946,-0.04683134,-0.5800296,13
1244,0.15929002,0.13668776,-0.61676955,-0.60665,14
1245,-0.8147554,1.7000968,-1.2290332,-0.021566615,0
1246,1.6393762,-0.07944791,-0.531857,-1.2009814,1
1247,0.6094424,-0.3014291,-0.53009975,-1.1245267,2
1248,0.7236439,-1.2331877,-1.1153653,-0.8576286,3
1249,-1.3806694,0.12337124,-0.6235341,-0.44302124,4
1250,-0.16065976,-0.11716598,-1.29163,-1.2129481,5
1251,0.60604405,-0.6110036,-1.7324615,-0.8827693,6
1252,-1.0456889,0.9350563,0.0060912967,-2.0522962,7
1253,0.43786955,2.6579537,-1.0532894,-1.5405668,8
1254,-0.19654435,1.8500216,-0.9820359,-0.96052474,9
1255,-1.0298262,1.662334,0.069967985,-1.8909184,10
1256,2.1673489,0.3037849,0.1532604,0.598308,11
1257,0.40346834,-1.7358583,-1.5043384,-0.5692686,12
1258,-0.27690768,-0.026077926,-0.6477977,-0.7787532,13
1259,0.30775476,0.20447133,0.15150598,-0.4851964,14
1260,-0.858214,1.5651929,-0.75399566,0.011754602,0
1261,1.435555,0.0038584769,-0.32490918,-1.0938239,1
1262,0.5670017,0.520482,-0.06654614,-1.2601241,2
1263,0.5729521,-1.2205893,-1.0363897,-1.1776567,3
1264,-0.74756044,1.5251144,-0.2524172,0.14720476,4
1265,-0.20385322,-0.19809294,-1.6480107,-1.047002,5
1266,-0.07367915,0.87937915,-1.0539643,-1.0792217,6
1267,-1.2534473,2.2818825,0.43205476,-1.5098795,7
1268,1.7608362,0.9186762,-1.1420587,-1.5179548,8
1269,-0.62527037,0.23116833,-0.96421015,-1.1696416,9
1270,0.09156859,1.7773994,0.61651117,-1.7754185,10
1271,1.6168582,0.84564596,0.56826115,0.18128847,11
1272,0.22764565,-1.8752604,-1.3332576,-0.3613217,12
1273,-0.5223518,0.57264197,-0.5789525,-0.9950429,13
1274,0.78535366,0.62835616,-0.3817346,-0.471882,14
1275,-1.5056143,1.2431042,-0.9330276,-0.5251011,0
1276,0.7746786,-0.048440076,-0.7638769,-1.5908035,1
1277,0.5747352,0.5569984,-0.92007494,-1.3396916,2
1278,0.7219744,-0.09423991,-1.1616523,-1.0923563,3
1279,-0.2914685,2.107143,0.8723322,0.28154603,4
1280,0.6538458,0.006234914,-2.4440308,-1.0360725,5
1281,0.90642935,1.7233942,-2.2029233,-0.8899825,6
1282,-1.2275004,2.558957,-0.36515716,-2.0958152,7
1283,0.19355893,2.4953237,-0.3462224,-2.1184108,8
1284,-0.010126889,-0.021210104,-0.5016303,-1.1526468,9
1285,-1.0206479,0.38384122,-1.1318338,-1.9626589,10
1286,1.6729417,-0.1443609,-0.30375797,0.2836758,11
1287,0.41036212,-2.5774803,-1.2545573,-0.6369243,12
1288,0.43282065,0.4190971,0.011054724,-0.55431104,13
1289,0.9641704,-1.0903033,-0.9685683,-0.27733958,14
1290,-1.4799333,0.38847786,-1.4541202,-0.67751896,0
1291,1.270969,0.026825473,-0.60808027,-1.2240982,1
1292,0.03756821,-0.6878628,-0.8744535,-1.2528332,2
1293,0.9579482,-0.353167,-0.9651567,-1.3814774,3
1294,-1.4064658,1.3486768,-0.012171388,-0.20520988,4
1295,0.06321962,1.9638145,-1.992907,-0.6967906,5
1296,1.141383,0.9033465,-1.3123113,-1.1962681,6
1297,-1.9888072,1.1292801,-0.24034983,-2.173301,7
1298,0.7576995,1.8572927,-0.529354,-1.4406545,8
1299,-0.5448576,-0.13191581,-0.69566125,-1.4137939,9
1300,-0.6408866,1.7554626,-0.034285605,-2.3569376,10
1301,1.0524352,1.2888811,0.83139086,0.29106838,11
1302,0.29517764,-1.6243055,-1.5007305,-0.3348574,12
1303,-0.06469283,0.24647604,-0.34966558,-0.83905286,13
1304,1.0738338,0.5235059,0.026463479,-0.028793156,14
1305,-1.3737475,2.005173,-0.8768112,-0.6324054,0
1306,1.2720188,-0.49452782,-0.33852938,-1.2574658,1
1307,1.290643,-0.07060352,-0.8241982,-1.1941396,2
1308,0.5057615,0.9330431,-0.52658,-1.0354283,3
1309,-1.9963931,1.0661955,-1.1160343,-0.8101189,4
1310,0.014807086,-0.021205783,-1.1283507,-0.61142594,5
1311,1.4881465,1.2418069,-1.3076484,-0.69083476,6
1312,-0.8578297,0.13370085,-0.885383,-1.449633,7
1313,1.833834,2.2718549,-1.2194146,-1.3326049,8
1314,-0.6885567,0.8618338,-0.682004,-1.3478825,9
1315,0.06723577,-0.63389134,-1.2359769,-2.0909863,10
1316,0.8643193,0.33358026,0.22545655,0.27043527,11
1317,0.510705,-1.7121445,-0.8460791,0.12345958,12
1318,-0.44378668,0.22068137,-1.0395116,-1.1991078,13
1319,1.5310631,-1.0097715,-0.77399206,-0.29879308,14
1320,-0.6391584,2.029889,-0.7953682,0.026963383,0
1321,1.6310322,-0.4856444,-0.22798157,-0.92440677,1
1322,1.0053111,0.35591906,-0.6684063,-1.3966216,2
1323,0.3537573,0.37001786,-1.044689,-1.3372748,3
1324,-1.0790794,0.16361952,-1.9264159,-0.14958178,4
1325,0.6791088,0.7796688,-0.80073524,-0.7253264,5
1326,0.95182055,2.8021255,-1.2956402,-0.66387784,6
1327,-2.1233673,0.8190504,-0.9007453,-2.1048696,7
1328,1.8984313,1.1150587,-1.4054091,-1.8406316,8
1329,-0.16166167,0.42297217,-1.6189791,-1.1012087,9
1330,-1.4571667,1.3749379,-0.6265508,-2.0082061,10
1331,0.9994148,0.52406764,-0.07281554,-0.027811497,11
1332,-0.54065937,-1.9334159,-1.4329691,-0.9007254,12
1333,0.44414216,0.28887117,-0.79867554,-0.65882814,13
1334,1.2482269,-0.19781947,-0.13561675,0.15742266,14
1335,-0.927078,1.8315754,-1.1743641,0.09148145,0
1336,0.648198,0.689335,-0.2955682,-1.3895885,1
1337,1.326989,1.7619393,-0.028263748,-1.2254004,2
1338,1.1730304,1.0716981,-0.71122754,-0.94920325,3
1339,-1.3573674,1.8977083,-0.8784845,-0.48028594,4
1340,0.15595818,1.3019671,-1.4708253,-0.6868452,5
1341,1.2836227,0.9172355,-2.1174703,-0.9394441,6
1342,-1.1331322,0.5907787,-1.5220106,-1.8983402,7
1343,1.5644722,1.1394548,-1.895483,-1.7266871,8
1344,-0.6043695,2.0159647,-0.47815338,-1.1085035,9
1345,-0.49844623,0.66357005,-1.3393981,-1.8230832,10
1346,1.4270796,-0.22536904,-0.6733862,0.19780672,11
1347,0.20606984,-0.76843697,-0.8589455,-0.47850525,12
1348,-0.62007606,-0.07513374,0.48601547,-1.0685816,13
1349,0.6561209,-0.10206689,0.10175368,-0.033699334,14
1350,-1.170751,-0.30567026,-1.5595722,-0.34916252,0
1351,0.81316876,-0.663724,-0.37505662,-1.2327611,1
1352,1.1260681,1.3858523,-0.83546555,-1.5776,2
1353,0.17652631,-0.0592331,-1.129439,-1.3212636,3
1354,-0.58086,0.7592068,0.0785383,-0.09069836,4
1355,0.25035158,0.77801085,-1.3479878,-1.0930625,5
1356,1.3924518,0.31637922,-1.68477,-0.5449492,6
1357,-1.3864365,0.4662333,-1.923578,-1.6937399,7
1358,1.6847858,0.54938745,-2.315734,-1.6305103,8
1359,-0.8369795,0.20180053,-1.0136348,-1.4960929,9
1360,-1.2369822,1.7993798,0.31686217,-1.9060737,10
1361,0.75502294,0.032110095,0.51901567,0.14791596,11
1362,0.42120776,-0.8625708,-0.8834362,-0.36535054,12
1363,0.4288474,-0.075739026,-0.103391305,-0.43009335,13
1364,1.7574136,0.6050712,-0.30484104,-0.20210966,14
1365,-1.0959617,0.70012856,-1.6334562,-0.37445694,0
1366,0.4890042,-0.32434273,0.053975254,-1.2902797,1
1367,-0.10157168,0.35501042,-0.81612456,-1.0460014,2
1368,0.5823808,-1.1344695,-1.6617326,-1.1294632,3
1369,-2.581865,1.024712,-0.09549588,-0.9808023,4
1370,-0.07347574,0.94572586,-1.8062265,-1.189843,5
1371,0.8634231,-0.1471951,-2.7883198,-0.96218526,6
1372,-0.7357068,0.94943476,-1.6131676,-2.0199585,7
1373,0.9120714,2.4123578,-0.13056922,-1.5025017,8
1374,-0.27445528,0.5177913,-1.1265876,-0.9540047,9
1375,-0.98265755,1.1426181,0.012468994,-2.1269193,10
1376,1.4141479,1.0279251,-0.582996,-0.084415644,11
1377,-0.020799622,-0.91029096,-0.45223415,-0.5633353,12
1378,0.09026949,-0.50470257,-0.8332437,-0.8980093,13
1379,1.5523208,0.3317834,-0.32006297,0.052185714,14
1380,-1.4109845,0.6606668,-1.3287076,-0.39431983,0
1381,1.7436137,0.46056867,0.0558379,-1.0396962,1
1382,0.18591449,0.49030468,-0.53604376,-1.339592,2
1383,1.6670487,0.43729448,-0.9412346,-1.2596977,3
1384,-1.4497589,0.91815996,-0.7769755,-0.7438842,4
1385,0.0017178319,0.90722835,-1.1854259,-0.8066902,5
1386,0.6690673,1.3676748,-2.1318457,-0.9997752,6
1387,-1.1270795,1.3072972,-0.5563525,-1.4464222,7
1388,1.2895147,2.1390147,0.6118444,-1.3672382,8
1389,0.27665445,0.91587096,-0.27370578,-0.9737738,9
1390,-0.9649538,0.62392616,-0.5229356,-2.0909915,10
1391,1.0354939,1.2280374,-0.124801785,0.1094398,11
1392,0.254222,-1.215931,-1.7194864,-0.601665,12
1393,0.13930234,1.403245,0.3341703,-0.7657706,13
1394,0.81183,0.44603097,-0.7049643,-0.2672128,14
1395,-1.3812025,0.3213939,-1.2648933,-0.11054453,0
1396,0.46368587,-0.12250246,-0.4022143,-1.4164232,1
1397,0.12943155,0.40837362,-0.99356073,-1.8091909,2
1398,0.9641837,-0.96503913,-0.7527617,-1.1877965,3
1399,-1.4720665,0.5123759,0.3064127,-0.24480662,4
1400,0.007758625,-0.7720487,-2.206173,-1.0175318,5
1401,0.8263856,0.19942552,-3.0177717,-1.0176005,6
1402,-1.0789007,2.0646946,0.029940844,-1.9172229,7
1403,1.3923734,1.806367,-0.6652465,-1.7946467,8
1404,-0.059109762,-0.47835433,-0.9548917,-1.4937384,9
1405,0.02014649,0.6021018,-0.63648754,-1.9235625,10
1406,0.9999799,0.8558576,-0.3387795,-0.23352504,11
1407,0.23326036,-2.2474623,-2.019733,-0.62249273,12
1408,0.16164245,-0.32244712,-0.45445055,-0.53391635,13
1409,0.95683014,0.14583212,0.46684256,-0.16364399,14
1410,-0.8676144,2.044226,-0.18948102,0.13942614,0
1411,0.88819396,0.07579737,-0.026119381,-1.3632014,1
1412,0.13575488,1.363678,-0.41394538,-1.4754444,2
1413,-0.0403018,-1.2299979,-1.2589862,-1.2241603,3
1414,-0.27845347,0.8404184,-1.472769,0.40311965,4
1415,0.37075874,0.99481064,-1.6869264,-1.0133814,5
1416,0.19120365,1.4647528,-1.3490436,-1.3596578,6
1417,-1.3244956,2.7082691,-0.3715563,-2.0297425,7
1418,2.3896263,2.6230671,-0.8847561,-1.8619444,8
1419,-0.060236096,0.018356413,-0.9618348,-0.89018625,9
1420,-1.0502129,-0.10145879,-1.933094,-1.9193563,10
1421,1.054872,0.9330491,0.42656112,0.40167618,11
1422,0.7273643,-1.1466287,-1.3950533,0.06152463,12
1423,-0.19827557,-0.14229599,0.19168541,-0.90647185,13
1424,1.0135057,-0.6713543,-0.598751,-0.14419885,14
1425,-1.8424268,-1.064749,-1.4939398,-0.68617105,0
1426,1.8407273,0.41960728,-0.32489845,-1.0756047,1
1427,-0.12697035,-0.028433144,-1.9469571,-1.4065391,2
1428,0.047550857,-0.16173112,-0.51213735,-1.2144228,3
1429,-1.7402952,0.7002507,0.100518644,-0.99052215,4
1430,-0.76220036,1.3652749,-0.6627583,-1.3403608,5
1431,1.168616,1.3696494,-1.8414689,-0.72011274,6
1432,-0.7668322,0.97895586,-0.23712265,-1.66654,7
1433,1.427928,0.5423007,-0.97786206,-1.341187,8
1434,-0.08995594,-0.30422705,-1.220628,-1.0389004,9
1435,-0.559579,0.5280036,-0.5566029,-1.6717643,10
1436,1.0013282,1.4949776,0.2481414,0.2778596,11
1437,0.32089067,-1.7432961,-2.0968301,-0.34346935,12
1438,0.2950078,0.97187567,0.4055365,-0.76355886,13
1439,0.73403126,0.20718996,-0.5163568,-0.5491717,14
1440,-1.027045,0.59554833,-0.79206496,-0.2393357,0
1441,1.557658,0.100528196,-0.82941294,-1.2820987,1
1442,-0.33815527,1.5066564,-0.61732924,-1.5980237,2
1443,0.78455406,0.702071,-0.7884052,-0.7308713,3
1444,-1.2337918,0.7132493,-1.967781,-0.43287194,4
1445,0.3044226,-0.9178958,-1.8142232,-0.97665554,5
1446,0.6174662,1.575731,-2.5601304,-1.022755,6
1447,-1.3211482,2.139118,-1.0253568,-1.6459574,7
1448,1.4780291,2.609481,-0.21307302,-1.8320737,8
1449,-0.7327929,-0.3816694,-0.77827555,-1.1762862,9
1450,-1.0320143,1.3384594,-0.8162874,-1.9226902,10
1451,1.7580713,1.1284947,0.064601585,0.7226908,11
1452,0.048994154,-1.7771417,-1.747503,-0.45349085,12
1453,0.26009995,-0.5521468,-0.5137559,-0.62777436,13
1454,0.4492948,-0.5462698,0.13267806,-0.73067117,14
1455,-1.4965392,1.3601861,-1.9798636,-0.51743424,0
1456,0.982973,-0.17606369,-0.45139825,-1.4225008,1
1457,0.101637095,0.31788653,-0.2170673,-1.9411753,2
1458,0.65459394,-0.531438,-1.2510172,-1.2705923,3
1459,-0.8828928,0.40320414,-0.7989501,0.09193236,4
1460,0.44583127,1.0076478,-2.4940777,-0.88177556,5
1461,0.6299098,0.82287025,-1.230947,-1.024886,6
1462,-0.3851539,1.2922142,-0.1684668,-1.5394299,7
1463,1.6455836,2.3779478,-0.9293938,-1.7215642,8
1464,-0.34420943,0.04308462,-0.89820206,-1.4253213,9
1465,-1.5870609,0.20644182,-0.6704933,-1.9102266,10
1466,0.9409164,0.77016103,0.6699487,0.0772928,11
1467,0.04475309,-1.4872286,-1.568761,-0.44498056,12
1468,0.9047524,0.93896484,0.03912054,-0.41671655,13
1469,1.1888502,0.12525782,-0.02783963,-0.22137195,14
1470,-1.2692987,1.1164291,-1.2553983,-0.6060009,0
1471,0.40889597,0.029725619,-0.29994267,-1.0895234,1
1472,0.37038672,3.00467,0.15112877,-1.27942,2
1473,0.4455161,-0.5058172,-1.0177398,-1.1765964,3
1474,-0.8757806,1.0474644,0.387582,0.31481585,4
1475,-5.3718686e-06,-1.057079,-1.6547213,-1.1898501,5
1476,0.9849427,1.1678534,-1.8269906,-0.90712607,6
1477,-0.7227566,1.0078119,-1.0468426,-1.6683096,7
1478,0.99800074,1.7520819,-0.4205463,-1.5231328,8
1479,-0.049675703,1.0604141,-0.53901976,-1.0674205,9
1480,-1.4897661,0.8346337,-0.30815518,-1.5753847,10
1481,1.3489957,0.4636717,-0.7199089,-0.13967988,11
1482,0.29730657,-0.23367047,-1.4048092,-0.3700001,12
1483,-0.20540214,-0.8253245,-0.83282113,-1.1206152,13
1484,0.42866877,-0.2354757,-0.56410384,-0.51982886,14
1485,-0.35845852,1.1627419,-1.645421,0.087147206,0
1486,0.55184734,0.32152042,-0.5773096,-1.4460106,1
1487,1.0264317,0.8176965,-0.4098683,-1.2058648,2
1488,0.30754617,0.64713216,-0.7224585,-1.1068323,3
1489,-1.3923622,0.9216351,-2.0001569,-0.34179407,4
1490,0.020373505,-0.26530236,-0.48715842,-0.8001015,5
1491,1.1152554,0.21352124,-1.5436524,-1.2366709,6
1492,-1.5832417,1.5528651,-0.8788341,-1.9675584,7
1493,2.561266,2.6758142,-0.6146116,-1.3671397,8
1494,-0.80040455,0.38777286,-0.83853984,-0.97298115,9
1495,-0.8082434,0.24066556,-0.8517092,-2.0303774,10
1496,1.3838577,0.28127623,0.24336703,0.19751781,11
1497,0.6446806,-1.4164002,-1.8402283,-0.35769647,12
1498,-0.450332,-0.22916341,-0.3485856,-0.9661968,13
1499,1.2941809,-0.8964236,-0.48759246,-0.33834025,14
1500,-0.84094226,1.9008615,-1.6389116,0.12506369,0
1501,1.8263323,0.37387842,0.064229816,-1.3118893,1
1502,0.054662704,0.8020798,-0.13913321,-1.3018546,2
1503,0.5614086,-0.48974982,-0.6671683,-1.3108408,3
1504,-1.6304399,0.9357654,-0.81970495,-0.3548475,4
1505,0.17468703,1.622643,-0.32652295,-1.0771934,5
1506,0.9822268,-0.30050236,-2.3601365,-0.6832465,6
1507,-1.1109389,0.6883749,-0.84896094,-1.8512844,7
1508,2.0936012,1.7593498,-0.6862179,-1.5067734,8
1509,-1.0181614,0.30178082,-1.1091403,-1.4717729,9
1510,-0.3339862,1.9590505,0.14275903,-2.3698337,10
1511,0.86007345,-0.26544076,-0.39683646,0.16250557,11
1512,0.05418934,-1.0824659,-1.3690147,-0.62879175,12
1513,0.29723296,0.61654186,-0.37072784,-0.7182803,13
1514,0.057540655,0.5174291,-0.20549515,-0.35459927,14
1515,-0.5529071,0.47188634,-1.600528,0.24135241,0
1516,1.6221981,0.267249,-0.31180823,-1.0890516,1
1517,-0.44420755,1.0785308,-0.28676432,-1.4300605,2
1518,1.1609488,-0.52719754,-1.074892,-0.7444918,3
1519,-2.0924459,1.2574215,0.16651034,-0.99364173,4
1520,0.26173788,0.1375334,-1.3576134,-0.9660909,5
1521,1.1965992,-0.02841419,-1.9383799,-1.1879121,6
1522,-0.9695446,1.5168238,-0.9638754,-1.7089581,7
1523,1.6016023,2.0155256,-0.62327635,-1.7610523,8
1524,-0.39167368,0.0015550554,-0.15913993,-1.4637485,9
1525,-0.33488387,0.5088968,0.036016107,-1.982243,10
1526,1.4423835,0.8894651,-0.6228352,-0.0014471412,11
1527,-0.024597794,-1.5347397,-1.3139349,-0.71413064,12
1528,-0.052807666,0.89428705,-0.24367608,-1.0801181,13
1529,1.2657622,0.4304558,-0.36962646,-0.11520265,14
1530,-1.6461275,1.2997825,-1.0199116,-0.32857454,0
1531,1.498062,-1.074985,-0.22095582,-1.0048575,1
1532,0.84269255,0.5032637,-0.53384453,-1.1169271,2
1533,0.15926963,0.7251111,-0.47898006,-1.3993942,3
1534,-1.4558296,1.4771271,0.2485289,-0.5321643,4
1535,-0.31229722,-0.2754389,-1.512892,-0.9624184,5
1536,0.8692909,1.1346087,-2.0818455,-0.8327411,6
1537,-1.7406509,1.0803928,-1.5158756,-2.2291546,7
1538,1.978354,2.188137,-0.9217866,-1.9615942,8
1539,0.071659744,-0.1694153,-1.5367804,-1.0364068,9
1540,-1.7225975,0.6581487,-1.0506604,-2.1965466,10
1541,0.69839776,0.3717476,-0.071757406,0.25358823,11
1542,0.30143023,-1.9592834,-1.4288102,-0.56136465,12
1543,-0.055380963,0.58666337,-0.3271363,-1.002618,13
1544,1.0365933,-0.30165875,-0.4483174,-0.30261672,14
1545,-1.9398347,-0.020761013,-1.4299258,-0.56459147,0
1546,0.3695202,-0.6356018,-0.33019644,-1.382859,1
1547,0.59062564,0.5739539,-0.7867487,-1.3207972,2
1548,0.84364456,-0.24809653,-1.261072,-1.1398628,3
1549,-1.0067135,1.3889711,-0.7568362,0.13789442,4
1550,0.24052215,0.89560974,-2.0221987,-0.988343,5
1551,0.48489484,0.90575564,-2.1682744,-0.582587,6
1552,-0.9986379,-0.26154947,-1.2605058,-2.0604517,7
1553,1.1052424,1.5538948,-0.6050366,-1.6965921,8
1554,-0.32097015,0.7463415,-1.3247038,-1.6676884,9
1555,-0.5191395,0.8374355,0.16017771,-1.7554181,10
1556,0.92609596,0.24192217,0.5255903,0.36619788,11
1557,0.42516404,-0.5923334,-1.5775046,-0.5122613,12
1558,0.026151292,1.2565869,0.005739853,-0.5056063,13
1559,0.2520147,-0.3507948,-0.1738715,-0.37700438,14
1560,-0.64664674,0.31437194,-2.7711482,-0.024222702,0
1561,0.94559914,-0.109526634,-0.036640108,-1.080384,1
1562,-0.6826303,-0.661411,-0.9514376,-1.299506,2
1563,-0.03792143,-0.68197954,-0.8876413,-1.0402524,3
1564,-1.0909269,-0.89199233,-0.68595815,-0.51142657,4
1565,1.1208882,-0.9586382,-2.7870548,-0.5259665,5
1566,0.6228188,-0.50491065,-2.565748,-1.0366971,6
1567,-1.5144379,1.6012766,-0.7128857,-1.9663624,7
1568,2.6179008,2.8120382,-1.5753505,-2.0631201,8
1569,-0.36380926,1.2909663,-0.8971738,-1.2102587,9
1570,-0.3265566,0.6433948,-0.49181947,-1.3922027,10
1571,1.1612337,0.88947433,-0.57157934,0.024321139,11
1572,-0.12773895,-0.5906738,-0.8533601,-0.47812578,12
1573,-0.25680414,0.6529399,-0.824715,-1.0677038,13
1574,0.83972883,-0.9637305,-1.358389,-0.11257133,14
1575,-1.6535428,0.3945798,-0.14561403,-0.52540314,0
1576,1.4217694,0.43848377,0.09512901,-1.2601455,1
1577,0.10334337,-0.2777797,-0.7682813,-1.6889305,2
1578,0.9544157,0.49536747,-1.3189249,-1.1758053,3
1579,-1.3063349,-0.19691497,-0.4596063,-0.054602012,4
1580,0.66312087,-0.46330655,-0.7680901,-0.8404609,5
1581,0.27314126,-0.27592897,-2.3571458,-1.0642157,6
1582,-2.0049434,0.4094128,-0.72946465,-1.9016082,7
1583,0.2107116,0.08737564,-1.0069258,-1.9077823,8
1584,0.1541214,1.4751272,-0.5551808,-1.1392922,9
1585,-0.049966037,0.23979217,-1.0101049,-1.7026242,10
1586,1.4447248,1.2039468,0.41646135,0.18905854,11
1587,0.15648025,-1.4716278,-1.7610977,-0.7935742,12
1588,0.31478685,-0.3314994,-0.3402152,-0.9311163,13
1589,1.0730189,-0.028126378,-0.048480958,-0.40998727,14
1590,-0.9179441,-0.1967501,-0.18590164,0.17987898,0
1591,0.78128016,0.006510094,-0.7181466,-1.2628354,1
1592,0.37734878,-0.11699444,-1.1171979,-1.5944414,2
1593,1.1883602,0.6295856,-0.86951673,-0.98843676,3
1594,-0.96003103,1.7144805,-1.6510487e-05,0.084080845,4
1595,-0.4284395,-0.6492051,-1.5359133,-1.2735554,5
1596,0.33134437,1.1630843,-2.3033783,-1.2647723,6
1597,-0.5921887,1.71757,-0.5202158,-1.8651805,7
1598,0.93959326,1.1371052,-1.1698158,-1.9915723,8
1599,0.09801817,-0.5113378,-0.76904696,-0.940222,9
1600,-0.7151108,1.686222,-0.16291505,-1.7268428,10
1601,1.5425549,0.71174276,-0.52132064,0.60055566,11
1602,-0.27782428,-2.0337,-0.7329736,-0.7592782,12
1603,-0.3322802,-0.8707493,0.049913913,-0.6564187,13
1604,0.72483104,-0.73907226,-0.8159988,-0.46174827,14
1605,-1.7161493,0.27021062,-1.8779018,-0.9828261,0
1606,-0.0905391,0.039336935,-0.77627504,-1.8032167,1
1607,1.0464704,0.37585735,-0.17848045,-1.0689094,2
1608,0.87603176,1.2984827,-1.220343,-1.1068383,3
1609,-1.4264007,0.3053979,0.124913275,-0.25549963,4
1610,0.79155,0.15899277,-1.1057798,-0.75677514,5
1611,0.4364294,0.00067585707,-2.683309,-1.1065075,6
1612,-0.2856943,1.1520599,-1.5650034,-1.7081035,7
1613,1.6876671,0.4756012,-2.307805,-1.5951166,8
1614,-0.7877239,0.12475684,-0.669574,-1.4829655,9
1615,-1.0629277,0.35082567,-0.9410691,-2.4370768,10
1616,1.4847475,1.4429924,0.14736633,0.62456924,11
1617,0.07244888,-1.7177594,-1.4045024,-0.3915985,12
1618,-0.032227956,-0.027535677,0.08676773,-0.6009658,13
1619,1.5375695,1.0736531,0.17542484,-0.12411739,14
1620,-1.3139945,0.58576274,-0.73631215,-0.22164683,0
1621,1.2585225,-1.3029488,-0.4245631,-1.1726671,1
1622,0.7518159,0.2801412,-1.2076192,-1.2286546,2
1623,0.30695343,-1.0505644,-1.0209247,-1.3192468,3
1624,-1.41236,-0.08161545,-0.87341547,-0.4113168,4
1625,0.4315386,-0.1864922,-2.0770345,-0.8482925,5
1626,0.4660406,-0.006948352,-2.5256195,-1.3661611,6
1627,-1.3841941,0.9805839,-0.8779669,-1.662048,7
1628,1.2926171,1.3039339,-0.7139192,-1.9531279,8
1629,-0.89192426,0.05886978,-0.64588255,-1.1316378,9
1630,-1.1744633,1.3886232,-0.51165617,-1.9160352,10
1631,0.8834749,0.36402032,-0.072978795,0.7311164,11
1632,-0.16169983,-1.9143566,-1.5733567,-0.76482344,12
1633,0.02902247,0.2727079,-0.34534463,-0.87511337,13
1634,0.85503316,0.36498243,-0.54090816,-0.5921683,14
1635,-1.5719676,0.8316915,-1.4609102,-0.4998089,0
1636,1.0019755,-0.5330642,-0.39325228,-1.3339361,1
1637,0.2633256,1.0726578,-0.93492436,-1.4482924,2
1638,0.4780324,0.703004,-0.6799097,-1.10015,3
1639,-1.9199308,-1.2117803,0.5689039,-0.7086543,4
1640,0.044234022,0.7043899,-1.2776861,-0.93469685,5
1641,0.24106705,0.51465,-1.9161692,-0.7923083,6
1642,-1.578788,1.2901907,-1.0170271,-2.2064714,7
1643,1.110393,-0.090604186,-2.0844314,-1.7185339,8
1644,-0.5896493,0.13838005,-1.0417775,-1.0404347,9
1645,-0.7972504,-0.4080162,-0.576257,-2.0402663,10
1646,1.5693173,1.5491687,0.95431507,0.23741975,11
1647,-0.2163291,-1.9807472,-1.1864498,-0.5341157,12
1648,0.14883411,0.26300004,-0.056362182,-1.008149,13
1649,0.3878057,-0.6082796,-1.5587573,-0.65088326,14
1650,-0.7110616,0.08150816,-1.6433756,0.0271416,0
1651,0.90295446,0.4883663,-0.0023656785,-1.2383863,1
1652,0.6048759,-1.1041005,-1.1410372,-1.2497182,2
1653,0.95059687,0.6804494,-1.3625276,-1.1445822,3
1654,-0.32738507,0.9627167,0.4687991,0.2988235,4
1655,-0.10029549,1.0020189,-2.034855,-0.7119957,5
1656,0.31830284,0.039494872,-2.2101173,-0.9578426,6
1657,-0.57820725,0.06559694,-1.033403,-1.6341444,7
1658,1.1661822,1.5094061,-0.91059124,-1.1099939,8
1659,-0.44931787,0.6269094,-0.06530666,-1.347004,9
1660,-2.2103934,1.6270787,-0.23718661,-2.574719,10
1661,1.2259403,0.73263985,0.29802012,0.267031,11
1662,0.18335766,-1.3259356,-1.5955175,-0.47559762,12
1663,0.4466952,-0.82799965,-0.11927292,-0.5939313,13
1664,0.5011382,-1.0465385,-0.5960978,-0.4664905,14
1665,-1.2310463,1.2754358,-0.48802245,-0.42941085,0
1666,0.6331482,0.061994974,0.2097939,-1.4500201,1
1667,0.16882929,1.0815954,-0.32864988,-1.0283287,2
1668,0.6271954,-0.06467742,-1.4705817,-0.99912935,3
1669,-1.5229161,0.049160063,0.44258183,-0.45028204,4
1670,0.26368746,0.061216712,-1.9142337,-0.9407263,5
1671,0.8654937,0.13250813,-2.2541018,-0.73514307,6
1672,-0.4972636,1.2404187,-0.58146983,-1.384044,7
1673,1.7934549,2.7025065,-0.877639,-1.8797705,8
1674,-1.0594203,-0.2667247,-1.4487371,-1.2309666,9
1675,-1.0514122,1.3316094,-1.4626292,-1.8828982,10
1676,1.2913256,0.5203479,0.04449062,0.2662423,11
1677,0.51624304,-1.9386512,-1.601207,-0.4512693,12
1678,0.10643125,1.1402526,0.12920722,-0.8381331,13
1679,1.143624,-0.07587379,-0.5317518,-0.119294345,14
1680,-1.0008856,-0.97035545,-1.9628308,-0.0714543,0
1681,1.2138717,0.27311745,-0.07545158,-1.4182414,1
1682,1.1689346,0.94201446,-0.34922212,-1.2822801,2
1683,-0.21108323,-0.024132017,-1.0394281,-1.4546313,3
1684,-0.2566557,1.4235065,-1.4065913,0.17465106,4
1685,-0.0055359565,-0.42575926,-1.038728,-0.9149625,5
1686,0.65382034,0.65918696,-1.5466548,-0.59298,6
1687,-1.0020235,1.612495,0.102118134,-1.6341472,7
1688,0.979299,1.1908994,-1.6662066,-1.4202335,8
1689,-0.7553306,0.96414584,-1.03958,-1.3157912,9
1690,-0.9396714,1.1632594,-0.8212452,-2.155436,10
1691,1.4090716,0.21033019,-0.46918792,0.08937372,11
1692,0.12170733,-1.7596898,-1.6844417,-0.772974,12
1693,0.07604645,0.034309328,0.11037743,-1.0695589,13
1694,0.9369348,-0.45570165,-0.64357007,-0.5648868,14
1695,-0.89373446,0.05209732,-1.983668,-0.48761246,0
1696,1.2502158,0.05273384,-0.5570233,-1.1199036,1
1697,-0.6169441,0.53855205,-0.10786468,-1.6731199,2
1698,0.8092972,1.1072447,-1.150395,-1.4043003,3
1699,-1.1414826,2.7090583,-0.43486822,-0.3321606,4
1700,-0.6258128,0.7493421,-2.0801475,-1.4586529,5
1701,0.7660637,1.2049115,-0.8646654,-1.0653939,6
1702,-1.1863128,1.1692824,-1.540014,-1.8316839,7
1703,1.1499782,0.87426883,-1.5390356,-2.1388252,8
1704,-0.27088645,-0.017147243,-1.1193848,-1.09656,9
1705,-0.88213015,1.5550568,-0.75872993,-2.189195,10
1706,1.7346796,-0.49488968,-0.60315627,-0.045066774,11
1707,0.5023515,-1.2488245,-1.6204611,-0.22468111,12
1708,0.7312255,-0.3151505,0.061463594,-0.24525893,13
1709,1.0130491,0.91510445,-0.48268503,-0.23892616,14
1710,-0.9205562,-0.7913998,-1.5489433,-0.24150285,0
1711,0.7265794,0.1198573,0.5704074,-1.1325428,1
1712,0.09372297,0.5470078,0.037385106,-1.6045924,2
1713,0.71128166,-1.0808411,-0.32240605,-0.7937292,3
1714,-1.8381624,-0.11034721,0.9790667,-0.7807299,4
1715,-0.01266095,1.3998399,-1.0587327,-1.0733713,5
1716,0.4261606,0.14125413,-2.1309216,-1.0182387,6
1717,-0.683962,0.966976,-0.34622622,-1.3542869,7
1718,2.7790995,2.7838016,0.13585126,-1.5200355,8
1719,0.038998306,0.41776747,-0.8928799,-1.2851062,9
1720,-0.39429528,0.59230876,-0.30246615,-2.009258,10
1721,1.6237879,0.04627943,0.27046925,0.18777876,11
1722,0.33717293,-1.6707814,-1.2931713,-0.42338985,12
1723,0.111917876,-0.09257999,0.03897035,-0.7853876,13
1724,1.4178734,1.2821841,0.5086404,-0.19379103,14
1725,-1.5305674,-0.11465341,-2.0931773,-0.6148176,0
1726,0.23924077,0.8914409,0.06390369,-1.5618774,1
1727,0.76362914,-0.6928934,-1.2252784,-1.4535094,2
1728,1.1144807,0.49035496,-1.0586638,-1.2647319,3
1729,-2.4630692,0.9279784,0.32423133,-1.2423978,4
1730,0.18473867,1.6718699,-0.763608,-0.5697421,5
1731,1.8457301,-0.038162887,-3.0912378,-0.6411211,6
1732,-1.9642844,1.7037472,0.3645743,-1.8386487,7
1733,1.685792,0.48502505,-1.4575273,-1.220587,8
1734,0.08692232,0.5919986,-0.6130883,-1.0640169,9
1735,-1.9983275,0.6613416,-0.7126603,-2.1836257,10
1736,0.8952311,1.2044716,-0.1109163,-0.20061621,11
1737,0.84401363,-1.3594968,-1.4664935,-0.3705627,12
1738,-0.18592,-0.06564602,-0.7212242,-0.96157086,13
1739,1.619288,0.5396903,-0.2025392,-0.12984568,14
1740,-1.5819234,-1.8520944,-1.3297175,-0.7463155,0
1741,1.1518109,-0.75804865,-0.59916735,-1.5341338,1
1742,0.60050696,0.7355368,-1.2450355,-1.3050237,2
1743,0.83323014,-0.74202216,-1.7958217,-1.0835067,3
1744,-2.2248576,1.2464972,-0.1445753,-0.9120196,4
1745,0.37874356,1.1765366,-1.0623293,-0.954283,5
1746,1.332941,1.3275204,-2.0066338,-1.3223394,6
1747,-0.967229,2.3697736,-0.58033377,-1.4209263,7
1748,1.997937,2.5302188,-0.036129355,-1.7547575,8
1749,-0.39258882,-0.5367186,-1.367824,-1.2593551,9
1750,-0.36576802,0.9839364,0.0066168904,-1.4607846,10
1751,0.96096885,0.13469023,-0.13776067,0.1929792,11
1752,0.13682556,-1.8764412,-0.9678616,-0.6821797,12
1753,-0.29806107,-0.21442765,-0.44937807,-0.88172114,13
1754,1.5959997,0.45053238,-0.81583536,0.044689238,14
1755,-0.9606632,1.6132495,-1.1407287,-0.26516294,0
1756,2.1351807,-0.05682105,-0.42592403,-1.4654756,1
1757,-0.52315915,0.29112485,-0.42058676,-1.2326872,2
1758,1.1440731,-1.2362467,-1.1311803,-1.2127022,3
1759,-0.6365428,1.3994306,-0.373617,0.31318036,4
1760,-0.36050478,-0.030320466,-2.0556948,-1.1310681,5
1761,0.6656526,0.9718059,-1.5908749,-1.1795717,6
1762,-1.2434703,1.1276112,-1.0778776,-1.4786963,7
1763,1.4798491,2.1606603,-1.7352532,-1.6950442,8
1764,-0.13912797,0.9945577,-0.66483927,-0.9566299,9
1765,-0.13155872,1.361946,-0.123970985,-1.7279378,10
1766,1.4825895,0.08110309,-0.21025059,0.3406157,11
1767,0.30414447,-2.4416487,-0.82018864,-0.43366215,12
1768,-0.24659985,0.6386446,-0.3019523,-0.81804377,13
1769,1.1585151,0.63846576,0.26807627,-0.15497217,14
1770,-1.0338609,1.733398,-1.2593066,-0.005212158,0
1771,2.3723702,0.61015797,-0.3833164,-1.5033717,1
1772,-0.25268364,0.39574152,-1.2064757,-1.1959258,2
1773,0.7223357,0.11723608,-1.1893488,-1.0703318,3
1774,-0.8000831,1.3556582,0.23983335,0.039295673,4
1775,-0.22361797,0.72879565,-0.97078806,-1.0905625,5
1776,0.93182737,0.2514202,-1.7046721,-0.8909133,6
1777,-1.3660392,0.99559623,-1.1585826,-1.4484622,7
1778,1.0269011,2.8331661,-0.8068892,-1.5087178,8
1779,-0.103897214,1.3698092,-0.19319195,-1.1979553,9
1780,-1.5063195,0.58269304,-0.26166013,-2.5022502,10
1781,1.5929871,1.3925443,0.0065060705,0.05088076,11
1782,0.13505915,-0.91290134,-1.0957271,-0.48704103,12
1783,0.41393,-0.4907645,-0.10032618,-1.0485018,13
1784,0.9869847,0.58128154,0.18344995,-0.010424733,14
1785,-1.6191653,-0.6705583,-1.0853195,-0.63014436,0
1786,1.457556,-0.24711274,-1.7059433,-1.9617785,1
1787,-0.23609465,0.56546843,-1.0925341,-1.1877718,2
1788,0.4915855,-0.16099896,-0.70198643,-1.185323,3
1789,-1.6877847,0.5422354,-0.77789986,-0.36170697,4
1790,-0.17656851,0.34057355,-1.3043746,-1.0463622,5
1791,1.2807395,0.41478407,-2.318588,-0.702739,6
1792,-1.0147388,-1.2358276,-1.9658269,-1.8443005,7
1793,1.4796017,1.7897195,-0.75394595,-1.9176598,8
1794,-0.59995466,0.4087494,-0.7990173,-1.0983269,9
1795,-0.13999975,1.3541726,-0.94758844,-2.2204974,10
1796,0.8588375,0.24872264,-0.2591299,0.13822955,11
1797,-0.3267402,-1.1355006,-1.0628965,-0.66474634,12
1798,0.051498353,0.47567505,0.6260499,-0.84948397,13
1799,0.9366374,0.1302765,-0.47862917,-0.043257713,14
1800,-1.3029428,-1.2510018,-0.6735791,-0.19312531,0
1801,1.1817914,1.365854,-0.025178313,-1.0653298,1
1802,0.73784244,0.9027528,-1.0095956,-1.0102439,2
1803,1.328547,1.1368433,-1.1891252,-1.0011196,3
1804,-1.2517618,0.19143876,-0.4312934,-0.22193772,4
1805,-0.29037833,0.8961576,-0.73906124,-0.883651,5
1806,0.61768895,2.5632033,-2.008219,-0.95656234,6
1807,-0.62664294,1.5456634,-1.0203522,-1.7184126,7
1808,2.5065665,0.94049555,-1.876852,-1.9016705,8
1809,-0.3726792,0.2167626,-0.4478298,-1.159698,9
1810,-0.5740704,2.0801573,-0.41428474,-2.3546476,10
1811,1.5320351,0.12343097,-0.43680543,0.38634157,11
1812,-0.22627991,-1.1751529,-1.6126953,-0.48395133,12
1813,0.24785107,0.39979544,-0.08819529,-0.43570632,13
1814,0.6143191,-0.57816225,-0.3139942,-0.2531071,14
1815,-0.6987369,0.42802206,-0.863055,-0.15210865,0
1816,0.8131,-0.028462246,-0.6422851,-1.079563,1
1817,0.054054916,1.5888803,-0.6306906,-1.5677992,2
1818,1.4925051,-0.35993165,-0.54515076,-0.4942956,3
1819,-0.8470415,0.6407681,-1.9452002,-0.01289776,4
1820,0.35379076,-1.5663998,-2.2180552,-0.8182452,5
1821,1.2213062,0.50911313,-2.0240886,-0.75747734,6
1822,-0.97768825,0.79412293,-0.4655696,-1.8180435,7
1823,1.1604364,0.6342323,-2.2857647,-1.8415565,8
1824,0.06761232,1.4549274,-1.1683805,-1.1909413,9
1825,-0.5808506,0.12015611,-1.1561322,-1.5132359,10
1826,0.7169827,0.15852821,-0.03585276,0.23558867,11
1827,0.793534,-1.862692,-0.9789083,-0.35236204,12
1828,0.34994063,-0.0066524744,-0.42668813,-0.58880913,13
1829,1.1239991,-0.2632953,-0.7221093,-0.3440943,14
1830,-1.8623054,-0.92538625,-1.0462266,-0.7657535,0
1831,0.33637667,0.07103566,-0.27236181,-1.3247267,1
1832,-0.49350917,1.3120635,-0.10449046,-1.3267201,2
1833,1.494571,0.035204682,-1.4543482,-0.9912486,3
1834,-1.7141534,-0.1085248,-0.25015765,-0.28094995,4
1835,0.10369372,0.66560006,-2.133566,-1.2540991,5
1836,0.35216945,0.40134948,-2.517916,-1.2171582,6
1837,-0.5241958,1.9105041,-1.6756494,-1.6741579,7
1838,1.8025537,2.369691,-0.39591432,-1.8303965,8
1839,0.025666445,1.0720735,-1.2226422,-0.91027254,9
1840,-0.9029948,0.16794264,-0.9425552,-1.8833914,10
1841,1.2684842,1.2103765,0.2605918,0.16951278,11
1842,0.15375713,-1.2062856,-1.4758499,-0.29807258,12
1843,0.13352223,0.6556932,-0.5338564,-0.6401652,13
1844,1.0210986,0.4835894,-0.80110717,-0.6369875,14
1845,-1.4420023,0.6129246,-0.6300274,-0.07310051,0
1846,0.8705859,0.9368991,0.2825671,-1.2641466,1
1847,0.4576008,0.608726,-0.99278945,-1.3218187,2
1848,0.6568111,0.8465552,-0.45471197,-1.6506314,3
1849,-0.64176315,0.47923696,-1.5414561,-0.12320876,4
1850,0.05718353,0.14473736,-1.6498072,-1.1322659,5
1851,0.32217535,1.6659319,-1.4815007,-0.86258125,6
1852,-1.2558647,1.0763843,-1.5830791,-1.8053467,7
1853,1.3955567,1.3574502,-0.04976654,-1.7968326,8
1854,-0.762283,0.29080534,-1.0457091,-1.5289245,9
1855,-0.780572,1.6743641,-0.086654305,-2.4022899,10
1856,1.5518322,-0.19175291,-0.21420868,0.2301897,11
1857,0.25672773,-1.5580273,-2.168794,-0.6670418,12
1858,-0.36164233,0.28095457,-1.0340726,-0.82481396,13
1859,1.9593904,-0.08288653,-1.3652717,-0.26867822,14
1860,-1.1417049,0.9290206,-0.36737853,0.061387807,0
1861,1.4895625,-0.0065768585,-0.26484728,-1.3774236,1
1862,-0.55348134,-0.93272084,-0.9813896,-1.5237112,2
1863,0.52428365,1.0315695,-1.5648953,-0.8001259,3
1864,-0.8341626,0.6671965,0.10344547,0.34875426,4
1865,-0.049793184,0.07490522,-1.2600021,-0.9863133,5
1866,0.8391771,-0.30353868,-1.9595935,-0.80110836,6
1867,-0.5790024,1.1882567,0.08636314,-1.7426641,7
1868,1.8671495,1.756849,-1.1815959,-1.6367245,8
1869,-0.43591797,0.11345652,-0.95277643,-1.0224884,9
1870,-0.34841168,0.63967264,-0.6835551,-1.6607907,10
1871,1.0279748,1.4740348,0.27319628,0.57518613,11
1872,0.26558805,-1.2679257,-1.03062,-0.5380875,12
1873,0.5995217,0.3658192,-0.120145775,-0.513334,13
1874,0.66218257,0.6192597,-0.14001036,-0.28777105,14
1875,-0.9278042,1.3033781,-0.7527704,-0.048958167,0
1876,1.480738,0.12818074,-0.2362982,-1.2901592,1
1877,0.3597469,0.6626414,-0.12872869,-1.5838552,2
1878,0.564305,-0.8335412,-0.83804417,-1.0790439,3
1879,-1.6551671,0.745931,0.6508883,-0.42235214,4
1880,0.27873173,-0.77796614,-1.7743602,-1.1454985,5
1881,0.46289358,-0.8386472,-1.6607637,-0.56176484,6
1882,-1.0336037,2.0747745,0.05946517,-1.6586287,7
1883,2.1590726,0.9747379,-1.1990798,-1.3388317,8
1884,-0.75178677,1.5735865,0.082170546,-1.3734998,9
1885,0.14624947,0.5676156,-0.77810067,-1.7029945,10
1886,0.9945111,0.13612488,0.30809587,0.26606518,11
1887,0.45784548,-1.8327255,-1.4443914,-0.46183378,12
1888,0.053191133,0.39641613,0.14658406,-0.7266385,13
1889,1.1801593,1.2226256,-0.062707454,-0.7214985,14
1890,-0.43161732,0.1607117,-1.1794572,0.3799679,0
1891,1.6130056,0.30734158,-0.19589294,-1.0929327,1
1892,-0.92547333,-0.7339285,-1.3082619,-1.7731297,2
1893,0.54408944,1.5204769,-0.90010846,-1.2171264,3
1894,-1.8754654,0.24401537,-1.7851304,-0.8951005,4
1895,0.35847902,2.5258732,-1.0627415,-0.77672017,5
1896,0.56981814,0.2162064,-2.0802782,-0.8411344,6
1897,-1.4463613,0.6825148,-1.3946038,-1.6683319,7
1898,0.44995415,1.5379094,-1.1997243,-1.730399,8
1899,-0.22543544,-0.13198775,-0.40244877,-1.5367628,9
1900,-1.9886427,-0.06530464,-1.7502453,-1.5686415,10
1901,1.8160465,0.9470863,0.4812852,0.4551502,11
1902,-0.16154578,-2.1680515,-2.1474292,-0.7910614,12
1903,0.1196731,0.545321,-0.8881655,-0.6550051,13
1904,1.3643495,0.22266386,-0.4622609,-0.062056035,14
1905,-1.1075356,-0.30606252,-0.19516861,-0.006029099,0
1906,1.281246,0.15326265,-0.29710534,-1.4061971,1
1907,1.2433834,-0.117027014,-0.90896606,-1.2055583,2
1908,0.75826365,-1.7277694,-1.4351165,-1.4579927,3
1909,-1.9650054,1.6403508,-0.40508652,-0.54853344,4
1910,-0.67123985,0.5442145,-1.9502192,-1.565794,5
1911,0.65208316,-0.0077157617,-2.3991055,-1.2586126,6
1912,-1.1757345,0.5379544,-1.8193705,-1.7819283,7
1913,1.041893,2.454251,-0.72038984,-1.4681393,8
1914,-0.08407496,1.158074,-1.0039049,-0.9087523,9
1915,-1.1433948,2.2020345,0.4664039,-2.1105766,10
1916,0.8847251,1.9190211,0.7718597,0.43373507,11
1917,0.3890477,-1.4288299,-1.9536467,-0.47055689,12
1918,-0.08809782,1.0425997,0.09707403,-0.8755444,13
1919,0.7841522,-0.05810853,-0.5166506,-0.37085795,14
1920,-0.95440805,2.3862896,-1.8498203,-0.13481297,0
1921,1.4022843,-0.57326823,-0.56540334,-1.430696,1
1922,-0.046650648,1.7206535,0.18081528,-1.472889,2
1923,1.852009,-0.99410266,-1.4089767,-1.4765737,3
1924,-1.5429456,0.7635527,-1.4267063,-0.74993694,4
1925,-0.06411809,1.330286,-2.3930676,-1.1086419,5
1926,0.96192896,-0.30566782,-2.3285947,-0.93165094,6
1927,-2.0052361,0.707172,-1.8106014,-1.3864418,7
1928,2.0476155,1.0000825,-1.3672354,-1.5457091,8
1929,-0.60170233,0.033068478,-1.0438415,-1.2171626,9
1930,-1.3491176,0.8003485,-0.29186836,-2.192516,10
1931,1.014921,0.5969021,0.029559962,-0.07528052,11
1932,0.38216686,-1.8021435,-0.82623965,-0.21018037,12
1933,0.5151703,0.6496166,-0.17591709,-0.8630166,13
1934,1.2720585,0.17359671,-0.37478527,-0.35424137,14
1935,-1.4725292,-0.25005144,-1.4915178,-0.5453756,0
1936,0.8465611,0.2479958,-0.55821407,-1.3454363,1
1937,0.3282701,0.8990466,-0.8855938,-1.5256442,2
1938,0.13337636,0.45522672,-0.9974072,-1.4349959,3
1939,-1.1368244,0.7197878,0.26805848,-0.035678536,4
1940,-0.8498977,1.0461948,-1.411969,-1.5546696,5
1941,0.35152334,-0.48520237,-2.4554307,-1.1231596,6
1942,-1.4804174,1.2172481,-0.13538218,-1.7208003,7
1943,1.5124716,1.7007849,-0.56134784,-1.5609788,8
1944,-0.23816618,0.4059542,-1.0347937,-1.1081878,9
1945,-1.4570855,1.5666217,-0.6484388,-2.115161,10
1946,0.97264034,0.9729694,-0.028997399,0.09729916,11
1947,0.4388831,-1.0354333,-1.6960366,-0.5033961,12
1948,0.55295104,-0.11626184,-6.54459e-05,-0.5661709,13
1949,0.5422555,-0.7510081,-1.5425152,-0.49666405,14
1950,-1.0513754,2.205967,-1.0072519,-0.26624355,0
1951,0.6686956,-0.13051988,-0.24021405,-1.7631277,1
1952,0.7171284,-0.5249418,-1.0934899,-1.4785414,2
1953,1.0556589,0.71696925,-0.017404437,-1.1222134,3
1954,-0.9186989,1.0271189,0.28460574,-0.09506735,4
1955,0.013660196,0.27558494,-2.6782773,-1.1321722,5
1956,0.914996,0.58962035,-1.9430811,-1.2110064,6
1957,-1.1410111,0.87284076,-0.19614416,-1.7371532,7
1958,2.2439058,3.3933315,-0.77552354,-1.2925762,8
1959,-0.72420514,0.1586757,-1.4033308,-1.3227677,9
1960,-0.7840359,-0.07816148,-1.1261251,-1.9722841,10
1961,1.1251506,0.34287244,0.0630378,-0.037443385,11
1962,0.42508143,-2.2606673,-1.4061503,-0.5673705,12
1963,-0.11870373,-0.3803563,-0.81320596,-0.9359999,13
1964,0.627825,0.50705814,0.03560871,-0.43180677,14
1965,-0.49576908,0.57372063,-1.0782554,0.34490743,0
1966,1.123112,-0.0145264715,0.2319187,-0.94170725,1
1967,-0.2195741,0.3717715,-0.8060267,-1.5378392,2
1968,0.48261327,-2.114797,-1.3885077,-1.2621496,3
1969,-1.6051723,1.7957672,0.16925168,-0.30328262,4
1970,0.20952946,-0.9999883,-1.7982739,-0.9479064,5
1971,0.8846879,1.5155554,-1.7743479,-1.1259681,6
1972,-0.9599299,2.233428,-0.42882705,-1.6665187,7
1973,1.6888478,1.6867971,-0.988869,-1.7365435,8
1974,-0.8815794,-0.6504138,-1.4247179,-1.3706107,9
