,locs0,locs1,locs2,locs3,locs4,locs5,subject
0,0.6635045,2.1682115,0.029160231,-1.1216766,-0.31122708,-0.23971885,0
1,-0.30254894,-0.5901185,-2.0278835,0.5185131,-0.64011467,0.02157551,1
2,0.95723045,0.55811536,-1.3551954,1.4627047,0.41460314,-0.50403976,2
3,1.6175032,2.0831614,-0.07757479,1.3133514,-0.7839978,1.2205069,3
4,-2.1272986,1.2893233,-0.73369783,-0.7097024,-0.10655293,0.5160989,4
5,0.3324061,2.3657804,-1.4798417,-0.4269225,0.43621975,-0.4422378,5
6,0.82128173,-1.6912422,0.14163047,-0.66960204,-1.2964013,2.3757896,6
7,0.43782017,1.0243356,-1.558583,-1.0087576,-1.2847793,-1.3677998,7
8,1.3300927,-0.5877931,-1.0519798,0.12113923,-0.16483349,1.4860058,8
9,0.49134442,-2.4451256,-1.5208418,0.2225098,-0.7761041,-2.2480218,9
10,0.35944557,-0.4600837,-1.4578447,1.0585741,-0.4010985,2.0481725,10
11,-0.3470512,0.34382963,-0.6253105,-0.33680052,0.11956124,1.3238835,11
12,2.1710129,1.2434338,-1.0261092,-0.03848684,0.68662477,0.23916906,12
13,-0.18244529,1.8316163,0.006113112,0.4415091,0.16682944,-1.0443293,13
14,0.24589199,0.52567476,-0.42685086,-0.08397162,-1.205682,-0.84926504,14
15,-0.23286924,0.50991654,0.43168682,-0.71999127,-1.3909638,-0.046779394,15
16,1.5734948,0.10539983,-1.3984962,-0.62193215,-1.8740374,0.2854364,16
17,-1.0522001,-0.55678165,-0.18639326,0.50376725,0.37877226,-0.38303655,17
18,-0.267322,-0.75560975,-0.28583175,0.0062017143,-1.0001482,-1.9136441,18
19,-0.73731315,-0.00039884448,-1.185846,1.7410212,-0.1982674,0.42620075,19
20,0.10596532,-2.016793,0.7392159,-0.8774934,-0.23852155,-1.1592478,20
21,1.1768501,-0.93754554,-0.22230758,-1.2267528,-0.25417125,-0.91162646,21
22,1.4830198,-0.46994972,0.017888844,-1.1886544,-0.8270452,-0.010171272,22
23,3.288445,0.45077884,-2.5246558,-0.15640265,0.15654732,0.6084293,23
24,-2.5005946,0.80000997,-0.3448337,-1.1758065,-0.9405216,1.1491737,24
25,1.6229069,-0.7920826,-1.759734,-0.7097764,-1.9702706,0.5928888,25
26,1.1820505,1.777137,-0.529958,-0.34437045,-0.5798928,0.6721741,26
27,0.28443867,-4.0416136,-1.3115486,-0.5219958,-0.46524245,2.2013602,27
28,0.62996346,-0.30788207,-1.543738,1.2543529,-0.83102477,1.4238636,28
29,-0.9360176,0.11888102,-0.78530633,-0.24461901,1.1738901,-0.6577997,29
30,-1.5851922,0.2940017,0.70569533,1.1447372,-1.5625658,-1.500166,30
31,2.8277564,0.41727757,-2.2148116,-0.8398694,-1.9612969,0.70049375,31
32,2.3633223,-0.33343828,-1.334426,-1.6033862,1.0913703,-0.10837807,32
33,0.8508296,-1.7178447,-1.414709,0.43110782,-0.98828954,1.1994195,33
34,-1.6727481,2.7886858,-1.7149875,-0.26991767,-0.76030606,0.18787423,34
35,-1.2493801,1.855264,-0.47157043,-0.68531024,-1.0595121,0.07257736,35
36,0.07745516,2.2282443,-0.30434752,-0.8925376,-0.697222,-0.902329,36
37,-2.2425344,-0.7981357,-0.9309324,-0.627437,-0.10059407,-0.051947325,37
38,-0.6560878,-3.101623,-0.61123383,-0.21083169,-1.5671338,0.58767295,38
39,0.836303,1.2925171,0.17458236,-0.75176835,0.57616127,0.13605942,39
40,0.67631555,1.1592758,0.18091795,-1.551342,0.026201367,-2.0410264,40
41,-2.020063,-0.9759643,-1.5937465,0.8055383,-0.61848044,1.7319205,41
42,-1.7572949,-3.335718,-1.8861284,0.7774129,-0.56952125,-1.1277636,42
43,-2.0526004,0.7986759,-0.42856646,-1.9311559,-0.3803103,1.8668344,43
44,0.7578817,-2.3000665,-0.9609575,-0.033482872,-0.25135586,0.56892276,44
45,1.3548772,-0.23184454,-0.8572701,1.1864654,-0.90037817,-0.12308687,45
46,-0.045129947,-0.066868246,-0.99809396,0.8095205,-1.6856613,-0.37333792,46
47,-0.96536064,-0.6561606,0.44076332,-0.6785545,-0.6882639,1.0708842,47
48,0.4253704,0.8793119,-0.29749984,-1.2815386,-0.42836168,2.4811985,48
49,-1.5502104,0.97985435,-0.05610712,0.9940923,-0.21402547,0.24150844,49
50,-0.46797395,0.17053342,-0.81469005,-1.6350297,0.7569432,-0.14174205,0
51,-0.4377079,-0.039374173,0.7015925,0.50371623,-1.4551368,-0.6146393,1
52,0.5380512,0.48881578,-0.15368615,0.8967033,-0.12553376,-0.8135505,2
53,1.2903793,0.4543749,-1.3491452,0.96350443,-0.9786048,-0.7571268,3
54,-2.3024201,0.48093736,-0.3282532,-1.0292381,-0.23051718,0.7768005,4
55,1.7250634,1.248361,-1.3277731,-0.0508129,0.24952416,-0.1812773,5
56,1.0634168,-2.3677552,0.92688775,-1.4236848,-1.3813936,0.038490236,6
57,0.5954399,1.698449,-1.6384854,-0.92720944,-1.1948773,-0.61138046,7
58,1.7621636,-0.92446005,-0.8227919,-0.5890474,-1.120307,1.67571,8
59,0.8053192,-2.059344,-0.63992614,0.6810355,-0.7084255,-1.927582,9
60,-0.27938402,-0.8140694,-1.1543111,-0.15203017,-1.6065781,0.014253497,10
61,-0.2121163,-1.332465,-0.596348,-0.31835866,0.24584587,0.76506865,11
62,1.7991251,-0.038208604,-2.5504866,-0.34266496,1.0339544,-0.79814994,12
63,0.665445,-1.3160145,-1.5231687,0.6156496,-0.01998642,-0.84482384,13
64,1.3089343,2.1670763,0.65570265,-0.025440007,-1.187818,-1.1141335,14
65,-0.85027826,0.38167208,0.994151,-0.78447485,-1.5333557,1.074575,15
66,1.5154228,1.1731852,-0.8922389,-0.045353413,-1.167873,1.2712314,16
67,-1.4606026,0.13461006,1.2417874,0.76963997,1.2522787,-0.3460782,17
68,0.32863554,-1.5767511,0.24049276,0.6757811,-1.6460397,-0.5542027,18
69,-1.6791462,-2.6250126,-0.74111396,0.85402095,-0.6386465,-0.8829807,19
70,0.30558485,-1.7612438,0.03754127,-1.1331587,-0.3979953,-1.1087463,20
71,0.12759301,-0.2900709,-0.012648163,-1.6118681,0.5426412,-0.7685647,21
72,1.4273709,0.041133285,-0.009423971,-2.1782615,-1.6441302,-0.9982891,22
73,-0.30406344,0.9326285,-1.5234419,-0.93329597,-0.30994654,-0.08638154,23
74,-1.3718985,2.0261557,-0.51498216,-0.28358504,-0.054300994,1.0297129,24
75,1.3735139,0.24648745,-1.3759656,-0.8309958,-2.21974,0.8017128,25
76,0.9526195,0.83833736,-0.8194779,-1.3029754,-2.0390577,-0.32192713,26
77,-0.18221606,-4.5786033,-1.1461005,-0.92200637,-0.34473062,1.5160745,27
78,-0.28132862,2.1418235,-0.12532628,0.56028485,-1.2102919,-0.16206759,28
79,-1.6039407,0.20922612,-0.2508224,-1.4396546,0.4097327,-1.05669,29
80,-1.1316605,2.9472046,-2.3995101,1.1478016,-0.94526726,-1.7590989,30
81,0.84909195,-0.4344152,-2.354426,-0.5608196,-0.9591881,0.6096622,31
82,2.338688,-0.17640585,-1.6539981,-1.5811373,1.3915639,0.33980596,32
83,1.3679729,-1.5066924,-0.39058498,0.3634019,-1.3782527,0.8682655,33
84,-0.945382,0.6726106,-0.61604965,0.82231593,-0.5027752,1.1457566,34
85,-1.1263536,2.330138,-1.1622028,-0.56771255,-0.35806108,0.620912,35
86,-0.29548776,-0.078208506,-2.6007566,-2.2023196,-1.9203966,-1.7212126,36
87,-2.340087,-1.5617764,-0.4910642,-0.7208086,-0.014549762,-0.20798229,37
88,-0.01298511,-4.0836673,-0.19956702,0.11623353,-0.6820339,1.8976644,38
89,-0.019959211,2.1141222,0.1083976,-0.78470814,0.30824524,-0.23960261,39
90,0.48524612,1.7414924,0.47921482,-1.3382969,-0.33676526,-2.0835469,40
91,-1.528419,-1.0438629,-0.94104326,0.6992876,-1.3389202,0.5750024,41
92,-1.456326,-1.1401603,-1.4529417,0.5703974,-0.002491951,1.9273741,42
93,0.13442889,0.61705804,-0.61602956,-1.0206985,0.03613186,1.6594944,43
94,1.0615208,-0.9903109,-1.4882076,-0.17891559,-0.79090047,0.46594697,44
95,1.2602545,1.0484238,-0.022129893,1.0887319,-0.84969157,0.41972965,45
96,0.034259744,3.7302227,-1.0721073,0.7792039,-1.04656,-0.21333125,46
97,-0.459472,-1.576144,-0.30143642,-0.17260402,0.08560817,0.4315531,47
98,-0.7971555,2.1706808,-1.013438,-2.0300164,-0.052586198,1.6233382,48
99,-1.2001188,0.9487623,0.44413087,0.5757723,-1.4593838,0.108897,49
100,-0.5650215,1.286555,-0.26998776,-2.723443,-0.92986405,-0.52529263,0
101,0.25726375,-1.203991,-0.45480537,1.610281,-0.46467772,2.1965675,1
102,0.7801399,-0.29783788,-0.51061326,1.431396,0.25100237,0.1711266,2
103,0.5789878,2.4171271,-0.50762075,0.29628196,-1.5577857,-0.76265156,3
104,-2.1889138,1.5090206,0.12938316,-1.0812818,-0.5579313,0.9266106,4
105,0.46581796,-0.32218188,-1.5819771,-0.01358068,0.49830204,-0.09591392,5
106,1.8128489,-1.6860567,1.3966544,-0.3816828,-0.52671456,3.2386975,6
107,0.15246557,1.819911,-1.530433,-0.9632472,-0.65844834,-0.8447834,7
108,0.099090576,1.4560518,-0.17865679,-1.1973457,-1.2952741,1.1853416,8
109,0.5496366,-1.3788867,-0.40763873,0.3643645,-1.3152966,-2.251888,9
110,0.15679392,-0.7080387,-2.5980763,0.6251363,-0.46373415,0.37270468,10
111,-0.6569164,-0.94924796,-1.2555995,-0.87916344,-0.18229564,1.0035102,11
112,1.9507879,2.5371828,-0.7349994,-1.3536626,0.2680063,-1.0540457,12
113,0.12146789,1.4606171,0.71668524,0.07716182,0.020894036,-0.8806331,13
114,0.68306065,0.6267124,-0.34982443,-0.5551353,-1.1577846,-2.3831987,14
115,0.07695818,0.68736684,0.8972735,-0.8157993,-1.7231177,1.1420952,15
116,2.153498,1.0562725,-1.7536385,-0.3853641,-1.4385946,0.7203563,16
117,-1.5212215,-0.7200374,0.9589936,0.24554864,0.26154628,-0.20414254,17
118,0.07773112,-1.1048571,-1.4512122,0.25254542,-1.5379367,-0.7313833,18
119,-2.0500371,-0.32245266,-0.5887996,0.33764213,-0.31116492,0.99930954,19
120,1.442291,-2.0962641,0.029363751,-1.2561407,-0.9882735,-1.595601,20
121,0.49423435,-0.64301693,-0.5038726,-1.4943516,0.36563888,-1.1082854,21
122,1.0209019,-0.6382966,-0.50281066,-1.0877999,-0.7073659,0.32519123,22
123,1.021145,2.7613258,0.3933227,-1.0727253,-0.18183415,0.23968428,23
124,-2.0062351,0.85811037,-0.21263394,-0.59992844,-0.26896048,2.2135735,24
125,1.6448308,1.2280036,-1.9118333,-0.24058701,-1.9891576,0.9834324,25
126,0.55697006,0.5929433,-0.9860388,-0.48567465,-0.811908,0.82369196,26
127,0.06467864,-3.6302164,-0.9997851,-1.257371,-1.1000626,2.0173693,27
128,0.6364661,0.034013152,-1.9428402,1.4281499,0.36166775,1.5189745,28
129,-0.38742107,1.0336258,-0.029827744,-0.33585918,1.6036925,-0.63659155,29
130,-1.4487448,0.65658236,-1.2345437,1.2155011,-0.8267504,0.09218055,30
131,1.963819,-0.72064316,-1.9007176,-0.68355024,-1.4208272,1.7764862,31
132,0.8830982,0.33245754,-1.1204367,-2.0384068,0.40193868,-0.14060709,32
133,0.39276975,-2.201328,-0.7596311,0.5326802,-0.8319356,0.06358808,33
134,-1.2075716,-0.18546957,-0.7127498,0.17593727,-1.1853324,-0.5243604,34
135,-0.6457546,1.9974711,-0.4921658,-0.2392923,-0.5993947,-0.2790088,35
136,1.5838642,1.627111,-1.4498265,-0.3171847,0.07543874,1.4479499,36
137,-2.6649735,-0.9060514,-0.8389309,-0.8357077,-0.3549308,-0.77190334,37
138,-0.1291152,-3.5450606,-0.66918606,0.37953296,-0.25358468,1.9437854,38
139,0.7613785,1.4763856,-1.8878019,-1.2415414,-0.061970085,-0.4093339,39
140,0.850919,1.713383,0.7748332,-1.2958115,-0.3544876,-1.644362,40
141,-1.8864064,-1.5282203,-1.6442401,1.4975377,-0.342278,-0.41421676,41
142,-1.067519,-0.15372808,0.2094664,0.5720293,-2.2317624,1.0047331,42
143,1.2105124,0.7846943,-0.111258805,-0.3575927,0.77846164,2.189472,43
144,0.09970349,-1.8767501,-1.1721008,-0.61191076,-1.0715209,-0.05175887,44
145,0.65713423,1.1110624,-1.0464494,0.061365664,-2.0656157,-1.026086,45
146,-0.06742677,0.2896427,-1.2215394,0.7589786,-0.7698874,-0.68867385,46
147,-0.5134762,-1.2860161,0.12712952,-0.4007724,-0.0811519,0.54205704,47
148,-0.9046835,1.0898703,-0.7767221,-1.5273285,0.10976689,1.2651088,48
149,-1.0006106,1.3669313,0.94263595,0.81129485,-1.603678,0.087744504,49
150,1.0361826,0.6936872,-0.63548684,-1.6007688,-0.112631485,0.32533437,0
151,-0.51873136,-1.1311833,-0.31646875,0.55242175,-0.7093379,0.7541583,1
152,0.56994885,0.16968845,-0.8226496,1.0649245,0.24613121,-0.50040764,2
153,1.2316706,-0.27700055,-0.7929719,0.92236143,-0.8938899,0.121971935,3
154,-1.9648087,1.2059426,1.0046194,-0.98295397,-0.8206213,1.144804,4
155,1.132038,0.6772172,-0.4721477,-0.124176085,0.14042322,0.47682425,5
156,0.09025186,-1.9496682,1.506854,-1.6441859,-1.8869524,0.49450782,6
157,0.4827504,2.2396464,-1.1752515,-0.80684584,-0.6011385,-0.7341815,7
158,0.34274894,0.794132,-0.071400344,-1.2785685,-1.6843941,0.7581651,8
159,0.6339925,-2.6902962,-1.4573958,0.3791358,-0.40794146,-2.008122,9
160,0.3101659,1.622669,-0.7592828,0.45512757,-1.6299475,0.21666172,10
161,-0.62337166,-1.0507196,-1.3855386,-0.57710403,-0.21267384,1.3442756,11
162,0.34811616,0.44529998,-2.2607632,-0.8254291,0.12760946,-1.1144764,12
163,0.67214847,-0.573469,-2.021514,1.0512705,0.63578284,-0.38804907,13
164,1.5322306,0.13772017,0.10508835,-0.007977128,-0.8087539,0.21529984,14
165,-0.77888554,-0.062161773,-0.49133027,-1.571596,-2.8655043,-0.7885262,15
166,2.7076466,0.23335317,-1.8130475,-0.08421114,-0.83978945,1.7598033,16
167,-1.4646988,-0.4283429,0.6737339,0.79147303,0.94976074,-0.43751806,17
168,0.6321356,-1.2740425,0.27811176,1.18563,-1.3324652,0.03919685,18
169,-1.26292,1.0238426,-1.4209423,0.48079857,-1.3857096,0.74496853,19
170,1.32727,-2.0192792,0.39546156,-0.82824284,-0.33663142,-1.1444762,20
171,-0.050640047,-1.2140664,-0.4695506,-2.0742812,0.3678723,-1.363177,21
172,1.5135267,-0.20802897,0.018870667,-1.5166434,-1.1986706,0.29539928,22
173,0.03385079,3.1401,-1.3160218,-1.3118241,-0.4511916,0.20175724,23
174,-2.0011945,-0.126997,-1.2438626,-1.0062642,-0.72083336,1.6163267,24
175,1.6852492,-1.8471549,-2.8099332,-0.60551316,-1.9884523,0.53784543,25
176,1.6546131,-0.016875863,-1.2003716,0.6657415,0.64641213,2.0002158,26
177,-0.48919886,-4.0285063,-1.2934896,-0.93903196,-0.34149405,1.5108483,27
178,1.1963434,2.0137606,-1.3347186,1.7016361,-0.39074755,1.923321,28
179,-1.6042225,0.32089663,-0.9240569,-0.77953833,0.99016285,-0.74666244,29
180,-2.6458912,-0.48518395,-1.3341055,-0.00083100796,-1.2136159,-0.6335454,30
181,2.4134703,-1.1155944,-1.5564898,-1.0755441,-2.1396174,1.3301507,31
182,0.6480728,0.3158425,0.25412583,-1.9385248,0.51063025,-0.10160571,32
183,0.6293529,-1.2959338,-0.5670274,0.5648481,-0.80901647,-0.094691515,33
184,-0.3572696,-1.0836608,-0.76994544,0.7589471,-1.4684343,0.9670888,34
185,-0.47375017,0.57896256,-1.3481038,-0.14720818,-0.22825819,1.5735099,35
186,0.25049388,-1.9928203,-1.8304708,-2.6248422,-2.770097,-2.2241085,36
187,-2.151173,-1.077247,-0.253846,-0.55505544,-0.44021076,0.41099313,37
188,-0.1233601,-3.626244,-0.084071755,-0.43099898,-1.1012547,0.36580628,38
189,1.1656288,0.85676837,-0.7362263,-1.2499712,-0.21883872,0.2749652,39
190,2.2209039,1.2684624,0.44260162,-1.2236578,-0.5007253,-2.4542582,40
191,-1.4443077,-0.35785118,0.94425404,0.8881713,-1.3901752,-0.57135665,41
192,-1.8426945,-1.3960216,-0.6561939,-0.2001735,-0.072322965,3.161337,42
193,-1.0664316,-1.0524842,-1.3030387,-1.8828304,-0.6851389,1.5989197,43
194,0.57854724,-3.0609272,-1.0434767,-0.18836895,-0.39399514,0.36790058,44
195,1.5374854,2.485663,0.17667109,1.5060425,-0.90206933,1.0273739,45
196,0.053714998,-1.4046131,-0.2660957,1.3079046,-1.2236594,0.6128638,46
197,-0.19266582,-2.1719391,-0.54599524,-0.22130358,0.17631833,0.36769465,47
198,-1.607065,0.13790435,-1.0461557,-1.714572,-0.07209492,1.5796728,48
199,-0.7769687,2.3357487,-0.100639746,1.1008936,-1.5866978,-0.054061398,49
200,0.7175969,0.72260284,0.07470973,-1.3618381,0.09587439,0.42336872,0
201,-0.654016,-1.023769,-0.36603603,-0.0011329055,-2.0563183,-2.5116434,1
202,0.5642993,1.2309321,0.3559408,0.8745373,-0.32763466,-0.60909164,2
203,0.7977534,1.6278934,-0.9920516,0.51992613,-1.6170763,-1.1001267,3
204,-2.3354068,1.4661885,0.52284753,-1.0444154,-0.2872155,0.9606259,4
205,1.4398559,0.022337317,-1.7680892,0.06787819,0.5512784,0.35096237,5
206,0.7653522,-1.5419397,1.1116574,-1.3579063,-1.3727176,0.97722566,6
207,0.110796526,1.6518855,-0.8122017,-1.2247355,-0.8668133,-1.2518747,7
208,0.53049445,0.6532888,-0.2472918,-1.4300088,-1.4344356,-0.16375667,8
209,0.4470588,-1.7054274,-0.62768006,0.011792779,-1.2787806,-2.1308687,9
210,0.15901035,0.40170133,-1.3803194,0.5132567,-0.8840817,1.9477109,10
211,-0.60605806,0.5695106,-1.0832185,-0.20478937,0.24485992,0.8307025,11
212,1.2510642,1.2730594,-1.4745145,-0.3102188,0.8945259,-0.54026604,12
213,1.0498679,-1.5211778,-1.4542191,0.36569688,-0.11408281,-0.7705771,13
214,0.8462864,0.7916738,-0.82270557,-0.45513657,-1.142052,-0.8797489,14
215,-0.24945185,0.31129965,1.1944507,-0.7367649,-1.0144337,1.8010249,15
216,1.6838583,0.47312868,-1.1892033,-0.5439775,-1.7627182,1.2263945,16
217,-1.5079937,-0.90898407,1.2682846,0.28764775,0.40479523,-0.708099,17
218,-0.049393505,-2.692244,-0.47511357,0.4469396,-1.0798846,-0.88056564,18
219,-0.43845862,0.5107439,-0.27320194,1.7038832,-0.6226844,0.90891945,19
220,1.0850753,-1.9547869,0.90864736,-1.4938494,-0.681692,-1.0822335,20
221,1.3617511,-0.5868615,0.06262466,-1.9199847,0.3320912,-1.0199288,21
222,-0.38752902,0.25361943,-0.2353146,-2.580527,-1.7128563,-1.0921627,22
223,0.8979525,2.1783786,-0.73014706,-0.69118106,0.71848226,0.3870033,23
224,-1.3751459,2.521578,-1.3616209,-0.55196756,-0.43373048,1.9861732,24
225,1.895407,1.911061,-0.95688736,-0.09286022,-1.3406321,1.9824755,25
226,1.560112,1.7507834,-1.3122169,0.109063804,-0.12625271,1.288501,26
227,0.20804352,-3.8004348,-1.2073631,-1.1265075,-1.3254249,2.4051867,27
228,0.060334742,-0.20560205,-0.6073884,0.6770001,-0.73819065,2.0394046,28
229,-1.0015118,1.0136554,0.32606712,-1.1951553,-0.21560413,-1.1257715,29
230,-1.1330739,-0.87145317,-2.037489,1.056639,-1.0907986,1.3305382,30
231,1.2097452,0.1149067,-1.0872499,-0.61753976,-0.8452803,1.3120716,31
232,2.216486,0.06995988,-0.96947175,-1.270714,1.0952123,0.033744875,32
233,1.1492234,-2.018839,-0.952212,0.5816877,-0.6387573,1.7066634,33
234,-1.6336346,0.48397207,-0.79568624,-0.31278318,-0.80593014,-0.678501,34
235,-0.78520787,1.0383257,-1.1290935,-0.85055715,-0.99429417,1.6089213,35
236,1.5650712,2.516159,-0.21749651,-1.638871,-1.8171419,0.61761415,36
237,-3.2039402,-0.6778216,-0.33519635,-1.1953174,-0.60992026,-0.365394,37
238,-0.82965124,-3.5942893,-0.17937917,-0.31767082,-0.7420051,0.020500183,38
239,1.1318766,0.07882118,-0.9399082,-0.8986497,1.0770749,0.075388744,39
240,-0.47376853,0.7734871,-0.60633934,-1.3244758,-0.46907175,-1.7226013,40
241,-1.307604,1.1063017,-0.5194163,1.4215289,-1.9699396,-1.6647696,41
242,-2.0754461,-0.36794716,-0.85966146,0.034865856,-1.3355284,-0.09119189,42
243,-0.7344203,0.119152516,-1.1265852,-1.745653,-0.30057776,1.2396245,43
244,0.6436167,-3.2574377,-0.87029594,-0.43432462,-0.96900016,0.46237135,44
245,1.2549927,1.4149355,-0.25459805,1.9039012,-0.06832188,0.3355623,45
246,-0.041701913,-4.1060944,-0.69508886,0.6408358,-1.2028784,2.088829,46
247,-0.80535495,-1.6292429,0.25957215,-0.26303762,0.17582546,0.28215575,47
248,-2.4165034,0.13872892,-1.3205256,-1.7319992,-0.15813074,1.3095555,48
249,-2.611467,0.30805728,-0.6273273,0.037250936,0.05191058,0.16322304,49
250,0.53538084,0.7575816,-0.31444457,-0.77572876,0.22300996,0.22988671,0
251,-0.04490623,-0.38665092,0.7164231,-0.07095426,-2.4578834,2.2831101,1
252,0.007038027,1.2124273,-0.9723301,0.565507,0.24194732,-0.77463126,2
253,0.95045984,0.31550395,-1.365166,0.056626856,-1.6126611,-0.4044165,3
254,-2.7659037,0.7113569,0.3991803,-1.2378572,-0.5767256,0.94663554,4
255,-1.1313236,-1.1832983,-2.14338,-1.1734368,-0.4929412,-1.2040642,5
256,1.2816851,-1.6262915,0.75895375,-1.4423549,-1.6641257,1.2033914,6
257,-0.25326997,1.0624342,-1.3713905,-1.2836765,-1.457765,-1.1616055,7
258,1.0920266,0.9630126,-0.8235136,-0.26609778,-0.2143814,0.84992737,8
259,0.7016935,-2.5462506,-0.24174517,0.80974036,-0.7407595,-1.7111537,9
260,-0.39801478,1.4539317,-1.8144224,0.43633732,-0.8984111,-0.72533226,10
261,-0.5360594,0.83376443,-1.1944757,-0.52644694,0.20853756,0.24298322,11
262,2.4127107,1.5482625,-1.6798159,-0.86475396,0.16904148,-0.7178254,12
263,0.7630355,-0.52678216,-0.6169831,0.4355166,0.1968369,-0.9202021,13
264,0.9619171,0.63424706,-0.4736187,-0.81238496,-2.0807257,-0.25180268,14
265,-0.86711645,-0.21109822,0.45734203,-1.4622638,-2.238197,0.88710415,15
266,1.5064526,2.0865448,-1.0609114,-0.4407584,-1.7270739,0.3336888,16
267,-1.2948179,0.44155282,0.45378718,0.82134855,1.3048795,-1.1486816,17
268,0.24009657,-2.149757,-0.8933178,0.54629236,-1.0780951,-0.8673415,18
269,-2.7310483,0.8684864,-0.5276595,0.34331626,-1.0332882,-0.5462595,19
270,1.3169187,-1.9702171,0.9511934,-1.8704784,-1.0118157,-1.256747,20
271,-0.39998204,-0.39461023,0.06122517,-1.7305815,0.43864274,-1.0631726,21
272,1.2795366,0.30683243,0.58438295,-2.2197537,-1.5509591,-0.3933466,22
273,0.0065493584,2.380545,-0.045936108,-1.8776934,-0.74318695,0.11110903,23
274,-1.7556258,0.90520155,0.6299068,-0.62584144,-0.641328,2.4406395,24
275,1.6242425,1.9426212,-1.4210923,0.39561492,-0.2539655,2.7116225,25
276,1.3170829,0.102763295,-1.0492208,-1.1220312,-1.4260998,0.46876046,26
277,-0.3765018,-4.1173553,-1.5421131,-1.036999,-0.88454276,1.6722798,27
278,0.48352528,1.0825,-1.1538421,1.6439536,-0.002698779,1.3301442,28
279,-0.8162061,0.35831112,-1.4761325,-0.8335642,0.3839242,-0.8882525,29
280,-2.058632,-0.290542,0.0067252517,0.45240545,-1.8945998,1.3475795,30
281,1.9368788,2.6140764,-1.5330204,-1.0609766,-1.7529042,0.19646518,31
282,1.7858353,-0.18639919,-0.8820231,-1.4745805,1.9488916,0.102617115,32
283,1.0739092,-1.4177176,-1.1484959,1.560997,-0.12541157,2.469888,33
284,-0.82592994,1.8693168,-0.8606459,1.1299355,-0.80150837,0.06342837,34
285,-0.70619565,1.0920866,-0.8695433,-0.23188001,-0.27243394,0.33580893,35
286,0.8691503,-3.1647472,-1.8277726,-1.5326052,-1.7436393,0.31906092,36
287,-2.9669764,-1.6568761,-1.0933864,-1.0116347,-0.30193105,-0.39063293,37
288,-0.30634546,-3.5801806,-0.56894463,-0.16951995,-0.89888936,-0.28892827,38
289,0.053768396,0.9777393,-1.3186665,-0.8858001,0.14790839,-0.14255835,39
290,0.63805056,0.27370286,-0.22396515,-1.4616475,-0.19770682,-2.0276427,40
291,-2.5753708,-0.61458313,-0.9767817,1.0736688,1.1013651,0.45570332,41
292,-1.7944474,0.7188336,0.53354394,0.6443325,0.08514553,2.269125,42
293,-1.0509055,0.9206388,-0.5475309,-1.1013978,0.56309646,1.9255284,43
294,1.4861132,-1.8927231,-1.5835717,0.19883326,-0.56609464,0.48614174,44
295,1.9957087,0.4991777,-2.0790308,0.9223053,-0.7250403,0.68266124,45
296,0.1154135,4.414035,-1.2050638,1.7180984,-0.4698735,0.086779445,46
297,-0.65053636,-1.0990413,-0.015999481,-0.2523943,0.20672378,0.20670679,47
298,0.5939165,0.68285304,-0.36090684,-0.43008614,1.0676831,1.7134087,48
299,-1.927341,-0.25294018,0.86221826,0.6282832,0.37818164,-0.49395257,49
300,-0.21248668,0.43474922,0.013262272,-1.8325312,-0.5151593,0.3002855,0
301,-0.009764254,-0.7237467,0.12843207,1.1772211,-0.66130847,1.8485984,1
302,-0.0027680993,2.1302743,-0.52364075,-0.43595642,-1.0300837,-1.1373675,2
303,0.58356607,0.28629458,-0.82559997,0.40423554,-1.3276252,-0.7920299,3
304,-2.1053903,1.6743039,0.614134,-0.8241365,-0.44785142,0.37425333,4
305,0.6359914,-0.6143005,-1.704524,-0.5525169,0.11508222,-0.87431216,5
306,1.3504268,-1.9333546,1.1133406,-0.68487895,-1.0066621,1.4545487,6
307,0.27870408,2.555463,-0.7626286,-0.21193564,-0.14596784,-0.96516484,7
308,0.41999388,0.19674811,-0.69152546,-1.0908301,-0.87076986,0.09473276,8
309,1.024178,-2.2427673,-0.41430998,0.50473535,-1.2031295,-1.982624,9
310,0.48946145,-0.012244768,-1.2080183,0.87484324,-0.68053293,1.670297,10
311,-0.5357631,0.6708355,-0.5226691,-0.8637369,-0.6152858,1.5168059,11
312,1.7519855,1.2014911,-1.4416869,-1.1915958,0.24014683,-0.96059906,12
313,0.5554917,-0.0327048,-0.73135716,-0.009883493,0.2852084,-0.9027022,13
314,1.4846992,1.3873334,-0.0628441,-0.3701275,-1.3054029,-0.3565877,14
315,-0.11654663,-0.43604875,-0.5269822,-0.8540543,-1.6301646,1.4146433,15
316,2.0030775,0.55717003,-1.5229796,-0.07421622,-1.1493052,1.6889858,16
317,-1.4790016,-1.4258952,0.010830104,0.3184232,0.5091462,-0.37687418,17
318,0.41359952,-1.1915438,-0.5545132,0.7924533,-1.2884219,-0.5608729,18
319,-1.9620755,-2.334492,-0.397219,1.1254756,-0.47396058,-0.15422976,19
320,0.4383304,-2.079278,0.18570054,-1.0953251,0.019094467,-1.0378994,20
321,1.9146881,0.28218699,-0.004484458,-1.9147387,-0.24305274,-1.1627507,21
322,3.4826055,-0.3317379,-0.38929498,-0.7396208,-0.36049998,0.91834414,22
323,0.8203304,1.5390278,-1.0989797,-1.3202425,-0.06811936,0.1278347,23
324,-1.8042922,1.0607749,-1.0081221,-0.73642755,-0.6564609,2.0379684,24
325,1.2899182,0.4122884,-2.3995078,0.32843947,-0.5339823,1.7393928,25
326,1.114799,0.4601642,-1.3281853,-0.7960422,-1.2283471,1.001886,26
327,0.1700427,-3.8402367,-1.1784528,-1.2462406,-1.0882401,1.6130881,27
328,0.2342666,1.513995,-1.2795441,0.8047077,-0.81184566,1.4091485,28
329,-1.4555762,-0.0565736,-0.5517576,-0.9970082,0.2316227,-1.1388689,29
330,-1.627059,0.8517388,0.7057099,0.8753093,-1.7008429,-0.81720245,30
331,2.08417,-0.25497684,-1.5403835,-0.43489212,-0.69124585,1.9625037,31
332,1.0553665,0.22258654,-1.0982064,-1.617606,0.39554435,0.12280762,32
333,0.85240144,-1.3285118,-0.9258077,0.3045004,-1.5340035,0.60923725,33
334,-1.4039356,0.43592736,0.53803915,0.14916146,-1.1004779,0.14423168,34
335,-1.4451632,2.2855473,-0.30576614,-0.71903646,-0.7782514,0.5048604,35
336,0.8361355,0.6542107,-0.29993033,-1.5213841,-1.5952921,0.626549,36
337,-2.6618602,-1.5031068,-1.0223188,-1.0575562,-0.670469,-0.17749998,37
338,-0.041746825,-3.443683,-0.5546579,0.43665743,-0.23257601,2.4283915,38
339,0.91410255,2.8564224,-0.28398365,-1.0077381,0.1047385,-0.32779685,39
340,1.1157857,0.47751164,-0.08069089,-1.8042922,-0.26827314,-1.9015406,40
341,-1.1981705,0.45660356,-1.2617953,0.17408615,-2.8611832,-1.2272749,41
342,-0.8054529,1.192848,0.136895,1.0326194,-0.5069872,1.4999197,42
343,1.4170082,-0.34679267,-0.4909048,-0.56686634,0.6185286,1.5501562,43
344,-0.014535785,-1.556476,-1.2973481,-0.5999215,-1.2816412,-0.34784287,44
345,1.8595906,1.8395514,-0.15836227,0.4344505,-2.169563,0.70776665,45
346,-0.6982586,-2.5035243,-1.2972499,0.10760552,-1.6722808,-1.2832164,46
347,-0.7632404,-1.5054307,-0.22277282,-1.0271425,-0.93411946,0.41600308,47
348,-0.3468427,0.9857431,-1.9221447,-1.1547712,0.2169351,1.3124926,48
349,-1.3975022,2.2167249,0.18900251,0.44046974,-0.38721776,0.51351625,49
350,0.1996122,1.2404795,0.68216443,-1.7999065,0.23423524,0.30325127,0
351,-0.0070060194,0.25430977,0.06342131,1.1529677,-0.45155817,1.0237708,1
352,0.9353961,-0.19542569,-0.46401125,0.5653413,-0.7495733,-0.5637858,2
353,1.5640881,0.69328445,-1.112695,1.2479515,-0.5139428,1.4053571,3
354,-2.3232653,1.1776271,0.47786736,-1.0221946,-0.038841903,0.5954679,4
355,0.81031454,1.4613518,-1.3119285,-0.9415781,-0.6640576,-0.88246536,5
356,0.73398167,-2.0170689,1.1252838,-0.9542121,-0.98058796,1.2312081,6
357,-0.49591467,1.318393,-2.2623575,-0.9380139,-0.38020158,-1.4572604,7
358,1.8969002,0.90982485,-0.36395845,-0.44451034,-1.0823982,1.144552,8
359,1.494203,-2.1549914,-0.7063534,0.7322002,-0.97024304,-1.9551623,9
360,-0.2477065,0.31617558,-2.2206326,0.54542255,-0.7194116,-0.5084063,10
361,0.026723504,-0.87466633,-0.71470577,-0.08114278,0.52076375,1.0322222,11
362,1.7892455,2.7766688,-2.0479383,-0.30003822,0.6453997,-0.44912806,12
363,0.9681481,0.28282517,-0.889884,0.5903961,0.40145683,-0.7796291,13
364,1.3655536,1.3205712,-0.08105007,-0.74132013,-1.790514,-1.0901935,14
365,-0.45734394,0.10062126,-0.028779149,-0.79303217,-1.8730471,1.2914071,15
366,1.5311638,0.02599436,-1.7219901,-0.10261127,-1.3764594,0.44912326,16
367,-1.4137853,-1.3923597,0.038066804,-0.12646791,-0.40521193,-0.3859234,17
368,0.18720159,-0.083979726,0.32514596,0.28896868,-1.0220642,-2.5412724,18
369,-0.51059926,1.347296,-0.033647418,1.290653,-2.632963,1.8010633,19
370,1.1075138,-1.6195093,1.6243529,-1.0919683,-0.8541101,-1.4341031,20
371,0.97612345,0.4488039,0.21175195,-1.1575223,0.45230407,-1.0409522,21
372,1.5180578,0.89103365,1.1604353,-1.3634833,-1.1886498,0.88560665,22
373,1.0136774,2.6083431,-0.661708,-1.4860369,-0.17931665,0.11694893,23
374,-1.5975034,0.5151682,-0.66640353,-0.36480305,-0.070192456,1.029804,24
375,1.4148612,-1.2795148,-2.8149729,-0.4956751,-1.6394949,0.7035034,25
376,1.4444838,0.111511886,-1.2796856,0.00746572,-0.060616434,1.7949982,26
377,-0.16915113,-3.5518703,-0.89278007,-0.79795885,-0.3917389,2.0524511,27
378,0.01658766,-0.058730125,-1.9443622,0.1923818,-1.5058713,-0.8234766,28
379,-1.5029894,1.0486331,-0.37790984,-0.9698816,0.76379466,-0.8447246,29
380,-2.2710562,0.96681994,0.4163521,0.4971158,-1.3346703,-0.21443433,30
381,2.082617,0.47667056,-2.5989342,-0.1795724,-0.73673946,0.9329201,31
382,1.4472699,-0.39934486,-1.726695,-1.6303537,0.71075916,0.07066344,32
383,1.5751399,-1.9939613,-0.33400178,0.9433682,-0.681159,2.1340044,33
384,-0.44442979,-3.5034506,-1.3149741,1.1437278,-1.1276286,0.5887001,34
385,-1.0034697,0.22638762,-0.9608928,-0.77629685,-0.8448841,1.0711125,35
386,0.22937018,1.2181492,-1.0928972,-1.7234147,-1.2187485,-0.24013874,36
387,-2.4075468,-1.1188258,0.09267682,-0.93596685,-0.705142,0.17783889,37
388,-0.1660058,-2.5926926,-1.1788981,0.7063629,-0.40901345,0.6469327,38
389,0.09854126,1.7313622,-0.64584064,-1.3021114,-0.043551534,0.037931904,39
390,0.93921787,1.4233842,-0.7630501,-1.4070976,-0.1639864,-2.055474,40
391,-0.34758842,0.28497297,-2.1713142,2.0880253,-0.98816407,2.802576,41
392,-1.5643818,1.0767212,-0.99866307,1.1174276,0.36836612,1.6028248,42
393,0.23205608,0.79328847,-0.95768684,-1.0316988,0.27484226,0.67494905,43
394,0.84362715,-2.2395165,-1.4405723,0.01601749,-0.20213246,0.52996755,44
395,1.3064975,0.8543615,-0.86445737,1.0204635,-0.7380785,0.9492833,45
396,0.1901831,-1.0657521,-1.1735674,1.0714235,-1.5591916,-0.35309437,46
397,-0.7731409,-1.7146698,-0.28777236,-0.9736683,-1.2716823,-0.18893883,47
398,0.29418325,1.3888314,-1.5267017,-1.0042536,0.55557895,1.5411913,48
399,-1.5109153,-0.543808,0.2778371,0.9262308,-0.12406653,0.5434981,49
400,0.36527154,1.7974958,0.12341279,-1.0166787,0.72566605,0.011045828,0
401,0.05214265,-0.3459508,-0.18853703,0.9873439,-1.0845803,0.7946147,1
402,0.78959745,0.62819564,-0.41182858,1.019367,-0.10393716,-0.30109346,2
403,1.2217343,3.628499,-0.11188555,0.47673172,-1.5478547,-0.2955953,3
404,-2.2784338,2.1276183,0.014156392,-0.5416708,0.48129356,0.46610788,4
405,-0.46123725,-0.8716363,-2.1944118,-0.7528043,-0.12289134,-0.79554754,5
406,1.4280041,-2.0350552,0.79588795,-0.14807653,-0.6691702,1.903856,6
407,-0.3909305,0.76159203,-0.6399275,-1.1356614,-1.0678307,-1.4375274,7
408,1.1967694,0.71975255,-0.058930457,-0.70626557,-1.0671328,0.6208811,8
409,0.7599137,-2.344709,-0.7448231,0.18760592,-1.0745996,-2.5203257,9
410,0.38939708,0.5637177,-1.4097104,0.4663009,-0.8229173,1.0142398,10
411,-0.18275785,-0.5913129,-0.64248645,-0.70105803,-0.042240217,1.5154957,11
412,2.2487247,3.7947013,-1.4682927,-0.056251466,0.8031048,-0.06221974,12
413,1.1190653,-0.5215432,-2.375609,1.5389173,1.5256083,0.23745519,13
414,0.4416623,1.9923861,1.0217149,-0.8095033,-1.6286751,-2.6021724,14
415,-1.1541783,0.5991216,1.1679494,-0.98405313,-1.4080431,0.9379578,15
416,1.5815116,0.3928259,-0.6151726,0.70396817,-0.16982543,2.5758502,16
417,-1.5781147,-1.1280445,0.45526904,0.14740907,0.39552474,-0.576752,17
418,0.48553878,-1.4792334,-0.81754005,1.3459533,-0.21551704,-0.88235295,18
419,-2.292866,-0.084849715,-0.7138719,0.20841056,-1.7108703,-0.9002534,19
420,0.7896812,-1.9819987,0.8383424,-0.724864,-0.5683681,-1.3334146,20
421,1.9725461,-1.1980804,-0.57109773,-0.65729725,0.44347203,-0.5932354,21
422,-1.4804364,0.38771445,0.4917686,-2.3522053,-1.3290412,-0.6339287,22
423,0.3321721,1.3701086,-1.4447743,-0.24563062,0.8029866,0.3032025,23
424,-1.4174479,2.053701,-0.7232896,-0.470457,-0.10605335,2.5633588,24
425,1.4156278,2.214214,-0.6737094,-0.34397313,-1.5141902,0.76685256,25
426,1.823478,-0.0065962076,-1.5890744,0.019953728,-0.20651805,1.2209818,26
427,-0.26385128,-4.0408316,-1.226281,-1.357636,-0.59981686,1.4789479,27
428,0.11746854,1.2786037,-0.06717217,0.33380294,-1.6542928,1.8575411,28
429,-1.5213044,0.60378754,0.10969558,-0.37992555,0.98261255,-1.1028786,29
430,-1.5122701,1.1353599,0.6120817,1.7325914,-0.5952003,0.7472373,30
431,1.6145887,-0.47713742,-1.6994358,-0.09441435,-0.91239643,0.85455006,31
432,0.6031878,-1.1781132,-1.2143142,-1.4688084,0.85468066,0.24553733,32
433,0.92788357,-2.038361,-0.93511415,0.77567995,-0.71852183,-0.38996834,33
434,-0.5228088,0.8078486,-1.2018986,0.7907293,-0.53997874,0.5346992,34
435,-1.198167,0.9955871,-1.1004955,-0.69135827,-0.57676,0.425578,35
436,0.7365087,-0.83449864,-1.3968571,-1.7583752,-1.6914532,-0.0073435903,36
437,-2.564508,-0.49785814,-0.68364954,-0.77987266,0.37615624,-0.36391222,37
438,-0.2541266,-3.4053683,0.13352251,0.057862032,-1.1059967,2.3785515,38
439,0.5913653,0.55755675,-1.267765,-1.6279643,-0.004611671,-0.23586549,39
440,1.9847531,1.3439944,-0.5626744,-2.196388,-0.21622083,-2.4661787,40
441,-1.4800612,0.29941854,-0.06502348,1.0762676,-0.33791792,0.32115784,41
442,-0.7902843,-0.6360479,0.0044729114,1.1772673,-1.6811891,0.77757,42
443,-0.18470909,0.69037175,-0.72803587,-1.6927823,-0.4400862,1.1492229,43
444,0.71369606,-3.9877315,-1.1157745,0.17779762,-0.6076945,0.47546816,44
445,1.1968985,0.16579318,-1.5631185,0.93528223,-0.8334265,0.78584296,45
446,-0.0432774,-1.7152607,-1.3685143,0.8726254,-1.1159188,-0.43088305,46
447,-0.341587,-1.4139862,0.2585279,-0.1783414,0.38690868,0.0672192,47
448,-0.17504606,0.6339099,-1.556044,-1.4802992,-0.24179876,1.3220041,48
449,-1.124218,0.29535574,0.31119305,1.0956633,-0.49183056,-0.11056684,49
450,1.2221189,-0.31625766,-0.8101122,-0.83068836,0.13160272,0.24061988,0
451,-0.30622858,-1.8785365,-1.0560104,0.37615502,-1.6480353,0.2615777,1
452,0.45679602,0.06012091,-0.40423906,0.37995005,-0.16900665,-0.5030266,2
453,1.637613,4.639601,0.5525838,0.65842414,-1.2865702,1.0239756,3
454,-1.6963327,1.1555381,0.020897096,-0.705099,-0.14633632,1.2494063,4
455,0.36433274,-1.5207335,-1.5688969,-1.0412564,-0.5365476,-0.94112074,5
456,0.49146068,-2.1473656,0.7832854,-0.8339884,-0.80178833,0.009098887,6
457,-0.21948338,5.736782,0.13056684,-1.1111685,-0.59753466,-1.4399284,7
458,0.57032764,0.043871492,-0.54356015,-0.90348536,-1.0117195,1.5125303,8
459,0.12490171,-2.023456,-0.609272,-0.16166407,-1.703932,-1.4646039,9
460,-0.3645191,-0.29097193,-1.8626236,0.38473612,-1.2144096,-1.7690271,10
461,-0.9148438,0.8269943,0.04875374,-1.1863757,-0.67355585,1.0652452,11
462,1.8257029,-0.24340034,-1.6645696,-0.8288323,-0.004042119,-0.876606,12
463,0.90983135,2.9423294,0.41974765,0.16863382,0.051435366,-0.8984699,13
464,2.0997212,0.7213866,-0.0033101141,-0.22471723,-1.3442643,0.28005177,14
465,-1.3900349,0.78074616,0.61422503,-1.2727143,-2.0200477,0.598571,15
466,2.0443392,0.9583547,-0.47048467,-0.56895316,-2.044964,0.77254164,16
467,-1.5139408,-0.9097293,0.02146092,-0.083857775,-0.20183326,-0.556366,17
468,0.059681665,-1.259132,-0.5014055,0.22927967,-1.0263822,-1.7327433,18
469,-1.3641768,0.6878283,-0.2702201,0.92993075,-1.4790108,-0.11652857,19
470,-0.8430964,-1.8140637,0.5816849,-1.0873064,-0.41220626,-1.077658,20
471,0.71817636,-0.8054403,0.8189187,-1.4382923,0.39672148,-0.81447685,21
472,1.1543257,-0.3285461,-0.35370034,-1.3414071,-0.78548414,0.65513265,22
473,0.48101348,0.52765584,-2.7743287,-1.6075938,-0.8953885,0.11775051,23
474,-1.7916021,0.33666635,-1.5188825,-0.7876558,-0.6181487,0.7471342,24
475,1.2289851,0.032067448,-1.6351498,-0.8273565,-2.5521512,1.4871223,25
476,0.9536606,1.0188922,-0.3535334,-0.5629517,-0.8249893,0.4339577,26
477,-1.2521095,-4.1589136,-1.3600688,-1.7936473,-1.3133132,0.97009194,27
478,-0.12746058,1.3169125,-1.66306,0.18253422,-1.3562866,1.3613348,28
479,-0.7199937,0.16447793,-0.40841946,-0.9566472,0.57208043,-0.6078838,29
480,-1.9493918,1.5637707,-0.18669397,0.5348853,-1.3954766,1.1847155,30
481,0.9714045,0.826663,-1.4196783,-0.5584442,-1.2098657,-0.5683655,31
482,1.7485237,0.9513596,-0.31601048,-1.6290147,0.7466723,-0.1678788,32
483,0.82782257,-1.9212704,-0.32983032,-0.37854207,-2.0497162,0.197079,33
484,-0.5805166,-2.7491822,-0.8747653,0.64435166,-1.8181722,0.64480263,34
485,-1.3449705,0.27107263,-1.0733538,-0.9863858,-1.4426689,0.44071162,35
486,2.3345988,0.5025661,-1.2046646,-0.58157086,-0.5769242,2.293981,36
487,-3.041382,-0.43462765,-0.46604884,-1.0628489,-0.44074485,-0.2814148,37
488,-0.31987688,-3.3276138,-0.43747824,0.002109632,-0.6568237,1.3812323,38
489,2.2037575,-1.0342618,-2.0119858,-0.015461624,1.3691028,0.41012356,39
490,1.0277022,1.4714928,-0.0375982,-1.6781945,-0.058165982,-2.2250104,40
491,-1.6202092,1.3300084,-1.135263,1.4199941,0.42681932,1.4848323,41
492,-1.822964,-1.5873587,0.4443698,0.26936442,-1.710793,-1.1938317,42
493,-0.9732923,1.001614,-0.33249134,-1.3661993,-0.15977944,2.0979066,43
494,0.9816509,-4.201537,-1.2210358,-0.22070807,-0.799292,0.70726585,44
495,0.50914836,1.1235918,0.60142726,0.6851188,-1.4557313,-0.43402714,45
496,-0.01612553,4.598351,-1.8930612,1.2264551,-1.0798872,-1.0688125,46
497,-0.55000347,-1.620058,-0.7867342,-0.42164057,-0.14087865,0.58845985,47
498,-1.2963712,0.55072856,-0.96813583,-1.3168931,0.040855616,1.4641666,48
499,-1.7411755,0.48743585,-0.22596471,0.70333934,0.119645536,0.40969735,49
500,-0.7118881,0.9029486,0.11329502,-1.7310195,-0.106582925,-0.34253612,0
501,-0.44746196,-0.39430732,0.8380452,0.8445078,-1.5802829,-0.34460813,1
502,0.121545225,-0.3815529,-0.13534664,0.63660944,-0.023755506,-0.55632836,2
503,1.61882,-1.1466393,-1.5978991,-0.05312109,-2.325502,-0.38190448,3
504,-2.6325347,1.3425746,0.53765327,-0.9466819,-0.23010305,0.93502927,4
505,-0.47570264,2.211415,-1.2692816,-0.9032911,-0.029272065,-0.9156314,5
506,0.7097241,-1.9007411,0.908073,-1.5437272,-1.4891956,1.6937469,6
507,1.3108559,-0.94375455,-2.0976706,-0.340823,-0.6228721,0.39758003,7
508,0.45521268,-0.37915203,-0.5987569,-0.28626773,-0.27691197,0.5674028,8
509,0.47797877,-2.478513,-0.99256575,-0.46091616,-1.1074585,-2.1786563,9
510,0.1878865,-0.7174125,-0.44101757,0.035746664,-1.5183377,1.9438393,10
511,-0.71982163,0.9291011,-0.90814793,-0.98795986,-0.2802776,0.3214236,11
512,2.350905,2.849684,-1.693655,-0.2989202,1.3122127,-0.6040138,12
513,1.5373738,-0.14511353,-1.3801987,0.76329494,0.20627567,-0.7681681,13
514,1.274237,1.01332,-0.5860797,-0.8010814,-1.634469,-0.80682904,14
515,-0.46493948,0.38325012,0.21147501,-0.60961056,-1.1758498,-0.103978395,15
516,1.9100257,0.49606556,-0.3198856,-0.052327514,-1.3529214,1.8546352,16
517,-1.5015768,-0.49590194,0.2548096,-0.17056355,-0.40993333,-0.9038462,17
518,0.0885633,-1.9040611,-1.5242391,1.082312,-0.37483096,-1.1508547,18
519,-1.5486462,-0.13249987,-1.3912681,0.7358443,-0.71687675,-0.80790436,19
520,0.79677916,-2.1370597,0.09674704,-1.1015675,-0.11094022,-1.0405984,20
521,-1.682293,0.583567,1.0267478,-2.5441663,-0.32835704,-1.5892982,21
522,0.6446848,0.20879988,-0.50580215,-1.1948316,-0.5228565,-0.2497217,22
523,1.6589091,2.3251286,-2.026692,-1.4778762,-0.2530169,0.011150196,23
524,-1.5319613,1.6939956,-0.54281795,-0.097546756,0.36304998,1.6267359,24
525,1.3719819,0.6653538,-0.86358446,-0.33945948,-1.1517901,3.559133,25
526,0.5823837,0.540375,-0.98054063,-0.9504401,-1.2577566,0.31287166,26
527,0.061429203,-4.257386,-1.2360544,-0.97789466,-0.4004348,1.1399055,27
528,0.2780307,0.35710013,-1.194711,0.8256099,-1.1639228,-0.255158,28
529,-1.2635739,0.07963717,-0.55571324,-0.8333251,0.7227616,-0.78140277,29
530,-1.2103527,-0.15260015,-0.36890045,0.0867911,-2.3265975,2.6871314,30
531,1.502561,-0.39683023,-1.9973779,-0.7092709,-1.0233035,-0.37002498,31
532,1.2554574,-1.5124111,-1.4236823,-1.8663702,1.0212889,-0.024824608,32
533,0.66489714,-2.186901,-0.5715533,0.071799695,-1.6409564,0.4403631,33
534,-0.9549485,1.6706877,-0.036791623,0.6526687,-0.8780988,0.59405005,34
535,-0.82290685,1.6122521,0.03327936,-0.80304426,-1.2224181,1.3729019,35
536,-0.514634,0.24491315,-1.7897228,-2.2197025,-2.2759478,-1.5862541,36
537,-2.902031,-1.4299549,-0.9256017,-0.94465566,-0.09843634,-0.56783,37
538,-0.2542499,-3.240817,-0.80060774,-0.13291955,-1.6860249,-0.6508578,38
539,2.0457246,2.3313022,-0.40107995,0.19343567,2.0152674,0.59973156,39
540,1.2206082,1.5498251,0.25201312,-1.1787846,-0.13265876,-2.0831485,40
541,-1.190287,0.84678316,-0.88391155,1.4097387,-0.9088457,-1.3952631,41
542,-0.8782532,-0.045103,-1.2562466,1.7139328,-0.009502292,1.0888815,42
543,-1.7130663,0.26439244,-0.8796384,-2.1651511,-0.94755733,1.6821047,43
544,0.6063501,-2.7634866,-1.3597668,0.47603714,-0.26740572,0.7889555,44
545,1.2546675,1.0280277,-1.0689616,0.22706527,-1.4618003,-0.34832317,45
546,0.09815271,4.106475,-0.76425624,1.083348,-1.7596728,0.0027744137,46
547,-0.16839138,-1.5430285,-0.19632846,0.02582103,0.6387565,0.67630684,47
548,-1.1128092,0.6394435,-1.0713924,-1.8330877,0.3687656,1.0757092,48
549,-1.7304648,-0.89679813,0.056495503,1.070998,0.57864875,1.1044066,49
550,0.9171088,-1.008714,-1.7689191,-1.5936785,0.32386506,0.3691467,0
551,-0.36780146,-0.82025254,-0.19600621,0.9287741,-0.3359145,0.7811351,1
552,-0.24331471,0.49899855,0.3232799,0.18987024,-0.35108817,-1.0942425,2
553,0.7915715,1.498622,-0.98801893,0.4360364,-1.4537593,-1.6226962,3
554,-2.4959426,1.2012765,0.5661544,-0.9730922,-0.57726836,0.9409205,4
555,0.60739416,-1.305449,-2.5365021,-0.27540255,0.26137692,-0.3275053,5
556,1.3607543,-1.9170941,0.75493455,-0.62228227,-0.49105495,2.4097166,6
557,0.58664834,2.9974666,-0.6326979,-0.49664527,-0.71694624,-0.65683603,7
558,0.6057912,0.4293148,-0.3761063,-0.24099419,-0.4128701,0.5242884,8
559,1.0555654,-2.6493392,-0.6582153,0.37261924,-0.7364071,-2.0702279,9
560,-0.382342,-0.46375698,-2.0743666,0.41295382,-0.80514413,-0.80445206,10
561,-1.3437977,0.59140366,-0.92025626,-1.0092212,-0.2418664,1.3753968,11
562,1.8516676,1.3926473,-1.2940913,-1.4289497,-0.063254625,-0.991193,12
563,0.30033118,1.8888897,-0.5030273,0.5451392,0.6709317,-1.0293033,13
564,0.4381888,1.9024307,0.37269253,-0.7287957,-1.3117062,-1.4807508,14
565,-1.1508636,-0.2655257,0.5788452,-1.1802125,-2.2829359,0.2752664,15
566,2.3501415,1.8322303,-0.7791007,0.4634174,-0.2742294,2.7204468,16
567,-1.6107638,-1.5845808,-0.35513502,0.070959836,0.45451802,-0.7559976,17
568,-0.529498,-1.8651019,-0.51194537,0.06789002,-1.0331705,-1.2672513,18
569,-0.20389938,2.1126075,-1.4424398,0.521541,-2.1812027,0.09789473,19
570,1.0337849,-1.854588,0.36897254,-1.3454276,-0.35381553,-1.0980344,20
571,0.2768476,-0.2510865,0.13348994,-2.2566998,-0.25569654,-1.2072206,21
572,-0.8255917,0.16897114,0.015354678,-2.2799966,-1.9307603,-0.7189913,22
573,0.9492592,1.8940871,-1.1954018,-0.2992028,0.7155785,0.31568205,23
574,-1.1591451,0.072173715,-0.9911661,-0.23574859,-0.1104255,2.4237957,24
575,0.97540545,0.6160522,-1.3798358,-1.007594,-2.8734274,0.1323961,25
576,0.22476012,0.12662452,-1.2945668,-1.0250871,-1.3371027,0.37081975,26
577,-0.35214734,-3.9144006,-1.2592174,-1.1057705,-0.36935085,0.8921139,27
578,0.43214133,2.1054735,-1.6052794,0.4566552,-1.6003613,0.69111025,28
579,-1.3013775,-0.10055259,-0.17906722,-1.0227733,0.75058883,-0.69324696,29
580,-1.5990032,-0.5363956,-1.059776,0.27581942,-1.4925494,0.08398682,30
581,1.5033815,0.73471636,-1.4254972,-1.40278,-1.6576308,0.83739525,31
582,0.0751462,-0.27967095,-1.5892797,-1.8563818,-0.018795967,-0.24172924,32
583,0.32068247,-1.8015072,-0.71120805,0.13483399,-1.241301,-0.6404883,33
584,-0.41112417,3.827843,-0.13561034,0.8704678,-1.9221036,0.3672663,34
585,-1.1649529,1.5404419,0.36732477,-0.82463217,-0.7580695,0.93195176,35
586,0.26224506,0.8365438,-0.9137391,-1.6889174,-1.4159544,-0.39336896,36
587,-2.9018598,-0.9503988,0.13931453,-1.416251,-1.1096724,-0.13226986,37
588,-0.6349837,-3.2591822,-0.13472572,-0.083263025,-0.7654879,0.39137328,38
589,2.135963,1.826111,-2.6993203,-0.022588432,1.1323017,0.37518606,39
590,1.1667217,1.1732656,1.4232674,-1.8811296,-0.37831658,-2.1182036,40
591,-1.5393004,-0.41176018,-1.2281656,1.0413619,-1.4535521,-1.2526443,41
592,-1.9708092,-1.0182608,-1.0577527,0.32621607,-0.17021531,1.5271738,42
593,-0.41843766,-0.10252792,-0.79514444,-1.2104611,0.17868705,2.012327,43
594,1.0763724,-2.739432,-1.8811438,0.16573146,0.16341674,0.47299498,44
595,1.5784773,-0.34389198,-0.034445584,1.1609458,-1.0915618,-0.17583382,45
596,-0.28000283,-0.28442806,-1.4409534,-0.005569756,-1.7587047,0.10904819,46
597,-0.73703325,-1.2432613,-0.66802907,-0.04873237,0.34148437,0.26775417,47
598,0.3479131,-0.09916109,-1.630946,-0.60446036,1.1245024,0.7870011,48
599,-1.094132,1.6600693,0.015230745,1.4633995,-0.2179924,1.0598187,49
600,0.5642228,0.892774,0.017955035,-1.4123904,0.34987748,0.13201228,0
601,-0.28293914,0.28009963,0.5175072,0.7132189,-1.2754122,0.110982746,1
602,0.14052841,2.1718152,-0.03833604,0.8501786,0.46510366,-0.63982785,2
603,1.7525659,1.418759,-0.08460057,1.0250473,-0.7179065,1.6461146,3
604,-2.4737294,1.7350106,-0.12698169,-1.0597664,-0.94058436,1.3977396,4
605,0.37921855,1.6347758,-1.7097181,-0.04952106,0.25249642,-0.017206162,5
606,-0.9040992,-1.8040247,0.96467775,-2.491775,-2.944059,-0.608933,6
607,-0.19084437,3.5326195,-0.25873888,-1.56458,-1.5820602,-1.5570035,7
608,-0.3003103,0.8933692,-0.18356915,-1.3672168,-1.0754836,-0.09414971,8
609,0.63010263,-1.6932279,-0.74933994,-0.00022765994,-0.9062092,-2.1345868,9
610,-0.25724033,4.230987,-0.11874616,0.46617267,-0.8691039,0.40541616,10
611,-0.24012506,0.14313985,-0.9819966,-0.18881631,0.7476905,1.0313071,11
612,2.0071602,0.5473714,-3.131349,-0.9106418,0.7088975,-0.79417944,12
613,1.4598658,-0.062173396,-1.3267391,0.564304,0.07957247,-0.20074666,13
614,1.4106781,1.9023142,0.24841422,-0.40118867,-1.3537315,-1.0298636,14
615,-0.010773897,0.50202346,0.45282847,-0.5198877,-1.5606623,0.08965552,15
616,2.4315674,0.84836066,-2.0776875,0.28705084,-0.59663975,0.6868059,16
617,-1.5025777,-0.048525333,1.0564847,-0.13556251,-0.43236685,-0.47062808,17
618,0.44898373,-1.6631999,-0.48473316,0.47773397,-1.1925159,-0.8156394,18
619,-1.9722365,1.2273848,-0.62847626,0.16528255,-2.2286828,-0.43415403,19
620,1.5412567,-1.8137401,0.57350767,-1.6859229,-1.3641436,-1.4538203,20
621,1.8347017,-0.862063,-0.6967526,-0.9300837,0.20844704,-0.41117597,21
622,1.9920771,-0.9625186,-0.42394233,-0.42793703,-0.46024752,0.41183618,22
623,-1.0525059,1.9025583,-0.1610688,-1.7455286,-0.57935995,-0.57428294,23
624,-1.6242288,1.3336258,-0.57114494,-0.43997037,-0.17077813,1.6245264,24
625,1.1872677,-1.6042581,-2.3216338,-0.6914042,-2.0489583,2.4198833,25
626,1.0627913,1.421259,-1.4052246,-0.9442638,-1.3056998,-0.16539663,26
627,-0.33343795,-3.872864,-1.2010651,-1.02206,-1.1404521,1.6895996,27
628,0.17598431,0.26366204,-0.8627734,0.94810617,-1.0518036,-0.70518225,28
629,-1.1575576,1.2259641,-0.06771994,-0.60033166,0.56071854,-0.87101936,29
630,-1.4448866,0.85308635,0.01652515,0.7366098,-1.5693799,-0.5309216,30
631,1.8503244,2.6422493,-1.2186979,-0.17216682,-0.8990134,0.58560073,31
632,1.3968059,-0.40213215,-1.0561115,-1.6689028,1.2937913,-0.12853347,32
633,1.0793264,-1.4295734,-0.904515,0.6335028,-1.1023777,0.6684321,33
634,-1.0170487,2.2051837,-0.94650584,0.36371678,-0.79578173,0.68402076,34
635,-1.2870085,2.3654537,-0.6814892,-0.6132332,-0.5299238,0.35990477,35
636,0.60065407,-1.586683,-1.9838891,-1.4743136,-1.4574193,0.21746293,36
637,-2.2025025,-1.3384182,-0.25105736,-0.79969066,-0.09200461,0.14610043,37
638,-0.17674404,-3.0846524,-0.07134944,0.40592524,-0.7242449,0.6344116,38
639,0.52129716,2.647287,-1.305587,-0.422378,0.919474,0.15428083,39
640,0.6162076,2.2356393,0.30662078,-1.5414469,-0.39271808,-1.7852346,40
641,-1.111872,0.7756891,-0.37135762,1.0095348,-1.450747,-0.1756723,41
642,-1.6275165,0.25327194,-1.2436556,0.5074262,-0.46670848,0.242964,42
643,-0.5370014,0.2800099,-1.6631701,-1.6442871,-0.48853803,2.0322385,43
644,0.41726726,-2.5302532,-1.2810472,0.03347034,-0.5313302,-0.38638043,44
645,0.78708315,1.8637166,-0.74096936,0.6332686,-1.6018713,0.11309984,45
646,0.34715503,1.4975779,-0.81148195,2.0045123,-1.1331062,-0.07282056,46
647,-0.96893966,-1.763626,-0.35584062,-0.7912463,-0.37533346,0.6998521,47
648,-1.2982119,0.5636285,-0.16696829,-2.013258,-0.58052385,1.6010584,48
649,-1.5604259,2.5127423,-0.14920993,1.0889771,-0.07223007,0.034973636,49
650,-0.09156519,2.0869436,0.47755706,-1.313313,-0.25122923,0.06817471,0
651,-0.037596494,-1.6514194,-0.102113515,1.0748187,-0.5998772,1.0144305,1
652,0.3973632,-0.15456167,0.030035615,1.9865057,1.2764488,-0.013402462,2
653,0.735459,0.40216506,-0.5083914,0.64324456,-0.7863802,-0.59502214,3
654,-2.7327232,2.1375806,1.1647696,-1.1477915,-0.8368864,1.1440909,4
655,2.0318007,0.17361462,-1.9859915,0.7923342,0.50379956,0.46207306,5
656,1.1353955,-1.643045,0.769151,-1.085865,-0.73115957,0.34730184,6
657,0.3201142,0.7214103,-1.651953,-0.54244775,-0.7025146,-0.96245956,7
658,0.3390988,0.06986621,-0.78438556,-0.63202065,-0.7871861,0.74247986,8
659,0.67198986,-1.8956952,-0.75486064,0.47182173,-0.9409843,-1.8112035,9
660,-0.49294895,2.4355888,-1.6439508,0.12428814,-1.6015875,-0.10946643,10
661,-0.68667394,-0.6968316,-0.9822612,-1.081176,-0.77022165,1.2586279,11
662,1.8895468,1.402741,-2.7252321,-1.0868833,0.04782477,-0.7570312,12
663,0.5064187,1.8207206,-0.44417852,-0.1602523,-0.45862946,-1.0508207,13
664,1.3886932,-0.011284649,-0.7161828,-0.68362594,-2.1972451,-1.0453949,14
665,-0.5759258,0.38784608,0.8043227,-0.60905194,-1.065705,1.4197785,15
666,2.4836407,-1.1052933,-1.1948377,-0.14991081,-1.0575502,2.1579826,16
667,-1.5783092,-0.72226745,0.8632364,0.115138024,0.1544438,-0.64856464,17
668,-0.40289408,-1.2920271,-0.33280018,0.20235829,-0.9434765,-2.5893447,18
669,-1.1306792,0.08865577,-1.8925829,1.1429362,-0.9162489,-1.9437462,19
670,1.9678407,-2.0690084,0.66403127,-1.7857386,-1.3000264,-1.211908,20
671,0.34847826,-0.49437755,0.115399405,-1.1247566,0.21548371,-1.3512884,21
672,1.947669,-0.67116237,0.20673575,-0.77835655,-0.7081424,1.3988464,22
673,0.83586174,2.8163729,-0.46446407,-0.018312216,0.51046765,0.6170934,23
674,-1.702639,0.0028152466,-1.299411,-0.71495116,-0.29326463,1.3688805,24
675,1.5287236,1.2274933,-2.2441301,-0.331358,-1.2841523,1.9240909,25
676,0.9726437,1.553642,-0.29820603,-0.44531497,-1.2161307,0.7730891,26
677,-0.21323082,-3.4812787,-0.754145,-1.8188258,-1.6851218,1.2057444,27
678,-0.23734884,0.6605199,-0.7883359,0.013613999,-1.8155296,1.5358222,28
679,-0.8119633,1.1843992,-0.72338825,-0.4267864,0.72541815,-0.90662116,29
680,-1.6797879,-0.12616779,-1.879138,1.0257365,-2.2156682,-0.09448069,30
681,2.1062956,-1.294256,-2.079301,-1.8334558,-2.8477726,-0.937553,31
682,0.8235025,0.16761763,-1.5398133,-1.7078421,0.91561854,-0.31674668,32
683,0.66112363,-1.8966293,-1.290128,0.8797961,-0.35160184,1.4975934,33
684,-1.3608699,1.4215081,-0.25358194,0.22658989,-0.2875126,0.6453825,34
685,-1.7306242,2.4152465,-0.8564349,-1.2146103,-1.1697285,-0.15754682,35
686,2.839191,-1.6398939,-0.9745973,-1.4757897,-1.6832274,1.3121283,36
687,-2.68088,-0.5474682,-0.2543384,-0.9378998,-0.28306624,-0.7878379,37
688,-0.44825238,-3.2286117,-0.52105254,-0.6935697,-1.9658148,-0.29567516,38
689,1.0795585,2.4748673,-0.5654079,-0.5104892,0.19789872,0.49754763,39
690,2.0434492,1.2483517,0.043526188,-1.0190412,-0.26394236,-2.0665808,40
691,-0.18590927,0.33285674,-1.7637314,2.1341352,-0.3036176,1.9737289,41
692,-1.3677504,-2.6614125,0.5710287,0.86505294,-0.9616099,0.66472673,42
693,-0.9976989,-0.34066048,-1.0878812,-1.5660422,-0.42791975,1.9582175,43
694,0.7086664,-1.3091755,-1.8064321,0.034980543,-0.16559535,0.49622923,44
695,1.0289097,0.8674562,-0.7351185,1.074533,-0.7447046,0.43122998,45
696,-0.08165055,1.1670177,-0.5568003,1.0336525,-1.20065,-0.53963846,46
697,-0.7893899,-1.5896047,-0.318346,-0.5117569,0.13026032,0.07652226,47
698,-0.84023,0.6174661,-0.92856234,-1.8568472,0.043661773,0.91002905,48
699,-1.6836852,-1.5517714,-0.23147021,0.010621548,-0.74486864,1.1525118,49
700,0.9567694,0.713875,-0.35201913,-1.5844016,0.16976027,0.015409656,0
701,-0.626968,-1.2099059,0.28431147,0.98095286,-0.24532193,-0.08576116,1
702,-0.6012989,0.07740745,-0.273794,-0.10954219,-0.0894962,-1.5535512,2
703,1.5318737,0.38186604,-1.1481061,1.4154942,-0.325585,0.8879754,3
704,-2.179923,1.9344784,0.39432317,-0.5492215,0.4180655,0.9547894,4
705,0.44697785,-0.6976309,-1.7281281,-0.75441617,-0.5105738,-0.55548173,5
706,0.090230346,-1.8997453,1.0032237,-1.2974114,-1.1397649,2.018156,6
707,-0.019450597,3.8338518,-1.3237734,-1.0333213,-0.6816294,-1.4877416,7
708,1.7039044,-0.5792192,-0.9782486,0.35861897,0.32251924,1.0307893,8
709,0.88287973,-2.3390498,-0.91534984,0.19136538,-1.0693725,-1.9857323,9
710,0.21270937,-2.2240634,-2.6575308,0.9831592,-0.9263327,0.95683193,10
711,-0.8709607,-0.18758534,-1.2320673,-0.8780476,-0.6746082,0.7846088,11
712,1.5564202,0.40379143,-1.8384205,-0.3004881,0.94019675,-0.52901334,12
713,1.0872833,-0.87243986,-0.53376466,0.6247327,0.08204675,-0.258695,13
714,1.1464156,1.4227304,-0.50306785,-0.99916774,-2.098452,-1.6573644,14
715,-0.730373,0.7264513,0.8733143,-0.964804,-1.268018,1.2016053,15
716,1.802266,-0.40841746,-1.5897815,-0.30933398,-1.4175836,0.4828382,16
717,-1.618719,-0.116556585,0.5768273,0.21792619,0.22926056,-1.0096564,17
718,0.36679184,-1.3923533,-0.21839541,0.6367347,-1.1834272,-0.25557494,18
719,-1.0578241,1.8625278,0.6943379,0.5501287,-0.90508825,0.5489605,19
720,0.18320423,-1.8257155,0.9260398,-1.0028235,-0.6138672,-0.864283,20
721,-0.05459538,-0.93397695,-0.4884081,-1.3870752,-0.121072814,-0.73348016,21
722,1.9763122,-0.20540363,-0.1146407,-1.7341017,-1.2092144,-0.1826098,22
723,0.8062129,1.2093651,-2.2353272,-1.260499,-0.17811139,-0.27704853,23
724,-1.9438918,1.3541727,-0.31520975,-0.7348525,-0.08109364,1.8058916,24
725,1.0099163,0.29823965,-1.0752634,-0.8852674,-2.6882727,1.3744639,25
726,0.38969386,1.0849329,-0.32171565,-0.9594546,-1.408896,0.21436393,26
727,-0.15689787,-4.4904814,-1.0231419,-1.047064,-0.70258373,1.4706224,27
728,-0.06210707,3.5391862,-1.1187396,0.49203485,-0.89359665,-0.27525455,28
729,-0.4662406,-0.36055958,-0.81382906,-0.3475319,1.3108721,-0.23739827,29
730,-0.7845739,-1.7826254,1.216675,1.8367827,-1.255466,0.33989978,30
731,0.87550575,2.2204914,-1.4373255,-1.3542489,-2.1065142,0.5824138,31
732,2.3359666,-0.31733018,-1.8322676,-0.84476525,0.7413721,0.08311875,32
733,1.1807389,-1.4869766,-0.6078922,0.8462635,-0.830569,0.7723378,33
734,-0.9118076,0.21596375,-0.79912883,0.23823541,-1.331155,0.5180027,34
735,-1.2837399,1.661566,0.16096014,-0.537249,-0.54369664,0.6262603,35
736,0.012433171,0.97399473,-1.20137,-1.6357079,-2.4086113,-0.94836026,36
737,-3.053524,-1.1026567,-0.5232681,-1.1276314,-0.5784718,-0.76607907,37
738,-0.01453197,-2.4861832,-0.072732896,0.7371918,-0.058458507,2.5206957,38
739,-0.16440368,1.4057417,-1.4585203,-0.6732372,0.38309586,0.040269583,39
740,0.9434005,0.26497126,-0.51245534,-1.8744129,-0.1487741,-1.9941146,40
741,-1.2792044,3.0907128,-0.7492394,1.0225817,-1.200597,1.6791192,41
742,-1.8221594,0.45346648,-1.788348,-0.06648517,-1.7478911,0.4653989,42
743,0.6611436,-0.29241636,-0.5096627,-0.95864344,-0.009995475,1.8470774,43
744,1.1662035,-2.552012,-1.119953,0.040804453,-0.5598788,0.2818107,44
745,1.1339993,0.79301375,-1.039557,1.7242217,-0.3539998,0.061018288,45
746,-0.089649804,0.106306314,-1.0364125,1.58778,-1.1290208,0.70670545,46
747,0.16194877,-1.3952261,-0.23984572,0.009676218,0.38767394,0.36946,47
748,-0.90548617,-0.9294279,-2.1087945,-1.9229958,-0.17055643,0.95020497,48
749,-1.850966,0.74613243,0.27206367,1.4379483,-0.2696845,-0.77665246,49
750,-1.0114667,0.06549215,-0.083543316,-2.6686463,-1.1698476,-0.60644495,0
751,-0.42630583,-0.71505916,-0.5572518,0.881957,-0.67177117,-0.28539038,1
752,1.2092878,-0.4243184,0.06870732,1.0765922,0.034012906,-0.20911676,2
753,0.35885316,0.65874,-2.3647513,0.43465036,-0.68252695,1.02226,3
754,-2.1506495,0.617413,0.66351414,-0.78965026,-0.49937823,1.0287601,4
755,-0.20887327,2.1883237,-1.2244421,-0.7361073,-0.16840923,-0.82317847,5
756,-0.53162384,-1.9183142,1.1094091,-1.9354918,-2.1632426,0.7942763,6
757,-0.73367125,3.0528846,-0.76524436,-1.444875,-0.9397182,-1.642007,7
758,0.8614542,0.8039268,0.04659903,-0.5290466,-0.33331272,0.8217363,8
759,1.1291406,-1.665442,-0.43220815,0.24856776,-1.0222653,-1.9981748,9
760,-0.44462153,-0.78907156,-2.2026732,-0.011308879,-1.4512544,-0.17478105,10
761,0.07695532,0.8877841,-0.37954903,-0.38636202,0.02007258,0.7792,11
762,1.8501859,2.0850701,-0.99038196,-0.5573477,0.90675867,-0.6596962,12
763,0.8394625,0.021019042,-0.8001477,0.7930558,0.2414507,-0.1207034,13
764,0.74626696,2.1940002,-0.04470229,-0.45394945,-1.4178667,-1.4765484,14
765,-0.64779645,1.3643553,0.81715065,-1.0527859,-1.880645,-0.17761981,15
766,1.0620911,0.35287428,-1.997369,-1.170877,-2.4564452,-0.62209266,16
767,-1.4246799,-0.84823865,0.4703482,0.46026045,0.686341,-0.29422113,17
768,-0.21965162,-1.3054147,-0.08655763,0.19907716,-1.1007458,-1.2509229,18
769,-0.28749645,-0.086331904,0.37413114,1.9638474,-1.6265996,1.2289402,19
770,0.7689476,-1.7692864,0.95607054,-1.6486421,-0.7818755,-1.0796968,20
771,-0.49063402,1.1032465,0.3100185,-1.7030058,0.44275087,-1.4442413,21
772,4.22979,-0.54260457,-0.6356922,-0.08486688,0.20143986,1.6652399,22
773,0.13182491,3.0634499,-0.74920607,-1.1504749,-0.27195483,-0.10583912,23
774,-1.8869925,1.7890263,-1.0896653,-0.7451962,-0.35036227,2.0634513,24
775,1.291156,0.715208,-2.2472656,-0.24207553,-1.4274931,1.0650754,25
776,0.6125688,0.8861007,0.55754894,-0.78704226,-1.1684566,1.4323516,26
777,-0.11959136,-3.7386837,-1.2527018,-1.5370646,-0.860106,1.8651066,27
778,0.582964,1.4832331,-0.55813885,-0.13030952,-2.187767,1.7093539,28
779,-0.4036299,-0.5020635,-1.3286583,-0.6521353,1.0452131,-0.4454906,29
780,-1.8991779,0.5506708,-0.7675467,0.19480991,-1.3777118,0.09050715,30
781,1.3606845,0.5945149,-2.2542226,-0.47210407,-1.1857021,0.739094,31
782,0.7329345,1.0462129,-0.5620263,-1.6081886,1.097847,0.083920404,32
783,1.2791083,-1.2915767,-0.8868613,-0.08276528,-1.5703498,0.8332301,33
784,-0.7777681,-0.3375129,-1.1276727,0.37336612,-1.7766783,0.75338197,34
785,-1.2882038,1.3811047,-0.84929675,-0.3408216,0.08189458,0.15233088,35
786,-0.3864236,0.79015696,-1.439269,-1.199646,-1.2327529,-0.93741804,36
787,-2.677707,-0.9324646,-0.0141634345,-0.9131835,-0.8493365,-0.38159868,37
788,-0.13380626,-2.7964826,-1.2042315,0.109766364,-1.4287288,0.5517528,38
789,1.1101239,1.2316959,-0.3081352,-0.4105278,0.5393071,0.09890532,39
790,1.5534785,0.21603751,-0.5765929,-1.7947547,-0.32406098,-2.5017717,40
791,-2.0626569,1.0283748,-1.6126108,1.1680181,0.81687784,-1.6543143,41
792,-0.7720808,-0.27384245,0.22498953,1.0376194,-0.9503508,0.65857327,42
793,-2.6665668,0.8571569,-0.41676784,-2.1293569,-0.8844541,1.7792287,43
794,2.4287932,-3.5903687,-1.8709568,0.72658175,-0.009539366,1.3172787,44
795,1.0787075,-0.07820761,-2.0576138,1.1414468,-0.66688615,-0.36904377,45
796,-0.15213913,5.0675364,-0.62450224,0.8052605,-1.190357,-0.061659995,46
797,-0.9172333,-1.2555878,0.21511877,-0.93865174,-0.60181236,0.7720759,47
798,-2.9746854,0.5038601,-1.0034016,-2.025254,-0.0926716,0.95457286,48
799,-1.5906494,0.5099933,0.67803466,0.14287588,-2.6397982,0.41922706,49
800,1.0992866,0.83105963,-0.7469606,-1.3213308,0.10589534,-0.19195524,0
801,-0.25031376,-1.4522858,-1.1716521,0.59120953,-0.9700543,0.4465909,1
802,0.36861163,-0.03072843,-0.83402336,0.70964193,0.15430206,-0.6356627,2
803,1.2619275,1.4646046,0.665913,-0.023029745,-2.0393744,-0.83887416,3
804,-2.1282592,-0.23753428,-0.7421653,-0.75511026,0.21720815,0.30834132,4
805,0.45411617,-0.10312992,-1.2563536,-0.8030185,-0.6390103,-0.4678207,5
806,-0.09739655,-1.6565394,1.1708381,-0.6954936,-0.7124795,1.341153,6
807,0.59120727,0.89568484,-1.9453949,-0.22122192,-0.40081507,-0.37674093,7
808,0.4592542,1.350005,0.15781623,-0.6641917,-1.0009468,0.94549996,8
809,0.42917928,-2.112586,-1.4899306,-0.124661684,-1.1424671,-2.039432,9
810,-0.6227174,-0.36111435,-1.2383804,-0.7564664,-2.461125,0.2547176,10
811,-0.81335455,0.25135452,-0.8804318,-1.0665654,-0.29706693,1.3857365,11
812,1.1864922,0.19046998,-1.1653874,-0.72785735,0.7161416,-0.5310858,12
813,1.4845994,-0.028850436,0.29717535,-0.06521496,-0.6305628,-0.52462983,13
814,1.1646245,-0.008025646,-1.1737463,-0.65399307,-1.8213351,-1.4447818,14
815,-1.1775284,-0.063929886,0.7754098,-1.4161916,-2.3270497,0.53213155,15
816,1.772491,0.16753457,-1.5204114,-0.7030691,-2.1055312,0.742956,16
817,-0.9975346,-0.49182692,0.6132755,0.2076965,-0.7551137,-0.6237452,17
818,0.07790704,-0.8802068,-0.029101849,0.4584451,-0.6050228,-2.3196304,18
819,-2.2054415,-0.17006856,0.079395354,0.67588115,-0.39549503,0.06630868,19
820,-0.5923152,-2.0679266,0.69214976,-1.9465632,-1.004963,-1.6853604,20
821,2.2102628,0.34396344,0.6607303,-1.7878904,0.43707085,-0.9194455,21
822,0.26140696,0.48189086,0.3293789,-1.6008775,-1.0254427,-0.43105564,22
823,4.1710806,1.7444675,-1.595834,-0.65624154,0.10859668,0.77143085,23
824,-1.7670579,1.1479588,-0.27577302,-0.59395045,-0.22012652,0.8169904,24
825,1.4128172,-0.6161502,-1.0719373,-0.24899894,-1.6390439,1.4246147,25
826,1.033247,-0.62913024,-1.9454343,-0.75439906,-1.4042755,0.76109904,26
827,-0.56766325,-4.2769237,-1.1832019,-1.4783056,-1.0856515,0.83629143,27
828,0.14717595,0.5894132,-1.377012,0.56281614,-1.361403,0.13917273,28
829,-1.2952272,0.37124455,-0.40924233,-0.7557397,0.34394464,-0.8109818,29
830,-1.9456308,-0.051973864,-0.44383964,1.079661,-0.97258556,-1.349182,30
831,0.9802911,-0.60095274,-2.521607,-1.2288096,-2.0444984,-0.32116967,31
832,1.204451,-0.20430547,-1.4984763,-2.382906,0.5792002,-0.11307688,32
833,1.4437592,-1.9748468,-1.0843248,1.4556136,0.3459248,1.0924386,33
834,-0.22576857,0.43171716,-1.7899611,0.60788226,-2.0425203,0.2513804,34
835,-1.5372722,0.46268922,-0.75467557,-0.99345887,-1.402976,0.5165124,35
836,0.24176055,0.76124865,-1.0185001,-1.6391466,-1.777134,-0.3824466,36
837,-3.2226822,-0.9651424,-1.0990112,-1.1535132,-0.46901363,-0.54139394,37
838,-0.57697535,-3.1132643,-0.8456065,-0.00069637224,-1.2641394,0.5888167,38
839,0.9939036,1.8448567,-1.0160359,-0.2791159,0.72399914,0.29854694,39
840,1.222878,2.2051759,0.23584759,-0.7876477,-0.2664209,-1.8268946,40
841,-1.8958127,1.1407017,-1.6271435,0.5619379,-1.4074937,0.8947465,41
842,-0.82893497,-1.6862589,-1.4426984,1.4782399,-0.4036389,1.0808117,42
843,-0.82437295,0.24316381,-0.929357,-1.3807907,-0.06929625,1.4181831,43
844,0.7102416,-2.7961993,-1.2443675,-0.46807304,-0.8952366,0.27216285,44
845,1.4808109,-0.48351383,-2.328393,-0.18008637,-1.7911782,-0.07153067,45
846,-0.54844624,3.3188567,-1.6589323,0.6865327,-1.059896,-0.67678535,46
847,-0.10944632,-1.1577144,0.08652708,0.10821742,0.9361131,0.4603271,47
848,-2.0615423,1.5824784,-1.0539218,-1.869075,-0.37301132,1.1668447,48
849,-2.0987377,0.416177,0.40681165,-0.034303427,-0.5399744,0.5093572,49
850,0.16364679,1.3687727,-0.22099063,-1.7526644,-0.40913737,-0.0011768639,0
851,-0.35236883,-0.49527273,-0.71384686,0.49056727,-1.4224211,-0.20137626,1
852,0.49518043,0.54154205,-0.5345379,0.4230337,-0.29354504,-0.60408527,2
853,0.83583504,2.5798366,-0.15107894,0.6211263,-1.2667261,0.0986467,3
854,-2.0947416,2.2497196,0.7078963,-0.5877566,-0.34809983,0.29513288,4
855,0.29332376,3.0382097,-0.42950666,-0.3691076,0.013411313,-0.6368138,5
856,1.5291579,-1.7034255,1.5199094,-0.5031011,-1.1509576,2.5556862,6
857,-0.15508959,0.861722,-0.7199911,-1.3978325,-1.4359251,-1.4050828,7
858,0.34687042,0.5276018,-0.49802274,-0.63966787,-0.77742386,0.8765007,8
859,0.44852567,-1.983216,-1.05122,0.16819525,-0.85610104,-1.8138691,9
860,-0.092427485,0.72726023,-1.5741742,0.77566946,-0.76034606,0.9337882,10
861,-0.38334107,-0.7817199,0.42784518,-0.24943751,0.60589325,1.2414008,11
862,1.7146642,1.698783,-0.9206953,-0.7248968,0.10739797,-0.8237837,12
863,1.0560956,-0.6431614,-1.0850466,0.9549502,0.74026716,-0.40700924,13
864,1.2434987,-0.57079685,-0.5249239,-0.43467537,-1.7180157,-0.73882025,14
865,-0.2126601,-0.1681284,0.3203718,-0.6690128,-1.1653252,1.1713452,15
866,2.7438924,-0.26745474,-1.3567017,0.090295315,-1.2078056,1.8622386,16
867,-1.9773664,-0.84765536,1.698045,-0.40094072,-0.28305668,-0.8915694,17
868,-0.42035255,0.12145579,-0.72450423,-0.18124607,-1.0060204,-2.833025,18
869,-0.68669796,-0.04356867,-0.9433471,1.3177778,-0.53274816,0.94573367,19
870,0.25146818,-1.7656767,0.605681,-1.0371994,-0.5679931,-1.5641749,20
871,2.0947495,-1.7101718,-0.4747427,-1.5752076,0.07791661,-1.181788,21
872,1.7813512,-0.47444725,0.02484861,-0.8088466,-0.49736246,1.0151876,22
873,-0.09292352,2.244869,-0.2997632,-0.88330173,0.07566288,-0.44099218,23
874,-1.6324492,2.2732625,0.19472015,-0.72769994,-0.6103928,2.2942162,24
875,1.2035758,2.4136782,-1.6770247,-0.3508357,-0.9928155,1.0195818,25
876,1.3295584,1.909137,-0.29021895,-0.72513866,-1.1717145,1.4794272,26
877,0.031766027,-3.3315868,-1.0824962,-0.8887013,-0.92420566,1.4468541,27
878,0.36364204,2.5467029,0.27881682,1.4875805,-0.1312933,1.804275,28
879,-0.6877764,-0.42256814,-1.299876,-0.7623033,0.5700965,-0.8154262,29
880,-1.2644728,0.4182899,0.5083378,1.0880579,-1.6816288,0.27459356,30
881,2.9393237,0.9479202,-1.8708626,-0.52529824,-1.1349711,0.7735331,31
882,4.447719,1.9929869,-0.0805217,-0.70678806,2.0033271,0.4539335,32
883,1.4815588,-1.0878104,-0.71491814,0.4044233,-1.0691168,1.4213905,33
884,-0.9958997,0.08942312,-1.894794,0.20330888,-1.1777505,0.5917013,34
885,-0.68219924,0.14005625,-0.11088431,-0.6107621,-0.7519163,0.9628545,35
886,0.29230654,2.0900931,-1.7587496,-1.6213875,-1.8331542,-1.4578891,36
887,-3.0656304,0.118189335,-0.5423107,-1.251251,-0.3062511,-0.7891963,37
888,-0.32230526,-3.736606,-0.49167398,-0.33304694,-1.0798254,0.77375233,38
889,1.0462719,1.2920327,0.5363544,-2.2008414,-0.93374014,-0.5166775,39
890,0.22520918,2.1239715,0.31795904,-1.5905073,-0.35211056,-2.2276397,40
891,-0.9404448,3.001212,0.3763162,2.2487595,-1.4830921,-0.63265216,41
892,-2.242702,-0.19912092,0.07175046,0.21920276,-0.42355865,0.5843066,42
893,-0.45196253,-0.7995094,-1.3510301,-1.9066544,-0.5173315,2.0326524,43
894,1.5029254,-3.1792574,-1.7673703,0.91576886,0.5227388,0.91625583,44
895,0.60010636,1.3092268,-0.2845618,0.6464098,-1.2150389,-0.19530618,45
896,0.4173947,-1.6908582,-1.795057,1.2326626,-1.0357316,0.6983542,46
897,-0.6927968,-1.2026327,0.24832219,-0.43960613,0.07271143,0.3594963,47
898,1.0267458,1.3978231,-1.1644795,-0.9491279,0.5310377,1.2101043,48
899,-1.2142653,1.4017092,-0.83697647,0.72268283,0.21080613,1.0767366,49
900,0.0011940002,2.2355669,0.68014437,-1.0002831,0.29801926,-0.06411159,0
901,0.21417496,-1.2985027,-0.035738796,1.2989545,-0.565095,1.8158383,1
902,0.48333755,1.378411,0.8968805,0.55115306,-0.638696,-0.8616979,2
903,0.6047016,1.9570863,-0.13959956,0.22071749,-1.8766185,-0.6691961,3
904,-2.9013352,0.87529916,0.17474256,-0.8320017,0.14068222,0.63366604,4
905,0.21630703,1.3937924,-1.9426712,-0.9650566,-0.7219587,-1.0059159,5
906,0.25592682,-1.8877655,1.0804552,-1.8780029,-2.0364594,1.3120109,6
907,0.47846836,1.5860739,-1.7061528,-0.5098592,-0.5171888,-0.2991346,7
908,1.2217846,0.9329964,-0.19755583,-0.42486072,-0.96018517,0.4448834,8
909,0.56301355,-2.8393836,-0.601758,0.20301996,-1.1802492,-1.4754678,9
910,-0.012390763,2.3793187,-1.2467757,1.3619515,0.08137977,-0.045265764,10
911,0.04371178,1.3128688,-0.9255573,0.077937424,0.31763458,1.2748435,11
912,1.9926021,0.78632706,-2.7251914,-0.573533,0.43250632,-0.45075363,12
913,0.75076765,-0.20454067,-1.0948752,0.6485491,0.57200706,-0.7708346,13
914,2.2627134,-0.18037307,-0.15872777,0.123167396,-1.1578686,1.4263327,14
915,-0.14475465,0.5359065,1.828049,-0.51890093,-1.5063357,1.2677362,15
916,1.6379427,0.6558255,-0.8233568,-0.17798245,-1.43896,2.0890543,16
917,-1.4839684,-0.696295,0.29040247,0.7422815,0.70247257,-0.9391378,17
918,-0.15516171,-1.2589457,0.30598336,0.5971619,-0.41297126,-1.038751,18
919,-1.7383231,1.5407388,-1.8398404,0.100515544,-0.76825374,2.0004382,19
920,-0.0818187,-1.6464459,0.5222656,-1.6890348,-0.9833915,-1.4829956,20
921,-0.6759349,-0.5821165,-0.6905492,-1.1298716,0.25074822,-1.2282417,21
922,2.1994338,-0.9888571,-1.182806,-0.75919545,-0.2412824,-0.09063629,22
923,0.470893,2.1917114,-2.475974,-1.706979,-0.64200544,-0.4369207,23
924,-1.347912,2.6723695,-0.6906271,-0.25912347,0.30775154,1.319973,24
925,1.1691251,1.1129518,-1.9153115,-0.6415132,-1.8612674,1.1961129,25
926,1.7086688,2.3338752,-0.8438913,0.18507111,0.12705517,0.5758907,26
927,-0.2697339,-3.4301782,-1.0931567,-0.7838404,-0.20103133,1.4092,27
928,0.1252408,1.7591064,-0.4820922,0.51926184,-1.6087804,0.46809468,28
929,-0.38095105,0.24076316,-0.0023284853,-0.665281,1.2987939,-0.41692054,29
930,-2.503092,0.05559118,0.20137376,0.67366385,0.19491982,1.2469466,30
931,1.2050755,0.08160961,-0.74666995,-1.3313997,-2.343095,0.86756885,31
932,1.5623596,0.21899316,-0.31957978,-1.6506646,0.1266225,-0.056374397,32
933,0.74517006,-1.7415206,-1.3750439,0.13075578,-1.0983106,0.39096838,33
934,-1.0539368,1.5696018,-0.9280076,0.34721577,-0.77392286,0.83560896,34
935,-1.0544965,-0.047778964,-0.5625287,-0.3576886,-0.058871686,0.95368785,35
936,0.7154268,0.027561754,-1.6854057,-0.5691843,-0.94165146,0.4968724,36
937,-2.5829115,0.08321458,-0.288237,-1.0655334,-0.50232804,-0.4930995,37
938,-1.0155065,-2.8575656,-0.8845155,-0.16093895,-1.577152,-1.6319243,38
939,0.9626949,1.2590038,-1.0435127,-0.5395223,0.60583305,-0.31894147,39
940,1.1362615,1.6122196,0.7607522,-1.9424312,-0.54446733,-2.1856303,40
941,-2.2017453,-1.3293836,-0.15697312,1.2278383,1.3345625,0.413125,41
942,-1.2651297,0.4837979,-0.55939555,0.61462915,-2.182544,0.63838637,42
943,-1.6817064,-0.84104514,-1.631983,-1.6357067,-0.100323156,1.7680701,43
944,1.0137932,-4.3383665,-1.4634444,0.39536002,-0.09158635,0.6223491,44
945,0.44371265,1.1304256,-0.67888576,-0.16528094,-1.8080363,-0.38203216,45
946,-0.55808014,5.2666416,-1.9436432,0.70604575,-1.5458927,-1.7133465,46
947,-0.39735043,-1.7259719,-0.6740917,-0.5361436,-0.16289577,0.57926285,47
948,-0.022836149,-0.002398312,-0.9469242,-1.3237739,0.9125284,1.4594864,48
949,-2.033474,0.3770506,1.2617702,0.6759105,0.4164371,-0.3927766,49
950,0.8850968,0.8883078,-0.36105394,-0.98714924,0.9983622,0.45568398,0
951,-0.60378563,-0.45676523,0.18282121,0.17016351,-1.9443738,0.32517362,1
952,0.541933,1.092829,0.046833187,1.4601696,0.5450113,-0.025072217,2
953,1.4066156,1.8755605,0.24726212,0.8753915,-1.2371371,0.32456332,3
954,-2.220921,1.0592661,-0.17752066,-0.9477129,0.00037896633,1.0702524,4
955,0.6808778,-1.065858,-2.13944,-0.5827172,-0.261808,-0.73873997,5
956,0.48982644,-1.9119093,0.6347933,-1.9007043,-1.9444313,1.254534,6
957,-0.29202253,0.313744,-1.8418593,-0.8307377,-0.54301065,-0.9648464,7
958,0.9968569,-1.5040826,-1.2381675,-0.6253712,-1.4418874,0.9144138,8
959,0.8447405,-1.6489565,-0.697593,1.011165,-0.815206,-1.6819546,9
960,0.35708597,1.6893942,-1.2515157,0.45726696,-1.0866265,1.6277984,10
961,-0.8294613,-0.96191525,-1.1410577,-0.9970139,-0.56430155,1.1422678,11
962,2.3803406,1.9511025,-0.903214,-0.8715944,0.20401867,-0.63475424,12
963,0.5777402,-0.19539952,0.13335806,-0.20260367,-0.0061728954,-1.049891,13
964,2.1174674,0.55575895,-1.1807377,0.56970406,-0.6274735,1.213489,14
965,0.202707,0.35288438,0.78558487,-0.21355748,-0.47754323,1.5101378,15
966,2.445633,1.9528222,-1.3116505,0.410895,-0.70506686,2.5063026,16
967,-1.6555374,-0.7730247,0.8829136,-0.15346348,-0.2673459,-0.9952922,17
968,0.40983212,-2.1281347,-0.8794475,1.0739818,-0.7059028,-0.49353337,18
969,-1.8659801,-0.6557194,0.22356337,0.7665123,-1.4443281,1.875361,19
970,0.5741783,-2.0071058,0.69321024,-1.8939692,-0.979296,-1.3175458,20
971,2.278195,0.23740375,-0.095091596,-1.6987573,-0.30888385,-1.312077,21
972,1.5932355,-1.0143155,-0.49488878,-1.373308,-1.125052,0.084875874,22
973,0.6241808,2.4886863,-1.5430148,-1.230922,-0.15432528,0.02361174,23
974,-1.6712663,0.7782689,-0.37099344,-0.96991223,-1.414117,1.1251185,24
975,1.8936725,1.7166739,-1.4227984,0.24057472,-1.2067032,2.76478,25
976,0.7056875,0.21768421,-1.2007818,-0.020519853,-0.21408111,0.8485045,26
977,-0.3141213,-3.9219804,-1.4740235,-0.65276945,-1.0343981,1.510005,27
978,0.13470775,1.0528216,-1.3938923,0.8334691,-0.66827226,1.3202747,28
979,-0.3958652,0.40019643,-0.016666323,-0.3515102,1.4181325,-0.28550184,29
980,-1.5020056,-0.9383731,-0.5949387,1.0395964,-1.4938493,-0.01672846,30
981,1.8629422,0.7945326,-2.0707026,-0.6343083,-1.1074877,0.49001572,31
982,1.4119,1.6364143,-0.41390717,-1.9688393,1.3404472,-0.022526108,32
983,1.1228433,-0.17350209,-0.57747626,0.38091558,-1.3527844,0.929378,33
984,-0.4835111,2.0554528,-0.82414913,0.26408592,-1.6216731,1.5302938,34
985,-1.5137433,0.435436,-0.91096354,-1.026974,-1.2477832,0.3872041,35
986,2.653723,0.72517717,-1.779291,-0.59046847,-1.0441875,1.6331365,36
987,-2.7036066,-1.2583308,-1.3201047,-0.90535647,-0.44512326,-0.73993254,37
988,-0.403118,-3.272409,-0.703889,0.08846313,-1.1145521,-0.4557395,38
989,0.66025335,1.1532404,-2.9133997,-0.4368521,1.0175852,-0.26517886,39
990,0.056136012,0.051008344,-1.084648,-1.4155844,0.2398552,-1.7165487,40
991,-2.229607,0.8984966,-1.766986,1.0967139,1.336518,0.86587566,41
992,-1.1722692,-0.28014743,-0.6237616,0.269894,-2.6390443,1.7397858,42
993,0.76705414,0.008245766,-0.44479302,-1.6440868,-0.083449915,2.0159252,43
994,0.692962,-3.5725417,-1.3595785,-0.2210359,-0.902437,-0.13923432,44
995,1.6426802,0.11269355,-0.9360117,1.401232,-0.5132607,1.1515987,45
996,-0.118687585,-1.8473775,-1.2674812,0.55782986,-1.0681978,-0.18572739,46
997,-0.59201044,-1.5353724,0.1646494,0.26540273,0.8672234,0.8469796,47
998,-2.2079785,0.016714394,-1.2742505,-1.7858384,-0.435818,0.46689552,48
999,-2.0038595,-0.56916416,-1.057073,0.39815822,-0.20324609,0.7770089,49
1000,0.32937664,1.2573726,0.5011457,-1.5617143,-1.066466,0.058400117,0
1001,-0.18441723,-1.4013529,-0.97967595,0.7994302,-0.8433807,0.18459922,1
1002,-0.13986161,3.2475095,1.2671105,0.24904972,-0.08200721,-0.92671216,2
1003,1.464243,0.5777762,-0.010886788,0.43385363,-1.8556224,0.60040295,3
1004,-2.6085389,1.9060631,0.21881166,-1.1775268,-1.0255063,1.1875377,4
1005,0.11034727,-0.15293005,-2.418819,-0.605072,0.011314236,-0.49932408,5
1006,1.190466,-1.9212033,1.8450725,-0.84410167,-0.98650086,1.3770353,6
1007,0.50619423,-0.19479442,-2.4212027,-1.2649239,-1.4033341,-0.9930129,7
1008,1.945045,-0.29802302,-1.076051,0.08480525,-0.038110435,0.3557076,8
1009,0.32636943,-2.49496,-0.8783032,-0.1340524,-1.0181489,-2.2935224,9
1010,-0.066668704,-4.067254,-1.6412458,0.49855092,-1.0984019,-0.36897886,10
1011,-0.27628744,1.4863937,-0.13622123,-0.22688946,-0.10133748,1.7206922,11
1012,1.4582198,2.4599373,-1.6517068,-1.141892,-0.1871756,-0.8913449,12
1013,1.2721858,-0.86911476,-1.6073866,0.93927073,0.61225486,-0.4409725,13
1014,1.7830861,0.05511284,0.2351973,0.016976655,-1.3337051,0.19898403,14
1015,-0.7481013,0.5915966,0.5056875,-0.65849113,-1.1970558,1.3505027,15
1016,1.3721452,2.0963967,-0.2841425,-0.13252336,-1.0076475,0.041434765,16
1017,-1.3435721,-0.9963006,0.5831749,0.3563386,0.038211137,-0.5142646,17
1018,0.26257354,-1.1752876,-0.07729727,0.56867206,-0.93269336,-2.4501958,18
1019,-2.0313516,-0.5673351,-0.2906798,-0.25579756,-0.6816305,0.7183205,19
1020,2.4618926,-2.3123934,0.5788862,-0.7614591,-0.25458375,-1.0413841,20
1021,-0.4544667,-0.95822656,0.12664492,-0.75856036,1.0319594,-0.6851536,21
1022,2.6745038,-1.3348988,-0.3077098,-1.5011438,-0.88408995,1.0657965,22
1023,1.1540445,3.3417845,0.49901223,-0.5685884,0.53690016,0.61388993,23
1024,-1.8202246,3.376172,-0.5195147,-0.66685665,-0.462798,0.5878105,24
1025,1.9173121,0.3126313,-1.2388532,-0.49982852,-1.427378,1.5595336,25
1026,0.48741603,2.2889643,0.04564023,-1.319355,-1.9193712,0.06277245,26
1027,-0.33588213,-3.3418474,-1.0674208,-1.5851443,-1.0498836,0.5714472,27
1028,0.7332598,0.9444598,-0.5870445,1.3664534,-0.70622087,2.6232579,28
1029,-0.40863127,0.0646815,-0.49027616,-0.48443502,0.69813734,-0.5998688,29
1030,-0.99733627,1.6733053,0.02283442,1.5528412,-0.51734024,2.3689792,30
1031,2.1282296,0.7377208,-2.009772,-0.37545076,-0.7009034,1.118391,31
1032,-0.20263684,2.259091,-0.8413491,-1.9423765,0.49535608,-0.2680854,32
1033,0.09300965,-0.4742145,-0.40223023,0.3487739,-0.8165697,1.0922126,33
1034,-1.4535521,-0.2885909,-1.1168748,-0.02519697,-1.0867604,0.05463603,34
1035,-0.78647363,0.59732085,-1.7826381,-0.34738675,-0.35507253,0.8067584,35
1036,0.89231527,-0.17270172,-1.9353759,-1.4622408,-1.541996,0.3976378,36
1037,-2.7627335,-1.4132283,-0.928923,-0.88178,-0.037251025,-0.9497912,37
1038,-0.08125737,-3.7337685,0.0035921633,0.3262607,0.0020813942,2.3317811,38
1039,2.1093235,2.6346483,-1.2399131,-0.54486775,0.30763975,0.36839822,39
1040,1.3855007,2.3403554,0.44722927,-0.66773635,0.11301392,-1.9995449,40
1041,-1.5531036,-0.37252703,-1.2409544,1.4624133,-0.7266704,0.300332,41
1042,-2.7268844,0.67359596,-0.88269174,-0.09894776,0.29275906,-0.89288557,42
1043,-1.322257,-0.5878773,-1.3960187,-2.223121,-0.42743123,1.1218443,43
1044,-0.50433916,-0.7606962,-1.0194324,-0.8049989,-1.1223367,-1.1268804,44
1045,1.1475779,1.7335669,0.9708715,1.3138138,-0.70165944,0.03361842,45
1046,-0.050860796,-6.815902,-1.97712,1.0892196,-1.3109379,-1.0099757,46
1047,-0.85486925,-1.3914614,0.3068007,-0.8366218,-0.32230115,0.35075057,47
1048,0.34311903,0.3020036,-1.8358747,-1.1636769,0.5715523,1.0738244,48
1049,-1.4471399,1.6056315,0.5172243,-0.35135436,-2.5279984,0.689843,49
1050,2.488175,1.2075577,-0.6110637,-1.020354,0.31789315,0.28462404,0
1051,-0.53221697,-0.12539321,0.10120261,0.25165242,-1.6365474,-0.6086016,1
1052,0.22482893,1.7574407,0.563167,0.35664076,-0.3613398,-0.61599433,2
1053,1.0931873,1.7730198,-0.47091854,0.24620289,-1.9824835,-0.10905486,3
1054,-2.7402918,0.405329,-0.68424815,-1.1310328,-0.45305187,0.3541702,4
1055,1.2710199,-1.0983452,-1.7778183,0.28246415,0.9136029,-0.10823354,5
1056,0.6065088,-1.9553157,1.0638249,-0.32580686,-0.4498135,1.5639951,6
1057,-0.42187607,-0.27545357,-0.83654714,-2.0743082,-1.7137063,-1.1694545,7
1058,0.53188074,0.66781133,-0.6832066,-0.14243445,-0.42913905,0.9544161,8
1059,1.4243286,-2.128102,-1.1417761,0.555617,-0.74255544,-1.7360055,9
1060,0.013217658,-1.107428,-1.4886847,0.12633121,-1.2021632,0.35637534,10
1061,-0.3467015,-0.3577158,-1.1721265,-0.63019407,-0.44222003,1.696709,11
1062,1.2641041,-1.2010617,-2.998651,-1.2864871,0.14229797,-0.9675547,12
1063,0.77502936,0.7450061,0.20084667,-0.18099675,-0.34875736,-0.84685946,13
1064,1.060921,1.5952678,0.044620484,-0.2370724,-1.5760741,-0.1758256,14
1065,-0.7470949,0.35690433,0.5726194,-0.61211604,-1.5268869,1.3968034,15
1066,2.5820003,0.6887114,-1.6308784,-0.508246,-1.3713484,1.1074051,16
1067,-1.7057287,-0.47709337,0.42882514,0.1969386,0.34572,-0.8388368,17
1068,-0.5014825,-1.2923361,-0.6617049,0.40922824,-0.47545397,-1.743992,18
1069,-0.7796007,0.27966326,-1.0141599,1.4174972,-1.2431725,0.049183846,19
1070,1.2053406,-1.956863,0.31153208,-1.1167538,-0.17790186,-0.8067665,20
1071,0.7931047,-1.7720754,-1.041815,-0.8941449,0.650072,-0.5435793,21
1072,-1.3252999,0.24323274,-0.19248131,-1.595417,-1.3763208,-0.33236632,22
1073,0.024967968,0.5727147,-1.8304715,-1.610481,-0.55869126,-0.07766141,23
1074,-1.6198152,0.4719677,-1.6154983,-0.70023763,-0.27590147,1.2311518,24
1075,1.8270528,0.5201391,-1.8994772,-0.19929421,-0.95740926,3.7095304,25
1076,1.6039004,0.375619,-1.3266945,0.15277654,0.17369187,1.0046935,26
1077,-0.57145363,-4.097393,-1.1390679,-1.699136,-1.5309263,1.3365568,27
1078,0.07410823,1.5491457,-0.41771746,0.32250506,-1.4966801,-0.27903885,28
1079,-1.3189762,0.14805454,-0.11899841,-0.72560817,0.75475085,-0.5712154,29
1080,-2.0609956,-1.4488946,-0.15854126,1.4256988,-0.60157126,-1.1442908,30
1081,2.6293495,2.1819928,-0.9027963,-0.41846478,-0.91886854,0.9667977,31
1082,2.444329,-1.9490738,-2.2902699,-0.8143723,1.196747,0.14389612,32
1083,1.463213,-1.7561352,-1.0157111,0.7711834,-0.5327642,1.5615556,33
1084,-2.2262282,0.020517707,-0.69157195,-0.9617774,-0.99985707,-0.71800995,34
1085,-0.8227761,0.48708856,-0.64018834,-0.56723344,-0.54949135,0.97946453,35
1086,3.8422232,0.78553545,-0.832373,-0.9145562,-0.44883955,1.5554802,36
1087,-2.8960602,-2.3641443,-0.037175775,-0.94062257,-0.5101871,0.005565524,37
1088,-0.8708817,-3.0068176,-0.7554488,-0.5324958,-1.1370673,0.70891064,38
1089,0.62406623,1.3700638,-1.6025661,-0.87880504,-0.25028726,-0.5302597,39
1090,1.1865704,1.4066855,-0.17581788,-1.1300082,-0.8132175,-1.5363376,40
1091,-0.8094856,-2.365588,-1.9873778,0.66233844,-0.8474728,1.5450408,41
1092,-1.823448,-1.3365221,1.1250832,-0.062846065,-1.6332955,0.028931975,42
1093,0.63703954,1.9869336,0.115538776,-1.2582911,0.37917334,1.6475075,43
1094,0.6375936,-3.7879944,-1.3326249,-0.31352377,-1.0142307,0.114104524,44
1095,0.80045605,-0.78872883,-1.0261003,0.9984972,-0.4887129,0.0048418045,45
1096,-0.073161,-3.4720836,-1.042769,1.0292853,-0.93532145,0.47997946,46
1097,-0.40333775,-1.4095278,0.39006382,-0.8357258,-0.56941545,0.6441544,47
1098,-0.877589,1.0638885,-1.5066421,-1.3303963,0.23566826,1.6011024,48
1099,-1.9541689,1.8075007,-0.06511672,1.0419283,1.4436738,0.111523554,49
1100,-0.40644693,-0.2515958,-1.197589,-1.864171,-0.3615101,-0.069791794,0
1101,-0.030397832,-0.16940868,0.67671436,0.34492493,-2.1035848,0.27470934,1
1102,0.2605301,-1.0043346,-0.8651264,1.0750016,0.16824874,-0.46201184,2
1103,1.544344,1.7384834,-1.4285195,0.96768093,-0.4895327,0.4929766,3
1104,-2.2378473,2.056394,-0.03294701,-0.81998587,-0.12819424,0.7878444,4
1105,1.0570521,-0.17798081,-2.741105,0.8151077,1.1247766,0.44166318,5
1106,1.3725829,-2.1603565,0.8910477,-0.7262851,-0.87604284,1.4604332,6
1107,-0.3980294,1.6444229,-0.7720851,-1.5517049,-1.0056705,-1.6368076,7
1108,0.005793333,1.0844387,0.4627232,-0.958161,-1.1135437,0.1416511,8
1109,1.1130937,-2.096685,-1.3072997,0.5113939,-1.0494517,-1.9300867,9
1110,-0.27384323,-1.3348697,-1.4261851,0.27213675,-1.1616317,-0.15279984,10
1111,-0.27795047,0.82240635,0.07870436,-0.84118426,-0.26740775,1.7019154,11
1112,0.2002728,1.290769,-1.7736206,-1.3538148,-0.39106318,-0.9390668,12
1113,-0.19624662,1.7236875,-0.8705489,0.17707032,0.710538,-1.1818857,13
1114,1.0402764,1.0366212,-0.95353144,-0.41715655,-1.2948139,-0.8519282,14
1115,-0.85108215,0.5931296,0.29789805,-0.797426,-1.3640579,0.4852149,15
1116,0.8038658,-0.05275756,-1.7219748,-0.21206155,-1.4550114,0.7392822,16
1117,-1.5397959,-0.22599155,-0.10305011,-0.2833395,-0.10344194,-0.52976394,17
1118,0.06276427,-3.8369343,-1.2062198,0.5994451,-0.6051105,-0.599316,18
1119,-1.1585242,0.99994767,-1.5132812,1.7982624,0.2903481,1.1910964,19
1120,0.30771005,-2.2234197,0.7424675,-1.6936802,-0.58901024,-1.2295964,20
1121,1.949279,-0.12826425,0.40806827,-2.204308,-0.3454935,-1.0909289,21
1122,2.1004138,-0.59577215,-0.5034641,-0.92698145,0.08139503,0.7068143,22
1123,1.2092118,3.0186796,-1.1672196,-0.4050876,0.19489972,-0.055059716,23
1124,-1.5669163,0.7907553,-0.8884387,-0.527371,-0.19886625,1.6699791,24
1125,0.5342856,-0.16654801,-1.0478172,-0.6336854,-1.7985563,1.4306087,25
1126,1.1721281,0.9854443,-1.3969501,-0.2943581,-0.41853046,0.91567373,26
1127,0.23162258,-3.7456143,-1.272401,-1.3077464,-1.1774247,1.314482,27
1128,0.1285645,2.698214,-0.0017670393,0.16398144,-2.2163405,0.2935881,28
1129,-1.1304467,0.118349314,-0.23103362,-0.52907896,1.3560562,-0.6918952,29
1130,-1.6538695,0.5267756,1.0116107,1.0111078,-2.014474,-0.32154512,30
1131,1.9720298,0.54014575,-1.0178373,-1.0935278,-1.9594922,0.81672657,31
1132,1.7276361,0.7906052,-0.6301455,-1.8019562,0.349967,-0.022109887,32
1133,0.63405406,-0.27568114,-0.9355514,0.47880912,-0.9531972,1.1484799,33
1134,-0.6675842,0.22802696,-1.8031728,0.32271773,-0.7366935,1.4077442,34
1135,-1.0785376,0.81908286,-0.7377826,-0.55993,-0.5522125,1.2024808,35
1136,1.9302366,2.814908,-0.11141527,-0.15135753,-0.3267439,1.2460558,36
1137,-2.8714812,-0.2407496,0.44284356,-1.0528336,-0.8631458,-0.15743151,37
1138,-0.9459457,-2.7399251,-0.04053375,-0.25958622,-0.9032339,0.65447915,38
1139,-0.28399777,-0.08163595,-1.6404109,-1.3306892,-0.62274444,-0.59900796,39
1140,0.116365254,1.4403521,0.14969982,-1.2381091,-0.46353364,-1.7873847,40
1141,-1.200897,-0.7983949,-1.4017904,1.0781413,-0.60893273,2.092005,41
1142,-0.5653001,-0.6357738,0.42316008,1.6250247,-0.710923,1.1094252,42
1143,0.59389955,-0.58999777,-0.937528,-1.4839839,0.05490394,2.4128764,43
1144,0.60244846,-1.7516828,-1.1043618,-0.0747869,-0.44564468,-0.1307592,44
1145,1.7263074,2.0852072,-0.9762387,0.9442791,-0.88660204,1.0654871,45
1146,-0.0029834006,0.7058295,-0.99579895,1.5460584,-0.81046915,-0.056992497,46
1147,-0.2728273,-1.4840983,-0.020222336,0.43784994,0.8541192,0.872038,47
1148,-1.3998854,0.54956603,-1.4925417,-1.9987082,-0.28642306,1.1729819,48
1149,-1.2246158,2.307754,-0.4912302,0.42637694,-1.4849695,0.80045676,49
1150,-0.022630394,2.1442077,-0.6824054,-0.86427546,0.98358023,0.15757073,0
1151,-0.2580567,-1.6537062,-1.0471313,0.7106666,-0.6725191,1.123636,1
1152,-0.13554522,2.7627158,0.14303741,0.67809784,0.14299199,-0.9731337,2
1153,1.5745615,0.69194865,-0.2681293,0.8968638,-0.8587476,0.7518261,3
1154,-2.770121,0.4360507,-0.034875534,-0.9427025,-0.08115202,0.51098096,4
1155,1.2612505,-0.2838056,-1.001993,-0.10282099,0.017280549,0.20947596,5
1156,0.16169575,-2.0217714,0.97899467,-1.8776245,-2.3788738,0.016806483,6
1157,0.31925887,2.3915977,-0.20968771,-0.92278576,-1.3514094,-1.3517318,7
1158,1.4947705,-0.8085898,-0.7020893,0.32303894,0.05410993,1.4975696,8
1159,0.7887034,-1.9022415,-0.24969244,0.076422915,-1.122103,-2.2359583,9
1160,0.41541582,-0.19326618,-1.4350941,1.279125,-0.46653068,1.4096066,10
1161,-0.37234887,-0.13824512,-0.07195902,-0.8196241,0.066919565,1.4676229,11
1162,1.6059883,1.6650493,-1.4169226,-0.6782503,0.6220158,-0.7608084,12
1163,1.3054695,-1.1235081,-2.3564816,1.3410529,0.76184964,0.018501699,13
1164,1.9089949,0.5089817,-1.0254556,-0.19346717,-0.82358533,0.82296866,14
1165,-1.0819235,0.6572605,1.7453623,-1.0433646,-1.8455013,0.8852055,15
1166,1.7178499,-0.022315264,-1.2895536,-0.5646043,-1.6365597,0.6664911,16
1167,-1.2541399,-0.7636164,-0.078130126,0.29878187,-0.05909127,-0.6173202,17
1168,-0.26291636,-0.9344978,-0.67410415,0.3755402,-0.5734999,-2.5261173,18
1169,-0.49347186,2.5111916,-0.20430857,2.284536,-0.798782,1.9996355,19
1170,2.0882292,-1.6522076,1.0496731,-0.9163255,-0.23664576,-1.1885104,20
1171,-1.105612,0.48996782,0.28278333,-1.4072533,0.57783365,-1.1670225,21
1172,2.211182,-0.24475831,-0.32110876,-1.803402,-1.4282181,0.18163884,22
1173,0.9428111,1.9490411,-1.3856701,-1.2788092,-0.4529301,-0.13282438,23
1174,-2.2235224,2.6047163,-0.3419124,-0.8997873,-0.8542067,1.8321526,24
1175,1.273796,-0.18857294,-1.1437871,-0.826492,-2.3873692,-0.115371704,25
1176,1.3986486,1.5827255,0.023379683,-0.012459457,-0.30182236,1.5204835,26
1177,0.19243157,-4.3511047,-1.0078763,-1.1310099,-0.5755036,2.4443703,27
1178,0.46900272,1.0623354,-0.41141975,1.2961905,-0.72082186,-0.38520104,28
1179,-1.2082015,-0.4817139,-0.41816515,-1.1163118,-0.04527664,-0.9477545,29
1180,-1.4544051,2.0230803,-1.3350954,1.3098367,0.11575401,1.0548286,30
1181,2.1866384,1.5631341,-1.6382823,-0.64692676,-0.9728788,0.5553863,31
1182,-0.12596321,0.23216544,-1.2041656,-3.3758888,-0.5642423,-0.17117889,32
1183,0.45968714,-1.5052241,-1.2154121,0.52702916,-0.6905017,-0.24670666,33
1184,-0.54840314,1.2719865,-1.209718,1.0984726,-0.41660088,-0.28860345,34
1185,-0.9992237,1.2245907,-0.9557059,-0.45126435,-0.43434957,0.87009823,35
1186,1.5530639,-1.7695236,-2.0564823,-0.6014521,-0.6099758,-0.04293531,36
1187,-2.9511278,-1.2043089,-0.4441383,-1.1845502,-0.89637935,-0.38163447,37
1188,0.033952832,-2.8674288,-0.35978985,-0.07070848,-1.7342418,0.49867272,38
1189,1.1414568,-0.52589285,-3.1517825,0.09794241,1.5548662,0.2456169,39
1190,0.121590674,1.8608975,-0.0026638284,-1.7239411,-0.3481827,-1.870533,40
1191,-0.6132415,0.90788364,-1.2541496,1.949829,-1.4322233,0.5518287,41
1192,-1.9803922,-0.16117413,-0.4109462,0.66768765,0.0749982,1.0934443,42
1193,-0.07865393,-0.20679173,-0.48537475,-1.447545,-0.028703976,1.8076509,43
1194,0.054497063,-0.17518163,-1.0047019,-0.4305644,-1.1254922,-0.2743981,44
1195,1.1194458,3.0793855,-0.76068556,0.93680584,-0.8556581,0.1940541,45
1196,0.042687163,-3.143959,-1.217905,1.0829325,-1.5255743,-0.27151242,46
1197,-0.34082642,-1.4089607,-0.24144153,-0.13120052,0.3059078,0.27447474,47
1198,-0.79280597,1.1416398,-0.79927295,-1.851521,-0.13307735,1.9362938,48
1199,-2.042461,-0.36831725,-0.32349432,0.1372759,-0.07845646,0.9387585,49
1200,0.54674435,0.404741,-1.2661119,-0.9320868,1.1157014,0.31519526,0
1201,0.025118798,-0.54493225,-0.3601535,1.4719517,-0.29774278,1.3655335,1
1202,0.9471555,-1.7836992,-2.0053391,1.2810688,0.48902377,0.06331444,2
1203,0.53227776,1.4650233,-1.1440114,-0.20550483,-1.9221146,-0.7699643,3
1204,-1.9493101,0.77511865,0.5049058,-0.604391,-0.01632908,0.56649584,4
1205,0.5940927,-1.119666,-1.3269525,-0.72505677,-0.21636781,-0.42753363,5
1206,0.2439372,-1.7564517,1.3275237,-1.4095433,-2.0032814,0.95717627,6
1207,-0.7003486,1.7919784,-1.2342055,-0.92349327,-0.7882573,-1.2143867,7
1208,0.9018417,-1.7784557,-0.9797636,-1.0422578,-1.404323,0.84257275,8
1209,0.8060925,-2.177906,-0.39205402,0.07583727,-1.2096674,-2.1920848,9
1210,-0.103610896,-2.1684809,-1.4180071,0.06813517,-0.9977584,2.4889526,10
1211,-0.5623615,-1.4159982,-1.6944108,-0.39104462,0.22852184,1.2315214,11
1212,1.2098109,3.5681674,-3.0513208,0.05159062,0.8906423,-0.5499342,12
1213,0.8940238,0.4618473,-1.2061787,1.3999116,1.2262001,-0.44761825,13
1214,1.6144785,2.0506012,0.62949616,0.31232977,-0.8322997,0.9445204,14
1215,-0.45060462,0.51163185,0.69557536,-0.9746246,-1.5067768,-0.18714619,15
1216,1.768661,0.20620035,-0.5402672,-0.3777609,-1.6325369,1.2472639,16
1217,-1.2333885,-0.65107256,0.63102025,-0.045205683,-0.55337596,-0.6365912,17
1218,0.016290817,-2.3081245,-0.76186264,1.3219849,-0.32322407,-0.5290178,18
1219,-1.0882379,2.2419782,-0.39854705,1.0991366,-1.5083936,-0.7163068,19
1220,0.38215417,-2.03762,1.0941823,-1.0609525,-0.18613368,-0.9235822,20
1221,0.65806586,-0.4188285,0.20194443,-2.4198534,-0.62146837,-1.604789,21
1222,2.715298,-0.53370917,-0.5227108,-1.408511,-0.9053625,0.41912398,22
1223,0.45368144,-0.63829255,-1.2736146,-1.1057545,-0.14210719,0.16626036,23
1224,-1.6784331,-0.06930983,-0.62735873,-0.44905084,-0.46833768,1.3227458,24
1225,1.2465466,1.7438247,-2.2002966,-0.3201427,-1.699981,1.9624174,25
1226,0.7373079,1.3084232,-0.35588622,-1.0346732,-1.2466098,0.6177851,26
1227,-0.014485791,-4.1547985,-1.2893875,-1.2431941,-0.7332511,1.8651047,27
1228,0.003294006,2.1252196,-0.7993573,0.899052,-0.5896335,1.9516776,28
1229,-0.7940354,0.16472875,-0.46182588,-0.4417668,1.2206984,-0.7082131,29
1230,-1.001251,0.60645324,-1.3595693,1.2110748,-1.6770933,0.22566819,30
1231,3.1220584,1.695461,-0.76388335,-0.339844,-0.6153036,1.0928319,31
1232,-0.14114225,-0.19267425,-1.4263436,-2.2619581,0.056705058,-0.21351175,32
1233,1.4483535,-0.048554897,-0.45069668,1.3162887,-0.50854015,1.6796492,33
1234,-0.7448089,-3.3967001,-1.833266,1.2331398,0.25922543,0.5511691,34
1235,-1.0097687,1.8684845,0.21409696,-0.7157061,-0.9603274,0.76676524,35
1236,1.7577982,0.13541551,-1.5178777,-2.1004786,-2.269301,0.38651872,36
1237,-2.3854296,-1.3617227,-0.3551547,-0.73058337,0.051905364,-0.5525512,37
1238,-0.43199068,-3.2493963,-0.45649382,-0.1119608,-0.5586537,1.7176791,38
1239,1.5904881,-2.1547885,-2.058632,-1.1789073,-0.14078215,0.1432661,39
1240,0.7946477,1.6678972,0.2409828,-2.139141,-0.40669584,-2.2258384,40
1241,-0.3223753,3.5346029,-2.1416216,1.6978402,-2.4443614,1.0399065,41
1242,-1.3436819,0.08095325,0.09703845,1.4006839,-0.23380435,-0.5468893,42
1243,-0.85634196,-0.7132251,-0.56911564,-2.021994,-0.2318017,1.3531275,43
1244,0.7483933,-4.50173,-1.6584449,-0.39202422,-0.91990316,0.2852009,44
1245,1.2321199,3.313682,-0.10354519,0.7075261,-1.4785036,0.15014097,45
1246,0.17627513,0.8953775,-1.7174764,0.63211405,-2.050766,-1.1697142,46
1247,-0.68738186,-1.3150083,-0.54214394,-0.998478,-1.3605278,0.17110398,47
1248,-0.90963274,0.8811531,-1.326145,-0.8888891,-0.03758955,1.2644167,48
1249,-1.3859637,2.5234048,-0.35456735,0.91085005,-0.7092671,0.2727514,49
1250,1.6704322,0.09479529,-0.7180592,-1.0234625,0.14406905,0.10442558,0
1251,-0.14505683,-0.64689696,0.4999982,1.0360692,-0.86558497,0.61230445,1
1252,0.8896738,0.37058362,-0.11276582,0.47021908,-0.3832149,-0.18349856,2
1253,1.2805643,0.7540375,-0.7448476,0.7750131,-1.2836719,0.81148976,3
1254,-2.1914637,1.8725255,0.3815254,-0.7884271,-0.3518081,0.9314207,4
1255,1.2789195,-0.38190955,-1.5765457,-0.26926512,-0.001749672,-0.546417,5
1256,1.389601,-2.0243483,1.1624864,-1.0206873,-1.4057202,1.0832282,6
1257,-1.0460584,0.884446,-1.3095407,-1.3569772,-1.0276793,-1.9011794,7
1258,0.57383895,0.6544173,-0.058739424,-1.1372032,-1.4029849,0.47002405,8
1259,0.30868572,-2.0528057,-0.6338489,-0.22169095,-1.1172129,-1.9743145,9
1260,-0.15659755,0.9686272,-0.21456552,0.3112729,-1.3570647,0.11165798,10
1261,-0.8144073,-0.047138482,-1.5021276,-1.0566666,-0.29489976,1.1673752,11
1262,1.0969822,2.432755,-1.0956911,-0.38198403,0.8935107,-0.5155693,12
1263,1.0915612,-0.5073988,-0.38055134,0.28650486,-0.26960084,-0.61711293,13
1264,1.1127021,1.8376427,0.34187138,-0.60928345,-1.6399174,-1.4256446,14
1265,-0.4028175,-0.34782434,0.34148705,-1.35591,-2.691383,0.17918986,15
1266,2.1180878,-0.06338209,-1.1034989,-0.19565473,-1.3375725,1.0448022,16
1267,-1.4035299,-0.02297324,0.08952397,0.20739846,0.3896068,-1.1693568,17
1268,1.3356597,-1.0974715,-0.38318625,1.347957,-1.4816266,1.2553089,18
1269,-2.440012,0.3685755,-1.5002761,1.2087319,0.7832895,1.1063968,19
1270,0.7493744,-1.8714001,0.5640853,-0.97440946,-0.54231226,-1.2373623,20
1271,0.9678387,-1.6485593,-0.6183166,-2.0862923,0.15883048,-1.4444454,21
1272,1.0472975,-0.7341089,0.21774845,-1.1989801,-0.9309393,0.1858199,22
1273,0.2713338,3.0465205,-0.030015945,-0.99606794,-0.09564355,0.06216289,23
1274,-1.5841873,0.52088976,-1.6552099,-0.8518224,-0.82413614,2.0949945,24
1275,1.1412128,1.818346,-1.47641,-0.33529502,-1.263472,1.4620197,25
1276,0.49470776,-0.654433,-1.152705,-0.4318641,-0.78859985,1.3381367,26
1277,-0.7111035,-3.9099262,-1.3870997,-1.4221706,-1.0742054,0.75995433,27
1278,0.32903486,-0.01624763,-2.3526917,0.869992,-0.32147658,0.97512674,28
1279,-1.1206822,0.5692456,-0.3104418,-1.2013717,0.19715366,-1.1328042,29
1280,-1.5987735,-0.21093382,-0.9902603,1.3426181,-0.6767361,-2.331183,30
1281,1.4123833,0.6443431,-1.206084,-0.79671425,-1.3474032,1.3143197,31
1282,1.7888899,0.0013692379,-1.1820742,-1.8480394,1.1594,0.015094809,32
1283,0.524384,-1.257175,-0.80018944,-0.06472057,-1.8124282,0.0076096654,33
1284,-0.53899544,-0.9141205,-0.9560119,0.1507625,-2.0060754,0.7343152,34
1285,-0.9778125,1.5832198,-0.22346503,-0.5378242,-0.27548558,1.3598332,35
1286,0.6220285,1.1538842,-2.278244,-1.8858304,-1.7632452,-1.9424691,36
1287,-2.9088924,-0.7769778,-0.7604502,-1.0539677,-0.81688404,-0.50377005,37
1288,-0.3954855,-3.271258,-0.7814059,0.29467392,-0.39911455,0.31932878,38
1289,0.3595909,2.0961783,-1.3804052,-0.8389221,0.511531,-0.37491193,39
1290,1.336983,1.6224569,-0.6631596,-1.4271698,0.09014109,-2.0355334,40
1291,-2.308354,0.83556306,-0.31599623,0.84482247,0.084748745,0.2291429,41
1292,-1.6047165,2.0683897,0.96081114,1.469565,0.9177786,0.47669068,42
1293,-0.17396447,0.48950863,-1.042678,-1.0998799,-0.058428854,2.2710025,43
1294,0.699129,-2.5817866,-1.3204991,-0.19043219,-0.5580487,0.3185683,44
1295,0.4536941,0.7749175,-0.65578437,0.47877803,-1.4536005,-0.149899,45
1296,-0.46105254,4.8328724,-0.85064244,0.99531806,-1.3970817,-1.0439686,46
1297,-0.47111464,-1.8905122,-0.7371597,-0.33773,0.45129284,-0.21651813,47
1298,0.47345024,0.8882093,-0.38057667,-1.1969285,0.5277363,1.0069444,48
1299,-0.9004966,0.25966084,-1.0317309,1.5650147,0.88423663,0.35390052,49
1300,0.51269746,0.3248034,-0.17485371,-1.2318416,0.2602522,0.027672574,0
1301,-0.15451162,0.0528692,0.36100107,0.6891992,-1.3805277,1.0711823,1
1302,-0.09689459,-0.14523256,-0.5329525,0.84145397,0.9149465,-0.70753264,2
1303,0.8205725,2.3007174,-0.43654394,1.0876027,-0.8161081,0.5153538,3
1304,-2.5602496,0.4124809,0.081582226,-1.1115203,-0.8325542,1.0001538,4
1305,0.28217244,-0.33760858,-2.477388,-0.2938345,-0.16967343,-0.298255,5
1306,2.5184164,-2.027994,1.4073582,1.0298378,1.0122008,1.907865,6
1307,-0.11818578,1.1836033,-1.3495411,-1.0921252,-1.1073972,-0.9108794,7
1308,1.0657252,0.993384,0.59821004,-0.9557148,-1.6022415,1.5661187,8
1309,1.2794185,-2.4162424,-0.87290186,0.5925812,-1.1135,-1.4094212,9
1310,-0.081035994,0.5667051,-1.6781058,0.1708321,-1.6518875,-0.56585383,10
1311,-0.33004013,-0.8702589,-0.5463055,-0.41175845,0.32193524,1.2723292,11
1312,2.0505328,2.834374,-0.79345053,-0.6722364,0.6643535,-0.6357006,12
1313,1.2378081,-0.086607695,-0.76188785,0.35039878,-0.45915982,-0.74666226,13
1314,1.5804336,0.74875534,-0.75902784,0.16868317,-0.7704731,0.6672844,14
1315,-1.149395,0.1518562,0.051559806,-1.4699588,-2.3125713,-0.14440393,15
1316,2.2897909,0.49932182,-1.124461,0.042429328,-0.6312759,2.449279,16
1317,-1.3906784,-0.8576078,0.7945775,0.022795707,-0.34764302,-0.4937005,17
1318,-0.38122535,-1.2654703,-0.6498334,-0.79663515,-1.718807,-3.7068167,18
1319,-1.5469033,-1.2183671,-1.3082614,0.2263676,-1.2111984,1.183784,19
1320,0.83503306,-2.061068,0.2848627,-1.7724025,-0.73429614,-1.3190837,20
1321,-0.96819806,-0.16572088,1.109878,-1.382952,0.11851691,-0.6004817,21
1322,2.887971,-0.61002034,0.21939464,-0.60756695,-0.14275235,1.7566584,22
1323,1.0268941,3.862808,-0.52694494,-1.6698782,-0.53063625,-0.017770484,23
1324,-1.6984538,1.5575256,-0.86189574,-0.66330767,-0.87736017,2.3176453,24
1325,1.5125016,-0.19686371,-2.487495,0.37337345,-0.025370836,1.2308304,25
1326,0.52988356,-0.82817054,-1.7513626,-0.82677376,-1.2820553,0.004545033,26
1327,-0.27104104,-4.2018957,-1.2703722,-1.1334248,-0.808064,1.4122052,27
1328,0.04146467,1.5626076,-0.99810016,0.6386488,-1.106365,0.576964,28
1329,-1.1049932,-0.55377316,-0.8464218,-0.7569485,0.35978886,-0.6410398,29
1330,-1.687779,-1.7962341,-0.288014,0.54474354,-2.0267568,-1.0816112,30
1331,2.6969695,0.12631029,-1.6560011,-0.24845892,-0.75310975,1.6369634,31
1332,1.2009869,0.6453167,-1.4934037,-1.73418,0.49884263,-0.240983,32
1333,1.537869,-0.9051361,-0.63133264,1.2290537,-0.5158765,2.256791,33
1334,-1.0951737,1.4432609,-0.7961408,0.03704679,-1.0591166,0.67686754,34
1335,-1.1344448,2.6654315,0.059763968,-0.3857755,-0.4223023,1.0333612,35
1336,0.7033346,2.1569304,-0.9706111,-2.1367323,-2.1110716,-0.4856916,36
1337,-2.686386,-0.93322,-0.46566233,-1.0645,-0.12998936,-0.31956723,37
1338,-0.6529598,-2.724272,-0.6792227,-0.033518024,-1.3794515,0.55982864,38
1339,0.1330998,2.3485289,-1.7471546,-0.9465791,0.43635142,-0.5232898,39
1340,0.45676655,0.7729132,0.6897303,-1.4680027,-0.346218,-2.0029995,40
1341,-1.1308434,0.5621077,-1.273329,1.3697416,0.099053144,-0.08589971,41
1342,-0.8738233,-0.7865191,-0.7628103,1.5684173,0.6301111,0.5343384,42
1343,-0.9827018,1.0181452,-0.16944486,-2.0880456,-0.65591663,1.3519611,43
1344,0.38854888,-3.3967159,-1.7314137,-0.17393735,-0.8365034,0.31823516,44
1345,1.2338393,1.1394093,-1.3181138,1.5987458,0.2280289,0.6240176,45
1346,0.02510453,5.6967998,-1.1846342,1.6513948,-0.6129532,-0.14535134,46
1347,0.1133416,-1.601277,-0.20262542,0.07935819,0.56323624,0.32561678,47
1348,-0.5452682,1.5812007,-0.8227215,-1.6499766,0.13115223,1.7341676,48
1349,-1.785095,1.136488,0.44167268,0.63601625,-0.44523904,0.1156836,49
1350,0.06320953,1.122162,-0.2107648,-1.7205281,-0.24188341,-0.11070539,0
1351,-0.30537862,-0.8903996,0.32117945,0.6868231,-0.859787,1.2090575,1
1352,0.12563282,1.459783,1.0544957,0.58546513,-0.22706205,-1.1775708,2
1353,1.3057064,2.3126054,-0.69538975,0.6487366,-1.116922,0.48242998,3
1354,-1.9999789,2.8323178,-0.68554765,-0.8773211,-0.357513,0.2834677,4
1355,0.71237904,1.4049125,-1.1352975,-0.19576561,-0.029037371,-0.552204,5
1356,0.35712734,-1.9963806,0.9983126,-1.6139686,-1.5764766,0.691625,6
1357,-0.5532099,0.49121928,-1.4344287,-1.1812462,-0.97738314,-1.1450529,7
1358,1.5006326,-0.27215794,-0.43252805,0.40670127,0.7208069,1.2506919,8
1359,0.23275775,-1.8955557,-0.5623909,0.10720356,-0.93268466,-2.2284932,9
1360,-0.1650213,-0.9933406,-1.0625131,0.7016375,-0.9028037,-0.043175876,10
1361,-0.10920057,0.74928427,-0.54116666,-0.043261886,0.5727166,1.8192029,11
1362,2.5166187,3.8323512,-0.9447193,-0.976707,0.41689196,-0.81180555,12
1363,0.8149856,1.6135687,-0.8344908,0.24578127,-0.11505219,-0.64482015,13
1364,1.3339314,2.0474014,-0.04521984,-0.29179975,-1.4545903,-0.5597564,14
1365,-0.63996255,0.23382719,-0.042566895,-1.1540291,-2.0512702,-0.41043317,15
1366,2.102957,-1.5123672,-0.49974537,-0.3548598,-1.1489279,2.3770313,16
1367,-1.8197198,-1.9478805,-0.06529018,-0.22285238,-0.19263218,-0.7446659,17
1368,-0.2577428,-2.406136,-0.7362223,0.91777635,-0.33403003,-0.8117957,18
1369,-1.6403414,3.276528,-0.9967068,1.3139439,0.49597555,0.96981865,19
1370,0.63920045,-2.291284,-0.014439046,-1.9466448,-0.8311818,-1.4173712,20
1371,0.7079972,-0.69351673,0.48474896,-1.4817586,0.29524678,-0.8932272,21
1372,2.340246,0.048146203,-0.54491466,-0.3537984,-0.010388434,1.2410235,22
1373,0.011524141,0.114197254,-2.2735655,-1.1845765,-0.41127175,-0.12702422,23
1374,-1.6720871,0.9971322,-1.2418034,-0.573103,-0.52540433,1.2375448,24
1375,1.8948412,1.1733316,-1.7040861,-0.41150594,-1.6682831,2.5812402,25
1376,1.0682571,1.4101082,-0.0937832,-1.4546332,-1.9036201,0.79296136,26
1377,-0.5083922,-3.9529235,-0.7909614,-1.8220848,-1.0606952,0.7314136,27
1378,0.12582132,1.5704192,-1.6421098,0.84612966,-0.59387267,0.6715868,28
1379,-1.1961817,2.0586057,0.8150102,-0.8259449,0.5029826,-0.9119902,29
