,locs0,locs1,locs2,locs3,subject
0,-0.16632825,0.89223886,-1.2055185,0.22474247,0
1,1.3388228,0.48036736,-0.053985327,2.070269,1
2,0.27445123,-0.3830219,-0.16714692,0.3503284,2
3,-0.10783756,-0.75635433,-1.5532241,2.7527764,3
4,1.0118513,-1.5492518,0.16950154,1.3412473,4
5,1.3602254,-0.17051312,-0.87847596,1.4371903,5
6,-0.06492613,-0.84319025,0.303704,1.6328639,6
7,0.6143157,0.5220581,-0.57850206,1.4339203,7
8,1.1362418,-1.425355,1.3787246,0.9751468,8
9,1.4035788,-0.97033024,-0.066532165,1.7600732,9
10,-0.18017393,-1.6842942,-2.0716257,-0.4845652,10
11,0.7127421,-0.39438626,0.36729488,1.5000868,11
12,0.736617,-0.517086,-1.0881371,1.9095249,12
13,0.7921537,-0.07500462,-1.2996153,1.1406586,13
14,1.3635578,-0.7139383,1.6060832,1.7656221,14
15,-1.6028711,0.015992165,-1.3605541,1.3658676,15
16,1.3388373,-1.203953,0.24624556,1.2054445,16
17,0.5556841,1.4997936,-1.9600909,0.9052774,17
18,0.9771776,0.16676132,0.14665613,1.4339811,18
19,0.6283427,-2.388649,-0.11591852,0.5095782,19
20,1.2346077,-1.1604098,1.1060998,0.8014141,20
21,0.6232563,-0.85119796,0.30900753,0.61326426,21
22,1.332103,-1.160938,-0.20247352,1.6425352,22
23,1.9733317,-0.105866075,0.06310791,2.3057466,23
24,-0.07533789,-1.0994692,-0.4927137,1.1696424,24
25,0.56384516,-0.81128883,-0.606649,1.2995989,25
26,1.2786915,-0.02339834,0.43204796,1.289234,26
27,-0.6566475,-0.35724068,-1.8808398,1.2673092,27
28,1.5498948,-1.2004433,0.7152126,1.7463768,28
29,0.89955044,-0.5528355,-0.4355458,1.0600224,29
30,-0.07639694,1.295914,-1.7418146,1.1448599,30
31,0.45624185,-0.76738083,0.5278711,1.5600667,31
32,-0.5721954,-0.7517435,-0.09012307,0.38253862,32
33,0.6071276,0.9494251,-1.8134067,1.8172073,33
34,0.6871762,0.16578548,-0.9968822,0.20750636,34
35,0.24747306,-0.9516392,0.23121257,1.6351588,35
36,0.5525763,-1.2780842,0.27350134,0.49212265,36
37,1.3826007,-1.1879274,1.4721236,1.3189154,37
38,-1.0545713,-0.8846479,-1.0455669,0.2616511,38
39,-0.93525,0.021970212,0.59304774,1.3575323,39
40,1.5267199,-0.70991087,0.7995909,1.6614743,40
41,1.6246161,-0.41775072,1.725672,1.0145442,41
42,1.2371397,-1.1097622,-0.43379682,0.99802005,42
43,1.152423,0.49443394,0.78237337,1.6804825,43
44,-0.5015659,0.006205246,-0.3548143,0.8761142,44
45,1.5230664,0.1221517,-1.4800665,1.317733,45
46,-0.22511458,-0.23990652,-0.6078275,0.015858412,46
47,-0.23294389,-0.6562988,-1.207205,0.8291207,47
48,0.47105724,-0.69911015,-1.1602651,0.19450808,48
49,0.49960896,0.3351532,-0.7906802,1.8273809,49
50,-0.9762908,0.103964984,-1.6081591,0.26875377,0
51,-0.15789658,-0.33595756,-0.97049606,-0.08230823,1
52,0.60654217,-0.7077254,-1.0038451,1.5133749,2
53,-0.062205553,-0.7978164,-1.8720319,1.1171548,3
54,1.4433337,-0.85409737,1.3397102,1.0578341,4
55,1.3328526,0.32409737,0.25098014,0.5750448,5
56,-0.2519256,-0.35561663,1.4107819,1.90765,6
57,0.091247715,0.04884115,-2.9953084,0.16644311,7
58,0.7493025,-1.8619155,0.23454791,0.15346247,8
59,1.1612858,-1.1853772,0.045547128,1.2700663,9
60,0.97024226,-0.45770508,0.2194025,0.83659714,10
61,0.21877006,-0.8111583,-0.29447198,1.6103692,11
62,0.10513732,-0.56390023,-0.8321165,0.009484291,12
63,-0.2597363,-0.16882613,0.4459536,2.2355757,13
64,0.65038157,-1.2480949,0.72377765,0.6480092,14
65,-0.60447043,0.52244914,-0.8192953,2.0777826,15
66,1.2137921,-0.8672425,0.86135346,0.97014403,16
67,0.8008721,1.8933009,-1.5734608,1.2661475,17
68,1.2495472,0.02341123,-0.34158835,1.565861,18
69,1.5951148,-1.7881662,0.8613289,0.63869786,19
70,0.83426857,-0.8599016,1.6090158,0.76798695,20
71,1.5562274,-1.1070671,-0.45032582,1.6027911,21
72,0.78696334,-1.0377282,-0.06784654,1.2719778,22
73,1.5061185,-0.138134,0.080429494,3.068006,23
74,0.04967898,-1.594136,-0.94541264,1.2224245,24
75,1.5559602,-0.27657163,-0.39104244,2.2741036,25
76,1.0790552,-0.55909014,-0.6301469,1.1248794,26
77,-1.0161545,-1.1868637,-3.2525806,1.104903,27
78,1.4491285,-1.0667727,2.0398872,1.5247655,28
79,0.67441505,-1.3591659,-1.9594855,1.6234221,29
80,-0.4479185,1.3023598,0.33905596,0.63835084,30
81,0.93266696,-0.64085716,0.24389166,2.590786,31
82,0.10246426,-0.4951828,-0.42043817,0.08482492,32
83,-0.2640295,0.20387113,-2.4627883,0.2973469,33
84,0.4181125,0.07428931,-0.844864,0.5607611,34
85,0.7791499,-0.6733056,0.54598147,1.2240734,35
86,0.36939317,-1.3143544,0.21907666,1.005639,36
87,2.5430007,-0.92135495,0.77578133,2.6846802,37
88,-0.84407103,-0.42656595,-0.20337419,0.44943893,38
89,-1.4330103,1.0247906,-0.085202575,1.0586823,39
90,0.6273836,-1.5282485,-0.4582218,0.75379264,40
91,0.5845695,-1.8768423,-0.7939984,0.4667437,41
92,0.38416624,-1.8684081,-1.7120094,0.43145174,42
93,-0.07207471,-0.79513156,-1.2162912,2.0664978,43
94,0.63066417,0.78138703,-0.40839827,2.382074,44
95,0.8542444,0.8437114,2.0439267,3.0863338,45
96,1.2403574,0.26703426,-0.8411179,0.787907,46
97,1.2071505,0.5058088,0.33344615,2.1211853,47
98,1.3903027,-0.066211104,0.7922863,1.9787948,48
99,1.5437062,1.0356196,-0.35527006,0.49379253,49
100,-1.316127,0.22117889,0.5644369,1.0817086,0
101,0.6826831,0.4208666,-0.06520504,0.9504616,1
102,-0.89262414,-1.600776,-2.0780227,0.032001734,2
103,0.5028464,-0.3930179,-1.2947425,1.14877,3
104,1.1541257,-1.6099,0.40903848,1.0188066,4
105,0.8764082,-0.3211578,-0.91680086,0.5186343,5
106,-0.5826378,-1.0503839,0.4655771,1.6836827,6
107,0.011277049,0.26509774,-0.4791337,0.8642534,7
108,0.7212144,-1.2138036,1.2255764,0.702994,8
109,1.1644213,-0.16258681,2.4017189,1.2387966,9
110,1.0971998,-0.24651945,0.64242715,0.9078425,10
111,0.5291353,-0.5416717,0.24443886,2.1105266,11
112,0.41685754,-0.16772749,-0.48649886,1.173492,12
113,-0.31926233,-0.4641772,-0.6154983,0.9224258,13
114,1.1481405,-1.8613725,-1.7159438,1.7463045,14
115,-0.47290662,0.38758478,-2.4796433,0.31735855,15
116,0.57138634,-1.5654622,-0.36143094,1.3474188,16
117,-0.41235295,0.58829755,-1.8666589,1.5357597,17
118,0.4203779,-0.46090186,-1.0237503,0.6130597,18
119,1.5547483,-1.3090703,1.9420166,1.0231494,19
120,1.6272682,-0.37266088,2.2959645,1.038822,20
121,1.3841593,-0.7334051,0.5304405,1.4801309,21
122,0.31023318,-1.3931692,0.4071622,0.5801105,22
123,1.3553326,-0.09711659,0.21422297,2.0961554,23
124,0.66679233,-0.8533155,-0.04618442,1.0538458,24
125,0.6626952,-0.59282905,-0.30441064,1.0121465,25
126,0.60613257,-0.76333743,-0.35423648,1.7749522,26
127,0.2846737,0.33119237,-0.2344451,1.7169362,27
128,1.4961896,-0.962304,0.7636248,1.4703283,28
129,0.18379867,-1.0482893,-0.8874691,1.4209416,29
130,-0.014892578,1.142755,-0.07756966,2.2558513,30
131,-0.01757595,-0.9157238,0.10925466,0.5002899,31
132,1.0179632,0.47218317,1.0502558,0.3406332,32
133,-0.58789784,0.46706277,-0.88364285,-0.09132552,33
134,0.761495,0.37228775,-0.6954286,0.27017784,34
135,0.035222113,-1.626014,-0.5696133,0.5106566,35
136,1.5958905,-1.3353425,-0.32006222,1.6409533,36
137,1.2746595,-1.2781924,0.5987137,1.1407262,37
138,-0.26772654,0.13735834,0.18898836,0.4953947,38
139,-1.0940505,0.89152336,0.19143486,1.1578455,39
140,0.016637385,-1.3736728,0.35294205,-0.29451406,40
141,1.4389923,-0.34277922,2.2946227,0.975682,41
142,1.3234601,-1.2660128,-0.7377581,0.7858121,42
143,0.3876826,-1.0502136,-2.5507793,1.2400447,43
144,0.27833918,0.15690945,-1.8280053,0.7178137,44
145,-0.26542342,-0.60710585,-1.2839272,2.1474137,45
146,0.4652616,-0.07922685,-1.1953721,1.2478938,46
147,0.3923725,-0.28874177,-0.9229983,0.9600215,47
148,-0.2783277,-2.045796,-2.9256787,0.38989872,48
149,-0.93095416,-0.40409377,-0.7616843,1.16696,49
150,-1.0657701,1.1675172,-1.2898701,0.036790133,0
151,0.41655353,0.007931709,-0.29159027,0.9582706,1
152,1.7353663,-0.22048962,-0.93031454,1.2655478,2
153,-0.7456679,-0.58025986,-0.2819847,2.701231,3
154,1.4620243,-0.8068135,1.3500848,1.282586,4
155,0.6409766,0.041485876,0.42987293,0.41728026,5
156,0.6770861,-0.4288105,0.9216599,2.412255,6
157,-0.29060254,-0.047321558,-1.2393845,1.8001741,7
158,1.9146402,-1.198776,1.0693431,0.8502877,8
159,1.3960422,-0.5741129,0.666421,1.2305926,9
160,0.9479214,-0.48352194,0.55924606,0.80522823,10
161,1.783113,0.59254146,1.9217428,2.8729935,11
162,-0.5960952,-1.1251926,-1.355004,0.5574498,12
163,0.056865484,-0.7229198,-2.1795692,0.5084751,13
164,-0.012778997,-1.782559,0.2495785,0.12045026,14
165,-0.23104836,0.7244691,-1.9186945,1.3425869,15
166,0.2521668,-1.2083194,1.1209203,0.7335205,16
167,-0.23210892,0.87304175,-1.0611604,1.4487244,17
168,0.2658054,-0.2556591,-0.55960506,1.3900418,18
169,1.8920376,-1.551131,0.6227414,1.1018453,19
170,0.24689955,-2.052997,-0.74244857,0.2533968,20
171,1.4795887,-0.60091925,0.34235612,1.2279096,21
172,0.70587075,-1.0515776,-0.2960242,0.9540629,22
173,1.0399064,-0.95756865,-1.6868,1.479888,23
174,0.5474993,-1.0289526,-0.42583317,1.3653672,24
175,0.61435735,-0.6734351,-0.45064354,1.1679881,25
176,0.1720972,-1.2996259,-0.9982457,-0.25992048,26
177,-0.010831833,0.10263002,-0.8583976,2.1620746,27
178,1.2742432,-1.2865517,0.62208736,1.031304,28
179,0.36229652,-1.4185963,-1.8692421,1.1908984,29
180,-1.2423854,0.25645623,0.78709596,2.4098382,30
181,-0.03745362,-1.0549853,-0.2498964,1.2317634,31
182,0.100037575,-0.56034976,-0.6404523,0.020727038,32
183,0.08288561,0.89744437,-2.405739,1.6916258,33
184,-0.88558537,-0.6561876,-0.8597715,0.59844714,34
185,0.30564427,-1.2891502,-0.74551404,1.0139542,35
186,-0.5239935,-1.6510012,0.6227213,0.06608963,36
187,0.9948025,-1.0011699,1.5512441,1.1975868,37
188,0.017376326,0.12385261,-0.20058143,0.28331888,38
189,-0.8589492,0.2118986,-0.15155864,0.71722174,39
190,0.912091,-0.24481773,1.924101,1.210459,40
191,0.83386713,-1.2991202,0.5314943,0.7635946,41
192,1.0754676,-1.2102213,-0.22359353,1.3322718,42
193,1.5758474,0.003852427,-1.2379878,2.5601506,43
194,0.33483848,0.5509519,-0.5788484,0.8516749,44
195,1.7337103,0.40554464,-0.758901,1.8258991,45
196,0.5831294,-0.32759324,-1.3864858,1.1711975,46
197,0.101216435,-0.117558666,-0.02238071,1.3273865,47
198,0.6944756,0.06958681,1.9702313,2.1495585,48
199,0.4847317,-0.23431388,-2.29238,0.82099843,49
200,-1.044045,0.10080439,-1.4466879,3.4305391,0
201,0.7134331,0.15987077,-0.5903659,1.7614753,1
202,-0.3136133,-0.7924038,-0.50277376,0.8852608,2
203,1.0987023,0.20491469,-0.70555145,1.375162,3
204,1.4976823,-1.3444241,1.5899696,1.4619654,4
205,0.116849065,-0.86357546,-1.0930454,0.26339167,5
206,0.39742965,-0.4508451,0.99288774,2.1768136,6
207,0.0784693,0.10741313,-1.7175107,0.7929717,7
208,1.352453,-0.54599327,3.1588297,1.3256211,8
209,0.9849894,-0.6722497,0.99160063,0.7756338,9
210,0.66128296,-0.3794303,1.1045504,0.88791513,10
211,0.6066614,-1.289942,-1.5477915,1.135386,11
212,-0.49347013,-1.228833,-2.0393229,0.47745752,12
213,-0.013946652,-0.42313215,-1.0241265,0.5513188,13
214,1.0829202,-1.0306368,1.2381363,0.91146505,14
215,0.49928117,1.1492102,-2.9208653,0.1973257,15
216,0.9443973,-1.2688471,1.7351689,0.92744327,16
217,-1.0635265,-0.08810341,-3.0136414,1.1956983,17
218,1.2922246,0.20034121,-0.20821388,1.5972431,18
219,1.8404542,-1.1434091,1.472828,0.58977187,19
220,1.3225688,-1.1919878,-0.017116606,0.88560766,20
221,0.9080573,-0.8113606,0.5628072,1.3165518,21
222,0.80380106,-1.485382,-1.379621,1.8151729,22
223,0.99572015,-0.25032955,0.31453395,2.030578,23
224,0.5026056,-0.747713,0.048442587,0.8069124,24
225,-0.32886744,-2.5483892,-3.7188058,1.5622332,25
226,1.5706551,0.38544923,1.3263856,1.6074861,26
227,0.09584582,0.17648774,-0.7224972,0.73494154,27
228,1.3818119,-1.1942384,0.3535517,1.5907414,28
229,1.1164547,-0.2043106,0.40817928,2.1183977,29
230,-1.8333465,0.04336536,-0.34584218,-0.53026927,30
231,0.5693912,-0.5802122,0.29247183,1.6360298,31
232,0.43476173,-0.08032704,0.5315208,0.84130746,32
233,-0.8755916,-0.35855252,-2.192143,0.8264899,33
234,1.0696495,0.5381638,-0.77593905,0.71567893,34
235,1.596082,-0.6416979,0.5768374,1.8064282,35
236,0.23828477,-0.9965317,1.7381601,0.62385124,36
237,0.069692254,-2.141752,-1.2003584,0.8796047,37
238,0.6050956,0.70774263,0.55211484,1.2194321,38
239,-0.99251395,0.50024253,-0.2309075,0.95103526,39
240,0.54081154,-1.2375869,0.026459545,1.3468238,40
241,1.7433889,-1.0283304,0.28824052,0.92889476,41
242,1.5430365,-1.4760734,-0.78521234,0.7239654,42
243,0.18059963,-0.10693744,-0.30540472,2.629105,43
244,-0.12676196,-0.04299496,0.17558789,2.5396717,44
245,0.21506307,-0.22719535,-0.7910536,1.3467004,45
246,0.53061086,0.17856745,-0.48802662,1.3088806,46
247,1.1318524,0.3759294,-0.56215084,1.7855207,47
248,0.28124523,-1.0781152,-1.3006312,1.1375239,48
249,0.4073354,-0.48582134,-2.3555443,1.4446138,49
250,-1.5200722,-0.30801624,-1.5643219,0.4939866,0
251,1.0727637,0.5288238,-0.12451914,1.0598614,1
252,0.5765055,-0.108281285,0.10608363,1.5288465,2
253,0.47212255,-0.2668883,-0.9333619,1.4193652,3
254,1.2324057,-0.34494913,2.2846067,1.0744007,4
255,0.6189601,0.181541,0.6192398,0.41773003,5
256,0.78336954,0.19196153,2.0233712,2.114734,6
257,-0.03053423,-0.07721186,-1.7150908,0.5757171,7
258,1.1100762,-2.0273957,-0.30915123,0.6331931,8
259,0.87412983,-0.7421103,0.12312633,0.78426313,9
260,1.3879728,-0.14405596,0.92352015,1.5392449,10
261,0.75515914,0.20388764,1.9046026,2.1419253,11
262,0.033504933,-0.54187745,-0.490103,1.6185545,12
263,1.2526646,0.2768223,-1.1250043,0.7222088,13
264,1.401902,-1.1905584,-0.19721472,1.25336,14
265,0.022914499,0.76885355,-1.2065887,1.556678,15
266,1.84774,-0.087377906,2.6740594,2.3273246,16
267,-0.49731243,0.3393673,-2.5908163,1.5493225,17
268,-0.038553834,-0.83758706,-1.4774561,0.12336975,18
269,1.1584221,-2.0685904,-0.25348866,0.5511587,19
270,1.5203793,-0.62592983,1.2762454,1.2628412,20
271,1.0997337,-1.1588246,-0.06184286,1.1610401,21
272,0.92270833,-1.3185157,0.07129705,0.8487386,22
273,-0.29382068,-1.1548815,-1.002268,1.3861458,23
274,-0.27753854,-1.0021918,-0.12053527,0.8399025,24
275,1.1752155,-0.43375775,0.0123307705,2.2360458,25
276,0.37607464,-0.694318,-0.13695714,0.6161734,26
277,-0.18281853,0.097733706,-0.05532229,2.5457368,27
278,2.0214076,-1.0621297,0.17225689,1.9469969,28
279,1.3210964,-1.1542432,-1.821629,0.39877248,29
280,-2.4807312,-0.4761876,-0.43811888,0.72429055,30
281,0.36398518,-1.0472009,-0.12761801,1.816322,31
282,1.0709989,0.23700722,0.34902468,0.75263345,32
283,0.87014085,1.5511831,-0.91798466,2.2966056,33
284,0.89114463,0.16613923,-0.75449955,2.1459458,34
285,0.56881547,-0.7768784,0.40558362,1.9297168,35
286,0.7299892,-1.1682286,1.2286592,0.6939546,36
287,1.4154081,-1.3844837,-0.23606128,2.0498266,37
288,-0.22387104,-0.45134968,-1.3386166,0.11631468,38
289,-0.3671614,1.4871283,0.25707877,1.0059595,39
290,1.6517735,-0.5672754,1.6099851,1.4259977,40
291,0.41273415,-1.8449883,-0.59559196,0.9998236,41
292,0.48799628,-1.1019237,0.5491419,0.82085997,42
293,1.0526209,-0.20981663,-1.0766015,1.9305515,43
294,-0.9118952,-0.6845568,-0.76925826,-0.09097022,44
295,0.05857539,-0.46450326,-1.1915846,1.8684251,45
296,0.46350652,-0.12875119,-1.0218012,1.8027251,46
297,0.9784256,-0.015514962,-0.96318716,2.036589,47
298,1.2719367,0.35950768,1.8498392,2.212462,48
299,-0.33538204,-0.018179819,0.049123526,1.5522865,49
300,0.012893081,1.0665879,-2.1533356,0.26313818,0
301,0.6238353,0.17085606,0.008555412,1.7145867,1
302,0.39392668,-0.8481062,-1.2501624,0.49185097,2
303,0.68261504,-0.070171684,-0.7049092,2.3712704,3
304,0.19140959,-1.415931,0.5788767,0.4821505,4
305,0.36588514,-0.6857705,-0.6292126,0.69737095,5
306,-0.4071999,-0.7523504,0.41365805,1.7752407,6
307,0.03406822,0.9061874,0.83374983,0.9342448,7
308,1.1754689,-1.2274734,1.6479816,0.8605106,8
309,2.288633,-0.9487077,-0.38380617,1.9630141,9
310,1.1039791,-0.90706813,-0.75316316,0.61345756,10
311,-0.019622386,-0.8460399,-0.21466313,0.9820498,11
312,0.4650135,-0.6764153,-1.7473391,-0.25081563,12
313,1.5571618,0.23230657,-1.5438153,0.6959257,13
314,1.6521995,-1.469577,-1.0815089,2.0580225,14
315,-0.5319862,0.48146656,-0.45625383,1.3767023,15
316,1.5680063,-1.3244195,0.61278963,1.4867151,16
317,-0.40394714,0.8871112,-0.09728944,1.2526745,17
318,0.4633899,-0.22078815,-0.79430234,0.41238147,18
319,0.16498363,-1.6539123,1.1933982,0.053222,19
320,1.2506472,-1.1836454,-0.04224813,0.96928585,20
321,1.8205509,-0.02151525,2.0762258,1.6639111,21
322,1.3584754,-0.22603238,1.26883,2.3731685,22
323,0.05053711,-1.3872237,-1.9669161,1.1024103,23
324,0.01655823,-1.1062214,-0.73080456,1.1343476,24
325,0.8943613,-0.72977537,-0.35164744,2.1020718,25
326,0.9319981,-1.004804,-0.8202845,0.3123219,26
327,-1.0869339,-0.38558474,0.20017171,1.7659653,27
328,1.0830461,-1.3200309,-0.53357166,1.2955154,28
329,0.55940014,-0.4148237,-0.00028309226,1.4105889,29
330,-0.80692416,0.18469706,-3.1079738,-0.16949344,30
331,-0.5175034,-0.9445963,0.5818671,0.5610285,31
332,-0.3476759,-0.80510396,-0.64349395,0.3254497,32
333,0.33088428,0.96936727,-2.4112492,1.3169321,33
334,0.13702044,-0.47813183,-1.4805253,0.8883364,34
335,0.95384973,-0.40387195,0.9049373,1.6333036,35
336,1.5154952,-0.509257,1.6751091,1.1152962,36
337,1.604773,-1.0774894,-0.05789131,1.6510549,37
338,0.26937157,0.4102264,-0.59396887,0.63896614,38
339,-1.208157,0.35712963,-1.5617818,1.2927059,39
340,1.6508086,-0.54846466,0.86290294,1.3561563,40
341,1.0262359,-1.0414671,0.5935973,1.2578225,41
342,1.4523335,-0.46460974,1.6658607,0.962194,42
343,0.67897844,-0.37809807,-1.258803,0.79407215,43
344,-0.5553312,-0.54862815,-2.0868874,1.3033811,44
345,1.4643226,-0.11547208,-1.6666832,1.1345109,45
346,0.55896604,-0.04016693,-1.2993404,1.1488515,46
347,0.5543566,0.3361713,0.43094563,1.1449256,47
348,1.0247087,-1.0442868,-1.7790244,0.4275264,48
349,-0.20582956,0.5065334,0.230057,1.2639973,49
350,-0.9115885,0.2094912,-1.8626518,1.7283787,0
351,0.49776265,0.4035021,0.3883835,0.95121986,1
352,0.52995116,-0.22594705,0.115614474,1.382751,2
353,1.1073998,-0.4512088,-2.0927787,1.1051663,3
354,0.92562973,-1.6810541,-0.4712842,0.96308845,4
355,0.040806532,-0.29002145,0.36286634,1.5599678,5
356,-0.71520007,-0.6297451,0.7455901,0.7688743,6
357,-0.32693714,0.3720533,0.2924536,0.81529295,7
358,0.46805894,-1.9549689,0.39659953,0.3671203,8
359,0.90073,-0.5932951,0.74143344,1.1907669,9
360,0.2701003,-0.8126823,0.15220322,0.64687634,10
361,-0.46107823,-1.0406108,-0.11434549,1.4296678,11
362,1.2292261,0.45054877,0.34539485,1.4093107,12
363,1.110703,0.2785466,-0.377963,0.5908488,13
364,1.8514521,-1.217484,0.1593748,1.9610957,14
365,-0.9044826,0.44112697,-0.55077827,1.2008684,15
366,0.79645556,-1.5253812,-0.18247849,0.46184707,16
367,-0.5511847,0.33249342,-3.3676682,1.0432506,17
368,1.3637304,0.5775177,0.9318241,2.082842,18
369,2.0020092,-1.1018895,1.527067,0.9101947,19
370,0.48872083,-1.3932588,-0.3059196,0.19795537,20
371,0.7404318,-1.5061808,-1.3021203,0.58417803,21
372,0.75798255,-1.2980369,-0.5944458,1.7172563,22
373,0.5066043,-1.3738298,-2.1759787,0.60783744,23
374,1.7179172,-0.9414198,-1.249254,1.6595914,24
375,1.1710451,-0.37221295,-0.12279159,2.1461883,25
376,0.78555936,-0.25988495,0.77500844,1.8556726,26
377,-0.98667514,-0.974333,-2.3497987,0.88497055,27
378,-0.0384835,-2.1423588,-0.81641966,0.4290719,28
379,0.31106776,-0.742452,-0.17689222,0.99617404,29
380,-1.6008177,-0.06550324,-0.8822926,1.3024799,30
381,-0.7309903,-0.64329576,1.5124084,-0.024525762,31
382,-0.2875488,-0.689585,-0.3324429,0.73156315,32
383,-0.019193843,0.4091269,-2.7083158,1.2367791,33
384,1.021496,0.4155878,-0.95041037,0.95318985,34
385,0.62574315,-1.2306635,-0.80828273,1.6064186,35
386,0.4473192,-0.65349877,1.7402828,0.193699,36
387,1.3722688,-0.8296792,0.29852492,1.693562,37
388,-1.3918246,-0.71703,0.3083612,0.7123146,38
389,-1.3633447,-0.030021131,-1.8215936,1.3473866,39
390,0.8052117,-1.0331826,0.6576173,0.77738297,40
391,2.1154842,-0.007140875,2.584316,1.4188508,41
392,1.125155,-0.5001289,1.5042837,0.9140386,42
393,0.5874324,-0.293841,-0.96744984,2.243349,43
394,0.21086079,0.6057136,0.9842514,1.3285205,44
395,0.18466091,0.14349085,0.14910173,2.365501,45
396,0.40246838,0.70263636,1.2647007,2.14817,46
397,1.3743987,0.7513401,0.93502617,2.454008,47
398,1.429493,-0.103954494,0.05325988,1.6507895,48
399,1.268591,0.6907096,-1.1128715,-0.43398774,49
400,-1.2652429,0.67874634,0.74293077,0.5605013,0
401,0.14313468,-0.15639454,-0.34102887,1.0892133,1
402,0.9961952,-0.20121169,-0.23730493,0.584762,2
403,0.79434013,0.45981842,0.59298503,2.1076086,3
404,1.6005106,-0.9433111,0.8845804,1.3799644,4
405,1.0608785,0.4562271,0.5102298,0.39848006,5
406,-0.49716723,-1.1558844,-0.019686282,1.9355177,6
407,0.106365144,0.10602449,-2.5090332,-0.23250407,7
408,1.252034,-1.3130678,0.8461104,0.16898352,8
409,-0.056957424,-1.5598254,-1.3293388,0.83908886,9
410,0.7336547,-1.2762926,-1.4010007,0.45096233,10
411,1.0009989,-0.3029961,0.44611773,1.4682996,11
412,0.35642946,-0.37521395,-0.56166184,2.089594,12
413,-0.4433462,-0.8393192,-1.587025,-0.2311815,13
414,1.6117914,-0.64510727,0.5842777,1.7460585,14
415,-1.15753,0.25836042,-0.7364392,1.4320662,15
416,0.3420471,-1.8895905,-0.5133274,0.024669647,16
417,-1.0067457,0.32029963,-0.34921956,1.070855,17
418,0.5451912,-0.49867666,-1.0074859,0.5222783,18
419,1.4176936,-1.8029286,0.9733879,0.3108478,19
420,1.3012754,-0.7685288,1.181124,0.80647784,20
421,1.8526397,-0.5986514,0.95541525,1.6193627,21
422,1.7368739,-0.6482599,-0.015156001,2.4428246,22
423,1.3061899,-0.5113523,-0.21687931,2.1817155,23
424,0.5503523,-1.7592787,-1.4185474,1.3453476,24
425,0.08273381,-1.6753805,-2.3067508,0.82141924,25
426,0.27687222,-0.97124076,-0.6311685,1.0810627,26
427,-0.43771583,-0.067272246,-0.43030638,1.9877803,27
428,0.37225395,-1.7828197,-0.34171736,0.5458159,28
429,0.6523539,-1.599402,-2.51582,0.92956305,29
430,-0.48638517,0.81220865,-1.0225389,1.2288892,30
431,0.24550568,-0.60900986,0.9045266,1.0746906,31
432,0.87800205,0.099961594,0.3456474,1.2337959,32
433,0.042927504,1.1100886,-0.812456,0.5709219,33
434,0.17991456,0.46927005,0.5222165,0.6323096,34
435,1.2568742,-1.5350277,-1.6383148,1.4799497,35
436,1.1792566,-1.4122378,-0.13630325,1.2644427,36
437,0.80959314,-1.7242544,0.52722555,0.755672,37
438,0.09568829,-0.20090947,-1.2933966,0.68892103,38
439,-0.52756584,1.007556,-0.0231753,0.6075071,39
440,1.0629147,-1.1695821,-0.58015686,1.3377413,40
441,1.2176085,-1.0238318,0.5807469,0.6336477,41
442,0.95562625,-1.1498255,0.7299595,0.61016816,42
443,0.37017226,-0.06289217,0.35562676,1.3608708,43
444,-0.4676875,-0.46169406,-1.45743,0.8984651,44
445,0.7774375,-0.28458628,-1.7915902,0.8121419,45
446,0.715619,0.77006316,0.5228129,1.0294106,46
447,0.5098251,0.041460507,-0.620808,1.2799277,47
448,-0.16572732,-1.3303926,-1.1209109,-0.26116002,48
449,-0.597279,0.5710217,1.6350265,1.6485195,49
450,-1.5195837,0.41421556,-0.70112586,1.5108569,0
451,0.045398593,-0.27273938,-0.6392566,1.8179817,1
452,0.6455014,-0.5921496,-1.2129868,0.5264545,2
453,0.4702443,-0.43580434,-1.4722428,1.1732364,3
454,-0.28663945,-1.9819905,0.2832123,-0.011342406,4
455,0.5481581,-0.40959427,-0.35667318,1.2718176,5
456,-0.865232,-1.354104,0.15233696,0.75263596,6
457,-0.15197739,0.44721133,0.14092559,1.778486,7
458,1.9081386,-0.50941986,2.2536125,1.6022487,8
459,0.4782099,-0.8648621,1.1071799,1.3438675,9
460,2.0025673,0.6885272,2.8379786,2.4565856,10
461,1.3836552,-0.16505218,0.60458577,2.0924385,11
462,2.1712008,0.9502093,0.8451625,2.038722,12
463,0.2836388,-0.57181996,-1.8218951,0.21374637,13
464,1.5785543,-0.7600307,1.0359335,1.8724992,14
465,-1.1257381,0.7603469,-1.7804445,0.9861798,15
466,0.7070215,-1.2025995,0.4295255,0.9219155,16
467,-0.611996,0.87415314,-0.73394066,1.1504372,17
468,-0.2161187,-1.4593618,-2.5529823,0.6184838,18
469,1.0593868,-2.1111226,-0.018908858,0.43760252,19
470,1.0949346,-0.8332271,1.6388757,1.0296837,20
471,1.5070812,-0.9279479,0.28723443,1.6785629,21
472,1.9904492,-0.40037864,0.5435038,2.288702,22
473,1.07036,-1.221302,-2.1302862,1.9996412,23
474,1.2102679,-0.5813751,0.3458007,2.1747475,24
475,2.346085,0.010900557,0.4099065,1.7027402,25
476,0.7082447,-1.1472349,-1.6168399,1.0501987,26
477,-0.14356387,0.3011459,0.39024496,1.258957,27
478,1.3286308,-1.0701026,0.47740278,1.7488822,28
479,1.0610354,-0.26098028,0.16766012,1.8264346,29
480,-1.3757381,1.2043321,-0.047655165,-0.0059945583,30
481,0.57427895,-0.5618488,0.54527646,1.9971843,31
482,0.5715407,0.1471426,0.8391691,1.264795,32
483,-0.6967466,-0.63153917,-3.5756915,1.4974656,33
484,0.99774307,0.130311,-1.1801025,1.140008,34
485,1.6061127,-0.4521611,0.58786094,2.316637,35
486,1.8080595,-1.0363363,0.048722535,1.3451018,36
487,1.5200214,-1.1985337,0.33890283,1.3819759,37
488,1.2567253,1.139321,0.23599634,0.42063862,38
489,-1.8722451,-0.23267174,-1.7244185,1.1915014,39
490,0.4508289,-1.6393354,-1.5156562,0.77262324,40
491,0.8277128,-1.7126832,-0.8189685,1.2284921,41
492,1.6481166,0.07887089,2.6427493,1.5100057,42
493,1.1105285,0.01669383,-0.7507068,2.2143786,43
494,0.24029002,0.23161098,-1.5928674,0.98085177,44
495,0.54601115,-0.37350306,-0.9570193,2.208966,45
496,0.6136928,-0.051873296,-1.4452364,0.90601754,46
497,1.689361,0.4234781,-0.59519887,1.3493011,47
498,2.1029415,0.69103646,1.7183986,1.7982676,48
499,2.3183253,1.4791746,-0.2721594,2.2418318,49
500,-0.45326754,0.26769435,-2.4384985,0.9706533,0
501,0.5326434,0.09072425,-0.25497407,1.4957249,1
502,0.7188699,-0.560705,-1.0702616,0.47783375,2
503,0.7455078,-0.032425463,-0.26444244,2.3347383,3
504,1.3586028,-1.2282486,0.74638826,0.97631323,4
505,0.08776188,-0.64435863,-0.68701035,0.840099,5
506,-0.9385785,-0.6274048,0.9492929,1.3949192,6
507,-0.0014337227,0.4154536,-0.23179668,1.0579358,7
508,1.7137405,-1.7728155,-1.1500995,1.5407463,8
509,1.2974629,-0.8686565,-0.060064837,1.6417902,9
510,1.5177553,-0.54327655,-0.28700712,0.94122285,10
511,0.2359297,-0.79942876,-0.37479627,1.5647521,11
512,1.1823739,-0.42366874,-1.9051524,0.8357845,12
513,0.17652395,-0.31281334,-1.0845628,0.5643144,13
514,2.2664404,-0.85657537,0.24999145,1.7495191,14
515,-1.1498703,0.20271212,-0.85918486,1.3247952,15
516,1.4426279,-0.8056391,1.4161067,1.2770729,16
517,-0.31806654,0.74364424,-1.9235926,1.3810375,17
518,0.6042954,-0.5225236,-0.9111222,0.8876177,18
519,0.10372245,-2.1599555,0.9071164,0.8493321,19
520,0.61880004,-1.5784522,-0.2336855,-0.4877894,20
521,0.21264446,-1.4160028,-0.29619363,0.30889088,21
522,1.417842,-0.8327834,0.5734427,0.9685651,22
523,-0.9017084,-1.7767367,-2.062645,1.2295446,23
524,0.2922151,-1.3391762,-1.1142311,0.9014426,24
525,1.3258537,-0.33433902,0.14185059,2.9789023,25
526,0.7577186,-0.5563692,0.14879543,0.981485,26
527,-0.21300215,-0.36182576,-2.0717578,0.9905242,27
528,0.5328743,-1.239477,1.1851168,1.0979426,28
529,0.7015733,-0.40787998,0.27669477,1.9478498,29
530,-0.24326581,0.9610042,-1.3664775,0.76330835,30
531,0.72207963,-0.38984138,0.8612209,1.7726566,31
532,1.3612158,-0.13981839,-0.8517233,0.71804833,32
533,0.26356924,1.0226719,-0.49372208,0.09107852,33
534,0.66279984,0.6021045,-0.0005263686,1.4998326,34
535,1.5164995,-0.4508409,0.5098013,2.366838,35
536,0.79531944,-1.819066,-0.8462811,0.58913904,36
537,1.1482303,-1.430319,0.045916498,1.4671009,37
538,-0.20497392,-0.21649688,-0.83676374,0.33632764,38
539,-0.45169342,0.9721666,-1.0165794,0.7582793,39
540,1.0785549,-1.0670755,0.15960492,1.64642,40
541,-0.046846032,-1.621072,-0.18920761,0.58010983,41
542,1.0545572,0.09029925,2.6608224,1.5665553,42
543,0.6006394,0.03991738,0.20694727,1.2372291,43
544,-0.6488779,-0.3300432,-0.55308735,0.62009394,44
545,1.137701,0.58117616,0.512213,1.1043441,45
546,1.0379322,0.012712806,-1.5691601,1.5136313,46
547,0.12979025,0.13662493,0.2906903,1.0086915,47
548,0.8360128,-0.61077416,-0.9451164,0.3165232,48
549,-0.30528086,-0.5270759,-2.2107465,0.14752924,49
550,-0.8621222,0.675478,-1.0606391,1.1841524,0
551,-0.11184949,-0.6997177,-1.2374213,0.73609143,1
552,1.271273,-0.74842405,-1.7076755,0.37266058,2
553,0.3889855,-0.16133119,-0.78557634,1.3759226,3
554,0.7095931,-1.4053289,0.4551721,0.5695136,4
555,1.596998,0.14914241,-0.39433149,1.2014779,5
556,-0.227668,-0.529791,1.1080227,2.2069087,6
557,0.8892561,1.1389911,-1.0282227,1.2163723,7
558,1.3480805,-1.0080442,1.9728403,1.4768841,8
559,1.8007306,-0.5787337,0.22009315,1.6644104,9
560,1.8614239,0.16377878,0.788731,1.675127,10
561,1.3585786,-0.15463698,0.44844756,1.4264822,11
562,0.28975213,-0.55593216,-1.6521386,1.0543045,12
563,-1.0759244,-0.6419424,-0.326109,1.3938609,13
564,1.2793907,-1.7601553,-0.6407118,0.958893,14
565,-0.11287549,0.9754939,-0.9271097,2.3118098,15
566,2.7682805,-0.9491707,0.41378367,2.1985047,16
567,-0.48778558,0.9731874,-0.031177998,0.75547487,17
568,1.1963462,0.4096691,0.613732,1.4836036,18
569,1.2736384,-1.8008933,0.38329947,0.42254508,19
570,0.5274388,-1.295233,1.0529292,0.18721545,20
571,0.8991304,-1.2428573,-0.47504625,1.0220006,21
572,0.9824435,-1.2392266,-0.32421535,1.6565454,22
573,0.69210076,-0.92655516,-0.9255705,1.994026,23
574,0.3331033,-1.1207435,-0.80942184,1.2815332,24
575,0.81138176,-0.2989473,0.41353238,2.9148865,25
576,0.28112692,-1.4347618,-1.6800874,0.5218738,26
577,-0.9012377,-0.24145217,0.31374186,1.9149959,27
578,0.72221184,-1.3222728,0.5149251,1.2968988,28
579,0.14661783,-1.0797112,-1.1174324,1.847357,29
580,-1.138181,0.4351349,1.1055777,1.2509937,30
581,-0.33717883,-0.9896453,0.31453758,0.7658633,31
582,0.39994776,-0.01263535,0.3151238,0.78719974,32
583,0.35073423,0.7531122,-2.3408108,0.85477793,33
584,0.6764647,1.0252435,1.0264194,1.6746564,34
585,1.0813761,-1.2126653,-0.46085107,1.3763896,35
586,0.07097149,-1.7355067,-0.4665143,0.6546842,36
587,1.6585056,-1.0447251,0.3390481,1.9708593,37
588,-0.18211482,-0.10697801,-0.72494614,0.2846005,38
589,-1.5575178,0.3007734,0.6360389,-0.8154427,39
590,1.8373458,-0.5068824,0.5444127,1.3068753,40
591,1.3646675,-1.7136552,-0.80738264,1.3686751,41
592,0.99367386,-1.325831,-0.30613893,1.4666075,42
593,0.26553252,-0.45054027,-1.003634,0.13440168,43
594,0.7374041,0.8710823,-0.20457345,2.3169932,44
595,-0.4741277,-0.62586176,-1.114538,1.7470365,45
596,0.19641724,-0.19483358,-1.2508999,3.0337737,46
597,1.1879872,0.27591664,-0.059518874,3.3152266,47
598,-0.24429905,-1.185766,-0.8074194,0.85128117,48
599,0.5223091,0.6107631,-0.44788665,1.279597,49
600,-1.9119582,0.25424546,0.7333988,0.7766434,0
601,1.0136678,0.15374035,-0.55523115,2.0414517,1
602,0.74793166,-0.19976088,-0.325992,1.1789491,2
603,1.0199,-0.28594166,-2.0691586,0.23562717,3
604,1.0726044,-1.8377687,0.19669276,0.69224215,4
605,0.11574763,-0.9549445,-1.148631,0.74839914,5
606,0.19165087,-0.9149044,0.008645892,2.3563848,6
607,0.45062894,0.86166483,-0.19747627,1.2157855,7
608,2.0823388,-0.6170061,1.5152156,1.1085476,8
609,0.98144436,-1.406522,-1.5203347,1.4325434,9
610,0.779579,-0.90079594,-0.42309168,0.5670157,10
611,0.46778733,-1.1630086,-1.2735194,1.9397056,11
612,0.5122859,-0.30952424,-0.21875373,2.1403599,12
613,0.45907515,-0.071799256,-0.07692996,1.7823046,13
614,1.4825811,-1.0457679,0.12796709,2.1303873,14
615,-1.0399599,0.16165316,-0.43138516,0.40279692,15
616,1.9878528,-1.022777,0.803422,2.0009327,16
617,0.49756333,1.4294248,-2.4595594,2.2696257,17
618,-0.3196326,-0.4350999,0.11023101,1.10728,18
619,1.2346953,-1.5970601,0.742687,0.6455655,19
620,1.4159961,-0.83459777,0.1663028,1.2521567,20
621,2.3961432,-0.13851404,0.9604088,2.6259742,21
622,0.98305213,-1.1897212,-0.39255053,1.454731,22
623,0.67723644,-0.9676981,-1.2284561,1.670789,23
624,0.95651364,-1.336941,-1.4120951,1.2633914,24
625,0.82454026,-0.70850116,-0.34134728,1.4639547,25
626,1.4632486,0.062262297,0.6380174,0.9287384,26
627,-0.6965332,-0.079169214,0.031231284,2.413124,27
628,1.4696926,-0.7570749,1.6689224,0.87238246,28
629,0.20198566,-0.75882435,-0.49985468,1.1618253,29
630,-0.06681198,1.3375592,-0.38647127,1.5690635,30
631,0.17010328,-0.80911726,0.2069377,1.594731,31
632,0.016848952,-0.76396245,-1.0305665,-0.49427313,32
633,-0.41492018,0.21932858,-3.171165,0.63728046,33
634,0.22246623,0.10600592,-0.17176965,2.0210202,34
635,1.2058294,-0.85369575,0.37843752,1.3765097,35
636,1.4991573,-0.81821305,1.4315286,1.7940081,36
637,1.3277403,-0.86564726,0.80287707,1.6226387,37
638,-0.28747618,-0.60835326,-1.3761119,0.5965532,38
639,-0.8635848,0.9231567,-0.37186378,0.6382495,39
640,-0.01878041,-1.9674187,-0.73516244,0.8242464,40
641,1.081511,-1.1709725,0.6353735,1.1226336,41
642,2.2423358,-0.3649153,0.5839362,2.2796183,42
643,1.5214049,0.47955853,-0.1441012,1.4382429,43
644,1.0612239,1.531588,0.95341027,3.182916,44
645,-0.26017946,-0.4924121,-1.1469052,1.515529,45
646,0.062321603,-0.8118576,-2.3924007,1.4978704,46
647,1.0312569,-0.15451121,-0.98426557,0.8084065,47
648,1.26212,0.15921485,0.98626304,2.4336107,48
649,-0.7037529,-0.62317944,-1.9023774,1.7455175,49
650,-0.62735546,1.0960661,0.14202869,0.7054994,0
651,-0.10722172,-0.935104,-2.128472,0.6707756,1
652,1.2071425,-0.185723,-0.31634092,1.1226437,2
653,0.25119412,-0.06402595,0.3130436,1.20824,3
654,2.0344794,-1.5845711,0.19119692,1.6872551,4
655,1.0469004,-0.14708787,-0.0041013956,1.5112069,5
656,0.15123175,-0.058874846,2.0384018,2.345008,6
657,-0.7344897,-0.22925755,-0.5839785,0.90092236,7
658,1.3949944,-1.8177559,-0.09326565,1.0056635,8
659,1.830801,-0.2056303,1.925807,1.8386992,9
660,0.22299334,-1.0899632,0.09355308,0.6756523,10
661,0.78443,-0.92172015,-1.0379541,1.5615526,11
662,0.5736458,-0.0733625,-0.19714707,1.2623426,12
663,0.32411262,-0.07382758,-0.3868925,0.20935988,13
664,0.15064085,-2.252276,-1.4050461,0.531723,14
665,-1.1825159,-0.13361764,-3.9708881,0.31892824,15
666,0.111860216,-1.5970845,0.037982523,0.49273914,16
667,0.5360862,1.4849255,-0.15419924,0.5269778,17
668,0.5890656,-0.838598,-1.8067071,0.18000495,18
669,2.2390554,-1.1903465,1.0487994,0.6188657,19
670,1.5882645,-1.0823503,0.7792741,0.88174224,20
671,0.9793769,-0.98039204,0.65024614,1.2984225,21
672,0.74458855,-1.0612636,-0.12547725,1.1799443,22
673,0.545609,-1.0995061,-1.1349576,1.2079887,23
674,1.5283551,-0.1205374,1.1203927,2.2325466,24
675,0.68474656,-1.3289034,-1.6304476,1.4046048,25
676,1.0663791,-0.091213584,0.7539246,1.7791802,26
677,-1.3407607,-0.1711736,1.5620414,1.3746204,27
678,1.534392,-0.9222603,1.2632012,1.6634103,28
679,0.118650496,-0.5689384,0.30935383,1.0194464,29
680,-1.092019,0.5508151,-0.33485556,1.7216985,30
681,0.42317945,-0.23602444,1.1780124,2.2399647,31
682,0.36298302,-0.21170844,-0.05177132,0.5671262,32
683,-0.80500376,0.10645336,-0.089259505,1.2984642,33
684,-0.396384,-0.1871435,-0.25041085,0.78624064,34
685,-0.7782828,-2.0754817,-1.950749,0.26778805,35
686,1.2333328,-1.5932182,0.4283436,0.4984463,36
687,1.1945294,-1.1333627,-0.4371997,1.7591693,37
688,-0.6853719,-0.3342334,0.2539455,0.69662714,38
689,0.0066599846,0.578624,-1.6584506,0.01861298,39
690,0.25019264,-1.4482318,-1.086538,1.2898493,40
691,2.1993246,-0.45168662,1.6890786,1.6296408,41
692,1.0198917,-0.5020543,2.3451953,0.64439195,42
693,1.0680106,0.15722668,-0.09853673,2.5746117,43
694,0.23815586,0.47506982,-0.38738602,-0.14792782,44
695,0.007170558,-0.3874438,-0.8638091,1.7777042,45
696,0.61389554,0.38992453,-0.4056922,1.404526,46
697,0.20634383,-0.5496562,-1.4069549,1.8951241,47
698,0.13865542,-1.160861,-0.7840828,0.9493497,48
699,-0.6710764,-0.4368737,-0.78715056,2.1470435,49
700,-0.9903471,0.7074418,-0.9553462,0.61820245,0
701,0.28049198,-0.17865366,-1.0066593,0.33028293,1
702,1.1347824,0.009190768,0.21903384,1.5202568,2
703,0.5694941,-0.38490582,-1.5140178,1.6876255,3
704,1.1902933,-1.2873775,0.5373443,1.3292489,4
705,0.9599926,-0.20417431,-0.5210624,1.2123125,5
706,-0.42211753,-1.0893016,0.56012124,1.8886678,6
707,-0.045979954,0.4751019,0.2152093,1.5446095,7
708,0.6693597,-1.5580757,1.0476459,0.86939865,8
709,1.6245307,-0.966704,-0.70681196,1.8885764,9
710,0.06480813,-1.3331479,-0.56069446,0.55366564,10
711,0.5579026,-1.2194519,-1.1792017,1.1140257,11
712,0.66459376,-0.024611354,0.29779834,1.2643702,12
713,0.20054017,0.25547197,0.62382495,1.4725385,13
714,1.048248,-0.47549224,2.1610548,0.5480369,14
715,-0.5655308,0.049035013,-3.2278907,0.939428,15
716,1.62063,-1.3132569,-0.44698137,1.2977521,16
717,-1.0578802,0.20457369,-0.7813601,1.1690763,17
718,0.73873997,-0.08545238,-0.069042355,0.92528355,18
719,1.1035571,-1.4878827,1.0243242,0.6728931,19
720,1.1644746,-0.5676546,2.3965058,0.6102129,20
721,0.2290613,-1.6811308,-0.5422549,0.34732747,21
722,1.6175878,-0.7410316,0.7885462,1.7725664,22
723,0.7927513,-0.9004418,-0.89966595,1.0263832,23
724,1.0987384,-0.44838044,0.84302497,1.6767448,24
725,1.2364709,-0.48187882,-0.28499207,2.0987291,25
726,1.521722,0.070052505,0.57400465,1.7602773,26
727,-0.13911247,-0.049981177,-0.63262403,3.1667638,27
728,1.1732343,-1.4202971,0.7274622,1.2164972,28
729,0.78252864,-0.77858686,-0.8323429,1.1708884,29
730,-1.5782607,-0.18908614,-2.0184407,2.583261,30
731,1.0470982,-0.16119087,1.2073259,2.7643423,31
732,0.489043,-0.48371565,-0.80773413,-0.89334744,32
733,-0.51217973,0.021931708,-2.3171413,1.0913099,33
734,-0.30223417,-0.15953746,-0.7420912,0.96875256,34
735,1.183533,-0.23209667,1.4358054,1.4430686,35
736,1.0451963,-1.9108397,-1.7110028,0.97150576,36
737,0.44413584,-1.4838897,0.18507928,1.3204663,37
738,-0.89563984,-0.36323565,-0.4730721,-0.4098422,38
739,-0.35668987,1.7318251,0.9657825,-0.55579805,39
740,0.73034096,-1.5830991,-0.657765,0.67009103,40
741,1.6765115,-1.2366265,0.017302692,1.1674049,41
742,1.4897338,-0.51279724,1.430449,1.3605411,42
743,0.3138733,-0.55748713,-1.1707327,0.70694923,43
744,-0.35196272,-0.29021883,-0.8658749,1.460365,44
745,0.5671128,-0.42289436,-1.7462873,0.94741297,45
746,0.15855542,0.04036835,-0.43197855,0.87278557,46
747,0.5795685,-0.36661586,-1.21088,1.0724381,47
748,0.79245573,-0.66803914,-0.6769304,1.2804483,48
749,0.36744836,0.7423886,0.81560755,2.2085586,49
750,-0.7049565,1.2363663,0.33186752,1.0323799,0
751,-0.00431633,-0.24122491,-0.65416783,0.4992013,1
752,0.7848782,-0.85466397,-1.5300055,1.1919125,2
753,0.2598938,-0.17284742,-0.94678,1.7763608,3
754,1.2147,-1.0880044,0.72680914,1.0013398,4
755,0.18619278,-1.2106642,-2.2320373,-0.25587374,5
756,-0.4390339,-1.0130198,-0.3675385,2.3367155,6
757,0.14782263,0.57668406,-0.2960152,1.6621666,7
758,1.9351592,-1.1556213,0.49438965,1.4090531,8
759,0.9577685,-1.3540953,-0.8717266,0.8976651,9
760,1.2875934,-0.5905278,0.15134522,1.1635308,10
761,0.24712244,-1.1860373,-1.2118783,1.8052956,11
762,0.62117493,-0.06410068,0.29353535,2.1142087,12
763,0.81176764,0.025078759,-0.6558025,0.741243,13
764,0.8894398,-1.5166276,-0.17762506,1.0231501,14
765,-0.30839968,0.8606233,-0.60997987,1.9035664,15
766,1.6217166,-0.601009,1.9333584,1.5735112,16
767,0.21396407,1.3952472,-0.9155202,1.420692,17
768,1.4110315,0.2715081,0.12581918,2.3064637,18
769,1.0404578,-2.1614923,-0.08563948,0.3141045,19
770,0.9531713,-0.88782704,0.8827534,0.6999143,20
771,1.4390591,-1.1239885,-0.49532136,1.1859045,21
772,-0.27419347,-2.3004065,-1.0919397,0.21834743,22
773,1.0499394,-0.428241,-0.2701281,2.11903,23
774,-0.4291221,-1.9621332,-1.9599631,0.98326814,24
775,1.3170254,-0.2558599,0.7862369,2.0621707,25
776,1.040172,-1.0024414,-0.9726221,1.1552861,26
777,-1.6462057,-0.6196118,0.2947728,1.3394616,27
778,2.3080192,-0.7588902,1.3616138,1.780298,28
779,1.3751953,-0.6718372,-0.830458,1.9115926,29
780,-1.23001,0.15464479,-0.5918857,2.7244356,30
781,0.43937328,-0.36554223,1.2561932,1.7235756,31
782,0.43159977,-0.59269124,-0.7383202,0.4210769,32
783,-0.20697552,0.92414844,-0.15052629,1.1064161,33
784,0.3248068,0.3232988,0.13156462,1.8176571,34
785,1.7203257,0.22320336,1.8516682,1.9468956,35
786,1.8852518,-1.0966787,-0.16229123,1.4471571,36
787,1.1020287,-0.648428,1.5663438,0.8795043,37
788,0.3673942,0.52068454,0.17707601,1.5685675,38
789,0.0048962235,1.1675744,0.78729117,2.6413229,39
790,1.034393,-0.68109095,0.78620106,1.424372,40
791,1.395848,-1.6525136,-1.0315096,0.6730907,41
792,1.7943258,-1.3773746,-1.1574328,1.4158022,42
793,0.9541942,0.17387539,-0.20116925,1.9378777,43
794,-0.10021308,-0.25110126,-2.8036997,0.7660575,44
795,0.27205652,-0.30262646,-0.77045774,0.85234165,45
796,0.363054,-0.17549644,-1.4881024,1.266036,46
797,1.0889444,0.166668,-0.74136394,2.2614741,47
798,0.6797573,-0.6273025,-0.53947496,1.5059471,48
799,-0.09927786,-0.09960275,-0.92239356,2.4913583,49
800,0.92429477,1.8460305,-1.0598116,1.3564832,0
801,0.794008,0.83465207,1.7675619,2.3541086,1
802,1.1592016,-0.22915533,-0.4914562,1.642224,2
803,1.667322,0.32909566,-0.32811683,1.7098694,3
804,1.9854572,-0.31934667,2.370873,1.6448612,4
805,0.82858133,-0.43994617,-0.8980118,0.9676676,5
806,-0.9078424,-1.8869349,-1.6304958,1.3928956,6
807,0.90804297,1.218246,0.16867024,1.4425251,7
808,0.87902135,-1.6028122,0.1503815,0.24476594,8
809,1.9226866,0.3168134,2.9254057,2.1526046,9
810,0.8803772,-1.174717,-1.1291854,0.32341558,10
811,0.7235332,0.23688924,1.8544647,2.039443,11
812,0.8663344,-0.3727162,-1.5228548,1.4224455,12
813,0.2531321,-0.613093,-1.599378,0.91997474,13
814,0.5534779,-1.0656819,0.63254124,1.040543,14
815,-0.91050386,0.467865,-1.7044629,0.78661394,15
816,2.218688,-0.77805847,1.4588426,1.0543056,16
817,-1.2356621,-0.07218772,-1.3314501,1.8502632,17
818,0.9200487,-0.43577302,-1.2292042,0.19336414,18
819,1.0323919,-1.0362353,2.4335303,1.2316616,19
820,0.5623168,-1.6779784,-0.88042355,0.28195488,20
821,1.4270884,-1.3358076,-0.98545957,1.2727365,21
822,1.9768445,-0.56272423,0.14534539,1.872834,22
823,0.060905814,-1.1553135,-1.4129466,1.042879,23
824,0.55006313,-0.46954596,0.8841256,1.9803224,24
825,1.200912,-1.2090316,-1.862728,1.3064439,25
826,1.5649564,-0.25050324,-0.12647563,2.01513,26
827,-0.72451514,-0.276239,-0.22163668,1.8121873,27
828,0.6530995,-1.3643098,1.1597275,0.9673253,28
829,1.1366156,-0.18968552,0.4460402,2.421278,29
830,-0.7741995,0.7112158,-1.6790383,0.2025826,30
831,1.0326496,0.20863885,2.1010363,1.7121488,31
832,0.3346969,-0.049676105,0.4888457,0.84170294,32
833,-0.17077875,0.5586202,-0.53784597,2.7799888,33
834,0.64098865,0.7478466,1.177639,1.7035916,34
835,0.5739452,-0.7456399,0.5052054,1.7159858,35
836,0.914137,-1.019748,0.99880046,1.0968812,36
837,2.4403272,-0.45083702,1.2006972,1.392954,37
838,0.058782116,0.8742585,1.7833929,0.7916626,38
839,-0.4431975,1.359858,-0.50627273,1.4237607,39
840,1.8356123,-0.7782723,0.100451574,1.3992428,40
841,0.54050285,-1.3445935,0.63617325,0.5938629,41
842,0.29979682,-1.7664866,-0.48918235,-0.22975624,42
843,-0.29304963,-0.78377414,-1.368401,1.7004157,43
844,-0.11762463,0.2848882,0.4251268,1.6026411,44
845,0.7454963,-0.2923751,-1.4884937,1.4406089,45
846,-0.22073692,-0.4445363,-1.4409974,0.86591804,46
847,-0.4465829,-0.8059285,-1.5538118,0.65286297,47
848,0.9797262,-0.37217948,-0.6240815,1.380433,48
849,-0.71063596,-0.27140477,-0.49710134,0.6151479,49
850,-0.5485969,0.20144832,-1.9912599,1.5555656,0
851,1.22086,0.36705336,-0.6127714,1.8526707,1
852,0.11300105,-1.1570578,-1.6169525,0.5270155,2
853,1.1378704,0.010382593,-1.3343234,1.4199514,3
854,1.3506886,-0.74976784,1.9874165,1.1519834,4
855,1.0411569,0.05691296,0.057845175,0.84074664,5
856,0.027539387,-0.86805606,-0.06915218,1.946338,6
857,-0.4064059,-0.12516722,-1.6711788,1.4078009,7
858,1.2302554,-1.5972941,0.46677306,0.80975115,8
859,0.8563498,-1.006197,-0.13991937,0.98275846,9
860,-0.09964985,-1.3642776,-0.62177783,0.61009187,10
861,-0.023577213,-1.0649298,-0.86700356,0.8953699,11
862,0.0062477887,-0.11713353,0.91322243,2.0188746,12
863,-0.42102605,-0.7136724,-0.58020896,1.319668,13
864,1.1666595,-1.359216,-0.29274774,1.2867364,14
865,-0.05100277,1.1096895,-0.62276196,0.8426393,15
866,3.4494836,-0.33035558,1.9495475,2.0551271,16
867,-0.8043705,0.42505935,0.030866265,2.7216873,17
868,0.30038393,-0.8683353,-1.4380105,0.6704145,18
869,2.1229506,-1.3595035,2.181242,0.5846871,19
870,1.6082487,-0.7196922,0.8133987,1.3781145,20
871,0.75494176,-1.6802363,-1.3199762,0.7547431,21
872,1.1017202,-0.5681012,1.2163491,1.5694432,22
873,0.7680355,-0.6578107,-0.5436172,2.6805573,23
874,1.3355722,-0.8766351,-0.076715514,1.6365627,24
875,0.730468,-0.67374873,-0.49571306,2.4559162,25
876,-0.41299433,-1.5079924,-1.5116545,-0.16142881,26
877,-0.88196933,-0.060462236,0.10517377,1.2048143,27
878,1.1853793,-1.1423424,0.9431501,1.4564579,28
879,1.6367173,-0.54668075,-0.93827784,2.056717,29
880,-0.27202648,0.71293426,-2.3014915,1.3982067,30
881,0.048739254,-0.97743917,0.30850944,1.4467375,31
882,-0.1271762,-0.3202362,-0.008605542,-0.1905945,32
883,-0.73493654,-0.037795126,-0.5003458,2.0938578,33
884,0.7830303,0.3415983,-1.004688,-0.41112357,34
885,2.2012792,-0.5868725,0.5555625,1.1857947,35
886,1.664902,-1.0045276,0.91278434,0.90327406,36
887,1.4896295,-1.2281518,0.41299054,1.1628551,37
888,-0.026026823,0.34171337,0.51290524,0.41236916,38
889,-1.0714597,0.8495994,-0.8932097,0.608444,39
890,-0.2329092,-1.7411687,-1.0012132,0.04452908,40
891,2.2511086,-0.4662904,1.3109014,1.0454441,41
892,0.6570189,-1.2792661,0.30776823,0.73442703,42
893,-0.11102098,-0.65402544,-1.2634482,0.82758486,43
894,-0.33908495,0.10013075,0.10940468,1.3942347,44
895,-0.3793971,-0.63395816,-0.69588554,1.1163783,45
896,0.50929624,0.07144878,-0.69744205,1.4600688,46
897,1.4505322,0.38506138,-0.91916716,0.0802629,47
898,0.011380553,-0.88621974,-0.020188093,1.0003363,48
899,0.2562731,-0.06973232,-1.2830145,1.0074304,49
900,-0.6434981,1.0879097,0.109535456,1.4596803,0
901,0.5831801,0.4340445,0.33423704,1.2882483,1
902,1.5795105,-0.13802648,-0.029031038,1.5558723,2
903,0.8483671,0.1073972,-0.28308266,1.4451374,3
904,0.6946507,-1.9349413,0.15125719,0.7002408,4
905,0.3207217,-0.33547348,-0.14138854,1.2550892,5
906,0.8676884,-0.26323977,1.110858,2.7376742,6
907,-0.46166876,0.03198275,-0.7983594,-0.09154016,7
908,2.2998552,-1.2735381,-0.29180032,1.1041799,8
909,1.4545037,-0.7759573,0.7764637,1.4012105,9
910,2.4337802,0.40959716,1.5769728,2.005858,10
911,0.2092002,-1.3039939,-1.3773949,1.0641301,11
912,0.30151102,-0.07749522,0.009622574,1.4731942,12
913,0.30449772,0.040350437,-0.34645605,1.0277921,13
914,0.9908802,-1.0298762,0.55924034,1.5085475,14
915,0.31773335,1.05457,-2.772212,0.68908024,15
916,-0.33838093,-2.2703762,0.78944737,0.5260035,16
917,-0.35382068,0.32752115,-3.0900416,1.2493063,17
918,0.88474584,-0.041565657,0.04491076,1.6878482,18
919,1.7223015,-1.7631549,0.6845295,0.712981,19
920,1.4855723,-1.0091791,0.52099204,1.1970842,20
921,1.6027365,-0.6815786,1.0987996,1.4047806,21
922,0.0019421577,-2.010745,-1.7252086,1.8281308,22
923,0.57306516,-1.1571593,-1.5038316,1.6892602,23
924,-0.24264956,-1.2755018,-0.946056,1.3017969,24
925,1.1592228,-0.6832842,-0.8010348,1.4136639,25
926,1.3134673,-0.011764228,0.6981209,1.2088821,26
927,-1.163717,-0.43212038,-0.2246834,1.6690022,27
928,0.6841202,-1.6049143,0.48815516,0.48678225,28
929,1.9121819,0.13077801,0.39156318,2.0086477,29
930,-0.5295135,1.1034658,-0.12334198,0.782515,30
931,0.07436648,-0.9074999,0.58688056,1.0072612,31
932,-0.28540966,-0.29450345,0.3233121,0.51839054,32
933,0.046483114,0.87523115,-1.5895746,0.6817775,33
934,0.035499126,-0.18085158,-0.52720153,1.7070379,34
935,1.0906596,-0.5930833,1.1911548,1.3951077,35
936,0.38267678,-0.88746846,1.4820435,0.9728047,36
937,0.5737934,-1.5530314,-0.33611542,0.6418542,37
938,0.7587728,0.56908363,-0.44841206,-0.3119983,38
939,-0.1552844,1.1145215,-0.60344404,-0.06475532,39
940,1.4323981,-1.189241,-0.27175164,1.6576389,40
941,0.30817938,-1.8061523,0.13751277,0.28020173,41
942,0.7880337,-1.4719672,-0.36796618,1.0080552,42
943,0.11169353,-0.026238918,0.50117964,1.8119644,43
944,-0.27971455,-0.043960825,0.19650948,1.8914981,44
945,0.16683826,-0.00027880073,-0.194704,0.9261192,45
946,0.5481894,-0.16310754,-1.5173218,1.6289932,46
947,0.28632745,-0.6413166,-2.135302,0.07689583,47
948,1.2868514,-0.20873389,0.49803177,1.5330684,48
949,0.25890633,0.5086981,0.8677776,3.5838237,49
950,-2.2180247,-0.7185053,-0.81585693,-0.07924259,0
951,0.25635943,-0.13276306,-0.5177111,0.62264746,1
952,1.0966551,0.18246183,0.8127886,2.391874,2
953,-0.5679442,-0.12994784,0.3235687,1.1291733,3
954,0.6169873,-1.6601064,-0.017865777,0.7598813,4
955,-0.39113998,-1.0609387,-1.0787821,0.53136384,5
956,-0.42263928,-1.0524355,0.4399459,1.4897385,6
957,0.17655165,0.7557683,-0.59298635,-0.51890725,7
958,0.47894388,-2.0642734,-0.12924522,0.32123947,8
959,2.172632,0.3050422,2.0457287,1.22321,9
960,0.25295693,-1.6115676,-1.2833927,-0.2182433,10
961,0.9822812,0.056057274,1.491233,2.5758896,11
962,0.2533455,-0.41859537,-1.1049435,1.1969256,12
963,1.3388748,0.041443646,-1.3534431,0.85062885,13
964,1.5088577,-0.96198535,0.8270705,1.6403968,14
965,-0.6153294,0.4525413,-2.1631827,-0.64008224,15
966,1.7427096,-1.2238624,0.1290074,1.6635892,16
967,-0.37390655,0.86387515,-1.6040459,1.4724263,17
968,1.25437,0.20539026,-0.062385112,0.99612254,18
969,1.2106363,-2.0148292,-0.027751923,0.719717,19
970,1.2870659,-0.68310726,2.021397,1.4173411,20
971,1.6232214,-0.81369495,0.82265306,1.5147223,21
972,-0.6281218,-1.3112093,0.70346814,0.75330013,22
973,1.2201082,0.12836981,0.79579747,2.899952,23
974,0.6866187,-1.6918368,-2.1584415,1.1761879,24
975,0.25329733,-0.83678126,-0.44063425,1.3399272,25
976,1.3551867,-0.39741457,-0.3826769,1.0140493,26
977,-0.014906108,0.35411566,-0.080084085,1.3602194,27
978,2.6915495,-1.0055577,-0.19434965,2.611306,28
979,0.7548716,-0.88007915,-0.65785205,0.99497825,29
980,-0.24757427,1.588609,0.3992874,2.3134398,30
981,0.5502269,0.039556384,1.4668245,1.7156056,31
982,0.11383408,-0.31150073,-0.15178746,0.31836265,32
983,-0.55063254,0.3640797,0.5685663,1.6762525,33
984,0.3774944,0.5834444,0.6001952,1.1508046,34
985,0.9285326,-1.2386578,-0.57255405,1.1739826,35
986,1.1976753,-0.6326223,1.4845309,1.166909,36
987,1.3176477,-1.0363909,0.6211834,1.7566571,37
988,-0.48279065,-0.0010496601,0.34751222,0.99983823,38
989,-0.1763711,0.29882482,-2.686377,0.28942543,39
990,-0.2633959,-1.5738944,-0.10024159,0.01922059,40
991,0.17926347,-1.3509516,0.22816503,0.53808737,41
992,0.4187547,-1.683165,-0.7989065,0.21552652,42
993,0.532374,-0.4373375,-1.5093167,1.195913,43
994,0.055722013,-0.1997958,-3.0679903,0.24811286,44
995,0.35240546,-0.3497097,-0.7373407,2.576848,45
996,0.2119849,0.25029278,0.5463396,1.3394482,46
997,1.2573069,0.0421891,-0.8352217,2.0468173,47
998,-0.016364992,-1.09602,-1.4911025,0.026717305,48
999,-0.49333006,-0.19841282,-0.46975577,1.524724,49
1000,-1.1367769,0.10961646,-1.6876874,1.2382783,0
1001,1.6996427,0.7773223,0.11390442,1.6999637,1
1002,0.9998986,-1.0465454,-2.1380553,0.9710252,2
1003,0.80271095,-0.33622602,-1.8363389,1.933233,3
1004,0.84625494,-1.4413469,0.028713644,0.8036564,4
1005,0.89245415,-0.27081263,-0.51225615,1.4881675,5
1006,-0.154118,-0.35369968,2.0225658,1.1408169,6
1007,0.17898838,-0.4117791,-3.5140753,0.74181634,7
1008,1.2478397,-1.1655831,1.107547,0.73483497,8
1009,0.14102489,-1.7003729,-1.1206057,1.1150554,9
1010,0.2697197,-1.5833681,-2.0985348,-0.31178087,10
1011,1.1344502,-0.2472772,0.4924198,2.334532,11
1012,1.108016,-0.28639814,-1.4948812,1.1024379,12
1013,0.2887605,-0.06924249,-0.33788794,1.762683,13
1014,1.3800622,-1.015804,0.2695784,1.0585226,14
1015,-0.70425797,0.5902475,-1.4082072,1.38549,15
1016,2.3413744,-0.72766364,0.58909446,2.0035596,16
1017,0.16650006,1.0073469,-2.5049596,2.0555096,17
1018,-0.79097605,-1.0645032,-0.88711095,0.50913846,18
1019,1.4262595,-1.3984907,1.1866763,0.82232016,19
1020,1.0096127,-0.88779396,1.0929728,0.7444793,20
1021,1.7581263,0.017469168,2.7201054,1.7514118,21
1022,0.78279793,-0.8051172,0.7250219,0.32948524,22
1023,0.7682615,-0.6469388,-0.5538148,1.2041072,23
1024,0.13147426,-1.0117208,0.14191057,0.7786964,24
1025,-0.2823608,-1.3428254,-1.7225633,1.4517375,25
1026,-0.018624246,-1.3265494,-1.2952267,0.3424946,26
1027,-0.3929233,-0.73181933,-3.9114447,0.9499247,27
1028,0.9733548,-1.2099305,1.1750429,0.49587905,28
1029,0.77621216,-0.84569705,-1.0046062,1.4489222,29
1030,-0.7112181,1.2112281,1.0667884,0.93930405,30
1031,0.59364927,-0.65821576,0.3244486,2.032982,31
1032,0.5961359,-0.0810598,0.2774504,1.0127785,32
1033,0.3729868,1.4761289,-1.5845013,1.5703932,33
1034,0.64592403,0.8102001,0.49907416,1.0720732,34
1035,0.8547998,-0.44559947,1.1382505,1.4602864,35
1036,0.795379,-0.76437163,1.7809768,0.29071236,36
1037,1.2326608,-1.4566311,-0.45751196,1.4341055,37
1038,-0.102637365,0.62668794,1.2827313,1.1384985,38
1039,-0.2700088,0.90421367,-1.8542538,0.13339996,39
1040,1.347656,-0.27993107,1.3436929,1.5344853,40
1041,0.7960813,-0.6321528,2.3667426,0.52265704,41
1042,0.9122673,-1.1819469,-0.055912793,0.731361,42
1043,0.5129462,-0.052437186,-0.12076235,2.374894,43
1044,-0.3365464,-0.38757902,-1.8620515,1.1680957,44
1045,1.6241407,0.49519897,-0.39054734,0.67660606,45
1046,0.5539849,0.031945843,-0.88089275,1.8818262,46
1047,-0.9120959,-0.96524984,-1.5584071,0.4094031,47
1048,0.36848637,-1.252814,-1.9245496,0.26439714,48
1049,1.0970408,0.9301641,-0.28871536,0.80886906,49
1050,-1.6071926,0.2511822,-0.610495,1.7762609,0
1051,1.4661942,0.25294766,-1.0801871,0.81655234,1
1052,1.3106762,-0.60567117,-1.5101821,1.6389498,2
1053,-0.9462866,-0.4630122,0.23774207,1.5583464,3
1054,2.7582273,-1.0771327,0.003773272,2.3225036,4
1055,1.3730123,0.80616045,1.8759171,1.5239909,5
1056,0.14732382,-0.8462306,0.15684235,2.1712503,6
1057,-0.71553254,-0.80716634,-2.2547424,0.8402523,7
1058,1.5833001,-1.0537279,1.5221198,1.0532436,8
1059,1.7031273,-0.9244487,-0.6331108,1.5718201,9
1060,-0.04790902,-1.2808497,-0.5446122,0.7296409,10
1061,0.5690281,-0.8583252,-0.61799383,1.6936274,11
1062,1.3456843,0.26490283,-0.07928687,1.1319094,12
1063,0.40181872,0.15932027,0.81229043,2.162613,13
1064,1.6647625,-1.4457302,-0.63904107,1.278686,14
1065,-0.59265375,0.2629515,-0.5482834,0.78490245,15
1066,0.6003734,-1.0623367,2.040757,1.2121189,16
1067,-0.12685047,0.8212518,-2.58386,2.3445606,17
1068,0.77548873,-0.66456,-1.68103,1.0031983,18
1069,1.2263298,-1.8963215,0.996598,0.5172967,19
1070,-0.05680275,-1.3640257,0.84520084,0.40034246,20
1071,1.6733494,-0.21263993,1.966073,1.0111179,21
1072,-0.43046314,-1.8563981,-1.3221803,0.030180335,22
1073,0.9780883,-1.111969,-1.5203288,2.0855367,23
1074,-0.0320459,-1.566268,-1.1993635,0.9340216,24
1075,1.1323545,-0.42733783,-0.26378837,2.5528827,25
1076,-0.117344916,-1.3350565,-1.1680714,0.026236415,26
1077,0.13128501,-0.18845302,-1.5717262,2.699798,27
1078,1.7209189,-0.9466939,2.03038,1.3244898,28
1079,1.792326,-0.23971236,-0.27629057,1.6440073,29
1080,-1.5438883,0.1582036,-0.29674166,2.9709437,30
1081,0.15554744,-1.0103166,-0.31787407,1.5952315,31
1082,1.1769732,-0.14563729,-0.99210113,0.25254062,32
1083,-1.1947545,-0.23830116,-0.19362521,0.53462934,33
1084,0.11519,0.14182258,-0.67933595,0.3372391,34
1085,0.00013703108,-1.0790114,-0.5421747,0.30803084,35
1086,1.0668666,-1.6912022,-0.5492081,1.0647035,36
1087,0.4405179,-1.671318,0.852322,1.5624428,37
1088,-0.10596755,-0.37230217,-1.0861787,0.3006829,38
1089,-1.6968215,0.15739053,-0.29068196,1.1603498,39
1090,1.0634363,-1.5352443,-0.864706,1.5776632,40
1091,-0.1554352,-1.3934493,1.2746122,0.4131117,41
1092,0.30491155,-1.6718746,-0.1273942,0.7783023,42
1093,0.51166743,-0.17281356,0.24214476,2.0158668,43
1094,-0.483851,-0.2585835,-0.91803205,1.2604903,44
1095,0.9191075,-0.21042216,-1.3404572,1.2429316,45
1096,1.203646,0.27483356,-1.3815331,-0.13563001,46
1097,1.2165548,0.23609704,-0.1210199,1.493534,47
1098,0.39910278,-1.0932362,-1.488744,0.39639008,48
1099,-0.5315656,-0.4110259,-1.2064474,0.6727481,49
1100,-1.0854273,0.51975596,0.37123895,0.5807537,0
1101,0.90961564,-0.18932739,-2.0082185,-0.20681423,1
1102,0.17998272,-0.4940717,-0.36645663,0.57112336,2
1103,0.63925076,0.12528366,-0.40299058,2.6094165,3
1104,1.2608801,-0.9185859,0.734412,0.92080617,4
1105,0.78283393,-0.43438837,-1.1011841,-0.013751566,5
1106,-1.0351164,-0.9206606,0.6934208,1.6472008,6
1107,-0.11380224,0.148737,-1.106853,0.17042947,7
1108,0.57442707,-1.5904667,-0.44581157,0.48643243,8
1109,1.5602043,-0.18634611,1.4399538,1.2196445,9
1110,0.44073713,-0.52982104,0.44121033,1.2295856,10
1111,0.4468019,-0.56055635,0.46432933,2.3903456,11
1112,0.36574334,-0.07714704,0.21236646,2.1059456,12
1113,0.044169277,0.069661126,0.13492346,0.6510975,13
1114,2.8741536,-0.31771177,1.1299305,2.6461978,14
1115,-0.7259997,0.5796243,-0.66024655,1.4937856,15
1116,0.32676363,-1.7416189,-0.56071657,1.06349,16
1117,-1.2615378,0.16292775,-0.29916728,2.3460274,17
1118,0.59302944,-0.22823982,-0.6474825,1.5943981,18
1119,1.2455976,-1.4425843,1.3684822,0.40535593,19
1120,1.6134045,-0.88863814,-0.0023210943,1.4638231,20
1121,0.6415787,-1.2877934,-0.22979116,0.8286422,21
1122,0.36727858,-1.0280515,0.58444214,0.70109236,22
1123,1.1018701,-0.578708,-0.23697302,2.7357028,23
1124,0.23807359,-1.2970089,-0.34188092,0.70336705,24
1125,0.12892884,-1.3917317,-1.6641816,1.6487538,25
1126,1.0972458,-0.34758985,0.14494443,1.7745532,26
1127,-0.7040318,0.10428834,0.7443478,2.2078292,27
1128,0.51847047,-1.5361454,0.58216023,-0.0313648,28
1129,0.47341657,-0.522225,-0.15120915,1.7456318,29
1130,-1.1788478,0.24249122,-0.33987454,1.9599618,30
1131,1.1522274,0.13049006,1.345196,2.9472156,31
1132,0.101233125,0.03344676,1.2129915,1.3226347,32
1133,0.5911828,1.6168509,-0.59124035,0.1007787,33
1134,0.0022298992,-0.09388757,-0.1659587,1.5474324,34
1135,1.7179724,-0.7305199,0.1775154,1.7116673,35
1136,0.91134846,-1.26619,0.10991877,1.0346311,36
1137,0.7763027,-1.5244873,0.4359034,1.5004331,37
1138,-0.9364071,-0.45810527,0.53193855,1.5725999,38
1139,-1.0443819,0.3527222,-0.93973196,1.7343165,39
1140,0.8448942,-1.113671,0.5717811,1.0058508,40
1141,0.7010622,-1.8066158,-0.4259566,0.92041206,41
1142,0.0007574558,-1.7330148,0.09744033,0.15648544,42
1143,0.45581192,-1.1947558,-3.5409045,0.90019786,43
1144,-0.03561404,0.47276467,0.34216285,1.6348405,44
1145,1.1873097,0.043906093,-0.94896454,1.5194037,45
1146,0.17220896,-0.05078911,-0.5389095,1.0810494,46
1147,1.9777232,0.04288762,-1.6818528,1.0942777,47
1148,0.43202758,-0.7991831,-0.33576092,0.9633635,48
1149,0.85814255,0.5072653,-0.8841685,1.4398988,49
1150,-0.3322765,0.14205089,-1.7074459,2.3032646,0
1151,0.37853268,0.16335857,0.08334458,1.1913059,1
1152,0.8577386,-0.08744663,-0.08555138,0.9758186,2
1153,0.44276264,-0.6910075,-2.158759,2.0550468,3
1154,1.5687517,-0.88326406,1.859524,1.4985116,4
1155,1.5347787,-0.20908204,-1.6453192,0.6903552,5
1156,-0.08944818,-0.42248636,1.2583442,0.92372036,6
1157,0.4945744,1.1652025,1.1715682,1.8858104,7
1158,2.4318216,-0.94396615,0.5780268,1.5897791,8
1159,1.0783406,-0.74701107,1.2192147,1.2286662,9
1160,0.45101362,-0.8224693,-0.6682335,1.1913866,10
1161,1.1029036,-0.8615923,-0.60980403,1.3291203,11
1162,0.649649,-0.18299982,-0.29539838,1.6138763,12
1163,0.03564918,0.005352676,0.1380971,1.8773441,13
1164,0.35388047,-1.744795,0.26478714,-0.056061387,14
1165,-0.107439905,1.2705084,-0.7413756,1.7645118,15
1166,1.1026152,-1.5022678,0.22637731,1.0281363,16
1167,0.1298612,1.2927032,-0.5401231,1.5920432,17
1168,0.17365482,-0.91916424,-1.511436,0.2709396,18
1169,-0.06895566,-2.5673172,-0.52091885,0.12188962,19
1170,1.5535398,-1.2252831,-0.55126935,1.4183149,20
1171,1.8489629,-0.14327466,1.2167329,1.9324592,21
1172,0.5226229,-1.7594671,-0.60162693,0.027474523,22
1173,0.50282586,-0.48533338,0.24565935,2.6214037,23
1174,1.089257,-0.6471769,-0.2552275,2.301876,24
1175,1.4394493,-0.6234662,-0.746449,1.2567807,25
1176,0.21407902,-0.7914906,-0.24237695,0.9108209,26
1177,0.6204987,0.58296204,-0.691221,2.4170399,27
1178,1.9541175,-1.053438,0.61541694,1.403754,28
1179,0.9924609,-0.46814921,0.2918049,2.5000992,29
1180,0.24827188,1.2042365,-0.5111851,1.3169605,30
1181,0.29832423,-1.1189284,-0.8160963,1.6861994,31
1182,0.84110975,-0.11283341,-0.2839155,0.99144423,32
1183,0.08161463,1.0285918,-1.1062359,1.7156544,33
1184,0.39309916,0.7215723,0.6532542,1.7675822,34
1185,0.18211842,-1.548337,-1.5075027,0.6365807,35
1186,2.1665957,-0.72191095,1.4993687,1.2034767,36
1187,1.7328949,-0.8927916,1.1899605,1.9916371,37
1188,-0.5477035,-0.7217586,-1.5291028,0.28717723,38
1189,-0.8994806,0.71798545,-1.3380065,0.15952355,39
1190,-0.13590872,-1.5723772,-0.7076697,0.28493822,40
1191,0.47180188,-1.1854382,1.5461032,0.36488986,41
1192,1.6654137,-0.86630297,-0.022695273,1.3025389,42
1193,1.0415727,0.14003581,-0.17951101,2.0048504,43
1194,-0.888759,-0.27491808,-0.34089863,0.00096565485,44
1195,0.75955224,-0.112543344,-1.1805348,1.1724467,45
1196,1.0608435,0.7984426,0.026706755,1.098169,46
1197,0.93621904,0.1966106,-0.093037546,2.1433897,47
1198,0.42390335,-0.7503822,-0.5026245,0.43504506,48
1199,1.1694533,0.4835718,-1.1010537,1.1858319,49
1200,-0.86313033,-0.06638241,-1.3612325,0.7656541,0
1201,0.8524054,-0.104675375,-1.0760324,0.24729484,1
1202,0.5720972,-0.33485362,-0.23880911,0.33084327,2
1203,1.5198092,0.24276608,-1.1559169,2.6871796,3
1204,0.78952384,-1.5876555,0.7267616,0.62855554,4
1205,0.55388176,-0.27401307,-0.40035123,0.19241971,5
1206,0.31302866,-0.3522526,0.80835724,2.115819,6
1207,0.84726,1.0446544,-0.4937082,1.8860645,7
1208,1.5741953,-0.9416994,1.8903506,0.94968086,8
1209,0.22333497,-1.303853,-0.03265272,1.4460211,9
1210,1.7637364,-0.12869209,1.076637,1.2411945,10
1211,1.3465893,-1.0895863,-1.8077475,0.37110865,11
1212,0.707588,-0.009437263,-0.16097403,1.1331931,12
1213,0.19989765,0.35388932,0.65605617,1.615787,13
1214,1.1415443,-1.4868462,-0.67438614,1.3473699,14
1215,0.19455874,0.47672898,-2.7716074,0.5613401,15
1216,1.053357,-1.2170757,1.134578,0.7499102,16
1217,-0.8188568,0.2216906,-0.7841789,1.296075,17
1218,1.0363216,0.16365732,0.044819266,1.1519003,18
1219,1.1892909,-1.5938157,1.2830026,0.7851718,19
1220,0.7465701,-1.5649507,-0.7595743,0.57945824,20
1221,0.6847111,-1.9546633,-1.3448694,0.18746996,21
1222,1.402501,-0.6584598,0.68993723,2.0787873,22
1223,-0.038452923,-1.1692489,-1.0596782,1.407912,23
1224,0.3651489,-0.726668,0.65016824,1.4861687,24
1225,1.9656429,0.7010897,2.1525888,3.7029285,25
1226,0.7799211,-0.6259308,-0.11694409,0.65131205,26
1227,-0.023010254,0.21355027,-0.68159175,1.8999587,27
1228,0.39757806,-2.2576942,-1.4278271,0.36393034,28
1229,1.3429269,-0.002948165,0.6024102,2.0880172,29
1230,-1.373435,-0.12915945,-2.4029,0.93085504,30
1231,0.6567367,-0.7746663,0.1017625,1.4415765,31
1232,-0.09513226,-0.70793253,-0.78668725,-0.10331863,32
1233,0.2504772,0.98110044,-1.1806463,0.36003488,33
1234,1.8396168,1.1143696,-0.29025525,2.0183773,34
1235,0.7270435,-0.7743152,0.59635764,2.042037,35
1236,2.1811104,-1.2788182,-0.15716654,1.4247286,36
1237,0.83214724,-1.3553472,1.2529263,0.80123544,37
1238,-1.7505891,-1.4397237,-1.4707326,-0.10552001,38
1239,-1.199528,-0.026869655,-2.2629385,0.27422464,39
1240,0.98769325,-1.0236819,0.42641035,1.2165613,40
1241,1.4421177,-0.7748403,1.3693407,1.3685063,41
1242,0.8626338,-0.6423861,1.1104071,1.1086218,42
1243,0.49139774,-0.43017656,-0.8360175,2.4706984,43
1244,-0.5228687,-0.12287703,-0.9504447,1.3674877,44
1245,1.2576966,0.2801323,-0.50466746,1.7784281,45
1246,0.99696136,0.61799514,0.6302524,2.221306,46
1247,0.3472079,0.13428655,-0.17738879,1.2944366,47
1248,-0.20735729,-1.3173218,-1.1362916,1.0858998,48
1249,-0.6277664,-0.45612642,-0.82537764,1.3662683,49
1250,-0.5796426,0.33720034,0.0115817785,0.635756,0
1251,1.2751901,-0.008515336,-1.1786163,0.8030441,1
1252,1.0835512,-0.17279497,-0.5101695,1.4901067,2
1253,0.19560713,-0.11954968,-0.47262424,2.0236537,3
1254,0.87478006,-1.798984,-0.47438556,1.0011034,4
1255,-0.4887455,-0.9988308,-0.38674206,0.88678217,5
1256,0.62873137,-0.06079656,1.3413254,1.9320959,6
1257,0.23148838,0.6366512,-1.2763147,-0.3048733,7
1258,1.591693,-1.511316,0.3222336,0.71562856,8
1259,0.83855176,-1.1369491,-0.685793,1.278234,9
1260,1.0561072,-0.4351866,0.49603456,1.4301639,10
1261,0.16467306,-1.542548,-1.8420057,0.16288078,11
1262,1.0863335,0.16340244,0.19986808,1.4936143,12
1263,0.050734967,-0.14385107,-0.010059953,1.0956867,13
1264,1.492577,-0.9427455,0.7540226,1.4470037,14
1265,-0.12429646,1.1637412,-0.63463956,0.9963672,15
1266,1.0966547,-1.6679685,-0.5184458,0.74760455,16
1267,-0.28842312,0.53790915,-3.3264644,1.6100147,17
1268,0.39018285,-0.4108022,-0.71410096,0.87987804,18
1269,0.92247236,-1.8583549,0.2531259,-0.12941718,19
1270,2.0695498,-0.82714415,0.40048978,1.5363191,20
1271,1.5569617,-0.52730083,1.2477744,1.2926512,21
1272,-0.31362695,-1.7151338,-0.40432292,0.5772759,22
1273,0.77711505,-0.9455427,-1.370084,2.0812087,23
1274,1.0438657,-0.54812115,0.0935974,2.1477966,24
1275,1.4784997,-0.4734304,-0.13557237,1.3593379,25
1276,0.62771285,-1.0102205,-1.1984835,0.46867895,26
1277,-1.1786382,0.041333765,0.7579981,1.6185771,27
1278,0.93773943,-1.3073907,0.25300208,1.5690715,28
1279,0.8016781,-0.86975056,-0.88662493,1.1386456,29
1280,-0.91685545,0.08831078,-0.5872855,2.147927,30
1281,-0.02031383,-1.0833386,-0.09343988,0.73231375,31
1282,0.6901407,0.062308863,0.46951574,0.7098191,32
1283,0.19755916,1.2041261,-0.34009016,2.572589,33
1284,-0.30678195,-0.50921816,-1.3433564,-0.70189196,34
1285,1.0113062,-1.0481039,0.19124675,1.4447949,35
1286,0.18245322,-1.3970058,-0.59422153,0.6071318,36
1287,0.8234891,-1.2472196,0.73986256,1.5631447,37
1288,-0.1851549,-0.5461886,-1.6512994,0.77661276,38
1289,-0.88513166,0.53089076,0.12770617,1.1473634,39
1290,0.8146334,-0.9033721,0.5025108,0.86797535,40
1291,1.8768208,-1.0313233,0.56273025,0.78540754,41
1292,0.86001986,-1.666397,-1.0970585,0.7226447,42
1293,-0.4819165,-0.8197688,-1.1334345,1.2399845,43
1294,0.29131848,0.42228585,-1.0672877,1.2456288,44
1295,1.1158952,-0.3777851,-1.847276,1.7823615,45
1296,-0.2098276,-0.21526581,-0.2550469,1.8066372,46
1297,0.71166563,-0.22038257,-1.2381041,0.6019,47
1298,2.030702,-0.19069833,-0.9501776,2.2052367,48
1299,0.45065185,-0.16408661,-1.3964491,2.2188659,49
1300,-0.295438,1.1278327,-0.02483517,0.6841965,0
1301,0.66144836,-0.18395576,-0.814989,1.4968736,1
1302,1.5576801,-0.2379291,-1.1748718,0.37559247,2
1303,0.80663764,-0.19877668,-1.8779435,1.7255622,3
1304,1.3988886,-1.0816321,0.6973901,0.75286955,4
1305,0.1296784,-0.5526583,-0.36580744,1.1568451,5
1306,0.039863646,-0.36170852,1.6937578,2.1843884,6
1307,0.65531194,1.0695316,0.6027966,1.0622251,7
1308,1.051264,-1.6427886,0.018128216,0.64977115,8
1309,0.9893614,-0.73448783,0.7573553,0.46266162,9
1310,0.7043973,-0.028112292,1.3515867,1.4164652,10
1311,1.61602,0.36326563,1.3523369,1.6076746,11
1312,0.6808199,-0.7249716,-2.0063639,0.8203254,12
1313,0.31946686,0.09784946,-0.040909737,1.8198516,13
1314,1.0149006,-1.3749897,0.439032,1.2703712,14
1315,-0.11414096,0.53332365,-4.6748123,-0.03653705,15
1316,0.5583807,-1.8620563,-0.9279143,0.7607907,16
1317,-0.24140783,0.6112427,-2.4964817,1.4214375,17
1318,0.88036144,0.5322372,1.4199611,2.2185006,18
1319,1.8977257,-1.8137927,-0.22479701,1.0940156,19
1320,1.2196935,-1.3607929,0.9768083,0.50598395,20
1321,1.5367541,-0.5729504,1.1253467,1.2481958,21
1322,1.3017457,-0.8423518,-0.035009503,2.0570302,22
1323,1.0804257,-0.6993906,-0.85251737,2.0468068,23
1324,0.9104144,-0.78829837,0.41406,2.0156121,24
1325,0.2369954,-1.4019458,-1.8447171,1.7888899,25
1326,0.51410437,-0.8953037,-0.4702993,0.8647003,26
1327,-0.5925681,-0.07419625,-0.06769657,2.7986178,27
1328,1.3145682,-1.4308813,-0.3414169,1.7396988,28
1329,2.3519483,0.24707294,0.2543435,1.8233575,29
1330,-1.8060057,0.50038314,0.7980878,1.342025,30
1331,1.225404,-0.0471707,1.6413221,1.566608,31
1332,0.85169315,-0.03898494,0.023904083,0.80196315,32
1333,-0.12826258,0.9166113,-0.4258117,0.64983845,33
1334,0.7369381,0.5356419,-0.26118603,0.3319286,34
1335,1.7691659,-0.5518361,0.38600552,1.778744,35
1336,2.0200162,-0.6114444,1.8674073,1.0008276,36
1337,0.6754035,-1.4571934,0.6018322,0.988724,37
1338,0.3093573,0.4101347,-0.0067957044,0.20280719,38
1339,-1.3258302,0.028771996,-1.2251375,1.2944221,39
1340,0.10129452,-1.4877491,-0.39828372,0.7115359,40
1341,0.9653572,-1.3457284,0.28243482,0.45320666,41
1342,0.58327866,-0.5231535,2.101576,1.1881895,42
1343,0.78229034,0.036702693,0.02263385,1.8127077,43
1344,-0.47965646,-0.083943635,-0.7886896,0.7343657,44
1345,0.50085276,-0.24944344,-1.0796131,1.997091,45
1346,0.21075591,0.2780398,0.13389117,1.6124039,46
1347,0.5759584,0.010193467,-1.0136131,1.0416163,47
1348,0.9380929,-0.38098046,0.02616945,1.4539216,48
1349,-0.31466118,-0.0059042424,-0.23936993,1.394625,49
1350,-0.32891265,0.30826163,-0.994813,0.9462433,0
1351,-0.6073831,-0.48364976,-0.6115879,1.5273547,1
1352,0.9790441,-0.27627698,-0.142627,1.3054118,2
1353,1.8913901,0.2234897,-1.5147929,2.4707847,3
1354,0.6113545,-1.3944387,0.53024256,0.92276275,4
1355,0.78083736,0.06449303,0.13433856,1.5778135,5
1356,-0.308675,-0.90958345,0.6945002,0.7136682,6
1357,0.18797022,0.29692033,-1.7186166,0.8951534,7
1358,1.82498,-1.5507238,0.27107847,0.9830884,8
1359,0.7224777,-1.2208087,-0.80516297,1.2493639,9
1360,-0.1579526,-0.76887566,0.6351572,0.8550474,10
1361,0.8227566,-0.21710688,0.3410209,1.8452556,11
1362,0.72832155,-0.43903112,-0.9536377,1.3708509,12
1363,0.20950207,0.40423784,0.55671406,1.5690987,13
1364,0.21539503,-1.6736933,0.9561451,0.55903006,14
1365,-1.0743799,-0.2583452,-1.0713922,2.0084512,15
1366,0.3470608,-2.4546976,-0.96032566,0.81633514,16
1367,-1.2668315,0.13474464,0.40291703,1.3333012,17
1368,1.0204527,0.3142777,0.12136027,1.2562006,18
1369,2.3728101,-1.6028774,0.13723212,0.8944655,19
1370,0.49987358,-2.2211118,-2.3600068,0.83263093,20
1371,1.5851657,-1.5571678,-0.6131513,0.7498997,21
1372,0.5922533,-0.79098207,0.38734245,1.688882,22
1373,-0.2774288,-1.4101918,-1.5956327,0.9266406,23
1374,1.6787922,-0.591912,-0.4058386,2.3499236,24
1375,1.2174872,-0.60177404,-0.39639446,1.93013,25
1376,0.60048985,-0.29403588,0.52513427,1.0941666,26
1377,-0.10803497,0.24426997,-0.078915894,0.9704549,27
1378,1.3042603,-1.3788705,0.52342725,1.4007881,28
1379,0.8951459,-0.7662626,-0.65694,1.9825022,29
1380,-0.9431256,0.19557431,-1.6866014,0.9106144,30
1381,-0.015802264,-0.67729145,0.629755,1.917695,31
1382,0.22813731,-0.46256113,-0.75085276,-0.05491799,32
1383,-1.304566,-0.69498914,-2.6571932,0.51880425,33
1384,0.9099887,0.8797392,0.33692598,1.0072192,34
1385,0.13822424,-1.0216448,-0.013100892,1.4378419,35
1386,1.397166,-1.2518787,0.7166517,0.8183394,36
1387,1.2130175,-0.61962265,1.1487213,1.4686561,37
1388,0.76639915,0.84688836,0.19147196,1.8854101,38
1389,-1.1868699,0.074373424,-2.0242448,0.59227705,39
1390,1.001449,-2.0312667,-2.3349113,1.373008,40
1391,0.8507056,-1.1839108,1.348845,0.7280724,41
1392,1.7694812,-1.0121181,-0.46492368,1.234563,42
1393,-0.14852649,-0.77917856,-1.1700213,1.7923207,43
1394,-0.8006022,-0.5421784,-0.81180406,0.52691466,44
1395,0.5954964,-0.6162472,-2.63555,0.12265825,45
1396,0.48182935,-0.15629302,-1.2800149,0.59702456,46
1397,2.2539775,0.44183823,-1.0979286,1.6309366,47
1398,1.4897392,-0.33101845,-0.53063875,1.0916528,48
1399,-0.78337944,-0.40764415,-0.16176581,2.3902528,49
1400,-2.0241525,0.056446433,0.8808875,-0.27799773,0
1401,0.38384187,0.114693776,-0.2266708,1.4550871,1
1402,0.3161735,-0.90704644,-1.2600226,1.497379,2
1403,0.98903203,0.13224518,-0.67699564,2.5981073,3
1404,1.7318745,-1.0130681,0.24916294,1.7066573,4
1405,1.2339714,0.17443761,0.07374704,1.0852126,5
1406,-0.078778416,-1.0653025,-0.4985631,2.1830523,6
1407,0.26796362,0.16786864,-1.7378328,0.4990907,7
1408,1.0499592,-2.2088587,-0.40801066,0.6763576,8
1409,1.6777245,-0.086397946,1.535178,1.7340407,9
1410,0.59065723,-0.72347915,0.11734547,0.7405741,10
1411,0.75408006,-0.7428479,-0.5104203,1.4584699,11
1412,-0.32345468,-1.1091256,-2.0324717,1.2465558,12
1413,0.8221272,0.20589137,0.14961618,1.9091147,13
1414,1.7373413,-0.79514873,0.943866,1.7710602,14
1415,-0.73946875,0.11443269,-2.4748654,0.49468493,15
1416,-0.10437477,-2.4155908,-2.0617557,0.03415376,16
1417,-0.18469301,0.64726424,-2.8051634,0.04686117,17
1418,1.0416806,-0.5150985,-1.909065,0.8698103,18
1419,0.8999469,-1.8850582,0.750204,0.10893512,19
1420,0.10470557,-1.7910738,-0.35523975,-0.024846375,20
1421,0.7302938,-1.2669792,0.8283552,0.9019902,21
1422,1.0525712,-1.928971,-2.2810736,1.9313295,22
1423,0.9312023,-0.16446394,0.8745884,2.1099305,23
1424,0.5132719,-1.154187,-0.71036226,1.4817908,24
1425,1.351512,-0.4225168,-0.14710143,2.2154157,25
1426,1.3919868,-0.37315363,0.09068543,1.6793076,26
1427,-1.4563121,-0.2115086,1.3410882,1.9282403,27
1428,0.9754411,-1.7274961,0.40273848,0.9083708,28
1429,0.39345235,-0.5359436,0.34781814,1.7915027,29
1430,-1.0996296,0.7069204,-1.452512,1.4666003,30
1431,0.26442355,-1.1908702,-0.4564554,1.2994726,31
1432,-0.88710046,-1.0002733,-0.87100405,-0.7969993,32
1433,0.12085448,0.7328295,-1.3433008,-0.25225747,33
1434,0.17885217,0.07080294,-0.55236536,0.38968188,34
1435,0.15882903,-1.1633998,-0.25669348,0.70813286,35
1436,0.18755227,-1.3722272,0.43062508,0.31125915,36
1437,1.7370828,-1.0493283,-0.07840103,0.96124923,37
1438,-0.502275,-0.6144635,-0.43966487,1.002205,38
1439,-1.7114925,0.7585008,0.06526351,0.690872,39
1440,1.1692567,-0.6082591,0.6640145,1.1434116,40
1441,0.24870116,-2.62498,-2.9108987,1.0911167,41
1442,1.3414956,-0.8817709,0.6478616,0.8138885,42
1443,1.4662452,0.040347993,-0.81549937,1.1828271,43
1444,-0.3286595,0.15815006,-0.45181882,0.21674359,44
1445,1.365558,1.4411094,2.374847,2.3156424,45
1446,0.47632194,0.1301742,-0.88878965,0.27321392,46
1447,0.4028319,-0.2712166,-1.1881906,0.32627416,47
1448,1.7115805,0.03937328,0.37133732,0.9841305,48
1449,-0.17794608,-0.30523983,-2.2574916,0.5719708,49
1450,0.3000006,0.92309225,-1.1046151,1.5986933,0
1451,0.57043743,0.7180537,1.572958,1.8023663,1
1452,0.8956202,-0.3191692,-0.035547435,1.4982911,2
1453,1.1553168,-0.21037357,-1.7753091,1.6375338,3
1454,1.1999351,-1.6011021,0.7967629,0.7195501,4
1455,0.7868012,-0.2838616,-0.91333085,0.40074402,5
1456,0.3355364,-0.9157877,-0.7020516,3.184548,6
1457,-0.17488165,0.3503332,-0.7747697,1.2786672,7
1458,1.3331721,-1.5256594,0.07630414,0.8336121,8
1459,0.8778244,-0.7728344,0.6670196,1.4028536,9
1460,0.5658778,-0.49695814,0.30757314,0.6557425,10
1461,-0.0041196346,-0.9315752,-0.13626277,1.3406518,11
1462,1.0997674,-0.20172922,-0.81278855,1.8224391,12
1463,0.35595626,-0.016300678,-0.11628038,1.2961789,13
1464,1.1635675,-1.0795367,0.84355843,1.259835,14
1465,-0.5177664,0.79188675,-2.1898503,0.11888981,15
1466,0.9327002,-1.2926159,0.12757331,0.7312649,16
1467,0.26885447,1.1959758,-1.6428673,0.7065716,17
1468,1.1979952,-0.035460025,-0.7555412,0.44011724,18
1469,2.5829868,-1.1667583,0.5167948,1.2657088,19
1470,0.64617693,-1.3901396,1.1601379,0.1879667,20
1471,0.6209427,-0.9174989,1.4292878,0.70766926,21
1472,0.5655254,-1.2072256,-0.069561094,1.3020465,22
1473,0.69013536,-0.24806777,0.424474,2.091445,23
1474,-0.28156352,-1.9775345,-1.6471148,0.327798,24
1475,0.9787447,-0.4417374,-0.04064396,3.0942085,25
1476,0.7601276,-0.8179323,-1.1537175,0.47505283,26
1477,-0.9251471,0.13438046,1.2877954,2.4223523,27
1478,1.3116953,-1.2682369,0.07351202,1.1139637,28
1479,0.47286817,-0.85930693,-0.78755724,0.25260437,29
1480,-1.7686989,0.7900779,0.21274883,0.80698526,30
1481,0.2732224,0.18607748,2.5247998,1.6264079,31
1482,0.12141931,-0.46085083,-0.67659575,-0.2434777,32
1483,-0.15694109,0.3845399,-3.121868,0.3317322,33
1484,0.6869531,1.0145781,1.0957301,1.4394938,34
1485,0.96295726,-0.88013846,0.30199528,1.5541756,35
1486,2.0245886,-0.8373464,1.1570972,0.96749485,36
1487,1.3601516,-1.388218,0.28714347,1.4490274,37
1488,0.5781857,-0.3084092,-2.171813,0.8527858,38
1489,-1.1233878,0.90269303,2.105925,0.3121425,39
1490,1.0742122,-1.1431277,-0.16999014,1.4324715,40
1491,1.9863782,-0.7250607,2.0966444,1.016993,41
1492,1.0432515,-0.8802203,0.9141626,1.1343511,42
1493,1.2126702,-0.32503828,-1.9705205,0.3546573,43
1494,-0.16891533,-0.13804008,-1.2189618,0.8284427,44
1495,1.0162989,0.06320141,-1.0084476,0.58746904,45
1496,1.1897304,0.39508677,-0.7932946,1.553812,46
1497,1.650076,0.10429878,-1.2051531,1.1282341,47
1498,0.5923176,-1.0123597,-1.2828826,0.7016038,48
1499,1.448483,0.56881845,-1.6957259,0.48399615,49
1500,-1.6817598,1.075277,0.7711786,0.9611553,0
1501,0.31313267,0.16155836,0.08674306,0.72751474,1
1502,1.480094,-0.40376914,-0.8611388,0.7336768,2
1503,0.84185946,0.57881624,0.81974053,2.8848686,3
1504,1.5140336,-1.5822642,-0.14311665,1.2559282,4
1505,1.2728053,-0.043437272,-0.043612212,1.5377588,5
1506,0.0153215155,-0.7407572,0.6398641,1.5554597,6
1507,-0.5564722,-0.43997943,-2.5211475,0.76792264,7
1508,1.7730684,-0.6886084,2.1319895,1.2178197,8
1509,0.9873568,-0.90939295,0.47749007,1.0207778,9
1510,0.620218,-1.0030746,-0.32182616,0.62768185,10
1511,1.0821109,-1.0398246,-1.2602445,1.3234998,11
1512,0.65307736,-0.362688,-0.78421676,0.9912238,12
1513,-0.04237643,-0.18800761,-0.12530959,1.3879845,13
1514,1.4864253,-0.51713973,1.5577952,1.1095091,14
1515,-0.032528758,1.3502519,-1.2192807,0.3040076,15
1516,1.3596247,-1.1710922,1.0167986,1.2417973,16
1517,-0.29362318,0.7738661,-1.9383297,1.8957939,17
1518,0.7313523,-0.16629958,-0.039886475,1.8666369,18
1519,1.2889501,-1.7588128,1.1530559,0.53369987,19
1520,-0.46143055,-1.1175604,1.4267036,0.054718673,20
1521,1.1452798,-1.2767289,-0.18563417,0.5655264,21
1522,0.71196055,-0.7359969,1.0870526,1.5317699,22
1523,1.7523434,-0.28718808,-0.12544525,2.931128,23
1524,0.7338355,-1.188784,-0.9315131,0.9636413,24
1525,0.42963013,-1.5717134,-2.4112165,1.3472642,25
1526,0.8996638,-0.5169807,0.25944144,1.393328,26
1527,0.08947104,-0.20934021,-1.9541395,0.9875413,27
1528,0.3024497,-1.5040344,0.10251886,0.08074379,28
1529,0.4973753,-0.93875766,-0.6389566,1.6171594,29
1530,-0.7305207,1.1712681,-0.097218335,0.84209126,30
1531,0.28876692,-0.59215885,0.58139706,0.97869503,31
1532,0.7640299,0.42645025,1.3614103,1.5405207,32
1533,-0.3662024,0.09763634,-2.4619157,1.2654047,33
1534,-0.39761877,-0.92096907,-1.7975638,0.8165784,34
1535,0.8495793,-0.99869907,-0.116053745,1.6479455,35
1536,1.657299,-1.3005114,0.105476886,0.96481276,36
1537,0.72938097,-1.2645015,0.8671069,0.9733068,37
1538,-0.27614552,-0.002035655,-0.4672926,-0.83516383,38
1539,-0.33216447,0.48122793,-1.0873505,-0.2923875,39
1540,1.5658071,-0.8800312,0.21327396,1.4601526,40
1541,-0.0641104,-1.9914165,-0.2854467,0.34348476,41
1542,1.1781356,-1.2522926,-0.539818,1.4357502,42
1543,0.23957041,-0.21004623,-0.49469408,2.0190604,43
1544,-0.70213413,-0.4800331,-1.1435386,0.23309511,44
1545,1.673332,0.024704665,-1.3921424,1.0856115,45
1546,1.4712687,0.6162946,-0.2965036,1.3770365,46
1547,0.026504695,-0.32010716,-0.663048,0.49225414,47
1548,0.5234541,-0.21521002,1.2053236,1.4359,48
1549,-0.6904351,-0.38785014,-1.3558078,2.0678382,49
1550,-0.90662843,1.1306528,1.5278219,1.6998297,0
1551,0.61489505,0.11095821,-0.6192932,1.5712554,1
1552,0.57333505,-0.229166,0.14554697,0.9240694,2
1553,0.55817604,-0.6305609,-1.8968072,0.7191938,3
1554,1.0708139,-1.4875125,0.036557198,0.7717109,4
1555,1.1475757,0.2663549,0.3728913,0.64779294,5
1556,-0.024852388,-0.6520434,0.3648175,2.2554483,6
1557,1.0456694,0.9618996,-1.032439,0.80554473,7
1558,1.992068,-1.7195748,-0.51311034,1.3213683,8
1559,0.9734316,-0.9389168,0.11556423,1.282883,9
1560,0.28107002,-0.51327723,1.0723542,1.1031919,10
1561,-0.142874,-1.3456314,-0.62538785,1.1706941,11
1562,0.3135534,-0.45148796,-1.3215339,-0.66155124,12
1563,0.3580652,-0.12464217,-0.25886467,2.0707512,13
1564,0.4155783,-1.3049262,0.9619435,0.2049787,14
1565,0.33890074,1.0381205,-2.157332,0.61552006,15
1566,1.0490013,-1.5574296,0.60491556,1.2918019,16
1567,-0.5815685,0.51258373,-1.3749914,0.7453675,17
1568,1.1096044,-0.013633341,-0.20909795,1.232696,18
1569,0.030211091,-2.0384345,0.75766724,0.25982088,19
1570,0.37900656,-1.6714957,-0.7032535,0.62554044,20
1571,1.5487542,-0.302809,1.5774614,1.5100203,21
1572,0.7456707,-0.64112604,1.3820671,0.65750325,22
1573,0.22152483,-1.3080807,-1.9322631,1.0251303,23
1574,0.4058664,-1.3129814,-0.84547174,1.5300479,24
1575,-0.14416856,-1.7537622,-2.2604482,1.6125424,25
1576,1.6927742,0.61181957,2.0613222,1.9535619,26
1577,-0.49828202,-0.23872101,-1.0923002,1.3210046,27
1578,1.3154519,-0.97058547,1.4721639,0.5898644,28
1579,1.1047196,-0.83013093,-0.93925035,1.4163569,29
1580,-0.817865,1.2291541,-0.3578694,0.54020846,30
1581,1.3650763,-0.46290228,0.392261,2.2654743,31
1582,0.95251954,-0.18736209,-0.75217813,0.13834223,32
1583,-0.34371078,0.40960473,-1.8741904,1.2454786,33
1584,0.72828305,0.25759172,-0.32296965,1.8328774,34
1585,0.47608984,-1.0648646,-0.2979219,1.8232951,35
1586,-0.636847,-1.516927,0.15298909,0.43183678,36
1587,1.4138653,-1.0427713,0.45992813,1.5565264,37
1588,-0.14910372,-0.23120725,-0.64228034,1.1006459,38
1589,-1.0759815,-0.0340032,-1.6512113,1.0115222,39
1590,0.24965638,-1.6313976,-0.47055477,0.61220396,40
1591,-0.011626601,-2.0806437,-1.3972416,0.57182676,41
1592,0.6487156,-1.6437619,-0.842866,0.83682567,42
1593,0.023708284,-0.9708895,-2.1579506,1.2678447,43
1594,-0.7277687,-0.21912958,-0.29337823,0.39017284,44
1595,1.0705794,-0.10085594,-1.1553233,1.3002659,45
1596,1.4261374,0.5400175,-0.5938153,1.917151,46
1597,0.757713,0.010936603,-0.8843913,0.44973254,47
1598,0.13145047,-1.0449647,-0.91107047,0.3589012,48
1599,-0.17677663,-0.094632104,-1.245471,2.1408658,49
1600,-1.2287211,0.6257212,0.1395877,0.26856166,0
1601,0.47604856,0.5698911,1.2660878,0.9577624,1
1602,0.81295913,-0.67721033,-1.2437208,0.8788535,2
1603,0.06218654,-0.2246042,-0.062172055,1.1041193,3
1604,1.7605788,-1.3089666,0.7532953,0.89805406,4
1605,-0.088208556,-0.73379266,-0.42829013,1.2375705,5
1606,0.6289605,0.0032542944,1.5288734,2.403009,6
1607,-0.51649886,-0.73715115,-2.885537,0.8237864,7
1608,1.5345627,-0.8044597,0.9397269,1.284486,8
1609,0.95512235,-1.155683,-0.53587687,1.0076044,9
1610,0.7544153,-0.35160422,0.77227324,0.8440148,10
1611,0.4992817,-0.5412748,0.5209998,2.2057483,11
1612,-0.5385637,-1.3642023,-2.2407742,-0.37950945,12
1613,-0.34172678,-0.48045233,-0.27776638,1.090415,13
1614,1.238833,-1.640111,0.4734292,0.83601177,14
1615,-0.09120205,0.5662532,-1.4027364,1.7243884,15
1616,1.1911342,-1.3595942,0.6572311,1.553607,16
1617,-0.32065427,0.9177772,-0.33624947,0.83298814,17
1618,0.80566466,-0.536333,-0.9545518,1.2392517,18
1619,2.1173303,-1.3169477,0.99584234,1.084589,19
1620,1.2281587,-1.2952579,0.6855647,0.9053465,20
1621,0.22825044,-2.212779,-1.5336257,0.22171992,21
1622,0.29436493,-1.7343487,-0.97866476,1.5818229,22
1623,0.62591803,-0.7487275,-0.38147894,1.741946,23
1624,0.049799204,-1.0776416,-0.03260289,0.86927795,24
1625,1.2667656,-0.14115375,0.67255104,2.9937537,25
1626,0.88635164,-0.98279536,-1.4368217,0.2458077,26
1627,-0.31943765,-0.2749284,-1.0274738,0.4368317,27
1628,1.5701956,-1.2511184,1.8694298,1.5827731,28
1629,0.89503765,-0.26696488,0.8550421,1.9840854,29
1630,-0.5184704,0.36406004,-1.5553496,1.5328059,30
1631,-0.56173795,-1.0896362,-0.028388172,1.0906682,31
1632,1.1847559,0.14623971,0.0059959833,0.32873058,32
1633,-0.45301777,0.72582924,0.38153613,0.026641488,33
1634,0.5515252,0.57505643,0.2852465,1.4643431,34
1635,1.9644563,-0.63298243,0.8606036,2.418612,35
1636,0.15059769,-2.0240943,-0.40968758,-0.0075167418,36
1637,1.5413606,-0.8457991,1.1596898,1.5171849,37
1638,0.8044817,0.5844503,-0.02494976,1.6797717,38
1639,-1.3174909,0.34087342,-1.0435089,0.48746848,39
1640,0.6044234,-1.559015,-0.9335632,1.301625,40
1641,2.5518255,-0.5419278,1.1713088,1.4803658,41
1642,1.7417046,-0.8518123,0.8415712,1.8258435,42
1643,0.6316629,-0.10169831,-0.39309198,1.0090405,43
1644,-0.616342,-0.107283995,-0.0057781935,0.89784956,44
1645,0.67760986,0.06966886,-0.58806765,1.6634007,45
1646,0.20631775,-0.23552147,-0.7755118,1.4196433,46
1647,0.8887095,0.2077027,-0.32012856,1.4024781,47
1648,1.5791659,-0.1645906,-0.318596,0.82167244,48
1649,-0.8612086,-0.7100066,-0.8226737,1.8083785,49
1650,-1.0379801,0.9738939,0.8909737,1.4663188,0
1651,0.63956076,-0.2589362,-1.3968234,0.16210765,1
1652,0.1988492,-0.80708444,-1.3092406,0.5552417,2
1653,0.14772266,-0.3768109,-0.62673485,1.7855089,3
1654,0.77120423,-1.2549878,0.6062016,0.5297071,4
1655,-0.8276604,-0.7675556,0.034019172,0.84342074,5
1656,1.1107279,-0.69184273,0.020645857,3.2058804,6
1657,-0.62953806,-0.25093567,-1.1067424,1.5045838,7
1658,1.0318552,-1.8684912,-0.689074,0.72325605,8
1659,0.7815164,-1.2673944,-0.53205496,0.6019702,9
1660,0.14310932,-1.1363655,-0.14867504,0.85751176,10
1661,0.04280609,-1.0342607,-0.6311965,0.9700783,11
1662,-0.4276572,-1.0257914,-1.4742606,0.013161778,12
1663,0.18376704,0.4576318,1.3085454,2.7156434,13
1664,1.4418042,-1.0086876,1.4517395,1.3741062,14
1665,-0.68563974,0.71370274,-2.4872546,1.4801335,15
1666,1.0446358,-1.5867372,-0.36509836,0.47818255,16
1667,-0.68265903,0.6180877,-0.63761044,1.3071728,17
1668,-0.23451596,-0.52218515,0.24883088,1.5764351,18
1669,1.5228711,-1.3671836,0.8309233,0.5028921,19
1670,-0.5252706,-1.5577664,0.32620946,-0.067661345,20
1671,2.5240583,-0.42352223,0.610461,2.367819,21
1672,1.6703405,-0.82066095,0.014466807,2.1339593,22
1673,1.6058102,0.30928922,1.3082488,2.0742283,23
1674,1.1818604,-0.53052837,0.35428447,1.7896369,24
1675,1.5528721,-0.36298633,0.15664876,3.5661445,25
1676,-0.10487163,-0.58847535,0.3442859,0.462215,26
1677,0.20478159,-0.18339539,-2.6699576,0.98573196,27
1678,0.9889627,-1.5419168,1.060581,1.6043465,28
1679,0.7102676,-0.67119324,-0.4498161,1.8953857,29
1680,-1.512181,0.13051933,-0.7511659,1.5252738,30
1681,0.11160776,-0.98044455,0.030400425,1.0435884,31
1682,0.53851753,0.14544429,0.5480312,-0.24678636,32
1683,-1.0198202,-0.1936081,-0.6140449,1.2901644,33
1684,0.79914486,0.37481356,-0.49381033,1.9144969,34
1685,1.0956836,-0.70028096,0.08879268,2.378782,35
1686,-0.30330682,-2.0205486,-0.6199575,0.52875197,36
1687,1.5940337,-0.64369404,1.4994006,1.4364963,37
1688,0.22192281,0.39780912,-0.14512166,1.174751,38
1689,-1.5339967,-0.24616492,-0.6848407,-0.20647097,39
1690,0.37872022,-1.2667176,-0.34047347,0.8416718,40
1691,1.0657678,-1.3158846,-0.22969663,1.4351172,41
1692,-0.14749861,-1.5904721,0.4012013,0.53417426,42
1693,1.5879214,0.39307553,0.10436088,2.5126324,43
1694,-0.68183,-0.51280266,-1.6089759,0.097605824,44
1695,1.0499942,-0.22213197,-1.6430477,0.54475975,45
1696,0.115074694,0.07558167,0.12817925,1.6200771,46
1697,0.6123496,0.36924174,-0.076431215,0.40693128,47
1698,0.4930574,-0.6373099,0.21434113,1.1866553,48
1699,-0.31273118,-0.57462,-1.8061094,0.83132195,49
1700,-0.44268292,1.1625762,0.37105095,3.1634817,0
1701,0.57587767,-0.9092014,-3.1251097,-0.44461924,1
1702,-0.037551522,-1.2571667,-1.756793,0.8413724,2
1703,0.30490738,-0.7249577,-2.2214994,3.0415435,3
1704,1.5167732,-1.3797626,0.5025229,1.208656,4
1705,1.1652002,-0.2605096,-0.6967352,0.8114833,5
1706,-0.3726251,-0.85206115,0.8580792,1.2254417,6
1707,-0.40378296,0.059508428,-0.6191469,0.5168283,7
1708,1.4170308,-1.0814215,1.8544176,0.6454062,8
1709,0.9270936,-0.586628,1.7007062,1.3737279,9
1710,0.68714774,-1.3048377,-1.3894569,0.52055943,10
1711,1.2323452,-0.21908835,0.38797888,1.6260675,11
1712,0.23194267,-0.4367332,-0.57883877,1.1549581,12
1713,0.5226583,-0.30721572,-1.2076247,1.0755513,13
1714,1.1556087,-1.0253757,0.32693785,0.7489195,14
1715,-0.5890516,0.85439384,-1.8626411,0.6820835,15
1716,1.8748964,-0.33076084,2.550181,1.6419165,16
1717,0.09524709,1.3103449,-1.2998599,1.3638546,17
1718,0.9906342,-0.16829374,-0.7623886,0.7244987,18
1719,0.75193334,-2.1419988,0.1716879,0.15888304,19
1720,1.7121209,-1.074064,-0.078012735,1.7967746,20
1721,1.0936179,-0.99256116,-0.13893855,1.072084,21
1722,-0.19581527,-1.8653792,-1.1281106,1.2878014,22
1723,1.0943131,-0.47804207,-0.41348892,2.208922,23
1724,1.1602687,-0.47589636,0.715461,1.1594651,24
1725,0.8476403,-1.2042663,-1.4845903,1.6517082,25
1726,1.0344573,-0.9725118,-1.2604773,0.83902186,26
1727,-1.7748172,-0.85549897,-0.40582234,0.6736817,27
1728,1.7551147,-1.1652983,0.46128613,2.4633675,28
1729,1.1200525,-1.0470147,-1.7359647,0.7940917,29
1730,-1.3972583,0.29997146,-0.861252,0.61404794,30
1731,0.62249804,-1.0142996,-0.8189285,2.4339993,31
1732,0.41859,-0.04023911,0.5794969,0.8818555,32
1733,0.20705165,1.2127926,-0.48247874,1.3465929,33
1734,-0.52798074,-0.9340239,-1.416405,1.7387606,34
1735,0.65363604,-1.9964242,-1.4751526,0.67552245,35
1736,1.8641422,-1.0800469,0.73728895,1.6269045,36
1737,1.1171845,-1.1437858,0.27316603,1.2260913,37
1738,0.035735235,0.15642992,-0.23838255,1.1107067,38
1739,-0.9692121,0.3411959,-0.24737972,0.5698357,39
1740,0.63832736,-1.1732547,0.26487094,0.694064,40
1741,0.9924322,-1.5890669,-0.26585847,0.7027762,41
1742,0.37085116,-1.9371581,-1.067996,0.8553895,42
1743,0.07678333,-0.7265439,-1.2031674,2.1337569,43
1744,-0.13241923,0.06532528,-0.86792743,-0.13192207,44
1745,0.05140543,-0.65206945,-1.1154414,1.9892638,45
1746,1.569349,0.70592105,-0.2532447,0.6046861,46
1747,-0.4294678,-0.7355408,-1.0596741,1.9257027,47
1748,0.63809127,-0.7658695,-0.36309093,1.910281,48
1749,1.058297,0.5316864,-0.9072664,0.70562714,49
1750,-0.4874793,1.6297729,0.81392765,0.41116595,0
1751,-1.1130126,-1.0396378,-0.9047434,2.0533996,1
1752,0.33809206,-0.82297623,-0.9452523,1.542617,2
1753,1.1696994,0.0148717165,-0.8071332,0.74923754,3
1754,2.0018885,-0.52462804,2.179665,1.6896448,4
1755,0.40403345,-0.22238734,0.084297776,1.7101964,5
1756,0.23211691,-0.004707098,2.220353,1.8547363,6
1757,0.08677277,-0.0035289824,-2.1772408,0.86255956,7
1758,2.1293292,-0.7273911,1.6792005,1.4723136,8
1759,0.46089008,-1.0280219,-0.3158372,0.8134389,9
1760,1.9335512,-0.0051154494,0.82853806,1.8002748,10
1761,0.21473107,-1.0155189,-0.33364686,1.4362066,11
1762,0.46538135,-0.73614144,-1.7459345,0.43235636,12
1763,0.40130925,-0.18450533,-0.29622734,2.103337,13
1764,1.218333,-1.1322868,0.5265826,1.3030429,14
1765,-0.44669154,0.90895814,-1.5430377,1.0614972,15
1766,0.88746285,-1.0641931,1.1731875,1.0153314,16
1767,-0.4040506,0.94123036,0.10138798,1.6217971,17
1768,0.5140684,-0.35596776,-0.21126214,2.2944217,18
1769,1.0157554,-1.6016343,0.7810923,0.36760753,19
1770,1.4195194,-0.8263849,1.3095559,0.6857363,20
1771,1.9682741,0.18577671,2.638773,1.6935041,21
1772,0.3879726,-1.7893801,-1.3191261,0.30073404,22
1773,1.2023518,-0.03574264,0.31376445,2.692882,23
1774,2.645687,0.062224865,0.33310175,2.6662328,24
1775,0.16065532,-1.8828363,-2.9822369,1.4280915,25
1776,0.69596756,-0.49170065,-0.090184465,0.9889969,26
1777,-0.3070282,-0.055781454,-0.8949107,1.6222718,27
1778,1.6077383,-1.117101,0.95405257,0.8647667,28
1779,1.2051644,-0.5547048,-0.27631667,1.6090903,29
1780,-1.2275342,0.7247075,-0.85311717,1.0537114,30
1781,0.5079619,-0.42595237,0.965515,1.4111071,31
1782,0.15587711,-0.41153038,-0.51382875,0.19720438,32
1783,0.16207407,0.8415222,-1.9002516,1.9483678,33
1784,0.4956513,0.08531177,-0.3683255,0.8622317,34
1785,1.3717511,-0.832432,0.17718631,2.286333,35
1786,1.050633,-1.2752641,0.57622075,0.7861895,36
1787,0.49300027,-1.173504,0.44073454,1.5503322,37
1788,0.26543826,0.16339138,-0.6592488,-0.14332664,38
1789,-0.93087876,0.98386997,-0.2303986,0.47031987,39
1790,0.35475063,-1.8091252,-1.9748193,0.59107393,40
1791,1.3836966,-1.0900424,1.1872135,1.492599,41
1792,1.5103292,-0.8406094,0.8245887,1.184815,42
1793,0.7193707,0.07826391,0.3620147,2.2350378,43
1794,0.17486225,-0.035000846,-2.0420656,0.63672596,44
1795,0.3910038,-0.64353526,-1.5370598,1.7688539,45
1796,0.3425795,0.09088358,-0.68114966,1.8744936,46
1797,0.26292038,-0.3685343,-1.2200627,0.75111127,47
1798,0.9697113,-0.54064155,-0.36077887,1.2095251,48
1799,1.3441757,0.8453542,-0.21484834,0.98672074,49
1800,-0.13167834,1.3153143,-0.5705008,1.6682569,0
1801,-0.043545187,-0.38694277,-0.541111,0.67654395,1
1802,-0.09072763,-1.1139807,-1.6135199,0.2661295,2
1803,1.1189599,0.015415713,-0.89016557,0.59412813,3
1804,2.136804,-1.1317847,0.8549944,1.3773391,4
1805,1.439451,0.11940873,-0.50717175,0.7708683,5
1806,-0.59878004,-1.4378266,-0.4734146,2.7243545,6
1807,0.33747342,0.6418242,-0.3929136,2.8143365,7
1808,1.5610058,-0.83572614,2.4039958,0.79227746,8
1809,1.0086032,-0.7535011,0.74870557,1.6308188,9
1810,1.4467309,-0.014701486,0.5625386,1.3645091,10
1811,0.86659396,-1.0829761,-1.6031692,1.167081,11
1812,0.3963866,0.10641265,0.86687803,2.062692,12
1813,-0.007143289,-0.5284996,-1.2747355,0.73339057,13
1814,1.5031941,-1.3338526,-0.10787618,1.9161266,14
1815,-1.0874009,0.45003748,-1.4549139,0.22889858,15
1816,1.2139995,-1.5510194,0.9292247,1.6561186,16
1817,-2.2207267,-0.7981725,-0.16818333,0.6506081,17
1818,1.6063778,0.38522434,-0.1368163,0.5815793,18
1819,0.50634056,-1.8694825,0.75731826,0.30312347,19
1820,-0.4769888,-2.342358,-1.5047141,-0.30922258,20
1821,1.5882801,-0.59059155,0.45240518,1.611805,21
1822,1.5034187,-0.3032899,1.3820505,1.6818572,22
1823,0.81027025,-1.1700553,-1.485481,1.4567137,23
1824,-0.12751842,-2.092475,-2.0711524,-0.027059078,24
1825,2.112713,0.7101204,1.8795706,1.7321723,25
1826,0.6215504,-0.8206012,-0.5084186,0.40549463,26
1827,-0.1795977,0.044409275,-0.9713396,1.8420708,27
1828,0.18214548,-1.7885349,-0.059939325,0.19997883,28
1829,-0.08434874,-0.7381223,-0.051157832,1.6675025,29
1830,-1.0988965,-0.028261542,-1.6911254,1.1840683,30
1831,-0.18079227,-1.6875906,-2.0185454,1.5081748,31
1832,0.3648187,-0.1391025,-0.020579891,0.13052925,32
1833,-0.3786763,0.18941194,-1.4007643,0.334526,33
1834,1.3375072,0.30778307,-1.4224979,-0.35735077,34
1835,1.623851,-0.5725843,0.86533576,2.126337,35
1836,1.275829,-1.8276272,-1.0460496,1.1524551,36
1837,0.20102048,-1.9666493,-0.57410556,0.67393905,37
1838,0.2473034,0.6483512,0.89491713,1.3764678,38
1839,-1.9615042,0.6505389,1.1056775,0.65287757,39
1840,0.47191185,-0.42891228,2.174991,0.70723677,40
1841,0.9349274,-0.7045224,1.7915342,1.4109546,41
1842,1.2516292,-1.2280751,-0.119086444,0.6577876,42
1843,0.8863715,-0.05005628,-0.042870462,1.8853056,43
1844,-1.1435795,-0.6938136,0.29780114,-0.61195475,44
1845,1.1084175,0.14537835,-0.5061613,2.9682386,45
1846,1.1313927,0.45878026,-1.0824332,0.6491582,46
1847,0.28870955,-0.66979605,-1.934398,1.0137205,47
1848,1.0121849,-0.084513664,1.0108207,1.2499943,48
1849,0.23357469,0.45864686,0.0048363805,1.2824762,49
1850,-0.12215412,1.5269988,-1.1303155,1.26217,0
1851,0.011255801,-0.55933213,-0.94164395,2.120085,1
1852,0.59365916,-0.5952736,-0.68971586,1.1572295,2
1853,-0.006204188,-0.8117024,-2.1641989,1.0922445,3
1854,0.8992938,-1.4216242,0.40934837,0.109250605,4
1855,1.1094571,0.41812357,0.85482764,1.2106946,5
1856,-0.033860028,-0.8841481,0.87962365,1.8427818,6
1857,0.3618988,0.7925341,-0.8756792,-0.41076857,7
1858,2.0001588,-0.50594026,2.6949687,1.4116936,8
1859,1.6293489,-0.8573906,-0.14690301,1.9169315,9
1860,1.1656125,-0.28455538,0.44683212,1.338099,10
1861,-0.10686517,-1.3259294,-1.0193099,0.8906337,11
1862,2.1543226,1.2575443,1.7292001,2.7412958,12
1863,0.26947534,-0.6038189,-1.7994369,0.78761756,13
1864,0.27162236,-1.5476443,0.40168273,0.61919415,14
1865,-0.44587594,0.66191876,-0.65417975,1.0541229,15
1866,0.88190854,-1.3357943,0.6443206,1.7337872,16
1867,-0.3939293,0.40911585,-2.9822302,0.2005741,17
1868,0.90859735,-0.44372573,-1.2370424,0.35230625,18
1869,1.7819264,-1.9849341,0.4114797,0.66490304,19
1870,1.1329213,-1.078016,0.42353737,0.93987066,20
1871,1.8215404,-1.036975,-0.39806858,1.6927259,21
1872,0.0072850585,-1.0911627,0.5418289,0.5770191,22
1873,0.0035335422,-1.0506029,-0.88404715,1.0050951,23
1874,1.5473835,-0.9675261,-1.0321407,1.3931093,24
1875,0.53478014,-1.0632606,-0.6920595,1.0443002,25
1876,1.3954507,-0.7829578,-1.038744,0.81695664,26
1877,-1.5937711,-1.1515894,-1.9840003,2.208504,27
1878,1.5720896,-1.0772144,2.1058643,1.9164567,28
1879,1.0898046,-0.1627953,0.42408484,1.7825153,29
1880,0.5187039,1.5933988,-2.5526452,0.32149553,30
1881,0.0494619,-0.4656519,1.7008386,0.8962688,31
1882,0.97361755,0.50849956,1.2122729,0.7294825,32
1883,-0.019650087,0.46349034,-1.5449927,0.90491945,33
1884,0.52359897,0.5549096,0.6740983,0.10290772,34
1885,0.66708845,-0.66740274,0.11950129,1.4561596,35
1886,1.5420146,-0.83131015,0.50815374,1.102126,36
1887,0.44167256,-1.7473271,-0.0075572133,0.95318484,37
1888,-0.31447387,-0.16651154,-0.33166328,0.68323797,38
1889,-1.0956733,0.948418,1.6828789,2.394056,39
1890,1.0968155,-1.1071343,-0.004494503,1.7312888,40
1891,0.27950263,-1.9272165,-0.5026968,0.24671692,41
1892,0.8011222,-1.1003485,0.49466056,0.9499781,42
1893,0.266099,-0.121620566,0.039911687,1.7996562,43
1894,0.008219344,0.09381643,0.008493662,1.0584884,44
1895,0.5403491,-0.20275767,-0.6964662,1.4053463,45
1896,1.2600968,0.5692593,-0.38799882,2.1243157,46
1897,0.5835263,-0.33627337,-1.333147,1.3553482,47
1898,2.057457,0.15929633,-0.008508474,1.8515716,48
1899,-0.26515844,0.08344916,0.2654326,1.4716823,49
1900,-1.0558147,0.13111001,-0.7844933,0.67620015,0
1901,-0.40045017,0.1634982,0.8438924,0.53108716,1
1902,1.4157419,0.5424051,1.1113176,1.7444952,2
1903,1.0731679,0.19995892,-0.773173,2.0747836,3
1904,1.570704,-1.2801129,0.37103522,1.3720798,4
1905,0.29072315,-0.84761846,-1.2140265,0.91231334,5
1906,0.39077953,-0.58820635,0.90604645,1.9665109,6
1907,-0.08276683,0.4083203,0.31862694,1.296516,7
1908,1.5493442,-0.583019,2.4924505,0.9955289,8
1909,1.3629708,-0.8325213,-0.07379958,1.6756097,9
1910,0.052523255,-1.6674669,-1.5880255,-0.041988194,10
1911,0.7518265,-0.8390032,-0.51647615,1.389921,11
1912,1.3180523,-0.038146853,-0.82000893,1.7491237,12
1913,1.0629627,0.51801515,0.28225833,1.4700351,13
1914,1.1569029,-0.86149013,0.5858427,1.4981775,14
1915,-1.0994382,0.72056806,-0.24445951,1.34026,15
1916,0.6437746,-1.7198974,0.31870452,0.8261299,16
1917,0.1387172,1.0280759,-0.22499168,2.1427448,17
1918,-0.14016241,-0.934869,-1.3791558,0.12464547,18
1919,0.43024385,-1.7969788,1.683397,-0.11790007,19
1920,3.0178776,-0.328892,1.0966057,1.4731674,20
1921,1.635314,-1.1100237,-0.588472,1.4750957,21
1922,0.5788667,-1.4794583,-1.1563456,1.6729373,22
1923,-0.9303909,-2.0825872,-2.4662743,0.7050202,23
1924,1.4894432,-0.9217906,-0.73348653,1.5485697,24
1925,0.881825,-1.08653,-1.1483874,1.6311072,25
1926,-0.34267586,-1.840364,-2.341703,0.25117946,26
1927,-1.1238762,-0.8278306,-1.7108635,0.78950614,27
1928,1.0977576,-1.2893087,0.39046064,0.88260573,28
1929,1.0335802,-0.7092409,-0.6570818,0.7384827,29
1930,-0.34813505,0.2690435,-1.2461783,2.0710857,30
1931,0.080373675,-1.5307453,-0.85257626,1.2489897,31
1932,0.6296897,-0.2459262,-0.2746579,0.06307912,32
1933,-0.01927644,0.61092263,-2.05134,1.7707837,33
1934,1.5849118,1.0453501,-0.8200967,1.4611137,34
1935,0.9904335,-0.5703586,0.59938496,1.2334065,35
1936,1.2109381,-0.8154402,1.0182632,0.8536552,36
1937,1.1400843,-1.5935373,-0.9976668,1.9872975,37
1938,1.0472152,0.95222884,0.501729,1.8598981,38
1939,-0.93967414,0.8135065,0.43077445,1.4189808,39
1940,0.78657305,-0.8805746,0.43282074,1.2907178,40
1941,1.6297135,-0.69185466,2.0760036,1.1793373,41
1942,0.30523938,-2.1992083,-1.6236231,0.696277,42
1943,1.215697,-0.21844484,-1.4046342,2.2658696,43
1944,-0.4286132,-0.11368531,-0.56494147,1.1716679,44
1945,-0.047804177,-0.24408145,-0.18432271,2.1725774,45
1946,0.25390103,-0.42413452,-2.1691277,0.8677743,46
1947,0.49279767,-0.4712314,-1.6713512,0.25454575,47
1948,0.99497104,-0.8664069,-0.9247197,0.5475266,48
1949,-0.25789124,-0.10162032,-0.7241838,2.2390814,49
1950,-0.46976054,1.0649359,-1.036953,1.7452796,0
1951,0.097896844,-0.12043858,-0.49447003,1.0537772,1
1952,0.839889,-0.6519276,-1.2539563,0.7456413,2
1953,0.8965583,0.1165846,-0.29049903,0.5328654,3
1954,2.390284,-0.5169834,1.5078413,1.6478142,4
1955,0.9471302,-0.13704355,-0.39517024,1.5058852,5
1956,-0.44644213,-1.3063552,-0.3789857,2.330629,6
1957,0.3161564,0.9276703,1.0686805,2.4719622,7
1958,1.1043447,-1.7720176,-0.066340506,0.24916917,8
1959,0.4152335,-1.1656439,0.75660044,1.2706586,9
1960,0.6015165,-0.36073342,0.9144361,0.56721693,10
1961,0.6385289,-1.0592443,-0.90283847,1.2551631,11
1962,0.8013705,-0.49171263,-1.1663092,2.156197,12
1963,0.8600938,0.062429205,-0.5231234,2.2747507,13
1964,0.8820202,-1.275186,0.26174682,1.1683733,14
1965,-1.0802243,0.20069402,-1.3978473,0.113190055,15
1966,0.6173677,-1.6445135,-0.7210216,0.87693715,16
1967,0.36993644,1.2622879,-1.72871,0.78323954,17
1968,1.3182939,0.4165396,0.05202034,0.19256061,18
1969,1.4919417,-1.2313328,2.4414363,0.47575557,19
1970,1.0255818,-1.762016,-0.53745055,1.1908766,20
1971,1.1056012,-0.76575166,0.40508774,1.3932543,21
1972,0.40087348,-1.3499566,0.0035797209,1.195221,22
1973,1.2601696,-0.00024926662,-0.015591025,2.400414,23
1974,2.476695,-0.18768555,0.84137464,2.274752,24
1975,1.5104064,-0.29728433,-0.08741748,2.075996,25
1976,2.0575967,-0.15008518,-0.017202586,0.94483995,26
1977,-0.44110227,-0.45630687,-1.496562,1.6115646,27
1978,1.2724031,-0.87821126,1.9972377,0.6935917,28
1979,1.137214,-0.68914926,-0.85202336,0.7777796,29
1980,-1.6310952,0.0014414787,-0.73310804,1.5014665,30
1981,0.47819862,-1.3598273,-1.1461647,2.0772624,31
1982,0.29551452,-0.4370383,-0.57975894,0.47554544,32
1983,-0.5514386,0.74253577,-0.042179704,0.49368185,33
1984,1.1767967,0.9077036,0.26408952,2.19818,34
1985,1.2963262,-1.2188603,-0.64350384,1.1610718,35
1986,1.8092604,-0.55627704,1.2786758,1.7157354,36
1987,0.5413369,-1.13499,0.49808884,-0.060854435,37
1988,0.03735514,-0.3016186,-1.1908151,1.7209172,38
1989,-0.630291,0.7866904,-0.07761338,1.8415414,39
1990,-0.09322816,-2.1198258,-1.3369937,0.7095268,40
1991,1.8708389,-0.39717627,2.045158,1.6748985,41
1992,1.4851363,-0.72285354,1.2635365,1.3756871,42
1993,0.37251675,-0.41236567,-1.0926827,0.9693785,43
