,locs0,locs1,subject
0,0.42679572,-2.2337718,0
1,0.93477356,-2.5636451,1
2,1.0446779,-2.579441,2
3,1.8354354,-1.8696668,3
4,0.839008,-3.3148456,4
5,0.9166388,-3.3991954,5
6,1.6060522,-2.61368,6
7,1.2683188,-2.4991605,7
8,0.8279399,-1.9204907,8
9,0.8767542,-1.6263338,9
10,1.6305487,-2.1471348,10
11,1.1135044,-2.1189432,11
12,1.0663228,-2.4783385,12
13,0.66004467,-0.380565,13
14,0.97709334,-2.3235464,14
15,1.2505065,-2.36721,15
16,1.6211226,-2.0920537,16
17,1.6637412,-2.834803,17
18,1.5586902,-2.5711842,18
19,1.149173,-2.2941082,19
20,1.2050421,-2.4911804,20
21,0.6951425,-2.1895533,21
22,0.9068208,-2.3674006,22
23,1.3315175,-2.4231875,23
24,1.3239396,-2.424015,24
25,0.21358895,-2.3339612,25
26,1.4700279,-1.4271458,26
27,1.9060953,-1.6425962,27
28,1.8557179,-2.3955736,28
29,1.4266405,-2.3284795,29
30,1.7726618,-2.211588,30
31,1.5762472,-2.3947759,31
32,2.0622306,-2.4887538,32
33,1.6457883,-2.55732,33
34,1.2865082,-2.7239273,34
35,1.6388037,-2.147368,35
36,1.2746425,-2.6547182,36
37,0.7457797,-2.5242765,37
38,0.5799673,-3.035852,38
39,1.7271044,-2.2277293,39
40,1.720225,-2.1256466,40
41,1.262894,-2.344413,41
42,1.599459,-2.5314775,42
43,0.34044278,-3.1602013,43
44,0.96151847,-2.2099428,44
45,1.969862,-2.4884367,45
46,2.3828382,-2.6762586,46
47,1.86039,-2.1807187,47
48,0.9214429,-2.5990915,48
49,1.2637142,-2.6573834,49
50,2.1360607,-2.2067227,50
51,0.75461495,0.68051404,51
52,0.18290448,-2.2446554,52
53,1.9387319,-2.5424042,53
54,2.224075,-2.36651,54
55,1.3822808,-3.0585206,55
56,1.4855886,-2.0238996,56
57,1.5932884,-2.005058,57
58,1.1280844,-2.840717,58
59,0.9332206,-2.8622768,59
60,0.8802807,-2.6906319,60
61,1.2510312,-2.5259032,61
62,0.71370935,-2.1224942,62
63,0.13624902,-0.34265894,63
64,0.45597827,-2.5929224,64
65,0.7505719,-2.611502,65
66,1.3601246,-2.1927543,66
67,2.0956209,-2.16016,67
68,1.7361894,-2.2248302,68
69,1.610032,-2.5509477,69
70,0.91770285,-2.7882776,70
71,2.6934564,-2.1074166,71
72,1.7498378,-2.3537264,72
73,1.1437545,-2.6254444,73
74,1.1967481,-1.9387009,74
75,1.5342134,-2.4603834,75
76,2.9640636,-2.2689724,76
77,1.6943789,-2.354817,77
78,1.365236,-2.3500888,78
79,1.8091136,-2.3322995,79
80,1.2819759,-2.3338268,80
81,1.0694137,-1.0358614,81
82,2.0718377,-2.1969678,82
83,2.1687393,-2.3796964,83
84,0.30032718,-1.926638,84
85,1.3504014,-2.7811046,85
86,1.8345269,-2.5462418,86
87,2.4300833,-2.3298516,87
88,0.80660343,-2.714307,88
89,1.456023,-2.376288,89
90,0.64562565,-2.8594675,90
91,0.5839564,-2.5332506,91
92,2.0695868,-2.040131,92
93,0.5144558,-2.628173,93
94,1.5919284,-2.7769368,94
95,1.3043499,-1.6230829,95
96,1.407774,-2.505417,96
97,-0.3265306,0.19707045,97
98,2.1055837,-2.200563,98
99,1.1939428,-2.8783898,99
100,1.6693368,-2.5261698,100
101,1.6236112,-2.1822076,101
102,1.9310797,-2.0752964,102
103,1.8915014,-2.5884297,103
104,0.78551304,-2.2713137,104
105,1.4839867,-2.4113493,105
106,2.0894651,-2.7389495,106
107,1.2496583,-2.4035342,107
108,0.8194076,-3.251921,108
109,1.3827668,-2.4288123,109
110,1.6493971,-2.113255,110
111,1.0362647,-2.7266204,111
112,0.7505069,-2.7477646,112
113,-0.23526093,0.3091739,113
114,1.038794,-2.474925,114
115,1.9051784,-2.4627526,115
116,1.7805593,-2.9080625,116
117,0.8718151,-2.9134815,117
118,1.8941363,-2.3684916,118
119,1.3056742,-2.2612646,119
120,1.133608,-2.6432211,120
121,-0.71281135,-0.07249285,121
122,1.0729342,-2.1291568,122
123,0.9647089,-2.693426,123
124,1.0302887,-2.5892143,124
125,1.542669,-2.7969296,125
126,0.87629384,-2.6867652,126
127,2.093146,-2.6676853,127
128,1.7374644,-2.610554,128
129,0.52828014,0.05919598,129
130,1.1350285,-2.4438918,130
131,0.7286912,-2.5425272,131
132,2.371364,-2.1265855,132
133,1.1858323,-2.1269627,133
134,2.311444,-1.4430624,134
135,1.8391235,-2.580751,135
136,1.858467,-2.2130158,136
137,2.163571,-2.4697044,137
138,0.7100747,-2.143365,138
139,1.9151672,-2.6128767,139
140,1.304264,-2.6411955,140
141,1.7450463,-1.1960726,141
142,1.8363934,-2.648248,142
143,1.2475559,-2.5476115,143
144,1.3015479,-2.385391,144
145,0.6634517,-2.0503683,145
146,1.6914549,-1.522364,146
147,-0.0023044646,0.052101195,147
148,1.5056833,-2.5648582,148
149,1.2271183,-2.18127,149
150,1.9007812,-2.4550445,150
151,2.2729545,-1.7014776,151
152,1.6331387,-2.3604758,152
153,1.2002219,-2.5024254,153
154,1.4183699,-2.227471,154
155,1.6572119,-2.956011,155
156,2.043855,-2.6440532,156
157,1.1405121,-2.342509,157
158,1.5593623,-2.7670488,158
159,0.5264728,-2.6647177,159
160,1.7021366,-2.3292582,160
161,0.7478524,-2.7926116,161
162,0.71906936,-2.5861626,162
163,-0.14353418,-1.9960104,163
164,1.1150903,-2.4819899,164
165,1.6968615,-2.3359494,165
166,1.2157063,-2.3657193,166
167,0.9874973,-2.0251436,167
168,2.0914316,-2.7012792,168
169,1.7022679,-1.9712585,169
170,1.8677919,-2.5531259,170
171,1.4499633,-2.3948753,171
172,1.2627324,-2.0612683,172
173,0.328084,-2.9223547,173
174,1.5513597,-2.3437595,174
175,1.0251064,-2.7240167,175
176,1.0694692,-1.6405846,176
177,1.3511918,-2.8344986,177
178,0.5326954,-2.5083768,178
179,1.6902186,-2.520553,179
180,2.312026,-2.0009499,180
181,1.2014229,-2.5272079,181
182,1.0587223,-2.559174,182
183,1.500547,-2.2446744,183
184,0.61564356,-1.543723,184
185,1.3172871,-2.696159,185
186,1.9481679,-2.4894598,186
187,0.2783231,-2.3219767,187
188,1.1162902,-2.2209568,0
189,1.853593,-1.6637383,1
190,1.2803717,-2.20524,2
191,1.2544154,-2.4520617,3
192,1.9054168,-2.625241,4
193,1.5755723,-2.7250302,5
194,1.1322793,-2.364047,6
195,1.8042073,-2.3649733,7
196,0.37470436,-2.288993,8
197,1.2753749,-1.8627553,9
198,0.8825136,-2.5317512,10
199,1.4148536,-2.6224375,11
200,1.3078315,-2.0548775,12
201,-0.43629807,0.045551315,13
202,1.3687257,-2.0324593,14
203,1.6242344,-2.5897877,15
204,1.8651266,-2.1146445,16
205,1.5112098,-2.5700436,17
206,2.3864295,-2.8162148,18
207,1.0678262,-2.0685694,19
208,1.2538098,-2.1423445,20
209,0.48376524,-2.003939,21
210,1.8386195,-1.9141345,22
211,1.56035,-2.408588,23
212,0.91729873,-1.9706062,24
213,2.2894669,-2.2564745,25
214,0.5739068,-1.8351071,26
215,1.3005558,-1.7131386,27
216,1.265326,-3.2028146,28
217,1.4828919,-2.7383544,29
218,1.9641646,-2.6526308,30
219,1.9295267,-2.236758,31
220,1.6811271,-2.0776267,32
221,1.1039996,-3.0184686,33
222,1.524518,-2.7698364,34
223,1.4333266,-2.4281044,35
224,1.6857096,-2.867608,36
225,1.5283225,-2.5186052,37
226,1.1646985,-2.8046653,38
227,0.99901056,-2.4474893,39
228,1.5770404,-2.3804939,40
229,1.5131042,-1.7771021,41
230,1.6563514,-2.4695232,42
231,2.4079213,-2.4415321,43
232,0.99999845,-1.8267415,44
233,1.3546917,-3.394528,45
234,1.5602372,-2.8020976,46
235,1.6376135,-2.5428758,47
236,1.6877974,-2.7931283,48
237,1.355973,-2.96024,49
238,1.4415518,-2.3505569,50
239,-0.14825624,0.5686356,51
240,1.5570441,-2.3247027,52
241,1.030744,-2.304703,53
242,1.7403727,-2.3524027,54
243,1.2705313,-2.0314136,55
244,0.69764525,-2.3349237,56
245,1.855703,-2.3262079,57
246,1.6716862,-2.2566266,58
247,1.9834771,-2.6363397,59
248,1.2845867,-2.3622384,60
249,1.1419253,-2.3993344,61
250,1.1307533,-2.0421195,62
251,-0.63907003,-0.39515454,63
252,1.0954864,-2.70553,64
253,1.1155688,-2.596734,65
254,1.7714043,-2.5241501,66
255,0.9346086,-2.293704,67
256,0.66527027,-2.7548637,68
257,1.281654,-2.1699367,69
258,1.7187724,-2.4167738,70
259,1.2760129,-2.2202537,71
260,1.016049,-2.5284142,72
261,1.0998862,-2.3571901,73
262,1.3702596,-1.972862,74
263,1.5303054,-2.4995346,75
264,2.319625,-2.3642786,76
265,1.911047,-2.4186203,77
266,1.4059521,-2.1915307,78
267,0.76009274,-2.4033406,79
268,1.9957051,-2.218918,80
269,1.2464939,-0.8477192,81
270,1.7316607,-2.0778635,82
271,0.9845771,-2.570314,83
272,1.9065276,-1.7530386,84
273,1.0035369,-2.9283624,85
274,1.376118,-2.379174,86
275,0.722958,-2.6747246,87
276,1.2834196,-2.7383747,88
277,0.6773309,-2.199008,89
278,1.3762202,-2.4939008,90
279,1.8457135,-2.614182,91
280,2.0860035,-2.5219932,92
281,1.4607533,-2.1131754,93
282,1.2398275,-2.93596,94
283,0.30582386,-1.7662368,95
284,2.097,-2.685966,96
285,-0.96813744,0.2653935,97
286,0.4532814,-2.4985232,98
287,1.696669,-2.39709,99
288,1.82401,-2.2201838,100
289,0.88270915,-1.9631162,101
290,0.6091965,-2.108221,102
291,1.5883336,-2.6231418,103
292,0.8450012,-2.1157935,104
293,0.666667,-2.5122855,105
294,1.4076178,-3.048121,106
295,1.6217179,-2.4873438,107
296,2.6580825,-2.4464989,108
297,1.2252109,-2.65377,109
298,0.70603937,-2.5987585,110
299,1.450257,-2.2279305,111
300,1.9922454,-2.6502595,112
301,0.29496384,0.41273588,113
302,1.324182,-2.485894,114
303,0.7900275,-2.6100795,115
304,2.0958142,-3.0503836,116
305,1.3580121,-2.6399982,117
306,1.5047843,-2.1150813,118
307,1.450578,-2.7791386,119
308,0.31966114,-2.9341245,120
309,-0.57193875,-0.4716006,121
310,1.3536282,-2.499613,122
311,0.6021339,-3.1395082,123
312,0.38591337,-3.1113517,124
313,1.6036001,-2.5927672,125
314,2.8896174,-2.0911381,126
315,0.35673463,-2.7542903,127
316,1.8504792,-2.9009862,128
317,-0.21470582,-0.27283502,129
318,0.7354199,-2.5302587,130
319,1.9043486,-2.0598006,131
320,1.0837154,-2.8950214,132
321,0.08029926,-2.6402824,133
322,0.9461623,-1.8171723,134
323,1.6244373,-2.2866306,135
324,0.7056144,-2.6100056,136
325,1.435789,-2.2361023,137
326,1.092149,-2.2215579,138
327,0.7597467,-2.0004606,139
328,2.2688744,-2.5925128,140
329,0.811011,-1.4302541,141
330,1.5353808,-2.567477,142
331,1.9159447,-2.2318745,143
332,1.4508755,-2.5066228,144
333,1.1855232,-2.3932838,145
334,1.2095133,-1.8660946,146
335,0.60568297,0.18302232,147
336,1.3449478,-2.0636663,148
337,1.446633,-2.7017565,149
338,1.3896294,-2.4535885,150
339,1.3440323,-2.5685842,151
340,1.6803861,-1.683196,152
341,1.3235224,-2.0132768,153
342,1.5628334,-2.2033932,154
343,1.0317593,-2.673251,155
344,1.5984838,-3.141523,156
345,2.1173832,-2.4110384,157
346,1.5382946,-2.2240522,158
347,1.8546091,-2.2791014,159
348,1.2265613,-2.5337296,160
349,1.5419838,-2.706114,161
350,1.1233537,-2.1638827,162
351,1.9705243,-1.6152053,163
352,1.5016252,-2.0438704,164
353,0.35437918,-2.476624,165
354,1.7344012,-2.5648623,166
355,1.8876772,-1.7924516,167
356,1.3276614,-2.7593973,168
357,2.273331,-2.2081676,169
358,1.3468454,-2.5795813,170
359,1.0213853,-2.4904118,171
360,1.5628837,-2.3669882,172
361,1.4806488,-2.936039,173
362,1.5778512,-2.4707987,174
363,1.6983782,-2.5164595,175
364,2.3562622,-1.8299985,176
365,1.7497616,-2.323079,177
366,1.3566321,-2.2704096,178
367,1.2454832,-2.3024433,179
368,1.4162511,-1.9699278,180
369,1.5920839,-2.4140835,181
370,1.5903572,-2.4240966,182
371,1.6178309,-2.7373712,183
372,0.36901516,-1.6515665,184
373,1.8962936,-2.3484595,185
374,1.1162796,-2.4542875,186
375,2.401408,-1.6859195,187
376,1.4436419,-2.2116654,0
377,1.5999317,-2.2152715,1
378,1.247403,-2.1365654,2
379,2.0648425,-1.9021971,3
380,1.6914964,-2.8120215,4
381,1.740476,-2.8343592,5
382,0.7576937,-2.2470024,6
383,2.1618266,-2.1427324,7
384,0.4644208,-2.5255716,8
385,0.8349148,-1.5895973,9
386,1.2208649,-2.1877787,10
387,1.6416919,-2.4815419,11
388,1.342771,-2.4363415,12
389,-0.43990213,-0.18966493,13
390,1.0364616,-2.4238324,14
391,2.1291955,-2.0774972,15
392,0.6860719,-2.926337,16
393,1.7349524,-2.4456408,17
394,1.8897519,-2.9379818,18
395,1.5490507,-2.5611808,19
396,1.5502499,-2.4844842,20
397,1.4804661,-2.0662806,21
398,1.5133798,-2.2092946,22
399,2.1082869,-2.0608325,23
400,2.334225,-2.1693506,24
401,1.3225421,-2.0340698,25
402,0.87042654,-1.705771,26
403,1.157557,-2.1095874,27
404,1.4979895,-3.0772269,28
405,1.1171424,-2.5079129,29
406,0.740816,-2.566098,30
407,0.89109373,-2.3582118,31
408,1.621637,-2.4404242,32
409,1.6453556,-2.9281337,33
410,1.116897,-2.8732862,34
411,1.018739,-2.6237566,35
412,1.4742917,-2.7420993,36
413,1.4577259,-2.2325175,37
414,1.7173295,-2.8981738,38
415,1.7174908,-2.4826303,39
416,1.7326995,-2.0959842,40
417,1.0193998,-1.9699541,41
418,1.59906,-2.5652223,42
419,1.0260726,-2.6914067,43
420,0.9693099,-1.7689531,44
421,1.1422491,-3.2100039,45
422,1.4786828,-2.7062495,46
423,0.524499,-2.8092692,47
424,0.75318396,-2.714242,48
425,1.566652,-2.348233,49
426,0.6662013,-2.5324106,50
427,0.102592364,-0.076676115,51
428,1.4222156,-1.9898598,52
429,0.7242836,-2.3740337,53
430,1.2349088,-2.7213118,54
431,0.60419405,-2.2523828,55
432,1.6455762,-1.5635562,56
433,1.7350594,-2.347226,57
434,1.4533949,-2.533709,58
435,1.093788,-2.6854236,59
436,1.7489257,-2.209437,60
437,1.9982811,-2.2261233,61
438,1.8422534,-2.1885817,62
439,-0.6257539,-0.11963434,63
440,1.3488073,-2.293586,64
441,1.5606823,-2.3654726,65
442,1.5312082,-2.7575185,66
443,1.142963,-2.3157222,67
444,1.2297926,-2.1174824,68
445,1.6616328,-2.5881667,69
446,1.4059336,-2.5795548,70
447,1.7613246,-2.7159607,71
448,0.5812297,-1.9809341,72
449,1.1924918,-2.014793,73
450,1.9377874,-1.7669765,74
451,1.0611615,-2.1700964,75
452,2.2116196,-2.0965621,76
453,1.6032045,-2.6368475,77
454,1.0478237,-2.4444954,78
455,1.9875187,-2.3168206,79
456,1.2361269,-1.8982024,80
457,0.53017855,-1.5774279,81
458,1.4622896,-2.585046,82
459,1.822356,-2.529758,83
460,1.4541502,-1.9384046,84
461,1.1254606,-2.6150362,85
462,0.7030808,-2.3315272,86
463,0.67020375,-2.7616835,87
464,1.369941,-2.5455475,88
465,1.02632,-2.361344,89
466,1.6630256,-2.9311168,90
467,0.94567823,-2.2643657,91
468,2.0739813,-2.0188897,92
469,0.95391554,-2.1405568,93
470,2.4002852,-2.6239357,94
471,0.96184605,-1.3255882,95
472,2.3595867,-2.1868677,96
473,-0.5472347,0.029284716,97
474,1.5261916,-2.1103501,98
475,1.577136,-2.420178,99
476,1.0384538,-2.386439,100
477,1.1460105,-2.0549774,101
478,-0.0068906546,-2.3776276,102
479,0.9745972,-2.7661395,103
480,1.4909207,-1.9363984,104
481,1.4123582,-2.5961337,105
482,0.9715673,-2.9345894,106
483,1.4429096,-2.218563,107
484,1.4524766,-3.084187,108
485,1.6936895,-2.5315533,109
486,1.2759001,-2.6021695,110
487,0.9157641,-2.92793,111
488,1.155441,-2.860807,112
489,0.3724683,0.42252535,113
490,0.7870448,-2.432363,114
491,1.6884339,-2.5566864,115
492,1.9205921,-3.101562,116
493,1.2004554,-2.4863722,117
494,2.1904798,-2.7928464,118
495,1.2462136,-2.5693734,119
496,1.1665118,-2.4660528,120
497,0.37427965,-0.04725215,121
498,0.8831699,-2.3621123,122
499,2.1314666,-2.3084533,123
500,1.6181544,-2.2015836,124
501,1.5780026,-2.5083888,125
502,0.27540374,-2.5770116,126
503,1.955653,-2.3829064,127
504,1.4235073,-2.5694351,128
505,0.27072415,0.40272897,129
506,0.6895398,-2.4404626,130
507,1.2342362,-2.6667144,131
508,0.80519783,-2.709208,132
509,1.246316,-2.3713017,133
510,0.9028928,-2.3749754,134
511,1.1061542,-2.6906376,135
512,1.7531208,-2.544033,136
513,1.9773662,-2.1077523,137
514,1.4983073,-2.1316323,138
515,1.3635474,-2.4531453,139
516,1.2734114,-2.2250543,140
517,-0.3191495,-1.5930848,141
518,1.2844744,-3.1556442,142
519,2.2512798,-2.3682299,143
520,1.2814621,-2.4173508,144
521,1.5939224,-2.160589,145
522,2.0178127,-1.2326498,146
523,0.39792326,0.5304935,147
524,1.9326035,-2.392161,148
525,1.0495071,-2.632281,149
526,1.5349118,-2.676806,150
527,0.66815776,-2.370367,151
528,1.0673666,-2.2973015,152
529,1.6925993,-2.156818,153
530,2.5864248,-1.6359613,154
531,0.7447001,-2.7718482,155
532,2.269773,-2.4179473,156
533,0.8714663,-2.3701174,157
534,1.8394883,-2.666886,158
535,1.6067003,-2.6530297,159
536,1.0667243,-2.1440785,160
537,1.7394139,-2.372074,161
538,1.1112334,-2.4523733,162
539,1.3212782,-2.1541734,163
540,2.1816757,-2.147362,164
541,1.1085536,-2.3846364,165
542,1.6310726,-2.4369793,166
543,0.3751496,-2.023781,167
544,2.0499477,-2.6132197,168
545,1.6156647,-2.0635781,169
546,0.6836752,-2.4193814,170
547,1.7960982,-2.6012156,171
548,1.7806072,-1.7695521,172
549,1.8205847,-2.640824,173
550,2.5897927,-1.9015231,174
551,1.8818378,-2.7223117,175
552,2.2041957,-1.9882729,176
553,1.7503685,-2.5774953,177
554,1.5864948,-2.568629,178
555,2.0799117,-2.373072,179
556,1.2552072,-2.2939904,180
557,1.7135652,-2.3450022,181
558,1.7314721,-2.520991,182
559,1.4711345,-2.256641,183
560,0.90918815,-1.4415452,184
561,0.3458593,-3.051187,185
562,1.2847236,-2.467119,186
563,0.939621,-2.0915394,187
564,0.8505822,-1.8743284,0
565,2.2532964,-2.241606,1
566,1.4346257,-2.342114,2
567,1.7049054,-1.7762434,3
568,1.3618832,-2.7492735,4
569,0.32017398,-3.0474854,5
570,1.799991,-1.8262634,6
571,1.1682779,-2.5025673,7
572,2.184905,-1.7250526,8
573,1.4694933,-1.3958559,9
574,1.5785745,-1.8308692,10
575,1.1619678,-2.6283388,11
576,2.0954144,-2.735662,12
577,1.1202298,0.7737271,13
578,2.110181,-2.0012627,14
579,1.6974655,-2.0756235,15
580,1.4656044,-2.313788,16
581,0.7028393,-2.9537377,17
582,1.7102785,-2.7497473,18
583,1.4308251,-2.1059024,19
584,2.0953844,-2.040819,20
585,0.22697651,-2.0390143,21
586,0.85365,-2.2635138,22
587,2.196041,-2.2255032,23
588,2.2996662,-1.8617241,24
589,1.1556243,-2.3798275,25
590,1.2701954,-1.8509927,26
591,0.8679429,-1.9961749,27
592,1.1364026,-3.2348058,28
593,1.07245,-2.646327,29
594,0.4233445,-2.322083,30
595,2.7464714,-2.0102284,31
596,0.93131536,-2.9175706,32
597,1.1395048,-2.9704168,33
598,2.1198282,-2.93067,34
599,1.0548527,-2.7026494,35
600,1.173127,-2.2764175,36
601,0.8038932,-2.053346,37
602,1.7381985,-2.8064897,38
603,2.184044,-2.4025757,39
604,2.0214353,-2.170604,40
605,0.99818915,-2.453811,41
606,1.7436482,-2.4794443,42
607,1.5594085,-2.7961798,43
608,1.0975835,-1.9575436,44
609,2.314952,-2.2292485,45
610,3.0828264,-2.4131782,46
611,1.8369744,-2.8316357,47
612,1.3957521,-2.6470551,48
613,1.4462397,-3.1793773,49
614,1.4466707,-2.8948946,50
615,-0.13342836,0.37300175,51
616,0.5670101,-1.926209,52
617,1.6610432,-2.7228818,53
618,1.0404986,-2.4038086,54
619,1.3083946,-2.1302176,55
620,0.13962042,-2.4725206,56
621,1.6679174,-2.35185,57
622,0.5374849,-2.2509108,58
623,1.859669,-2.2026498,59
624,1.4019533,-2.677631,60
625,0.97772163,-2.2958848,61
626,1.4274516,-1.7948126,62
627,-0.46144617,-0.08620086,63
628,1.4466683,-2.3758228,64
629,0.9186561,-2.3837962,65
630,1.4502362,-2.1059222,66
631,1.3273796,-2.2502263,67
632,2.3730357,-2.0643923,68
633,1.7269858,-2.2207375,69
634,1.010701,-2.8805234,70
635,0.6164732,-2.4346306,71
636,1.6007951,-2.4711263,72
637,1.7917193,-2.175952,73
638,0.29906386,-1.9736551,74
639,1.9498328,-2.378673,75
640,1.4678458,-2.4286003,76
641,1.7680944,-2.290355,77
642,1.2796175,-2.1447217,78
643,1.6925027,-2.22479,79
644,1.4760634,-2.3659286,80
645,1.1070279,-1.038098,81
646,0.49161303,-2.190735,82
647,1.6425866,-2.7387197,83
648,1.2102118,-2.1763442,84
649,2.089284,-2.6206012,85
650,2.0158415,-2.2929785,86
651,-0.15470076,-2.7090545,87
652,1.3052213,-2.2111588,88
653,0.91430414,-2.6098015,89
654,1.4679216,-2.1904259,90
655,1.9901153,-2.6587057,91
656,1.7941821,-2.2178538,92
657,1.2590467,-2.3242645,93
658,2.2601113,-2.4118338,94
659,1.3819854,-1.2387505,95
660,2.3499677,-2.9340782,96
661,0.8755237,0.5659073,97
662,2.452138,-2.368451,98
663,1.3718258,-2.4103966,99
664,1.0454161,-2.6256585,100
665,1.811029,-1.8809454,101
666,0.62532854,-2.1580594,102
667,1.141954,-2.8282225,103
668,1.3211751,-2.067472,104
669,1.8590184,-2.314152,105
670,2.031877,-2.69449,106
671,1.1792891,-2.401824,107
672,1.4458252,-2.733965,108
673,1.0369649,-2.6083593,109
674,1.4137353,-2.348229,110
675,1.295864,-2.6649444,111
676,1.7763947,-2.787678,112
677,-0.58754206,0.24780293,113
678,2.1122067,-2.189313,114
679,0.9498357,-2.652385,115
680,1.0070968,-2.823912,116
681,-0.05260539,-2.9186687,117
682,1.4870863,-3.0257788,118
683,2.0058775,-2.7558177,119
684,1.5874791,-2.3562653,120
685,-0.12569839,0.20862088,121
686,1.1148899,-1.8842206,122
687,2.175319,-2.5819564,123
688,2.1615796,-2.1653538,124
689,1.1832033,-2.5544155,125
690,0.833355,-2.565241,126
691,1.9063036,-2.69616,127
692,1.0426974,-3.1975942,128
693,0.115469694,0.20374253,129
694,1.6880023,-2.4069273,130
695,1.2422606,-2.694261,131
696,1.5140443,-2.1240134,132
697,0.639832,-2.7986207,133
698,0.88901037,-1.8318815,134
699,1.8076262,-2.6618905,135
700,1.7389696,-2.541332,136
701,1.3963338,-2.5199933,137
702,-0.7738875,-2.516722,138
703,1.4064168,-2.3473294,139
704,1.6445909,-2.2029238,140
705,0.48403078,-1.5878123,141
706,1.1605715,-2.9673567,142
707,0.6184035,-2.9277768,143
708,0.4516356,-2.4551756,144
709,0.9105464,-2.4941058,145
710,1.0535136,-1.7482427,146
711,0.044864655,0.12337201,147
712,1.0979347,-2.4302876,148
713,1.749617,-2.315397,149
714,1.834817,-2.4193988,150
715,0.9585118,-2.313568,151
716,-0.736415,-2.791887,152
717,1.0745276,-2.2323139,153
718,1.1899595,-2.105245,154
719,0.72730243,-3.035462,155
720,1.2189437,-2.832904,156
721,0.89277554,-2.8879857,157
722,0.41922235,-2.8297715,158
723,2.0382109,-2.0753186,159
724,0.80041903,-2.7575774,160
725,2.1621509,-2.3622122,161
726,1.0966092,-2.4540784,162
727,1.4725026,-1.8263462,163
728,1.3422377,-2.0130727,164
729,1.407833,-2.3788745,165
730,1.6726196,-2.2572196,166
731,1.1280063,-1.6777925,167
732,1.0987294,-3.1680539,168
733,0.9937427,-2.0713692,169
734,1.5145736,-2.9976296,170
735,1.5491456,-3.0134015,171
736,1.6715684,-1.607135,172
737,2.4499075,-2.666904,173
738,2.3368478,-2.0163727,174
739,1.8672678,-2.7335196,175
740,1.9053771,-2.0345683,176
741,1.1482155,-2.9786623,177
742,1.4607549,-2.433871,178
743,1.0779691,-2.4442513,179
744,0.652293,-2.2846293,180
745,1.1193736,-2.9578187,181
746,0.4484293,-2.827078,182
747,0.4217732,-2.8407958,183
748,0.80023867,-1.4978822,184
749,1.5476954,-2.7060897,185
750,1.5423145,-2.1811368,186
751,1.0067027,-1.518109,187
752,2.00776,-1.7997004,0
753,1.5118119,-2.7924676,1
754,0.9508717,-2.3372672,2
755,0.49939197,-1.8115778,3
756,1.6383694,-2.7217982,4
757,2.605755,-2.9787478,5
758,1.657165,-2.2074368,6
759,1.3104018,-2.2391133,7
760,0.32835805,-3.047138,8
761,0.6445576,-1.9293104,9
762,0.7167915,-2.728928,10
763,1.2413037,-2.3361127,11
764,1.3896531,-2.3284833,12
765,-0.04635133,-0.20753473,13
766,0.6246073,-2.549608,14
767,1.8318553,-2.809851,15
768,0.83691347,-2.4671052,16
769,1.8685887,-2.581087,17
770,1.087753,-3.166568,18
771,1.0897757,-2.5947003,19
772,1.2270916,-2.5142577,20
773,0.54773664,-2.1372452,21
774,1.5321954,-2.364456,22
775,0.67621154,-2.675737,23
776,1.2804232,-2.743298,24
777,0.8022757,-2.4261227,25
778,0.86050904,-2.1797428,26
779,2.0363288,-2.1090937,27
780,1.6067139,-2.5680509,28
781,0.84065783,-2.3032334,29
782,2.8008075,-1.9494443,30
783,1.094569,-2.4057183,31
784,1.4968553,-2.9618278,32
785,1.788089,-2.6934,33
786,1.5818069,-2.5474963,34
787,1.3570032,-1.891663,35
788,1.1505301,-2.3908381,36
789,1.2916248,-2.1617765,37
790,1.1795096,-2.8512468,38
791,1.5573318,-2.5597792,39
792,1.4032378,-2.4562025,40
793,2.4882135,-2.3688462,41
794,1.1946226,-1.8940185,42
795,1.0802743,-2.9707057,43
796,1.9672555,-1.9527693,44
797,2.1296885,-2.4738414,45
798,0.43264854,-2.9748542,46
799,1.5466058,-2.0166907,47
800,1.5490695,-2.304668,48
801,1.8965888,-2.2115626,49
802,2.5314565,-2.4602983,50
803,-0.30893075,0.43878877,51
804,2.3820267,-2.1425118,52
805,1.9030814,-2.8179822,53
806,0.2922628,-2.5747905,54
807,2.415473,-2.0137837,55
808,1.2647834,-2.048229,56
809,1.2293658,-2.491972,57
810,0.5347497,-2.7423077,58
811,1.7612396,-2.069974,59
812,2.2770312,-2.3378718,60
813,1.5626193,-2.0965712,61
814,1.404054,-2.1428525,62
815,0.38055503,0.14148517,63
816,1.1530384,-2.7400606,64
817,1.4777057,-2.6155653,65
818,1.3539579,-2.821206,66
819,1.2919732,-2.4528115,67
820,1.0714859,-2.4105332,68
821,1.6943713,-2.3421094,69
822,1.3617135,-2.4149814,70
823,1.1179137,-2.4806814,71
824,1.9796438,-1.963758,72
825,0.9199217,-2.4218268,73
826,0.5553015,-2.448681,74
827,1.2520998,-2.5269852,75
828,0.4170789,-2.687471,76
829,0.7410994,-2.5343473,77
830,1.2465571,-2.5172815,78
831,1.8788478,-2.5363374,79
832,1.0617331,-2.041183,80
833,1.1003911,-1.1694058,81
834,1.153106,-2.4821215,82
835,0.8773963,-2.4451468,83
836,1.1216309,-1.7436485,84
837,1.3463268,-3.2355552,85
838,0.3746047,-2.5646627,86
839,2.4869785,-2.1935372,87
840,1.0839051,-2.771495,88
841,1.4150136,-2.411514,89
842,1.231953,-2.7925143,90
843,1.7954049,-2.5967782,91
844,1.294175,-2.40219,92
845,0.78097606,-2.5565138,93
846,0.7824811,-2.7590535,94
847,0.9090179,-1.5510553,95
848,1.9670489,-2.5816774,96
849,-0.32657874,0.57646036,97
850,0.8808334,-2.257505,98
851,1.0642358,-2.3954911,99
852,1.0007081,-2.4368658,100
853,1.6891823,-1.912335,101
854,1.2191706,-2.2999802,102
855,1.81654,-2.9671845,103
856,1.7735312,-2.124371,104
857,1.3602976,-2.3379738,105
858,1.5776676,-2.9760203,106
859,1.0114102,-2.673664,107
860,1.4253141,-3.1688716,108
861,0.98941267,-2.7937264,109
862,0.96181583,-2.501148,110
863,0.28251898,-2.8484886,111
864,2.0152698,-2.4426694,112
865,0.24540977,0.44842994,113
866,1.6449355,-2.530912,114
867,1.2034839,-2.315256,115
868,1.5944835,-2.9092607,116
869,1.9717672,-2.2935166,117
870,1.1302147,-2.450684,118
871,1.4657369,-2.6497343,119
872,2.3811705,-2.391807,120
873,0.6459259,0.9462314,121
874,1.6897775,-1.9525088,122
875,1.3729693,-3.289775,123
876,1.9215021,-2.0823572,124
877,1.9778012,-1.8180959,125
878,0.80337155,-2.7121203,126
879,2.5194917,-2.6032767,127
880,1.2736936,-2.738398,128
881,-0.9838096,-0.02387613,129
882,1.8413341,-2.4809434,130
883,1.6863139,-2.3077435,131
884,1.0238018,-2.3786883,132
885,1.003683,-2.6968706,133
886,1.4070073,-1.4355485,134
887,1.1418333,-2.938124,135
888,1.5012646,-2.420882,136
889,1.6566513,-2.0246046,137
890,2.004889,-2.1883428,138
891,1.3654189,-2.3853848,139
892,1.7842946,-2.358027,140
893,1.0477512,-1.4371996,141
894,3.07028,-2.1644146,142
895,0.3268218,-2.3903184,143
896,1.7398903,-2.4245002,144
897,0.8930647,-2.5803814,145
898,0.81627554,-1.7192794,146
899,-0.20441408,0.10634345,147
900,1.6330304,-2.38517,148
901,0.43901342,-2.6651638,149
902,1.51939,-2.2191367,150
903,1.2537155,-2.4293845,151
904,1.5235972,-2.080184,152
905,1.5157238,-1.8900826,153
906,0.6337994,-1.997942,154
907,1.4508762,-2.554691,155
908,0.99674433,-3.0756288,156
909,1.8945405,-2.2252328,157
910,1.2969464,-2.5870574,158
911,1.8448986,-2.098391,159
912,2.1663592,-2.7251596,160
913,0.9401187,-2.7969713,161
914,1.7643293,-1.8449655,162
915,1.9271055,-1.8049117,163
916,0.95152014,-2.6968803,164
917,1.2208409,-2.608625,165
918,0.8982503,-2.606343,166
919,0.5848406,-1.8068131,167
920,1.8540334,-2.763563,168
921,0.9811579,-2.126087,169
922,2.5373268,-1.8369162,170
923,1.4991758,-2.209713,171
924,1.1127894,-2.0020614,172
925,2.2738996,-2.7572603,173
926,1.2570233,-2.547116,174
927,0.8011145,-2.8066335,175
928,1.0538254,-1.920357,176
929,1.2293764,-3.081054,177
930,1.6267084,-2.5247834,178
931,0.7913814,-2.4068544,179
932,2.3685699,-1.7490438,180
933,0.92188364,-2.9778786,181
934,1.5858481,-2.5132205,182
935,1.0132227,-2.2376893,183
936,0.8332213,-1.4186425,184
937,1.5945911,-2.4529846,185
938,1.4244382,-2.310824,186
939,1.4551423,-1.4717407,187
940,0.6469608,-1.9874539,0
941,1.4584217,-3.0383973,1
942,2.321019,-1.9430424,2
943,1.2998148,-2.1646717,3
944,2.462164,-2.8853054,4
945,1.3608177,-2.2896137,5
946,1.0587798,-2.261808,6
947,1.669482,-2.262902,7
948,0.61989075,-2.6032982,8
949,1.743233,-1.2447222,9
950,1.5827453,-2.196891,10
951,1.6993743,-2.37456,11
952,1.2744145,-2.7850432,12
953,0.2932709,0.43024412,13
954,1.471942,-2.4796515,14
955,0.9660977,-2.6479356,15
956,1.1692013,-2.4991517,16
957,1.8421454,-2.3251643,17
958,0.41392946,-3.0137234,18
959,1.1648474,-2.1907153,19
960,1.4393628,-2.048566,20
961,1.2354244,-1.8386991,21
962,2.0261502,-2.2768116,22
963,1.0631675,-2.4710362,23
964,1.8267698,-2.0273483,24
965,1.6460612,-2.6596622,25
966,0.9186779,-1.8616043,26
967,0.22105789,-2.3234773,27
968,1.6696868,-2.9630778,28
969,1.2628201,-2.4457076,29
970,1.7331928,-2.4118676,30
971,1.0502626,-2.345579,31
972,1.143688,-2.4250572,32
973,1.5327923,-2.8063009,33
974,1.8018829,-2.9725776,34
975,1.1951764,-2.703161,35
976,0.7472744,-2.8013966,36
977,1.6772916,-2.0266159,37
978,2.1169047,-2.6714969,38
979,1.0668833,-2.8400054,39
980,0.63779247,-2.8464673,40
981,1.389147,-2.2712855,41
982,1.3309404,-2.3619175,42
983,1.3621235,-2.5213645,43
984,1.1776398,-1.7841707,44
985,1.0149257,-2.825072,45
986,1.2425599,-2.9466984,46
987,1.1907694,-2.7791722,47
988,1.1640369,-2.721371,48
989,1.6779394,-2.8781662,49
990,0.031397462,-2.5940852,50
991,0.4679565,0.69890654,51
992,1.2974433,-1.8470579,52
993,1.5927846,-2.6545045,53
994,0.51006407,-2.508606,54
995,1.9085829,-2.4129314,55
996,0.63605374,-1.8714175,56
997,1.7771393,-2.4217236,57
998,0.86666805,-2.8558092,58
999,3.2594767,-2.3651729,59
1000,1.7736228,-2.2137334,60
1001,0.7341949,-2.2854865,61
1002,1.2142329,-1.8687955,62
1003,-0.8133843,-0.13415264,63
1004,1.4950616,-2.4756315,64
1005,1.4938409,-2.0621643,65
1006,1.0758457,-2.5556307,66
1007,1.1340601,-2.184158,67
1008,1.2315431,-2.3945122,68
1009,1.8436527,-2.4250574,69
1010,1.574283,-2.501791,70
1011,2.1553717,-2.1940625,71
1012,1.5034037,-1.9254545,72
1013,0.7711097,-2.3762648,73
1014,1.3196913,-1.8562591,74
1015,1.6386535,-2.3007245,75
1016,1.7189183,-2.4160943,76
1017,1.5560695,-2.2604384,77
1018,1.1323109,-2.3153806,78
1019,1.5208993,-2.3141677,79
1020,0.7828057,-2.5178235,80
1021,1.632441,-0.9264223,81
1022,1.7869294,-2.092592,82
1023,1.3132465,-2.8460217,83
1024,-0.17825925,-2.3699822,84
1025,2.606763,-2.4217951,85
1026,0.83666694,-2.2305772,86
1027,2.223742,-1.994123,87
1028,0.9219011,-2.6544363,88
1029,1.8171707,-2.4089181,89
1030,1.4105989,-2.471691,90
1031,1.4323472,-2.7738583,91
1032,1.0520444,-2.5342302,92
1033,1.4745349,-2.4436936,93
1034,1.1362555,-2.751137,94
1035,1.4115967,-1.4111027,95
1036,1.1117139,-2.72093,96
1037,-0.051012963,0.29274875,97
1038,0.5747277,-2.8766596,98
1039,0.44174647,-2.679897,99
1040,0.68744195,-3.003541,100
1041,1.1609604,-1.7719994,101
1042,1.3900646,-2.090013,102
1043,1.9683197,-2.4512146,103
1044,1.520619,-2.0228097,104
1045,1.6657575,-2.5878696,105
1046,2.1204734,-2.6190727,106
1047,1.352392,-2.398907,107
1048,1.1016991,-3.268155,108
1049,0.108556986,-2.5948772,109
1050,1.3302069,-2.1047173,110
1051,1.2057333,-2.3249626,111
1052,1.7987751,-2.837573,112
1053,0.07520135,0.34098542,113
1054,0.99430215,-2.6168118,114
1055,1.8979908,-2.3464465,115
1056,0.8246341,-2.869557,116
1057,1.4335879,-2.4616263,117
1058,1.6998553,-2.228262,118
1059,0.4330861,-1.8698407,119
1060,1.3564702,-2.5836773,120
1061,0.124375075,-0.124470845,121
1062,1.3903842,-2.613967,122
1063,1.3198481,-3.1635373,123
1064,-0.011291027,-2.79388,124
1065,1.2400739,-2.5069644,125
1066,1.166799,-2.5820022,126
1067,2.1233356,-2.413404,127
1068,0.6555904,-2.9048655,128
1069,-0.6511146,0.2911601,129
1070,1.5036453,-2.0301325,130
1071,1.9647095,-2.2897048,131
1072,1.6768076,-2.508211,132
1073,1.1814965,-2.4125862,133
1074,1.4294605,-1.983137,134
1075,0.86746025,-2.5583673,135
1076,1.7630162,-2.7022116,136
1077,0.99382365,-2.4185617,137
1078,1.1030474,-2.4789505,138
1079,1.821584,-2.2981136,139
1080,0.9013097,-1.895604,140
1081,1.8704368,-1.1332481,141
1082,1.34125,-2.612039,142
1083,2.193508,-1.8366935,143
1084,1.4958235,-2.6859498,144
1085,1.678637,-2.2401843,145
1086,1.2886233,-1.5762401,146
1087,-0.3763843,-0.26443085,147
1088,1.7667589,-2.2820234,148
1089,1.0537671,-2.5166478,149
1090,1.1386013,-2.3267856,150
1091,1.7328799,-2.0929422,151
1092,0.55481493,-2.2274897,152
1093,1.031973,-2.37243,153
1094,1.4939277,-2.0224538,154
1095,2.0027442,-2.4960494,155
1096,1.5365433,-2.8863726,156
1097,1.3313954,-2.0202243,157
1098,0.8596972,-3.0246136,158
1099,1.5062702,-1.9975231,159
1100,0.81735903,-2.8083313,160
1101,1.3266171,-2.6518369,161
1102,2.245775,-2.4172854,162
1103,0.97847086,-1.7097039,163
1104,2.3289332,-2.2130878,164
1105,1.3394684,-2.6040285,165
1106,1.653274,-2.117418,166
1107,0.8682148,-1.9369508,167
1108,1.0663533,-3.0634742,168
1109,1.006971,-2.1336782,169
1110,1.5813876,-2.3042455,170
1111,0.31379437,-2.5799122,171
1112,1.0609043,-2.4633212,172
1113,2.0116663,-2.4464083,173
1114,1.774166,-2.2882926,174
1115,1.6555051,-2.9390602,175
1116,0.4979087,-2.258614,176
1117,1.6808817,-2.5635624,177
1118,1.6194514,-2.360965,178
1119,1.2277633,-2.06248,179
1120,2.306881,-2.1091027,180
1121,1.1088686,-2.6802912,181
1122,1.4907459,-2.7202919,182
1123,1.8285807,-2.3475642,183
1124,1.4567149,-1.4534395,184
1125,0.78909945,-2.599612,185
1126,1.8188161,-2.3830976,186
1127,0.90101755,-1.8205113,187
1128,1.6310658,-1.3844961,0
1129,1.1632138,-2.0862477,1
1130,1.442084,-2.301241,2
1131,1.9856613,-2.0508401,3
1132,1.7632074,-2.7229624,4
1133,1.9610658,-2.4423442,5
1134,1.9328396,-2.2895923,6
1135,1.6746641,-1.9721256,7
1136,1.2822123,-2.288505,8
1137,0.80830264,-1.8746601,9
1138,0.85378325,-2.37478,10
1139,2.2746413,-2.3804724,11
1140,1.0240095,-2.7201335,12
1141,-0.7404679,-0.28613508,13
1142,1.4823424,-2.4097102,14
1143,0.63484466,-2.2837853,15
1144,2.5123956,-2.1106467,16
1145,0.9703071,-2.5302107,17
1146,0.9135964,-2.8918934,18
1147,0.8210004,-2.7336028,19
1148,1.250592,-2.4006484,20
1149,0.31068498,-2.4238014,21
1150,1.1728153,-2.419806,22
1151,1.9231954,-2.5348337,23
1152,1.9720975,-2.5469785,24
1153,1.0989237,-2.3417056,25
1154,1.6291028,-1.8414278,26
1155,1.2446893,-2.3377967,27
1156,2.081014,-3.11026,28
1157,0.99994195,-2.6728082,29
1158,1.36636,-2.5220249,30
1159,1.1733698,-2.2004416,31
1160,1.1871474,-2.5729377,32
1161,1.5254115,-2.8058712,33
1162,1.2362883,-2.9496298,34
1163,1.6751561,-2.1253512,35
1164,0.99326164,-2.2046926,36
1165,2.3290908,-2.3879101,37
1166,1.4556929,-2.6952884,38
1167,1.4620445,-2.5643725,39
1168,1.4744065,-2.432434,40
1169,1.8299158,-2.29497,41
1170,1.0845151,-2.5771909,42
1171,1.47453,-2.6294382,43
1172,0.29323232,-1.8271424,44
1173,2.1938825,-2.6347272,45
1174,1.0931734,-2.7735007,46
1175,1.3908526,-2.7960632,47
1176,1.0486021,-2.838685,48
1177,1.2462289,-2.877063,49
1178,1.267841,-2.4192793,50
1179,0.36834463,0.26311597,51
1180,1.454941,-2.0749443,52
1181,0.6746591,-2.4496305,53
1182,1.3517638,-2.7091625,54
1183,1.3304342,-2.4542732,55
1184,1.7800294,-1.4568655,56
1185,0.8573715,-1.7513132,57
1186,2.1869078,-1.9539621,58
1187,2.1768003,-2.4281268,59
1188,1.5719825,-2.6212587,60
1189,1.6951611,-2.09862,61
1190,1.8906174,-2.0708845,62
1191,-0.056508332,0.14238013,63
1192,1.1278772,-3.1312776,64
1193,1.1753858,-2.3662949,65
1194,1.4057423,-2.5381486,66
1195,1.5963786,-2.5046809,67
1196,0.7764513,-2.5875592,68
1197,2.2651079,-2.4606216,69
1198,2.2687817,-3.083288,70
1199,0.7837018,-2.0273674,71
1200,1.4480717,-2.0682247,72
1201,2.1064346,-2.337941,73
1202,1.2361062,-2.4776702,74
1203,1.2265984,-2.492823,75
1204,1.1689693,-2.2438436,76
1205,1.3393826,-2.2505803,77
1206,2.39447,-2.0488825,78
1207,1.6487285,-2.084958,79
1208,0.9717252,-2.770976,80
1209,0.7121937,-1.2346853,81
1210,2.2323117,-2.3315651,82
1211,0.95102865,-2.324718,83
1212,2.0275383,-1.5707979,84
1213,0.57893115,-2.8698838,85
1214,1.8262538,-2.4961135,86
1215,0.8995116,-3.1719265,87
1216,2.6099849,-2.26237,88
1217,1.9434235,-2.5902433,89
1218,0.05153644,-2.4589896,90
1219,1.8078328,-2.637209,91
1220,0.44490194,-2.881969,92
1221,0.6170363,-2.4896798,93
1222,0.55724156,-2.918122,94
1223,1.4316401,-1.5326533,95
1224,1.7166432,-2.6738193,96
1225,0.45495316,-0.1473381,97
1226,2.090474,-2.6980839,98
1227,1.3942173,-2.786645,99
1228,1.0645642,-2.57795,100
1229,0.98997235,-1.9685667,101
1230,1.1908953,-2.5146217,102
1231,1.4911637,-3.0267086,103
1232,0.45853257,-2.3901935,104
1233,0.14482403,-2.5278761,105
1234,0.5497657,-3.0090964,106
1235,1.2077217,-2.7315822,107
1236,1.9839263,-2.9712076,108
1237,2.006152,-2.6876,109
1238,1.0559386,-2.0054836,110
1239,1.1658138,-2.383309,111
1240,1.011538,-2.6394827,112
1241,0.54582477,-0.055899054,113
1242,1.039656,-2.6622367,114
1243,0.5808739,-2.5657685,115
1244,2.021971,-2.6750247,116
1245,1.6699529,-2.6579487,117
1246,1.1361673,-2.3411734,118
1247,1.122474,-2.6052113,119
1248,1.2726033,-2.668793,120
1249,1.3422036,0.8250299,121
1250,1.8910967,-1.8189461,122
1251,1.0255356,-2.6446302,123
1252,2.0729914,-2.1047754,124
1253,0.704246,-2.5728757,125
1254,1.9867504,-2.582078,126
1255,1.8977599,-3.0559113,127
1256,2.004297,-2.7486994,128
1257,-0.3165121,-0.021801218,129
1258,1.5389171,-2.377609,130
1259,1.0720716,-2.0417364,131
1260,1.310237,-2.7989728,132
1261,1.2356174,-2.3466406,133
1262,0.56393546,-2.1405628,134
1263,2.1555996,-2.9575646,135
1264,1.6322829,-2.292703,136
1265,1.5348158,-2.5875087,137
1266,2.6958966,-2.0731153,138
1267,1.6826367,-2.514764,139
1268,1.731077,-2.0285943,140
1269,1.3965821,-1.2463325,141
1270,2.9272523,-1.9370297,142
1271,0.08481979,-2.4893694,143
1272,1.5464071,-2.659548,144
1273,0.9388319,-2.3534214,145
1274,0.56608886,-2.011589,146
1275,-0.38921836,0.011455953,147
1276,1.5526385,-1.8505719,148
1277,0.78609914,-2.2740595,149
1278,2.2144055,-2.4886003,150
1279,1.4407128,-2.2441022,151
1280,0.7868572,-2.293151,152
1281,1.5473667,-2.4829948,153
1282,1.3553097,-2.458346,154
1283,2.1259363,-2.4679875,155
1284,2.6024537,-2.7165809,156
1285,1.1523783,-2.175578,157
1286,1.7502494,-2.9824796,158
1287,1.8743885,-2.0378516,159
1288,1.4178088,-2.3368437,160
1289,0.7994739,-2.7027035,161
1290,0.8285705,-2.4295645,162
1291,1.0190275,-1.7811316,163
1292,1.4282466,-2.6226115,164
1293,1.9363645,-2.3071618,165
1294,0.84201604,-2.124689,166
1295,2.0040975,-1.7020108,167
1296,2.3342488,-2.6274085,168
1297,1.3646756,-2.3089669,169
1298,1.0467231,-2.4175951,170
1299,0.7587647,-2.5011237,171
1300,1.7412292,-2.004037,172
1301,0.58504546,-3.0924845,173
1302,1.9632668,-2.2684083,174
1303,1.4779624,-2.8407736,175
1304,1.6266383,-1.5470418,176
1305,1.5931587,-3.0564551,177
1306,1.8613669,-2.2695017,178
1307,1.139477,-2.4584265,179
1308,0.8512356,-2.479,180
1309,1.5807397,-2.36289,181
1310,0.8466842,-2.7973294,182
1311,0.81842786,-2.2633328,183
1312,2.143001,-1.5976995,184
1313,0.23908317,-3.0198495,185
1314,1.4804524,-2.5032074,186
1315,1.1750051,-1.8082924,187
1316,1.252911,-1.7047498,0
1317,1.8513861,-2.2380235,1
1318,2.2898843,-2.0401974,2
1319,1.0800267,-2.0607102,3
1320,0.7456591,-2.7380378,4
1321,1.5858,-2.6137455,5
1322,0.9786638,-2.8004405,6
1323,1.5212791,-2.2871072,7
1324,1.6996629,-2.034248,8
1325,1.5876125,-1.5293372,9
1326,1.3131043,-2.162287,10
1327,1.0747659,-2.4653678,11
1328,0.9781668,-2.6759458,12
1329,-0.35409364,-0.41910672,13
1330,1.3860708,-2.7399223,14
1331,2.2996144,-2.4959579,15
1332,1.2566276,-1.8301971,16
1333,0.81019145,-2.2997403,17
1334,1.4958338,-2.728641,18
1335,1.6088738,-2.0028555,19
1336,1.3519727,-2.17406,20
1337,1.2132816,-2.1371639,21
1338,1.7584677,-2.2109606,22
1339,1.5560266,-2.5508075,23
1340,1.3013406,-2.2131324,24
1341,1.7168462,-2.4271,25
1342,2.1887946,-1.4413154,26
1343,0.46724164,-2.3152447,27
1344,0.86136645,-2.683659,28
1345,1.2305546,-2.4155014,29
1346,1.7753345,-2.6903808,30
1347,1.6165848,-2.2956254,31
1348,1.1828493,-2.5297406,32
1349,1.243191,-2.7754855,33
1350,1.2554234,-2.6909182,34
1351,1.9368995,-1.8372526,35
1352,1.7237456,-2.5321174,36
1353,0.3542589,-2.6424422,37
1354,2.042835,-2.7074618,38
1355,1.7378197,-2.4386575,39
1356,1.4604847,-2.608128,40
1357,1.9839039,-2.1550627,41
1358,1.3531168,-2.579905,42
1359,1.726476,-2.6194234,43
1360,0.5978828,-2.072321,44
1361,1.9465158,-2.4524302,45
1362,1.5094471,-2.7506208,46
1363,0.67362076,-2.715487,47
1364,1.6202132,-2.9220138,48
1365,1.6652219,-2.7117686,49
1366,1.0249156,-2.1798291,50
1367,0.0016795024,0.2177387,51
1368,1.3507569,-1.8518491,52
1369,1.446436,-2.6566691,53
1370,1.5744675,-2.29681,54
1371,2.6651645,-1.9605205,55
1372,1.6870852,-1.7979159,56
1373,1.7856638,-2.3881893,57
1374,1.7876999,-2.4010684,58
1375,2.0716567,-2.6151795,59
1376,0.030803084,-2.5204504,60
1377,1.3089985,-2.5141923,61
1378,1.8013219,-2.2250159,62
1379,-0.123219356,0.102331884,63
1380,2.0327396,-2.6784887,64
1381,1.9505293,-2.3914132,65
1382,0.5050988,-2.8098269,66
1383,1.6507514,-2.486147,67
1384,2.248663,-2.500486,68
1385,1.1569619,-2.0583808,69
1386,1.9318318,-2.329098,70
1387,0.5570671,-2.588705,71
1388,2.0621414,-2.017641,72
1389,0.54306877,-2.7928596,73
1390,1.6255244,-1.6460116,74
1391,1.1240606,-2.6298294,75
1392,1.5480194,-2.4245834,76
1393,0.8681667,-2.5403163,77
1394,1.89555,-2.1083658,78
1395,1.9834292,-2.3770936,79
1396,1.8073927,-2.0682993,80
1397,1.0704193,-1.3525764,81
1398,1.904392,-2.4013011,82
1399,2.4112668,-2.0463965,83
1400,0.7258445,-2.0757205,84
1401,1.0767717,-2.3180027,85
1402,1.3400438,-2.0706282,86
1403,1.4628536,-2.3971388,87
1404,1.1670476,-2.7451756,88
1405,1.2293895,-2.1675696,89
1406,0.38552737,-2.853308,90
1407,2.021564,-2.5368693,91
1408,1.0190433,-2.4428043,92
1409,1.3061113,-2.7497485,93
1410,2.134022,-2.7810805,94
1411,0.737054,-1.5802102,95
1412,1.3604195,-2.566284,96
1413,-0.17134804,0.22577749,97
1414,1.0142372,-2.7565477,98
1415,1.5672961,-2.529421,99
1416,1.5013673,-2.5232651,100
1417,2.127584,-1.4157717,101
1418,0.46115285,-2.8734195,102
1419,1.4246365,-2.8631277,103
1420,1.9110675,-2.0141525,104
1421,1.453481,-2.4427903,105
1422,0.5762154,-3.408023,106
1423,2.3179333,-2.3328106,107
1424,0.8152855,-3.114225,108
1425,1.6544089,-2.5170364,109
1426,0.9187726,-2.640585,110
1427,1.3454969,-2.3128242,111
1428,1.571935,-2.9606593,112
1429,0.62697333,0.4822007,113
1430,1.2815902,-2.3400235,114
1431,1.7793912,-2.4935884,115
1432,1.7320218,-2.3290896,116
1433,0.7873506,-2.6259542,117
1434,1.4244192,-2.3299046,118
1435,1.1693996,-2.0592747,119
1436,1.9935493,-2.631283,120
1437,0.639761,0.21796961,121
1438,1.2355535,-2.2942557,122
1439,1.7972028,-2.759641,123
1440,0.58164924,-2.808403,124
1441,2.3970485,-2.4109223,125
1442,1.1334274,-2.3879595,126
1443,1.5744134,-2.7101777,127
1444,0.91991216,-3.169117,128
1445,-0.7489798,0.017892972,129
1446,1.0307068,-2.686919,130
1447,1.9717277,-2.2993133,131
1448,1.6593665,-1.9999521,132
1449,2.447466,-1.884649,133
1450,0.7876682,-2.30096,134
1451,1.4805226,-2.3403563,135
1452,0.8559683,-2.793214,136
1453,1.1884425,-1.924384,137
1454,1.661294,-1.9923664,138
1455,0.74727434,-2.3393168,139
1456,1.5308635,-2.2323291,140
1457,1.6843393,-1.1906726,141
1458,0.8049856,-2.9476755,142
1459,1.4390293,-2.400732,143
1460,0.3235079,-2.5244255,144
1461,1.2400658,-2.1191494,145
1462,1.1559302,-1.6195601,146
1463,-0.06335084,0.7590877,147
1464,1.2501378,-2.6400046,148
1465,1.0934569,-2.353409,149
1466,1.7613635,-2.2712755,150
1467,1.2389977,-2.334929,151
1468,1.1454383,-2.137126,152
1469,1.6279025,-2.5538177,153
1470,1.2744827,-1.9673518,154
1471,1.4467642,-2.449519,155
1472,1.4168544,-2.7139359,156
1473,1.4696047,-2.5421252,157
1474,1.5707574,-2.5346022,158
1475,0.39303827,-2.4777524,159
1476,1.190408,-2.4860442,160
1477,1.6093059,-2.2477977,161
1478,1.5555142,-2.4201078,162
1479,0.973558,-1.6865062,163
1480,2.0623844,-1.9905728,164
1481,0.39613527,-2.3041306,165
1482,1.7013632,-2.143819,166
1483,2.0406876,-1.9471253,167
1484,1.9060788,-2.6067395,168
1485,1.9819181,-2.455156,169
1486,1.5970559,-2.5992496,170
1487,0.8716268,-3.096555,171
1488,0.22594261,-2.3501086,172
1489,2.539334,-2.5080748,173
1490,2.0615225,-2.3170564,174
1491,1.3034236,-2.5999858,175
1492,0.7089651,-2.226746,176
1493,1.618298,-2.5782633,177
1494,2.3097873,-2.0353503,178
1495,0.87158835,-2.5653925,179
1496,1.7288649,-2.0096445,180
1497,1.2763138,-2.3230264,181
1498,1.3910267,-1.9815865,182
1499,2.2376282,-2.4800572,183
1500,0.94116133,-1.0059005,184
1501,0.6155559,-2.781889,185
1502,0.7666141,-2.357464,186
1503,1.0521467,-2.1939921,187
1504,0.7662018,-2.3749986,0
1505,1.639454,-2.3913198,1
1506,1.4983437,-2.3079345,2
1507,1.0089446,-1.6746271,3
1508,1.4102658,-3.1122544,4
1509,1.2678154,-2.5702305,5
1510,2.1983602,-2.2929125,6
1511,1.0845606,-2.4221263,7
1512,1.2346523,-2.2152221,8
1513,1.3072566,-1.6566931,9
1514,1.2631048,-2.0566516,10
1515,0.5565242,-2.6701293,11
1516,1.4816413,-2.3982315,12
1517,-0.079383016,-0.30982947,13
1518,0.5141415,-2.4609904,14
1519,2.365,-2.3112395,15
1520,1.853697,-2.4463792,16
1521,0.5364293,-2.7937937,17
1522,1.2816654,-2.9191403,18
1523,1.0890846,-2.3835096,19
1524,1.1391871,-2.382503,20
1525,-0.021648169,-2.527752,21
1526,1.4915406,-2.2650757,22
1527,1.6554034,-2.2663875,23
1528,2.0344632,-2.1564102,24
1529,1.3508888,-2.0291157,25
1530,1.6506395,-1.7016732,26
1531,2.182642,-1.6422147,27
1532,1.4260848,-2.7355616,28
1533,0.6496951,-2.2955413,29
1534,1.439801,-2.5178232,30
1535,1.6911484,-2.1619353,31
1536,0.9765514,-2.7864013,32
1537,1.1294743,-3.0217867,33
1538,1.757776,-2.460347,34
1539,0.9823557,-2.5240765,35
1540,1.6434454,-2.6414082,36
1541,1.0753405,-2.7888844,37
1542,0.93841827,-3.0457504,38
1543,2.0097132,-2.3290005,39
1544,2.2360513,-2.2794867,40
1545,1.3845397,-2.018965,41
1546,1.708946,-2.6598842,42
1547,1.5237393,-3.217341,43
1548,0.5109619,-1.8496403,44
1549,1.5943421,-2.8354933,45
1550,1.7125549,-3.362839,46
1551,1.2530155,-2.0445306,47
1552,0.77016896,-3.555564,48
1553,1.4955317,-2.6583922,49
1554,1.0800352,-2.2192287,50
1555,0.1791535,0.48697793,51
1556,1.8751882,-2.1086588,52
1557,1.4321346,-2.1630952,53
1558,0.4904644,-2.4475858,54
1559,1.1855791,-2.65026,55
1560,1.4711784,-2.1126273,56
1561,1.8058137,-2.2902722,57
1562,1.3190125,-2.1866417,58
1563,2.0138106,-2.8931336,59
1564,2.0179548,-2.1059504,60
1565,2.4384851,-1.9743637,61
1566,0.73278314,-2.0921292,62
1567,0.19856848,-0.25088042,63
1568,1.5970144,-2.430412,64
1569,0.30694115,-2.4991026,65
1570,1.6636277,-2.2224584,66
1571,2.6325212,-2.460027,67
1572,2.3375578,-2.577255,68
1573,1.0779446,-2.563414,69
1574,1.759662,-2.662665,70
1575,1.1245936,-2.7897608,71
1576,1.7223036,-2.4750888,72
1577,1.7889942,-2.3788753,73
1578,1.6141815,-2.14076,74
1579,1.7558743,-2.6237075,75
1580,1.9217033,-2.8337197,76
1581,1.9262018,-2.193319,77
1582,1.4230363,-2.6112847,78
1583,0.2508384,-2.4126081,79
1584,1.5930436,-2.5232198,80
1585,1.1342735,-1.1994466,81
1586,0.02686274,-2.5649374,82
1587,0.99981713,-2.5615215,83
1588,1.8094122,-2.071969,84
1589,1.8728497,-2.850152,85
1590,1.108434,-2.5115604,86
1591,2.2966833,-2.5917456,87
1592,2.2486708,-2.337567,88
1593,1.7623968,-2.501017,89
1594,1.8641127,-2.4135754,90
1595,1.4871386,-2.2373724,91
1596,1.883318,-2.1380255,92
1597,1.9843137,-2.4773679,93
1598,1.6884459,-2.9519784,94
1599,2.1762664,-1.4191393,95
1600,1.4570317,-2.8604875,96
1601,0.4915376,0.8889216,97
1602,1.4397815,-2.3052225,98
1603,1.7056712,-2.4898403,99
1604,1.0333383,-2.50381,100
1605,0.73971003,-2.2453914,101
1606,1.1960166,-1.8417422,102
1607,1.33882,-2.7048244,103
1608,1.6154485,-2.2304986,104
1609,0.4637872,-2.4510236,105
1610,1.4948964,-2.656887,106
1611,1.8911536,-2.1539497,107
1612,2.0563679,-2.5681238,108
1613,1.6798536,-2.5734875,109
1614,0.56059307,-2.6860256,110
1615,1.6992698,-2.317807,111
1616,1.5032144,-2.7922945,112
1617,-0.7582928,0.49826437,113
1618,1.8557813,-2.2440417,114
1619,1.7849344,-2.5824132,115
1620,1.6346519,-2.429968,116
1621,0.68727493,-2.8580382,117
1622,1.1945652,-2.5535436,118
1623,1.5068966,-2.2054467,119
1624,1.9109472,-2.444413,120
1625,0.51254773,0.62836903,121
1626,1.756568,-1.8262248,122
1627,1.4651307,-2.7597132,123
1628,1.2154367,-2.3886647,124
1629,1.4118855,-2.3403296,125
1630,1.2516693,-2.7826183,126
1631,1.6949662,-2.4105017,127
1632,1.9578369,-2.7885337,128
1633,0.46046504,0.70572156,129
1634,2.222892,-1.9009714,130
1635,1.5084499,-2.5388935,131
1636,0.6178739,-2.5136755,132
1637,1.5743263,-2.5690246,133
1638,1.8523009,-2.0732408,134
1639,1.584832,-2.437299,135
1640,1.2652211,-2.5638683,136
1641,1.7591183,-2.37407,137
1642,1.691027,-2.006274,138
1643,2.0545874,-2.345409,139
1644,0.3486539,-2.8712127,140
1645,1.9469057,-1.2255883,141
1646,0.91476345,-2.8577423,142
1647,1.5702882,-2.237595,143
1648,1.8796403,-2.0500755,144
1649,1.2526788,-2.017326,145
1650,0.8152752,-2.0455968,146
1651,0.38532284,0.38599563,147
1652,1.1679162,-2.669433,148
1653,1.3334144,-2.5042436,149
1654,1.0320182,-2.3189106,150
1655,0.8605852,-2.2529535,151
1656,0.48347825,-2.3630836,152
1657,1.4752182,-2.0905988,153
1658,1.0281216,-2.2527544,154
1659,2.0537164,-2.5353818,155
1660,1.4615699,-2.9758697,156
1661,1.5188699,-2.366305,157
1662,1.9148018,-2.9906983,158
1663,1.0661627,-2.4363594,159
1664,1.5597342,-2.4211397,160
1665,1.125114,-2.6277556,161
1666,1.0219055,-2.28167,162
1667,1.3098218,-2.0145562,163
1668,1.3668617,-2.5597765,164
1669,1.5150698,-2.3300695,165
1670,0.71619594,-2.4390564,166
1671,0.9106889,-1.9917837,167
1672,0.56776536,-2.5445018,168
1673,2.275367,-2.2452703,169
1674,0.6112822,-1.9977808,170
1675,1.802459,-2.6169355,171
1676,1.3174835,-2.0620174,172
1677,1.8274162,-2.473649,173
1678,1.0115286,-2.4943793,174
1679,2.0950809,-2.542405,175
1680,2.3188093,-1.9917824,176
1681,2.3480742,-2.672258,177
1682,1.5031524,-2.8948019,178
1683,1.1009593,-2.7850711,179
1684,0.84580684,-2.445966,180
1685,1.9861033,-2.1759942,181
1686,1.5624155,-2.3393304,182
1687,1.6090608,-2.1463733,183
1688,2.2300131,-1.2621336,184
1689,0.9746524,-2.5596037,185
1690,1.3496376,-2.1838486,186
1691,0.19021499,-1.8642979,187
1692,1.3582424,-2.0454044,0
1693,0.86593693,-2.489452,1
1694,1.9909022,-2.4293206,2
1695,-0.06784344,-2.5731285,3
1696,1.4306895,-2.9734228,4
1697,2.4512646,-2.2543,5
1698,1.3955648,-2.016264,6
1699,1.8478163,-2.4698567,7
1700,0.57139766,-2.8494067,8
1701,0.4570309,-1.7974632,9
1702,1.4598571,-2.1312892,10
1703,1.0960478,-1.9635196,11
1704,0.8196666,-2.582525,12
1705,-0.49894744,-0.19082364,13
1706,1.4549816,-2.349696,14
1707,1.4060664,-2.506503,15
1708,1.2600303,-2.0412035,16
1709,1.3093888,-2.7331038,17
1710,1.3207077,-2.5516925,18
1711,1.9939897,-1.8825129,19
1712,1.902252,-2.0494213,20
1713,2.0667934,-1.7376571,21
1714,2.1129622,-2.144999,22
1715,0.8014914,-2.3252656,23
1716,1.431285,-2.784185,24
1717,0.7978498,-2.4074495,25
1718,1.1581534,-1.4889641,26
1719,1.4460219,-1.8246442,27
1720,1.7746493,-3.086425,28
1721,1.4803531,-2.5350163,29
1722,1.858011,-2.7745035,30
1723,1.5531406,-2.440575,31
1724,1.7408484,-2.2101657,32
1725,1.5169685,-2.2938466,33
1726,1.8668098,-3.0514505,34
1727,1.2001318,-2.5345423,35
1728,1.2976676,-2.6376803,36
1729,1.6906316,-2.4914777,37
1730,1.9363953,-2.6855123,38
1731,1.1788807,-2.3250318,39
1732,1.0095599,-2.495886,40
1733,1.9094193,-1.8760546,41
1734,0.8003387,-2.5600681,42
1735,1.3325878,-2.629656,43
1736,1.3098876,-1.9554703,44
1737,-0.039970636,-2.8902297,45
1738,2.1342597,-2.8841832,46
1739,1.0365053,-2.6532629,47
1740,2.1686506,-2.1568494,48
1741,1.7187314,-2.398487,49
1742,1.2656975,-2.2348151,50
1743,-1.0285633,0.09449293,51
1744,1.8787916,-1.651493,52
1745,1.1975416,-2.0696402,53
1746,1.5101744,-2.39818,54
1747,1.5665905,-1.8193417,55
1748,1.9637482,-1.8438373,56
1749,1.8680007,-2.0473256,57
1750,1.7727325,-2.1364055,58
1751,1.3943144,-2.7753732,59
1752,1.1433542,-2.7229257,60
1753,1.6292642,-2.3162372,61
1754,1.4103218,-2.1848807,62
1755,-0.5851271,0.06154456,63
1756,1.4881446,-2.4374876,64
1757,1.2407197,-2.4319892,65
1758,2.1236923,-2.4782352,66
1759,0.10220635,-2.4508023,67
1760,1.4494499,-2.32981,68
1761,0.6345629,-2.4565923,69
1762,1.0163956,-2.9341786,70
1763,0.14612651,-2.5960188,71
1764,0.86863136,-2.5019581,72
1765,1.3380516,-2.679121,73
1766,0.47440344,-2.1070125,74
1767,1.6097935,-2.3929121,75
1768,0.544905,-2.326075,76
1769,1.2548858,-2.0426981,77
1770,1.6336018,-2.5931485,78
1771,1.1481031,-2.1556206,79
1772,1.2530574,-1.9320235,80
1773,1.5317669,-1.3723545,81
1774,1.3832538,-2.452601,82
1775,1.3075805,-2.5713587,83
1776,2.6891112,-1.609824,84
1777,2.0125158,-2.8984437,85
1778,1.413165,-2.3215907,86
1779,2.1296206,-2.041447,87
1780,2.4124284,-3.048849,88
1781,1.2288431,-2.207671,89
1782,1.2131624,-2.5483954,90
1783,0.6596516,-2.5972056,91
1784,1.8088255,-2.527066,92
1785,2.0773973,-2.3965957,93
1786,1.4786588,-2.7161863,94
1787,0.8651927,-1.3435013,95
1788,1.6700665,-2.686297,96
1789,-0.63053095,-0.23467217,97
1790,2.1129508,-2.2338681,98
1791,1.1257635,-2.8820143,99
1792,0.8513434,-2.832612,100
1793,1.6658742,-1.7741325,101
1794,1.4113791,-2.5188494,102
1795,1.9478674,-2.8271432,103
1796,1.6334248,-2.0098526,104
1797,1.8563848,-2.019444,105
1798,1.714376,-2.9767954,106
1799,1.7677528,-2.1496446,107
1800,1.0520357,-3.0744398,108
1801,1.467647,-2.6381474,109
1802,0.114723325,-2.7950912,110
1803,1.515716,-2.514015,111
1804,2.1131783,-2.9387064,112
1805,-0.6314452,-0.14767724,113
1806,1.2990366,-2.3845818,114
1807,1.7250973,-2.3242302,115
1808,2.0123048,-2.6146116,116
1809,1.9888252,-2.2879333,117
1810,1.6078029,-2.6815395,118
1811,1.9545046,-2.5650074,119
1812,1.6336598,-2.420059,120
1813,-0.82607555,0.043874025,121
1814,1.5104436,-2.1901567,122
1815,0.5653817,-2.963063,123
1816,0.80766517,-2.5618072,124
1817,1.2585611,-2.099831,125
1818,2.0268683,-2.077652,126
1819,1.7112792,-2.9947379,127
1820,0.9147066,-2.784208,128
1821,-0.076249704,-0.27347547,129
1822,1.6900826,-2.360664,130
1823,1.8792173,-1.944444,131
1824,1.1866946,-2.493729,132
1825,1.5424173,-2.6125898,133
1826,1.6976134,-1.8353963,134
1827,1.3282506,-2.4576275,135
1828,1.5839133,-1.8741928,136
1829,1.9046739,-1.7663001,137
1830,1.0571736,-2.4291966,138
1831,1.2400913,-2.8112671,139
1832,1.9694442,-2.1632848,140
1833,1.4526048,-1.3516877,141
1834,2.248356,-2.6183197,142
1835,1.4094619,-2.1531544,143
1836,1.0234439,-2.6749349,144
1837,1.0090804,-2.0933323,145
1838,0.8711361,-1.8212689,146
1839,0.5058813,0.4316495,147
1840,2.5398135,-2.0613585,148
1841,0.92717767,-2.4116914,149
1842,0.8525524,-2.3827856,150
1843,1.0131695,-2.313123,151
1844,2.1632118,-2.331861,152
1845,1.3310535,-2.5437477,153
1846,2.3168533,-1.7027248,154
1847,1.0251387,-2.4243014,155
1848,0.64479476,-2.838762,156
1849,1.8070523,-2.409865,157
1850,0.9520276,-2.929233,158
1851,1.5729446,-2.115201,159
1852,1.597707,-2.345241,160
1853,1.3904659,-2.3926907,161
1854,0.93558156,-2.3876274,162
1855,2.2427905,-1.8449726,163
1856,2.0772712,-2.4102812,164
1857,1.6460721,-2.743982,165
1858,2.417119,-2.591623,166
1859,0.784521,-1.961059,167
1860,2.0640082,-2.6714468,168
1861,2.3081512,-1.9062757,169
1862,2.1461508,-2.1622193,170
1863,1.5307492,-2.2525558,171
1864,1.7417449,-2.1731758,172
1865,1.1940792,-2.6747134,173
1866,2.0415463,-2.1800237,174
1867,1.3181703,-2.9101806,175
1868,0.7613803,-1.9985025,176
1869,2.3019698,-2.763144,177
1870,1.572494,-2.464757,178
1871,1.1723388,-1.6699672,179
1872,2.7508013,-2.1315176,180
1873,1.4796151,-2.5282416,181
1874,1.543942,-2.2905977,182
1875,0.78918934,-2.4856238,183
1876,0.3091231,-1.418117,184
1877,1.5405109,-2.5712605,185
1878,1.2956548,-2.5198147,186
1879,0.6283736,-1.9067944,187
1880,1.2032696,-1.7195088,0
1881,2.160829,-2.4733198,1
1882,1.4817474,-2.689517,2
1883,1.4374418,-1.7440505,3
1884,2.1306672,-2.7403486,4
1885,1.4045124,-2.8988717,5
1886,1.1420934,-2.3498394,6
1887,1.2398548,-2.2515237,7
1888,1.5304244,-2.2052817,8
1889,0.93075716,-1.5765582,9
1890,1.121124,-2.1300197,10
1891,1.2101308,-2.4423318,11
1892,1.291991,-2.8594532,12
1893,1.4992564,1.0437744,13
1894,0.7807441,-2.2632596,14
1895,2.3925948,-1.9528486,15
1896,0.9855254,-2.3935723,16
1897,1.1232402,-2.2940965,17
1898,1.7623639,-2.2346735,18
1899,0.9367281,-2.567609,19
1900,1.0293746,-2.0308452,20
1901,1.4113472,-1.954146,21
1902,0.27152562,-2.0730195,22
1903,1.3468714,-2.5496542,23
1904,0.67243403,-2.6271238,24
1905,2.0753226,-1.8305659,25
1906,0.8862259,-1.8659604,26
1907,-0.36101985,-1.7297151,27
1908,1.5798092,-3.0454173,28
1909,1.8188448,-2.3737617,29
1910,1.2550037,-2.3472402,30
1911,0.90000427,-1.9384437,31
1912,1.7662098,-2.5453176,32
1913,1.218311,-2.4402568,33
1914,1.2519532,-2.668335,34
1915,0.58933383,-2.36114,35
1916,1.7111778,-2.6330194,36
1917,1.2708962,-2.599566,37
1918,0.22616982,-2.68704,38
1919,1.9202669,-2.8983867,39
1920,1.3482443,-2.466225,40
1921,1.5753282,-2.2901542,41
1922,1.301705,-2.886606,42
1923,1.1226302,-2.703011,43
1924,1.308727,-1.7808485,44
1925,1.4138577,-2.7807186,45
1926,1.5213611,-2.7118928,46
1927,1.024314,-2.8662944,47
1928,1.2354777,-2.231831,48
1929,1.2135851,-3.120251,49
1930,1.3228686,-2.469375,50
1931,0.26265386,0.75424504,51
1932,0.5728325,-2.259218,52
1933,1.0145333,-2.5815482,53
1934,1.149583,-2.4552433,54
1935,0.8868545,-2.2038963,55
1936,0.6573081,-1.9665128,56
1937,0.53478,-2.191701,57
1938,1.074347,-2.4518404,58
1939,1.3906865,-2.759934,59
1940,0.5904857,-2.7510872,60
1941,1.7922193,-2.1121497,61
1942,1.3322097,-2.0332649,62
1943,-1.2630461,-0.54235107,63
1944,1.9945408,-2.2817485,64
1945,1.3457594,-2.3061357,65
1946,0.9532337,-2.65273,66
1947,1.1020968,-2.5166996,67
1948,1.5495834,-2.5543938,68
1949,0.2564988,-2.6278288,69
1950,1.9232998,-2.5297658,70
1951,2.9508047,-2.00793,71
1952,1.8619044,-2.0259683,72
1953,1.5117035,-2.5826674,73
1954,2.1528442,-1.7965949,74
1955,1.5371931,-2.343512,75
1956,1.6293676,-2.589845,76
1957,1.6664938,-2.584749,77
1958,0.97831655,-2.533365,78
1959,1.6362444,-2.1423743,79
1960,2.35797,-2.1549938,80
1961,1.9463971,-0.9889755,81
1962,1.7404883,-1.9877846,82
1963,0.9839019,-2.6747775,83
1964,1.9645739,-1.9401127,84
1965,2.1032019,-2.579406,85
1966,0.77224535,-2.547966,86
1967,1.9456874,-2.2675753,87
1968,2.0050023,-2.5774336,88
1969,2.516557,-1.667007,89
1970,1.8172951,-2.9840248,90
1971,0.678559,-2.9282315,91
1972,2.8228576,-2.1389205,92
1973,1.9844872,-1.9296101,93
1974,1.259474,-2.6322954,94
1975,0.8825895,-1.460167,95
1976,0.54486084,-2.5674424,96
1977,0.21258444,0.32705748,97
1978,0.80101305,-2.9002833,98
1979,1.726609,-2.5236394,99
1980,1.8722609,-2.0976906,100
1981,1.3412795,-1.6931533,101
1982,1.3056542,-2.406236,102
1983,1.4083668,-3.015268,103
1984,1.4966953,-2.263035,104
1985,2.1243293,-1.9961597,105
1986,3.0006309,-2.424193,106
1987,2.275297,-2.0360758,107
1988,1.057976,-2.8733277,108
1989,0.75978506,-3.131075,109
1990,0.97034276,-2.212644,110
1991,1.7025903,-2.4740565,111
1992,1.3875034,-2.6485283,112
1993,-1.1095549,-0.4013844,113
1994,0.66461045,-2.5198188,114
1995,1.9464787,-2.1818047,115
1996,0.74547184,-3.0350823,116
1997,1.119479,-2.4555385,117
1998,0.8071664,-2.5485325,118
1999,1.3060396,-1.9860227,119
2000,1.9371017,-2.57387,120
2001,0.13677815,0.54099417,121
2002,1.3795631,-1.9555104,122
2003,2.0203795,-2.2115219,123
2004,1.6789534,-2.644478,124
2005,0.9835248,-2.305298,125
2006,1.2328479,-2.787434,126
2007,1.2169712,-2.7664816,127
2008,1.3852714,-2.6180284,128
2009,-0.20037322,0.36590686,129
2010,1.4753901,-2.4384878,130
2011,1.0683633,-2.3703628,131
2012,0.5554742,-2.8323917,132
2013,2.4152565,-2.3832574,133
2014,0.22432697,-2.4405646,134
2015,1.6087033,-2.490059,135
2016,0.82466507,-2.90238,136
2017,1.6182543,-1.9279917,137
2018,0.86494905,-1.914761,138
2019,1.7239238,-2.228079,139
2020,1.1589656,-2.6883924,140
2021,0.57666355,-1.1950465,141
2022,1.0206279,-3.056829,142
2023,1.4080505,-2.6642263,143
2024,2.5264437,-1.9225967,144
2025,0.84653807,-2.2828207,145
2026,1.1006206,-1.8936088,146
2027,-0.44493222,0.15268376,147
2028,1.0889152,-2.2657843,148
2029,1.5170751,-2.4959886,149
2030,1.2514853,-2.356246,150
2031,1.1941935,-2.1256251,151
2032,0.36218762,-2.1951768,152
2033,2.108857,-2.1806154,153
2034,1.4899715,-2.2228208,154
2035,2.1501036,-2.6812158,155
2036,1.9292407,-2.5167356,156
2037,0.88196546,-2.6658459,157
2038,0.83633035,-2.8509753,158
2039,1.1608615,-2.5222812,159
2040,0.14395201,-2.5299025,160
2041,1.841944,-2.3717506,161
2042,2.1050985,-2.3647892,162
2043,1.0582213,-2.1915588,163
2044,1.930778,-2.0635624,164
2045,1.0961987,-2.4086475,165
2046,1.0805446,-2.5405726,166
2047,1.0337641,-1.7433181,167
2048,2.2075162,-2.7251024,168
2049,1.3023374,-2.2067516,169
2050,0.092375994,-2.8744454,170
2051,1.4865026,-2.374946,171
2052,1.5733292,-2.4048114,172
2053,1.943827,-2.9402156,173
2054,1.8599317,-2.1683614,174
2055,1.6604927,-2.8126702,175
2056,1.2892586,-1.9816705,176
2057,1.9174838,-2.9025958,177
2058,1.5353122,-2.7656019,178
2059,1.917036,-2.0156972,179
2060,2.0996313,-2.2518928,180
2061,0.7667019,-2.5670056,181
2062,1.3815546,-2.4840164,182
2063,1.2348814,-2.179157,183
2064,1.4112788,-1.0650766,184
2065,1.3143054,-2.0383637,185
2066,1.3688295,-2.6086576,186
2067,0.85365903,-1.7909424,187
2068,1.1204784,-2.0257063,0
2069,1.5774786,-2.4503987,1
2070,1.6882682,-2.2732463,2
2071,1.4651026,-1.8122761,3
2072,1.7832606,-2.4458811,4
2073,1.7425337,-2.6197898,5
2074,1.553753,-2.0746956,6
2075,1.1369871,-2.185217,7
2076,2.0653481,-2.181446,8
2077,1.341037,-1.5821031,9
2078,0.31487006,-2.1089184,10
2079,0.9895525,-2.6187153,11
2080,1.6133904,-2.4598186,12
2081,-0.3973533,-0.4677689,13
2082,1.6817758,-2.1535285,14
2083,1.5933207,-2.1231472,15
2084,0.99333984,-2.3842373,16
2085,1.8279442,-2.2303448,17
2086,1.9739095,-2.5685868,18
2087,1.5247427,-2.2566822,19
2088,0.8948424,-2.1870978,20
2089,1.5591915,-2.225776,21
2090,1.6739239,-2.321896,22
2091,1.2377611,-2.2269497,23
2092,0.79707074,-2.5832455,24
2093,0.979564,-2.7992184,25
2094,1.5435162,-1.3927414,26
2095,1.1728972,-1.9441825,27
2096,1.8302064,-2.9489076,28
2097,2.2171602,-1.8531033,29
2098,1.6634688,-2.1890666,30
2099,1.1222382,-2.6685443,31
2100,1.1626769,-2.2504277,32
2101,1.6423304,-2.7837725,33
2102,2.1346674,-2.7392924,34
2103,1.4342552,-2.4287686,35
2104,1.921509,-2.2842748,36
2105,0.591369,-2.0184226,37
2106,0.70035815,-3.0348182,38
2107,1.1540161,-2.453073,39
2108,1.7453176,-2.5699425,40
2109,1.5040889,-2.0773654,41
2110,1.3447992,-2.6864467,42
2111,1.5821444,-2.9558728,43
2112,1.615164,-1.5378896,44
2113,1.2619913,-3.075507,45
2114,1.6536921,-3.072946,46
2115,1.4133985,-2.6921818,47
2116,1.4284102,-2.5864844,48
2117,1.5688536,-2.7120848,49
2118,2.263225,-1.9573555,50
2119,0.58721423,0.99485487,51
2120,0.7265599,-2.3756914,52
2121,1.8835387,-2.2693598,53
2122,2.999248,-2.2699296,54
2123,1.7047596,-2.0911417,55
2124,1.225482,-1.9290246,56
2125,0.9323252,-2.3511362,57
2126,1.3630015,-2.430296,58
2127,1.2737906,-3.0503058,59
2128,1.3684559,-2.4690874,60
2129,2.0993137,-2.22664,61
2130,2.4906,-1.8800648,62
2131,-0.49833113,0.009555912,63
2132,0.8049311,-2.0876617,64
2133,1.1230985,-2.3787968,65
2134,1.0011332,-2.6610267,66
2135,1.3884215,-1.9497888,67
2136,0.31451797,-2.617594,68
2137,0.7692957,-2.2852366,69
2138,0.865041,-3.0356777,70
2139,2.5072875,-2.1009,71
2140,0.9991721,-2.3555906,72
2141,0.7808561,-2.3789039,73
2142,1.0813199,-1.8865311,74
2143,1.2988063,-2.559824,75
2144,1.1905781,-2.9522586,76
2145,1.4320235,-2.3340554,77
2146,2.5579872,-2.3515298,78
2147,1.0055659,-2.3557646,79
2148,0.8512342,-2.4516397,80
2149,0.07708132,-1.4399927,81
2150,2.11104,-2.0194392,82
2151,1.1232063,-2.1899242,83
2152,1.453982,-1.9525862,84
2153,2.2706287,-2.5602865,85
2154,1.5445535,-2.2665174,86
2155,0.7201441,-2.5024016,87
2156,1.11022,-2.5080702,88
2157,2.146562,-2.008893,89
2158,1.8365502,-2.4556787,90
2159,2.516601,-2.2669673,91
2160,1.1086993,-2.519918,92
2161,1.6350507,-2.6325223,93
2162,1.2648118,-2.8851259,94
2163,0.971917,-1.5718181,95
2164,1.6857119,-1.9871411,96
2165,0.048053376,0.30403906,97
2166,1.0224509,-2.708625,98
2167,1.6279069,-2.2142875,99
2168,2.1777346,-2.0474432,100
2169,1.6809424,-1.9112171,101
2170,0.8130659,-2.1331987,102
2171,1.7010864,-2.769967,103
2172,-0.06222999,-2.8445156,104
2173,1.6943913,-2.2645078,105
2174,1.5958221,-2.5530946,106
2175,0.6066682,-2.9854136,107
2176,2.0606663,-2.560971,108
2177,1.516282,-2.5442793,109
2178,1.5821172,-2.7048614,110
2179,0.73724455,-2.6215649,111
2180,1.3834939,-2.8237443,112
2181,0.15635844,-0.2393283,113
2182,1.2354608,-2.1983228,114
2183,2.1738026,-2.012743,115
2184,1.2867416,-2.2683444,116
2185,0.91436225,-2.6894991,117
2186,2.0916686,-2.3287807,118
2187,1.0919048,-2.3429563,119
2188,1.0943948,-2.46733,120
2189,-0.9343599,0.035458103,121
2190,0.7058733,-2.3507216,122
2191,1.660874,-2.842934,123
2192,1.0756766,-2.2837903,124
2193,1.3862796,-2.2002032,125
2194,1.1777865,-2.3266532,126
2195,0.92002547,-3.3980107,127
2196,0.81286645,-2.8965228,128
2197,-0.8510059,-0.33048975,129
2198,2.2772942,-2.5212407,130
2199,1.762931,-2.487103,131
2200,1.3352032,-2.7012546,132
2201,1.4015574,-2.2875495,133
2202,0.6650146,-2.1821532,134
2203,1.5064741,-2.4855425,135
2204,0.87703055,-3.275017,136
2205,0.4214192,-2.7000647,137
2206,0.8546204,-2.1984007,138
2207,1.4379752,-2.3269587,139
2208,0.69504803,-2.2846017,140
2209,-0.103292465,-1.706986,141
2210,1.6954255,-2.652072,142
2211,1.4346164,-2.0747745,143
2212,0.36573422,-2.688228,144
2213,0.8486998,-2.2426572,145
2214,1.9470198,-1.6299657,146
2215,0.858107,0.6417903,147
2216,1.6315118,-2.5525413,148
2217,0.93942344,-2.4824739,149
2218,1.2496346,-2.431341,150
2219,1.9336865,-2.7143977,151
2220,0.8697283,-2.0581698,152
2221,1.2289822,-2.4390383,153
2222,1.2053471,-1.8973773,154
2223,2.0203133,-2.2477412,155
2224,1.9001979,-2.896263,156
2225,2.0835202,-2.254849,157
2226,2.016227,-2.9764907,158
2227,1.9401662,-2.4061046,159
2228,0.9098779,-2.6651518,160
2229,1.5803189,-2.8720677,161
2230,1.2535676,-2.1030838,162
2231,0.08449924,-2.0475848,163
2232,1.5183039,-2.6375039,164
2233,1.3591576,-2.5540357,165
2234,1.9732072,-2.481505,166
2235,1.2418572,-2.039686,167
2236,0.49111938,-2.7711952,168
2237,1.6541309,-2.073266,169
2238,2.0150976,-2.0114448,170
2239,2.2343183,-2.412239,171
2240,1.5299788,-2.301864,172
2241,2.3433487,-2.424351,173
2242,1.3013942,-2.578228,174
2243,1.7877986,-2.6199083,175
2244,1.6246173,-1.9163592,176
2245,1.5091536,-2.6984556,177
2246,1.4213065,-2.5237672,178
2247,1.9187623,-2.1981761,179
2248,0.99215347,-2.2240803,180
2249,1.2464473,-2.3187406,181
2250,1.2210666,-2.1820207,182
2251,1.6588117,-2.4286237,183
2252,0.3941182,-1.5653,184
2253,1.5614508,-2.941117,185
2254,1.6579046,-2.1040006,186
2255,1.1849973,-1.6810851,187
2256,1.6320193,-1.8953146,0
2257,1.2972611,-2.2611523,1
2258,1.9162719,-2.3703918,2
2259,0.283921,-2.0915818,3
2260,1.7662846,-2.545622,4
2261,2.0526252,-2.5736384,5
2262,1.9212277,-2.2122154,6
2263,1.1668127,-2.8197434,7
2264,0.57854056,-2.4786026,8
2265,1.8192369,-1.266912,9
2266,0.85718465,-2.4348898,10
2267,1.3175354,-2.4801984,11
2268,1.2591931,-2.3410957,12
2269,1.2529029,0.5337774,13
2270,1.1624485,-2.4539979,14
2271,1.5244069,-2.7023726,15
2272,1.3781526,-2.0184946,16
2273,0.6038798,-2.790738,17
2274,2.1707525,-2.7793334,18
2275,1.626504,-2.3320749,19
2276,0.95986545,-1.8106354,20
2277,1.1090276,-1.8829281,21
2278,1.7012762,-2.1541681,22
2279,1.463199,-2.1508586,23
2280,0.12470806,-2.8429217,24
2281,1.652188,-2.4471738,25
2282,1.102172,-1.7039793,26
2283,1.605489,-2.2117121,27
2284,1.0168688,-3.0454788,28
2285,0.9549392,-2.3715663,29
2286,0.25599635,-3.0820208,30
2287,0.3406068,-2.4665349,31
2288,1.9322345,-2.638556,32
2289,1.4780431,-2.4423301,33
2290,1.5434886,-3.1099446,34
2291,1.2602959,-2.090872,35
2292,1.7609481,-2.0227623,36
2293,0.6724975,-2.526779,37
2294,1.8424754,-2.5324583,38
2295,1.7935166,-2.4932852,39
2296,1.3901876,-2.4922333,40
2297,0.7203765,-2.2376244,41
2298,1.0674002,-2.5351992,42
2299,1.6821324,-2.6384504,43
2300,1.5989766,-1.8455033,44
2301,1.4397308,-2.7873025,45
2302,0.9601813,-2.3932292,46
2303,1.3683442,-2.4347217,47
2304,1.4261646,-2.3393395,48
2305,0.7239958,-3.167697,49
2306,1.7412814,-2.7453473,50
2307,-0.41861615,0.005232021,51
2308,0.112584114,-2.340136,52
2309,1.9917946,-2.281533,53
2310,1.5787922,-2.145125,54
2311,0.94849825,-2.623815,55
2312,1.1060476,-2.0531645,56
2313,1.3622557,-2.4440289,57
2314,0.40463078,-2.6106274,58
2315,1.8410332,-3.0224886,59
2316,0.93960536,-2.5567892,60
2317,0.51231605,-2.5248241,61
2318,1.1006515,-2.4602892,62
2319,-2.2213275,-0.9500591,63
2320,2.3710341,-1.8425429,64
2321,1.6758436,-2.502005,65
2322,1.1404239,-2.5149853,66
2323,2.4264512,-2.2778897,67
2324,1.3791032,-2.0673704,68
2325,1.0132723,-2.4611418,69
2326,2.160101,-2.714218,70
2327,1.3548415,-2.4889674,71
2328,3.1397371,-2.095421,72
2329,0.88024676,-2.4718761,73
2330,1.9326777,-1.964248,74
2331,1.1860714,-2.32167,75
2332,1.9258331,-1.9368043,76
2333,1.1260133,-2.3295622,77
2334,0.8144507,-2.5925052,78
2335,1.3444417,-2.349996,79
2336,0.9271853,-2.3358777,80
2337,0.97249115,-1.0711623,81
2338,2.3983254,-2.1862535,82
2339,0.82811844,-2.2825801,83
2340,0.88370717,-2.2823186,84
2341,0.92033684,-2.6870654,85
2342,0.6932457,-2.6623185,86
2343,1.9726744,-2.131449,87
2344,1.7740195,-2.4771223,88
2345,1.323464,-2.0959601,89
2346,1.6911831,-2.7022374,90
2347,1.7707201,-2.1799784,91
2348,1.0958912,-2.4547212,92
2349,1.2759895,-2.2830474,93
2350,1.6052337,-2.6588004,94
2351,0.6418344,-1.7184694,95
2352,0.95116246,-2.4585066,96
2353,0.1873771,0.20275001,97
2354,1.8023378,-2.5781295,98
2355,1.9090915,-2.742114,99
2356,2.0661743,-2.3421443,100
2357,1.0149869,-1.9184135,101
2358,0.9789945,-2.2849147,102
2359,1.5614337,-2.7271762,103
2360,1.3991406,-2.0567946,104
2361,1.8615948,-2.5286145,105
2362,1.3308563,-2.7614002,106
2363,1.6827786,-2.1686344,107
2364,1.6589367,-2.6997375,108
2365,0.83015954,-2.2242186,109
2366,2.3166237,-1.759495,110
2367,1.9913167,-2.1170704,111
2368,2.0577905,-2.5928173,112
2369,0.06985812,0.31808057,113
2370,0.80021083,-2.5379553,114
2371,2.0973759,-2.4732516,115
2372,0.6248695,-2.7791512,116
2373,1.4809501,-2.6894102,117
2374,1.7419684,-2.5521033,118
2375,1.5805771,-1.8838611,119
2376,1.1932896,-2.3614655,120
2377,0.048902452,0.22098903,121
2378,1.2327709,-1.6973696,122
2379,1.8882076,-3.0734026,123
2380,0.58293253,-2.8634381,124
2381,2.1463115,-1.6163142,125
2382,2.024324,-2.5887735,126
2383,1.0942684,-2.4782097,127
2384,1.8105788,-2.9048417,128
2385,-1.1929711,-0.71646595,129
2386,1.6047009,-2.2977376,130
2387,1.9108133,-2.2508996,131
2388,1.4064981,-2.406604,132
2389,1.2017355,-2.3343916,133
2390,1.8714819,-2.1412928,134
2391,1.2541792,-2.3926399,135
2392,2.1379538,-2.4995692,136
2393,1.1531186,-2.491576,137
2394,2.2921138,-2.1441479,138
2395,0.49887675,-3.0737123,139
2396,0.7718088,-2.5269747,140
2397,1.1692113,-1.2901559,141
2398,1.6308968,-2.7504137,142
2399,1.8626584,-2.6125307,143
2400,1.4186821,-2.171137,144
2401,2.146317,-2.2549787,145
2402,1.8253112,-1.696658,146
2403,-0.11034776,0.30282566,147
2404,1.5532982,-2.4676917,148
2405,1.5681304,-2.3066897,149
2406,1.0453762,-2.0310001,150
2407,1.0606087,-2.4161577,151
2408,1.8181505,-1.8677816,152
2409,1.41253,-2.084301,153
2410,2.4197822,-2.3191926,154
2411,1.8991671,-2.3587437,155
2412,1.6770449,-2.7814384,156
2413,1.2298316,-2.898591,157
2414,2.7865329,-2.8110619,158
2415,0.9032991,-2.7360218,159
2416,1.0408833,-2.668977,160
2417,1.4944282,-2.9988267,161
2418,2.2217276,-2.270465,162
2419,0.40465295,-2.0112824,163
2420,1.5082455,-1.9985505,164
2421,1.6668441,-2.2153707,165
2422,1.5475912,-2.7347436,166
2423,1.4895092,-2.0517054,167
2424,1.7414784,-2.360526,168
2425,1.1687657,-2.3697584,169
2426,1.7124743,-2.2485607,170
2427,1.5372448,-2.3944838,171
2428,1.3677769,-2.2257845,172
2429,2.2712789,-2.6025057,173
2430,1.8915389,-2.2871037,174
2431,1.2785152,-2.6341546,175
2432,1.0344522,-1.8535259,176
2433,1.133954,-2.9539416,177
2434,1.7831901,-2.295982,178
2435,1.2219504,-2.560117,179
2436,0.675146,-2.3705971,180
2437,2.2091756,-2.18561,181
2438,1.0625616,-2.6267676,182
2439,1.944284,-2.521919,183
2440,0.67225707,-1.5186383,184
2441,0.34218705,-2.4359977,185
2442,1.0583435,-2.0257094,186
2443,0.69498265,-1.9733678,187
2444,1.8015933,-2.1255362,0
2445,1.1757119,-2.4010892,1
2446,2.230576,-2.1528406,2
2447,1.730386,-1.7939755,3
2448,2.4822335,-2.5601208,4
2449,1.4611969,-2.774219,5
2450,1.1208248,-2.1561098,6
2451,0.30361247,-2.4519439,7
2452,1.1301464,-2.2167206,8
2453,1.4006548,-1.4618281,9
2454,1.4375142,-2.0915146,10
2455,0.77214366,-2.3330967,11
2456,1.1786408,-2.6762333,12
2457,-0.0570513,-0.14317971,13
2458,0.9372459,-2.3756118,14
2459,1.5675571,-2.3262842,15
2460,1.498902,-2.1045449,16
2461,1.2845216,-2.6561127,17
2462,1.7472624,-2.8060741,18
2463,1.2595233,-1.9294376,19
2464,1.532748,-2.1983316,20
2465,2.3054526,-1.8724194,21
2466,0.20053363,-2.359983,22
2467,1.4691945,-2.6100452,23
2468,1.6553189,-2.6248348,24
2469,2.001511,-2.1029289,25
2470,1.3375181,-1.6455249,26
2471,0.8050659,-2.1419752,27
2472,1.5558257,-2.9924521,28
2473,1.6288428,-1.9283639,29
2474,2.4028835,-2.2040882,30
2475,0.46566266,-2.7568855,31
2476,1.6942607,-2.352928,32
2477,0.6615562,-3.1951947,33
2478,1.6540159,-2.6848977,34
2479,1.7147647,-2.48053,35
2480,0.7801609,-2.333665,36
2481,1.4801592,-2.6024277,37
2482,0.37198746,-2.8423305,38
2483,1.51822,-2.3963113,39
2484,1.3877654,-2.358627,40
2485,1.6456306,-2.1387541,41
2486,0.756137,-2.0572085,42
2487,2.3580549,-3.1880908,43
2488,1.3430651,-1.9913857,44
2489,1.0049293,-2.5905385,45
2490,1.8044361,-2.84644,46
2491,1.3000258,-2.624631,47
2492,1.2931488,-2.7552226,48
2493,0.756598,-3.227475,49
2494,1.331093,-2.598573,50
2495,0.042838752,0.73565394,51
2496,1.9522476,-2.291308,52
2497,1.1632366,-2.2035313,53
2498,1.975214,-2.4069736,54
2499,0.7454287,-2.5739088,55
2500,1.2031605,-2.0104835,56
2501,1.567791,-1.9106137,57
2502,1.3768866,-2.1128762,58
2503,2.2663674,-2.7255878,59
2504,0.6990406,-2.628063,60
2505,0.9185912,-2.7843082,61
2506,0.76440215,-2.5107741,62
2507,-0.09099274,0.22797912,63
2508,1.3037058,-2.6954646,64
2509,2.248413,-2.2830794,65
2510,2.0808148,-2.5094242,66
2511,1.0667663,-2.6652985,67
2512,1.7504768,-2.5639732,68
2513,0.4193853,-2.6113615,69
2514,0.95394236,-2.7500134,70
2515,1.2575872,-2.3889983,71
2516,2.6654952,-2.5446384,72
2517,1.5596012,-2.1991258,73
2518,1.4524786,-1.3990502,74
2519,1.8464108,-2.5451148,75
2520,1.52729,-2.2821558,76
2521,1.0706601,-2.1680827,77
2522,1.8474184,-2.4805446,78
2523,1.5050724,-2.479148,79
2524,1.7692618,-2.091201,80
2525,1.269155,-1.3802497,81
2526,1.484397,-2.2223701,82
2527,1.2860723,-1.891882,83
2528,1.0416063,-2.2777977,84
2529,1.2878168,-2.667032,85
2530,1.2246118,-2.547176,86
2531,2.025013,-2.0636349,87
2532,1.1656456,-2.655825,88
2533,0.8845104,-2.1441596,89
2534,0.9151165,-2.7229075,90
2535,1.3529676,-2.5356674,91
2536,1.5781913,-2.4880438,92
2537,1.5858194,-2.8442905,93
2538,1.9246147,-2.8822742,94
2539,0.8520556,-1.2812333,95
2540,1.8595737,-2.2792482,96
2541,-1.7983019,-0.011440441,97
2542,2.141447,-2.3223217,98
2543,1.2762957,-2.4835744,99
2544,1.7431679,-2.2227583,100
2545,1.7078595,-2.0271404,101
2546,0.99498665,-2.2844791,102
2547,1.770977,-2.8350635,103
2548,1.1633677,-2.3726876,104
2549,1.8443384,-2.2718585,105
2550,1.9481328,-2.4619608,106
2551,1.8241721,-2.0005748,107
2552,1.2565341,-2.9224975,108
2553,1.1264133,-2.379831,109
2554,1.28579,-2.6762886,110
2555,0.7875102,-2.1825507,111
2556,1.4339595,-2.8884163,112
2557,-1.0834137,-0.6201109,113
2558,2.819137,-2.1238499,114
2559,1.2971604,-2.9537892,115
2560,0.86849153,-2.9922943,116
2561,0.9702723,-2.488316,117
2562,1.6112589,-2.794876,118
2563,1.214204,-2.499869,119
2564,2.0132308,-2.4641416,120
2565,-0.15261246,0.3841357,121
2566,2.5373874,-1.9086885,122
2567,1.9368622,-2.8392525,123
2568,2.0364914,-2.3593469,124
2569,1.7424568,-2.654476,125
2570,0.61328864,-2.5803554,126
2571,1.3538692,-2.8392217,127
2572,1.7092546,-2.7417932,128
2573,-0.29500675,0.12579899,129
2574,1.5165278,-2.81045,130
2575,1.491075,-2.2833252,131
2576,1.0372553,-2.88908,132
2577,1.6735426,-2.4965866,133
2578,0.6134249,-2.0483828,134
2579,1.1183708,-2.5270495,135
2580,2.9260054,-2.369027,136
2581,1.5481942,-2.2947624,137
2582,2.091751,-1.8917668,138
2583,0.52173346,-2.449523,139
2584,1.3203907,-2.5343513,140
2585,0.61136425,-1.2999221,141
2586,0.940278,-2.9362423,142
2587,1.7964668,-2.2338455,143
2588,1.7690268,-1.960927,144
2589,0.796812,-2.5105062,145
2590,0.87176645,-1.8753668,146
2591,0.9436662,0.2167297,147
2592,1.6867831,-2.2738054,148
2593,1.7854019,-1.988498,149
2594,1.096062,-2.3225565,150
2595,1.7113594,-2.7362432,151
2596,1.2429681,-1.8258435,152
2597,1.4226185,-2.633415,153
2598,1.4126884,-2.2120636,154
2599,2.6106324,-2.4841874,155
2600,1.4653041,-2.7954953,156
2601,1.910881,-2.5630553,157
2602,1.4561324,-2.6829884,158
2603,1.1882623,-2.4201512,159
2604,1.7466472,-2.7925851,160
2605,0.5627808,-2.7065063,161
2606,1.5188482,-2.6177878,162
2607,0.5312291,-2.2002244,163
2608,1.4144659,-2.2381215,164
2609,1.9206703,-2.151626,165
2610,1.0516224,-2.4219935,166
2611,1.4389609,-1.9314157,167
2612,1.8670677,-2.6304476,168
2613,1.0822849,-2.323323,169
2614,1.1391498,-2.2640178,170
2615,0.7047908,-2.3415987,171
2616,1.0290437,-2.2691526,172
2617,1.9006326,-2.8977816,173
2618,1.379067,-2.307593,174
2619,1.2727263,-3.0678735,175
2620,1.069722,-2.0615125,176
2621,1.435338,-2.6082242,177
2622,2.3901105,-2.5477724,178
2623,1.3077561,-1.8389657,179
2624,1.2900795,-2.4692535,180
2625,0.75039196,-2.4311175,181
2626,1.5680008,-2.542356,182
2627,1.6715307,-2.5245428,183
2628,1.0058601,-1.4329327,184
2629,1.0307457,-2.356965,185
2630,1.7080437,-2.4469612,186
2631,1.482163,-1.759427,187
2632,1.2276816,-1.9695573,0
2633,0.7318779,-2.4839904,1
2634,0.9639631,-2.6162827,2
2635,0.9358387,-1.7463487,3
2636,2.107848,-2.5538547,4
2637,1.4117666,-2.6639063,5
2638,1.8698049,-2.3138614,6
2639,1.6453236,-2.2858617,7
2640,1.6773478,-2.0242672,8
2641,0.6875634,-1.3765532,9
2642,1.2366989,-2.097979,10
2643,1.1537429,-2.4687185,11
2644,0.82116574,-2.479576,12
2645,-0.4061216,0.29860428,13
2646,1.464297,-2.1406388,14
2647,-0.08186185,-2.6289027,15
2648,1.793276,-1.7630117,16
2649,0.547989,-2.8232672,17
2650,0.681521,-3.1458602,18
2651,2.117679,-1.8250165,19
2652,1.3687118,-2.4961026,20
2653,1.338923,-2.0007885,21
2654,1.2241405,-2.4417043,22
2655,0.9127824,-2.4938083,23
2656,1.6041666,-2.2779188,24
2657,1.6275638,-2.5740128,25
2658,0.9352042,-1.6555582,26
2659,1.1115383,-2.109081,27
2660,1.2311314,-2.8962665,28
2661,1.6624897,-2.0370677,29
2662,1.7219733,-2.4871604,30
2663,1.8208038,-2.472046,31
2664,1.5976852,-2.281072,32
2665,1.3853496,-2.6741798,33
2666,2.0096483,-2.420134,34
2667,1.346559,-2.3313406,35
2668,1.4680295,-2.2048872,36
2669,0.4849499,-2.9460487,37
2670,1.7579107,-2.804817,38
2671,1.5729082,-2.6382418,39
2672,1.1915878,-1.8713574,40
2673,1.587445,-2.5974572,41
2674,0.26001835,-2.8674746,42
2675,2.0956903,-2.4022033,43
2676,1.4407464,-1.754504,44
2677,1.5114723,-2.6144035,45
2678,1.4914434,-2.8271039,46
2679,1.5967224,-2.4480405,47
2680,1.6098913,-2.7334135,48
2681,1.1028457,-3.05443,49
2682,1.3727598,-2.2675772,50
2683,0.6735662,0.35243088,51
2684,1.8636992,-2.0687754,52
2685,1.7885685,-1.9914759,53
2686,2.2496185,-2.4142587,54
2687,2.2333603,-1.9245214,55
2688,1.3907036,-1.6458158,56
2689,1.235926,-2.2120645,57
2690,1.0586009,-2.0943651,58
2691,1.4462333,-2.9888172,59
2692,1.1521678,-2.6279862,60
2693,0.78323644,-2.4973183,61
2694,1.0398732,-2.4245281,62
2695,-0.14230242,0.38343012,63
2696,1.8576176,-2.5630658,64
2697,2.5358582,-2.52722,65
2698,1.3893881,-2.4307182,66
2699,1.934355,-2.0602045,67
2700,2.1193106,-2.2532263,68
2701,0.9558232,-2.4615355,69
2702,1.0556147,-2.7271047,70
2703,0.94796145,-2.6927795,71
2704,1.1340861,-2.0274618,72
2705,0.6928894,-2.4525087,73
2706,1.9234343,-1.8082417,74
2707,1.8406715,-2.0690353,75
2708,1.492355,-2.5972161,76
2709,1.2074301,-2.5667496,77
2710,1.119153,-2.152527,78
2711,1.7328404,-2.4203193,79
2712,0.64834166,-2.5924478,80
2713,-0.06837547,-1.486992,81
2714,0.6059548,-2.2359853,82
2715,1.2623571,-2.2655315,83
2716,1.0012791,-1.7069147,84
2717,1.9425267,-2.7309885,85
2718,1.3382057,-2.45873,86
2719,1.6617169,-2.2187996,87
2720,1.4620806,-2.7386513,88
2721,0.7937992,-2.4594462,89
2722,1.1877937,-2.788223,90
2723,1.7024399,-2.4378908,91
2724,1.6900272,-2.6266022,92
2725,0.39466035,-2.3696687,93
2726,1.8441755,-2.9052458,94
2727,1.237541,-1.4399179,95
2728,1.1871288,-2.6599185,96
2729,-0.6218161,0.06939328,97
2730,2.1263328,-2.21269,98
2731,0.9488096,-2.893386,99
2732,1.0407137,-1.8642951,100
2733,1.2399676,-1.7163787,101
2734,1.9141722,-2.0386186,102
2735,1.9573407,-2.7081785,103
2736,1.6010022,-2.1952865,104
2737,1.1988581,-2.706487,105
2738,1.9164488,-2.6722913,106
2739,2.0634084,-2.4599626,107
2740,2.468587,-2.5744636,108
2741,2.094307,-2.549956,109
2742,-0.30441952,-2.7319198,110
2743,1.3804048,-2.5128388,111
2744,2.5217886,-2.6334093,112
2745,-1.2427752,-0.45855093,113
2746,0.9623922,-2.4837239,114
2747,1.2599473,-2.177791,115
2748,2.248376,-2.3590484,116
2749,1.0904049,-2.2405338,117
2750,0.6283893,-2.6797984,118
2751,1.7427654,-2.5001738,119
2752,2.0286136,-2.4250875,120
2753,0.051185995,0.262405,121
2754,1.4752578,-1.9837847,122
2755,1.014816,-2.4534607,123
2756,2.2789311,-2.788951,124
2757,0.5647572,-2.320867,125
2758,1.2705852,-2.62438,126
2759,1.601531,-2.986724,127
2760,1.1584257,-2.5198138,128
2761,-0.39263994,-0.3773464,129
2762,2.2211666,-2.5136151,130
2763,1.6790627,-2.1315737,131
2764,1.6044931,-2.9772336,132
2765,1.6699435,-2.569347,133
2766,0.64726776,-2.320466,134
2767,1.6024096,-2.6604478,135
2768,1.6186062,-2.6789708,136
2769,1.4531324,-2.0007753,137
2770,0.014888048,-2.5739417,138
2771,0.92663646,-2.671212,139
2772,1.5846045,-2.3531299,140
2773,0.7887317,-1.5166111,141
2774,1.2762091,-2.5716832,142
2775,1.265488,-2.1114676,143
2776,1.062128,-2.1475136,144
2777,1.6547526,-2.2131436,145
2778,0.34341586,-1.9759405,146
2779,-0.9896927,0.027881697,147
2780,0.7769169,-2.4023747,148
2781,0.018160462,-2.7341194,149
2782,3.053459,-1.7917112,150
2783,1.1098127,-2.4112964,151
2784,1.4898078,-2.4971824,152
2785,1.5657706,-2.2460213,153
2786,1.2896378,-2.034134,154
2787,1.2558163,-2.875775,155
2788,1.2702204,-3.05742,156
2789,2.0437956,-2.6363254,157
2790,0.71941596,-2.9414458,158
2791,1.3244448,-2.523428,159
2792,1.1803106,-2.3518264,160
2793,0.7514506,-2.994344,161
2794,0.83043903,-2.3986528,162
2795,0.5072912,-2.0946543,163
2796,1.3900458,-2.3816938,164
2797,1.6889106,-2.2002132,165
2798,1.3861221,-2.5264382,166
2799,0.6909507,-2.1825159,167
2800,0.8904363,-2.9881024,168
2801,1.8103869,-2.2881968,169
2802,1.3014914,-2.572452,170
2803,1.592316,-2.07939,171
2804,1.1918356,-2.3673394,172
2805,2.0586042,-1.8735698,173
2806,0.93913925,-2.3252392,174
2807,1.5890939,-2.642277,175
2808,1.4198446,-1.9423957,176
2809,0.7364014,-2.6601024,177
2810,1.8049203,-2.5256977,178
2811,1.9624399,-2.1665733,179
2812,0.0830574,-2.5143116,180
2813,1.4453548,-2.3573747,181
2814,0.9253658,-2.50201,182
2815,1.8729118,-2.4630067,183
2816,1.4412628,-1.4519149,184
2817,1.8307931,-2.5149062,185
2818,1.8145008,-2.4859035,186
2819,1.5185921,-1.6680957,187
2820,1.0758952,-2.2486758,0
2821,1.8039045,-2.4031374,1
2822,0.9267236,-1.9667462,2
2823,1.060642,-2.3843527,3
2824,1.1043608,-2.7384713,4
2825,1.8112552,-2.6861167,5
2826,2.1038103,-2.2856014,6
2827,0.5276365,-2.3180544,7
2828,1.1354375,-2.4451559,8
2829,1.2423842,-1.4221505,9
2830,1.3553119,-1.8883142,10
2831,1.8010496,-2.4743779,11
2832,1.566658,-2.028194,12
2833,0.4174285,0.06031066,13
2834,1.0421275,-2.3268876,14
2835,0.37855422,-2.3458955,15
2836,0.76742923,-1.7868023,16
2837,1.2778208,-2.7676358,17
2838,0.73435134,-3.1016493,18
2839,1.0274047,-2.3967004,19
2840,1.2980036,-2.180703,20
2841,0.6433078,-1.8843541,21
2842,0.9438343,-2.0704908,22
2843,1.2928332,-2.6682088,23
2844,1.5579859,-2.2700536,24
2845,1.0618749,-2.30197,25
2846,1.0367846,-1.9357959,26
2847,1.4405427,-2.086363,27
2848,1.398464,-3.268263,28
2849,0.8643457,-2.6312144,29
2850,2.531931,-2.2115324,30
2851,1.7681252,-2.251171,31
2852,1.516624,-2.358203,32
2853,0.9924224,-2.5255473,33
2854,2.1354642,-2.4553764,34
2855,1.1378009,-2.074877,35
2856,0.99439913,-2.7127213,36
2857,1.7299714,-2.2899854,37
2858,1.8642074,-2.7230022,38
2859,0.96982425,-2.724687,39
2860,1.870066,-2.236347,40
2861,2.181079,-2.2602284,41
2862,0.46718282,-2.5652916,42
2863,1.4195555,-3.2461867,43
2864,1.1677251,-1.7027895,44
2865,0.87503487,-3.0256233,45
2866,1.343972,-2.9570522,46
2867,1.5756013,-2.352681,47
2868,1.4387894,-2.3803992,48
2869,0.726498,-2.562889,49
2870,1.7785912,-2.3217216,50
2871,0.8941978,0.6670268,51
2872,0.50088507,-2.236552,52
2873,1.2110976,-2.5127158,53
2874,1.518727,-2.965552,54
2875,1.7506672,-2.438424,55
2876,0.31507027,-2.2390487,56
2877,0.8414786,-2.6959121,57
2878,0.47991747,-2.7586324,58
2879,2.4840882,-2.336188,59
2880,1.5798011,-2.1901746,60
2881,0.6689137,-2.4419708,61
2882,2.0168962,-1.8981819,62
2883,-0.42533362,0.14125472,63
2884,1.0037098,-3.0411825,64
2885,1.8813547,-1.8493681,65
2886,1.4840063,-2.449975,66
2887,1.2187439,-2.4500818,67
2888,1.1578846,-2.2688491,68
2889,0.95988595,-2.8588405,69
2890,0.80434215,-2.743237,70
2891,1.1848145,-2.975658,71
2892,1.9464035,-2.1832225,72
2893,2.0006263,-2.3503067,73
2894,1.1311241,-1.630202,74
2895,1.9409773,-2.3534281,75
2896,1.3981992,-2.7393692,76
2897,0.6903482,-2.8176763,77
2898,0.49548316,-2.753488,78
2899,1.3766209,-2.3329434,79
2900,0.99508,-2.565237,80
2901,1.4908333,-0.9814719,81
2902,1.4373851,-2.6920052,82
2903,1.8121333,-2.4216678,83
2904,2.499628,-1.8391511,84
2905,1.8894608,-2.4181194,85
2906,1.7899666,-1.8921881,86
2907,1.1236796,-2.59285,87
2908,0.67185646,-2.412882,88
2909,1.7644022,-2.3068047,89
2910,2.477727,-2.258665,90
2911,1.8096328,-2.2984128,91
2912,1.0001863,-2.4333744,92
2913,2.3776712,-2.0773702,93
2914,2.0933192,-2.5542495,94
2915,0.49551457,-1.7643307,95
2916,2.4757676,-2.703441,96
2917,0.18677115,0.57826537,97
2918,2.0969393,-2.2095392,98
2919,1.898205,-2.7093904,99
2920,1.6646699,-2.4768178,100
2921,1.481748,-1.9587916,101
2922,1.4814101,-2.6442714,102
2923,1.8023156,-2.6726592,103
2924,0.94796246,-2.0028646,104
2925,1.9441272,-2.6218321,105
2926,1.9573636,-2.759464,106
2927,1.1630805,-2.4106755,107
2928,1.662362,-2.4895868,108
2929,1.7188033,-2.45973,109
2930,1.6543983,-2.6908119,110
2931,0.99896073,-2.3940806,111
2932,1.3975862,-2.5106697,112
2933,-0.61228675,0.24965684,113
2934,1.2022727,-2.7585046,114
2935,1.5983797,-2.405311,115
2936,1.7057441,-2.7104177,116
2937,1.0450155,-2.7348256,117
2938,1.0904033,-2.6569679,118
2939,0.86879635,-2.5134225,119
2940,1.3067203,-2.4625688,120
2941,-0.17269897,0.40782666,121
2942,1.1001695,-1.830068,122
2943,1.163506,-2.9413657,123
2944,1.1950456,-2.5781844,124
2945,2.1764758,-2.5957408,125
2946,2.0914822,-2.1391098,126
2947,1.4981458,-2.3738618,127
2948,1.5800159,-2.7455728,128
2949,-0.343205,0.2699019,129
2950,1.5756295,-2.427665,130
2951,1.8794206,-2.5602956,131
2952,1.0534468,-2.330852,132
2953,0.34026134,-2.63059,133
2954,1.7928462,-1.973835,134
2955,1.3457137,-2.534599,135
2956,1.160183,-3.1186986,136
2957,1.2693139,-2.536822,137
2958,1.845751,-2.5104465,138
2959,1.8588076,-2.5401518,139
2960,1.1148906,-2.692605,140
2961,1.5123956,-1.2626331,141
2962,1.8109325,-2.9168944,142
2963,1.2330004,-2.2940757,143
2964,1.2261382,-2.2203302,144
2965,1.5328293,-2.0589306,145
2966,2.062115,-1.1832075,146
2967,-0.3900992,0.41162828,147
2968,0.35534298,-2.676228,148
2969,1.1383427,-2.3467388,149
2970,1.520754,-1.9040841,150
2971,2.3562074,-2.4536195,151
2972,1.4431615,-1.8846617,152
2973,1.1225578,-2.2613287,153
2974,1.9506414,-1.9523371,154
2975,2.1151524,-2.2275677,155
2976,1.525031,-2.5802212,156
2977,1.0931939,-2.3001719,157
2978,1.0401423,-2.6312718,158
2979,2.1052966,-2.2771914,159
2980,1.5045943,-2.632636,160
2981,1.9662205,-1.9378061,161
2982,1.3571128,-2.1338267,162
2983,1.2438445,-1.6204315,163
2984,0.5316391,-2.479307,164
2985,1.7735155,-2.2935922,165
2986,0.55689925,-2.5077944,166
2987,1.7698258,-1.7701819,167
2988,1.2779137,-2.5909944,168
2989,1.1883056,-2.084225,169
2990,1.071329,-2.1130896,170
2991,1.8611631,-2.2109685,171
2992,1.8049692,-1.7261317,172
2993,1.8865583,-2.3622332,173
2994,1.7557534,-2.1356993,174
2995,1.6435355,-2.7927353,175
2996,1.6748079,-2.0711515,176
2997,2.000526,-2.6602223,177
2998,1.4997797,-1.9151752,178
2999,2.2769082,-2.0772133,179
3000,1.3459429,-2.4570448,180
3001,1.2273508,-2.9694977,181
3002,2.32313,-2.322356,182
3003,1.1045586,-2.2683537,183
3004,0.1728273,-1.5611936,184
3005,2.726705,-2.2134957,185
3006,1.1877486,-2.5964482,186
3007,0.07681906,-2.0693178,187
3008,1.2428164,-1.8623135,0
3009,0.904959,-2.902637,1
3010,1.0735116,-2.3526323,2
3011,0.9452865,-1.954429,3
3012,1.9903673,-2.6102314,4
3013,1.4638567,-2.5788343,5
3014,1.6979805,-2.299426,6
3015,1.3505094,-2.0769298,7
3016,0.7932817,-2.5240905,8
3017,0.63181305,-1.6544194,9
3018,1.4251132,-2.033594,10
3019,0.12509573,-2.2743292,11
3020,2.043161,-2.135356,12
3021,0.39871955,-0.012387112,13
3022,1.2659273,-2.2816725,14
3023,1.4202124,-2.578191,15
3024,0.9249042,-2.5959759,16
3025,0.8465129,-2.6739447,17
3026,2.1155722,-2.3041792,18
3027,2.136486,-1.8839588,19
3028,0.76756287,-2.107895,20
3029,1.5264188,-1.9101036,21
3030,1.273654,-2.1687784,22
3031,1.7342348,-2.201847,23
3032,0.9364443,-2.092319,24
3033,2.2827263,-1.925127,25
3034,1.0986925,-1.691662,26
3035,1.2851313,-2.027932,27
3036,1.4345402,-2.6426134,28
3037,1.7715803,-2.5310283,29
3038,1.3092405,-2.4407392,30
3039,1.2398541,-2.4995162,31
3040,1.7445011,-2.113809,32
3041,1.0730467,-2.9863882,33
3042,2.32905,-2.618129,34
3043,1.3473836,-2.71124,35
3044,1.3272557,-2.3606133,36
3045,1.3436251,-2.0109744,37
3046,1.1671623,-3.0466497,38
3047,0.87403816,-2.623784,39
3048,1.416656,-2.224761,40
3049,1.058948,-2.2792826,41
3050,1.1110837,-2.3011649,42
3051,2.1942806,-2.9292603,43
3052,2.1362696,-1.7866879,44
3053,0.6209856,-3.1840389,45
3054,2.2354684,-2.4989111,46
3055,0.36646104,-2.4198523,47
3056,1.6057092,-2.6008134,48
3057,1.8705256,-2.3747761,49
3058,1.7041454,-2.0462456,50
3059,-0.29764977,-0.11270301,51
3060,1.4887733,-2.34762,52
3061,2.8522425,-2.1468377,53
3062,2.3257933,-2.6111834,54
3063,1.2015171,-2.7619796,55
3064,2.2326012,-1.7750895,56
3065,1.7943425,-2.4060056,57
3066,1.8865858,-2.5924978,58
3067,1.575268,-2.7390544,59
3068,0.95104414,-2.5081797,60
3069,1.4174707,-2.2840455,61
3070,1.8820025,-1.9588673,62
3071,-1.4030973,-0.7658731,63
3072,1.8720461,-2.3486505,64
3073,1.5622517,-2.183213,65
3074,1.8183609,-2.4225569,66
3075,1.7987678,-2.1118958,67
3076,1.514478,-2.1891031,68
3077,2.0707808,-2.3760638,69
3078,1.4132031,-2.8973467,70
3079,1.5805032,-2.1049478,71
3080,1.9862874,-2.1078906,72
3081,1.8975215,-2.33966,73
3082,1.1860476,-1.8214679,74
3083,1.9897854,-2.3874729,75
3084,1.0421603,-2.7183845,76
3085,1.4375584,-2.3653085,77
3086,1.7256538,-2.2423265,78
3087,1.5862242,-2.3507743,79
3088,1.6637608,-2.2323158,80
3089,0.2994591,-1.4609668,81
3090,2.0469563,-2.1037488,82
3091,1.658757,-2.1487072,83
3092,0.7419063,-1.8680195,84
3093,1.7227914,-3.0501018,85
3094,1.22175,-2.763101,86
3095,1.1326101,-2.2141345,87
3096,1.3124813,-3.0479503,88
3097,1.914993,-2.0791755,89
3098,0.9160016,-2.3301187,90
3099,1.2921369,-2.38308,91
3100,1.1838546,-2.1188166,92
3101,1.1975088,-2.432816,93
3102,1.8932666,-2.461575,94
3103,1.1064578,-1.5514492,95
3104,1.4967796,-2.7048407,96
3105,0.88000005,0.8882841,97
3106,2.2527544,-2.4854856,98
3107,1.4041799,-2.743276,99
3108,2.0162022,-2.1074324,100
3109,1.1815395,-2.1531343,101
3110,1.5076646,-2.1497548,102
3111,1.2727573,-2.993813,103
3112,0.489882,-2.3700364,104
3113,1.1587771,-2.2848716,105
3114,0.7119732,-2.5213974,106
3115,1.0771687,-1.8867922,107
3116,0.96283317,-2.5803885,108
3117,0.39507556,-2.588373,109
3118,2.1325722,-2.5566428,110
3119,1.7297043,-2.6525714,111
3120,1.7867918,-2.5526228,112
3121,-0.30216396,0.2015397,113
3122,1.2099671,-2.5528548,114
3123,1.7916006,-2.5899734,115
3124,1.3375958,-2.9442847,116
3125,1.0093634,-2.6804085,117
3126,1.177073,-2.5254796,118
3127,1.4116154,-2.1314642,119
3128,1.4934132,-2.5179474,120
3129,-0.38298917,0.49333,121
3130,1.5503457,-2.0156307,122
3131,1.4021993,-2.5200129,123
3132,1.4672911,-2.5045028,124
3133,2.1271865,-2.4567282,125
3134,1.2249042,-2.7026167,126
3135,0.8384321,-2.565301,127
3136,2.156676,-2.620133,128
3137,0.7248131,0.38568544,129
3138,1.2253164,-2.2308574,130
3139,1.1298302,-1.8084178,131
3140,1.0838914,-2.3646557,132
3141,1.5330737,-2.675209,133
3142,1.4539186,-1.7248256,134
3143,1.1258626,-2.7535205,135
3144,1.6342024,-2.435698,136
3145,1.6724145,-2.228137,137
3146,0.32979298,-2.3891065,138
3147,1.3130493,-2.6342177,139
3148,1.1395658,-2.5291123,140
3149,1.5661519,-1.3742473,141
3150,0.84016496,-3.019818,142
3151,0.7583164,-2.3424244,143
3152,1.534297,-2.189712,144
3153,1.9643661,-2.1647856,145
3154,0.6118581,-1.8409002,146
3155,0.25213736,0.2914461,147
3156,2.087178,-2.6414719,148
3157,1.2692523,-2.5855665,149
3158,0.9214059,-2.309362,150
3159,1.9816682,-2.0735114,151
3160,0.7141123,-2.0252836,152
3161,1.2040801,-2.655004,153
3162,1.7095933,-2.0516539,154
3163,2.1870477,-2.728831,155
3164,1.313701,-2.7826946,156
3165,1.3018059,-2.531255,157
3166,1.5198687,-3.0263658,158
3167,1.1506708,-2.690376,159
3168,1.1952432,-2.519332,160
3169,1.9463338,-2.3301418,161
3170,1.9094086,-2.4951944,162
3171,1.3414874,-1.7615768,163
3172,0.9534733,-2.4044712,164
3173,1.1590004,-2.530605,165
3174,0.16400063,-2.8742523,166
3175,1.0820578,-1.9401999,167
3176,1.8182454,-2.5097456,168
3177,2.0076554,-2.3796663,169
3178,1.6777968,-2.2598162,170
3179,0.9963557,-2.2620587,171
3180,1.9250368,-2.3828208,172
3181,1.0859983,-2.9916918,173
3182,0.95554966,-2.5461009,174
3183,2.177013,-2.3417213,175
3184,2.5094323,-1.3512053,176
3185,1.679644,-2.5333343,177
3186,1.0928988,-2.6320672,178
3187,1.7752305,-2.1063337,179
3188,0.52985245,-2.560356,180
3189,0.9775132,-2.6692493,181
3190,1.154137,-2.5912235,182
3191,2.1321597,-2.3413584,183
3192,-0.16533542,-1.3669151,184
3193,0.9955392,-3.0045488,185
3194,1.641418,-1.7687142,186
3195,0.58996975,-2.0106199,187
3196,1.5309942,-1.7055874,0
3197,0.91586804,-2.2828422,1
3198,0.9195979,-2.2331507,2
3199,1.3289652,-1.8468605,3
3200,0.09614229,-2.5387893,4
3201,1.0693196,-2.9283679,5
3202,1.413855,-2.4390404,6
3203,1.9182813,-1.9133811,7
3204,1.6064644,-2.3333755,8
3205,1.0513331,-1.7102718,9
3206,1.3509395,-1.8698677,10
3207,2.033856,-2.1242461,11
3208,0.911082,-2.3525448,12
3209,-0.37585086,-0.16415474,13
3210,1.9664842,-2.579909,14
3211,1.2088904,-2.2133653,15
3212,1.6396334,-1.7829187,16
3213,0.39421415,-2.7213082,17
3214,1.1861115,-2.917138,18
3215,0.90396416,-2.7591753,19
3216,1.9046376,-2.0285363,20
3217,0.7801111,-2.0871823,21
3218,1.836471,-2.2226264,22
3219,0.80828255,-2.4377213,23
3220,2.0184393,-2.0828762,24
3221,1.2667965,-2.3509598,25
3222,0.2169944,-1.5219729,26
3223,0.9930736,-1.9965907,27
3224,1.3009619,-2.2964828,28
3225,1.3919504,-2.4516957,29
3226,2.0292828,-2.3163826,30
3227,1.2737232,-2.5711188,31
3228,1.7753282,-2.2689233,32
3229,1.5706284,-2.2962782,33
3230,1.1471736,-2.2746818,34
3231,0.8690722,-2.6968012,35
3232,1.4441348,-2.8081388,36
3233,1.7715986,-2.647115,37
3234,2.0476456,-2.4614265,38
3235,0.1548804,-2.51487,39
3236,1.1171279,-2.5668874,40
3237,1.1494738,-2.2785604,41
3238,1.9472475,-2.0476415,42
3239,0.58749664,-2.920209,43
3240,1.4556172,-1.6669146,44
3241,0.9161499,-3.212982,45
3242,0.6651377,-2.4286904,46
3243,1.6933746,-2.1635904,47
3244,1.4027616,-2.4805164,48
3245,1.3977488,-2.6208158,49
3246,1.9738137,-2.5471992,50
3247,0.09009567,0.5911981,51
3248,0.7717688,-2.237262,52
3249,1.3642427,-2.2808197,53
3250,0.7825883,-2.3666127,54
3251,1.3146782,-2.2724216,55
3252,1.692866,-1.7384657,56
3253,0.43320024,-2.2977743,57
3254,2.4762216,-2.1921022,58
3255,0.7433383,-2.7558045,59
3256,1.7227851,-2.525569,60
3257,1.8457814,-2.0732517,61
3258,1.2460207,-2.393696,62
3259,-0.9365943,-0.30269375,63
3260,2.7583008,-1.9065547,64
3261,0.9922044,-2.6995578,65
3262,1.0322409,-2.5080645,66
3263,1.6032088,-1.89995,67
3264,2.1186779,-2.1694176,68
3265,1.4448491,-2.4393296,69
3266,1.9256436,-2.8000982,70
3267,2.4935985,-2.0031574,71
3268,2.1370835,-2.0951192,72
3269,0.96416676,-2.0719373,73
3270,2.4717093,-1.7833176,74
3271,1.8972859,-2.7794566,75
3272,0.8542865,-2.3821735,76
3273,1.13123,-2.655742,77
3274,0.9320878,-2.3475525,78
3275,1.3141385,-2.328857,79
3276,1.2997524,-2.2508516,80
3277,0.85082823,-1.1510258,81
3278,1.7103213,-2.4858432,82
3279,1.7472869,-2.3771272,83
3280,1.8726659,-1.6302907,84
3281,1.3861808,-2.747707,85
3282,1.8388871,-2.015953,86
3283,1.6959155,-2.1254308,87
3284,1.8382127,-2.5762587,88
3285,1.6490016,-1.9231836,89
3286,1.5168552,-2.3993402,90
3287,1.678252,-2.633488,91
3288,1.6233048,-2.3152637,92
3289,1.6230222,-2.6270258,93
3290,1.9209466,-2.5411854,94
3291,1.2526631,-1.2045164,95
3292,1.7693937,-2.5841181,96
3293,-0.053367905,0.8110824,97
3294,1.0486062,-2.653708,98
3295,1.2298003,-2.434529,99
3296,0.7011357,-2.5929308,100
3297,1.9440054,-1.6769223,101
3298,0.8248831,-2.4346952,102
3299,1.5551726,-2.721867,103
3300,1.0617299,-1.9770572,104
3301,1.4512725,-2.6491551,105
3302,1.1501808,-2.6763809,106
3303,1.8595909,-2.3077097,107
3304,1.3916196,-2.844798,108
3305,1.13933,-2.1348162,109
3306,1.6637,-2.6178594,110
3307,1.0454955,-2.6032767,111
3308,1.7897205,-2.9942503,112
3309,0.29233962,-0.2429738,113
3310,1.790248,-1.9708086,114
3311,2.1129205,-2.0379975,115
3312,1.3482382,-2.8072848,116
3313,0.93771964,-2.4107847,117
3314,1.6250439,-2.5414774,118
3315,1.0010222,-2.51836,119
3316,0.7626656,-2.6585743,120
3317,-0.90254843,-0.3464343,121
3318,1.6045159,-1.9016103,122
3319,2.2712557,-2.6974218,123
3320,2.0533905,-2.507293,124
3321,1.9773915,-1.8299209,125
3322,1.2127862,-2.707267,126
3323,1.3055816,-2.6619895,127
3324,1.9949808,-2.5222135,128
3325,1.2688553,0.7462143,129
3326,1.8781228,-2.2605484,130
3327,1.1204413,-2.427758,131
3328,1.7497151,-2.454463,132
3329,1.707708,-2.358698,133
3330,0.6923467,-2.380583,134
3331,1.9338526,-2.696897,135
3332,1.72318,-2.2877307,136
3333,1.5921488,-2.178306,137
3334,2.349225,-1.8676076,138
3335,2.2428184,-2.010312,139
3336,1.2468432,-2.359241,140
3337,1.9465127,-1.1295265,141
3338,1.3709426,-2.7683117,142
3339,1.9963859,-2.2767713,143
3340,1.0294385,-2.2430534,144
3341,1.6797268,-2.505622,145
3342,1.6066407,-1.7064509,146
3343,0.27353913,0.12109855,147
3344,1.233368,-2.6491594,148
3345,1.6585914,-2.535896,149
3346,1.7944181,-2.378213,150
3347,1.8722419,-2.1579282,151
3348,1.9830258,-2.2208207,152
3349,0.5380433,-2.1771612,153
3350,1.1704243,-1.913086,154
3351,1.1149871,-2.6197371,155
3352,1.4350451,-2.3513281,156
3353,2.5725605,-1.8871858,157
3354,2.0539613,-2.6556008,158
3355,0.746087,-2.6144454,159
3356,1.8436496,-2.4068842,160
3357,0.10458815,-2.4696665,161
3358,1.7123023,-1.963534,162
3359,-0.29907143,-2.3025067,163
3360,1.8562369,-2.1007938,164
3361,0.8561353,-2.4609683,165
3362,1.617802,-2.2902126,166
3363,1.9698114,-1.6453139,167
3364,0.7805684,-2.9576035,168
3365,2.1140833,-2.3676057,169
3366,1.753607,-2.2946727,170
3367,1.486585,-2.5563824,171
3368,1.3163217,-1.834688,172
3369,1.9203727,-2.725029,173
3370,0.5731191,-2.5635223,174
3371,1.2769234,-3.1397448,175
3372,0.9943881,-2.118827,176
3373,2.0898738,-2.782268,177
3374,1.6624314,-2.749643,178
3375,1.3584495,-2.559096,179
3376,0.1367898,-2.537091,180
3377,2.0904415,-2.646513,181
3378,1.8107872,-2.6081662,182
3379,1.3120257,-2.2604516,183
3380,0.41470206,-1.5382521,184
3381,1.7327051,-2.46413,185
3382,1.3721144,-2.799634,186
3383,1.7358367,-1.9604156,187
3384,1.041736,-2.2236686,0
3385,2.4095778,-2.0600388,1
3386,2.39877,-1.9376961,2
3387,1.357979,-2.018416,3
3388,1.1430392,-2.9320433,4
3389,1.8342869,-2.6948452,5
3390,1.8382185,-2.381541,6
3391,1.2860507,-2.2240574,7
3392,1.2054783,-2.8877969,8
3393,0.818756,-2.0413628,9
3394,1.9684632,-1.9481308,10
3395,1.023794,-2.3999875,11
3396,0.56421417,-2.6297467,12
3397,0.2179491,-0.38233644,13
3398,1.3384209,-2.2936082,14
3399,1.5220915,-2.7586737,15
3400,1.8339927,-2.0178318,16
3401,1.4761121,-2.2637587,17
3402,1.580665,-2.87366,18
3403,1.3011758,-1.9000963,19
3404,1.3271718,-2.0765727,20
3405,1.0288936,-1.7990435,21
3406,1.4104573,-2.5011506,22
3407,1.9882435,-2.6121724,23
3408,0.89698154,-3.057295,24
3409,1.8837392,-1.8117979,25
3410,0.5489754,-1.5667903,26
3411,1.3382528,-1.8627458,27
3412,1.344218,-2.9702334,28
3413,2.339295,-2.5469556,29
3414,1.6740888,-2.0476797,30
3415,2.022449,-2.2321873,31
3416,1.7436857,-2.3958542,32
3417,0.49583292,-2.5753927,33
3418,1.3358378,-2.6187057,34
3419,0.9107826,-2.1753974,35
3420,1.747609,-2.592782,36
3421,1.2090454,-2.849005,37
3422,0.75945014,-2.974119,38
3423,1.4799057,-2.7682016,39
3424,1.0505048,-2.5767002,40
3425,1.3104329,-2.377455,41
3426,1.816011,-2.108104,42
3427,1.900981,-2.3795884,43
3428,1.397764,-1.8150705,44
3429,1.4839557,-3.1878195,45
3430,1.6687797,-2.8575225,46
3431,1.9359752,-1.8328011,47
3432,1.0302796,-2.8618288,48
3433,1.5051937,-2.5817878,49
3434,2.1880965,-2.383893,50
3435,0.18011037,0.5392576,51
3436,1.5216756,-2.302568,52
3437,2.2298028,-1.9920273,53
3438,1.0339984,-2.3443592,54
3439,1.3448712,-2.8312922,55
3440,2.0908213,-1.4402175,56
3441,1.7412028,-1.557737,57
3442,1.6835641,-2.595643,58
3443,2.3953238,-2.8939776,59
3444,1.2543795,-2.2469888,60
3445,1.0000601,-2.200654,61
3446,1.6457893,-2.1347003,62
3447,-0.4863273,0.0996787,63
3448,2.6331687,-2.3523908,64
3449,1.6426791,-2.1964533,65
3450,0.89558494,-2.3547902,66
3451,0.67374283,-2.1456316,67
3452,0.6152219,-2.5635273,68
3453,1.9558163,-2.14489,69
3454,2.2740586,-2.774126,70
3455,2.3870564,-2.1302838,71
3456,1.4889463,-2.1240642,72
3457,2.02382,-2.6102476,73
3458,1.3610315,-2.2570162,74
3459,1.2819781,-2.5651703,75
3460,1.5197533,-2.3529582,76
3461,1.2827196,-2.619139,77
