,locs0,locs1,locs2,locs3,subject
0,-0.7678421,-1.0449488,0.26791602,-0.5381784,0
1,0.073275834,1.8316226,-1.5528425,-0.6395502,1
2,0.8142029,-3.6886303,-0.5460763,-0.74404037,2
3,-0.55505425,0.59148926,-0.77728987,-0.887206,3
4,1.0761778,-1.5596898,-0.07749466,-1.1329606,4
5,-2.0447416,-0.9331488,-1.4333485,-0.23651105,5
6,1.196021,0.017706454,-1.5931709,-1.7041398,6
7,-1.7624867,-0.54409707,-2.290339,-0.88762945,7
8,-0.3912388,-0.8330766,-0.9170001,0.41953063,8
9,0.06806485,2.676652,0.3755089,0.11897725,9
10,-2.2399604,3.5250788,-1.0711824,-1.0387539,10
11,1.4177649,1.636983,-0.22866759,0.33633047,11
12,2.044037,1.3316107,0.06587845,-0.48824853,12
13,0.34777874,-2.9844768,-1.3912644,-1.3648612,13
14,1.5965409,-3.0074158,-0.6711172,-0.9850476,14
15,0.8130774,-3.6607895,-2.0129833,-0.47608134,15
16,0.36684424,0.63926893,-1.9087168,-0.79358387,16
17,0.67873305,2.5276542,-1.59082,0.5033696,17
18,0.13857004,0.37161848,-0.041897297,-0.15471168,18
19,0.57600427,0.96296346,0.27309728,0.3068503,19
20,-0.51166683,0.72272164,-1.0172702,-1.7097455,20
21,-0.29313847,-0.6788617,0.41559967,-0.26022685,21
22,1.1202006,1.4363813,-0.33529055,0.14731157,22
23,-1.6611843,0.39469373,-0.46472877,-1.6228038,23
24,0.9454234,1.0593717,-0.99976665,1.907028,24
25,0.02524753,-1.0305475,-0.49511462,-0.5193366,25
26,0.057164967,4.098456,-0.40992892,0.9930248,26
27,1.2482873,0.13198078,-0.46072486,0.48746574,27
28,1.7798804,-1.0972458,-1.9543121,-1.962423,28
29,0.2677766,-0.5047438,-0.9254606,-1.2598536,29
30,0.46026617,-3.7535245,-0.28839895,-0.26650882,30
31,-0.139797,-0.11005616,-0.4124529,-1.2962519,31
32,1.1589117,1.4857601,-1.8537318,-0.9516293,32
33,0.96097803,-0.53129107,-1.4647884,-0.049773905,33
34,0.31959555,-0.9691951,-1.7759166,0.5457166,34
35,1.572821,-1.9452374,-1.1030087,-0.049328346,35
36,-1.7587538,3.9566388,-0.19274485,-0.08490951,36
37,1.5362842,1.2346746,-1.0452069,-1.7485886,37
38,-0.43703774,-1.2435787,-0.69206256,-0.7278708,38
39,-0.39167005,-0.988489,-1.6422837,-0.6533639,39
40,2.535703,-1.8582462,-1.2327361,-0.37589663,40
41,0.5159052,-0.13506198,-1.1170378,-1.2614561,41
42,1.207223,0.51312983,-0.5236322,-1.5011839,42
43,1.1980335,-0.06774561,0.53579175,-2.1913295,43
44,1.3274716,2.144496,-0.57218397,-1.1807301,44
45,0.3269987,0.5063751,0.08294475,-0.22995758,45
46,-1.2417123,1.6044664,-0.2934667,0.25882268,46
47,1.4895076,0.55046237,-0.48482725,-1.0762341,47
48,-1.5726578,-1.1772406,-1.572222,-0.5792283,48
49,1.1004992,-2.079077,-0.92293,1.7124848,49
50,-0.19745407,-2.1273499,-0.109476656,-0.24035689,0
51,0.13225077,-1.4323826,-1.332132,-0.63233054,1
52,1.5692391,-2.6935105,0.19597238,-0.4440962,2
53,-0.54532427,0.6625648,-0.24055392,-0.80501,3
54,2.0488746,-1.1225101,0.08810295,-0.9258066,4
55,-0.83333117,-1.569268,-0.6026851,-0.030423641,5
56,0.3163005,0.58289576,-1.6856077,-1.8642576,6
57,-0.96831554,0.80909896,-1.0192488,-0.549768,7
58,-0.8873403,0.5457228,-0.95673454,0.15126061,8
59,-0.4791931,0.26210308,-2.017088,-0.40961674,9
60,-1.165889,-0.13522571,-0.8311762,-0.7149891,10
61,1.5222254,2.8989508,0.5203895,0.5339795,11
62,1.8790237,1.5604461,-0.34427625,-0.483078,12
63,0.37111062,-1.0500586,-1.5101233,-0.91682947,13
64,0.92446125,-2.770688,-0.82049775,-0.967552,14
65,0.85794884,-4.0025373,-0.74467,-0.16952659,15
66,0.09744402,1.0883181,-1.2087947,-0.9875647,16
67,1.1360494,-0.64305747,-1.6708452,0.69221437,17
68,0.15797663,0.29233155,0.5093578,-0.1200268,18
69,0.09706666,-2.5824187,-0.3402494,-0.3975315,19
70,-0.03720823,0.5775835,-1.3493255,-1.488944,20
71,-0.5927481,-1.1317397,-0.67354715,-0.62618,21
72,0.532164,0.76551914,-0.8760888,-0.059433103,22
73,-3.479938,0.44636163,0.0043808445,-1.791905,23
74,-1.6759388,2.029418,0.333322,0.40398502,24
75,0.39674795,-0.44697082,0.4444179,-0.09384519,25
76,-1.2649553,2.3387957,-0.7269518,0.84475946,26
77,1.5349798,0.82753724,-1.3550904,-0.039077193,27
78,1.2678498,-0.096620105,-1.2913563,-1.6015781,28
79,0.89863944,-0.2332802,-0.69118637,-1.1112359,29
80,0.20868133,-3.2376573,-0.17005622,-0.8629594,30
81,0.41904914,-0.30943468,-0.14945251,-1.3956852,31
82,1.9259546,-0.25610417,-1.9148566,-0.99303967,32
83,1.0862051,-0.09014094,-1.2806745,-0.17695536,33
84,-0.75404936,-1.73465,-2.2105708,0.04810548,34
85,1.5603561,-1.51594,-0.82922804,0.036607247,35
86,-1.1335614,-0.41427714,0.39191473,0.64682525,36
87,1.7828739,0.8708264,-1.263576,-1.7561167,37
88,-0.38343808,-0.4724218,-0.9967899,-0.7513538,38
89,-1.1385746,0.76636815,-1.9926702,-1.0254046,39
90,0.36191595,-0.3725528,-1.1525652,-0.39641237,40
91,2.1841893,-0.1629703,-1.5155674,-0.6830147,41
92,2.4902914,0.80894834,-0.19651774,-1.287116,42
93,1.1240318,0.14486678,0.515723,-1.5047376,43
94,1.5831391,1.4344455,-0.5990637,-0.8496531,44
95,0.16897862,1.1983874,0.20886973,-0.012644678,45
96,-0.33468014,-3.3833852,-1.2955446,1.1922653,46
97,0.05830586,0.72328836,-0.19552888,-1.3869051,47
98,-1.1336536,1.4632986,-0.7302841,-0.5998348,48
99,-0.15651006,-0.25393236,-1.1337396,0.7801137,49
100,-0.6619908,-2.4610872,0.48850688,-0.5553179,0
101,0.116195664,-0.85455513,-2.3483481,-0.7216832,1
102,1.3127373,-2.9358635,-0.6765573,-0.61376303,2
103,-0.32233226,3.3269553,-0.361755,-0.7419843,3
104,1.5636394,-1.5150617,0.08984515,-1.5101038,4
105,-1.7264924,1.2830261,-1.3755733,0.9016452,5
106,1.5180566,-0.01070267,-1.7090851,-1.4228202,6
107,-1.5099959,-0.009795696,-1.1918765,-0.5376848,7
108,-0.6306996,0.05336687,-0.7734345,-0.11506522,8
109,0.30882642,3.9954033,-0.84514964,0.041649815,9
110,-1.1505973,2.9974537,-1.3881501,-0.71620053,10
111,1.3641946,2.787181,-0.13268852,0.39820212,11
112,1.9273143,1.814303,-0.14897388,-0.5036847,12
113,-0.0018930435,-2.279218,-1.828644,-1.1036844,13
114,0.28434056,-2.39241,0.45075855,-0.9719939,14
115,1.0595083,-3.4913306,-1.6447853,-0.4785705,15
116,0.12192466,-0.8926074,-1.5995543,-1.0185498,16
117,0.82754445,0.6405053,-0.25401324,0.92816174,17
118,-0.44871363,0.5729947,0.56363297,-0.30408353,18
119,0.75312895,-2.9390335,0.25025767,0.6542815,19
120,1.3125188,1.1775185,-1.235251,-1.6412803,20
121,0.3222427,0.18427633,0.13640374,-0.2960837,21
122,0.70622176,-0.28518188,-1.6160928,-0.12854776,22
123,-2.5632904,1.4480395,-0.050549127,-1.553635,23
124,0.4813617,-0.591136,-0.13486546,0.4712959,24
125,1.044168,-0.5421484,0.00878574,0.14438653,25
126,-1.4351169,-3.0663726,-1.9263992,0.1701751,26
127,1.2007474,0.27323294,-0.33028197,0.25583574,27
128,1.9107429,1.1729345,-1.0260936,-1.4794347,28
129,0.1843115,-0.36200112,-1.1314152,-1.5293921,29
130,0.48638117,-5.0323315,-0.94215095,-1.0975518,30
131,1.1781182,-0.7379599,-0.23221609,-1.1909382,31
132,0.3541417,0.16751173,-2.1564107,-1.0580791,32
133,1.6011225,-1.5776362,-1.6864537,0.128065,33
134,0.46032208,1.31761,-0.7627955,0.36658874,34
135,1.8596797,-0.49264348,-0.54354763,0.29203835,35
136,-2.019877,1.2437432,0.09200525,0.97891533,36
137,1.6994171,1.5405699,-1.465289,-2.123593,37
138,-0.78515387,-1.1425197,-1.4322075,-0.75057113,38
139,-1.4653676,0.84310496,-2.2392788,-0.99098796,39
140,1.0852789,-1.3419346,-0.9112168,-0.44064152,40
141,0.20908356,2.9857688,-0.8792037,-1.2193756,41
142,1.9267554,1.6839521,-0.020565432,-1.4375978,42
143,0.36747795,0.2637351,0.113788575,-2.1681476,43
144,2.255945,2.1270244,-0.264755,-0.9328574,44
145,0.67486584,-0.7552457,-0.06436105,-0.053789467,45
146,-0.41625118,0.84748167,-1.2673249,0.93573904,46
147,2.4360385,0.52056724,-0.35727528,-1.217629,47
148,-2.1762104,-0.79673225,-1.5711575,-1.3493866,48
149,-0.5064279,0.5118819,-1.7293899,0.64006937,49
150,-0.34090084,-2.1381795,-0.80132324,-0.6007594,0
151,-0.16580983,3.058593,-1.9134159,-0.6446777,1
152,1.3337395,-3.0777392,-0.20112672,-0.40465447,2
153,-0.0028855205,2.0092454,-0.4035186,-0.5570147,3
154,0.85192424,-1.4042724,0.16617781,-0.69977033,4
155,-1.088617,1.8343967,0.032413304,0.0791561,5
156,1.0337412,-0.061056435,-1.7833885,-1.6000636,6
157,-0.8796741,1.0661218,-0.36117625,-0.8070498,7
158,0.028306127,0.67240113,0.2539444,1.0477813,8
159,-0.4448572,2.0510435,-1.3777432,-0.24842712,9
160,-2.0027523,-2.6347082,-0.79101956,-0.96216303,10
161,1.550211,1.9601465,-0.45851088,0.27665123,11
162,2.3267193,1.4228455,-0.4510999,-0.39097083,12
163,-0.2645783,-3.3296964,-1.0457461,-1.2706151,13
164,1.3833225,-2.3944082,-0.31967747,-0.6079644,14
165,1.9598727,-5.8727894,0.0018482208,-0.1344347,15
166,0.032693893,0.7849021,-1.2635467,-1.102599,16
167,0.45135206,-0.43107736,-1.0816364,0.43725654,17
168,-0.15919559,1.4550395,0.685653,-0.07421521,18
169,-0.26383752,-2.6360073,0.0049144328,0.24688782,19
170,0.26076108,1.0920582,-1.5728782,-1.7285573,20
171,-0.28881118,-1.3422384,-1.0359001,-0.67756903,21
172,-0.04060042,2.5976143,-1.1313765,-0.40930998,22
173,-1.9893188,0.1966491,0.33406788,-1.6716497,23
174,-0.010336041,0.48239243,-1.6788942,0.18440461,24
175,0.4079147,-0.7798941,-0.7935957,-0.8518368,25
176,-1.3335371,-0.73651594,-0.4602729,0.75398964,26
177,1.770893,1.8510244,-0.84195673,0.014057204,27
178,0.9577396,0.38878047,-1.4011779,-1.6422739,28
179,0.34609997,-0.3679483,-0.6768979,-1.1005208,29
180,-0.5633488,-2.382978,-0.05417478,-0.75104505,30
181,0.17041449,-0.5388975,-0.8185733,-1.1701496,31
182,0.85031116,-1.1666825,-2.6030846,-0.9389156,32
183,1.9022908,-0.105504304,-1.7870511,0.2769449,33
184,0.37413132,-2.127201,-0.80634105,0.95862204,34
185,2.2582517,-1.016937,-1.1215755,0.09924699,35
186,-1.7940278,-0.23821408,-1.0148572,0.09873195,36
187,1.90961,1.1296848,-0.9126807,-2.2670865,37
188,-0.70144665,-0.7946601,-0.8305702,-0.36277348,38
189,-0.8638855,1.419882,-0.1638732,-0.5107534,39
190,1.2339084,-1.2684431,-1.1243587,-0.24703684,40
191,0.65827286,3.9115267,-1.1665146,-0.8304296,41
192,1.9135737,0.76852065,0.3448918,-1.3341725,42
193,0.6131543,0.5810832,0.9021903,-1.9547976,43
194,0.6534016,1.5802212,-1.1395955,-1.1741506,44
195,0.15377893,0.9517935,0.005660832,-0.4644649,45
196,-3.0067143,-0.67247504,-0.46011633,-0.28088468,46
197,1.8775363,0.89786595,-0.10492812,-1.5130932,47
198,-1.3086356,-0.7372739,-0.72583914,-0.42407218,48
199,0.5421406,-1.3268361,-0.95330757,0.36612535,49
200,-0.5426114,-1.3520677,0.0701118,-0.46983653,0
201,-0.62154907,-0.47146225,-0.96945095,-0.6158766,1
202,1.4721632,-3.096447,-0.8153275,-0.65233636,2
203,-0.18093719,2.1060798,-0.3765896,-0.68513787,3
204,1.8680973,-1.5078566,0.30107793,-0.88033533,4
205,0.67830753,-3.5670683,0.3780867,1.299109,5
206,0.39458144,-0.024710238,-2.2793934,-1.9281794,6
207,-1.0681778,-0.43275413,-1.4207141,-0.8593432,7
208,-0.3837112,-1.3312988,-1.3708724,0.63901633,8
209,0.2743773,-0.47435844,-1.4368467,0.35703748,9
210,-2.226247,3.8210866,-1.3895591,-1.0981597,10
211,1.7605438,2.3549695,0.20984966,0.29861265,11
212,1.9593953,1.0495214,-1.0746815,-0.37452212,12
213,0.45092115,-2.416957,-1.6580076,-1.2463887,13
214,0.21116489,-2.4533474,-0.42139548,-0.88501275,14
215,1.2453828,-3.9749255,-1.3545665,-0.017159358,15
216,-0.3584705,-0.24667355,-1.8913713,-1.4734609,16
217,0.28825918,-0.19928034,-0.5232231,-0.30910745,17
218,-0.663104,-0.43180522,-0.18486372,-0.5870156,18
219,0.2256913,-2.6443863,-0.81666225,0.4413917,19
220,0.05606362,0.55102426,-1.22261,-1.4748117,20
221,0.30149564,1.2070147,0.76609206,-0.047832727,21
222,0.9917542,2.7928615,-1.2404113,-0.11595147,22
223,-1.8768696,-0.11200589,0.4187528,-1.6021498,23
224,0.48762912,-0.3780013,-1.1525589,1.1808898,24
225,-0.84606993,-1.1152562,0.20926581,-0.55749756,25
226,-1.2616664,-1.4611912,-0.24193245,0.32247958,26
227,1.4545255,1.8910383,-0.76713413,0.49396607,27
228,0.8683052,-1.9057077,-1.8627174,-1.6366364,28
229,-0.1282202,-0.27074242,-1.3407525,-1.6616045,29
230,-0.28244424,-3.1646438,-0.036051393,-0.64376414,30
231,0.27181154,-0.9328505,-0.6509887,-1.7488964,31
232,0.95414436,0.04666379,-1.2416579,-0.9417089,32
233,1.4006824,-3.2686856,-0.75505495,0.024901103,33
234,-0.17197049,3.182184,0.56960046,0.65579057,34
235,1.3768866,-2.7456384,-0.7264011,-0.17305824,35
236,-1.9495668,0.76350945,0.2163825,-0.21376552,36
237,1.2492692,2.5784194,-0.92804134,-1.7464217,37
238,-1.1045332,-1.7042298,-0.510679,-1.0144603,38
239,-1.0100443,-0.8640894,-1.998313,-0.6572895,39
240,0.96610254,-0.79581547,-1.2603767,-0.45057818,40
241,1.1194887,-1.2958629,-1.149997,-0.8794614,41
242,2.1225555,0.7143534,0.008238681,-1.5563662,42
243,0.20518833,-0.21271767,-0.01972413,-2.0694067,43
244,0.5606857,1.7616391,-0.8619231,-1.1807277,44
245,0.7282516,2.4194005,-0.43632567,-0.07706174,45
246,-1.4380491,2.2655487,-1.5343602,-0.10207111,46
247,1.8576534,0.9895443,-0.55191624,-1.5370675,47
248,-1.9624776,0.7194284,-1.77781,-0.76680773,48
249,-0.8880336,0.3672274,-2.0101483,-0.20633334,49
250,-0.18432319,-1.3110179,-0.9682914,-0.5868905,0
251,0.18474616,1.4171089,-1.4845394,-0.63498586,1
252,1.9493504,-3.81996,0.0875262,-0.5733303,2
253,0.0843254,0.7290826,-0.32007474,-0.49995238,3
254,2.0717013,-1.20216,0.16052276,-0.79450524,4
255,-1.7423458,2.0860858,-0.5190889,0.17352903,5
256,0.41088822,1.7032508,-1.9505544,-1.8720322,6
257,-0.44853997,-0.189886,-1.7266028,-0.5331318,7
258,-1.0095298,-0.45045674,-0.7837615,-0.26961115,8
259,-0.018434025,0.9836382,-1.3574216,0.4507333,9
260,-2.7063136,1.2330008,-0.7400346,-0.8676441,10
261,2.2464778,2.2965007,0.42905957,0.5089239,11
262,1.1823494,-0.49841833,-0.4430166,-0.6986022,12
263,0.14307421,-0.08475304,-1.5639346,-0.9466307,13
264,1.4720062,-2.5076995,-0.41573572,-0.8536481,14
265,0.18932432,-4.2452636,-1.0210305,-0.59448004,15
266,-0.03703709,-0.8148041,-1.2960396,-1.3357733,16
267,0.5981517,-2.4328175,0.18072283,0.8065958,17
268,0.13114604,-0.71487904,-0.40370557,-0.047373682,18
269,-0.6788293,-2.2189574,0.5441308,-0.12035753,19
270,-0.6667716,-0.45655054,-1.2518089,-1.6313456,20
271,0.012416169,-0.4795054,-0.2734633,-0.66791844,21
272,0.47225833,0.1255548,-0.0829736,-0.19156176,22
273,-2.90823,-0.04279822,-0.30119085,-1.857163,23
274,-0.53069973,-0.42648607,-1.4065046,0.53189784,24
275,-0.0402067,-0.7315847,-0.11329353,-0.48267412,25
276,0.16524434,0.37734038,0.30403405,2.4765096,26
277,2.0101883,1.6220293,-0.5019856,0.23240674,27
278,1.3734748,-0.0023498088,-1.3878057,-1.8745387,28
279,-0.10347664,0.084299006,-0.43343294,-1.311927,29
280,-0.09916997,-3.2797022,-0.7013342,-0.6286589,30
281,-0.0776802,-0.9631072,-0.51847863,-1.3843714,31
282,0.34970474,-0.63327545,-2.0243924,-0.95887125,32
283,1.5629423,-0.2584856,-1.1848952,-0.022204366,33
284,0.29966667,0.104444474,-0.24879181,0.4910818,34
285,1.3435616,-4.1722918,-1.0555775,0.15661758,35
286,-1.1150357,2.9065733,0.12500715,0.1667587,36
287,1.4454491,-0.061428547,-0.96260875,-1.9612639,37
288,-0.34839427,-0.47989276,-0.6718619,-0.58582926,38
289,-1.1395962,3.4260776,-2.0051563,-0.6562568,39
290,2.254325,-1.501596,-0.98562276,-0.33209363,40
291,1.0081353,2.2632196,-0.96065617,-1.0301427,41
292,1.7247225,1.2624471,-0.00043174252,-1.401143,42
293,2.0995047,-0.21117528,0.47584862,-1.9425652,43
294,0.43722135,1.6542128,-1.1001906,-1.148143,44
295,-0.6979878,0.031882882,0.1067037,-0.63329643,45
296,-1.8856037,1.9650458,-0.8017621,-0.7171311,46
297,0.6737603,1.019824,-0.08026558,-1.3925264,47
298,-0.83568466,3.0623806,-0.86024284,-0.081377506,48
299,-1.4085977,-1.0306672,-0.6513894,0.14955294,49
300,-0.365213,-0.74518627,-0.5217314,-0.6023389,0
301,0.28998774,-0.323851,-1.0354819,-0.38046765,1
302,1.2955456,-3.939596,0.09869546,-0.4597735,2
303,-0.37163228,1.2203034,-0.31344143,-0.9645591,3
304,1.7142781,-1.6727891,-0.2144453,-1.1207024,4
305,-0.34346956,0.19011824,-0.27505112,1.3773252,5
306,1.2123066,2.5596523,-1.8327066,-1.5740808,6
307,-1.2265097,0.20743196,-0.7283505,-0.5391059,7
308,0.38502437,-0.7423202,-1.1264046,0.8982638,8
309,-0.37115362,1.5316,-1.5559878,-0.093664095,9
310,-2.5748212,-1.7999015,-2.4243994,-1.1680669,10
311,0.7349296,1.4391714,-0.084810466,0.21328847,11
312,2.0929487,0.43322945,-0.29998955,-0.21784005,12
313,0.29709184,-5.2794533,-1.4387512,-1.7836118,13
314,1.5426958,-2.913207,-0.560349,-0.79493934,14
315,1.4346021,-3.8544478,-0.7466964,-0.083054066,15
316,-0.41114366,-0.46810782,-0.7259957,-1.3174279,16
317,0.43440732,-1.2802663,-1.3248397,0.3205154,17
318,-0.16708085,0.19828244,0.23566563,-0.53265774,18
319,-0.11536163,-1.9622571,0.29420018,0.22351846,19
320,0.46649596,0.85613525,-1.1543834,-1.4746077,20
321,0.05411405,0.30908868,-0.6710938,-0.70346415,21
322,0.26432958,2.011619,-0.17358959,-0.09312913,22
323,-3.020426,1.2743695,-0.12220104,-1.7263147,23
324,0.99126583,-0.4086407,-0.93081653,1.9249551,24
325,-0.3684832,-0.20260304,0.18425496,-0.5313606,25
326,-0.86648786,1.2878373,-0.21719098,0.32162097,26
327,1.7217711,0.92019236,-0.93888986,0.46907187,27
328,1.3624843,0.5526194,-1.4621538,-1.8597487,28
329,0.6163914,-0.24327864,-1.2489448,-1.1610285,29
330,0.3318938,-4.30284,-0.29179645,-0.3716145,30
331,0.5065281,-0.8610978,-0.7544366,-1.1657252,31
332,1.6324153,-1.4259074,-2.1502,-1.1556069,32
333,1.6837782,0.77822447,-1.1442049,-0.2188433,33
334,0.16909999,1.3602897,-0.48787096,0.50468034,34
335,0.521993,-2.032287,-0.66201913,-0.24748309,35
336,-3.0207653,2.6198587,0.20658863,-0.17190956,36
337,1.8972713,1.9805089,-0.37411016,-1.8060858,37
338,-0.7931898,-1.1041028,-0.49977976,-0.6349009,38
339,-0.5457953,2.2415,-2.2148814,-0.43436536,39
340,1.5968702,-0.7087314,-0.92774725,-0.34849924,40
341,1.115139,1.8332856,-0.9654738,-1.1132793,41
342,2.3446546,1.0161155,0.04490725,-1.4843371,42
343,-0.25692803,0.12679476,0.76402605,-1.8787233,43
344,2.0284314,0.14778459,-1.3458083,-0.9781341,44
345,0.7230861,1.3524903,-0.83172965,-0.27861354,45
346,-0.5820505,2.9935703,0.36364198,1.2312753,46
347,1.2419701,-0.023961604,-0.58276916,-1.6496981,47
348,-1.0300827,-0.48490596,-0.60311747,-0.7626258,48
349,-0.3999756,-0.8678363,-1.1508341,1.9855361,49
350,-0.57465506,-1.8478619,0.40766075,-0.4097102,0
351,-0.10130601,2.3008611,-1.0329586,-0.5511883,1
352,0.9866991,-2.8101058,-0.3854903,-0.70010257,2
353,-0.52542126,1.322554,-0.28817827,-0.73699504,3
354,1.8642721,-1.3747376,0.32390174,-1.011223,4
355,-2.8056645,0.056954976,1.2204424,-0.09733099,5
356,1.3743331,0.70387626,-2.6509285,-1.7747041,6
357,0.09396839,0.41008064,-2.122695,-0.15847456,7
358,-0.428678,0.59859616,-1.5234729,0.47654808,8
359,-0.13831034,1.6518135,-1.5944605,-0.07104738,9
360,-2.0631545,1.5292585,-1.157262,-0.68588793,10
361,2.0847378,0.11061311,0.37190515,0.9028918,11
362,0.8721984,1.8578892,-0.4398327,-0.37528878,12
363,0.13160293,-1.119489,-1.6735735,-1.5349762,13
364,0.9062871,-2.5801396,-0.19395408,-0.75582033,14
365,1.0552005,-3.2263508,-1.1546934,-0.14957373,15
366,0.8681027,0.7532515,-1.1197627,-1.0723298,16
367,0.22579381,0.045182258,-1.1911509,-0.13384596,17
368,-0.0038336217,-0.65930116,-0.24717,-0.17821924,18
369,0.16908625,-0.769252,0.46464986,0.43323138,19
370,-0.0940444,0.5368426,-0.8955122,-1.5248754,20
371,0.12312134,0.46765384,0.16173038,-0.008447021,21
372,0.33617434,1.5659728,-1.7593102,-0.57132417,22
373,-2.1738846,0.4305707,-0.0065431297,-1.9093419,23
374,-0.62164617,-1.0292093,-0.9018893,0.31118107,24
375,0.4246369,-0.7959703,-0.6956722,-0.59291834,25
376,-2.5942688,0.9409643,-1.2149606,0.11915028,26
377,1.4817849,0.9582164,-0.57287306,0.5013534,27
378,2.7510884,0.5406488,-1.139589,-1.5822964,28
379,0.10554705,0.53843874,-1.1523228,-1.4540417,29
380,0.12776111,-3.232408,-0.31278276,-0.63017875,30
381,0.029060483,-0.7146927,0.17977178,-1.0784292,31
382,1.3891604,-0.13886344,-1.87552,-1.0555503,32
383,1.1250622,-1.1468602,-0.8562149,-0.055085693,33
384,0.8192817,-0.15103532,-1.5733869,0.8544576,34
385,0.6241847,-1.5912622,-0.56743103,0.2839869,35
386,-1.3544987,0.95374,-1.8756559,1.299736,36
387,1.858353,3.0049696,-1.4185584,-1.738173,37
388,-0.7814386,-0.18646187,-0.5972863,-0.9646509,38
389,-1.814847,-0.22712678,-1.2968453,-1.1545231,39
390,1.6559292,-1.8549106,-1.1505797,-0.49753174,40
391,1.3345033,4.4862013,-1.1158082,-1.0479732,41
392,2.350703,1.2700655,0.3776901,-1.0284076,42
393,0.6822396,0.107905954,0.55409676,-2.2095103,43
394,1.6741352,2.746871,-0.8757738,-0.8219044,44
395,-0.6164683,0.5528877,0.054239124,-0.3605685,45
396,-0.47557035,-0.13589434,-0.78906864,1.1652467,46
397,2.1625404,0.7681772,-0.5073992,-1.281878,47
398,-1.7703319,2.405238,-0.7876529,-0.9794177,48
399,-1.2292211,-0.35791504,0.02137041,0.46479046,49
400,-0.5388698,-0.8219256,-0.7987023,-0.49157783,0
401,0.5047069,-0.38182557,-1.5454186,-0.31313473,1
402,0.43557203,-2.810903,0.5610005,-0.69779694,2
403,-0.4282657,0.8363812,-1.2676195,-1.0348759,3
404,1.8128167,-1.1525842,0.14754622,-1.0701445,4
405,-0.04577148,-1.8745981,-1.1131616,0.32751536,5
406,1.1119987,0.75402546,-2.0454605,-1.7239631,6
407,-1.5475893,0.1638076,-0.7189494,-0.62051195,7
408,-0.53873754,0.82644135,-2.4363978,0.7548126,8
409,-0.3342491,2.2088614,-0.45298302,-0.052018348,9
410,-2.0360098,0.97391975,-1.4476944,-1.1271238,10
411,1.7316241,2.9399376,-0.018408015,0.4192486,11
412,1.9735705,1.8720008,-0.23825908,-0.49112684,12
413,-0.10603115,-2.979324,-1.7372626,-1.3077345,13
414,1.5117452,-2.9189944,-0.57436514,-0.8975097,14
415,0.98278517,-3.8611546,-1.3100187,-0.28555486,15
416,0.4064502,0.081807286,-1.006786,-0.8980092,16
417,0.4064137,-3.4209445,-0.13926625,0.60946226,17
418,0.140991,-1.0700427,0.18466762,-0.1283943,18
419,0.37931147,-2.8064775,0.07961631,0.6020853,19
420,-0.35004282,1.1883693,-1.0315845,-1.5401133,20
421,-0.6184008,0.8972973,-0.25282744,-0.55783534,21
422,0.7761614,1.2693349,-0.9966465,-0.30424306,22
423,-2.8138025,0.071537375,-0.52146304,-2.074744,23
424,-0.46975595,-0.84843194,0.8352713,0.96234083,24
425,0.42462134,-1.2576549,-0.29456976,-0.2676092,25
426,-2.045693,1.8150635,-0.3782645,-0.11221039,26
427,0.9861457,0.048583865,-1.7147493,0.09217347,27
428,1.9337589,-0.86947894,-2.0901067,-1.8314394,28
429,0.27345523,1.0396483,-0.9595297,-1.1743908,29
430,-0.32126555,-4.7034,0.17189431,-0.7063027,30
431,0.30593625,-1.1866467,-0.49613273,-1.6434149,31
432,0.8972273,-2.2151966,-2.0753088,-0.9681677,32
433,1.032477,3.123017,-1.4756799,-0.17612268,33
434,0.598723,-0.63772416,-1.5907316,0.6032783,34
435,0.8450626,-1.3093568,-0.4695415,-0.1447482,35
436,0.6329911,0.3852184,-1.769927,0.46681917,36
437,1.9767896,3.7340617,-0.08640927,-1.9197178,37
438,-0.16335553,-1.7904407,-0.56079495,-0.53441525,38
439,-1.2231152,1.8834972,-2.430432,-0.66941744,39
440,1.4920856,-1.632308,-1.5328364,-0.6734577,40
441,1.2477417,1.7620519,-1.4000446,-1.0844215,41
442,1.6318604,-0.34170055,-0.086817846,-1.6357244,42
443,0.9211753,0.007432889,0.092886865,-2.341209,43
444,1.3022021,1.3699563,-0.645418,-0.9490335,44
445,0.5413717,-0.24932018,-0.51884115,-0.5910064,45
446,-0.31586558,-0.38813084,-1.4917784,0.7015846,46
447,1.3197544,1.6833516,-0.13965183,-1.4098817,47
448,-1.440073,0.2611457,-0.40366107,-1.1182156,48
449,-1.1294053,0.8252719,-0.38167918,-0.0380162,49
450,-0.21173221,-1.4934932,-0.71594876,-0.17639238,0
451,-0.61691904,-0.16134316,-1.9120452,-0.7037126,1
452,0.925068,-3.966618,-0.41026676,-0.6182604,2
453,-0.0059241652,-0.48160648,-0.6582942,-0.7384766,3
454,1.7138048,-1.4316392,-0.35764784,-1.115245,4
455,-2.0707188,-0.9480871,0.26720285,0.6610307,5
456,0.5110012,-0.599386,-2.2534015,-1.7278165,6
457,-1.1070834,1.3313655,-0.7413404,-0.6614935,7
458,-1.0674086,-2.0394375,-0.67203957,-0.5746927,8
459,0.6302003,4.0140476,-0.45844814,0.2637261,9
460,-2.0179756,0.24588534,-1.4745262,-1.2250333,10
461,1.3392698,1.8291187,-0.31900388,-0.009851709,11
462,1.8152612,1.2314248,-0.81092143,-0.6044086,12
463,-0.17591944,-2.7928329,-0.94090813,-1.3997743,13
464,0.81207865,-2.8755286,-0.3957909,-0.95696217,14
465,1.256523,-2.469619,-1.4983165,0.04845035,15
466,-0.2998464,-1.5987849,-0.82404554,-1.209248,16
467,0.09919807,-2.5272498,-0.69490016,0.36080524,17
468,-0.36795086,-0.1519039,-0.16104475,-0.4095828,18
469,-0.2692316,-1.5468906,-0.27232745,-0.07043646,19
470,-0.21582812,1.155472,-1.0276713,-1.5995412,20
471,-0.12926184,-0.7937758,-0.40385732,-0.41713908,21
472,0.48048317,3.2365532,-0.9109636,-0.17719682,22
473,-2.0101619,0.5819967,-0.26012924,-1.8333995,23
474,-0.38668472,-2.8910065,-0.03483659,1.283916,24
475,0.2921517,-1.6011338,-0.962868,-0.5726203,25
476,-1.0565792,-4.816119,-1.0719205,0.34962186,26
477,1.3485352,2.7448034,-0.09236753,0.39026865,27
478,2.1509647,-0.6278544,-2.0260568,-1.1666707,28
479,0.244459,0.3195641,-0.7568216,-1.087454,29
480,0.042917535,-3.39176,-0.12607542,-0.43353206,30
481,1.3966477,-0.96894205,-0.60411215,-1.2792789,31
482,1.0770378,0.09745291,-2.1963515,-0.8776997,32
483,1.9676011,0.57931006,-1.5104278,-0.039234538,33
484,0.38446346,-2.525985,-1.1092379,0.8050466,34
485,1.8140433,-1.5815678,-0.09968722,0.044613738,35
486,-1.8362743,-2.8524508,-1.6614826,0.4411286,36
487,0.7132072,1.3050954,-0.63077396,-1.6279904,37
488,-0.43103892,-0.57170665,-0.15394378,-0.48378947,38
489,-0.54479706,2.0077279,-1.2899013,-0.71419585,39
490,1.2453043,-0.28665185,-1.4503311,-0.5112157,40
491,1.8369105,1.1445538,-0.9730233,-0.73379517,41
492,2.5061796,1.4998283,-0.07013244,-1.4872836,42
493,0.7570192,0.041571096,0.3282865,-1.9896805,43
494,1.3333124,1.5937729,-1.1674517,-1.284673,44
495,0.10207616,1.2440441,-0.916041,-0.7749289,45
496,-1.4222984,-1.5291871,-1.9058415,1.2342157,46
497,1.5418103,1.079734,-0.22928116,-1.0471312,47
498,-1.5540087,2.4461858,-0.18605685,-0.893922,48
499,-3.292708,0.8279787,-1.1953871,-0.48953766,49
500,-0.2845449,-0.32084155,-0.21848074,-0.28605226,0
501,-0.12873754,-0.7280021,-2.0387852,-0.61821496,1
502,1.3425038,-3.5519006,-0.48809564,-0.5846493,2
503,-0.44345737,1.0572364,-0.78817844,-0.7021021,3
504,1.8668265,-1.4566053,0.23315325,-0.9627462,4
505,-0.9196576,0.37998936,0.9137356,1.3036222,5
506,1.4492778,1.2126298,-2.4339008,-1.46624,6
507,-1.492846,0.21396105,-1.2106041,-0.91471934,7
508,-0.9757702,-0.73847353,-1.1149532,0.6561466,8
509,-0.01575926,1.1564803,-0.6721393,0.10892813,9
510,-2.403469,3.8023758,-1.5003022,-1.2160949,10
511,0.7213822,3.2837071,-0.10924892,0.18778777,11
512,1.6297786,0.33471787,-0.34346294,-0.4091876,12
513,0.12762609,-3.3054347,-1.4064083,-1.2141765,13
514,1.4745152,-3.0091305,-0.29534328,-0.9682817,14
515,1.2235918,-5.097595,-0.24393398,-0.14654434,15
516,-0.81195027,-0.72919935,-0.7252769,-1.0735575,16
517,0.5577066,-1.7974533,-0.69774663,0.54941005,17
518,-0.472825,-0.24658734,-0.27264673,-0.41092265,18
519,0.09443474,-1.5591362,-0.24172565,0.46225345,19
520,-0.4012486,1.3875167,-0.7096839,-1.7750723,20
521,-0.59230644,-1.3936207,0.18756518,-0.33134764,21
522,0.20220175,3.195837,-1.3510451,-0.22125761,22
523,-2.114369,0.77645385,-0.11827096,-1.8531877,23
524,-1.4252903,0.39888924,-1.5295405,-0.25998634,24
525,0.18666494,-1.3543434,-0.92443377,-0.5575313,25
526,-0.13326192,3.7247279,0.21214288,0.96828616,26
527,1.858546,1.2883644,-0.8294322,0.016735375,27
528,2.2459202,-0.82134104,-1.3223639,-1.7773213,28
529,-0.08721432,0.4178031,-0.89783317,-1.3393457,29
530,0.13406254,-4.7191577,-0.3544687,-0.70675695,30
531,-0.20152315,-0.714268,-0.5246747,-1.3602757,31
532,1.6571529,1.5941603,-1.587579,-1.034042,32
533,1.7700189,-1.2900907,-1.6218832,0.36593622,33
534,-0.3168543,0.15033425,0.01857233,0.5756129,34
535,1.7033844,-2.5901227,-0.8937577,-0.07898642,35
536,-1.2811533,0.43163574,-0.94076145,0.7501321,36
537,0.8531038,1.6822584,-0.67111254,-1.9516839,37
538,-0.81952757,-0.36331046,-1.1618792,-1.0162611,38
539,-1.768475,0.64887196,-0.8634199,-0.85150087,39
540,1.649053,-0.94642305,-1.6746066,-0.3773306,40
541,1.2375652,1.860817,-1.3110536,-1.0439072,41
542,1.4885359,1.621033,0.4251956,-1.1916823,42
543,1.2342603,0.37460282,0.59964216,-1.9547145,43
544,1.8734738,2.4892862,-0.61868113,-0.72456336,44
545,0.8849156,0.78259474,-0.27961844,-0.14051105,45
546,-1.0701224,1.1247776,-0.5369076,1.1084825,46
547,0.9660988,-0.28310472,-0.30558378,-1.3309397,47
548,-1.0692991,1.6984642,-0.83934164,-0.9418009,48
549,-0.7772259,-1.3605462,-1.2467496,-0.19941038,49
550,-0.57000184,-2.5268714,-0.26456407,-0.7366619,0
551,-0.06931753,0.6591242,-0.868992,-0.66239434,1
552,0.9202731,-2.4864252,-0.37038484,-0.27897397,2
553,0.38783368,0.77611375,0.6272585,-0.40003294,3
554,1.7563832,-1.468132,0.081548125,-1.033264,4
555,-0.41424984,-1.0654323,-1.2358395,0.58567774,5
556,0.989221,1.1349504,-2.6034534,-1.9161279,6
557,-0.8697327,0.31032795,-2.4889345,-0.5146407,7
558,-0.07009831,1.2180197,-1.0106541,0.7966945,8
559,0.045047384,-0.25199056,-0.31861532,-0.00057214126,9
560,-1.9375381,-0.064067364,-1.3013171,-1.0630622,10
561,1.7972921,1.4988337,-0.28258586,0.2659219,11
562,2.089513,1.3894942,-0.17159478,-0.204389,12
563,0.49540806,-1.3333381,-1.6260056,-0.93914413,13
564,0.8514942,-2.6987867,-0.653633,-0.6547161,14
565,1.069174,-4.639779,-0.8207462,-0.38711596,15
566,-0.5984055,-1.1194527,-0.35147423,-1.0894501,16
567,0.3533405,-1.7036704,0.35838163,0.6216848,17
568,-0.43443075,-0.8710595,-0.3482968,-0.609322,18
569,-0.7305734,-1.1141622,0.45718682,-0.031663626,19
570,0.49717715,0.7504189,-0.6888642,-1.3355606,20
571,0.24603945,-0.5055596,-0.3232652,-0.40839815,21
572,0.64263606,1.7389424,-0.78881395,-0.03235963,22
573,-2.7605546,0.7403916,0.24261722,-1.8390316,23
574,-1.0749829,1.7802916,-0.8284853,0.02141118,24
575,0.47801185,-0.5236515,-0.2897032,-0.42791292,25
576,-0.6957471,1.6051309,-1.0176356,0.87509453,26
577,1.4736718,0.43063962,-0.8011813,0.5460738,27
578,1.8764846,-2.4987931,-1.8186685,-1.7736785,28
579,0.2676499,0.62730134,-0.6862531,-1.1042397,29
580,-0.7657371,-2.69334,-0.15087652,-0.6356149,30
581,0.17566973,-1.086145,-0.38878763,-1.2702543,31
582,1.7732098,-0.9340912,-1.824106,-1.2919776,32
583,1.7086418,0.57737756,-1.0176986,0.023193266,33
584,0.19589801,-0.552878,-1.8694164,0.6813842,34
585,1.1613121,-2.9244933,-0.7197114,-0.09996672,35
586,-1.020949,1.3748888,-1.0168391,0.43142936,36
587,1.6255667,2.0300026,-0.4178597,-1.946084,37
588,-0.29426688,-1.2557847,-0.8793076,-0.58604133,38
589,-1.2280006,0.41460553,-0.9069364,-1.0465193,39
590,1.6453226,-0.7984439,-0.68123055,-0.46488324,40
591,0.94134474,0.27548444,-1.2211449,-1.2934895,41
592,1.4942572,1.4019849,0.26036885,-1.2319899,42
593,0.84801495,-0.15852313,0.30526435,-2.2571726,43
594,1.8339447,1.5652785,-0.66524047,-1.1110821,44
595,0.61171544,0.36445582,0.11084393,0.12734362,45
596,-0.041629136,3.2431324,-0.9101325,0.19120747,46
597,2.0371852,0.8086673,-0.35416308,-1.4538578,47
598,-2.0813866,1.2221414,-1.2853689,-0.8189573,48
599,-1.4353746,-1.6432402,-0.7461216,-0.3883024,49
600,-0.5185184,-0.6815558,0.14113678,-0.2923561,0
601,-0.45847487,0.6664955,-1.2374091,-0.51918864,1
602,1.1188823,-3.154471,-0.46705145,-0.63569075,2
603,0.016981632,1.3999941,-0.48247546,-0.58942413,3
604,1.1536834,-0.8253878,0.31949335,-1.0802969,4
605,-2.1665723,-0.2487857,-1.1689807,0.24222913,5
606,-0.91873884,1.0741255,-2.595539,-1.8978001,6
607,-1.9583983,-0.62790775,-1.3950663,-1.1487296,7
608,0.037574053,2.2135093,-1.0570607,0.94200575,8
609,-0.092718996,2.3252478,-0.2472043,-0.0773073,9
610,-2.3743272,1.8556731,-1.7863308,-1.1386576,10
611,1.0167143,2.1069722,0.3759423,0.24549912,11
612,2.3833976,0.1725173,-0.6063207,-0.58427775,12
613,1.0955118,-2.6857479,-2.1114771,-1.2222592,13
614,1.3376033,-2.7378805,-0.04947883,-0.7197559,14
615,0.36147875,-3.1835136,-0.65538,-0.28425336,15
616,0.40261906,-0.047267776,-1.5597591,-0.88067245,16
617,0.68306214,0.45164233,-1.0843246,0.4148859,17
618,-0.1726718,-0.4488038,0.5574596,0.017087266,18
619,0.005098179,-1.917285,-0.68539494,-0.086665854,19
620,0.036557198,0.4680164,-1.1635921,-1.7196914,20
621,-0.14768079,0.11159313,-0.49036056,-0.55937064,21
622,0.18265903,2.668439,-1.299993,-0.52923346,22
623,-2.6478903,0.5565406,0.055384435,-1.7724439,23
624,-1.3147581,1.0030977,-0.85011667,0.2695042,24
625,0.6219425,-0.5585702,-0.4592784,-0.28553277,25
626,-1.1122742,-0.47325152,-1.1776917,1.0581646,26
627,0.5520115,0.67245,-1.2651708,0.15988328,27
628,1.2516229,-0.13850458,-0.9114351,-1.7344398,28
629,0.15375979,0.40242517,-0.63716805,-1.3906983,29
630,0.13430691,-4.0153785,-0.4797607,-0.8414185,30
631,0.39098912,-0.7753155,-0.56106544,-1.1517404,31
632,1.1689806,0.49377897,-2.535028,-1.3301575,32
633,1.6102169,0.121584564,-0.5810311,0.35756937,33
634,-0.1865161,2.7251766,-1.747383,-0.11704576,34
635,1.6804603,-1.7582824,-0.6687096,0.12787959,35
636,-0.049823165,1.4691813,-1.2641855,0.64258635,36
637,1.2177277,1.1602285,-0.73127323,-1.9438308,37
638,-0.8527018,-0.62470436,-0.7814765,-0.81423897,38
639,-0.37226945,2.5501082,-1.5219017,-0.62051207,39
640,1.3321174,-1.8115823,-1.2523245,-0.3879955,40
641,0.8657448,1.3641073,-0.61613256,-1.0727915,41
642,0.641358,0.02945584,0.014065452,-1.6270728,42
643,0.5246544,0.24854557,0.1280036,-1.8936275,43
644,0.7269137,2.2922049,-1.1089299,-1.0785112,44
645,-0.08184242,0.8036058,0.064679414,-0.37901866,45
646,-0.7574728,-0.9356708,-0.9004363,0.49694976,46
647,1.6941704,1.3473116,0.124706864,-1.0892748,47
648,-1.5715337,-0.80063766,-0.719813,-0.7346472,48
649,-0.3824737,0.57262313,0.12340069,0.79504716,49
650,-1.1049016,-1.9272609,0.6259931,-0.69155174,0
651,0.06743258,0.89584446,-1.6134095,-0.5023704,1
652,0.8355298,-2.6522365,-0.24843824,-0.43252796,2
653,-0.4646157,1.3135276,-0.6116169,-0.7557479,3
654,2.349248,-1.3880777,-0.100053556,-1.0057974,4
655,-2.262489,-0.95596474,-2.0363333,0.16573486,5
656,2.3371,0.43047506,-1.7628821,-1.6833594,6
657,-1.0233399,0.031897604,-1.296754,-0.65399605,7
658,0.49959528,0.2812346,-1.4805694,1.0494173,8
659,0.17815974,2.4438906,0.1683774,-0.11848587,9
660,-1.827743,-0.51943237,-1.0973771,-0.9589852,10
661,1.4178513,1.1453991,0.7476749,0.50519115,11
662,1.669266,1.5177313,-0.124190025,-0.6025282,12
663,0.116980836,-3.2628584,-1.5844532,-1.4044493,13
664,1.2819902,-2.430197,-0.6870053,-0.88538027,14
665,0.44417486,-2.4896655,-0.30170482,-0.3396401,15
666,-0.27976745,-0.43654817,-1.4571048,-0.96079,16
667,0.31661382,-0.39255196,0.28797054,0.8482453,17
668,-0.1200917,0.44076273,0.5376669,-0.2805586,18
669,-0.44746816,-1.2791288,-0.23625782,-0.27927583,19
670,0.428432,0.7415801,-1.0032892,-1.493931,20
671,-0.4783941,0.08818537,-0.5694692,-0.7340152,21
672,0.7420231,1.5076606,-1.6103785,-0.50185204,22
673,-2.8823738,1.4868708,0.10737938,-1.8420548,23
674,0.23736954,0.3703756,0.028486073,1.1667619,24
675,0.30851313,-0.7158653,0.31247848,-0.2566689,25
676,-1.9300313,-1.118151,0.10678214,1.4396901,26
677,1.324737,3.033639,-0.10359967,0.2060664,27
678,1.6895022,0.33525157,-0.69084704,-1.486785,28
679,0.12943658,-0.79491746,-0.68854225,-1.136715,29
680,-0.18149221,-4.338418,0.22937256,-0.83174586,30
681,0.31835902,-0.8825323,0.22207129,-1.4244395,31
682,1.2652425,-0.28014693,-1.5769966,-0.92729306,32
683,2.1231806,-0.65574443,-1.5721298,-0.13504654,33
684,0.6693661,0.87590665,-0.7696137,1.1979052,34
685,1.1090622,-3.06359,-0.5643904,0.11690444,35
686,-1.006828,-1.3625317,-0.49322867,1.2961483,36
687,1.019409,2.3233478,-0.8950676,-1.6890112,37
688,-0.54013395,-0.86451346,-0.69271696,-0.57369083,38
689,-1.9215152,0.60987544,-1.5700774,-1.1711266,39
690,1.4200314,-1.3417951,-1.1686187,-0.03307137,40
691,1.7360249,-0.1811248,-1.9255936,-1.003998,41
692,1.576132,1.0540769,0.14106733,-1.2495531,42
693,0.7618335,0.15111862,0.2074832,-1.96491,43
694,1.4685122,2.6068769,-0.9530246,-1.114434,44
695,0.60651433,-0.17570141,0.2968885,0.06682217,45
696,-1.4800452,1.5744084,0.5311923,0.69944173,46
697,2.0147924,0.84986424,0.075550914,-1.3347223,47
698,-1.6630988,2.7643993,-0.11626947,-0.922095,48
699,1.0285078,0.6897522,-0.045808673,1.9544349,49
700,-0.51339906,-0.9869342,-0.5863047,-0.5646537,0
701,-0.31508127,0.21505016,-1.1064429,-0.2574963,1
702,1.1469942,-2.8162851,-1.7604854,-0.42981812,2
703,-0.7045268,0.62568194,-1.4784381,-1.0189556,3
704,1.7428563,-1.5658262,-0.4827088,-0.9965969,4
705,-0.46638215,-3.2176485,-2.353905,0.37790483,5
706,0.6524217,0.31455863,-2.170869,-1.9891131,6
707,-1.4302026,-0.82283413,-1.4996637,-1.1703814,7
708,-1.4586992,-0.4923362,-1.9563677,-0.38450637,8
709,-0.0056477375,2.777318,-0.6751492,0.6066997,9
710,-2.1841187,1.0460376,-1.9974786,-1.1221054,10
711,0.6854957,0.29306895,0.07752985,0.13154277,11
712,2.0758271,1.2681593,0.11384973,-0.19113019,12
713,-0.45468166,-3.0337346,-1.7067219,-1.4162524,13
714,1.805007,-2.2182264,-0.44540134,-0.6756355,14
715,0.82468563,-5.3214016,-0.14519596,-0.29485732,15
716,-0.233366,-2.381199,-1.414059,-1.098628,16
717,0.6895385,-2.6591074,-0.6175195,1.2263328,17
718,-0.33153182,-1.3217506,-0.020420149,-0.41092217,18
719,0.56838965,-0.42132986,-0.51801777,0.21630251,19
720,0.07207857,0.86085683,-1.0725021,-1.7751007,20
721,-0.13394739,-0.41157284,-0.8608222,-0.44349155,21
722,0.7173705,4.605064,-1.0363381,-0.026803285,22
723,-2.482403,1.1286907,0.045270637,-1.903878,23
724,-2.333048,-1.5653801,-1.504036,-0.40240222,24
725,0.46232194,0.010739446,-0.16994838,-0.40480542,25
726,-0.9909403,-0.28372633,-0.57440495,0.96931136,26
727,1.8660172,-0.15486383,-1.1116371,0.020475328,27
728,2.0479126,-1.1894354,-1.0078428,-1.4525833,28
729,0.28066203,1.185844,-0.7204664,-1.1494173,29
730,-0.32215503,-4.2145123,0.28407633,-0.89493287,30
731,0.47529346,-0.4716826,-0.17765129,-1.4222707,31
732,1.0642555,-1.535859,-2.4522612,-1.2446195,32
733,1.3242586,-2.7397194,-0.8867302,0.2114699,33
734,-0.18333739,0.07263886,-0.76082754,0.18423522,34
735,0.6628453,-3.1532564,-0.6818996,0.17188194,35
736,-1.9221739,4.4345775,-0.5919344,0.01788637,36
737,1.8186388,0.9032335,-0.82140315,-1.9843116,37
738,-0.79111236,-0.86999637,-0.5971879,-0.89593524,38
739,-1.0569906,0.33432892,-1.9857179,-0.68207306,39
740,2.098366,-0.9397048,-0.68886036,-0.40370846,40
741,1.0557355,2.2915747,-1.371172,-1.1505938,41
742,1.8133523,-0.061688483,-0.1201259,-1.2993989,42
743,1.3168461,-0.033900145,0.30793938,-1.5527464,43
744,1.9244301,1.6912392,-0.73576635,-0.903196,44
745,0.4178108,2.047952,0.46457377,-0.15209663,45
746,-1.3355111,0.2936439,-0.6783833,0.03323102,46
747,3.0055187,1.0799365,-0.60941255,-1.2934675,47
748,-1.1242799,2.6275065,-0.49625748,-0.54231244,48
749,-1.5179846,2.7640963,0.018797755,0.6819056,49
750,-0.5547262,-1.0427234,-0.09095952,-0.39919925,0
751,-0.371024,0.019168317,-1.8058879,-0.63900566,1
752,0.9843192,-2.1853905,-0.22128424,-0.33492857,2
753,-0.13316055,1.605553,-1.116914,-0.54164606,3
754,1.656099,-1.3790995,-0.24916592,-0.8603443,4
755,-1.221739,0.30236146,-1.1369091,0.87483585,5
756,0.45143878,1.0325649,-1.9306794,-1.5289661,6
757,-1.5351847,-0.8489274,-0.8616731,-0.56822324,7
758,-0.5187573,1.6068543,0.4682473,0.87931013,8
759,-0.22707191,0.5129519,-1.5794599,0.20796853,9
760,-1.3925352,0.29226318,-2.8010077,-0.88697785,10
761,1.0269964,3.190627,-0.31360543,-0.01991713,11
762,1.4114116,1.7845427,-0.42818946,-0.35987687,12
763,-0.014171779,-0.49262106,-1.3751044,-1.214019,13
764,1.7988379,-2.598911,0.026916176,-0.49343848,14
765,0.56940997,-5.046053,0.018203437,-0.29107338,15
766,0.25783598,-1.329129,-1.2653154,-1.1033837,16
767,0.4938118,0.4343279,-1.2077146,0.11573318,17
768,-0.2736703,0.8117843,-0.031476974,-0.28330615,18
769,0.12951705,-2.4185562,-0.09903699,-0.030113459,19
770,-0.53327894,-0.1873197,-0.9611369,-1.5677919,20
771,0.079289,-0.16276583,0.09033957,0.05309087,21
772,0.34026384,1.690722,-1.4073294,-0.5531521,22
773,-3.0161405,1.2376604,0.2908446,-1.9483961,23
774,-0.3717045,-3.1890588,-1.1974198,1.3754859,24
775,0.3984341,-0.8688167,-0.282327,-0.49939328,25
776,-0.99637353,0.33679748,-0.08068043,0.5517159,26
777,2.1975546,2.1665008,0.20376468,0.92807543,27
778,1.8393848,-0.16126208,-1.8482354,-1.6208555,28
779,0.052884385,-0.11866461,-1.2481833,-1.3867017,29
780,-0.030855112,-3.542845,-0.18654382,-0.76168674,30
781,0.2144635,-0.60027456,-0.67157495,-1.278687,31
782,1.236355,-0.7545414,-2.0894532,-1.3614805,32
783,1.9762332,-1.4355965,-1.2475328,0.020776551,33
784,-0.09367162,-0.75357074,-0.30524266,0.6502152,34
785,0.9092134,-0.7374501,-1.167268,-0.25786594,35
786,-0.2600702,2.4905632,-0.23592901,0.77265215,36
787,1.9959913,0.9740449,-1.4332398,-1.8860906,37
788,-0.31166515,-0.20403296,-0.5897288,-0.4859845,38
789,-1.2468431,1.4225835,-1.5312847,-0.79878354,39
790,1.5607331,-1.0837253,-1.1422243,-0.088935345,40
791,0.5301339,-0.595716,-1.4035327,-1.0180082,41
792,2.3782482,0.3887201,-0.12657103,-1.6176286,42
793,0.41218165,0.01580764,0.65809745,-2.0551143,43
794,0.6366483,2.152488,-0.97787917,-1.1751397,44
795,0.26201972,1.2988901,-0.40836716,-0.287698,45
796,-1.3264,0.1280769,-1.0543259,0.32296744,46
797,1.9869527,0.80859584,-0.45678675,-1.6644055,47
798,-1.3202741,2.346718,-1.6110289,-0.8782969,48
799,-1.3397146,0.534142,-0.7040887,0.21884051,49
800,-0.6162801,-1.380244,-0.6612946,-0.8065192,0
801,0.32097417,0.10240841,-2.2030427,-0.509747,1
802,1.0907108,-3.6927147,-1.0074906,-0.5497897,2
803,-0.5431757,2.3443239,-1.1371295,-1.0324705,3
804,1.6510941,-1.6664759,-0.3185297,-0.84869564,4
805,0.87690306,1.7280806,-0.2089963,1.4804096,5
806,0.6355948,-0.89092183,-2.3765366,-1.6932584,6
807,-1.6539268,-0.33833346,-2.403504,-1.1901584,7
808,-1.3637674,3.8958724,-0.07967079,0.047342718,8
809,-0.23614779,-0.13294053,-0.9804762,-0.10192299,9
810,-1.4290904,-3.3034945,-1.1883128,-0.6778072,10
811,1.1219637,0.22078288,-0.3354362,-0.18536817,11
812,2.1347191,-0.72872365,-0.028546423,-0.29981795,12
813,0.18731415,-2.105698,-1.6555977,-1.0073698,13
814,0.8198942,-3.0168908,0.043916047,-1.0814435,14
815,0.556754,-1.707088,-1.3673347,-0.4651085,15
816,-0.29985422,-0.73450685,-1.3750197,-1.1057676,16
817,0.50259507,-1.2444024,-0.5732764,0.4308836,17
818,-0.84245104,0.5358417,0.6724451,-0.37774295,18
819,0.18336184,-0.8259645,0.12448403,0.56063485,19
820,-0.42423296,0.5550805,-1.30025,-1.4900422,20
821,-0.32623172,-1.529923,0.13355812,-0.44697905,21
822,0.5960549,2.49126,-0.58328325,-0.34880888,22
823,-2.266491,0.9181664,0.22886696,-1.5359699,23
824,0.09324801,1.7679865,-0.7751275,0.2519829,24
825,0.2801572,-1.1026813,0.38879865,-0.18182492,25
826,-1.5029337,-3.1707525,-0.47048223,0.03812313,26
827,2.1671374,2.6893473,-0.9864998,0.26491958,27
828,1.8546304,-0.16053909,-1.8047949,-1.7183973,28
829,0.69049966,-0.75879925,-1.140687,-1.108916,29
830,0.42550144,-2.9224946,-0.34649485,-0.60295707,30
831,0.8600772,-0.80542856,-0.772479,-1.4463693,31
832,1.0845165,0.73003304,-1.7473018,-1.0065439,32
833,2.100082,-2.1153235,-1.3534636,0.30838642,33
834,-0.2475248,0.08032843,-0.3636255,0.97620106,34
835,1.1436477,-4.017218,-0.6844638,-0.16294944,35
836,-2.4780245,-0.6861214,-0.6941391,-0.744894,36
837,1.9608827,1.765838,-1.109939,-1.3687115,37
838,-0.64514476,-1.0640814,-0.4578073,-0.79078126,38
839,-1.1524388,1.3463777,-1.3349332,-0.90201914,39
840,0.64293724,-1.1538725,-1.1059273,-0.3552018,40
841,0.7427573,-0.040216446,-1.7732625,-1.1834941,41
842,2.3774261,0.30089772,-0.3990203,-1.3625897,42
843,1.307069,0.34344235,0.25386363,-1.6283016,43
844,1.0372007,2.1603281,-0.7055941,-1.1910303,44
845,0.120898746,1.0219837,0.14434668,-0.30812776,45
846,-0.7417241,0.9672593,-0.35808283,1.1713545,46
847,2.9730697,1.3120322,-0.5092585,-1.1283139,47
848,-1.1130575,0.917878,-0.38953435,-0.61006075,48
849,-0.90303946,-0.005625856,-1.5895398,0.047965765,49
850,-0.14525342,-2.4853208,0.26624104,-0.7533101,0
851,-0.2613791,0.8817061,-1.8076192,-0.5136626,1
852,0.92375493,-3.551773,-0.4896462,-0.6516834,2
853,-0.36115897,1.438444,-0.19490534,-0.65882504,3
854,1.3487935,-1.2451701,-0.1896106,-1.057466,4
855,-1.0199881,0.9187358,0.074679196,0.1928742,5
856,0.0065851808,0.9415399,-1.675575,-1.6648674,6
857,-0.6713725,0.061802328,-2.0561442,-0.8184206,7
858,-0.46729696,0.56529737,-1.0890125,0.75538135,8
859,-0.41112554,0.78789043,-0.76606095,0.13008077,9
860,-1.4462497,-2.5381985,-2.8560565,-0.9192202,10
861,1.824767,1.2982252,-0.6114601,0.35652554,11
862,1.6134564,0.83731323,0.19136229,-0.37827218,12
863,0.324122,-2.2818484,-1.5878173,-1.0392613,13
864,0.66351765,-3.1295264,-0.12453367,-0.82014966,14
865,-0.31100494,-0.84953094,-1.7933775,-0.7848727,15
866,0.03467843,-0.37952954,-1.5473177,-0.84994304,16
867,0.07094395,1.7950568,-1.0587456,0.06436378,17
868,0.104157835,0.8695043,0.10264086,0.026067749,18
869,0.46663016,-2.0774083,-0.78371453,0.076021135,19
870,-0.5101371,-0.084979534,-1.00299,-1.7374026,20
871,0.2805509,0.3497796,-0.06575921,-0.16244666,21
872,0.746932,0.41870618,-1.1395316,0.07383478,22
873,-2.9841518,0.8770472,-0.022030406,-1.9655895,23
874,-0.24735224,-2.9500096,-0.29040504,1.0633693,24
875,0.50666606,-0.05635333,-0.1329104,-0.24617565,25
876,-0.18657494,-2.3204741,-0.15185636,1.9074615,26
877,1.8741727,0.11039388,-0.13992035,0.527549,27
878,1.1942847,-0.70729935,-1.5899181,-1.739951,28
879,0.45664796,-0.00068183243,-0.68993175,-1.0953819,29
880,0.41328323,-4.4510927,-0.58393383,-0.9117092,30
881,0.6233172,-1.1113129,-0.48917133,-1.108454,31
882,1.656713,0.7232578,-2.0521643,-0.9527363,32
883,1.3451296,-1.0497569,-1.7059921,0.037712466,33
884,0.45005172,0.21045405,-2.3109212,0.9132795,34
885,0.78619105,-0.16532862,-0.6390116,-0.077151194,35
886,-1.5509889,1.0172753,-0.16072428,1.0712574,36
887,1.3723527,0.6023674,-0.7573049,-1.5616882,37
888,-0.5125135,-1.0307146,-0.9586042,-0.87042683,38
889,-0.61156285,-0.27913606,-2.1546144,-0.7450316,39
890,1.5938253,-0.9561008,-1.1681545,-0.4126139,40
891,1.0776645,2.0220828,-0.8882098,-1.3363535,41
892,0.8639871,0.6272086,0.1678538,-1.347282,42
893,0.20096338,0.22860613,0.29296568,-2.220264,43
894,0.26012337,2.057028,-0.5142762,-1.2480394,44
895,-0.42367402,1.0664272,-0.0045922697,-0.512506,45
896,-0.17617702,-1.2374438,-0.7299651,0.6619691,46
897,1.539411,0.17527908,-0.23975207,-1.4985306,47
898,-1.1453787,-2.6851785,-1.5093801,-0.9808121,48
899,-0.17449784,0.72818226,-0.96564335,0.8683897,49
900,-0.38708293,-1.1134148,0.29550412,-0.306477,0
901,-0.44446844,1.6254711,-1.6281531,-0.4066747,1
902,1.6036255,-3.2732656,-1.288243,-0.56642616,2
903,-0.60154885,0.76536715,-1.5263019,-1.1346529,3
904,1.6694661,-1.4546969,0.06353427,-1.0931642,4
905,0.27688003,2.129749,-1.1670427,1.1697621,5
906,1.2475231,0.52023715,-2.3713925,-1.5408719,6
907,-1.1234913,1.3109332,-1.9769422,-0.88480103,7
908,-0.6415225,-3.0220087,-0.4081486,0.4004696,8
909,-0.3532536,1.3992954,-0.9016962,-0.53811216,9
910,-1.3209671,-0.26792198,-0.66106117,-0.80886835,10
911,-0.12785685,1.0695838,-0.05171655,-0.037793815,11
912,1.9644606,0.4484071,-0.41808066,-0.50911987,12
913,0.16466859,-2.7041454,-1.34233,-1.2607975,13
914,1.0879037,-2.5115826,0.12878147,-0.5897018,14
915,0.95678276,-3.3344674,-1.2296344,-0.28347832,15
916,-0.75606036,0.2367084,-1.392716,-1.1632142,16
917,1.0380511,-0.17228454,-0.8879263,0.7475388,17
918,-0.2076014,-0.592306,0.5507251,0.030931175,18
919,-0.15649721,-2.376435,-1.0908158,-0.12699163,19
920,-0.13858575,-0.893983,-1.1222436,-1.8650246,20
921,0.05034264,0.2821966,-0.5046004,-0.29245204,21
922,0.16207442,2.4367337,-0.7096696,-0.32415685,22
923,-2.6683276,0.28586695,-0.056249797,-2.06074,23
924,0.019168258,-0.14946324,-0.7700686,1.6767876,24
925,0.44263357,-1.3865211,0.16702281,-0.3728299,25
926,-0.20532292,0.97921616,-1.3113294,1.4787118,26
927,1.6419643,1.6752855,-0.18334979,0.31087002,27
928,1.5207921,0.7460587,-1.2359624,-1.7779518,28
929,0.42640007,0.22739263,-0.7853353,-1.0915021,29
930,0.38659364,-3.5294735,0.42183936,-0.4103739,30
931,0.077835366,-0.7000362,-0.79652905,-1.3948758,31
932,2.3702002,0.12745532,-2.604044,-0.9834139,32
933,1.6280403,-1.1471236,-1.0805438,0.25636575,33
934,1.1100578,3.4446197,-0.090912044,1.095784,34
935,0.7632412,-1.6187813,-0.22936383,0.048894286,35
936,0.31739783,1.4667518,-1.5914564,0.54612786,36
937,0.6983313,1.4761989,-1.355408,-1.8291413,37
938,-0.5631428,-1.5161849,-1.3706491,-0.6463891,38
939,-0.9433092,0.6308934,-1.0008451,-0.8330109,39
940,1.1062437,-0.41617954,-0.8647603,-0.26740533,40
941,1.1339201,0.15412915,-0.98431545,-1.0327684,41
942,1.5736154,0.3012241,-0.21172118,-1.3323299,42
943,0.11970097,-0.14870673,0.7835847,-1.9886904,43
944,1.79245,2.8728886,-1.1620936,-1.0488075,44
945,0.3560248,0.99530864,-0.71151346,-0.33617026,45
946,0.65503675,-0.7743793,-1.6399691,0.7132329,46
947,1.9949605,0.66841877,-0.16578323,-1.0726708,47
948,-1.0347133,2.0933602,-1.097299,-0.73600185,48
949,0.47394598,-2.373108,-1.4225383,0.6973196,49
950,-0.24455011,-1.0711349,0.13065434,-0.58089936,0
951,-0.32178807,-0.28245306,-1.0714676,-0.5524195,1
952,0.37074274,-2.796651,0.172425,-0.6513015,2
953,-0.23588654,1.7764748,0.070851386,-0.75217766,3
954,1.3698361,-1.5843208,-0.038334288,-1.1707833,4
955,-0.4562719,-1.8993145,-1.0484222,0.9309024,5
956,0.9858522,-0.90541637,-1.9462196,-1.9597523,6
957,-1.0852418,-0.09973881,-0.83969676,-0.5357921,7
958,-1.4885553,2.065755,-0.95698404,-0.3297256,8
959,-0.09512255,1.5962474,-1.9175524,-0.5589589,9
960,-1.8154122,-0.8731175,-1.6796899,-0.89392847,10
961,1.9027267,0.9722614,-0.5659668,-0.10011138,11
962,1.9978671,1.2372323,-0.5237112,-0.35472175,12
963,0.18757887,-3.9512038,-1.4022406,-1.2393751,13
964,0.6220079,-2.8162148,-0.8086711,-0.89203155,14
965,1.4307314,-4.6770954,-0.67216146,-0.23128013,15
966,0.4963774,1.0767674,-1.2114624,-0.6475081,16
967,0.602072,-0.57365537,-0.900568,0.42105347,17
968,-0.12618127,0.30136064,-0.24783847,-0.40858126,18
969,-0.55487776,-0.5617219,0.29617596,-0.08693245,19
970,0.4191267,0.3803231,-1.1398221,-1.5327401,20
971,-0.6491106,-0.5391313,0.33612522,-0.39242747,21
972,0.7963191,2.4133115,-0.36469704,-0.16410595,22
973,-2.7379994,-0.02083373,0.06737858,-1.7056894,23
974,-0.25957376,1.4916313,-0.9992285,1.3933799,24
975,-0.009930834,-1.3442161,-0.42016006,-0.3485427,25
976,-0.14951563,4.4264245,-0.9378362,0.47694537,26
977,1.9087465,1.3633447,-1.1452475,0.26148885,27
978,1.3494462,-0.17076324,-1.210517,-1.5352247,28
979,0.17793055,1.0838854,-1.4809432,-1.2460066,29
980,-0.25923997,-4.690214,0.028755486,-0.70715237,30
981,0.6986102,-0.32753554,-0.8682391,-1.283692,31
982,0.24743801,-0.01129204,-2.4212375,-1.3485698,32
983,1.6571397,1.1962247,-1.4246913,-0.34895584,33
984,-0.48118913,0.43549055,-1.0423892,0.03773552,34
985,0.44348532,-1.6868553,-0.52234876,-0.39677116,35
986,0.5683526,0.11885691,-0.6697331,1.3423845,36
987,1.9563789,1.2031194,-0.67854196,-1.8204464,37
988,-0.7018362,-0.9123238,-1.1319363,-0.77323425,38
989,-0.9236635,0.9999511,-2.4115577,-0.5965191,39
990,2.0239139,-2.324686,-1.1094959,-0.41646737,40
991,0.8916745,0.78861994,-1.1421998,-1.0049908,41
992,2.0502734,0.91573626,-0.25852132,-1.2572104,42
993,0.91134,0.07134454,0.41112354,-2.4559786,43
994,0.77686125,2.0429437,-0.49129537,-1.1222419,44
995,0.24760509,1.0712419,-0.1571535,-0.2842574,45
996,0.32077223,-0.6643899,-1.166811,0.97313076,46
997,1.7410585,1.7578943,-0.21324098,-1.1024704,47
998,-1.5474366,1.182178,-0.6265681,-0.7589941,48
999,0.58365536,0.16058962,-0.86887014,1.0155841,49
1000,0.3347214,-1.4879552,-0.37489843,-0.29118112,0
1001,0.52130264,0.6677954,-1.3267943,-0.47020003,1
1002,0.051277995,-2.060351,0.05912137,-0.36619785,2
1003,0.08068332,2.182324,0.51834244,-0.319063,3
1004,1.6282604,-1.1916212,0.16414687,-0.67380303,4
1005,-1.5228403,0.050902523,-1.1245661,0.11362237,5
1006,0.27327865,2.6806514,-2.4071877,-1.7869174,6
1007,-1.3509312,-0.2224302,-1.8613796,-0.8566879,7
1008,-0.89029706,1.4205269,0.17309153,0.15287152,8
1009,0.31685594,-0.114937425,-0.26436007,0.5717238,9
1010,-2.6332283,1.9430377,-1.0421561,-1.0678197,10
1011,0.61640704,0.9259041,-0.54931664,0.26772863,11
1012,1.4844933,0.06310284,0.0508765,-0.68634385,12
1013,0.35021234,-4.25288,-1.1139205,-1.2340782,13
1014,0.9417787,-3.0456965,-0.13904539,-0.9845301,14
1015,0.8717312,-3.6110547,0.33992934,-0.27449882,15
1016,0.11591559,-0.25159547,-1.0694903,-1.0880195,16
1017,0.5620416,-3.1241906,-2.0218008,0.11898783,17
1018,-0.49093023,0.24498874,0.05296798,-0.57078403,18
1019,0.055840492,-3.0687463,-0.91257006,-0.36403638,19
1020,-0.37809473,-0.05529362,-0.9803018,-1.7310275,20
1021,0.6790898,0.76414084,0.112865955,-0.13086897,21
1022,0.01473707,1.5244927,-0.2920878,-0.61305064,22
1023,-2.786571,0.59614253,-0.4772527,-1.9248234,23
1024,0.9899948,-2.3540819,-1.9292579,2.0347695,24
1025,-0.091778696,-0.73604345,-0.1645602,-0.5777915,25
1026,-0.5582032,0.15101407,-0.7134979,1.4340045,26
1027,2.0613356,1.5810354,-0.9447664,0.09234345,27
1028,1.7169458,-0.9117068,-1.5567,-1.418161,28
1029,-0.19893032,0.3432337,-0.99526125,-1.5921357,29
1030,-0.07930088,-3.8186975,-0.09347138,-0.5163804,30
1031,0.4767124,-1.275408,-0.17095554,-1.3269663,31
1032,1.1571007,-0.039314806,-2.1732,-1.1786491,32
1033,1.6440895,0.1798025,-1.545875,-0.05346204,33
1034,0.13770577,0.4456367,-0.8035218,0.6866247,34
1035,2.4682326,-1.4391937,-0.7509971,0.5840807,35
1036,-0.56290627,1.9587615,-0.02443266,0.72551364,36
1037,1.2946525,2.4741971,-0.89347076,-2.0128627,37
1038,-0.41036922,-1.5077691,-0.97523946,-0.4317642,38
1039,-0.62101066,-0.7841777,-2.1967704,-0.49854183,39
1040,0.5588818,-0.9402478,-1.1626987,-0.38046354,40
1041,0.6780882,0.6442542,-0.89401877,-1.057275,41
1042,2.215736,1.002135,0.11754123,-1.2914714,42
1043,-0.06938523,0.58127284,0.5639656,-2.3130507,43
1044,0.7466658,1.4615114,-1.3972781,-1.0358227,44
1045,0.2768559,2.2705283,-0.377392,-0.34351403,45
1046,-0.16086084,-0.10248192,-2.3563902,0.5692087,46
1047,1.6698875,1.6581814,-0.1602355,-1.3143198,47
1048,-1.8310297,0.6529291,-1.217711,-0.745646,48
1049,-1.2007089,0.54156995,-0.57907903,-0.310543,49
1050,-0.11395627,-0.9082705,-0.43641916,-0.3982573,0
1051,-0.20102446,0.45093176,-1.4722856,-0.63490236,1
1052,0.635238,-3.1520185,-0.3225304,-0.9123249,2
1053,-0.012604117,1.1632831,-0.8085926,-0.5663983,3
1054,1.735001,-1.4046134,0.39634424,-0.74286115,4
1055,1.5270296,3.8139637,-1.6881596,1.5043812,5
1056,1.9857054,0.96107125,-1.923352,-1.5726683,6
1057,-0.63961285,-0.8648356,-1.7660224,-0.601774,7
1058,-0.4338653,2.0681298,-0.95399296,0.5364876,8
1059,-0.33879054,-1.1434336,-1.5146443,0.4376254,9
1060,-1.396399,-1.2705414,-2.179451,-0.69328034,10
1061,1.0267048,1.4345034,-0.027813733,0.11830055,11
1062,1.8588018,2.0622752,-0.34278494,-0.28827184,12
1063,0.50888705,-2.593824,-1.4141524,-1.2854275,13
1064,1.0827397,-3.1379728,-1.0577707,-1.1570132,14
1065,0.30667335,-4.4540343,-1.1131542,-0.4926377,15
1066,0.31367493,0.045364153,-1.3929383,-1.2241118,16
1067,1.1145419,0.8568618,-0.75505346,0.3185942,17
1068,0.008097947,-0.39873102,-0.5936161,-0.5275533,18
1069,-0.1529533,-1.4626012,0.5370239,0.3878951,19
1070,1.1678861,0.2789496,-1.3790178,-1.3503292,20
1071,0.35714275,-0.24119765,-0.38422674,0.0007355809,21
1072,0.48000112,-0.30465424,-2.3205833,-0.25385633,22
1073,-2.6487405,0.20764709,-0.15371773,-1.8318775,23
1074,-0.5093485,-1.2820711,-1.4460232,0.7778515,24
1075,0.21431933,-1.149785,-0.17586076,-0.15255621,25
1076,0.4076776,-2.569562,-1.225039,1.1070106,26
1077,1.6919439,-0.18919444,0.16243231,0.31274807,27
1078,1.5228925,0.25332475,-1.2275469,-1.7301015,28
1079,-0.026513413,-0.33117467,-0.44217205,-1.1876776,29
1080,0.23596647,-3.9627604,-0.4520421,-0.6534091,30
1081,0.66074634,-1.2955099,-0.78353536,-1.2261091,31
1082,1.5938747,-0.87274444,-1.8733488,-0.97140294,32
1083,1.3526258,-0.29463896,-2.137567,-0.15756647,33
1084,1.3574532,-0.100095466,-1.392049,0.61008084,34
1085,1.4975915,-1.2001071,-1.0294552,-0.04537605,35
1086,-1.7322822,-2.164393,-1.2321123,0.026089504,36
1087,1.1366787,1.9340361,-0.823582,-2.136007,37
1088,-0.5658763,-1.8988292,-1.2802582,-0.7483755,38
1089,-0.33634675,0.5818031,-1.5585579,-0.22517341,39
1090,2.056868,-0.45725477,-1.479804,-0.21445239,40
1091,0.8001918,2.9024787,-1.1863159,-0.8975152,41
1092,1.0228059,1.6367946,0.007270828,-1.4726752,42
1093,-0.36800736,-0.21335422,0.05850154,-1.9227872,43
1094,1.3282171,1.3339804,-0.78597426,-1.1769496,44
1095,0.5990299,0.77367187,0.4907091,-0.0169428,45
1096,-1.0639648,-1.6005174,-1.7800993,0.33105776,46
1097,2.2613716,0.9868654,-0.14822248,-1.0170972,47
1098,-2.3810697,0.048956215,-1.7194984,-1.2173057,48
1099,-0.11217129,-0.79080606,-0.320969,0.56362844,49
1100,-1.3527781,-1.4676874,0.3967074,-0.7047899,0
1101,-0.1686799,2.03209,-0.6931181,-0.48721308,1
1102,0.6729753,-2.9566705,-0.62012076,-0.47355536,2
1103,-0.06109166,-0.6566918,-0.11710316,-0.81678474,3
1104,1.7803204,-1.4707028,0.6585939,-0.7284426,4
1105,-1.5592754,0.023264963,-2.0366206,-0.333937,5
1106,1.7380502,1.2668567,-1.884795,-1.6938908,6
1107,-1.1220101,1.6310898,-1.7572912,-0.57998234,7
1108,-1.061353,-3.7278018,-0.96611726,0.25439388,8
1109,0.13308212,0.6676178,-0.9838737,0.6280353,9
1110,-1.0669682,-0.73642176,-1.5652537,-0.7741815,10
1111,1.0571418,2.1144388,-0.11902116,0.060678706,11
1112,2.0199394,0.9271345,-0.0121052265,-0.19945365,12
1113,0.33361727,-2.5151787,-1.9444709,-1.2330751,13
1114,1.3427454,-2.56607,-0.4695908,-0.7804031,14
1115,0.81805915,-5.376356,-0.24369323,-0.19838874,15
1116,0.037996564,0.79764044,-1.6975939,-1.1006396,16
1117,0.66153663,-0.43572646,-1.1475481,0.22308509,17
1118,-0.03636174,-0.7136063,-0.97517765,-0.3509999,18
1119,0.56272894,-1.2089097,0.3430673,0.5960204,19
1120,0.7681498,0.13937914,-1.2355233,-1.3449411,20
1121,0.047144763,-0.19357502,0.059254676,-0.015087247,21
1122,-0.12514019,1.1264246,-0.7842286,-0.63728243,22
1123,-2.8494139,1.085754,-0.19415802,-1.989062,23
1124,-0.825195,0.553348,-0.47561422,0.27205142,24
1125,0.06870425,-0.48004416,0.12208654,-0.6342491,25
1126,-1.1987765,0.7213656,-0.43810245,0.64467967,26
1127,1.5888468,0.5933389,-0.5503515,0.37734753,27
1128,1.7693114,-0.20698431,-1.1407708,-1.4615971,28
1129,0.34006375,-0.28809422,-0.51452,-1.276513,29
1130,0.6578907,-3.6011798,-0.66695166,-0.4380936,30
1131,0.855399,-0.70585704,-0.7306887,-1.2358423,31
1132,0.73410404,-1.1131786,-1.7167403,-1.2311586,32
1133,1.1735783,0.9352603,-0.8026187,-0.19521445,33
1134,-0.695682,0.2596485,-1.3588333,-0.34909487,34
1135,0.30537635,-1.4494727,-0.32336122,-0.065800324,35
1136,-1.1891042,-3.6447484,-0.5722058,0.57870775,36
1137,1.0867829,0.26011455,-0.9133091,-1.5357085,37
1138,-0.8204409,-0.83084136,-0.47747833,-0.57741606,38
1139,-1.8554919,1.4347066,-2.357583,-1.313772,39
1140,1.8601711,-1.1181893,-1.0050546,-0.12729189,40
1141,1.1639569,0.84655327,-1.0357666,-0.8239756,41
1142,1.7089299,0.7181754,0.39557362,-1.278127,42
1143,1.4721549,0.6212713,1.3431399,-2.0115128,43
1144,1.7243025,3.027082,-0.27980867,-1.0731941,44
1145,0.1905641,0.31605154,0.06409019,-0.27587366,45
1146,-1.7447957,-2.281509,-0.8851455,-0.21521217,46
1147,1.8354491,0.72233754,-0.29514986,-1.6846088,47
1148,-2.269616,-0.49372894,-1.49844,-1.1794928,48
1149,-1.0271074,0.59085995,-0.80238646,1.0747106,49
1150,-0.04405752,-1.158612,-0.35304224,-0.5947976,0
1151,-0.0042737722,-0.7647208,-1.7491184,-0.6045626,1
1152,1.4640692,-2.5350475,0.4471194,-0.2872892,2
1153,-0.4572514,0.27600884,-0.33009923,-0.68487453,3
1154,1.2216433,-1.2128263,0.3932783,-1.0379986,4
1155,-1.6708717,0.38103214,-1.4876701,-0.07983261,5
1156,-0.30478,1.1330636,-2.0219262,-1.9517248,6
1157,-0.74825335,1.9737743,-0.21793151,-0.3992431,7
1158,0.8088498,-1.145666,-1.8395463,1.4136487,8
1159,-0.34324735,3.8509934,0.17458487,0.11659838,9
1160,-1.3619338,-1.7713206,-2.2082865,-0.8549277,10
1161,0.25316727,0.39167696,0.3642037,0.1895588,11
1162,1.692616,1.1023438,-0.26791507,-0.63637376,12
1163,-0.06476754,-2.354211,-1.6116247,-1.3377036,13
1164,0.7219659,-2.5991678,-1.0283128,-1.4684448,14
1165,0.9867681,-4.6618195,-0.08525431,-0.094604924,15
1166,-0.49245918,1.4199587,-1.0488849,-1.1887022,16
1167,0.1144636,-1.8030348,-0.934769,0.026966214,17
1168,-0.013915613,0.9677018,-0.3654363,-0.26039165,18
1169,0.030557556,-2.3871624,0.7813213,0.39387843,19
1170,0.44856665,0.8150004,-0.93119884,-1.4939967,20
1171,0.18321994,0.47232965,0.19635093,0.07442123,21
1172,-0.2619602,3.339713,-1.749993,-0.7470869,22
1173,-1.8262181,0.29132265,0.5977047,-1.7386551,23
1174,-1.3267834,-0.08220581,-2.1667688,0.7680654,24
1175,0.06455955,-0.062323272,-0.20851238,-0.11355919,25
1176,-0.61022323,-1.4137414,-1.5048028,0.92846596,26
1177,0.7946732,0.2652321,-1.4020859,-0.16665581,27
1178,1.9070783,-1.1982659,-1.2246422,-1.2705302,28
1179,0.74038386,-0.5774613,-1.170577,-1.2628112,29
1180,-0.32346085,-3.7567968,-0.7457772,-0.69701713,30
1181,1.1161021,-0.8664391,-0.60832924,-1.3341819,31
1182,1.2750106,-0.41106418,-2.094397,-1.0598823,32
1183,1.1365049,-0.26475,-1.1771502,-0.22129638,33
1184,-0.21039319,-0.4395175,-1.7751988,0.33115214,34
1185,2.2136652,-4.161364,-1.4139476,-0.0904872,35
1186,-0.8521247,-0.68862885,-1.9602795,-0.14420648,36
1187,1.8964078,0.8582645,-1.3461645,-1.866061,37
1188,-0.7152693,-0.4745051,-0.29997393,-0.9806022,38
1189,-0.7815702,0.43950063,-1.0653912,-0.5147574,39
1190,1.8932979,-1.5909365,-1.0805669,-0.19326556,40
1191,0.9140995,0.7383957,-2.0511477,-1.0938005,41
1192,2.2971075,0.6886304,-0.28691307,-0.99991083,42
1193,0.7493417,0.19299605,0.44677418,-1.5052845,43
1194,1.2537749,1.1903204,-0.9450017,-1.2242671,44
1195,-0.20040363,-0.29460952,0.13367298,-0.48261654,45
1196,-0.87246466,0.3369801,-0.18205124,0.25832003,46
1197,1.7637589,1.2060417,0.09918696,-1.1155494,47
1198,-1.3394986,0.5202031,-1.3487355,-0.83591753,48
1199,0.14769626,-2.1415293,-1.3613031,1.0335138,49
1200,-0.37202632,-0.6115603,0.5165101,-0.24180871,0
1201,0.040701196,1.5386527,-0.8101997,-0.41392317,1
1202,1.7206479,-3.1086442,0.17557275,-0.35709876,2
1203,-0.25819504,1.6968983,-0.42850092,-0.75466734,3
1204,1.4436505,-1.4949845,0.109795764,-0.9189193,4
1205,-0.7092187,-0.67892486,-2.0495288,0.35393047,5
1206,0.33505404,-0.5927987,-2.140678,-2.141096,6
1207,-0.58400744,2.9964728,0.38921082,-0.36292332,7
1208,-0.62236685,1.3698648,-1.115139,-0.16480479,8
1209,0.36642802,-1.6562171,-1.162433,0.2712654,9
1210,-1.2830074,-0.64635533,-1.66717,-0.79167753,10
1211,0.61549616,2.6850839,0.31717616,0.24317572,11
1212,2.5747607,1.21536,0.00027552247,-0.3757716,12
1213,0.48196447,-1.9354725,-2.1374962,-1.303946,13
1214,1.7181289,-3.1066515,0.07587585,-1.0111752,14
1215,0.70904815,-3.4437218,-0.24066067,-0.38142735,15
1216,0.268533,0.14941496,-2.1486588,-1.1513326,16
1217,0.45648918,-0.34845805,-0.04122591,0.32217395,17
1218,-0.13656384,0.67474085,1.1329471,0.43857884,18
1219,-0.0152977705,-1.6090372,-0.39020285,0.34196854,19
1220,-0.4922285,-0.53727186,-0.95847833,-1.7420127,20
1221,-0.35254204,-0.6632375,-0.4683262,-0.32795522,21
1222,0.5055264,0.30660152,-1.5842634,-0.49051803,22
1223,-2.6813593,0.6279634,-0.11395363,-1.868657,23
1224,-1.6286273,-0.38936576,-0.18789822,0.99066734,24
1225,0.1340225,-1.0338663,-0.20192379,-0.48471317,25
1226,0.50404567,2.416122,0.21988696,1.3198756,26
1227,0.9638618,3.2879767,-0.31418374,0.1625195,27
1228,1.7492338,1.059976,-1.408882,-1.8018601,28
1229,0.39904553,0.012951374,-0.9703997,-1.495968,29
1230,-0.34011716,-3.3077197,-0.9334949,-0.93095976,30
1231,-0.18793076,-0.1471026,-0.2571268,-1.342548,31
1232,1.2404556,-0.38983113,-1.2551894,-0.8556821,32
1233,1.0519507,-0.05399266,-0.6315997,-0.05126975,33
1234,0.42004082,-0.13239585,-1.3949262,0.7119614,34
1235,0.941347,-0.94502974,-0.8080213,-0.14819406,35
1236,-2.0403798,3.9403841,-1.3186975,-0.07082407,36
1237,0.84021115,0.739527,-1.1887525,-1.6894834,37
1238,-0.5984966,-1.5513191,-0.9735857,-0.7398479,38
1239,-1.0097194,-0.032755315,-1.6983436,-0.69793177,39
1240,1.197834,-1.0758511,-1.4165406,-0.13006474,40
1241,0.95717007,1.6587774,-1.6171811,-1.0257288,41
1242,2.799714,1.1178472,0.038941048,-1.4657136,42
1243,1.6381612,0.23986728,0.4105127,-1.4993367,43
1244,0.96701044,2.1742775,-0.38723934,-0.9704274,44
1245,-0.0059805214,-0.30145052,0.42950693,-0.61096585,45
1246,-0.7271654,-0.721311,-0.35344625,1.2475882,46
1247,2.082901,0.5491603,-0.5139973,-1.3010066,47
1248,-1.5017943,0.8186873,-1.6968719,-0.83796394,48
1249,1.6504335,0.9495593,0.26891398,2.180846,49
1250,-0.30024242,-0.40203536,-0.85743695,-0.10025352,0
1251,-0.54116327,1.4380066,-2.2993236,-0.6223437,1
1252,0.8708062,-1.8916032,0.26668382,-0.25872874,2
1253,-0.033917785,4.0550575,-0.6452203,-0.6835528,3
1254,1.279039,-1.2334011,0.3952662,-0.78666854,4
1255,-0.67717963,0.46024948,-0.30441892,0.48906273,5
1256,2.835228,1.3017197,-2.3521116,-1.7387342,6
1257,-1.7345523,-1.3438501,-1.9357262,-1.1140342,7
1258,-0.6221864,4.416225,-1.1411889,-0.08733061,8
1259,-0.48610938,-0.5984609,-0.42570305,0.042026173,9
1260,-1.6561737,2.344309,-1.2260205,-0.91357744,10
1261,0.97091424,0.91541773,-0.53067493,0.060885847,11
1262,1.8559821,2.4039774,0.06025952,-0.39256376,12
1263,0.92510784,-2.2950118,-1.2390999,-1.3369302,13
1264,1.1144232,-2.6657693,-0.7021289,-0.78185225,14
1265,0.8725898,-3.3533795,-0.48308164,-0.24083154,15
1266,-0.022766128,0.43902645,-1.3530126,-0.9681479,16
1267,0.7250572,0.35746306,-1.6497519,0.43185136,17
1268,-0.4260304,0.6266971,0.7626507,-0.3055541,18
1269,0.3963247,-2.3558035,0.1537689,0.3246142,19
1270,-0.5903456,-0.0011520386,-1.2087379,-1.7253026,20
1271,-0.13477796,-1.340328,0.012075633,0.041726977,21
1272,0.7388601,1.1781526,-0.8440936,-0.3863365,22
1273,-3.148399,0.45522392,-0.028896082,-1.8830838,23
1274,-0.22520337,-0.7912235,-1.0618039,0.38567525,24
1275,-0.36655748,-0.013647437,-0.571193,-0.46652034,25
1276,-0.4755121,0.651085,-1.1980544,1.1172125,26
1277,1.7109168,1.8954043,-0.9817777,0.08405772,27
1278,2.1287594,-0.017251782,-0.73460674,-1.6339762,28
1279,0.14241092,-0.13062702,-0.6924705,-0.94925904,29
1280,0.31198117,-3.6246254,-0.41976523,-0.7600703,30
1281,0.289892,-0.34840986,-0.47480702,-1.3016737,31
1282,1.158274,-0.5726642,-1.0864224,-0.9664087,32
1283,2.248583,-1.3373725,-1.2537217,0.20671539,33
1284,-0.2603274,2.0535784,-0.02321577,-0.61484385,34
1285,0.04777193,-0.27194738,-0.7825857,-0.59467804,35
1286,-0.9334061,0.36841577,-0.8167763,0.5563955,36
1287,1.1229744,1.9345313,-0.82239074,-1.9690237,37
1288,-0.5191568,-0.34439808,0.12472063,-0.36512953,38
1289,-1.6334904,0.0384022,-1.2608199,-0.89563024,39
1290,1.0065286,-2.2984393,-1.8024898,-0.43606922,40
1291,1.2259185,0.24351513,-1.0817163,-1.0752692,41
1292,1.6338885,0.5827178,-0.21940929,-1.4044552,42
1293,1.0870461,-0.4172201,0.5734757,-1.8794,43
1294,0.66821766,1.3702445,-1.092951,-1.0678356,44
1295,-0.41985735,-1.4841354,-1.1390593,-0.73831505,45
1296,-0.78778297,3.5931954,-0.5509769,1.0564184,46
1297,1.3116506,0.71982265,-0.26068783,-1.4786452,47
1298,-2.3250003,-0.5758026,-0.3214559,-1.0312674,48
1299,-0.88930357,-3.6239133,-0.96291286,0.2781675,49
1300,-0.33326077,-3.0309105,0.61001754,-0.58335644,0
1301,-0.13243243,-0.522347,-1.6091038,-0.58783543,1
1302,1.18618,-2.2468526,0.12555861,-0.39462414,2
1303,-0.5355641,0.4244187,-0.1499089,-0.7000249,3
1304,2.0765033,-1.3869054,0.073982015,-0.9972735,4
1305,-0.36726314,-0.20353553,-0.0375306,1.2410331,5
1306,-0.22951925,-1.1611767,-2.0594544,-1.7088175,6
1307,-1.2984307,-0.04131344,-1.8786787,-0.93219405,7
1308,-0.16708103,3.3683066,-2.0221174,0.79754806,8
1309,0.24361095,2.1634908,-1.6930395,0.13673492,9
1310,-1.9471267,3.194869,-2.0949397,-1.2998872,10
1311,1.9614701,2.3589485,-0.2502734,0.2009461,11
1312,2.3829007,0.8128376,-0.25909156,-0.5281967,12
1313,-0.0033204556,-1.6920843,-1.0749267,-1.5833894,13
1314,1.5521231,-2.606182,-0.60066664,-0.966742,14
1315,1.1607687,-3.7126765,-1.0728562,-0.1676906,15
1316,0.49396902,-1.6672299,-1.496994,-1.0997803,16
1317,0.5487838,-3.1343997,-0.8124811,0.04201606,17
1318,-0.19778463,0.33034635,0.2965356,-0.44859427,18
1319,0.05315555,-1.7550784,-0.19156158,-0.015389763,19
1320,0.8183408,0.32383302,-1.5151429,-1.5968679,20
1321,0.012592211,1.3510345,0.44776407,0.020619392,21
1322,0.2992615,0.4144646,-0.58576435,-0.5992742,22
1323,-2.767423,1.5296434,-0.48358342,-1.8497216,23
1324,1.0515399,3.0723715,-0.74799544,0.6533248,24
1325,0.046419144,-0.6840696,-0.21908069,-0.7716126,25
1326,-0.9218367,0.21073571,-1.0140479,1.1868379,26
1327,0.9237338,2.275917,0.21995336,0.4094004,27
1328,0.76364934,-0.115912765,-1.2644849,-1.5295674,28
1329,0.74315727,0.2942031,-0.7676022,-1.3277614,29
1330,-0.38915455,-4.814123,-0.2909896,-0.90019023,30
1331,0.47123092,-1.0891788,-0.4758967,-1.2290972,31
1332,1.8096815,-0.7435148,-1.9857128,-1.1950583,32
1333,2.1450524,-1.101538,-1.9584917,0.45405155,33
1334,0.38911617,-1.1746525,-0.5008586,0.8980155,34
1335,0.9500648,-1.9518043,-0.90583503,0.107881725,35
1336,-1.0369238,-0.10385811,-2.8114533,-0.1256072,36
1337,1.7422907,2.6697536,-0.77463174,-1.6475632,37
1338,-0.24653178,-0.2814139,-0.70374393,-0.4993587,38
1339,-0.9749285,0.37640506,-2.7175937,-0.7139093,39
1340,1.3940787,0.47913992,-0.95689785,-0.4382746,40
1341,1.7326239,3.4730418,-1.4602932,-0.9775846,41
1342,1.0335152,1.397108,-0.41296017,-1.7054765,42
1343,1.4557853,-0.01689503,0.49198967,-1.9458878,43
1344,1.3086822,2.5991964,-0.22905353,-1.1244774,44
1345,-0.12462717,-0.14473763,-0.21588105,-0.47433352,45
1346,-2.0328007,1.3011785,-0.6750076,0.96438146,46
1347,2.8304133,1.8625641,-0.3774358,-1.1663487,47
1348,-1.6791435,3.5265753,-0.59185827,-1.0094371,48
1349,-1.6007202,-1.3522061,-0.23070198,1.0265615,49
1350,-0.43006885,-2.2261,0.81854004,-0.53957444,0
1351,-0.25649446,-0.01156944,-2.4960213,-0.920064,1
1352,1.6961038,-3.225508,-0.7466754,-0.46189,2
1353,-0.23667519,1.5451968,-0.8074508,-0.59821516,3
1354,1.2073929,-1.8692863,-0.4612766,-1.0976472,4
1355,-0.29037365,-0.48814964,-0.3541385,0.5717109,5
1356,0.7285186,-0.14490062,-1.7465677,-1.0783654,6
1357,-1.4515275,0.7620441,-0.66623944,-0.5592196,7
1358,-0.12683228,0.8331473,-0.32204217,0.49002466,8
1359,0.18963459,0.2845934,-1.1515416,-0.2855279,9
1360,-2.1071243,-1.1614082,-0.49848032,-1.0556041,10
1361,1.5767142,1.3661153,0.52569234,0.335631,11
1362,1.9279633,2.200381,0.65033376,-0.33639473,12
1363,0.59586716,-2.4413073,-1.6519033,-1.0250369,13
1364,1.6863463,-2.5471997,-0.08682355,-0.90389377,14
1365,1.2481189,-5.794899,-0.14802146,-0.19406715,15
1366,-0.12979345,-0.52384,-0.8429122,-1.0367208,16
1367,-0.034040958,0.9269414,-0.6553043,0.26976404,17
1368,-0.31127244,-0.11462832,-0.2871364,-0.31648934,18
1369,-0.14747804,0.20961475,-0.4552213,0.24522582,19
1370,-0.004341999,1.3175604,-0.7069231,-1.8692348,20
1371,-0.17627311,-0.088753775,-0.10074325,-0.5369052,21
1372,0.60153586,3.2907362,-1.2803361,-0.18992113,22
1373,-3.0826359,1.1384238,0.23866093,-1.8951955,23
1374,0.40229863,2.0987346,-0.98837084,0.44387186,24
1375,-0.2101521,-1.0993402,-0.33573586,-0.7077956,25
1376,-0.2288819,0.19253802,0.009719014,0.7797601,26
1377,0.64818573,2.3000467,-0.5846911,0.16730002,27
1378,1.2440877,-0.6211886,-1.7442726,-1.9279006,28
1379,0.05625704,0.9378345,-1.0461488,-1.2157454,29
1380,-0.67752063,-3.5858173,-0.52911454,-0.94070625,30
1381,-0.17447373,-1.1212482,-0.44393623,-1.5491194,31
1382,1.1296263,-1.5791783,-2.4032393,-1.1017846,32
1383,1.3909826,-0.6870085,-1.4352721,-0.22808658,33
1384,-0.19793522,-2.4778364,-1.4941456,0.28812292,34
1385,1.4470212,-1.4636221,-0.52918875,0.42073122,35
1386,-0.65467614,0.9076467,-0.8402311,0.6581566,36
1387,1.5193856,-0.19016075,-1.0935419,-1.7115273,37
1388,-0.85047096,-1.4734604,-0.7603682,-0.5698656,38
1389,-1.8314385,-1.6020887,-2.2116046,-0.9043674,39
1390,1.1550848,-1.0396245,-1.6738313,-0.3453788,40
1391,0.9088682,1.5092736,-1.4997323,-0.62805605,41
1392,2.0422175,-0.5469475,-0.2375946,-1.3422953,42
1393,0.9963223,-0.20458944,0.075087935,-2.0708728,43
1394,2.5223665,2.7008917,-1.1107937,-0.7934592,44
1395,-0.0022322387,0.2119408,-0.29204202,-0.48775595,45
1396,1.1649139,1.646295,-1.4769611,1.8955686,46
1397,1.0477523,0.43835813,-0.043946147,-1.346926,47
1398,-0.7923813,4.160884,-2.096963,-1.0235171,48
1399,0.24482107,-1.8831465,-1.5510587,1.3445723,49
1400,-0.9103646,-2.0874395,0.36533833,-0.6498561,0
1401,-0.38926798,0.46440533,-1.040326,-0.7407985,1
1402,0.91894186,-3.08695,-0.53507054,-0.63301724,2
1403,-0.6120245,0.8644701,-0.8770335,-0.99985385,3
1404,1.1233315,-1.015351,-0.051823415,-0.8500041,4
1405,-0.50206995,-0.36337057,-1.2357123,1.245884,5
1406,0.6421665,0.18654016,-1.9839262,-2.0227606,6
1407,-1.2287434,0.60148555,-1.6264083,-0.60489357,7
1408,-1.5682532,3.1610696,-1.5381397,-0.06077826,8
1409,0.25649324,3.11042,-0.84268415,0.0337169,9
1410,-2.42975,1.1869755,-2.3135548,-1.2975973,10
1411,0.6719525,1.313326,-0.73614746,-0.100701764,11
1412,2.0590346,0.79058707,0.2206105,-0.24187627,12
1413,-0.3673108,-1.9743065,-1.9039633,-1.6425135,13
1414,1.7719809,-2.356689,0.13878405,-0.7548629,14
1415,1.2239388,-3.1221695,-1.1608791,0.09705782,15
1416,-0.36957824,0.56616116,-1.1124656,-1.0596309,16
1417,0.5675194,-0.53268677,0.22084475,0.4557051,17
1418,-0.041390628,-0.35751787,0.44980967,-0.23631635,18
1419,-0.50195676,-1.3104415,-1.1978409,-0.3455451,19
1420,0.39690518,0.024559528,-1.151202,-1.7150346,20
1421,-0.33583862,-0.19269328,-0.40375513,-0.5605106,21
1422,0.54834527,3.1422517,-0.22142768,0.055865914,22
1423,-2.8341641,0.58262753,0.055631973,-1.7251661,23
1424,0.4485516,-0.17709142,-0.9396015,1.1431701,24
1425,0.3941204,-0.7504825,0.25365984,-0.30123872,25
1426,-0.19641382,0.7605791,-1.218223,0.74590534,26
1427,0.60426724,1.9640547,-0.4267478,0.13375479,27
1428,1.9415711,-1.1147966,-1.8479058,-1.6769505,28
1429,0.43582577,0.24779435,-1.232675,-1.1405538,29
1430,0.09750792,-4.314057,-0.61804914,-0.8762263,30
1431,0.69093955,-1.1502877,-0.6976696,-1.4729306,31
1432,1.1721909,-0.7362633,-1.5232027,-0.8595943,32
1433,2.0521076,-1.5967444,-1.0462222,0.10876559,33
1434,0.59049964,-0.11091952,-1.2243333,1.0969744,34
1435,0.83826745,-0.0042352676,-0.37847292,-0.07946183,35
1436,-1.976203,1.3223504,-0.51354444,-0.2568828,36
1437,1.2331916,1.9753783,-0.6990749,-1.5585845,37
1438,-0.9183241,-0.24436265,-0.049002826,-0.766817,38
1439,-1.2979313,1.179215,-1.4029803,-0.6336839,39
1440,1.7094903,-0.5188943,-1.4301045,-0.23669368,40
1441,0.93477505,-0.9923935,-1.6354274,-1.2693926,41
1442,2.0814629,0.21647602,-0.4475356,-1.3246847,42
1443,0.6640161,0.15785874,0.28264308,-1.6196978,43
1444,1.1190476,2.9880962,-1.1579181,-1.1916325,44
1445,0.3075833,1.3364941,-0.7975773,-0.46154916,45
1446,-0.70849365,1.3072631,-1.4130837,-0.1939711,46
1447,3.0678322,1.432103,-0.6106544,-1.4597248,47
1448,-2.5469809,2.824463,-1.1773655,-1.4676626,48
1449,-0.3255468,-1.4330404,-1.2665708,0.59178245,49
1450,-1.4382215,-0.65421677,-0.35340357,-0.66368455,0
1451,0.23078455,0.34271312,-1.557079,-0.7572079,1
1452,1.6734092,-3.586114,-0.2747415,-0.4475917,2
1453,-0.8655473,3.0759263,-0.54810655,-0.99167234,3
1454,1.7074746,-1.4697238,0.2858925,-1.1891549,4
1455,0.18810308,2.1947694,-0.4826772,1.0061579,5
1456,0.18396771,0.001104176,-2.4808092,-1.5169716,6
1457,-0.6552285,-0.10358271,-2.900767,-0.49532023,7
1458,-0.4215766,2.1590328,-0.7043804,-0.5540407,8
1459,-0.13415113,-0.67216444,-1.9855857,0.074688286,9
1460,-1.7603233,-1.2326746,-1.3984237,-0.7927034,10
1461,1.4745302,0.8683124,1.1856532,0.7964918,11
1462,1.6218895,1.9255624,0.07225451,-0.24552295,12
1463,-0.34015158,-1.4808888,-0.90771043,-1.1551427,13
1464,0.7328224,-2.6931088,-0.35715637,-1.090055,14
1465,2.0577805,-6.288663,-0.10533607,0.1283477,15
1466,0.2714541,0.16835506,-0.93449974,-1.0530114,16
1467,0.90059197,1.9545734,-1.017529,0.5283122,17
1468,-0.12777236,0.8221923,0.18154615,0.0069416016,18
1469,0.55613345,-2.8398023,-0.84071356,0.10453956,19
1470,0.054023474,0.6246623,-0.7667378,-1.6074001,20
1471,-0.76923645,-0.72098637,-0.2628579,-0.7028413,21
1472,0.575952,1.877084,-0.60428333,0.02335751,22
1473,-2.3417919,0.45552227,0.025649711,-1.8349755,23
1474,-0.67277634,-0.7096107,0.23763877,1.2976283,24
1475,-0.105710894,-1.4404705,-0.13158184,-0.41102582,25
1476,-1.065237,1.5808263,-0.71780443,0.19823346,26
1477,1.8725961,1.4725296,-1.1849871,-0.04551965,27
1478,2.410011,0.36610115,-1.363424,-1.5332543,28
1479,0.5040462,0.31147024,-0.63514566,-1.2193093,29
1480,0.52943635,-3.497295,-0.29266262,-0.52732503,30
1481,0.19139157,-0.88396233,-0.25561514,-1.1767019,31
1482,0.8571733,0.7347243,-1.8360919,-1.0699842,32
1483,1.0744034,1.437986,-0.9030977,-0.08108887,33
1484,0.032881826,-0.20082115,0.5952891,0.51194423,34
1485,1.4891973,-2.1844585,-0.6180833,-0.039154556,35
1486,-0.7298908,0.58458537,-0.42015594,0.4051289,36
1487,1.5530585,2.992979,-0.80114806,-1.9356886,37
1488,-0.7147816,-1.6356194,-0.9584607,-0.7633529,38
1489,-1.4309058,0.70912755,-1.9112532,-1.1448295,39
1490,2.1607642,-1.5106013,-2.0943062,-0.48615,40
1491,0.87700856,1.9376782,-1.2740669,-1.323104,41
1492,1.5516126,-0.17927998,-0.28998327,-1.4831045,42
1493,0.37014523,-0.14710115,0.11455098,-2.0753877,43
1494,2.2902586,3.114154,-0.5249355,-0.68151647,44
1495,0.04091858,1.1304296,-0.694188,-0.3850817,45
1496,0.20582229,1.6659422,-0.94998187,1.7139072,46
1497,2.4452865,0.8570122,0.019073129,-1.2035909,47
1498,-2.3907464,-0.71602935,-1.4294543,-0.98022145,48
1499,-1.093308,1.9114933,-1.0579903,0.17968374,49
1500,-0.55123067,-2.1556258,0.037358243,-0.4276026,0
1501,0.08424832,0.13873029,-1.1910762,-0.4217855,1
1502,1.2109191,-3.0596504,0.265207,-0.3361742,2
1503,-0.3553871,2.9774063,0.01745361,-0.83058137,3
1504,1.8091797,-1.7703166,-0.091937,-0.85439044,4
1505,-0.8373382,2.6080654,-1.4651614,-0.4995076,5
1506,0.6482842,0.7120347,-1.4579027,-1.6008809,6
1507,-1.5482585,0.0975146,-0.6797568,-0.5750444,7
1508,0.18063164,1.9495026,-0.94319826,0.49988943,8
1509,0.6638879,-0.34444475,-1.0325443,0.4813468,9
1510,-2.144551,-3.5166767,-2.4565823,-1.2686319,10
1511,2.1488955,2.9022477,0.99374384,0.5068113,11
1512,1.3859062,1.1244805,-0.20826468,-0.35513252,12
1513,0.25859618,-1.9594026,-1.5214132,-1.1947695,13
1514,1.2799783,-2.8642583,-0.12111299,-1.1015812,14
1515,1.3558295,-3.7504122,-0.6078754,0.05436808,15
1516,0.17279127,0.8287164,-0.97288024,-0.9336573,16
1517,1.2876581,0.31238377,-1.4711996,0.95846665,17
1518,-0.3720368,-0.17318083,0.28684953,-0.13316372,18
1519,-0.867,-1.4219244,-0.34963888,-0.27203506,19
1520,0.23276748,0.1445995,-1.2980847,-1.97694,20
1521,0.17182204,-0.40171662,-0.6172056,-0.35374248,21
1522,0.63029534,1.227104,-1.7659876,-0.3731971,22
1523,-2.6435962,0.85191584,-0.26313835,-1.9027933,23
1524,-1.7132075,-3.0835347,-0.4575524,0.72934294,24
1525,0.30391654,-0.60082644,-0.621168,-0.5266037,25
1526,-0.9098064,0.36884105,-0.8921174,0.78771496,26
1527,1.7655966,1.4860226,-0.85692304,0.3701249,27
1528,0.7758318,-0.8494161,-1.1090302,-1.6595529,28
1529,0.09604519,-0.41000712,-0.9570973,-1.5910851,29
1530,0.5479889,-4.6748815,-0.816088,-0.68016165,30
1531,0.41891685,-0.9337539,-0.7573269,-1.0571977,31
1532,1.1582055,-0.42586046,-1.8845344,-0.92660975,32
1533,1.0741335,0.76174974,-1.5994493,0.016028237,33
1534,0.36828172,-0.45415455,0.28640985,0.73309934,34
1535,1.8979874,-1.6576562,-0.59566164,0.3366339,35
1536,-2.2733638,1.6896732,-0.7091936,-0.3928097,36
1537,0.33327127,1.3520086,-0.9361906,-1.8395917,37
1538,-0.76367307,-0.59738886,-0.4900329,-0.54563224,38
1539,-0.30330777,3.558083,-1.5464185,-0.33689207,39
1540,1.3004408,-2.332982,-0.9259325,-0.13366604,40
1541,1.5870857,2.9357476,-1.399257,-0.7517613,41
1542,1.4089963,1.8519931,0.02809713,-1.3429208,42
1543,1.3255706,-0.26007852,0.33907062,-2.283959,43
1544,2.1119876,3.7718544,-0.5548693,-0.9541479,44
1545,-0.602792,-0.44319955,-0.23646806,-0.9048108,45
1546,-2.3290281,0.9382582,-1.4611387,0.8671652,46
1547,1.768605,0.9815366,0.04598424,-1.7141552,47
1548,-1.7800629,2.4854717,-0.93502796,-0.814983,48
1549,0.30797386,-0.018537316,-0.90295184,1.2319279,49
1550,0.32104212,-0.65429336,-0.1941713,0.1945939,0
1551,-0.37983853,-0.62923324,-1.8777726,-0.7486039,1
1552,0.32902545,-3.6969614,-0.5618476,-0.9908864,2
1553,0.14079049,0.15142357,-0.5846453,-0.5883569,3
1554,2.0282907,-1.4082129,-0.33867165,-1.1456864,4
1555,0.19132346,0.039463054,-1.4539034,1.6032057,5
1556,1.6604441,2.17236,-1.5703667,-1.8817916,6
1557,-1.1895834,0.6961905,-0.861184,-0.72239214,7
1558,-0.9450357,1.3130766,-1.9525979,0.26538327,8
1559,-0.044385023,2.1762555,-1.0159637,-0.70145625,9
1560,-1.8124926,0.17775747,-1.0637987,-0.46329966,10
1561,1.313687,2.2107022,0.45669824,0.6167709,11
1562,2.2401874,0.45016336,0.32761893,-0.33342114,12
1563,0.74304813,-1.7950283,-0.92812544,-1.1450326,13
1564,0.75626326,-2.6674657,-0.177563,-1.0478444,14
1565,0.8093476,-4.720066,-0.886259,-0.58488894,15
1566,-0.117270276,-0.66264284,-1.4807261,-1.1435297,16
1567,1.6192193,-1.6845735,-0.41865748,0.9451021,17
1568,-0.19510686,0.78513575,1.1039827,0.13809152,18
1569,0.12173881,-1.1205109,-0.8544805,-0.48946673,19
1570,-0.26137793,0.14433166,-1.099498,-1.9827123,20
1571,0.6032365,0.25185403,-0.72250664,-0.38962477,21
1572,-0.09852165,-0.06364548,-0.9948915,-0.505989,22
1573,-3.0177813,1.100693,-0.18466893,-1.9633887,23
1574,-0.45661488,2.456536,-0.8748774,0.48144448,24
1575,-0.14869462,-0.77848864,0.1955897,-0.4674745,25
1576,-1.0108707,-0.055652305,0.6282558,-0.031787097,26
1577,1.2299232,3.5720773,0.5273341,-0.0015416443,27
1578,1.4797435,0.26960534,-1.6063571,-1.5303148,28
1579,0.16686814,0.5115919,-1.0569621,-1.3434482,29
1580,-0.16038465,-3.353858,-0.38874716,-0.7109111,30
1581,0.064062625,-0.03267628,-0.30895796,-1.2439314,31
1582,0.9644111,-0.52750546,-1.3621354,-1.0295455,32
1583,1.461251,2.0795195,-2.3813307,-0.16591121,33
1584,1.0188005,-1.2378529,-1.8150793,0.91754824,34
1585,1.2308332,-2.3093252,-0.7449577,-0.071666956,35
1586,-1.3209215,2.6089506,-0.4067682,0.6976774,36
1587,0.8878922,1.3355798,-0.6942612,-1.8393921,37
1588,-0.49642026,-0.86478776,-0.67495376,-0.67508274,38
1589,-1.1856695,-1.2178409,-0.6825859,-1.0238284,39
1590,1.8138163,-1.8159108,-0.62513626,-0.07501146,40
1591,1.1278293,0.6210828,-1.7206674,-1.1649303,41
1592,1.9445364,1.0421602,-0.08592538,-1.4238183,42
1593,-0.00039052963,0.34412637,0.8908558,-2.029037,43
1594,0.8007067,2.0545268,-0.3416758,-0.9449383,44
1595,-0.25552684,0.95688736,-0.93174624,-0.49920487,45
1596,-0.10707718,0.24742271,-1.5629165,0.62813073,46
1597,2.0748527,0.3183053,-0.4682255,-1.4964035,47
1598,-1.6202127,-0.7877547,-0.72154236,-0.6738422,48
1599,0.3065219,0.6901946,-1.6629758,0.2453968,49
1600,-0.512658,-0.89540076,0.031698834,-0.5544803,0
1601,0.22475778,-0.043616056,-1.6531392,-0.42684266,1
1602,0.9170821,-3.2101529,-0.87719554,-0.58378583,2
1603,-0.41888934,0.2555179,-0.29902777,-0.5926237,3
1604,1.3934797,-1.267735,0.19816121,-1.408574,4
1605,1.0208617,-0.7245955,-1.4743184,2.0425136,5
1606,1.783283,-0.051670313,-2.3945072,-2.048364,6
1607,-1.7313049,-1.4251103,-1.1174754,-1.0607886,7
1608,0.50100595,-0.32105583,-0.45235622,1.7498269,8
1609,-0.06656719,-0.39487565,0.26484013,-0.2647737,9
1610,-2.1204727,-1.9964719,-1.1823349,-1.2690704,10
1611,1.2471778,2.9728532,-0.2685974,0.26646778,11
1612,1.4214097,1.9090754,-0.9270123,-0.50499773,12
1613,1.1124691,-2.265194,-1.3831794,-0.98494166,13
1614,1.6790268,-2.3796108,-0.46945524,-0.7434648,14
1615,1.2787172,-4.1132255,-0.6254923,-0.15589076,15
1616,-0.091401204,-0.6928355,-0.89105815,-1.1587236,16
1617,0.8690171,1.8942599,-0.9353155,1.0120689,17
1618,-0.30669552,-0.122630365,0.02177681,-0.36217517,18
1619,0.66576225,-2.0639153,-0.7003695,0.24739808,19
1620,0.21269055,0.5740662,-1.2088654,-1.5946268,20
1621,-0.11692883,0.05442864,-0.35890588,-0.58829117,21
1622,1.0477724,0.9019997,-1.6525855,-0.29077235,22
1623,-2.831919,0.8458326,-0.16789728,-1.8135558,23
1624,-1.8487499,-2.6435204,-1.2096958,0.26468617,24
1625,-0.29431242,-1.2382843,-0.29817134,-0.47050625,25
1626,-0.25823593,-1.0921433,-0.7526495,1.3929917,26
1627,2.0193682,0.6764097,-0.20021021,0.4239329,27
1628,1.8271205,0.9684265,-1.0891135,-1.4815834,28
1629,0.06855768,0.20389807,-0.66690624,-1.1193373,29
1630,-0.2559966,-3.5499005,-0.5387189,-0.6705642,30
1631,0.6030717,-0.10419065,-0.69716763,-1.2207509,31
1632,1.4194479,-0.19966933,-2.5840082,-1.072902,32
1633,2.096777,1.8238196,-1.4118351,0.27785152,33
1634,0.55725324,1.5514067,-0.25094348,0.89444226,34
1635,1.3962159,-1.7997934,-0.51146144,0.05370565,35
1636,-1.0309784,3.1955295,0.8448845,0.43919942,36
1637,2.043248,0.6426261,-1.7836385,-1.6764708,37
1638,-0.8848001,-1.332715,-0.53975207,-0.9054413,38
1639,-0.31156957,0.3277579,-1.5094819,-0.47657984,39
1640,1.6737832,-1.2773618,-2.0260482,-0.4573802,40
1641,0.90979195,-1.8950369,-1.3543494,-1.4303478,41
1642,2.2051752,0.075240195,-0.23786646,-1.398292,42
1643,1.3735359,-0.13625348,0.39312136,-1.6086024,43
1644,1.2937688,1.1472394,-1.0644042,-1.0300754,44
1645,-0.44973275,-0.74823976,-0.78789365,-0.90989256,45
1646,-0.3893493,1.9187425,-1.9421213,0.6294042,46
1647,2.8904147,0.9096302,-0.30192932,-1.2513065,47
1648,-0.9959962,0.4378416,-0.9110596,-0.33978266,48
1649,0.9085493,-2.044496,-0.549148,1.1050613,49
1650,-0.688018,-0.8702663,0.7052204,-0.41208962,0
1651,-0.41878247,1.2402453,-1.2948902,-0.76446337,1
1652,1.0632056,-2.6548593,0.3971932,-0.5108375,2
1653,-0.5466112,0.23573756,-0.92788684,-0.7941165,3
1654,1.8456678,-1.3694621,0.33116642,-0.9396142,4
1655,-0.42853305,0.33058378,-0.3230903,0.5868224,5
1656,0.48048064,-0.19905066,-1.9777417,-1.6740156,6
1657,-1.1537024,0.35389897,-0.58629227,-0.51007533,7
1658,-0.56885594,0.20427035,-1.3654562,-0.48670253,8
1659,0.31877208,2.2940001,-0.9268497,0.9448587,9
1660,-1.9873075,0.60671854,-1.510106,-1.1600175,10
1661,0.8333821,0.32608956,-0.08420548,0.12025713,11
1662,1.7384344,1.5306779,-0.29159534,-0.78954655,12
1663,0.07250072,-1.2658085,-1.8781025,-1.3704296,13
1664,0.7095977,-2.70328,-0.3526785,-1.0898252,14
1665,0.7494445,-4.739034,-0.27552783,-0.20165661,15
1666,0.54464924,-0.9563884,-1.676894,-0.8160931,16
1667,0.4594961,0.07864809,-0.83280826,0.2904064,17
1668,-0.0104298,-0.025067573,-0.50111735,0.016315013,18
1669,0.9405892,-0.9196378,-0.506497,0.47951868,19
1670,0.40617374,0.4958066,-1.3231689,-1.6695073,20
1671,0.0019672588,-0.19198486,-0.6327699,-0.6866459,21
1672,0.22876608,2.5176969,-0.4332167,-0.49681893,22
1673,-2.5214906,0.82851833,-0.22921547,-1.867862,23
1674,1.219825,-0.628432,-1.2392923,1.6862066,24
1675,-0.13508089,-1.8357921,-0.16013508,-0.31217015,25
1676,-1.498889,-0.09792116,-0.87907183,0.81300306,26
1677,0.83968425,1.1486756,-0.76488894,-0.1091685,27
1678,2.1393402,-0.7055281,-0.8353653,-1.6339394,28
1679,0.36652786,0.7211537,-1.2701075,-1.400836,29
1680,0.3335032,-3.842585,-0.6847592,-0.5992377,30
1681,0.35925734,-1.171278,-0.80472016,-1.2215834,31
1682,1.1585667,-0.09767592,-1.9834478,-1.3479033,32
1683,1.315645,0.82780004,-1.5235606,-0.065420374,33
1684,1.0331603,1.3352665,0.5215186,0.6066476,34
1685,1.3946776,-1.4317875,-0.72042,0.060882613,35
1686,-0.968361,1.936764,-0.6399876,-0.18556221,36
1687,1.1941437,0.42682385,-1.5380058,-1.927587,37
1688,-0.76615864,-0.42657745,-0.56840855,-0.6516847,38
1689,-1.3980479,0.6204795,-1.8246437,-1.1021398,39
1690,1.3012065,-0.30156898,-0.31726253,-0.22703955,40
1691,1.7712028,-0.28015387,-1.5401123,-0.9668023,41
1692,2.4118557,0.45978546,0.08058271,-1.2893338,42
1693,0.9128027,-0.046718497,0.19958556,-2.0660193,43
1694,0.76596665,2.928206,-0.34187907,-1.0582254,44
1695,-0.22109807,1.4733708,0.29580274,-0.7651619,45
1696,-2.273664,-0.33608556,-0.47170955,-0.3107249,46
1697,2.0474122,1.0713514,-0.08694115,-1.2558141,47
1698,-1.705336,2.6902325,-1.439641,-0.79181945,48
1699,-0.77927834,0.57547826,-0.008608222,0.9925103,49
1700,-0.88242006,-1.7341776,0.15799667,-0.7005162,0
1701,-0.3529923,0.12308854,-1.3224025,-0.6531187,1
1702,1.0543604,-3.198634,-0.14642945,-0.61124486,2
1703,-0.8096912,0.72403777,-0.3474004,-0.96307623,3
1704,1.3320228,-1.4843194,0.15484747,-1.1385901,4
1705,0.08213276,-1.9911178,-1.3021595,1.0966314,5
1706,0.84313405,0.75928825,-2.2704115,-2.0848358,6
1707,-1.1079823,1.371204,-0.6198781,-0.4245968,7
1708,0.3406191,-2.140247,-1.700999,0.37064475,8
1709,0.06861663,2.3459194,-1.5267348,-0.52846736,9
1710,-1.5552688,1.5124179,-1.849474,-0.71602476,10
1711,1.5799928,1.4881555,-0.5871602,0.15815379,11
1712,2.106368,1.7760832,-0.022114232,-0.45295447,12
1713,0.9030671,-1.3284183,-1.5194418,-1.168531,13
1714,1.1825665,-2.7572598,-0.06578189,-0.98482484,14
1715,0.7626673,-4.243743,-0.9137887,-0.08947113,15
1716,0.58860755,0.5802943,-1.7903366,-0.948504,16
1717,0.10135284,-1.1348314,-0.90671015,-0.09179333,17
1718,0.1231772,-0.328131,-0.4913306,-0.038467348,18
1719,0.1632522,-1.5337384,0.045880467,0.2624365,19
1720,-0.15171613,-0.055232882,-0.9265003,-1.434407,20
1721,0.4247307,1.1607534,-0.48238933,-0.33946115,21
1722,1.3441712,0.82259727,-1.0330057,0.23331398,22
1723,-2.526583,1.3563366,0.16503586,-1.809029,23
1724,-0.33691823,1.2248683,-0.010178864,0.19962287,24
1725,0.090570085,-0.85806215,-0.42669016,-0.6108136,25
1726,-0.46646526,4.8957024,-0.84511495,1.1882725,26
1727,1.5546594,1.6787128,-1.1448389,0.19482455,27
1728,1.1083195,0.04833083,-0.7561584,-1.8353299,28
1729,-0.024324045,0.13798173,-0.26178092,-1.4281172,29
1730,0.2879328,-3.4365253,0.07896793,-0.6854123,30
1731,0.81614804,-0.28620723,-0.7324216,-1.3647605,31
1732,1.0641829,0.35145232,-2.0617115,-1.0918448,32
1733,2.3051972,-1.4939148,-1.7244034,0.4168957,33
1734,0.433004,0.56455827,-0.65103114,0.44346243,34
1735,0.4533342,-1.0486553,-0.649784,-0.05520005,35
1736,-0.65790707,-0.52347404,-2.610939,-0.7094195,36
1737,1.747172,0.8169755,-1.0536733,-1.8982322,37
1738,0.005651772,-0.4188891,-0.6949333,-0.36166015,38
1739,-0.49829775,-0.52611786,-2.6946278,-0.52296114,39
1740,1.8110485,-2.3445678,-1.2774225,-0.33731973,40
1741,1.1742995,0.3301807,-1.3948221,-1.0024247,41
1742,1.823026,1.3726339,0.0879004,-1.0694971,42
1743,0.46370876,0.26880607,0.24631238,-2.1132174,43
1744,1.0809029,2.3115563,-0.96541226,-1.1728439,44
1745,0.55278575,0.81495357,-0.13715033,0.32345554,45
1746,0.3091926,-0.36782485,-0.9948454,0.709926,46
1747,2.1994328,1.1605656,-0.36094847,-1.7235645,47
1748,-1.2247483,2.5970585,-0.3452766,-1.1124256,48
1749,0.6723919,0.07245802,-1.8515091,1.9683597,49
1750,-1.019758,-2.1403768,0.33591938,-0.9102278,0
1751,0.331129,1.2146702,-1.7240826,-0.68192494,1
1752,1.3111835,-2.6917973,-0.35993063,-0.5393602,2
1753,-0.36162657,0.79153055,-0.80522084,-1.1353556,3
1754,2.3403873,-1.737122,0.18068826,-1.068758,4
1755,-1.6947068,-0.20518148,-2.0522628,-0.04568702,5
1756,0.1699577,1.6273289,-2.3111992,-2.0457518,6
1757,-1.0617883,-2.081859,-2.24914,-0.5156953,7
1758,0.6292088,2.9203517,-0.09322047,0.5209322,8
1759,-0.29965717,0.44001263,-0.6864145,0.2124864,9
1760,-1.9045175,0.99888295,-2.72273,-0.8802374,10
1761,1.1487716,-0.014994621,-0.3433826,-0.0059933513,11
1762,1.9182677,2.2512708,-0.033311546,-0.24634838,12
1763,-0.13520032,-1.4068162,-1.3328007,-1.249555,13
1764,1.1351322,-2.9265318,-0.27547362,-0.8058591,14
1765,1.077047,-4.929325,-0.7223438,-0.15102772,15
1766,0.050051518,0.67563885,-1.4807479,-0.9948613,16
1767,-0.06466016,-1.3191051,-0.7912332,-0.2647464,17
1768,-0.49859494,0.17405027,0.018024966,-0.14603744,18
1769,0.06663276,-2.0254004,-0.7201375,-0.2255705,19
1770,0.59007275,-0.67290187,-1.1912326,-1.5243881,20
1771,-0.1520637,0.014542554,-0.4379762,-0.511898,21
1772,0.7283441,-0.25828898,-2.0770748,-0.06170878,22
1773,-2.213437,0.10767132,0.42395252,-1.882964,23
1774,-2.0497627,0.21596545,0.2638864,0.73957396,24
1775,-0.009576082,-1.4828606,-0.24333748,-0.5687568,25
1776,0.5416613,2.576903,0.18231362,1.4817262,26
1777,1.4402254,2.3864043,-0.44434908,0.49254224,27
1778,2.6321378,0.2836547,-1.3902814,-1.4630306,28
1779,0.6294493,0.3944301,-0.28137994,-1.1899875,29
1780,-0.083917215,-2.8634734,-0.25316492,-0.4095565,30
1781,0.64032,-1.2188015,-0.9260698,-1.6334534,31
1782,1.1709765,0.31911203,-1.8100827,-1.0296428,32
1783,1.9918973,-0.5484958,-1.3506057,0.42505592,33
1784,0.6358208,-0.4931532,-0.604187,0.8320337,34
1785,1.1159282,-1.283617,-0.5742498,-0.10311392,35
1786,-2.498218,3.2611282,-1.2117159,0.32812726,36
1787,0.25297403,2.773061,-0.41387272,-1.7313236,37
1788,-0.65506804,-0.8897707,-1.4772826,-1.0171237,38
1789,-0.80024827,1.7161953,-2.853479,-0.6463994,39
1790,1.2781987,-1.5131419,-1.124647,-0.5423742,40
1791,1.3920994,3.1649668,-1.4811655,-1.0538433,41
1792,1.0560946,-0.36372292,-0.30398592,-1.2709999,42
1793,0.9855957,-0.04275133,0.64274466,-2.056469,43
1794,1.2180271,2.0613382,-0.75582075,-1.1411784,44
1795,0.7256701,-0.34751377,-0.92402554,0.15978816,45
1796,0.47206408,-0.5118355,-2.0318923,2.1221676,46
1797,0.9177009,1.8022075,-0.50056326,-1.1083272,47
1798,-1.395142,-0.046115488,-0.5619421,-0.7531601,48
1799,-2.0269945,-1.0849088,-0.95641875,0.2154414,49
1800,-0.2446076,-1.8877661,0.62572527,-0.42358825,0
1801,-0.121522784,0.28703603,-2.1889262,-0.6858096,1
1802,1.0372909,-3.0690455,-0.7058908,-0.5841177,2
1803,-0.23664011,1.3334868,-0.05949813,-0.6082025,3
1804,1.8337635,-1.4381971,0.54985607,-0.9656943,4
1805,-1.2774572,-1.4207922,-0.564729,1.2654269,5
1806,0.4894639,1.0671458,-1.3918686,-1.7038897,6
1807,-1.2267833,0.44318253,-1.1405936,-0.82394314,7
1808,-0.18664676,1.3024675,-3.2022882,0.2482703,8
1809,0.041001584,3.8403442,-1.1099715,0.00803417,9
1810,-1.7190064,0.042396486,-1.1691626,-0.89673054,10
1811,1.7640923,0.4211961,-0.22104563,0.19776508,11
1812,1.7962582,0.6128793,-0.20797993,-0.1906041,12
1813,0.10632852,0.21820068,-1.3038108,-1.0563043,13
1814,1.1705902,-3.3018231,0.32890525,-1.1499248,14
1815,0.75448596,-4.105949,-0.77583134,-0.048701897,15
1816,-0.23026542,-0.54621375,-0.84060097,-0.5997788,16
1817,0.5698335,-0.20745295,-0.85804963,0.4743886,17
1818,-0.07067207,0.24571854,-0.2686625,-0.2525388,18
1819,-0.08474991,-2.0387526,-1.7784655,-0.33867753,19
1820,-0.11318374,1.3249395,-1.1988423,-1.7035403,20
1821,-0.10382582,0.3908286,-0.030117303,-0.52899766,21
1822,0.043653518,0.69160134,-0.7110754,-0.49366453,22
1823,-2.5809147,0.1397056,-0.043831497,-1.7080117,23
1824,-1.1420932,-1.1220939,-0.9658113,1.0688676,24
1825,-0.14007382,-1.3978069,-0.28947976,-0.64526,25
1826,-1.7291752,-4.781059,-2.0441325,0.12487584,26
1827,1.1369728,2.3394465,-0.83026063,-0.03840068,27
1828,1.5051244,1.154461,-0.89360374,-1.4892975,28
1829,0.43638432,0.28115305,-0.50111085,-1.2093655,29
1830,-0.36351225,-3.89861,-0.25721145,-0.7859122,30
1831,-0.062285185,-0.51720273,-0.582102,-1.4706862,31
1832,1.0062749,-1.5035236,-1.6441553,-1.3253071,32
1833,0.92419195,-3.155635,-2.1645498,0.05338284,33
1834,-0.07804203,-0.5433166,-1.2073298,1.1876991,34
1835,0.3978439,-2.9419804,-0.6131617,-0.048786495,35
1836,-2.6433449,-0.41503376,-0.5214032,0.18499063,36
1837,1.3437414,3.0983496,0.2732768,-1.9663234,37
1838,-0.3970303,-1.968569,-0.20308495,-0.4852051,38
1839,-1.1633061,3.3541987,-1.9963375,-0.69418097,39
1840,0.6298185,-1.1342285,-1.2681613,-0.74730164,40
1841,0.56168735,-0.090729356,-2.1903455,-1.1746908,41
1842,1.8439972,1.3915026,0.53328043,-1.1575072,42
1843,0.7108401,0.020811504,0.7400987,-1.9274281,43
1844,0.78788036,2.6914601,-0.78035164,-0.96702963,44
1845,0.29304755,0.75018406,-0.19186094,-0.2701581,45
1846,-0.3855314,0.941075,-0.30039763,0.93171966,46
1847,2.3514774,0.721825,-0.12456411,-1.7123005,47
1848,-1.2150626,0.86442393,-1.4660695,-0.78562236,48
1849,1.2983556,1.0933807,-0.34291267,1.9855628,49
1850,-0.68418413,-0.9078115,-0.8989973,-0.5183412,0
1851,-0.29831976,1.381834,-1.2576923,-0.57090974,1
1852,0.911478,-3.27499,-0.02612704,-0.42478397,2
1853,-0.2845947,1.8090273,-0.7355521,-0.8206248,3
1854,1.4930122,-1.226024,0.37243837,-0.9768652,4
1855,0.47897458,0.0804512,-0.99848866,1.8127303,5
1856,2.1662097,-0.16532749,-1.4655882,-1.8545232,6
1857,-0.91958874,1.5503684,-0.6295304,-0.7301391,7
1858,-0.7011525,0.85896504,-1.2992102,0.9656118,8
1859,0.23052123,0.9376083,-2.3948638,-0.17077625,9
1860,-1.0129657,-0.14364648,-2.1392546,-0.65319085,10
1861,1.3936703,2.7385201,-0.1900227,-0.105661586,11
1862,2.2368455,1.1077111,-0.3558084,-0.35967693,12
1863,-0.056818306,-2.310745,-1.3389711,-0.9438071,13
1864,0.41384536,-2.2335665,-0.26429045,-1.1284345,14
1865,1.1080238,-4.120396,-0.43411255,-0.26407516,15
1866,0.13818589,0.44317386,-1.3466938,-0.91006947,16
1867,0.54452527,-0.65201324,-2.0718284,0.13709301,17
1868,-0.5247154,-0.8501692,0.47458604,-0.29839274,18
1869,0.02394189,-1.6273159,-0.36967444,0.057895318,19
1870,0.8921763,0.08002445,-1.1507392,-1.5447762,20
1871,-0.37413135,-0.27748367,-0.001907587,-0.4558281,21
1872,0.78466415,0.82981145,-1.8173229,-0.37347528,22
1873,-2.6939552,1.1475774,0.12701748,-1.5521513,23
1874,0.76926655,-1.1000509,-0.6332555,1.55251,24
1875,-0.25783873,-1.4329954,0.022544086,-0.7766998,25
1876,0.19832754,1.4042215,-0.59136164,0.61966157,26
1877,2.0310223,2.936798,-0.26245,0.23813717,27
1878,2.0474982,-1.38531,-1.114557,-1.2273648,28
1879,0.30332288,-0.57831013,-1.3291419,-1.2133284,29
1880,-0.10798867,-3.1907897,-0.62357336,-0.6193771,30
1881,-0.14253548,-1.0877509,-0.4359329,-1.3116136,31
1882,0.47264707,-2.6784282,-2.4433808,-1.0734845,32
1883,1.4266802,2.8105686,-1.8879459,-0.19302304,33
1884,0.61226106,-0.82146347,-1.6158881,0.32193255,34
1885,0.85138583,-1.9672519,-0.062203407,0.30332246,35
1886,-1.2733814,1.9341483,-0.41499764,1.5481623,36
1887,1.3241732,1.0002034,-1.0982027,-2.0097106,37
1888,-0.5643531,-0.56444263,-0.06516689,-0.5311309,38
1889,-1.335236,-1.1321189,-2.0114553,-1.0130308,39
1890,0.7861014,-0.34836733,-1.0642024,-0.45869917,40
1891,1.1852291,0.7670513,-1.8331155,-1.0074601,41
1892,2.1502626,0.3347456,-0.51380444,-1.3374953,42
1893,0.09596622,-0.05143809,-0.042824626,-2.3302402,43
1894,1.3798194,1.8529487,-0.226924,-0.8230197,44
1895,0.55960786,1.0688822,-0.03764656,-0.20253795,45
1896,-1.925395,-2.0652108,-0.542628,-0.43004626,46
1897,2.3967519,1.112767,-0.13395694,-1.49534,47
1898,-1.6086915,1.1113906,-1.0813745,-0.6796704,48
1899,-0.80283624,2.5087008,-0.67471206,0.5523423,49
1900,-0.7673348,-1.2548332,0.24339947,-0.8372551,0
1901,-0.44324613,1.118892,-1.4921633,-0.56605375,1
1902,0.88757306,-3.655748,-0.8701949,-0.60056466,2
1903,-0.4685409,1.5317782,0.34568584,-0.8389941,3
1904,1.0375625,-1.1047921,0.22718474,-1.0797821,4
1905,-0.3151245,0.89753294,-0.68522644,1.112061,5
1906,1.6062994,0.9239737,-2.211835,-1.3669423,6
1907,-0.7335881,0.39737642,-1.8100091,-0.36195958,7
1908,-1.1619198,3.2672033,-1.6023085,-0.14306179,8
1909,-0.6290249,-0.9633527,-1.4060986,-0.31811428,9
1910,-1.7837768,0.7933347,-1.4138956,-0.8651504,10
1911,0.7268314,2.2929525,0.9476889,0.19616756,11
1912,1.7224127,0.56902903,-0.16789898,-0.3054148,12
1913,-0.27033886,-1.4740256,-1.9788809,-1.0145981,13
1914,1.5055814,-2.9054544,-0.03622347,-0.8234057,14
1915,0.23074836,-2.173049,-2.0112147,-0.51863897,15
1916,-0.15321444,0.75390273,-1.7220016,-1.173914,16
1917,0.24652469,-1.318398,-0.7330774,0.40189594,17
1918,-0.26071042,-0.8064371,0.22568189,-0.5519623,18
1919,0.16893932,-3.3219013,-0.86700046,-0.091442406,19
1920,-0.73283535,0.6289401,-0.91808355,-1.9476148,20
1921,-0.2666922,-0.41162452,-0.78954804,-0.47086823,21
1922,0.26318005,1.1618799,-0.55386114,-0.2727868,22
1923,-2.5411422,0.92051166,0.12784787,-1.9424648,23
1924,0.68433887,0.24505448,-0.4146602,1.5793133,24
1925,0.836622,-1.2528819,0.19129665,-0.16796345,25
1926,-2.2645087,-0.5480789,-1.0206397,-0.037460804,26
1927,1.3671372,1.2432002,0.13987565,0.5163864,27
1928,2.1634498,-0.14285016,-1.3087736,-1.3610371,28
1929,-0.10726288,-0.024438486,-0.74907786,-1.2734231,29
1930,0.116005816,-3.1315758,-0.9194094,-0.7502612,30
1931,0.25313595,-0.5019463,-0.7526871,-1.3370279,31
1932,1.1161315,-1.2777164,-2.1458075,-1.1938026,32
1933,1.6944343,-1.0967265,-1.2408493,0.097595975,33
1934,0.36363518,-0.3973012,-0.7253814,0.63348925,34
1935,2.367467,-1.5722246,-0.25891852,0.19066647,35
1936,-0.7337728,1.1459639,-0.5952848,0.08609904,36
1937,2.0868764,1.8502209,-0.38311374,-1.783231,37
1938,-0.22014421,-0.7583636,-0.82896453,-0.6756153,38
1939,-1.1013615,1.5005882,-3.0509768,-1.243475,39
1940,1.0243971,-1.5385568,-1.3742584,-0.5663935,40
1941,0.85418344,-0.9001123,-1.6577464,-1.3773252,41
1942,2.374158,0.91546595,-0.16929176,-1.3805637,42
1943,1.1259935,0.6921005,0.5049969,-1.6931868,43
1944,1.5877379,0.89605105,-0.930054,-1.0793124,44
1945,-0.0060317367,-0.061945647,-0.6582216,-0.5303643,45
1946,0.3101923,0.8035007,0.8183445,1.4557297,46
1947,2.2099023,0.83688915,-0.05242051,-1.2647973,47
1948,-1.5074418,2.1017358,-1.1131327,-0.84302855,48
1949,-0.9926942,1.81599,-0.51249325,0.45181867,49
1950,-0.7167502,-1.5389618,0.010104444,-0.8198823,0
1951,-0.015796512,1.3430579,-1.1589079,-0.14244238,1
1952,1.2139423,-3.229436,-0.18656173,-0.30327338,2
1953,-0.42179248,0.17964613,-0.8507545,-0.78345305,3
1954,0.9082469,-1.3992454,-0.1430997,-1.0145209,4
1955,-1.4796782,1.4934721,-2.5903087,0.5982417,5
1956,1.35511,0.12287226,-2.1822534,-1.5623294,6
1957,-1.0656059,-0.4885129,-1.9495779,-0.8978986,7
1958,-0.10360393,0.7649843,-1.4649981,0.8680427,8
1959,0.21268201,-1.4466667,-0.800585,-0.10411981,9
