,locs0,locs1,locs2,locs3,subject
0,-2.7102969,-0.072639376,0.37213963,-1.3938484,0
1,-0.2027641,-1.473493,-1.6358826,-2.1375818,1
2,1.7112516,-2.5657902,-1.8180048,-0.78773594,2
3,1.2176094,-0.8585113,-0.70973325,1.7293397,3
4,-2.3289914,2.7386565,0.7375525,0.82116395,4
5,2.9086332,-0.02095896,0.58385473,-0.99028397,5
6,-1.2623466,0.9735484,-1.5630376,-0.65637386,6
7,0.6832928,-2.602508,-1.8648643,-1.9206669,7
8,1.0934116,-3.1010869,-0.69435966,-1.3759879,8
9,-0.3887988,0.33572733,-1.3614235,-0.46083915,9
10,2.2628918,0.011868119,-0.89247835,-1.2685,10
11,-1.3537276,0.00128901,-0.8215453,-1.0697763,11
12,2.4814508,0.1364995,-0.5300702,1.5938193,12
13,3.163825,0.19504935,-0.84135586,-0.26197052,13
14,0.013481189,-3.1210976,-1.1875714,0.004126638,14
15,0.34470972,0.8108958,0.075493276,-1.0230482,15
16,0.4490481,-0.9898405,-0.58264714,0.9504994,16
17,-0.32119602,0.32660973,0.67422616,-2.1977465,17
18,-0.50515896,0.2796424,-0.16596763,-1.8412828,0
19,1.5263176,2.0465956,-1.1955547,-2.6420603,1
20,0.8924273,-2.1058657,-1.2344493,-0.29557893,2
21,-0.1816002,-0.24507077,-0.962451,1.5523403,3
22,-0.85141027,-1.1505045,-2.2865868,1.3937248,4
23,0.17174439,0.01668778,0.9417395,-2.400415,5
24,-1.086246,0.4008714,-2.2177362,-0.6799527,6
25,1.1627874,-1.1243596,-0.78738225,-1.352623,7
26,0.47268775,-2.9633055,-0.340379,-1.9521657,8
27,-0.023173824,1.1431911,-0.073102,-0.8680458,9
28,-0.61979985,1.487225,-0.5933983,-0.99731624,10
29,0.3201438,1.6965263,-1.5852141,-1.0717511,11
30,-1.5352546,0.4009762,0.043537796,1.7849913,12
31,1.0824461,0.6462962,-0.028055727,-0.3564772,13
32,0.58411276,-0.85506755,1.4144522,0.73363876,14
33,0.62378776,1.7733521,0.99759185,-0.5924283,15
34,2.5780299,0.15885377,-1.1818924,0.6918304,16
35,0.12073277,0.057524547,0.8658672,-2.9602704,17
36,2.2648706,0.040804222,0.06838444,-1.7608551,0
37,1.3976384,-0.07533224,-2.1054032,-1.7579211,1
38,0.6205776,-1.5182831,-1.6285594,-0.8814411,2
39,0.65441173,-5.181677,0.05293429,1.5848825,3
40,-0.77780294,0.3956865,-1.1620746,0.93399405,4
41,0.7795825,-0.0952194,0.15035442,-3.206044,5
42,1.2150527,1.0105745,-1.8352704,-0.78306675,6
43,-0.2500561,-0.7227279,-1.3015552,-0.40612137,7
44,0.5281055,-3.1982102,-0.7395263,-2.480989,8
45,4.2494645,1.25382,-0.0524987,-0.7868028,9
46,1.2900112,0.91308236,-1.3529154,-1.4806712,10
47,1.331105,0.4788229,-1.0927577,-1.1874762,11
48,0.52576816,-0.91346264,-1.5703678,1.1521041,12
49,-1.2439326,0.21606222,-0.8649844,-0.4212597,13
50,-1.328391,-2.7938497,0.6731777,0.7712013,14
51,2.7653952,0.27864328,-0.14743724,-0.36005244,15
52,1.559212,-2.2769287,-1.1848171,1.2876046,16
53,2.8025324,-1.2684628,-0.98143905,-2.4309652,17
54,2.2684164,0.08829889,-0.88918257,-2.6365209,0
55,0.42273518,-0.4802894,-1.8370657,-1.9960771,1
56,1.9870639,-1.899959,-1.4819182,-0.49523464,2
57,2.2351825,-0.48801878,-1.8582053,1.388317,3
58,-0.20250633,-1.5223498,-1.1243749,1.1754669,4
59,-0.894196,-0.9334917,0.76352686,-2.6442244,5
60,-1.061618,0.9149492,-1.7520956,-0.6645464,6
61,-0.2882161,-1.1861652,-1.1422132,-1.012841,7
62,-1.4972771,-2.918631,-0.016258359,-0.30220938,8
63,1.2792364,0.9033971,-0.25920758,-0.89020723,9
64,0.0014111898,1.4784226,-0.3958408,-1.2280431,10
65,0.33132648,-0.26564276,-2.0217412,-0.7322008,11
66,2.3906264,1.2368248,0.046297014,0.7357465,12
67,-0.27482238,0.15630844,-1.7045561,-0.45436582,13
68,-0.6328719,-2.3700967,0.5047337,0.63986474,14
69,-0.7857199,0.035339892,-0.11801006,-0.62067515,15
70,0.93861073,-1.5980921,-1.6393874,0.9388886,16
71,1.7466756,0.41044703,0.39859802,-1.8337967,17
72,-0.77998245,0.045526177,-0.3516996,-1.8917098,0
73,1.0284319,0.5268478,-1.781239,-1.3383715,1
74,-0.024961172,-2.1956291,-1.2616513,-0.634075,2
75,3.7065322,-1.8458445,-1.9888558,1.841597,3
76,-1.8207576,-0.9459914,-2.6740897,0.43854588,4
77,0.8214618,-0.5954118,0.7017093,-1.0436158,5
78,-1.5825622,0.008896887,-2.1545,-0.63026303,6
79,-0.027239714,-1.7329617,-1.1293873,-1.4051344,7
80,2.219623,-2.8440118,-0.625725,-0.055624247,8
81,-0.453324,-0.30655885,-1.4965,-0.687552,9
82,-2.0865827,0.13546884,-1.4094777,-0.52486515,10
83,-2.0492797,2.697815,-0.4180882,-1.0234574,11
84,0.31381342,-0.5272085,-0.7581529,0.62247837,12
85,-0.46612996,-1.6708987,-1.6813897,-0.068246335,13
86,0.066130266,-1.5784777,-0.1623227,0.5922739,14
87,1.8046234,0.7023624,0.044206873,-0.4539027,15
88,0.3255235,-1.6118193,0.99913067,1.8069956,16
89,0.40041503,0.48029554,1.0608659,-2.082622,17
90,-0.032747038,1.0599318,-0.096655756,-0.84730846,0
91,1.4746882,1.1209255,-1.829691,-2.1991425,1
92,1.5354667,-1.830952,-1.4146382,-0.5324799,2
93,-1.8338209,-0.19934684,-1.8738896,1.1771412,3
94,-0.41082233,-1.1113838,-1.4535434,0.88534397,4
95,-1.0954555,-0.89645433,0.18542531,-1.5889143,5
96,0.6772097,1.1261289,-2.144814,-0.44521666,6
97,0.13508053,-1.1262411,-1.401134,-0.76067054,7
98,1.4104201,-2.9557247,-0.8233788,-0.46949875,8
99,1.548927,0.5760785,-0.76185584,-1.0200875,9
100,-0.2972586,0.18562967,-0.27646327,-1.2052145,10
101,0.0227819,-0.23047209,-1.9421601,-0.94204515,11
102,-2.2230096,-1.1352295,-0.5972682,1.20728,12
103,1.3143659,0.07912147,-0.75368786,-0.4991744,13
104,0.0069445744,-2.5335906,0.07759389,0.7660283,14
105,-1.0088264,1.3857528,0.9954487,-0.8515839,15
106,1.7097536,-2.0399268,0.22182822,0.6618476,16
107,-1.7904139,-0.14779647,0.18656017,-1.6781744,17
108,1.1437075,-0.64325655,-0.3272525,-0.95938265,0
109,1.6632631,-0.735803,-1.5215769,-0.8000781,1
110,-0.4197517,-1.3072042,-1.3851157,-0.5191227,2
111,1.4346067,0.5336205,-1.8517358,2.207682,3
112,-0.5536261,-0.45721525,-2.6887717,0.3864429,4
113,-3.244812,-0.7711655,0.6600048,-1.8071316,5
114,1.061401,0.5182986,-1.7252882,-0.56267,6
115,0.504331,-0.8101196,-1.7419424,-1.264227,7
116,-0.40669653,-2.8629699,-0.7282347,-0.38392717,8
117,-0.27201694,1.4277804,-0.6740352,-1.5253081,9
118,1.0708473,2.3723123,0.17431444,-0.3114823,10
119,-1.7611375,0.7273593,-1.4668394,-1.1525418,11
120,-0.82833683,-2.4534843,-2.2522335,1.3626404,12
121,-0.057177354,1.1457521,-1.3247054,-0.18133035,13
122,1.932821,-1.2658178,0.09177533,0.7380304,14
123,0.05333332,-0.27858195,0.5096171,-0.2555705,15
124,0.6553992,-1.0478281,-0.4815018,1.0381465,16
125,0.55139285,-0.12940131,0.19562171,-1.7168548,17
126,1.9230425,-0.06710401,-0.8425472,-2.7682638,0
127,1.910367,0.5647587,-1.4532381,-2.0542955,1
128,1.1642646,-2.8298762,-1.6410223,-0.61604345,2
129,1.1117127,-1.5616128,-1.6128905,1.8087065,3
130,-0.28012148,1.2889314,-2.48867,0.42248034,4
131,-1.038019,-0.90578437,-0.0030722022,-2.1753767,5
132,0.8817906,2.140145,-2.2160654,-0.39447778,6
133,-1.5475303,-2.3027687,-1.034487,-0.57944167,7
134,-2.2277787,-2.6945648,-0.4521941,-0.54848146,8
135,-0.86942756,0.87975746,0.024215817,-0.9607399,9
136,-1.2155035,0.42450455,-0.7064618,-0.6163212,10
137,-0.9447903,-0.07695091,-1.504488,-0.8188073,11
138,-2.145422,0.82947946,0.8953922,1.4640399,12
139,0.59240353,0.37292618,-1.3857031,-0.52106047,13
140,-0.27936727,-1.583271,0.41203365,0.6987411,14
141,0.19373049,0.5685512,0.3915013,-0.61208546,15
142,1.4300568,-0.42465895,-1.3129054,0.80865586,16
143,-1.1489035,0.46388018,-0.028805286,-1.8946713,17
144,1.6842811,-0.0055870116,-0.038873676,-2.4277794,0
145,-0.41341254,-0.44061196,-1.1806544,-1.1710497,1
146,0.32572687,-2.6661103,-1.7657886,-0.5153313,2
147,-1.0310745,-2.1436126,-1.1473843,1.5502361,3
148,-1.6830723,0.38273588,-0.883342,1.080985,4
149,0.60445344,-0.5443641,1.1245326,-2.1027627,5
150,1.8931572,-1.3944135,-3.0741925,-0.7031228,6
151,-0.63894063,-1.1430962,-1.1182013,-0.9806375,7
152,0.11957907,-3.2344127,-0.5785053,-2.350198,8
153,0.37467268,0.63288283,0.37689263,-0.61377025,9
154,2.882603,0.7239581,-0.25961643,-1.2437032,10
155,0.8571397,2.6891837,-0.5525684,-0.54942775,11
156,0.34058192,1.4695028,-0.6872919,1.439783,12
157,-1.3734056,0.6616655,-1.5100603,-0.50888515,13
158,-0.3802255,-2.2093253,0.24568331,0.4721273,14
159,-2.5921795,0.191405,-0.27407217,-0.998802,15
160,0.61615396,-1.580864,-1.0343108,0.74257946,16
161,2.516048,-0.7829042,-0.6799846,-1.8946092,17
162,2.2995257,0.08508888,-0.19113386,-1.2979485,0
163,0.3864436,1.4483303,-0.8290429,-1.0049579,1
164,-1.8798277,-1.8232388,-0.9052432,-0.68850136,2
165,1.8921003,0.35700175,0.26114,1.6401273,3
166,-1.7001841,1.6220984,-0.42752296,1.174707,4
167,1.7501396,0.35091817,1.7042899,-0.55025613,5
168,1.9182987,0.11983068,-2.0538683,-0.63874763,6
169,1.2739723,-0.3018458,-0.6022177,-0.9812135,7
170,0.14891501,-3.2857907,-0.8850473,-1.2048848,8
171,-0.2818337,0.19540936,-0.9513362,-1.015704,9
172,-0.29258275,2.0136037,0.2870347,-0.95861346,10
173,-1.6962799,2.6024425,-1.7661072,-1.3977771,11
174,1.522499,1.0140607,-0.08082974,0.8874663,12
175,0.44997203,0.10754332,-0.6956606,-0.3666661,13
176,0.27593982,-1.3755087,0.40565684,0.7507832,14
177,-0.035908535,0.6505735,0.20368667,-0.5145505,15
178,0.2099768,-2.2104154,-0.86540234,0.98232174,16
179,0.6666262,-0.17490335,0.39288214,-2.695735,17
180,-0.91772014,-0.2603386,-0.39562556,-1.8536752,0
181,-0.61944973,0.9262216,-1.3906302,-1.1272527,1
182,-0.12476749,-2.3384244,-1.9515085,-0.28025672,2
183,-1.5862033,-2.2709057,-1.5626843,0.50895965,3
184,0.06895925,3.559474,0.25253963,0.9745262,4
185,1.2348058,-0.32781157,1.1393795,-1.5632557,5
186,1.890545,0.7289587,-1.1228979,-0.6591626,6
187,0.363379,-2.2949772,-1.3520939,-0.9111451,7
188,1.4858991,-2.4899201,-0.13298905,-1.2315235,8
189,1.9697392,0.421713,-0.3716054,-0.6879886,9
190,-0.7349713,1.0672579,-0.8180728,-0.77704513,10
191,-0.63946193,-1.1648767,-1.9122958,-0.7984374,11
192,0.8656316,-0.20207138,-0.87537575,1.3109205,12
193,0.5118349,1.3357887,-0.49498707,-0.14215827,13
194,-0.13775314,-1.863385,0.14388365,0.50043476,14
195,0.7684191,0.88756806,-0.1022314,-0.5298334,15
196,0.53080064,-1.7642303,1.6989715,2.1583958,16
197,-0.9220955,0.09120832,0.3556665,-1.5751841,17
198,0.2697897,0.62420225,0.09408802,-2.0864239,0
199,-0.60559434,0.044799194,-1.1358529,-1.510998,1
200,1.6352025,-0.94055855,-1.2934581,-0.79854923,2
201,2.1980925,0.16645496,-3.0934758,1.4290444,3
202,-1.4001318,0.29078752,-1.2191074,0.8248819,4
203,-2.1385033,0.19376796,0.99764127,-2.1613426,5
204,-0.1431739,1.8170623,-1.723907,-0.79318976,6
205,0.2645645,-0.69898057,-0.81522524,-0.88468194,7
206,-0.4339198,-2.986756,-0.68155384,-1.065177,8
207,0.11946275,1.1207156,-1.1823206,-0.7671431,9
208,1.0962538,0.3544689,-0.4218861,-1.1735084,10
209,2.6188347,0.8759663,-1.1264361,-1.4279664,11
210,-1.1386554,-0.8235865,0.18028617,1.4967694,12
211,0.57597774,1.3093945,-1.2905309,0.02450928,13
212,1.7394998,-1.6325886,0.6686212,0.69258916,14
213,0.35191828,0.059882462,0.11024031,-1.0342975,15
214,1.1681746,-0.27535713,-0.65586674,1.1316502,16
215,-1.4550508,0.6020664,-0.081653744,-1.9989238,17
216,-0.75931305,-0.884289,-0.69193697,-2.3556945,0
217,1.0613203,1.0848157,-1.2351543,-2.1744733,1
218,2.2342849,-2.0015492,-1.684165,-0.6431994,2
219,0.60773253,3.0932143,-1.3795133,1.9111385,3
220,-0.5986188,-0.86633575,-2.8160095,0.521762,4
221,0.38963157,-0.7241779,1.1238818,-2.4171684,5
222,-1.1048378,-0.40241703,-1.6167917,-0.5278299,6
223,0.40836668,-2.9172163,-1.1017505,-1.2311707,7
224,0.66174066,-3.4099636,-0.08804241,-1.6503189,8
225,-1.460432,0.596322,-0.47423846,-0.93769044,9
226,-1.2770559,0.15155452,-1.0196798,-1.1406806,10
227,0.20705497,1.3835282,-0.20347548,-0.91376024,11
228,0.33242223,0.6670981,-0.575277,0.9993584,12
229,0.07368468,1.8217086,-1.2507496,-0.16832729,13
230,0.86103237,-1.6431721,0.04809344,0.4261464,14
231,3.1959753,0.35468903,0.30736798,-0.5190455,15
232,-1.8640897,0.3065101,0.41827172,0.8915977,16
233,-1.590461,0.5115715,0.119232535,-1.2601144,17
234,-1.4934461,-0.2678123,0.024685945,-1.333186,0
235,0.56272924,0.08397624,-1.7419165,-1.838214,1
236,0.10752014,-3.1776397,-1.4547584,-0.6808708,2
237,0.72620904,-0.010553818,-0.576828,1.0582534,3
238,-1.1642274,1.8672227,-2.0505729,1.247079,4
239,-0.96917284,-0.4442037,0.75979805,-0.8007383,5
240,-0.1379726,-0.73093486,-2.3044796,-0.5554651,6
241,-0.7404488,0.11272979,-1.178108,-1.016603,7
242,-2.7001474,-3.364797,-0.8751252,-1.744617,8
243,1.2330672,1.1577755,-0.4590307,-0.7593821,9
244,1.0592686,-0.5291892,-1.2482755,-1.4988375,10
245,-0.06588551,1.933312,-1.0557038,-0.9705265,11
246,0.078411356,-0.04030994,-1.1240067,1.1175053,12
247,-1.6582583,2.3434346,0.34036946,-0.48055995,13
248,-1.2319157,-1.8154305,-0.4887389,0.264787,14
249,-0.42394188,0.6785555,0.3469752,-0.96485645,15
250,1.2566952,-0.78034705,-0.49968424,0.7372397,16
251,-1.3328302,0.65568864,0.81304866,-1.5431821,17
252,-3.0180562,0.10120626,0.023368549,-2.2574277,0
253,-1.7974132,0.4267224,-2.2875829,-1.9984257,1
254,1.7946262,-2.254744,-1.1716313,-0.7554374,2
255,0.51299655,-3.1996253,-2.2115502,2.091234,3
256,-1.810855,-0.08455008,-1.0788329,1.440722,4
257,-0.76613456,-0.031014383,0.56956625,-1.9050499,5
258,0.23036148,-1.8131403,-4.356665,-0.701087,6
259,-0.11293082,-1.318577,-1.1656704,-1.0450133,7
260,1.8262935,-2.864636,-0.5679896,-0.9753555,8
261,-0.08809088,1.039884,-0.39514428,-1.4662362,9
262,0.90409523,0.6564866,-0.29996708,-0.4857206,10
263,0.047278076,0.39615834,-2.681683,-0.84826577,11
264,-0.11195314,-0.7277915,-0.9142579,1.3379052,12
265,-1.5051379,0.53473854,-0.49279577,-0.017145872,13
266,-1.1856143,-2.8195374,-1.8186579,0.10243964,14
267,1.9225289,0.7014656,-0.26499993,-0.80570024,15
268,-0.39711413,-0.10522103,0.062643826,1.9405088,16
269,-0.007795181,-0.089195326,0.076803565,-1.9063075,17
270,-0.5094638,0.6487485,0.4842323,-0.38819754,0
271,-1.456429,0.26138332,-1.6206312,-0.9189588,1
272,-0.80622405,-1.8764756,-1.5848305,-0.65158874,2
273,0.4004447,-1.1485978,-0.7318404,1.5118502,3
274,-1.4146873,0.72776663,-0.59268165,1.9401436,4
275,-0.48132443,-0.85818744,0.014649868,-1.6225542,5
276,-0.5638057,1.8285117,-1.9999759,-0.5277379,6
277,-0.0713511,-1.3429754,-0.49649847,-1.1035892,7
278,-0.33009678,-3.4252565,-0.298082,-0.8464885,8
279,-2.6102765,1.4125646,0.5917587,-1.1073498,9
280,-0.19364917,-1.487994,-1.7130473,-1.0995121,10
281,0.5488244,-0.36465192,-1.8327065,-0.73267984,11
282,-0.31963468,1.5225426,-1.2488487,1.1431751,12
283,-0.7984654,1.8312621,-0.36926097,-0.27017474,13
284,1.4309375,-1.0220321,-0.5676501,0.101130426,14
285,-0.29519263,0.048429936,-0.042675465,-1.2028043,15
286,1.7984083,-1.584112,-0.59735346,1.8523748,16
287,3.5511744,0.4063933,0.6364905,-1.1517104,17
288,-1.8120415,0.10290933,-0.016755637,-1.6780701,0
289,1.5682274,-0.37132925,-2.0657773,-1.6352255,1
290,0.57921064,-2.1722634,-1.1040336,-0.46611866,2
291,0.7268781,-0.7967871,-0.18566495,1.772391,3
292,-0.65586495,1.1652017,-1.4965142,1.4391509,4
293,1.1075319,-0.4125965,0.4069698,-1.9138625,5
294,2.2956467,0.82239854,-1.9998612,-0.3180001,6
295,-1.0475504,-1.9254224,-1.240532,-1.1580989,7
296,-0.30353957,-3.025326,-0.25428116,-2.129687,8
297,2.029333,0.40486205,-1.1224182,-1.2143826,9
298,-2.1473508,0.7046945,-1.5548738,-1.0195447,10
299,-0.27673554,1.0973679,-1.1757702,-0.9216542,11
300,2.2755475,-1.1990079,-0.8210654,1.140327,12
301,2.6845589,-0.06691757,-1.7931688,-0.12897822,13
302,0.25996238,-1.5283194,0.6871679,0.40686935,14
303,-1.9822505,0.27072522,-0.94380015,-1.3664496,15
304,-2.5656488,-1.2309797,-0.44668078,1.2815396,16
305,1.4496868,0.14433393,1.3084879,-1.8614388,17
306,0.6645118,0.20067376,0.16992745,-1.7870173,0
307,-0.038912244,0.05323291,-2.1725607,-0.9604194,1
308,-2.4244587,-2.818951,-1.460641,-0.54377866,2
309,0.7667515,1.8504862,-1.9362593,1.1033111,3
310,1.0334941,-0.059711188,-1.2229936,0.726755,4
311,1.406412,-0.26885974,1.202423,-1.7186927,5
312,1.0233268,0.8444629,-1.9570653,-0.45025396,6
313,2.2312055,-1.9978368,-1.4697876,-1.5622476,7
314,-0.7461442,-3.033557,-0.66694117,-1.915747,8
315,-1.2560444,1.324161,-0.6616483,-1.1470691,9
316,1.8306826,1.9984187,0.18151355,-0.5631967,10
317,0.029559366,3.6941655,-0.47868454,-1.1924472,11
318,0.4275496,1.7151915,-0.7530226,1.1531038,12
319,-1.2994902,0.8048545,-0.5962261,-0.25336272,13
320,0.124465875,-0.5954834,0.35783276,0.31209284,14
321,0.7809677,-0.16983709,-0.4581462,-1.0383692,15
322,0.83255786,-1.1530985,-0.4917436,0.84861016,16
323,1.1431171,-0.12105705,0.016030401,-1.6192636,17
324,-1.9220726,0.12855741,-0.44905314,-1.488537,0
325,-1.8709035,-1.2024914,-3.3273084,-0.929432,1
326,1.0456418,-2.5644321,-1.3992642,-0.31936556,2
327,-1.4321171,0.07791223,-1.1416548,1.802036,3
328,-1.1841528,0.654415,-1.0850313,1.5881625,4
329,0.20405069,-0.7905054,0.12442073,-0.96566504,5
330,0.35339272,-0.8277806,-2.5580802,-0.68016815,6
331,0.8911901,-0.81307596,-2.0841684,-0.97620547,7
332,0.6010648,-2.9567778,-0.52570236,-1.0277761,8
333,-0.16346772,1.3464046,-0.07112694,-0.6819922,9
334,-0.70849043,-0.23280442,-1.3536775,-1.2155764,10
335,1.6960306,-0.2798035,-1.6008196,-1.0388277,11
336,-1.632694,1.5347409,-0.13068426,0.6640688,12
337,-0.50729877,0.962245,-0.7798609,-0.3828516,13
338,1.0601332,-1.9608421,-0.35189107,0.10138619,14
339,0.7369942,1.2703875,0.094059244,-1.2212777,15
340,-0.066965215,-1.5559642,-0.060785204,1.1466367,16
341,-1.2691351,-0.42079484,0.15312651,-2.2171519,17
342,1.5244726,0.6755439,0.20952135,-0.882478,0
343,-1.6849961,-0.3408299,-1.7683499,-1.0218725,1
344,0.2057789,-2.1423376,-1.6991451,-0.36735767,2
345,-0.63648295,1.0089033,-0.7486649,1.2968357,3
346,-1.400356,-0.11063838,-0.6449881,1.028226,4
347,-0.8640206,-0.5980975,0.32819128,-2.0255904,5
348,-0.25081247,0.45446572,-2.0586073,-0.6985667,6
349,-0.7140155,-2.8263524,-1.5369891,-1.095674,7
350,-1.0039656,-3.039453,-0.45891896,-1.1715266,8
351,0.2802332,-0.9437262,-2.3535428,-0.85217214,9
352,-0.9648399,1.8012741,-0.48361346,-1.1463944,10
353,1.5984949,0.9207978,-1.5525979,-0.91986173,11
354,-1.0418775,0.8036286,-1.2646401,0.6994493,12
355,-0.3576429,0.540318,-0.95331854,-0.34028822,13
356,0.6790892,-2.1137657,-0.7938225,0.20859683,14
357,-0.8374065,-0.064867646,-0.2785965,-0.7176276,15
358,-0.7829761,-0.5376638,0.6576268,1.2643862,16
359,-1.2783223,-0.959529,-1.4946868,-2.31545,17
360,1.0464884,1.3126208,-0.111205816,-1.3201195,0
361,-0.6325661,1.6881682,-1.7212801,-1.8536694,1
362,0.32764393,-2.745547,-1.7874887,-0.5289464,2
363,-3.3946688,-1.0230162,-0.89489865,1.0765944,3
364,-2.189247,1.2939973,-1.4017036,0.74212265,4
365,-0.105870195,-0.8712822,0.2418854,-1.974295,5
366,0.22049749,0.66601443,-1.3263924,-1.0663048,6
367,-2.3020546,-3.4309845,-1.6415818,-1.322942,7
368,2.6000109,-3.5325065,-0.7423932,-2.0482469,8
369,-3.0005815,0.9047682,0.38403195,-0.37408704,9
370,1.0700538,1.0232192,-0.021965683,-0.30922943,10
371,1.0200478,2.1247954,-0.72148937,-0.9626545,11
372,-0.99682224,0.28940538,-1.0791065,1.2458797,12
373,-0.44319478,0.5915838,-2.2245517,-0.46299812,13
374,0.38562146,-2.4170647,-0.4058409,0.29557902,14
375,-0.36720294,-0.82950354,-0.5796782,-0.47912264,15
376,0.44000396,-1.4091129,0.56999594,1.0224366,16
377,0.0063466653,-0.6478519,0.15996546,-1.356409,17
378,-1.8917205,-0.5168126,-0.798346,-1.2507396,0
379,2.0168114,-0.03524871,-0.96130705,-0.3960693,1
380,0.7987993,-2.0160968,-1.3782177,-0.251935,2
381,0.78006005,0.64275557,-0.66972554,0.9550147,3
382,1.1965575,-0.2912389,-1.6071386,0.7839079,4
383,1.1529595,0.03688392,1.3706439,-1.7625743,5
384,1.089328,-0.040662378,-1.8741369,-0.34217092,6
385,0.98101676,-1.939872,-1.5787098,-1.0072998,7
386,0.80257565,-3.2935376,-0.26986462,-1.5884097,8
387,-1.7259215,0.5554293,-0.57518363,-1.4301962,9
388,3.3802633,1.1841804,-0.7020291,-0.6211408,10
389,-0.28200087,0.5179002,-2.5415583,-1.005125,11
390,-0.7964555,0.1753994,-0.24576002,1.2682136,12
391,-0.79952794,0.42001837,-1.1554165,-0.42788422,13
392,1.7624844,-1.9972044,-0.5983522,0.50884604,14
393,-1.2078875,-0.6595571,-0.6354271,-0.48598704,15
394,-1.219585,-2.183188,-0.08586529,0.96981895,16
395,1.7896187,1.561292,1.9247227,-2.2447534,17
396,0.25765574,-0.041848242,-0.50870365,-1.1607273,0
397,-1.6446909,3.2401786,-0.99295616,-1.1827259,1
398,2.1120253,-1.572789,-1.813264,-0.72319746,2
399,-0.17071123,-0.14623162,-0.20557946,1.220702,3
400,0.16179444,1.1411439,-2.3607178,0.839437,4
401,-2.6389122,-0.43539563,0.68764937,-0.39946413,5
402,1.3499819,3.0000868,-1.0075159,-0.7787805,6
403,1.8803293,-0.69351315,-1.4347492,-1.7645319,7
404,0.33167493,-2.8691812,-0.62258255,-0.91662556,8
405,-0.2714214,1.4306275,-0.4713386,-1.3003058,9
406,0.4935379,0.7374575,-0.2757584,-1.1429715,10
407,2.3759153,1.7114835,-0.45140314,-0.96461004,11
408,-0.700716,-0.71118873,-1.9209263,0.9053888,12
409,-2.8441641,1.1871239,-0.71421105,-0.54708457,13
410,-2.1594474,-2.4650748,-0.9863833,0.3079558,14
411,-0.7414337,0.52769357,0.117656425,-0.90084225,15
412,0.10655162,-3.2247505,-1.4921074,0.53339285,16
413,1.2684264,0.64368343,0.82549596,-2.3620408,17
414,1.2071928,-0.49787188,0.10509828,-1.6691017,0
415,-0.31844616,-0.18453316,-1.4091915,-1.5543909,1
416,0.12065926,-2.6109662,-1.3003559,-0.5872512,2
417,-0.15614906,-0.39762107,-0.68160415,1.7590806,3
418,0.1739046,1.6661448,-1.9450188,1.5431485,4
419,-0.10056367,-0.18579245,0.7205671,-2.5270617,5
420,0.77083534,0.72130287,-1.4222441,-0.8023974,6
421,1.0492109,-1.1452758,-1.8382621,-1.3089103,7
422,-0.51089346,-3.1926231,-0.5233992,-2.7871313,8
423,-0.7452253,1.624924,-1.2779753,-0.7496542,9
424,0.8252781,-0.60202,-1.5845263,-0.5083052,10
425,1.6823835,-0.46961427,-1.8775706,-1.0585736,11
426,2.1604822,-0.75484496,-0.5815306,1.0343487,12
427,-0.84631383,-0.70642066,-1.4160124,-0.3529055,13
428,2.1395016,-0.71203315,0.28304732,0.5698974,14
429,-0.22199011,0.7458675,0.69714266,-0.36382067,15
430,-0.27688897,-0.535474,0.1551373,0.5863634,16
431,1.1857169,0.075369,-0.38467228,-2.1715693,17
432,-0.7404636,0.72560495,0.05529813,-1.4514964,0
433,1.0005151,1.4928534,-1.6710591,-2.1416643,1
434,-0.8153497,-2.1172628,-0.98685336,-0.77273875,2
435,0.45348573,-0.57120055,-1.5896137,1.8450718,3
436,-1.332928,1.2464027,-0.95421296,1.0495001,4
437,0.985471,0.2736433,0.9054135,-1.2026553,5
438,0.4321329,-0.2575991,-1.9985676,-0.9793043,6
439,0.90658605,-2.3972292,-2.2211561,-1.8017869,7
440,-0.96221745,-3.201497,-0.80615914,-1.1892521,8
441,-0.44441527,0.80271465,0.0011709332,-0.83167917,9
442,1.8614441,0.38880083,-0.54488397,-0.29540384,10
443,2.416579,0.5528514,-1.3791041,-0.97625864,11
444,0.8021506,0.5503022,-0.68159276,1.8609781,12
445,2.6059506,-1.2474848,-0.7042439,-0.68942153,13
446,0.99672616,-1.1985449,-0.487903,0.6564578,14
447,-0.7453478,1.7898837,0.3899712,-0.6453546,15
448,0.45935565,-0.80588984,0.7776298,0.74040884,16
449,1.6753116,0.3847552,1.1050255,-2.824824,17
450,1.9585178,0.18659464,-0.36424243,-1.7797451,0
451,0.050995145,-0.9663909,-1.2171786,-0.7747139,1
452,0.35515338,-1.904367,-1.1571053,-0.42152497,2
453,2.2669485,-1.3736688,-1.3302265,1.8693938,3
454,-0.64303,2.8837495,-0.5615424,0.44355983,4
455,0.9175133,-0.43972334,1.3004501,-1.0572516,5
456,-1.4906095,1.6627474,-1.6639398,-0.8387671,6
457,-2.290848,-1.3284479,-1.4964851,-0.69125116,7
458,0.92594427,-3.1403596,-0.5960272,-1.22937,8
459,-1.3738486,0.04447651,0.02487111,-0.41888845,9
460,-1.1784424,-0.707253,-1.0160125,-0.6647276,10
461,0.09993655,-0.036458552,-2.3677301,-0.57227075,11
462,-1.6236075,1.6043009,0.16512603,1.3615083,12
463,1.6218389,-1.5354326,-1.9915175,-0.65169096,13
464,-1.9693671,-1.684799,0.46250382,0.5832286,14
465,-1.4795796,0.47901043,0.007638678,-0.95880073,15
466,-2.7107542,-0.12175226,0.74889356,1.1704736,16
467,0.5235,-0.20756723,-0.29951608,-0.6410996,17
468,-0.9137322,0.17180693,-0.52872956,-1.8867359,0
469,1.4229152,1.2667145,-1.3756368,-1.5731592,1
470,0.78723544,-2.4490957,-0.9834643,-0.44672343,2
471,-0.6946107,-2.816247,-2.5791879,1.3307022,3
472,-0.48539078,0.42977703,-1.388894,1.2147758,4
473,1.3858279,-0.68060106,-0.20294976,-1.4504752,5
474,-1.6778958,0.21753201,-1.799704,-0.81041306,6
475,-3.604251,0.2601856,-0.76513064,-1.0219411,7
476,2.1033516,-3.3496742,-0.94058955,-1.1886579,8
477,-0.15155245,0.78941524,-0.6744728,-0.7243224,9
478,0.18596023,-0.07559252,-1.4277067,-1.0253665,10
479,1.8268397,1.1249952,-1.3633823,-0.97474116,11
480,-0.5498587,-0.3940127,-1.4721096,1.4891759,12
481,-1.356943,1.069459,-1.0012093,-0.17924319,13
482,0.41413063,-2.208679,0.31634003,0.70629597,14
483,-1.7483307,0.10719153,-0.28699148,-0.5392934,15
484,0.68457085,-3.1053011,-0.38464445,1.065009,16
485,0.3030035,-0.1329676,0.6805955,-1.4136784,17
486,1.3163847,0.66687125,-0.14933404,-1.4582582,0
487,0.65597093,-0.51064616,-1.5473428,-1.4996808,1
488,0.74814075,-3.1739569,-1.823282,-0.6406147,2
489,-1.7535505,0.7732307,-2.292293,1.1457992,3
490,-1.0264338,3.0744624,-1.8490914,0.66485757,4
491,1.0786006,-0.34709856,0.38227773,-2.3922894,5
492,0.580037,3.8183062,-0.19523358,-0.5108111,6
493,-0.010384381,-1.8519878,-1.5881692,-1.3948339,7
494,0.15428151,-3.3732443,-0.683922,-2.15103,8
495,-1.1169691,0.2925403,-0.5163188,-0.9326472,9
496,1.4065732,-0.46064246,-1.5770187,-0.66860235,10
497,0.3360859,1.0705973,-1.5205843,-0.7671157,11
498,-0.7125226,-0.80262727,-0.2876355,0.6836333,12
499,1.1889238,-0.52377534,-1.3292761,-0.49956587,13
500,0.68967354,-2.4049306,-0.48097226,0.17316446,14
501,1.9248086,0.48720184,0.2610011,-0.25567538,15
502,1.1297011,-1.4461513,-0.26873022,0.9640634,16
503,4.6757364,0.5126629,0.4850247,-2.530603,17
504,0.18896239,0.17411831,-0.061300572,-2.6574926,0
505,-0.5438984,0.57001615,-1.0875416,-1.7200285,1
506,-3.3827004,-2.3565912,-1.8148943,-0.59028333,2
507,-0.45831057,2.1387541,0.063821554,1.2600608,3
508,1.8435931,-0.22104812,-1.325028,0.7331836,4
509,-1.1155293,-0.3372022,1.1798395,-1.9038807,5
510,0.82940197,-0.67750144,-0.7990385,-0.54900104,6
511,2.008268,-1.307025,-1.5136827,-0.6850138,7
512,1.1132624,-2.7783132,-0.72972745,-1.7210546,8
513,-0.49205896,1.5409777,-0.26671246,-0.6603198,9
514,-1.7237595,2.021837,0.9603593,-0.5218519,10
515,-0.07076861,0.12097263,-1.6671355,-0.44988346,11
516,-2.0986576,-0.3684341,-0.11433685,0.76087147,12
517,-2.1611447,-0.26276407,-0.67068446,-0.28153282,13
518,0.041861445,-2.3847926,-0.42267397,0.64873546,14
519,1.5677677,0.17087205,0.029154748,-1.1820174,15
520,1.6402448,-0.8615646,0.61418897,0.75058216,16
521,0.34634292,0.36774945,-0.015134931,-3.5151062,17
522,-0.21042983,0.317396,0.26253727,-1.1922554,0
523,-0.7586997,0.18656471,-1.4043463,-1.7579397,1
524,-0.6873171,-3.5043435,-2.053141,-0.71819466,2
525,-0.27184042,-0.26467943,-0.92000175,1.4681082,3
526,-2.2148852,2.352476,-0.030184388,1.5168155,4
527,0.18838674,-0.3342749,0.6003079,-2.0771303,5
528,0.5733706,0.62299377,-2.03855,-0.9586677,6
529,-2.0225112,-2.453,-1.0703397,-1.1853687,7
530,-0.46754053,-2.9720807,-0.6240297,-0.82470113,8
531,-0.948097,0.26814038,-0.1636678,-0.38946813,9
532,-1.2540566,0.5736524,-0.39551032,-0.90085626,10
533,2.869546,2.1246433,-0.63329774,-1.0762764,11
534,-1.3072312,0.64872366,-0.9072691,1.4581095,12
535,-1.9319665,0.0974423,-1.153522,-0.24968792,13
536,-1.9788569,-0.74554574,0.81350636,0.41005722,14
537,-0.5787932,0.31934288,-0.11634747,-0.94638675,15
538,1.3752761,-1.9977046,-0.7409805,1.2272183,16
539,-1.8542094,0.011668488,0.013583541,-2.8245127,17
540,0.80708116,-0.54615194,-0.49304488,-1.4948239,0
541,2.0565362,3.2363687,-0.34420955,-2.3187172,1
542,0.44488657,-2.0955696,-1.5689145,-0.6081676,2
543,0.96795136,-0.10867797,-0.9198574,1.9749552,3
544,-2.0488002,2.7277732,-0.7881076,0.87733316,4
545,-0.6139844,-0.24828994,0.5465349,-2.2846892,5
546,-0.15818861,-0.37691155,-1.6083457,-1.0195847,6
547,-0.83358324,-1.308131,-1.1095881,-1.7086439,7
548,0.048387393,-3.2304082,-0.9013394,-1.3928795,8
549,0.387923,0.75009096,-1.1890252,-0.10170239,9
550,0.4602501,1.3142512,-0.5763327,-0.8746623,10
551,-1.5546862,0.4591441,-1.236581,-0.5719033,11
552,0.990662,0.6952079,0.3861363,0.8489143,12
553,0.23914927,1.1219058,-1.0256433,-0.2860978,13
554,-0.35949308,-1.3537586,0.86936903,0.78876716,14
555,1.7536725,0.5908855,0.36729974,-0.5578173,15
556,-1.0923631,-1.1211283,-0.4181673,1.6403422,16
557,4.073939,0.19483575,-0.48322934,-0.9225606,17
558,0.7069254,0.17311564,-0.23889807,-2.502567,0
559,-0.94354945,0.43705094,-0.8102511,-0.38679326,1
560,-0.8650585,-3.4316115,-1.5075096,-0.5211553,2
561,1.4287052,1.056967,-1.492973,0.73241913,3
562,-0.6947429,-0.58403295,-1.7798647,0.6472231,4
563,-1.1484861,-1.0731041,-0.12256944,-2.5039902,5
564,-3.0483925,1.2241286,-2.00009,-1.2282989,6
565,-1.7521257,-0.7410127,-1.1725999,-0.79828024,7
566,0.3412453,-3.1057475,-0.53774256,-0.93748796,8
567,-1.739611,2.3198233,0.79297805,-0.81039083,9
568,-2.4620137,1.1269847,-0.081967294,-0.7228065,10
569,-0.1563178,-0.6340716,-1.3285804,-1.0728776,11
570,2.3134372,0.46629494,-0.20227385,1.2480102,12
571,-0.05822995,-0.32814822,-2.0080297,-0.5301594,13
572,0.96857685,-1.5835065,0.4384261,0.74199045,14
573,-0.8702421,0.31416163,0.49199718,0.01876074,15
574,-0.7907703,-0.85461974,-0.2732636,0.76704144,16
575,0.6601451,0.5228461,0.8822315,-1.5251257,17
576,1.4334608,-0.13577312,-0.6011105,-0.9252653,0
577,0.19259714,1.4083023,-0.40426707,-1.2919238,1
578,-0.8274641,-2.384283,-2.1748054,-0.5032056,2
579,1.3500023,-0.49237493,0.3194579,1.2543949,3
580,-1.1040043,-0.39910948,-1.700228,1.1658572,4
581,-2.292839,-0.32044166,0.20550048,-2.345533,5
582,-0.088530496,0.217912,-2.4033136,-0.2594447,6
583,-1.9246414,-1.4040303,-0.9436457,-1.1996329,7
584,-0.03664725,-3.2566507,-0.11217013,-1.2091073,8
585,-2.3774214,0.7142642,0.18175322,-1.1388314,9
586,-0.48332694,-0.650064,-2.0606618,-1.2601739,10
587,1.0231652,0.68763095,-1.5036407,-1.0095718,11
588,0.042044386,0.43454567,0.4420426,1.4996897,12
589,1.7297707,0.95027024,-0.15867144,-0.516902,13
590,-0.39122313,-1.0673555,-0.048258096,0.51462674,14
591,-0.29026327,0.3319958,0.12463234,-0.9049164,15
592,-1.5146512,-0.7868883,0.25052935,1.2183232,16
593,0.8195014,0.031547055,0.47964925,-0.16485298,17
594,-0.746111,0.4148218,-0.12569731,-1.2156513,0
595,-0.04322359,1.2678356,-1.103099,-1.4799739,1
596,1.3543503,-2.3472755,-0.99493176,-0.65300345,2
597,-0.4918696,1.008292,-1.8389323,1.7977114,3
598,2.0323265,2.5924225,-1.16518,0.8429208,4
599,0.40632036,-0.48688388,0.010146618,-1.3010254,5
600,-0.9658381,0.42438692,-2.096931,-0.39262372,6
601,-2.14992,-2.0413458,-1.8608305,-0.3734572,7
602,0.3375721,-3.3608377,-0.46728635,-1.5952057,8
603,0.6326431,1.7129979,-0.20566279,-0.8612807,9
604,0.17430726,-0.87840116,-2.1579115,-1.0083188,10
605,0.59467334,-0.42347145,-0.72828186,-1.1472344,11
606,2.2912357,-0.7639643,-0.28769755,1.6703342,12
607,-0.12290112,0.9893367,-1.3452927,-0.080827326,13
608,1.5998386,-1.6681722,-1.4080998,0.05958399,14
609,-1.4939708,-0.05918917,-0.79561865,-0.7431872,15
610,1.9786336,-1.5133206,-0.2812975,1.1371044,16
611,0.3311134,0.016539231,0.5199012,-2.3706455,17
612,-1.0209309,0.06616785,0.19006711,-1.4119476,0
613,-0.6614637,0.44966215,-1.597714,-0.8710584,1
614,2.7697263,-2.8043332,-1.5512923,-0.8224304,2
615,-1.1339297,2.159872,-1.2403433,1.0341864,3
616,-0.8028288,-0.060078174,-1.4111778,1.5433239,4
617,-0.10334668,-0.13488969,0.5603043,-1.655103,5
618,0.26659238,-0.7918402,-2.3277054,-0.67255276,6
619,2.0082397,-3.6979477,-2.0037332,-1.6179138,7
620,-1.5326998,-3.0133147,-0.5814612,-1.3629848,8
621,0.2547968,0.7590137,-0.8473378,-0.70881873,9
622,2.1060262,0.65632856,-0.6870788,-1.6907089,10
623,0.24151722,0.28349996,-1.0445122,-0.7918402,11
624,0.6587604,-0.6224991,-1.1319029,0.45253515,12
625,-0.440621,2.020099,-0.65272725,-0.16711375,13
626,-0.40294272,-1.7715638,-0.6122166,0.36565387,14
627,0.09557178,0.42271632,-0.372406,-0.53303254,15
628,1.0100911,0.27301967,-0.9227983,1.3357706,16
629,-1.1954683,-0.7010509,-0.9503314,-1.6089469,17
630,-0.21982881,-0.39705783,-0.32474896,-0.62104213,0
631,-3.2451022,-0.4253152,-1.7660335,-1.2144071,1
632,-0.474568,-2.0597801,-2.0555274,-0.1454438,2
633,1.4151562,1.3838277,-0.30625385,0.9466573,3
634,0.033333145,-0.20431638,-1.4348818,1.2396048,4
635,0.0055519193,-0.5621905,0.70898324,-2.466017,5
636,-0.49969843,0.3708022,-1.586699,-0.45528778,6
637,2.8143616,-0.7166544,-1.2092221,-1.0161408,7
638,2.020559,-3.624429,-0.43128192,-1.0856951,8
639,0.5836406,1.0310888,0.16255546,-0.88416344,9
640,-1.0147136,-1.3078885,-2.2923932,-1.087303,10
641,0.43346274,2.0391216,-1.2370037,-0.47477478,11
642,1.8739731,2.728592,-0.331331,1.2282096,12
643,0.7817538,-0.77497387,-2.0392396,-0.75001144,13
644,-0.10252021,-1.5318018,-0.77508533,0.2326764,14
645,-0.475689,0.67642665,-0.8152512,-0.8256024,15
646,-0.20548286,-0.015569687,-0.6081827,0.77613443,16
647,1.3083085,1.0052617,1.9164162,-1.4620659,17
648,-0.8260577,0.39594996,-0.62414616,-1.1898792,0
649,1.2162309,-0.8793908,-0.46785963,-1.6507517,1
650,1.6093116,-1.5494219,-1.4809326,-0.6353936,2
651,-0.54068905,0.46200463,-1.8960704,1.0379466,3
652,-1.7230288,-0.008940905,-2.0253575,0.7766492,4
653,-4.610332,-0.24620698,0.24246511,-2.463368,5
654,1.3611349,-1.1312578,-1.0504017,-0.48953545,6
655,-0.9854269,-0.028445244,-0.79939514,-0.94377214,7
656,-0.25096175,-3.2928665,-0.73340446,-1.1385239,8
657,-0.7562158,-0.039195776,-0.5249946,-1.8581791,9
658,-1.0512918,-0.26830924,-0.42980736,-0.7210281,10
659,0.7266668,1.8179001,-0.75311273,-0.88472444,11
660,-1.4538385,-0.0033213608,-0.6988462,1.2548668,12
661,-0.070893936,0.03565088,-1.5653367,-0.5744796,13
662,-0.9665717,-1.7593342,0.8839333,0.6314039,14
663,0.5039849,1.8255361,0.20512499,-0.038294613,15
664,0.9928496,-1.8865931,-0.024128586,1.2214358,16
665,-0.5363185,0.03039284,0.18111598,-2.371218,17
666,-1.6039377,0.5372491,0.0052780323,-2.727086,0
667,0.1880747,-0.10271524,-1.446996,-2.2921007,1
668,-0.7153968,-2.7027848,-2.0037973,-0.8289106,2
669,-0.17973424,0.090932794,0.30495322,1.643954,3
670,-0.9074568,0.22507447,0.049309254,0.9633611,4
671,-0.6062346,-0.55492675,0.7082055,-1.0983934,5
672,2.9336102,0.10129097,-1.9915906,-0.7202305,6
673,-1.4440107,-0.85995126,-0.8849323,-1.1002676,7
674,-1.428228,-2.9693682,-0.3903363,-1.2718991,8
675,1.0776539,-0.3617679,-0.95979446,-0.845587,9
676,0.16179253,0.7183794,-0.29758996,-1.0845215,10
677,-0.7399119,2.2143254,-0.16790533,-0.7878405,11
678,-0.78846407,0.9030453,-1.3388069,1.3915391,12
679,-1.1019363,0.13215813,-1.2862358,-0.038425595,13
680,-1.5900923,-1.9340432,0.5195998,0.8693104,14
681,-0.6480629,0.1936509,0.42289472,-0.7999708,15
682,0.44999656,-1.013331,0.20691824,1.4078102,16
683,1.663036,-0.15825881,-0.18983811,-2.4672236,17
684,0.14713404,0.8688045,0.9729975,-1.1898289,0
685,-1.618527,-0.17751192,-1.3456508,-1.9386346,1
686,-0.17972614,-2.6267834,-1.620148,-0.6906808,2
687,0.95037466,-1.4917498,-2.3442192,1.1827664,3
688,-0.11860228,0.6836897,-1.4386255,1.7661126,4
689,0.36891583,-0.25359696,1.0331764,-0.9794989,5
690,1.3604141,1.1659434,-1.1908572,-0.87451154,6
691,1.1691023,-0.5703832,-1.207493,-1.7721387,7
692,0.8661056,-3.3238575,-0.6669338,-1.7825999,8
693,-1.8386699,0.5749982,0.13001835,-0.4541455,9
694,-1.723385,1.3221312,-0.46122447,-0.5022899,10
695,1.6996796,0.26344073,-1.9324362,-0.55870616,11
696,0.55140257,-0.4000699,-1.7724679,1.5219576,12
697,-1.1463553,1.9323685,-0.18043911,-0.5683286,13
698,0.1543077,-1.4689006,0.6358384,0.3461185,14
699,-1.1183807,1.7976748,1.7070588,-1.2383289,15
700,0.7760642,-0.71274525,-0.11303154,1.8741704,16
701,1.3025842,-0.5565789,-0.07683289,-2.2416534,17
702,0.91348594,0.8543959,0.4219839,-1.9332215,0
703,-0.48608387,-1.1451626,-1.8057263,-1.0935996,1
704,-1.3618965,-2.4578056,-0.79122037,-0.4786058,2
705,0.7023682,1.313211,-2.006761,1.911175,3
706,0.8821956,1.4237722,-1.6303219,0.29694563,4
707,1.3408772,-0.5816111,-0.25634813,-0.64793193,5
708,-0.29295436,0.46124026,-1.6671854,-0.92354566,6
709,2.2304509,-0.8426698,-0.51102066,-0.7738106,7
710,1.2805066,-3.4732325,-0.3711211,-1.0231395,8
711,-0.5260838,0.50305665,-0.17563829,-1.2438856,9
712,-0.89990115,1.0394804,-0.6507144,-0.70717305,10
713,-0.010200579,0.43060026,-1.7439554,-1.316365,11
714,-1.6105723,1.0618534,-0.669075,0.66744447,12
715,0.87490404,0.32912284,0.3706777,-0.32581714,13
716,-0.37444994,-1.3643422,0.8219291,0.8416393,14
717,-1.8413479,1.3334271,-0.42770493,-0.8233659,15
718,-1.043848,-2.1191323,-0.19743937,1.0921134,16
719,-0.98067224,0.7791946,1.582386,-1.6567359,17
720,-0.25622976,0.15207049,-0.4699962,-0.74591196,0
721,-0.384192,-0.7690981,-2.1897366,-1.5094358,1
722,1.310809,-2.7210941,-1.0300146,-0.7233242,2
723,-1.5070034,0.1724185,-1.4392043,1.1712338,3
724,1.6297827,-2.275393,-1.979058,1.2660823,4
725,1.1461426,0.073443174,1.1987581,-1.2158332,5
726,1.163486,-0.40785173,-2.4476604,-0.5014396,6
727,-2.0566435,0.2464236,-0.37942094,-0.37851387,7
728,1.7271821,-2.941924,-0.68468416,-0.8583541,8
729,0.7396827,1.3747983,-0.9747469,-0.77634484,9
730,-0.016320117,0.80417126,0.54074806,-1.5592167,10
731,-1.5099155,0.9815154,-1.2861403,-0.8137766,11
732,0.7798526,0.5553707,0.8695363,0.649506,12
733,-2.123975,1.307348,0.25017643,-0.3696155,13
734,0.6684226,-1.5263242,-0.6150106,0.026754081,14
735,1.815367,-1.3974383,-1.3633748,-0.65364444,15
736,2.189197,0.4190669,-0.5236128,1.343092,16
737,-0.99102354,0.29251215,-0.0660502,-1.1337612,17
738,0.035793647,0.5938177,0.28019533,-1.136019,0
739,0.5657758,0.90196145,-1.4480269,-0.27559423,1
740,-1.2150111,-2.5353618,-1.7668222,-0.61155045,2
741,1.7102102,-0.44592628,-1.2733415,0.9579068,3
742,1.2788383,-1.9695414,-0.94184124,0.33005625,4
743,3.2166095,-0.42969415,0.47585565,-1.3294163,5
744,1.8174164,1.5147035,-1.5633307,-0.77995783,6
745,-1.6335477,-1.8503237,-1.1535407,-1.2662139,7
746,-0.16578868,-3.2156587,-0.8715329,-1.5035815,8
747,2.5353475,0.48879337,-0.8696611,-0.5737134,9
748,0.31455904,1.5321461,-0.8046756,-1.2923408,10
749,2.1143627,2.0058863,-1.0984504,-1.0071774,11
750,-0.69220054,-0.9141991,-0.11393607,0.8361902,12
751,-1.3794266,0.9778725,-1.2889531,-0.18632036,13
752,0.7938067,-1.0374572,-0.35001016,0.07512468,14
753,-2.9303474,1.3752618,0.5411115,-0.42472523,15
754,0.8254949,-0.4809258,-1.2878926,0.7714995,16
755,0.15264058,1.6015782,1.4113698,-1.1528537,17
756,0.24023956,-1.0109527,-0.8420955,-1.2649565,0
757,0.057682004,-1.5706359,-1.8019724,-0.91918445,1
758,1.3168559,-2.7223103,-1.6720172,-0.7735261,2
759,-1.1326772,-0.68933845,-1.8559272,2.2271264,3
760,-0.5885192,1.6275387,-0.67460597,1.6588366,4
761,1.4172595,-0.3107961,0.28802907,-1.8493782,5
762,0.049370077,-0.14582384,-1.664344,-0.5809523,6
763,-0.8695696,-1.8720217,-1.3101561,-1.343924,7
764,-0.1349639,-2.932891,-0.5825694,-0.96561706,8
765,-1.7009404,1.900509,-0.27649933,-0.54198337,9
766,-0.43563405,-0.4908309,-1.6809049,-0.8115984,10
767,-0.8586102,0.7981602,-0.51874167,-0.4152123,11
768,1.0762328,1.385557,-0.815309,0.6444028,12
769,-1.8703755,1.3006226,0.46593642,-0.24099325,13
770,0.4590218,-1.9573575,0.3341631,0.52903754,14
771,1.6973382,1.937795,0.027655736,-0.8999244,15
772,0.32963702,-0.76033294,0.35377717,1.2774128,16
773,0.77834177,0.76847196,0.2665734,-1.2949247,17
774,1.0486782,0.31802762,0.28577167,-1.6242734,0
775,0.44877395,1.025204,-1.1066452,-1.2535186,1
776,-0.095838875,-1.9833407,-1.4581074,-0.19476327,2
777,-0.22562388,0.5421574,-0.2960292,1.7378939,3
778,-1.9468982,1.244025,-1.259886,1.2561654,4
779,0.016245384,-0.6121575,0.4308883,-1.5424539,5
780,-0.91330385,-0.5439309,-1.3355001,-0.74799424,6
781,0.609869,-0.6774753,-1.0744237,-0.838324,7
782,-3.2825115,-3.6484175,-0.8424895,-1.5914764,8
783,1.6630976,0.53748924,-0.8010371,-0.31909472,9
784,1.9315025,-1.2350309,-1.1699021,-0.42034358,10
785,-0.53538364,2.1113875,-1.2105265,-1.2353215,11
786,-0.6941111,-0.6608562,-0.4132998,1.2159162,12
787,-0.4914626,1.943697,0.15765071,-0.36203527,13
788,-0.4585055,-2.4060435,-0.6632019,0.46699476,14
789,1.9361104,-0.08297193,-0.3761307,-1.2398713,15
790,-1.2487918,-1.0634509,-1.0481931,0.68580556,16
791,1.9404252,0.36925012,0.5264467,-3.4260097,17
792,-1.2222447,0.41739893,-0.16991457,-1.4181216,0
793,1.626047,0.0090085715,-1.8936509,-2.4150603,1
794,0.21350254,-2.6713233,-2.001875,-0.49493176,2
795,0.856398,1.1491877,-0.9175282,1.0996811,3
796,0.4825403,2.603907,-0.52349263,0.9120537,4
797,1.0043726,-0.7961403,0.61604667,-1.9283365,5
798,1.8809812,-0.6644509,-2.1383638,-0.7326134,6
799,0.1970359,-0.6016402,-1.1007146,-0.8222574,7
800,-0.53165066,-2.9828825,-0.14412466,-1.3458998,8
801,1.8534211,0.58465815,0.050680697,-0.89477086,9
802,-1.3639394,0.30582446,-1.5730939,-0.67500854,10
803,-2.3647513,2.0055485,-0.6858897,-0.858542,11
804,1.6542788,0.45811614,-0.43380305,0.7365845,12
805,-0.038404077,-0.8712095,-1.1383786,-0.39533135,13
806,-1.70585,-1.5830617,-0.6937293,0.39668065,14
807,-0.73191833,1.1147951,0.3013289,-1.1040306,15
808,-0.39389312,0.06544721,0.28573126,1.1778531,16
809,-0.7844178,-1.2995578,-1.0794063,-2.896084,17
810,1.1680597,-0.03560558,0.18087785,-0.7402209,0
811,0.09090802,-1.3307444,-1.1133145,-1.4814072,1
812,-2.2821379,-2.113491,-1.1633748,-0.23627591,2
813,-0.1827688,0.5009569,-2.4846807,1.5047121,3
814,0.6413999,-0.91740704,-1.3459148,1.0790491,4
815,1.3180053,-0.9530875,-0.048630953,-3.0512733,5
816,2.4460442,0.49642277,-2.3982358,-0.501269,6
817,0.84985876,-0.69058186,-0.63542724,-1.1377902,7
818,1.232869,-3.279504,-0.62606627,-1.4218917,8
819,-0.2211712,0.46070826,-0.075273514,-1.2666696,9
820,-0.53644365,1.6800152,0.2871061,-0.48187575,10
821,0.9000333,2.8517585,-0.88753575,-0.752182,11
822,-1.1403003,1.0132704,-0.89887476,1.438906,12
823,0.35080206,1.3398689,-0.15205324,-0.4029348,13
824,-0.8058936,-1.5892024,-0.46321762,0.47356954,14
825,0.6393113,0.2937744,-1.4890022,-0.673074,15
826,0.43738797,-1.1986533,-0.4267049,1.0757222,16
827,1.9085866,-0.75004864,-0.024961889,-2.442146,17
828,0.10833016,-0.31363654,-0.2437295,-1.6464032,0
829,0.693723,0.5444016,-1.5528822,-1.8576995,1
830,-0.30347723,-2.0732415,-1.5283495,-0.74849504,2
831,-0.11691367,-1.4156569,-0.68632174,1.631146,3
832,0.8856833,0.4524894,-0.23229218,0.7264956,4
833,0.50790715,-0.16336854,0.58007675,-1.3403994,5
834,-2.267098,-1.0977508,-2.0670962,-0.8498217,6
835,1.578576,-0.96213484,-1.570508,-0.96167666,7
836,1.2917199,-2.9930599,-0.69857466,-0.7626028,8
837,-3.4507194,0.133888,-0.6565215,-1.0796691,9
838,0.48250604,0.2759897,0.026524723,-0.50122154,10
839,-2.7883484,0.6010214,-1.0179964,-0.5858885,11
840,-2.1542628,0.7578602,-0.17923021,1.1999555,12
841,-1.2112752,0.1452505,-0.6572338,-0.41446573,13
842,0.61951107,-1.7853055,0.53191507,0.59092873,14
843,-3.086399,0.18996872,-0.18073401,-0.90945184,15
844,-0.5093661,-0.070084214,0.07612878,1.3865875,16
845,1.5056394,-0.3746938,0.5315233,-2.6600447,17
846,1.001399,-0.8074732,-0.35408944,-2.1594124,0
847,-1.254324,-1.5763388,-1.7902093,-1.9163359,1
848,0.32755756,-2.1807308,-1.4294254,-0.576406,2
849,0.3603781,0.11844452,-0.709334,1.5091001,3
850,1.216433,0.22028464,-1.8317387,1.106216,4
851,-0.31636402,-0.45535678,0.7928699,-0.28117335,5
852,-0.93909997,0.89555454,-1.8369085,-1.0096501,6
853,-0.2443386,-1.9556637,-1.8700176,-1.6341965,7
854,-0.25108182,-3.351926,-0.78320456,-1.66855,8
855,-2.880241,0.80094093,-1.12955,-0.9394298,9
856,0.7879351,0.22603756,-0.38251173,-1.365809,10
857,1.6077801,1.774065,-0.8968218,-1.0520024,11
858,0.07025869,0.21905546,-0.9215945,1.4923676,12
859,-0.5389083,0.16355619,-1.2541076,-0.22875856,13
860,1.4386387,-1.4343364,-0.69458497,0.11221078,14
861,3.2842872,0.6418979,-0.34340388,-0.018231392,15
862,-1.1228906,-2.568358,-0.2526316,1.5814445,16
863,0.49405792,0.95969415,1.0345321,-1.3451025,17
864,0.56431836,0.7952205,0.7871074,-0.69637966,0
865,-0.82155037,-0.40034533,-2.2215235,-2.4556866,1
866,0.7758846,-2.5628586,-1.754408,-0.53979313,2
867,1.1871482,1.9377114,-0.27259374,1.0340015,3
868,1.1862593,-0.5718172,-0.4097001,0.8848045,4
869,1.2608312,-0.3023898,0.6774591,-2.468688,5
870,0.26895952,0.29870585,-1.9459372,-0.6228526,6
871,2.2998364,-1.1904664,-1.5185808,-1.0655234,7
872,0.25012094,-2.667241,-0.34482938,-0.82056534,8
873,1.2192078,-0.30117285,-1.0697562,-0.6822812,9
874,1.5096816,1.177863,-0.2299456,-0.58450955,10
875,0.0884216,0.7890371,-1.1974509,-0.7460287,11
876,0.13554794,0.94784796,-0.2710364,1.200461,12
877,0.9669136,1.1113902,-0.8046833,-0.36115876,13
878,0.76770675,-1.9222211,0.016953021,0.6522421,14
879,0.94639474,0.18975998,0.36190403,-1.102628,15
880,0.041122273,-0.524389,-0.85471797,1.5399148,16
881,0.9039589,0.1526641,0.5254987,-0.5957637,17
882,0.6575016,0.39162114,0.7488442,-2.1936924,0
883,-1.1287777,-1.0141042,-2.2160206,-1.6354384,1
884,-3.1990323,-1.8276074,-1.1181505,-0.82328856,2
885,0.018539783,3.08439,-0.5859946,1.7323135,3
886,1.1426376,1.4244146,-0.8176088,1.0759135,4
887,-1.9323016,0.0787161,0.3015762,-1.3227448,5
888,2.026209,0.6738315,-2.4015446,-0.71100044,6
889,-0.7067501,-2.2845616,-1.4583045,-0.9653212,7
890,-0.7800135,-3.0839105,-0.45665157,-0.7997698,8
891,3.0227149,0.08769143,-1.0973644,-1.2163024,9
892,-0.5249459,2.39191,-0.34100825,-0.5781125,10
893,1.3602066,1.1057203,-1.6236345,-0.58381677,11
894,0.40084222,0.09764376,-0.38694382,1.5865234,12
895,0.23930903,0.8995949,-1.8751178,-0.17075919,13
896,0.004042405,-2.3373008,-0.76043034,0.6965966,14
897,1.3239594,0.6516645,-0.3638847,-0.9967095,15
898,2.761995,-1.3616083,-1.0320888,1.7873356,16
899,0.60566777,0.032816842,0.06441456,-2.885862,17
900,-0.47600174,1.7136685,0.81807786,-0.6134318,0
901,1.0946721,1.4949164,-1.3910786,-1.9686227,1
902,-0.9208927,-1.9041517,-0.8955968,-0.6665182,2
903,0.8514236,2.6782937,-0.07482803,1.4849559,3
904,-0.5093578,0.60370576,-1.9249849,1.1213809,4
905,-1.549184,-0.19549438,0.48425692,-2.4177942,5
906,-0.55510753,2.3121204,-2.1870382,-0.54704106,6
907,-0.24661994,-0.26405174,-1.2041194,-1.1546956,7
908,-1.6930933,-2.7835848,-0.43756765,-1.1259757,8
909,1.5534986,0.8511405,-0.74178016,-1.1657473,9
910,0.31225446,0.8815448,-0.31018525,-0.15883917,10
911,-3.6669183,1.1894647,-0.7180835,-1.0607468,11
912,1.3150746,1.3426214,-0.11306912,0.83949476,12
913,-1.2255718,1.2167575,-0.39698654,-0.42923105,13
914,-1.3974355,-1.2048519,-0.602289,0.16802743,14
915,-2.218,0.7179402,0.3639109,-0.93153226,15
916,-1.2337031,-1.8284172,-0.08000338,1.5766273,16
917,0.49031156,-0.33737272,0.3655029,-1.4053413,17
918,0.37414268,0.94858414,0.7253961,-0.9218741,0
919,-0.44822058,-2.2923896,-2.2554975,-1.5062295,1
920,-0.6489508,-2.3649683,-1.4171708,-0.4335966,2
921,0.38342744,0.60201436,0.4718002,1.6605736,3
922,0.4803375,-0.13778812,-2.2583632,1.4204327,4
923,0.6493039,-0.143864,0.7578373,-2.8397408,5
924,0.6931864,0.5806656,-1.5632032,-0.9314445,6
925,3.8241115,-1.0020616,-1.1634948,-1.4879873,7
926,1.4800462,-3.2222745,-0.59250367,-0.58491814,8
927,0.72563326,-0.027942061,-1.1840825,-1.0714245,9
928,0.04097038,0.011190891,-0.8499832,-0.5865078,10
929,0.84151506,1.4341178,-0.94194025,-0.8841985,11
930,-3.7408302,-0.6437721,0.035975814,1.6045449,12
931,0.55942273,0.07972911,-1.5745094,0.053540796,13
932,-0.3893108,-2.6359596,-0.6194551,0.49157098,14
933,-1.4756727,0.8624524,0.7902163,-0.35319808,15
934,2.0350113,-1.9459634,-0.8512231,1.3345704,16
935,1.402129,-0.5036502,-0.10042,-2.176637,17
936,0.33113524,0.43631113,0.93634933,-1.5768311,0
937,-1.332592,1.5138005,-1.0412534,-1.9090217,1
938,1.125428,-1.5680093,-0.8406535,-0.4493162,2
939,0.8852741,5.4258943,-0.9734526,1.3326626,3
940,0.10936648,1.0579524,-0.84444344,1.1347647,4
941,1.0882322,-0.10208607,0.9219198,-2.758389,5
942,-0.9275756,0.809258,-1.6182518,-0.9514048,6
943,1.201932,-0.37729836,-0.7105018,-0.8844669,7
944,2.0669737,-3.3773677,-0.23529375,-0.4650746,8
945,0.020726485,-0.21755004,-1.4709399,-1.375278,9
946,1.4317673,0.9508158,-0.35950464,-0.6729849,10
947,0.75112015,2.305161,0.13628304,-0.962691,11
948,-0.13422239,-0.56822854,-2.9270449,1.2646915,12
949,-0.0925458,0.028647661,-0.5151676,-0.51087934,13
950,-1.2535367,-1.9017596,0.32586333,0.54328126,14
951,1.460298,0.8007165,0.2443297,-1.030731,15
952,0.48758277,-2.808445,-0.2973538,1.2312587,16
953,-0.98883235,-0.2541185,-0.43921995,-2.6757638,17
954,-0.33498716,0.678514,-0.3295576,-2.117371,0
955,-1.4209996,0.10203111,-1.554707,-1.8062489,1
956,-0.9846068,-1.43567,-1.6486244,-0.5924356,2
957,1.7463951,1.3435142,-1.7076845,1.3873717,3
958,0.44108096,-1.8167723,-0.6401174,0.66917324,4
959,0.54050845,-0.6444876,0.720047,-1.1488051,5
960,0.24190396,-0.041213006,-2.5069656,-1.0259519,6
961,-0.9727063,-0.68384075,-1.7774899,-0.9796581,7
962,1.8002137,-2.897336,-0.46856064,-1.2182262,8
963,0.25031108,1.8215489,0.85415375,-1.1364039,9
964,-1.2504417,-0.4022013,-1.7228804,-0.8902238,10
965,1.3596587,0.49194285,-1.6318536,-0.77202445,11
966,2.932013,-0.415407,0.08073217,0.9791839,12
967,-1.3267766,-0.0005853176,-0.6216339,-0.39072025,13
968,0.5978871,-1.9731513,-0.32637125,0.38335842,14
969,-1.6301361,1.0160507,0.7282134,-0.7031334,15
970,0.4165429,-1.3272735,-0.38653624,1.5135022,16
971,0.25222415,1.1357089,0.74465567,-2.1986194,17
972,-0.87912196,0.4527769,0.14308013,-2.2361834,0
973,-0.7408347,-1.9799275,-0.99520427,0.0071846247,1
974,-0.7484387,-1.1841199,-1.0071299,-0.49307737,2
975,0.17848302,-1.085913,-3.04251,1.3930528,3
976,1.4317725,0.07759103,-1.0484488,1.1374562,4
977,-2.5723796,-0.030268997,0.8446788,-2.4193292,5
978,-1.720784,0.42006397,-1.7877836,-0.6375631,6
979,3.3161914,-3.0354075,-1.2928945,-1.6938084,7
980,-1.6496447,-3.0678787,-0.49054015,-1.0305157,8
981,-1.0302457,0.97484636,-0.30480212,-0.85692185,9
982,1.3078699,0.6540614,-0.7793278,-0.73140347,10
983,0.09701961,0.3236205,-1.6145017,-0.97003627,11
984,0.54825413,-0.24707456,-1.2221181,0.88263667,12
985,-2.7454746,1.2424219,-0.60545975,-0.4251212,13
986,1.2328954,-1.4436427,-0.10573014,0.21724463,14
987,-2.3693428,0.6717932,0.022422597,-1.1531352,15
988,-0.58052,-0.58924395,0.2171796,0.8729368,16
989,2.9844193,0.9096342,0.51049316,-2.6943758,17
990,0.63620573,0.77191997,0.696374,-1.6830497,0
991,0.5024676,-1.314571,-1.7668686,-1.8670316,1
992,1.2666788,-1.7023414,-1.1154921,-0.35975945,2
993,1.1200355,-0.87374157,-1.2141438,1.24733,3
994,1.8466275,1.7528756,-2.2822468,0.68957216,4
995,1.3892782,-0.72693604,0.15653509,-0.91305256,5
996,0.43872544,-0.37277195,-2.2667193,-0.75963795,6
997,-2.4747849,-1.1121137,-1.5422373,-1.0988238,7
998,0.616818,-3.349712,-0.55850816,-2.457004,8
999,0.22820623,1.6816094,0.96128356,-0.08742529,9
1000,0.566918,1.5281508,-0.93092835,0.41997564,10
1001,-0.16365382,2.4397578,-0.59783435,-1.2083656,11
1002,0.48579648,-0.75070506,-0.38087738,1.4139829,12
1003,0.28157723,-0.87296677,-2.186,-0.39076635,13
1004,-0.9422816,-2.0202982,0.32556388,0.509719,14
1005,-0.6326904,1.64034,0.92277014,-0.8336078,15
1006,-0.5232931,0.19407523,-0.84392685,0.6126836,16
1007,1.5539489,-0.2104487,0.26280254,-2.9408185,17
1008,0.97432154,-0.35826218,-0.6298899,-2.2659686,0
1009,-1.5441375,0.80914086,-1.0287418,-1.3325418,1
1010,1.3666941,-2.56592,-1.7746792,-0.7567219,2
1011,0.89894396,1.516893,-0.45460343,1.0450176,3
1012,2.019288,0.09197393,-2.4895527,0.91103625,4
1013,0.52852905,-0.9343663,0.68008876,-1.6150483,5
1014,-0.7741342,-1.1260748,-1.9183669,-0.638724,6
1015,-1.0613463,-1.4562042,-1.8660362,-1.4865801,7
1016,1.7494994,-3.2845287,-0.79199946,-1.3709046,8
1017,-0.32470158,0.0034193993,-0.33383894,-0.547801,9
1018,-1.1269779,1.255339,0.12332386,-0.9709971,10
1019,-1.2650067,0.9421744,-0.94455194,-1.0872972,11
1020,1.8330574,-1.6175987,-0.52879393,1.0350987,12
1021,-1.1628501,1.2918563,-1.180971,-0.12807679,13
1022,0.08069355,-1.379235,-0.099608034,0.356562,14
1023,0.38601553,1.3458148,-0.18067019,-1.044482,15
1024,-0.37638196,-1.6510113,-0.41804594,1.7095506,16
1025,2.7620862,1.4164373,1.4185562,-2.3233771,17
1026,0.48614377,-0.36813545,-0.4213488,-2.0134597,0
1027,1.2275172,1.7753693,-1.9476304,-2.3552911,1
1028,-0.5584967,-1.8445969,-2.0440412,-0.75948405,2
1029,-0.39236104,0.14840376,-1.8803134,1.5249255,3
1030,-0.30668336,-0.12065518,-1.6588117,0.8881105,4
1031,-1.8944668,-0.3564305,0.23225862,-2.0095544,5
1032,-1.1152388,1.2593815,-1.5575922,-0.5653237,6
1033,-0.09860806,-1.7096419,-0.7050723,-1.4627576,7
1034,1.3615676,-2.4813867,-0.659152,-1.1923479,8
1035,-1.9363842,0.4370682,-0.93745506,-1.1729476,9
1036,-2.6682003,-0.2527889,-1.3129158,-0.85391915,10
1037,1.8315753,0.957182,0.18174827,-1.0262965,11
1038,-0.28966618,-1.178696,-0.52544385,1.1393898,12
1039,-0.2838713,0.7975568,-0.6283226,-0.23080616,13
1040,1.4904236,-1.6266258,0.028462797,0.16635609,14
1041,2.4306328,-0.18546733,-0.6621084,-0.97843724,15
1042,0.9997848,-0.110209346,-2.3166416,0.2653587,16
1043,-2.1481206,-0.86361617,-0.49617624,-2.1117542,17
1044,-0.24524722,0.55535555,0.44612265,-1.7821618,0
1045,-2.2428892,-1.0487154,-1.5727746,-2.1019223,1
1046,1.2173709,-1.9918356,-1.8017755,-1.0463724,2
1047,-1.5880514,-2.0579112,0.7049124,1.0361459,3
1048,-2.484583,1.7279891,0.051292896,1.4631091,4
1049,-1.4660687,-0.564024,0.4360938,-2.367253,5
1050,-0.15971927,1.690807,-1.3733463,-0.6123981,6
1051,-3.0035307,-1.0093967,-0.83239937,-1.136273,7
1052,-0.049699057,-2.9915936,-0.7008996,-1.0852323,8
1053,2.2049825,-2.1981688,-1.2586921,-1.1403339,9
1054,0.84722483,3.3331068,1.3723314,-0.7428729,10
1055,0.7872994,1.9036279,-0.5035199,-1.1525011,11
1056,-0.9034678,0.80979776,-1.451793,0.74741095,12
1057,0.4271126,-0.7754755,0.00931716,-0.5269843,13
1058,1.7195966,-1.6980518,0.1532053,0.75839794,14
1059,0.55098826,-0.5094366,-0.90467775,-0.96544003,15
1060,-1.0336635,0.52626276,-0.93110776,0.8573148,16
1061,-0.28241414,0.3181373,0.40042818,-1.9291532,17
1062,0.621395,0.495394,0.02550691,-1.4624528,0
1063,1.8773015,1.5417787,-1.4166737,-1.5131822,1
1064,0.23047706,-1.922332,-1.6036389,-0.52241904,2
1065,0.47178844,1.6121162,-1.8801904,1.8643303,3
1066,0.12653014,0.3754583,-0.5020835,0.9867375,4
1067,0.6538741,-0.22840376,1.1558522,-2.5570734,5
1068,-0.59897757,-0.2825729,-2.3655186,-0.2901711,6
1069,1.0621585,-3.0500011,-1.1613264,-1.4259379,7
1070,-0.24148224,-3.3026292,-0.4433102,-0.7246357,8
1071,-0.61266243,1.2129968,-0.3006633,-0.82562375,9
1072,-0.9410911,2.4877403,0.49216717,-0.18787163,10
1073,0.58749795,2.7744336,-0.7379511,-1.1267614,11
1074,2.1486115,-1.1651689,-2.4056087,1.4503293,12
1075,-1.4211464,1.3994502,-1.4308889,-0.22861072,13
1076,1.1269643,-1.5312726,-0.19994596,0.62907463,14
1077,-2.784793,0.34462595,-0.30670685,-0.5385219,15
1078,-2.394148,-3.3460822,-0.3641005,1.1993089,16
1079,0.5301389,0.73215383,0.49943617,-1.222356,17
1080,0.18481931,-0.2771495,0.3200155,-2.865159,0
1081,1.622566,0.21207237,-0.7124069,-1.7257011,1
1082,-0.46009213,-1.6050804,-1.5520067,-0.5580481,2
1083,-1.3298671,0.70349723,1.271499,1.6025932,3
1084,-0.033391677,0.5096808,-0.2573949,0.83126557,4
1085,-0.7931702,-0.34542695,1.0626781,-1.3106428,5
1086,-0.25906438,0.9470786,-1.5428452,-0.9415053,6
1087,1.0506909,-2.5129285,-0.9609244,-1.111852,7
1088,2.4364169,-2.8197272,-0.61725885,-1.4149513,8
1089,-0.034655288,-0.25599527,-1.3480078,-0.82106465,9
1090,-2.2898102,2.4887786,0.091207445,-0.44896057,10
1091,-0.8658243,1.528614,-0.89803404,-0.8999432,11
1092,0.1983569,0.73070705,-0.69863284,1.097671,12
1093,1.5157496,1.5365586,-1.0276787,-0.2568191,13
1094,0.5946169,-2.4348369,0.6429703,1.1450047,14
1095,0.33567965,-0.37290642,0.06396608,-0.44709677,15
1096,0.11982927,0.00011205673,-1.4088719,0.9229325,16
1097,-2.3002703,0.031723768,0.22696133,-2.9430585,17
1098,-0.38329062,0.1708585,-0.27414036,-0.87133056,0
1099,1.7449449,1.628419,-0.663308,-1.349618,1
1100,-0.17875092,-1.5588315,-1.5498093,-0.70779973,2
1101,2.3398886,0.3996001,-1.8693999,1.4441658,3
1102,-0.19752455,-1.2067957,-0.8085555,1.5676752,4
1103,0.8719711,-0.7160394,0.013243556,-1.9824462,5
1104,-0.38361838,-1.2142179,-2.6228347,-0.79053134,6
1105,-0.4037838,-1.295309,-1.2505248,-1.0907662,7
1106,0.5547252,-3.0884051,-0.70321625,-1.219183,8
1107,0.9036087,1.7261386,-0.0028210878,-1.0416077,9
1108,-0.87884825,2.3529196,-0.28134927,-0.89297825,10
1109,-0.28951097,-0.5605545,-2.27673,-1.2112923,11
1110,1.0564238,1.9634348,0.50511193,0.9286908,12
1111,-2.4842772,-0.25943145,-0.259786,-0.4262083,13
1112,-1.3985603,-3.1750584,-0.86616015,0.4858714,14
1113,0.52212584,0.1419769,-0.1242716,-1.24798,15
1114,0.696984,-0.95050824,-1.6058626,0.65307605,16
1115,2.874721,-0.06974648,0.24862403,-1.7224104,17
1116,-1.4445714,0.44733226,0.0448494,-2.44478,0
1117,-0.04497151,1.7121034,-1.2268082,-1.4077607,1
1118,-0.5267401,-2.402511,-2.077168,-0.6570229,2
1119,-1.4817554,-2.3353522,-2.093461,1.1608107,3
1120,0.3325085,-1.1327876,-1.8322878,0.5227115,4
1121,-1.6332227,-0.09727472,0.88368267,-1.6586463,5
1122,-0.41918266,1.5363609,-1.551936,-0.80374193,6
1123,-0.1091351,0.01060164,-0.09421694,-1.551274,7
1124,-0.87590975,-2.905717,-0.5784266,-2.1340265,8
1125,1.2605909,0.9662369,-0.866837,-0.7387072,9
1126,-0.2960383,-0.4318483,-0.51672876,-0.2571838,10
1127,-0.12055948,0.14693648,-2.450561,-1.1012148,11
1128,0.24954139,0.11786187,-1.0029112,1.6678671,12
1129,-0.42009902,0.5566818,-1.5245978,-0.42742229,13
1130,0.8110443,-1.7348357,0.2437667,0.6843801,14
1131,0.5862292,0.7243701,-0.2308922,-1.0903068,15
1132,-1.6698625,-2.3376844,-1.1112279,0.97650635,16
1133,-0.42123264,1.5867702,1.2058456,-1.5884846,17
1134,-1.3911357,0.62257004,0.011285361,-2.3909383,0
1135,3.127272,2.1204348,-0.9927167,-1.2825636,1
1136,-0.39133584,-2.742213,-1.0808724,-0.44373572,2
1137,-0.6137012,-0.11024184,-0.01612091,1.4910465,3
1138,0.063706644,-1.9015318,-0.6334375,1.5265365,4
1139,-2.452463,-0.2523052,0.29221913,-2.0535479,5
1140,-1.4679687,1.1916543,-1.2483153,-0.27174252,6
1141,-0.19508854,-2.964187,-1.450736,-1.6367748,7
1142,-2.339833,-3.409563,-0.2793768,-1.925417,8
1143,2.3773375,0.69532186,-0.3940011,-0.97913563,9
1144,2.9011657,2.9613674,0.1037758,-0.85458034,10
1145,-0.9577028,1.8829753,-1.4473712,-0.87738305,11
1146,0.5350741,3.0906568,0.42170835,1.3113899,12
1147,-0.6556327,0.5943467,-0.83841157,-0.055349737,13
1148,0.1437112,-2.485417,-0.44757214,0.29989433,14
1149,1.6866437,1.7089316,0.6096562,-0.6679054,15
1150,2.239731,-0.3540234,0.21380424,1.7431288,16
1151,-0.6711268,0.39734048,0.4737802,-3.1661663,17
1152,0.59319615,-0.018935472,-0.24888486,-1.6882837,0
1153,1.9259455,-0.68905103,-1.4748045,-1.4245647,1
1154,-0.770597,-1.8020799,-1.7360905,-1.0877455,2
1155,-0.4957906,0.82248145,0.37595212,1.7949494,3
1156,0.9982227,-3.2830958,-2.398862,0.7364553,4
1157,1.853761,-0.91245085,0.46320492,-1.3205409,5
1158,0.35002038,0.92669797,-2.0914416,-0.88323176,6
1159,-0.75455207,-0.34666395,-0.9328351,-1.1516331,7
1160,0.9040727,-3.2661963,-0.41880256,-1.3551412,8
1161,-1.4358337,0.544437,-0.0545336,-0.93923175,9
1162,-1.1447715,0.26281118,-0.5218343,-0.8824775,10
1163,-0.3819422,1.420901,-1.0188354,-0.6694246,11
1164,0.7512747,0.7142028,-1.3403666,1.0543172,12
1165,2.189146,0.98270965,0.19471121,-0.3589379,13
1166,0.63045657,-1.222265,0.99558806,0.905927,14
1167,-0.21847549,1.371304,1.1160704,-1.245014,15
1168,-0.66876787,-3.2530062,-0.2847617,0.5314021,16
1169,-0.31219167,-0.007796496,-0.41324514,-2.315748,17
1170,0.8762981,-0.043097854,-0.10893664,-2.1243749,0
1171,1.2276103,-2.3500688,-2.4208198,-1.8504425,1
1172,1.4692926,-2.9781718,-1.7246306,0.16530555,2
1173,0.33848417,-0.07957423,0.48054433,1.6712662,3
1174,1.3788805,1.1238351,-1.720222,0.9828539,4
1175,1.9085323,-0.61731946,-0.186162,-2.7682786,5
1176,-2.0606368,-0.8094373,-1.7977213,-1.2008862,6
1177,1.5102334,-1.6943024,-1.4385726,-0.88119197,7
1178,2.4830635,-3.3393345,-0.3219285,-1.6237996,8
1179,2.5746841,2.688621,0.40820754,-1.3069434,9
1180,-1.44158,0.7862684,-1.1601104,-0.91162074,10
1181,-1.4396257,1.4420509,-0.67976063,-0.35008585,11
1182,-1.1897377,0.2451066,-0.21545619,1.56582,12
1183,0.173819,0.03401491,0.15241086,-0.07005566,13
1184,-0.6265591,-1.6758717,0.17085752,0.37139577,14
1185,-0.86260957,0.8263614,-0.62487024,-0.7362509,15
1186,1.2277869,-0.04209602,-0.21109658,1.4830341,16
1187,0.4944058,0.1638297,0.42801118,-3.2204094,17
1188,-0.99094397,0.14686894,0.4134223,-0.74766445,0
1189,-1.2973768,0.014857009,-1.7551554,-1.8344905,1
1190,1.8066859,-2.1795065,-1.9777575,-0.41873252,2
1191,2.5242116,1.6691351,-0.79422706,1.2228632,3
1192,1.1351858,1.654425,-0.94702196,1.7428584,4
1193,1.4577788,-0.71694314,0.8735454,-2.1116734,5
1194,-0.77789205,1.9621959,-0.8380883,-0.39404944,6
1195,1.4628154,-1.0143617,-1.2254516,-1.2297966,7
1196,-0.2773708,-2.9533706,-0.3525195,-1.6265031,8
1197,-2.2685826,-0.13470602,-0.53421015,-0.6318866,9
1198,-1.9057524,-0.086318135,-0.851604,-1.2004936,10
1199,-1.5801109,0.029317379,-2.2068624,-1.1369835,11
1200,0.45879555,-0.88861674,-1.139972,0.9236748,12
1201,-0.7248882,-0.8337405,-1.4539241,-0.26653355,13
1202,0.6275156,-2.5843682,-0.0645839,0.79590535,14
1203,1.918221,0.5623478,0.7303407,-0.57745993,15
1204,1.9934063,-1.9318728,-1.2233322,0.8004955,16
1205,1.1485946,0.090177216,0.48502943,-1.622343,17
1206,0.24256161,0.2563208,-0.5975498,-2.31853,0
1207,1.1227326,2.618437,0.017926931,-2.204967,1
1208,-0.0005218722,-2.1820745,-1.8447078,-0.6353025,2
1209,-0.2277995,-1.962696,-1.2083209,1.1151775,3
1210,-1.1338158,-0.46566695,-0.9681021,1.3299528,4
1211,2.63925,-0.40202615,-0.07778305,-1.5461057,5
1212,0.5028288,-0.0566341,-0.7689192,-0.36525205,6
1213,-1.9060462,0.046900272,0.024461389,-1.1056379,7
1214,1.6219052,-2.7025678,-0.47326878,-0.63072485,8
1215,-0.06928047,0.86085975,-0.16401643,-1.056579,9
1216,-0.5640179,-1.0721036,-1.3519273,-1.3304411,10
1217,1.008593,2.7409248,-1.2567896,-1.3242512,11
1218,-0.3104179,0.67949915,1.1859467,1.3775475,12
1219,-0.5502005,0.6166004,-1.1097342,-0.39272922,13
1220,-0.6332621,-2.4412274,0.49145886,0.9854323,14
1221,0.93033284,1.2064415,0.035413608,-0.69267714,15
1222,-1.9950051,0.2781825,-0.8026514,1.2991071,16
1223,-0.34379396,0.13994192,-0.056046635,-1.1579226,17
1224,-0.697443,-0.08407503,0.008379366,-1.9179095,0
1225,0.6644346,-0.97461396,-1.8445097,-0.87264484,1
1226,1.0643083,-3.1572797,-1.9577872,-0.6851022,2
1227,0.69916844,2.5745885,-1.7741268,1.1233293,3
1228,-0.65390503,1.3296788,-0.6944673,1.7914827,4
1229,0.9707172,-0.34776255,1.1153578,-1.9285055,5
1230,0.078934774,0.5115515,-2.3746376,-0.6446886,6
1231,-0.6467004,-0.36392772,-1.6213526,-0.95493466,7
1232,0.5274895,-2.8522048,-0.4512983,-0.6813736,8
1233,0.63502026,0.37018812,-0.28695267,-0.7612451,9
1234,2.1570737,2.141271,-0.8301708,-0.8917065,10
1235,0.67949766,1.4647462,-1.2970572,-1.0812747,11
1236,-0.15056448,-1.5988828,-0.9692565,0.8233727,12
1237,0.6640012,0.57695395,-1.1544912,-0.36202043,13
1238,0.36259887,-1.2462745,-0.79287195,0.13091019,14
1239,-2.3752158,1.088665,0.9297813,-0.7344077,15
1240,1.1123543,-0.18698049,0.89325756,1.0098294,16
1241,0.5157098,0.20819053,0.46557277,-1.3518348,17
1242,1.109614,0.77504313,0.51387554,-2.7883408,0
1243,-1.0754576,-0.9551287,-2.902598,-1.6977751,1
1244,0.13180795,-2.4358935,-1.5502702,-0.43325824,2
1245,0.87198836,0.9345514,-0.3350045,1.7272581,3
1246,-1.1142954,-0.10563779,-1.9069197,1.0070336,4
1247,-0.18381375,-0.09837207,0.5742117,-0.38355947,5
1248,-1.8903564,-0.08590752,-1.4297718,-0.82063276,6
1249,0.7127812,-0.36098832,-1.2507678,-1.3729205,7
1250,-0.8717983,-2.885313,-0.35157526,-1.4429259,8
1251,-0.10904063,0.7306646,-0.29195118,-1.4707136,9
1252,1.838891,1.662233,-0.28245375,-1.0916193,10
1253,1.0685699,-2.8341312,-3.0201716,-0.77548593,11
1254,1.4479548,0.9009125,-0.7486338,1.4659672,12
1255,0.77350926,0.35855073,-1.2633548,-0.49201894,13
1256,-0.21373253,-2.5969305,-0.45669222,0.35877302,14
1257,-0.47680047,-0.04823652,-0.4769591,-0.6635694,15
1258,-1.362149,-0.49698502,-0.22888842,1.3232646,16
1259,-1.4750153,-0.8459552,0.035968482,-3.1359444,17
1260,-0.29234776,0.23135598,0.3539171,-2.2870498,0
1261,-0.9944252,-2.0528014,-2.337535,-0.45098948,1
1262,-1.5433263,-2.3627968,-2.4025168,-0.6888398,2
1263,1.3881491,-1.1760689,-1.5334057,1.1555145,3
1264,-1.0777099,0.62513185,-1.8530655,1.5180452,4
1265,-1.541378,-0.06655705,1.2875512,-0.47808254,5
1266,-1.2104193,1.4964976,-1.650726,-0.94320476,6
1267,1.6961564,-0.54347396,-1.2743078,-1.1169652,7
1268,0.74881506,-3.305343,-0.50412434,-1.8844333,8
1269,-2.8878758,0.90327364,0.40542412,-1.1443919,9
1270,2.0442965,0.6556195,-1.1791241,-0.58539057,10
1271,-0.30274916,-1.5377686,-1.8300986,-0.6892816,11
1272,0.8540802,-0.43070534,-1.1176283,1.3390495,12
1273,-0.9960697,1.1649177,-1.2209783,-0.24833463,13
1274,-1.6949669,-1.9202151,-0.39320126,0.5085026,14
1275,-0.6597896,-0.17749682,-0.4036231,-0.6472566,15
1276,0.0015178304,-1.3124436,-0.7661436,1.0939628,16
1277,0.9819833,1.8094738,2.1848338,-2.395625,17
1278,-0.91924983,0.2599224,0.20576307,-1.9538226,0
1279,-0.7196107,2.143948,-0.6352085,-1.1964648,1
1280,0.906417,-2.6722758,-1.2630486,-0.8463168,2
1281,2.6472962,-0.65190655,-1.7370704,1.7130837,3
1282,1.8935311,1.1369529,-1.5410669,1.1025646,4
1283,-1.1159798,-0.54656005,1.2349101,-2.7705684,5
1284,-0.547737,0.56282496,-2.0908892,-0.59071064,6
1285,-1.4071223,-2.3602283,-1.7771853,-0.92344475,7
1286,1.266568,-3.0437531,-0.583854,-1.1654543,8
1287,-0.79087687,0.65413946,-0.291332,-1.1360611,9
1288,1.4064386,-0.16183794,-1.2340188,-0.94362676,10
1289,0.8265994,-1.7201304,-1.5085411,-0.6912581,11
1290,0.47812575,1.1581677,0.653476,1.415672,12
1291,-1.1250514,0.7264441,-1.1825787,-0.2935631,13
1292,1.6146015,-1.5056931,-0.14719415,0.6554792,14
1293,-0.1706009,-0.3969063,-1.0073102,-0.45826557,15
1294,-1.7115586,-1.4934903,-1.5964484,1.6054995,16
1295,-2.2680953,0.38693905,0.38369173,-1.7502517,17
1296,-1.9369301,-0.040470123,-0.58529186,-1.8082103,0
1297,0.75600606,2.400556,-1.1912019,-2.2531567,1
1298,1.8836346,-1.8433291,-1.4859706,-0.71960336,2
1299,-0.74399126,-0.69993305,-0.92678934,1.3947358,3
1300,-1.0713984,-0.44079828,-1.2141801,0.8629192,4
1301,-0.8204124,-0.045860082,1.0817354,-2.7423353,5
1302,0.26050612,2.5136046,-1.1780341,-0.8121633,6
1303,-1.2099376,-0.7373009,-1.0321378,-1.6159313,7
1304,-0.5104572,-3.1690311,-0.48446685,-1.8355038,8
1305,-1.0140336,-0.33009362,-1.6178483,-1.0705057,9
1306,-0.20321377,1.2145699,-0.5982611,-1.0240953,10
1307,1.6470958,1.4168652,-1.1860574,-0.60764873,11
1308,-1.7137111,-1.6650732,-0.4589709,1.1327261,12
1309,-0.55374736,0.6093626,-0.09379035,-0.3497509,13
1310,-2.4334562,-1.7740796,-0.47895417,0.34511688,14
1311,0.8586205,-0.70967233,-0.069633886,-1.1856121,15
1312,0.8703332,-2.0307345,-0.14511603,1.0013804,16
1313,1.4207783,-0.13766353,-0.44082874,-2.410665,17
1314,-2.2281191,-0.56753004,-0.71457636,-1.6449622,0
1315,0.47403097,-0.9492747,-2.2039058,-0.9757335,1
1316,-1.4844413,-1.6184952,-1.4219211,-0.96989834,2
1317,-0.14321199,1.5562844,-0.9709058,1.8744277,3
1318,-1.6485761,1.6292281,-0.5010887,1.2211263,4
1319,-0.4862432,-1.3225892,0.38557652,-1.8573736,5
1320,-1.1968179,2.1911879,-0.70688426,-0.6089826,6
1321,0.07812145,0.541765,-0.7765815,-1.4737768,7
1322,2.6283922,-3.1438358,-0.6318531,-0.5897048,8
1323,-1.2563046,1.0982019,-0.995107,-1.2783769,9
1324,2.1524982,1.04913,-1.1465057,-1.1460934,10
1325,-1.0774834,1.6698828,-0.9985688,-1.3938019,11
1326,-3.0910552,0.8079426,-0.9277186,0.6514592,12
1327,-0.9583717,0.23491946,-0.64768225,-0.35751396,13
1328,-1.7238991,-1.6384782,-0.075901635,0.22265603,14
1329,2.7344744,1.3033705,0.16242217,-0.79922074,15
1330,2.0235283,-1.3142365,-0.89239806,0.592499,16
1331,-1.3199096,0.31302828,0.6721523,-2.5370271,17
1332,0.064828426,-0.30909276,-0.06650424,-2.6882703,0
1333,1.2607266,-0.26858807,-1.2853677,-1.8424636,1
1334,-2.049871,-1.8589272,-1.3102298,-0.40462333,2
1335,-1.307536,0.7305085,0.72037446,1.3973427,3
1336,-0.13452464,0.5126333,-3.0641742,0.4201243,4
1337,-1.1360232,-0.7155313,-0.48398614,-1.0816687,5
1338,0.67012924,0.5584027,-2.4836254,-0.52540886,6
1339,-1.1233929,-1.577651,-1.3443906,-1.1506468,7
1340,-0.64927214,-3.0720987,-0.6947537,-0.1569196,8
1341,-0.1589357,0.96044964,-1.3261234,-1.2054738,9
1342,1.4118491,-0.3066219,-2.1474874,-1.0551398,10
1343,0.46074212,0.592332,-1.4070637,-1.2453748,11
1344,1.0515444,-0.09228061,-1.5609035,1.1347343,12
1345,-0.0871651,0.6708237,-0.85587204,-0.01777941,13
1346,0.9761952,-1.9808272,-0.3329026,0.42873514,14
1347,-0.111192524,1.2704978,0.18209018,-1.3807143,15
1348,-0.16541043,-1.7351072,-0.45336562,1.1313415,16
1349,0.11026974,-0.8664909,-0.04874575,-1.7071536,17
1350,1.8278799,0.16245967,-0.30975002,-1.9126922,0
1351,-0.067812935,1.2634227,-0.64872813,-1.0589873,1
1352,1.6025262,-2.3901236,-1.8704923,-0.49004444,2
1353,2.011626,-0.8483865,-1.7261102,2.608112,3
1354,-0.16611312,0.7096942,-1.3968177,0.7568481,4
1355,-0.8681841,-0.5661812,0.97797805,-1.5985646,5
1356,0.5190341,0.70089996,-2.8899329,-0.46554285,6
1357,-1.5507071,0.50182545,-0.39026004,-0.90165627,7
1358,2.026212,-2.7602718,-0.73205954,-0.44001544,8
1359,1.0925946,0.6405524,-0.18171376,-1.1562066,9
1360,-1.1625803,2.0565624,-0.25332624,-0.8266789,10
1361,-1.7719283,1.2248371,-1.2290626,-1.097789,11
1362,2.0184994,1.2858711,-0.505051,0.5765596,12
1363,-1.5308828,-0.6822517,-1.6455611,-0.25555673,13
1364,-1.603749,-1.7687416,0.43378922,0.5755364,14
1365,-0.23608802,1.37855,0.76081765,-1.2432384,15
1366,0.69281495,-0.4359156,-0.044264287,1.6340542,16
1367,0.16499643,-0.8803428,-0.43337262,-3.543151,17
1368,-0.028432278,-0.68770564,-0.57791084,-2.4258018,0
1369,-0.453168,3.308104,-1.2298295,-2.966239,1
1370,-0.4429782,-3.1086748,-1.963665,-0.74156976,2
1371,1.2023492,0.8665905,0.16582239,2.3510845,3
1372,0.3708162,2.7534509,0.9731988,0.8594669,4
1373,0.54299504,-0.32315063,1.0720412,-1.0735002,5
1374,2.2594206,0.564687,-1.2784146,-0.8988218,6
1375,-2.341997,-0.78448105,-1.6675569,-1.0571322,7
1376,-0.16705674,-3.2221434,-0.7533222,-0.8169238,8
1377,2.6739995,1.3533962,-0.3933571,-0.7890202,9
1378,-1.199169,0.6199648,-0.57039493,-1.1017605,10
1379,-0.34734237,2.0292873,-0.4399619,-0.7788021,11
1380,-1.8302736,0.8102805,-2.1581678,0.84856737,12
1381,-0.7066167,0.11853692,-0.7178993,0.011737913,13
1382,1.7218723,-0.58476245,0.442184,0.4746456,14
1383,1.2265306,0.15146813,0.42095923,-0.8188105,15
1384,0.71952295,-1.889894,0.20904219,1.7567414,16
1385,-0.11170448,-0.7505357,-0.28145254,-2.614937,17
1386,1.1631911,0.78388166,0.6439399,-2.0705905,0
1387,1.278193,-0.4055103,-1.6343912,-1.2372513,1
1388,0.481597,-1.7297124,-1.8903295,-0.75085884,2
1389,-4.3570385,2.1366694,-1.7233632,1.4369516,3
1390,3.392598,1.0869882,-1.8279278,1.1281492,4
1391,-0.45693964,-0.4759046,0.86772704,-1.730423,5
1392,-2.8688293,-0.48723844,-2.1053772,-0.5084677,6
1393,0.56379175,-0.9256834,-1.3599188,-0.84519386,7
1394,0.017485231,-2.9186578,-0.26359373,-0.5195662,8
1395,-0.7841042,0.63442725,-0.32921568,-1.3066871,9
1396,2.2215497,2.2620823,-0.36509752,-0.9554394,10
1397,0.7104384,1.336933,-0.37252682,-1.0341269,11
1398,-0.014690101,0.871008,-0.4553164,0.6758319,12
1399,-1.4311816,1.6812955,-1.09553,-0.16501419,13
1400,0.07571169,-1.2856891,0.080578595,0.54079604,14
1401,1.6019635,0.16276915,-0.33741462,-0.7705116,15
1402,1.4108102,0.7464446,-0.30706093,1.3328652,16
1403,1.7073345,0.076372236,0.7335068,-1.9293009,17
1404,-0.36395788,0.3397945,0.28928065,-2.0180697,0
1405,0.0025784299,0.02286771,-1.5797969,-1.2354841,1
1406,0.12572211,-2.4803712,-1.5273651,-0.9944751,2
1407,0.3695833,-0.44169134,-0.64574707,2.4520006,3
1408,-0.22483481,-0.024108052,-0.2963519,1.882112,4
1409,-0.115095235,-0.4360754,0.7622404,-2.0704896,5
1410,-0.59624505,2.1447432,-1.9409143,-1.1181667,6
1411,-1.206249,0.4645189,-0.96945226,-1.1746994,7
1412,-2.171661,-3.2594368,-0.459648,-1.8268106,8
1413,1.2054417,-1.2643026,-0.6654854,-0.8282169,9
1414,2.0366738,0.7996738,-0.40629536,-0.7815099,10
1415,3.2944949,0.2626835,-0.93911076,-0.46536517,11
1416,0.8680669,1.385273,-0.10651779,0.5352462,12
1417,-0.5183575,1.0587767,-2.2708726,-0.55650485,13
1418,-0.79279256,-1.4958477,0.086263806,0.52538836,14
1419,-1.1816083,-0.27476177,-0.3610353,-1.0846214,15
1420,1.8145328,-1.1605533,-0.41115227,0.49927026,16
1421,0.19698873,0.06203264,0.48477212,-2.467204,17
1422,-1.746878,0.06640878,-0.09279248,-2.527687,0
1423,-0.022028852,1.910702,-0.29099464,-2.091504,1
1424,-0.9564152,-2.990838,-1.8292885,-0.6442158,2
1425,-1.5138234,3.9149168,0.8583683,2.1835136,3
1426,-2.297048,0.8177235,-0.9388354,0.85857797,4
1427,-1.4156728,-0.080432296,0.57440084,-1.3876777,5
1428,0.27608132,1.8126668,-0.6513001,0.0009098649,6
1429,1.311661,-2.0649858,-1.2823564,-1.0047685,7
1430,-0.39255613,-3.053541,-0.7519875,-0.7772922,8
1431,1.535214,1.3529074,-1.375731,-1.1423873,9
1432,-2.2342067,0.94813764,-0.35013473,-0.6815898,10
1433,-1.293848,2.4279933,-0.67878926,-0.628875,11
1434,-1.7498444,-0.3913104,-2.3726108,1.2380921,12
1435,-2.1950786,1.0174881,-0.78314817,-0.22312304,13
1436,-1.0817941,-3.0475144,-0.52879065,0.07931194,14
1437,1.2842889,-0.13453951,-0.22722669,-0.06967986,15
1438,-0.95717746,-1.9962637,-1.0440629,0.6155716,16
1439,-0.12310523,-0.14593594,-0.3999502,-3.1327047,17
1440,2.499165,0.84464264,0.093123585,-0.9742714,0
1441,0.18208921,1.9263394,-1.2899834,-1.3918182,1
1442,0.4260221,-1.2429883,-1.526127,-0.83286047,2
1443,-0.3587935,0.89961493,-1.0103376,2.368958,3
1444,-1.0828226,2.3285427,-0.67611605,1.4857461,4
1445,-0.052661963,-0.07243329,0.62265766,-2.01819,5
1446,0.46625745,-0.17079195,-2.3999827,-1.0189729,6
1447,-0.794216,-1.5207295,-1.0275695,-1.062863,7
1448,-1.0791348,-3.275062,-0.7582709,-0.71730655,8
1449,0.14117306,0.2694755,-1.2066643,-0.56738794,9
1450,-1.5281276,-0.06498563,-2.231669,-1.374056,10
1451,-0.5118826,2.4304268,-0.58384824,-0.95318013,11
1452,-1.7611296,0.6506693,-0.98157114,1.2408507,12
1453,1.2277399,0.86078155,-0.89132994,-0.20628595,13
1454,0.5781455,-1.9105967,-0.5123155,0.20016599,14
1455,2.205912,0.4612065,-0.047973312,-0.8583154,15
1456,0.49393138,-1.0657177,-1.2330362,1.2302862,16
1457,0.089460805,-0.7609118,-0.13636589,-1.3093276,17
1458,0.9478478,1.612568,0.48658884,-2.0038292,0
1459,0.20628406,2.4918416,-0.9289166,-1.7586397,1
1460,-0.8942863,-1.7781963,-0.7563834,-0.3943782,2
1461,-0.90661776,1.6176037,-0.31318116,1.5522518,3
1462,1.5191083,0.83296216,-1.290344,1.1089618,4
1463,2.0903587,-0.6678678,0.40198773,-1.1612418,5
1464,-0.66548645,0.40009472,-3.3411083,-0.4019678,6
1465,-0.17418067,0.079545856,-1.1477891,-1.189101,7
1466,-0.45839188,-3.1365247,-0.7104882,-0.3685441,8
1467,1.4693872,1.6919522,-0.7652465,-0.83015484,9
1468,0.0092716655,0.5958451,-0.6607927,-1.3672829,10
1469,-0.18076968,0.9628897,-1.7167852,-0.8795284,11
1470,-2.5835733,-0.67010844,-0.19023436,1.3944262,12
1471,1.304564,-0.102499634,-0.79046917,-0.19590771,13
1472,0.14591351,-1.9755938,-0.34085664,0.5972023,14
1473,-2.1014206,-0.7330054,-0.5458908,-0.8480482,15
1474,0.25015074,-1.416157,-0.7871658,1.4219373,16
1475,-1.2186562,0.051898494,-0.46820801,-1.9006252,17
1476,-0.085831076,0.102897674,-0.02974208,-2.0273902,0
1477,0.5531433,-0.3763988,-2.400234,-1.2359421,1
1478,2.1146414,-1.7647042,-1.3422644,-0.9452002,2
1479,0.65115124,0.71724725,-1.0597804,1.7837212,3
1480,-1.4146014,0.92461133,-0.8545206,1.4711185,4
1481,1.5028398,-0.4821261,0.85271716,-1.9468673,5
1482,-0.7527953,-0.18347791,-2.0866592,-1.2606381,6
1483,1.4946293,-0.5050803,-1.0580873,-0.80533457,7
1484,-0.64855814,-3.0131779,-0.28904077,-1.5908719,8
1485,0.9914317,1.0277934,-0.08125013,-0.90916765,9
1486,-1.0009066,0.29527467,-0.8639519,-0.75750333,10
1487,-0.9029139,2.3133237,-0.3819083,-0.7653693,11
1488,2.1811097,0.47054803,0.018578649,1.7831728,12
1489,1.0005449,0.31708765,-1.1743847,-0.31221843,13
1490,1.3072067,-1.752845,0.40040216,0.647736,14
1491,2.1078894,1.6089833,0.46912658,-0.60430574,15
1492,-2.2506747,-0.04071176,-0.3687691,1.388586,16
1493,2.1735597,1.3644443,1.3098239,-0.2929027,17
1494,-0.40310937,-0.35490394,-0.07761204,-2.751141,0
1495,0.21525432,1.2158912,-1.7180266,-1.0647614,1
1496,-2.6440194,-1.972531,-1.1189979,-0.6870598,2
1497,-0.51041526,0.866008,-1.0000186,1.1125429,3
1498,-3.655756,-0.38476813,-1.4083718,1.0071443,4
1499,0.17105459,0.09577733,0.6455969,-1.5602926,5
1500,-0.003263194,-1.3110667,-2.3289592,-0.74176407,6
1501,0.9497886,-1.2306716,-0.94816273,-0.8952037,7
1502,-0.22889595,-2.854466,-0.4468195,-1.1796186,8
1503,0.5905405,0.7608079,-1.6116607,-2.0454407,9
1504,-1.4957253,1.2885547,-0.4018875,-0.76643825,10
1505,1.5912621,1.1354009,-1.1019491,-0.8780482,11
1506,0.7073823,0.57729673,-0.73329556,0.69193244,12
1507,-0.73849046,-0.5587784,-0.89235955,-0.3486184,13
1508,0.7630755,-2.4045672,-1.8468994,-0.22625464,14
1509,-0.43589002,0.75508726,-0.28816515,-0.73000443,15
1510,2.4472406,-2.5791132,-1.8302543,1.1712177,16
1511,1.7729763,-0.013540879,-0.26043367,-2.6137981,17
1512,1.3747456,-0.07209596,-0.567185,-1.6258394,0
1513,0.6231769,-1.3375778,-2.4133873,-1.4593459,1
1514,0.9133865,-1.7796147,-1.8318549,-0.6054369,2
1515,-1.4596548,-1.8878872,-1.0687547,2.189726,3
1516,0.82052666,-0.9660828,-1.3425916,1.0833726,4
1517,0.325938,-0.33898035,1.515234,-1.6854471,5
1518,0.41775575,1.7018402,-1.8624395,-0.37677613,6
1519,0.37648714,0.5563004,-1.2418967,-0.673212,7
1520,0.9275892,-3.1271262,-0.49510053,-1.1554894,8
1521,1.0058297,1.0457718,-1.1157322,-0.79394346,9
1522,0.4084976,2.543797,0.22682124,-0.54993206,10
1523,-1.3979495,1.0247899,-1.8789684,-0.8004576,11
1524,-1.2998741,-1.809129,-1.7125385,1.1052542,12
1525,-1.1747266,-1.2292038,-1.3285829,-0.4426149,13
1526,-0.14407508,-0.8802042,-0.35352808,0.34119353,14
1527,-0.5502708,0.9319354,0.47886473,-0.8496799,15
1528,-0.03131579,-0.46603638,-0.7656325,1.4445405,16
1529,-1.1617924,0.18461931,0.11438376,-2.646198,17
1530,-0.1805378,0.019422308,-0.4388487,-0.89577234,0
1531,-1.2453116,0.73003876,-1.2266238,-1.9738988,1
1532,-0.6443423,-2.6536548,-1.946134,-0.6445697,2
1533,0.1385402,-3.203376,-1.2511847,1.8673579,3
1534,2.8654742,-0.6718098,-2.931453,0.4771008,4
1535,-1.2440755,-0.46059132,1.0733173,-2.4325027,5
1536,2.2297704,0.42885163,-0.9681109,-0.9252528,6
1537,0.0698601,-2.595729,-2.1818023,-1.1484902,7
1538,-1.0582684,-2.941541,-0.64962864,-0.6806446,8
1539,-2.283369,1.8156538,0.44644666,-0.9173392,9
1540,-0.119241856,2.1157174,-1.1657107,-0.8455464,10
1541,-0.3834691,-1.8892827,-1.9585447,-0.9832462,11
1542,-2.0466118,0.9719248,-0.62955034,0.6449064,12
1543,0.13509282,1.3028083,-0.29227316,-0.2724292,13
1544,1.1090016,-0.49609447,-0.049605608,0.39071608,14
1545,1.1517413,-0.7043352,-0.7970093,-1.3801321,15
1546,0.20369811,-1.5591272,-1.4352517,1.5179715,16
1547,0.8172763,-0.29132402,-0.08662757,-1.2630773,17
1548,0.90194046,0.7529541,0.2960721,-3.6226082,0
1549,1.0319244,-1.0219368,-2.213029,-1.2742317,1
1550,1.4431949,-1.4144113,-1.2632767,-0.45519763,2
1551,-1.0151614,-1.1899192,-0.031583548,1.7302083,3
1552,0.6533116,1.534133,-1.0296528,1.247685,4
1553,0.0824252,-1.0656822,-0.00058448315,-2.3842018,5
1554,0.8331992,2.0737796,-2.1813734,-0.60804754,6
1555,0.8840246,-1.6726468,-1.1973085,-1.1023959,7
1556,-1.590672,-3.357841,-0.7080852,-1.7234546,8
1557,0.26367107,0.9118787,-0.57732725,-1.3673713,9
1558,-1.067383,1.2902671,0.04253584,-0.30905813,10
1559,0.31337494,1.3393785,-0.895662,-0.95565593,11
1560,3.133935,-0.7992106,-1.1050365,0.86421514,12
1561,0.057138834,-0.027881503,-0.45792603,-0.39080974,13
1562,0.4436593,-2.0600328,-0.26886117,0.7230356,14
1563,-1.2178768,-0.38740626,-0.7797476,-0.20412713,15
1564,0.2984952,0.016752481,0.17574358,1.4667577,16
1565,-0.72868174,-0.03755696,0.33212316,-1.9608026,17
1566,-0.005690089,0.5101244,0.229137,-1.7319596,0
1567,0.081626326,-0.2655987,-1.9972882,-1.4933957,1
1568,-0.4189645,-2.6877816,-1.890013,-0.37774014,2
1569,0.29438776,-2.2294214,-1.2911978,1.904508,3
1570,0.474612,1.0417014,-0.9132895,0.7556989,4
1571,-1.4206601,-1.094235,1.4549164,-1.4369407,5
1572,-1.0673113,0.051983893,-0.9450412,-0.722759,6
1573,0.6379284,-1.9047215,-1.7110059,-1.7521763,7
1574,-1.6592934,-2.8472676,-0.5103853,-2.2683034,8
1575,-1.227319,1.4832685,0.30106097,-0.96926683,9
1576,-1.2980163,0.77091587,-0.62405396,-0.8466424,10
1577,2.8715549,1.6687963,-0.94991755,-0.80692124,11
1578,1.6367553,0.22467507,-0.3215748,0.82340074,12
1579,-0.5949159,1.1189342,-0.9781276,-0.68640363,13
1580,-0.47123387,-1.8184935,-1.351368,-0.48260105,14
1581,-0.10332169,-0.13613209,-0.005488351,-0.41248095,15
1582,0.84303975,-2.5338361,-0.3612664,0.82385546,16
1583,0.08606167,0.40467954,0.9905023,-2.049052,17
1584,1.0329869,0.90510994,1.0301319,-2.2481275,0
1585,0.2669598,-0.26459384,-1.1372573,-1.8286359,1
1586,-0.29822177,-0.689149,-1.3400801,-0.8799169,2
1587,0.7315836,2.2349017,-0.35232502,2.0891101,3
1588,1.1772102,-1.820124,-1.9056475,1.317153,4
1589,-0.5817575,-0.7523496,0.21278515,-0.16378593,5
1590,1.6212183,1.3715416,-2.2756312,-0.7519391,6
1591,0.39102757,-0.61679626,-1.0128511,-0.9742339,7
1592,1.7108086,-2.8090272,-0.4537723,-0.87411094,8
1593,1.1194346,-0.37295306,-1.0308728,-1.1370195,9
1594,-0.95038855,1.7967422,-1.0520945,-0.5619048,10
1595,-0.85608345,1.9957281,-1.3024868,-0.70578295,11
1596,-0.6368642,-0.56321436,-0.7709259,1.4541936,12
1597,2.4126396,1.34253,-0.45911223,-0.20474228,13
1598,2.493683,-2.306231,-0.59291387,0.5905505,14
1599,-0.48470923,-0.26335338,-0.63488805,-0.69815576,15
1600,-0.2902282,-3.8544025,-0.91953367,1.3874813,16
1601,-1.6121913,1.192069,0.93847275,-3.3840542,17
1602,-1.7492912,0.20027721,0.41242877,-2.3416648,0
1603,0.18535602,2.1663558,-0.7579559,-1.3393043,1
1604,0.77576447,-1.906198,-2.1382585,-0.97080225,2
1605,1.5614474,0.9744915,-0.27956486,1.5556831,3
1606,-1.01564,-2.2413054,-1.8232048,0.83211446,4
1607,2.8721943,-0.5045108,0.17321962,-1.9811378,5
1608,-0.3109993,0.8891063,-0.83385146,-0.46422374,6
1609,0.14483428,-2.327957,-1.6180348,-1.0793952,7
1610,0.20477359,-3.0526018,-0.26817957,-1.1763732,8
1611,-0.69205356,-0.13904297,-0.074892044,-0.80766124,9
1612,1.4356425,0.14848197,-0.0048643947,-0.5172841,10
1613,-0.8995608,0.60905534,-2.1743393,-0.28894794,11
1614,-0.4697949,1.4105654,0.41984034,1.1825502,12
1615,2.143995,0.39967194,-0.24052382,-0.063319474,13
1616,0.49897963,-1.9431621,0.31671152,0.6008348,14
1617,-0.19614632,0.47411665,-0.2513079,-0.88331616,15
1618,2.2427034,-1.6545856,-0.86316395,1.026916,16
1619,2.1654303,0.4988944,0.4843387,-0.80329144,17
1620,-0.3104363,0.061296865,-0.03146023,-2.0001698,0
1621,1.1444379,-1.0941195,-1.2124562,-1.5722417,1
1622,-0.6159132,-2.3197088,-1.1811649,-0.42972603,2
1623,-2.0248945,2.0265634,-1.5861776,1.301147,3
1624,0.7844827,2.2795353,-1.5346019,0.29208475,4
1625,-0.014476985,-0.42210534,0.5249116,-1.5602262,5
1626,-1.377911,-0.16768017,-1.4382639,-0.7475889,6
1627,0.879866,0.5052694,-0.73675597,-1.2120613,7
1628,0.4823617,-2.8281507,-0.69889617,-0.97035646,8
1629,1.123289,0.70518845,-0.32458523,-1.0491102,9
1630,-1.5541676,-0.13726687,-1.5038002,-0.5747237,10
1631,2.1210065,1.2448602,-1.2156278,-0.47119436,11
1632,0.3779306,-0.67172915,0.18961799,1.7602468,12
1633,-0.62381464,0.22360338,-0.54302275,-0.25343442,13
1634,0.9780388,-1.3549773,0.08462396,0.31856552,14
1635,1.3195204,0.5575634,0.90611136,-1.1668954,15
1636,-0.313105,-0.47051066,-0.6231905,1.2663895,16
1637,-0.6777045,0.76058286,0.43595016,-2.810685,17
1638,0.18002631,0.81327915,0.33354834,-2.2709873,0
1639,0.2550282,0.5832391,-1.8250333,-1.4390583,1
1640,-0.4518112,-2.0824237,-1.5294622,-0.89351237,2
1641,-0.33418155,-1.3558137,-0.5238332,1.3253912,3
1642,-1.9414703,0.29611492,-0.8423594,0.6294582,4
1643,0.5156723,0.0027020276,0.23740625,-0.52699494,5
1644,0.90863776,-0.29822978,-2.4492345,-1.1935132,6
1645,-0.96639246,-0.112469435,-1.1284449,-1.6265907,7
1646,0.5316505,-3.1281118,-0.19430009,-1.9346284,8
1647,-0.1446843,0.43285322,-0.9768789,-0.65136576,9
1648,1.2018113,-0.36279142,-1.053238,-0.862933,10
1649,0.2557916,0.93442905,-2.0482588,-0.9784074,11
1650,3.173423,0.092517585,0.15661532,1.4985986,12
1651,-0.13520466,-1.8580699,-1.2417088,-0.29175594,13
1652,0.6639261,-1.8881192,-0.64156294,0.27869415,14
1653,2.085071,0.7213131,-0.033498436,-1.19082,15
1654,-0.4724407,-1.1007084,-1.3888092,1.5923625,16
1655,0.41070226,0.5491143,0.93526953,-2.1212316,17
1656,-0.7909627,0.2012167,-0.11524971,-2.1535106,0
1657,0.07304725,0.5510514,-1.766085,-1.8236519,1
1658,-1.5572605,-2.5136752,-1.7953854,-0.50071937,2
1659,0.7343521,-0.75845975,-0.88917834,1.2529147,3
1660,1.4405355,-1.4835352,-2.1562924,0.5080637,4
1661,0.97209466,0.13033104,0.674155,-2.0994444,5
1662,-0.6858291,-0.5281522,-1.9913769,-0.2945315,6
1663,-1.1851791,-1.7408311,-1.1272557,-0.8892292,7
1664,-0.12382923,-3.1788905,-0.5477299,-2.0409899,8
1665,0.30097657,0.71166146,0.108622015,-1.1078167,9
1666,-0.2906112,0.4027609,-0.90686023,-0.86477077,10
1667,2.0073988,2.6959176,-1.1564064,-1.0054641,11
1668,-0.73331594,0.34544137,-0.385488,0.13787138,12
1669,-0.21917494,-0.83196723,-1.8369589,-0.50651205,13
1670,2.3137212,-1.7795559,-0.38363567,0.45658776,14
1671,0.16827084,0.069131136,-0.7297313,-0.37682858,15
1672,0.8737257,-1.5616558,-1.0272679,0.45097256,16
1673,0.51441306,-1.0631325,0.2881996,-2.4136348,17
1674,0.9453621,0.33328122,-0.75372994,-1.7203348,0
1675,2.054104,1.5191473,-0.7203981,-1.1846635,1
1676,-1.0945637,-2.0211349,-0.97556096,-0.68817824,2
1677,-0.068237744,1.5925155,-0.30220598,1.4571149,3
1678,-3.187736,1.1246672,-0.5237123,0.71569306,4
1679,0.29525816,-0.39146677,0.30878836,-1.3335811,5
1680,-1.0482703,1.0580488,-1.2409322,-0.011922896,6
1681,-0.88336533,0.9012842,-0.43278587,-1.0305164,7
1682,-0.90733457,-3.200576,-0.5636904,-1.4823179,8
1683,-1.8492767,1.0630264,-0.7194364,-0.4820481,9
1684,1.2891586,1.7881655,0.18361032,-0.8290391,10
1685,0.30899188,2.0791934,-0.670884,-0.97231984,11
1686,0.5188954,-1.4288648,-0.043020487,1.30174,12
1687,1.519863,1.0195669,-2.0280735,-0.4160679,13
1688,-2.321275,-1.9866915,0.28687888,0.41449827,14
1689,-1.2991261,0.08000937,-0.032374367,-1.1509401,15
1690,-0.7329904,-0.6719312,-1.375036,0.54263246,16
1691,0.9386572,0.25382683,-0.020698845,-1.8092577,17
1692,-1.092114,-0.41488874,-0.68179077,-1.9004723,0
1693,-0.81394595,2.9525506,-0.1737305,-1.4094659,1
1694,-0.063691445,-2.2957296,-2.176221,-0.348013,2
1695,1.9187814,0.24462213,-0.82419896,1.5232724,3
1696,-0.7595174,-1.4502205,-1.3697426,0.6889924,4
1697,0.97509104,-0.7473178,0.8069005,-0.9897935,5
1698,-0.35887972,2.233718,-1.202209,-0.88521636,6
1699,1.2414699,-0.74308723,-0.8190404,-0.8895274,7
1700,-1.2661717,-3.1660445,-0.38709486,-1.2148374,8
1701,1.6837579,2.0063415,0.107807994,-0.45081913,9
1702,0.32514423,0.79341733,-0.9296503,-1.123489,10
1703,0.35938248,-0.50089073,-1.6337771,-0.71100795,11
1704,-0.25959313,-0.7331531,-1.5930697,1.5482438,12
1705,0.76776266,0.7830509,-1.6824178,-0.4115997,13
1706,0.5108873,-1.5512974,0.72142136,0.80884886,14
1707,0.9632298,1.0222847,-0.13120358,-0.7519515,15
1708,-0.69614923,-0.70647526,-1.007832,0.92023015,16
1709,1.1713215,1.3509852,1.4508288,-1.565078,17
1710,-1.1591614,0.8748953,0.6736695,-1.7895707,0
1711,-0.7762509,-0.51216465,-1.7672933,-1.4574951,1
1712,-1.5596229,-2.035755,-1.6286579,-0.42195752,2
1713,1.193672,1.303859,-1.0724618,1.5133698,3
1714,-0.26704913,1.4975682,-1.2025454,0.6049384,4
1715,-0.8308102,-0.65466523,0.64902306,-1.3193784,5
1716,2.1806118,-0.72817075,-2.27892,-0.22668794,6
1717,0.35442096,-4.309597,-1.8297007,-1.1255648,7
1718,-1.439538,-2.8113453,-0.52418315,-1.0985589,8
1719,2.60303,0.46829093,0.16491538,-1.043573,9
1720,1.179389,0.9050271,-0.4478642,-0.67173296,10
1721,-1.6505919,0.38594827,-1.4346417,-0.582772,11
1722,-3.2770977,0.5176925,0.26796353,0.9740716,12
1723,2.9180384,1.0221806,-1.1383098,-0.16648607,13
1724,-2.4322884,-1.2493702,-0.13543674,0.32544917,14
1725,-1.331365,1.2907798,0.66254497,-0.6807433,15
1726,0.049239926,-1.442251,-0.2172882,0.89823395,16
1727,-2.5302768,-0.44398928,-0.07766616,-1.6869597,17
1728,0.7073687,0.42632955,-0.18001941,-1.2738105,0
1729,0.25555885,0.3125878,-1.0293908,-1.0180194,1
1730,-0.3769341,-2.3508573,-1.3175331,-0.8861986,2
1731,1.5234641,1.691166,-1.2550776,1.275494,3
1732,-1.0971457,0.58432794,-1.1636982,0.6053338,4
1733,-1.1564684,-0.84713465,0.29296562,-1.1800667,5
1734,1.601148,-1.4381715,-1.9003872,-0.7471398,6
1735,-1.7566621,-0.40064698,-0.52115464,-1.0128713,7
1736,0.60333335,-2.8947875,-0.6090178,-2.587245,8
1737,1.1103271,1.3704597,-0.6676583,-0.83917105,9
1738,2.1990151,-0.04312998,-0.61363995,-0.61895376,10
1739,-0.55464846,0.09144777,-0.106086254,-0.98223424,11
1740,2.6102664,-0.63483846,-1.3826768,1.2832339,12
1741,0.29307517,-0.5808985,-1.4573417,-0.25325114,13
1742,-0.015274409,-2.2760792,-0.52034,0.19475043,14
1743,-0.15547489,0.039403796,-0.41267675,-0.26753515,15
1744,1.1662699,-1.2261759,-0.8604859,0.89937174,16
1745,0.32430494,-0.039448157,0.11043939,-2.2417653,17
1746,-3.193228,0.77406675,0.055322375,-2.2560062,0
1747,-0.48399705,-1.835532,-2.5977645,-1.2914042,1
1748,0.13721184,-2.0245202,-1.4987518,-0.5789985,2
1749,-1.3345044,1.8597823,-1.3865707,0.68086576,3
1750,1.4984299,-0.3426847,-1.339358,0.9361928,4
1751,0.85493314,0.058745503,0.962367,-2.1855342,5
1752,1.4975603,1.2224902,-1.3789577,-0.42402405,6
1753,-0.07813657,-1.2934769,-1.7417794,-1.1296078,7
1754,-1.9207481,-2.91837,-0.539385,-0.89432263,8
1755,0.2502696,1.1892289,-0.15526178,-1.1727786,9
1756,1.1503023,-0.3411343,-1.1428589,-1.3464916,10
1757,1.6073674,1.504137,-0.6724551,-0.8497298,11
1758,-3.5765922,-1.3776915,-0.2164135,0.91535676,12
1759,2.0808132,-0.013983071,-0.9485452,-0.29163405,13
1760,0.011448067,-2.7564666,-1.0270472,-0.12101197,14
1761,-1.0534804,0.8936166,0.056209102,-0.7963556,15
1762,0.13603657,-1.2544703,-0.20178649,1.247258,16
1763,2.3758678,-0.92185026,-0.3139997,-1.118365,17
1764,1.1496495,0.17201623,-0.31343248,-1.9486048,0
1765,-1.864466,-0.035498068,-1.5371009,-1.9124248,1
1766,0.19536698,-2.543752,-0.9147336,-0.36190867,2
1767,-1.3315169,-1.7126722,-1.1477141,1.8083323,3
1768,-1.1340994,-0.23483038,-0.7601441,1.3053492,4
1769,-0.43391114,-0.65208095,0.079927504,-2.8196425,5
1770,-0.25310823,1.0066776,-2.607421,-0.75997335,6
1771,-0.47198403,-1.8923143,-1.3615763,-0.9293418,7
1772,-0.18944845,-3.615197,-0.24413326,-1.8126875,8
1773,0.38615924,0.4190851,-0.72447705,-0.7517586,9
1774,-2.0010579,1.8267477,-0.79916584,-0.38769144,10
1775,4.208048,-0.13650012,-1.7456039,-0.9937906,11
1776,2.8684852,0.73843044,0.0988307,1.8809371,12
1777,2.3951383,-0.12560931,-1.3516116,-0.4365948,13
1778,1.071165,-1.0562983,-0.022835657,0.4848415,14
1779,-0.8432596,0.22475836,0.24941497,-0.49343508,15
1780,1.019491,-1.6521062,-0.19425127,1.7773974,16
1781,1.8333442,-0.5672914,-0.08173096,-1.6772337,17
1782,-1.8004153,0.57264566,0.2880884,-1.9308468,0
1783,-0.033314288,0.8453557,-1.3535728,-1.1932659,1
1784,0.69424254,-2.8501112,-1.7093401,-0.7813096,2
1785,0.6113387,-3.0888853,-0.073427916,1.8925844,3
1786,-1.9737886,-0.9889195,-2.2601004,1.3362966,4
1787,1.5691693,-0.3541134,-0.15075499,-1.4422286,5
1788,-1.4888072,1.3487877,-1.380474,-1.2104056,6
1789,-1.3325058,-2.0728815,-1.3531091,-1.473684,7
1790,-1.7761246,-2.84104,-0.3773203,-1.0752722,8
1791,0.070518315,0.105487466,-0.4503844,-0.41050035,9
1792,0.11849616,0.022331774,-1.7676377,-0.36703116,10
1793,0.511377,1.814538,-0.58243513,-0.87142,11
1794,-0.53156614,0.9321043,-1.5019335,0.99067426,12
1795,0.56266,2.048124,-0.9248656,-0.41028196,13
1796,0.22333957,-2.5445266,-0.18678379,0.5375396,14
1797,1.790361,-0.07793161,-0.42819697,-0.3965704,15
1798,-1.5186623,-2.9118319,0.34826922,0.8856484,16
1799,-0.1730032,0.087019086,0.66510516,-2.228454,17
1800,1.6550323,0.64344454,0.34552294,-1.9826972,0
1801,-0.6330377,0.19104251,-2.1105716,-2.1655545,1
1802,-0.2846561,-3.239271,-1.4499401,-0.48660666,2
1803,0.6924932,3.714258,-1.448283,1.8421763,3
1804,2.5283663,0.29352957,-2.7025187,1.5249467,4
1805,-0.26609808,-0.5928563,0.7709297,-2.05934,5
1806,0.01849258,-0.67313015,-2.904821,-0.39251235,6
1807,-0.7376651,-2.371287,-1.1985972,-1.6170063,7
1808,0.8835015,-3.4770386,-0.5738378,-1.2134075,8
1809,-2.5962362,0.022966921,-1.0689652,-0.84043133,9
1810,-2.5819585,1.5940533,-0.7336904,-0.8698254,10
1811,-0.97135174,0.21029079,-2.192754,-1.2498481,11
1812,1.4243064,-0.023514893,-0.65241903,1.0164589,12
1813,-2.2860224,0.037519693,-0.6368318,-0.3505907,13
1814,0.23475449,-2.189633,-0.023910299,0.7747077,14
1815,-0.4371261,-0.123735815,-0.88335264,-0.69317436,15
1816,-0.45878312,-1.0699804,0.0022686422,0.6065047,16
1817,-0.18404105,-1.3296503,-1.0502913,-1.9975711,17
1818,2.1874762,1.5777262,0.48000783,-2.3234935,0
1819,2.3208277,0.6865698,-1.7717239,-1.4510314,1
1820,-1.6633086,-2.891365,-1.191464,-0.63934356,2
1821,-0.030803839,-2.477706,-1.0031663,1.3601067,3
1822,-0.5436637,1.9965575,-0.4320897,1.4808029,4
1823,1.2949674,-0.39500436,0.4278574,-1.1331933,5
1824,-2.0938342,-0.16935435,-2.5607297,-0.45619005,6
1825,-1.1006335,-1.405588,-1.9559913,-1.4632008,7
1826,0.31070402,-2.9679682,-0.7716007,-0.7070922,8
1827,0.45473173,0.97169834,0.3222704,-0.6233422,9
1828,1.333089,1.7889733,-0.26591277,-0.6866013,10
1829,-0.9896138,1.7878556,-0.81121695,-0.8417875,11
1830,0.6951245,-1.2757801,0.87593555,1.3992852,12
1831,-1.1015754,-1.0756447,-1.7377297,-0.35565624,13
1832,-0.75988126,-1.950599,-0.8078867,0.17315543,14
1833,-0.5365071,0.32868955,0.55038375,-0.9324662,15
1834,0.025248395,-1.3816643,-0.72079754,1.5261966,16
1835,0.16670164,-0.14593048,0.3514868,-3.784112,17
1836,-0.90051913,-0.6527924,-0.57067156,-1.6251421,0
1837,0.7110028,0.7310279,-1.0151293,-1.0314343,1
1838,-0.40158862,-1.3352593,-1.3987801,-0.18345675,2
1839,1.2374355,-1.2289386,-2.0920682,1.6199841,3
1840,0.04817429,-0.7736163,-0.37349832,0.52191347,4
1841,-0.23384929,-0.33035672,0.24814025,-1.1935825,5
1842,-0.38913542,1.8420277,-1.5217273,-0.6672819,6
1843,2.1458902,-2.0997045,-2.089252,-1.273912,7
1844,1.911486,-2.9786212,-0.015542179,-1.6737776,8
1845,1.8368931,0.41322824,-0.76725835,-1.8509312,9
1846,0.9974674,0.9689272,-1.1828058,-1.2307063,10
1847,1.9511927,2.082822,-1.5335919,-0.89818376,11
1848,2.1933916,0.25672984,-0.17518532,0.5867104,12
1849,0.7675596,0.56545913,-0.3625887,-0.4331693,13
1850,-0.29733,-2.690812,-0.118539214,0.5633788,14
1851,1.1682451,0.65819496,-0.6399416,-0.8053289,15
1852,1.9043331,0.7379254,-0.8403196,1.4296414,16
1853,-3.3809214,0.17687765,-0.21601415,-0.28713822,17
1854,1.0647349,-0.42864287,-0.698194,-2.0403862,0
1855,0.088030174,0.836535,-1.5204036,-1.8323039,1
1856,0.74512726,-2.2157974,-2.0904307,-0.72818303,2
1857,0.37970865,-0.25798902,-0.53913265,1.2617425,3
1858,0.8152471,1.1457844,-1.3895018,1.0209877,4
1859,-1.127418,-0.5785321,0.3177545,-1.7089573,5
1860,-0.002223622,-0.1727489,-2.4932609,-1.0281596,6
1861,-0.56663394,-1.7392964,-1.1429751,-0.7435638,7
1862,-0.15348479,-3.060254,-0.43460444,-0.46067965,8
1863,-1.148574,1.036099,-0.4754613,-1.0117401,9
1864,0.4073962,1.3396688,-0.82903564,-1.148028,10
1865,0.85589385,-1.2907939,-1.7302967,-0.7201816,11
1866,-1.3046232,0.14800884,-1.6501813,1.038712,12
1867,-0.22552209,0.8455415,-1.5657778,-0.3865203,13
1868,-1.7285811,-2.1650894,0.04077819,0.46706265,14
1869,-0.9507793,1.0358902,0.5294534,-0.67603236,15
1870,-2.116053,-0.5600769,-0.69318527,1.5863152,16
1871,-0.40117624,0.8625729,0.95770615,-2.2591295,17
1872,-2.615593,-0.83612394,0.09829861,-1.5878366,0
1873,1.3094311,0.20110393,-0.9835426,-0.16100574,1
1874,2.519784,-1.5329434,-1.4311643,-0.72766984,2
1875,-0.5297164,2.7201595,0.07771242,2.3586264,3
1876,1.1417723,-0.9284135,-1.4914618,1.4192948,4
1877,-1.0184411,0.33575237,0.28358382,-2.068508,5
1878,0.2925789,0.7146545,-1.7882746,-0.5622686,6
1879,2.490401,-0.6925709,-0.71267873,-1.0164043,7
1880,-0.1388607,-3.0765293,-0.5864404,-2.1179504,8
1881,-0.016299836,0.21174455,-1.0916021,-1.1307033,9
1882,0.74494934,0.3091428,-1.3259554,-0.841677,10
1883,1.2683914,0.602996,-0.8309137,-1.0175734,11
1884,0.63417006,-0.9051544,-0.19800723,1.7349674,12
1885,-1.2450414,-1.2251263,-1.3084362,-0.14766708,13
1886,-0.059124842,-1.9445715,-0.06111075,0.74684215,14
1887,0.4573055,0.78090805,-0.5366767,-0.9633012,15
1888,-0.2846099,0.14868093,-1.07165,0.7386418,16
1889,-0.62158287,0.84864885,0.6809907,-1.840558,17
1890,-1.028556,0.12000199,0.2946444,-0.7639322,0
1891,1.6208282,-0.8867919,-1.6574118,-1.9529426,1
1892,0.08095669,-2.0693836,-2.1091437,0.17917967,2
1893,0.83975035,0.43967378,-2.234344,1.5343817,3
1894,0.16453008,0.43054557,-0.9785695,0.50442743,4
1895,-0.73985404,-0.7290854,-0.46977913,-0.5012913,5
1896,0.92419595,0.30007607,-1.7695857,-0.568871,6
1897,-0.28770506,-1.604022,-1.7863073,-1.6508617,7
1898,1.8917342,-3.2060459,-0.25558007,-1.3099024,8
1899,-3.022758,0.5136257,-0.815937,-0.24368864,9
1900,0.958128,1.2602651,0.2125122,-0.6204462,10
1901,-1.3306059,-0.077888906,-1.3642794,-0.9061674,11
1902,-0.803509,1.6545446,-0.38608122,1.2713579,12
1903,-0.13334133,-0.31139627,-0.8387166,-0.50611496,13
1904,1.0241725,-1.2402978,0.51366425,0.43142122,14
1905,-1.1749928,0.94946265,-0.09478025,-1.1327052,15
1906,-1.4606477,-2.249126,-0.59159034,0.9459584,16
1907,-1.3366644,0.73949283,1.2895505,-0.067278504,17
1908,-1.5328239,-0.44421494,0.06547135,-1.7382617,0
1909,-2.1090086,0.35943335,-1.289853,-3.0119176,1
1910,-1.2296013,-2.5160787,-1.331135,-0.5218195,2
1911,2.7710843,-0.82959646,-0.3570522,1.5774835,3
1912,1.2079068,1.565716,-1.4230666,1.1926938,4
1913,0.08442948,-0.20763464,0.95549214,-2.6822436,5
1914,-0.8968285,0.32906097,-1.569246,-0.44522664,6
1915,1.5595956,-0.9940832,-1.0597758,-0.7803172,7
1916,2.2957258,-3.2708244,-0.392599,-1.1445043,8
1917,-1.4951838,1.0246515,-0.22683463,-0.9240707,9
1918,-0.31808218,0.4772803,-1.3869925,-1.3671247,10
1919,1.0879927,0.8046128,-1.1676786,-0.94591665,11
1920,-0.92882526,0.031937048,-1.7583728,1.0928038,12
1921,-0.3704331,-1.8643665,-1.8865123,-0.49222255,13
1922,1.6118265,-2.4095805,-0.22999626,0.21529095,14
1923,-1.4216535,-0.45645645,-0.23528801,-0.53129697,15
1924,-0.114123836,-2.674285,-1.680619,1.2527539,16
1925,0.16033486,0.7949215,0.45278436,-2.8038268,17
1926,1.5886,1.3341702,1.2734524,-1.5590352,0
1927,1.3308872,0.5280785,-1.6476631,-1.5955514,1
1928,-0.46073663,-2.4457607,-1.7891079,-0.49472773,2
1929,0.6074597,-1.8147128,-0.883602,1.946873,3
1930,-0.25565556,0.8048729,-1.5719686,0.9493314,4
1931,1.404578,-0.48514286,0.5300311,-1.6307085,5
1932,-1.6388597,0.57592833,-1.562372,-0.76176673,6
1933,0.49052155,-0.3038413,-1.3445259,-1.0590804,7
1934,0.69075626,-2.86104,-0.34377345,-1.2778962,8
1935,0.10081737,0.4471125,-1.0929171,-1.0897516,9
1936,1.6389556,0.009178162,-1.9905486,-0.7848743,10
1937,1.1215186,-0.13079703,-1.8772525,-0.9506284,11
1938,-0.3027442,-1.0022322,-1.8204808,1.043835,12
1939,1.3745215,0.43459484,-0.07443982,-0.33323345,13
1940,0.2686186,-2.6463737,-0.46072078,0.31346646,14
1941,1.0149447,0.6666437,0.82333535,-1.0438923,15
1942,-2.520534,-1.6526835,-0.28904602,1.671016,16
1943,-0.36243516,0.39612666,0.02452761,-2.0600398,17
1944,1.0251862,-0.5626075,-0.9875357,-2.5865493,0
1945,1.4863589,0.29271868,-0.8925472,-1.7748905,1
1946,-0.92682785,-1.5354528,-1.9879215,-0.7495234,2
1947,1.2219269,0.5366374,0.29537165,1.7755213,3
1948,1.9312775,1.0454526,-1.5709876,1.0379313,4
1949,-0.06310084,-0.9919928,-0.013810694,-1.9822793,5
1950,1.0784116,0.5156683,-1.1834891,-0.3444853,6
1951,-0.039039582,-2.4546406,-1.4660945,-1.2503821,7
1952,0.24943648,-2.6162055,-0.46167496,-1.1896858,8
1953,-0.27958867,-0.42892015,0.12654257,-0.88448036,9
1954,-1.1342026,2.1200833,0.5377005,-0.5146103,10
1955,-0.5582614,0.078392446,-1.3478079,-1.2218568,11
1956,-0.044532448,-0.4847694,-0.659037,1.4030032,12
1957,-1.6383078,1.8211547,-0.8107692,-0.46825123,13
1958,-2.1810396,-2.7920146,-0.7160039,0.10088238,14
1959,0.35425848,1.0746188,0.17441066,-0.6071418,15
1960,0.99317145,-0.40212262,-0.41990364,0.9667636,16
1961,1.3448205,0.037653446,0.80679226,-2.2921116,17
1962,-0.75947857,0.46724772,0.352091,-1.9553883,0
1963,-1.8077576,0.49521488,-1.7425969,-1.2607722,1
1964,-1.3213389,-1.0622432,-1.272706,-0.3761719,2
1965,-2.9968433,0.46530452,0.2542075,1.1458149,3
1966,-0.9584725,1.1870221,-1.9005271,0.47551608,4
1967,-0.0932182,-0.16429603,0.46123868,-1.7313837,5
1968,2.2083466,0.5692972,-1.007963,-0.9402859,6
1969,1.4564013,-2.457933,-1.5637057,-1.1437275,7
1970,0.41548756,-3.1370304,-0.82927823,-0.9569405,8
1971,-0.35261387,0.82210106,-0.6737671,-1.04839,9
1972,0.7134795,0.93539536,-0.055311024,-0.97584677,10
1973,-1.5428499,1.1750607,-1.26993,-1.1621077,11
1974,-0.34934995,0.015087329,0.54232943,0.9688047,12
1975,0.9102386,1.8102412,-0.21238148,0.0420202,13
1976,-2.2700715,-1.4236326,-0.27737918,0.02270475,14
1977,-1.4034909,0.30648172,-0.004171565,-0.7701114,15
1978,-0.7980419,-0.5309306,-0.13706613,1.2131058,16
1979,0.4777118,-0.2756046,0.36630785,-1.8723356,17
1980,1.7594329,0.26328492,-0.1484466,-0.91156995,0
1981,0.091408014,-0.48813546,-2.3083534,-0.91425455,1
1982,0.9457288,-3.2534275,-1.4497111,-0.2952832,2
